-111
60
74
103
-63
-57
-38
-78
118
62
105
106
63
-57
48
31
107
10
27
77
32
52
-32
37
-115
27
-46
88
70
-4
80
-65
-63
-96
-5
25
61
1
-83
19
-56
96
77
-96
-109
-97
-52
-69
122
-34
112
2
-35
-81
-60
82
-52
86
8
3
-27
-62
95
-14
55
80
2
-53
-14
-50
27
-29
0
-48
-10
36
-75
11
59
110
100
1
-49
31
-51
-114
72
-78
-1
90
-120
33
-106
98
49
111
40
76
39
57
125
11
3
15
95
-115
-39
50
61
-88
40
-92
-86
-99
-67
-40
-105
-94
-80
-81
94
98
-90
100
25
-9
55
14
-115
64
87
-31
-39
-82
78
72
67
24
26
38
66
93
-87
124
-1
-49
88
-63
-56
44
79
-87
-109
112
-25
-14
-108
105
-122
-120
28
106
116
103
82
40
-81
26
-128
18
-117
-64
-22
-76
-100
-88
-121
-33
-40
-14
117
69
34
-75
4
-19
49
-59
35
-117
33
34
-71
-31
55
24
87
24
-101
33
-13
27
87
39
120
-109
40
-62
85
124
14
19
87
-77
53
-55
29
-24
47
-78
-106
81
-84
-56
-7
-46
-113
99
-109
26
53
120
31
-125
-126
-111
-36
33
-107
16
39
-40
-7
93
-74
-77
-3
42
-88
34
-73
-12
-8
34
90
-92
-102
-16
-66
-124
119
44
17
43
-65
65
67
-100
-103
3
52
91
93
106
30
75
-43
-37
34
-9
-13
-42
-65
120
-21
29
-13
-45
78
77
-8
16
-105
-119
-13
-55
88
-72
-17
33
104
-61
-71
-75
43
-16
2
-41
88
-73
-32
-77
-57
14
70
-55
79
11
117
72
-74
-27
-26
-71
-12
-36
-95
20
79
41
-10
32
92
-12
-70
35
105
-104
62
25
36
105
-91
-98
17
-57
69
-22
-117
-69
14
17
-33
45
-100
-110
-38
30
-47
-54
-37
-52
-52
30
122
-46
-80
53
100
114
58
18
52
126
2
-81
84
118
106
60
-23
-77
12
8
2
-75
-19
-20
-63
-38
113
49
88
-8
-127
-15
-111
42
35
-20
-110
115
54
-8
92
-12
71
-114
18
100
-44
-20
84
63
-106
-118
-34
-23
76
28
92
38
5
-12
43
-50
23
-106
-97
-38
-22
-69
53
34
109
47
65
32
40
30
62
-109
123
116
31
-82
21
-122
12
-26
-32
90
5
-9
86
-108
-8
-7
94
92
112
123
-92
57
-70
123
-1
120
-92
-7
4
58
25
-63
34
24
43
-90
9
17
104
-91
-30
73
37
53
-94
-107
-86
-89
88
101
-58
-64
-63
44
19
-118
-93
-24
12
-75
113
12
-127
31
92
22
-68
-58
-93
3
11
107
-82
110
120
99
-33
12
113
110
117
-2
29
22
23
67
122
-13
10
-48
-88
112
-97
104
-117
31
114
-119
55
46
92
4
124
30
-9
-30
-50
-45
95
-76
60
53
32
61
-53
28
-48
-110
2
-85
-127
74
-82
9
115
-37
92
45
-91
65
53
26
-42
73
36
-19
-8
23
10
-19
10
76
100
-43
72
103
-68
74
43
-116
-123
-45
53
-56
83
19
7
52
-127
104
-89
25
-42
73
-98
-43
-28
-70
-82
-78
56
-101
-109
-105
89
-116
120
53
118
-42
10
126
18
59
-23
-89
-17
36
-109
-126
112
87
-13
-100
-97
-25
-79
-119
43
-31
-27
-52
-31
-96
91
94
1
-108
16
98
-55
-66
10
16
-21
118
-24
47
-35
-3
-24
97
-48
-98
88
54
-84
68
-41
-28
114
46
47
-113
10
-76
35
-40
-22
70
-88
-32
24
99
110
71
-14
-101
-75
-25
33
-89
69
-95
21
119
-48
125
-110
-114
67
9
-35
-40
-104
91
-99
-27
-78
18
73
19
100
-41
-5
122
32
-110
7
-71
-16
-75
16
-44
-48
-32
-85
-30
56
62
-37
75
43
53
-12
-39
46
-54
123
-49
-10
-22
78
60
-69
-29
85
34
90
-60
49
78
45
-41
-23
-36
-2
-117
-77
74
-21
-37
4
-52
-91
2
-20
28
99
-76
-99
-15
-64
-89
49
0
44
41
-5
-108
33
122
56
110
119
29
-31
-59
35
-95
-11
-32
35
0
84
105
110
35
-95
35
-51
79
-22
61
-13
-62
3
114
112
68
55
-39
-6
-46
-16
-33
-2
120
1
-36
-98
-47
96
-57
-27
5
-49
18
16
68
-59
-41
-10
92
95
-97
-88
118
-80
115
-48
-82
-113
125
-125
-86
-101
11
-36
97
-20
-103
-82
-108
-90
87
-97
117
-72
114
-29
-98
117
-121
-8
-44
55
116
87
-121
102
8
-118
118
16
83
-109
94
49
-11
-89
59
-124
-47
-108
26
-34
-51
78
20
14
61
97
98
85
33
94
0
57
-59
-84
-123
-62
107
106
-46
83
65
-47
106
-101
50
-110
117
-103
-103
117
-40
46
-24
96
61
-121
-24
-6
-85
-25
-17
-16
-30
83
-52
-12
27
-45
94
-79
-78
31
25
5
-74
94
-20
-16
-41
70
-32
-17
-84
92
111
85
109
-75
-59
19
95
100
73
120
69
63
-51
-49
122
37
-39
-81
88
102
111
-12
-70
5
56
-9
19
3
-67
-76
-41
-16
82
-16
82
-54
-39
-37
10
-83
41
-88
113
37
27
-66
-21
-71
-24
-5
28
47
-23
-29
96
-89
-102
-14
22
122
-17
-91
-109
82
104
-103
-55
-102
-42
-119
-22
11
-74
-117
-3
83
-6
-128
-36
56
8
9
-60
-19
-39
-121
-93
-106
-83
17
-12
-31
43
-10
-99
-49
-98
-3
-93
69
87
-20
5
121
63
-74
50
44
-123
-86
115
-3
11
-36
-89
-88
63
-45
-87
66
-72
88
-49
8
98
-99
-122
-37
-122
68
-63
-1
24
-101
-25
-33
0
57
-6
-19
55
62
-65
-122
-127
55
-45
-1
30
-108
91
54
29
-76
-97
-48
42
-87
-6
63
-103
-22
76
34
-75
-84
44
-80
-60
90
94
-12
-42
-111
-84
-126
115
68
-110
-45
22
59
82
103
-116
15
22
89
-14
17
-48
-97
-71
11
70
70
-18
31
-51
-18
-95
16
108
-14
55
15
118
-13
121
-65
76
-22
-34
-17
-10
-8
31
17
90
61
1
99
28
104
43
89
-48
48
41
86
72
-83
88
41
90
75
-96
-44
21
66
-70
58
14
94
69
49
89
-43
-82
-91
-95
78
120
114
61
-9
23
64
-79
-81
-105
-80
98
-93
-22
-109
42
94
25
-77
112
-30
-3
-66
14
-75
45
-28
95
-111
80
44
87
-65
99
92
-7
-63
39
88
-1
103
68
-23
-31
16
-31
59
32
-88
-72
-28
-48
40
-41
-95
90
-20
-111
-17
67
57
120
-112
-58
-11
-45
-92
103
109
101
-126
-119
-31
11
-60
-66
-64
-83
-33
104
-36
7
74
47
-74
-67
27
8
30
87
-117
45
92
-60
-91
-118
-53
92
60
-14
-122
-22
-79
94
65
-113
-76
-80
33
-102
93
93
105
-34
72
-91
98
-33
-2
24
-78
48
-112
-76
-45
9
40
87
106
-68
-126
-66
-13
10
121
-104
69
96
-120
-78
-66
-25
26
-67
4
-75
-53
63
-110
107
86
-92
-40
16
-11
117
82
-18
-44
-82
-67
-21
-106
-100
-98
-39
-44
17
63
118
45
-20
-118
96
-19
-59
74
-105
-33
-74
31
-34
21
84
-66
-72
62
-102
80
68
86
50
20
-124
-89
-84
-42
-88
-69
-23
11
-23
-100
-70
-60
116
17
105
20
61
-119
-72
-112
-71
-84
-43
80
9
-38
-126
-40
-108
-103
67
90
-31
41
54
10
-30
124
122
124
64
-35
78
36
27
-4
-10
-68
-35
60
-95
-113
-126
-21
99
-44
-2
122
108
-36
77
15
122
-44
-113
-86
62
-105
-116
-37
102
61
108
39
-17
104
30
60
-84
23
16
-84
-88
-5
108
-117
-84
51
33
-25
-49
-82
-74
14
102
-63
126
-8
-57
47
-123
-104
116
-76
-128
-34
56
27
-101
97
71
31
39
65
3
-112
-115
7
77
84
-46
101
-42
82
-16
40
9
21
-9
94
69
-108
-124
117
-112
101
94
-113
-67
104
-17
-22
-22
31
25
54
26
-39
-100
-35
-98
-97
21
97
18
-63
-102
-82
84
-6
28
-89
-1
85
55
-116
47
-75
42
-97
-122
16
-112
-34
-126
103
-92
-89
-93
-88
120
-94
-114
-58
-20
-3
18
-84
81
-101
-67
20
126
106
112
-66
82
39
69
-75
-91
-61
-106
-11
-101
7
-74
-39
-109
-66
28
-95
52
99
-87
35
35
-30
9
-75
-74
60
82
-98
15
5
8
-106
-54
89
77
56
-10
65
13
42
26
-99
-93
-80
121
48
-112
-126
23
-92
10
43
-50
97
-98
71
-120
-114
-3
61
13
21
-27
77
52
42
104
-82
-18
113
122
-103
-73
-29
5
-103
-102
119
-124
-60
44
-127
10
66
-118
58
9
-102
-29
27
-111
61
-117
90
-107
94
-48
0
-39
56
-116
-33
-121
-61
68
-5
69
-47
92
8
-58
0
83
21
2
-103
5
-43
-51
-89
66
39
88
-58
-81
99
65
14
-84
-123
-48
78
-45
-114
-17
83
16
-30
-3
113
-5
-62
-51
121
-101
114
-16
-88
77
-55
7
-119
-72
-64
33
-28
-46
30
6
-76
-98
109
-48
-55
124
-101
56
-86
-4
-108
-101
-121
-28
75
-27
-85
82
-66
-85
-109
-36
-29
29
-22
123
56
-4
-64
57
30
45
-28
104
-17
-57
-61
111
-47
1
-7
-125
104
-107
-90
82
80
-39
-94
-63
-73
-71
-93
-75
-101
29
-120
24
-28
-105
2
57
-42
-30
-96
114
27
-68
17
-114
-78
-33
-95
-40
25
-46
91
91
48
-105
-4
-18
20
-1
73
-30
89
-126
-2
90
105
-86
14
-32
-6
86
-18
81
-8
-124
55
-123
-52
-49
-30
85
-101
126
-69
-34
114
42
49
-4
-37
74
123
19
-6
72
-64
-26
89
96
-16
32
111
-76
69
-12
58
-91
25
3
-109
66
2
18
79
-37
13
-26
-5
-113
-39
46
70
52
-95
9
-66
36
-79
9
-75
-128
-46
51
-91
-37
-93
-14
-117
44
54
116
-110
-61
-127
95
-19
118
-113
-103
-18
3
23
33
-30
32
-99
68
111
18
82
-124
96
-52
73
19
80
70
-92
-6
-112
28
125
59
-103
51
-55
-120
119
-118
-26
-88
-1
123
-22
-8
121
18
42
88
72
-3
-8
-108
-14
-127
100
-35
88
-98
-5
53
-11
-85
-83
-4
122
-97
68
-102
-24
32
-93
69
88
-41
108
40
-116
-62
59
89
114
96
-83
36
6
115
-22
39
6
-126
-72
57
-29
-120
64
-128
-13
-69
20
111
103
-15
-109
11
-55
-47
43
-54
-84
53
-8
43
-97
-72
8
-63
-43
-74
-11
-90
-28
-16
-6
-30
51
36
49
-77
-35
-66
40
-111
100
-92
-29
-73
19
-104
118
-67
63
29
-14
-70
-19
36
-86
-123
-128
111
111
-58
44
-36
-120
112
-96
-81
91
-72
125
88
115
7
-54
63
78
124
-74
-11
81
112
-121
99
-81
-128
78
-33
43
18
34
-65
49
103
-12
18
111
21
-92
-13
-65
9
4
-24
60
-51
95
-33
-23
-17
85
-44
39
92
-119
-25
81
-59
71
-84
2
94
-39
-95
-43
-43
81
40
-96
26
-111
-122
-105
57
-44
36
-115
49
-66
32
116
-46
-95
101
57
-36
7
-1
115
-120
119
102
-73
-15
111
-84
22
59
-34
105
-114
-125
-90
124
85
-123
-4
-7
37
99
-104
-45
85
44
-15
107
114
93
75
60
-72
-5
27
117
-8
41
-33
-101
-53
17
-7
49
-5
26
-66
92
-108
-120
-41
-92
124
-21
-38
-118
16
121
120
17
-85
12
53
-78
-92
83
28
19
-62
105
94
-77
-32
-86
106
-48
124
79
-69
52
-60
-32
-96
49
-36
36
-26
82
-60
90
38
-35
-128
-125
-87
68
-26
-86
-57
43
-77
103
-56
60
56
22
120
-86
-121
53
101
-23
101
-36
-59
-126
-95
-102
84
124
-18
33
25
125
95
-60
-16
-90
8
-16
-122
-86
-35
32
-97
85
-111
-19
86
-23
-92
-21
99
-5
-68
65
-84
9
-128
-81
-105
29
34
-47
120
-26
12
-54
65
124
-15
-23
-66
62
-42
-14
-63
-80
99
-14
39
20
107
-57
-126
53
116
-11
38
56
-29
-92
-106
57
-70
-43
-101
-112
49
-33
54
-13
-85
86
-21
-122
-64
8
32
-15
18
-53
-83
96
-116
112
-91
-101
-54
-51
76
-42
-119
-66
125
-64
-57
-60
-8
38
-75
13
41
7
-127
-55
-5
0
-44
81
113
65
58
-71
120
-120
108
63
-68
23
94
-94
-101
82
-18
-45
-53
98
123
-102
-119
82
6
-43
-28
-98
-25
60
-117
84
95
-37
-24
61
-109
-36
87
-94
-115
-12
-109
34
-42
-31
-98
51
-100
-115
16
-105
-58
106
121
3
-13
17
-32
-8
-62
-41
-46
-66
20
-82
66
126
-100
113
26
-62
-52
119
20
-28
-4
-105
46
2
94
38
82
27
-66
-87
42
-106
-116
-125
-90
77
-96
-127
-64
113
-40
52
-91
115
124
6
-1
-99
-55
-82
-89
-80
-56
84
-74
-128
49
-45
-35
89
-33
-65
-41
107
104
-72
-40
24
-104
41
-54
-67
51
-13
92
76
53
-101
-55
119
-107
82
114
-106
3
-52
3
88
-9
108
105
121
-119
-24
-9
-73
14
41
36
-102
73
-122
-40
43
-84
-96
4
62
26
-13
118
-11
3
74
-117
71
69
43
-127
98
-17
86
-70
39
120
108
-19
55
-50
-128
74
-62
-72
-116
100
100
27
-28
58
-98
-20
-127
-85
126
-87
-60
63
-44
59
-107
-8
-94
-18
-97
104
-30
60
-95
-66
-16
-96
-63
125
92
71
18
-28
-4
-118
109
47
51
-97
-98
3
101
99
-99
-18
18
46
4
58
90
15
10
40
-17
-116
-89
-71
-20
-61
-53
-63
-109
-4
66
5
67
102
124
-2
-42
106
-47
-39
-21
47
-25
110
-108
101
-71
-64
-7
-73
99
107
-47
124
47
57
56
119
74
-37
82
99
-75
-21
-124
105
71
89
106
-29
-97
-28
69
90
29
117
38
-26
-37
-10
-96
11
46
114
-10
102
-55
-18
-88
-44
111
-41
-12
16
75
-10
86
96
64
23
68
-25
-116
-73
89
-26
76
-40
-90
-96
-100
-31
-6
-86
-83
-55
12
-48
40
116
119
-21
-101
-22
-26
-77
57
-96
-7
-70
-23
-14
91
-32
87
-122
-86
29
-90
-10
99
59
-3
-34
93
99
-50
-115
-83
92
-45
53
-33
99
-55
58
-121
-117
-107
20
55
10
51
-18
65
76
-19
81
-72
44
-27
55
100
110
34
-123
96
89
55
-85
-91
12
41
-94
-39
-49
74
117
-1
-111
-113
97
4
-97
-63
-26
42
49
8
77
-17
74
-68
38
-2
63
-64
-46
9
-89
-52
-104
76
-40
74
-67
-19
61
-106
-31
30
-39
93
-91
108
110
-69
124
-7
-13
-43
-109
-11
-127
-121
-102
-16
22
31
-34
122
50
20
20
46
-19
124
34
-114
-113
-86
81
-111
100
49
-121
-6
14
9
37
104
-52
-22
-1
80
11
14
105
109
-29
-65
106
92
70
8
104
-100
-51
20
-24
118
3
-92
-40
102
-25
71
-122
-5
-62
53
78
7
100
-13
16
84
62
30
105
-117
88
-36
-13
-103
-53
32
75
-101
-101
126
-61
-37
28
-123
105
-5
-85
-94
62
38
-116
7
-95
-31
-45
-117
34
-102
-65
-93
34
40
117
-89
26
-112
-107
-73
-103
95
-67
124
-128
-20
-76
-118
-101
87
124
13
84
74
-28
31
73
-110
78
80
42
2
-105
86
-12
-103
-122
-124
-42
39
62
-86
-16
-106
3
-29
-20
-48
-47
101
-37
92
-19
81
-83
99
-108
-24
63
29
-29
26
110
42
-122
27
-40
-108
-74
36
-88
7
-87
112
-38
51
-107
52
-116
-15
-45
-97
45
-14
23
118
-21
-32
-44
-33
38
-104
111
-9
10
-51
27
48
83
-77
-48
47
25
-8
-85
124
74
29
-20
1
-67
110
-93
14
-83
81
-90
-18
44
51
-60
-93
-63
-109
-64
-80
14
81
60
-98
106
-103
92
-44
97
-75
-92
-108
-96
-17
-98
23
-55
105
122
42
-89
-125
86
-69
57
-24
104
-125
118
7
75
70
-64
100
47
-109
79
1
-16
-63
-86
-10
5
86
-106
114
58
26
18
-61
24
63
1
-68
-59
28
5
77
86
21
-47
126
86
-42
-60
-42
54
116
26
-57
-77
-75
-30
-14
-121
57
71
-35
-73
84
16
69
62
61
65
-116
68
-66
92
52
-124
76
-97
-90
52
-3
-70
42
-19
105
50
-38
65
12
-87
-48
47
20
-121
-80
-92
9
-105
40
97
-51
102
80
29
-32
-60
-101
-87
-42
37
101
45
17
-12
125
-50
6
58
-17
85
-92
-63
-4
77
52
15
-124
116
-51
-45
84
88
14
-71
59
75
-112
125
-21
125
-47
69
-39
-51
-50
2
-47
41
104
44
10
-78
82
-2
-13
33
-59
61
-72
115
-18
22
106
12
58
4
-26
-61
108
-128
25
-90
90
33
15
-121
21
-31
-58
-78
106
-59
-112
16
41
117
18
-20
100
18
-8
36
-57
-24
-15
87
56
-18
84
78
68
117
-63
95
-124
0
4
105
46
-77
110
-13
-116
-94
83
60
46
-51
121
-111
-114
-113
-22
-94
-100
-28
45
57
-53
-107
98
-5
-31
61
-54
-27
83
-43
24
106
-29
-6
-29
67
74
67
-19
-105
-128
13
-20
118
86
-34
7
-13
-28
-63
125
-30
-66
3
102
124
-33
64
-35
-108
-91
-125
-46
-69
123
52
-68
83
-86
15
-3
-35
-95
59
22
-95
-119
110
-57
-91
-7
-114
-89
97
-64
43
55
103
-56
-75
40
-54
-86
-25
46
91
23
-7
-33
14
49
-77
-70
112
62
108
75
-69
16
23
71
-115
57
-105
30
69
-90
-80
-21
45
-67
-97
57
100
105
-109
-23
58
57
-104
120
17
24
101
-97
100
-121
121
-91
-126
-18
113
39
4
56
-65
42
-80
24
123
39
-38
18
-110
19
-45
-124
64
-84
48
113
-113
95
57
-128
-29
74
-52
118
86
-34
-17
-106
100
89
78
61
56
-101
-103
-83
-79
91
29
68
84
-62
-25
-80
71
1
1
-5
99
34
-4
-34
94
-50
-110
-34
96
-19
-58
-103
116
-107
-12
-46
100
-124
-21
-59
-118
-47
25
-97
-124
93
-30
75
-96
55
-56
46
-1
-43
40
92
-23
48
39
0
-18
-71
-100
15
97
-91
-27
76
93
53
92
-127
64
55
-69
-55
-21
87
92
118
89
65
54
-22
120
-47
85
20
-128
5
-20
-110
-51
-115
-127
7
86
9
58
40
-69
-45
1
-8
90
-118
-114
-12
62
75
61
10
59
26
-34
-100
5
24
-58
-92
-27
-55
104
-3
91
60
115
-116
-62
-9
124
83
-73
-58
-74
77
60
-13
-82
-37
-99
-121
-59
11
-92
35
84
51
40
-112
70
92
-45
-14
72
-4
37
-62
-55
-52
-46
-60
80
3
-101
-11
-79
-125
-70
-42
62
-35
68
-3
2
104
-110
-95
-125
4
-115
-125
-84
-37
-25
-66
25
124
39
3
0
16
-7
85
-127
19
46
-70
11
20
-44
25
-71
81
107
74
-118
92
6
-52
63
108
85
-83
72
71
86
-120
101
120
102
-21
46
35
62
117
-29
-109
-119
72
-53
86
18
23
6
75
-96
119
-73
92
-18
-114
62
66
-34
-28
1
119
-51
-22
115
19
-116
33
-121
-21
96
30
106
87
47
-17
30
-47
95
58
-7
117
-109
49
-108
-24
26
-117
32
119
-12
-1
-21
-46
-94
-77
12
123
118
25
66
110
74
58
-78
44
-50
-40
-96
-86
-94
-29
-64
-40
122
110
-57
-102
76
-52
-79
-124
-76
-5
-51
46
-106
12
109
37
8
47
-105
79
-4
-61
-8
-125
-68
-15
-30
-112
27
-39
126
-103
8
41
-98
-56
-120
0
110
62
76
-47
-40
-23
-37
109
-93
32
-22
-112
66
-37
95
4
44
105
-74
118
13
-63
-112
11
18
-6
38
120
-45
58
57
6
107
-45
50
-28
-52
45
-71
-58
-121
108
47
-71
89
54
-101
-5
16
40
-120
-81
-81
109
-98
114
-82
70
111
-22
-13
7
124
-60
-117
-33
-59
-88
-19
96
30
-25
-42
31
79
25
-108
96
-24
50
-4
70
-128
53
90
76
16
-27
58
-20
37
-52
71
125
51
-122
91
41
-123
-27
-21
-34
48
-42
102
-40
-15
16
-107
-81
13
122
-97
65
7
53
-49
-106
112
101
-22
83
-95
-97
-33
-66
20
-86
38
-20
33
54
86
87
73
-45
-114
63
-116
-53
37
-33
-41
18
121
-55
103
-29
43
-14
50
-117
6
95
-71
1
48
112
115
-44
-92
125
58
22
-100
51
-40
39
-94
-26
-117
71
-82
54
-12
48
53
-118
22
-56
-59
-32
-87
47
117
-70
25
98
-7
-95
99
53
66
-101
-78
-53
-5
9
-1
-126
15
-61
-66
-77
-109
-94
29
39
19
-104
52
53
-68
40
16
38
54
109
9
-7
-95
-51
99
-78
124
-56
112
-18
89
111
85
15
112
-117
-101
113
20
-73
-47
-128
-7
69
105
-76
-55
98
-20
-88
-72
44
18
-103
-60
-10
72
-22
24
-67
18
76
-39
-22
56
101
99
101
-25
-14
114
-49
-87
-62
66
122
66
46
93
34
-91
-45
-70
-31
-118
103
95
-79
-91
-77
92
0
-84
-13
112
72
-105
-68
76
11
3
83
-122
-102
-1
78
-95
67
50
-98
-92
-105
-92
56
30
-101
-64
80
-41
-104
-55
-74
-19
-26
-97
-24
52
48
-75
-116
-117
-100
-65
69
-45
-56
25
67
-59
-75
74
76
96
45
-55
6
-118
19
-13
82
53
37
-70
44
72
-21
75
82
-60
-96
84
103
-125
-95
-119
93
-107
-4
116
-124
0
117
40
-53
-122
-79
-36
94
-60
-57
24
101
-90
-105
-29
125
40
48
47
34
-54
-7
-32
60
104
100
37
109
-15
-103
-47
72
-84
73
106
22
-99
-15
76
57
-38
1
9
58
66
-9
-87
-43
-115
-19
18
-22
-24
-27
-73
-87
-21
43
-44
120
37
58
43
36
47
-45
40
-57
85
104
108
-35
-54
53
105
-41
49
11
-113
80
119
-68
-86
-27
-115
38
-111
-81
77
74
6
102
-118
-44
-31
-54
-104
34
-37
-11
93
29
-121
13
-5
-126
-49
-36
-117
-24
43
-56
-124
24
-7
-19
-38
117
-65
-31
-112
103
77
-31
-126
14
113
83
-25
-70
16
-108
-45
110
2
84
-71
70
119
76
62
47
25
-10
124
42
84
92
-69
6
86
8
103
-39
3
-56
115
47
23
34
-5
84
6
-123
-41
119
88
-102
63
-30
81
111
99
-67
22
-69
-52
124
-6
-47
-53
-22
80
-10
-103
113
-84
39
19
-78
75
-110
40
31
112
61
60
-107
-35
93
63
-85
5
30
-115
114
-8
110
74
81
54
68
-80
78
81
84
26
21
104
103
-30
-76
16
31
-53
48
-121
65
-123
22
7
107
-113
111
80
19
-73
47
-90
-75
-16
-122
-37
73
-117
-103
-82
-47
-9
96
-76
-123
36
-65
87
-24
-45
26
88
-10
113
10
55
61
-42
-125
30
-75
-49
13
-98
108
-119
-51
-123
106
-57
-103
-122
-14
-114
-114
41
-35
-42
76
75
-114
-115
-118
-45
20
-70
29
-42
-83
3
-24
-25
29
-28
-8
-60
98
89
90
91
100
-86
77
-104
-123
-9
-2
39
-51
-27
-108
54
-105
-45
17
36
-39
55
-74
61
-34
-28
-11
-49
-82
-93
70
-71
107
22
111
105
-116
106
-54
79
-107
-110
69
94
-31
-32
124
-110
-61
122
-76
49
-81
112
13
86
-54
32
-38
74
-105
-43
-123
-97
-46
119
-32
47
104
-121
35
-18
40
-93
-15
-92
-66
102
-46
-109
126
119
101
-25
105
15
119
68
86
80
22
31
-109
-45
-58
-73
117
118
-120
88
-26
39
5
-14
19
98
4
119
32
93
42
-36
-122
34
-26
-37
71
44
-33
79
-5
-46
41
-123
74
-63
68
-87
9
-65
66
108
-12
-112
124
-33
111
-87
-93
75
76
-47
82
-12
72
-110
118
-29
20
61
-55
-53
-61
33
13
115
-45
-21
-41
-93
83
114
-56
9
108
-106
31
-43
8
-87
-7
101
103
-84
-122
17
-72
6
85
-3
11
98
-63
95
28
41
34
8
-98
84
47
-94
79
9
126
-118
75
63
-95
-68
-89
-51
-40
119
55
-1
-102
-66
77
68
-14
30
-118
-97
106
21
8
-28
116
8
2
95
58
-15
14
-91
125
40
94
-32
-101
93
-57
-99
72
-55
103
48
-17
66
-53
-8
90
31
115
31
-108
73
-50
17
-63
-111
-1
-75
-66
-86
-41
-50
82
-109
21
49
97
122
-22
-4
107
-9
86
118
-115
117
-53
0
-127
26
3
88
-110
68
-73
37
86
-90
-54
43
-32
85
-30
31
-42
61
-83
-66
26
-103
40
-95
41
-23
113
-90
-23
-31
87
-120
55
112
60
-19
49
47
36
41
101
31
23
66
-90
46
86
19
-83
-45
117
104
-68
-24
4
-22
-108
59
-67
-54
96
85
15
56
-21
74
56
-66
-48
-1
-117
0
4
61
-109
9
96
78
-36
7
74
91
-100
-92
-114
69
-96
23
11
36
6
-40
120
15
4
-88
-88
119
101
12
16
-71
-97
-96
-44
-122
75
82
-40
-6
-84
-108
-107
-38
57
-105
91
44
32
108
-31
-103
57
23
78
15
-1
44
-58
-52
56
84
30
-27
-120
-93
-83
-106
-108
-85
-97
21
41
100
-57
98
-79
83
33
-17
65
-51
65
98
-122
94
15
-71
-45
-101
-115
-51
-101
-21
-41
-123
-20
-66
10
-18
-124
-38
-126
-121
124
90
4
-51
28
2
20
41
-108
-44
110
-67
-1
-120
-125
-105
116
0
-117
77
-68
34
22
35
47
-55
58
101
89
11
-70
-7
73
-89
120
16
108
58
-4
-120
-12
-67
95
-17
-114
92
66
49
10
-90
82
19
-44
-100
33
23
98
-64
-42
12
84
114
-93
-44
-24
-15
63
34
-95
-75
-1
51
-64
-34
-77
-119
-124
-47
107
45
-96
120
120
-41
19
101
109
-46
0
-61
105
48
15
110
58
-24
114
-47
1
-68
-126
-102
-128
-2
2
-100
-34
35
-55
72
-38
110
26
-44
-125
124
120
-70
-127
21
71
43
-34
123
-5
58
71
-77
-108
-52
-50
90
-109
117
120
-18
-27
-98
91
-121
28
111
20
86
11
2
85
2
-103
5
14
-85
15
94
-78
-114
42
-112
-4
106
-38
-88
62
9
-103
-66
-112
120
118
15
-81
11
0
-122
-108
32
-62
-6
33
54
-16
-105
-60
14
-68
-15
41
64
20
-116
-18
-33
-44
-35
-123
82
93
72
-1
104
88
68
-23
-24
-53
1
2
-8
-41
72
74
56
92
97
119
23
39
12
66
-14
60
95
-39
41
84
-107
83
-11
58
-93
-70
62
-118
58
-90
-69
-7
-87
-58
37
83
25
-24
14
-87
43
-90
81
-58
34
100
33
-47
38
-74
-91
-87
24
-119
17
27
-59
-72
17
121
-6
-71
-27
-111
89
-113
-116
17
-35
-57
-96
-84
32
30
92
47
-61
111
-79
19
-12
-7
58
67
-46
-47
-25
-17
-56
106
54
-108
2
-26
-61
35
51
-77
117
13
106
-100
122
73
-28
-2
-15
-41
-18
-83
-76
-103
-1
-5
51
-38
76
105
66
39
-49
65
84
10
124
-77
-91
56
-92
-16
34
-128
-87
-46
-17
125
105
-94
-107
1
-74
115
-42
55
-100
-127
50
32
106
124
28
2
-61
-66
-81
-116
83
-28
15
57
122
84
-14
71
81
-16
-86
73
-88
10
120
101
-45
-44
121
121
-72
90
-83
-49
124
-1
-40
-49
95
-124
-126
-24
69
61
117
-14
-56
-120
119
-45
-26
-65
91
49
-67
-7
115
85
-38
38
6
17
115
13
-9
-71
32
-81
108
-33
102
63
62
-64
86
-57
82
-100
-8
-106
-79
82
16
-40
-119
-53
-87
109
-72
-61
-38
67
-6
-24
-57
101
121
93
45
-23
-77
67
38
-20
-101
23
81
-21
113
113
-44
-61
-65
-89
122
79
88
-51
86
-96
-29
-16
-17
-21
-62
122
-96
-104
15
-35
-73
-107
44
-33
45
74
43
-65
-46
-87
74
91
68
80
-119
119
32
68
0
-42
-108
122
45
10
-28
2
-20
109
27
-66
75
-94
66
99
-35
-51
66
-41
-51
113
-46
67
45
-47
-80
-78
-125
51
-33
-58
-86
-126
-93
10
116
25
43
-18
-75
-56
-125
10
-76
68
98
87
64
-104
-38
-57
17
76
99
-62
41
93
58
9
71
-39
65
-100
-65
29
118
-109
-94
-10
55
118
-16
-93
-57
-122
-12
3
-63
20
-81
-51
85
53
50
-108
-110
37
13
-76
0
-21
102
-11
2
12
-70
-93
1
99
-87
-117
77
57
-110
95
119
-49
-42
90
14
116
-81
30
22
-21
68
66
-101
-36
-63
-95
12
-23
-45
-17
67
85
-79
-42
81
88
61
-80
-81
103
-58
6
-86
-106
-73
100
-20
-1
45
7
-47
60
97
21
-70
59
-69
-73
-92
64
-41
-112
-123
57
-105
-16
-27
-85
105
51
-83
-13
106
-116
83
61
6
-8
48
97
70
-88
61
66
-40
55
25
-48
102
62
-17
-26
-49
112
-60
-100
19
-83
-43
119
-50
-51
34
37
82
-63
20
15
-70
45
-3
92
-62
-119
-52
-80
-27
-7
125
117
-42
91
-38
61
-83
33
-74
58
38
103
33
-59
-93
32
16
-102
-63
-102
-4
-117
16
107
-53
-8
1
88
27
-124
86
125
-100
-128
99
-14
-75
120
-52
-63
30
105
71
-106
-76
123
-64
56
100
-23
108
71
35
-61
-3
48
102
10
38
111
-43
-58
52
34
-124
-6
6
-124
-67
-12
-28
-16
40
126
-22
-7
-63
-99
7
112
-22
24
19
61
124
-13
-48
9
-55
100
67
-86
-89
-100
77
-31
-108
-56
98
102
102
15
-63
-33
74
-101
26
-93
-50
121
49
60
108
-89
-15
-35
-34
24
-94
8
-72
-37
-106
72
-36
-94
35
-76
-121
38
-59
-81
112
-16
-94
58
72
-81
-45
-84
-107
5
10
-28
-26
-58
-21
41
21
75
-54
116
17
5
35
99
117
-36
-61
-62
-41
11
97
16
54
52
-68
39
-108
3
61
98
20
-84
-123
55
60
-66
-26
43
-74
-114
54
-115
124
26
23
73
26
22
-20
-104
-77
-118
69
120
83
-5
-82
-124
-86
-42
105
42
-19
-85
-115
-30
39
-73
-56
-43
-83
47
89
23
-100
60
-39
27
104
124
109
70
-112
-109
66
9
-122
-60
-70
74
-120
-80
114
-106
-105
2
89
-39
-76
113
-75
33
84
-77
-68
36
3
-114
1
12
49
-37
78
1
-56
-115
73
-26
117
49
-14
71
91
-63
6
9
-95
89
38
95
-98
-92
-27
-97
-107
97
124
67
37
17
-102
15
95
-37
-44
-69
16
-38
-90
18
55
107
-79
-40
13
98
60
-126
-31
-36
-11
102
-17
58
92
59
9
-77
91
64
-114
68
-112
-1
-58
-99
64
-12
-5
6
90
-92
79
-71
-73
95
15
126
4
64
125
-12
-4
24
28
-71
-64
-61
8
105
118
-91
-66
60
0
-85
71
56
-2
-17
81
-83
-101
-65
-7
33
18
-66
53
65
29
72
23
76
77
83
69
-34
-29
-42
-32
-76
-40
52
-26
0
-7
-30
21
-71
90
-123
-3
-62
-101
-25
56
49
33
-27
89
-61
8
6
-37
30
-34
54
28
81
-112
49
-127
-22
47
116
-120
-72
-107
99
122
99
92
-53
-92
-120
93
-116
-14
102
80
-101
-100
-70
-94
37
-64
-67
104
77
-63
-104
67
7
76
-32
-126
-29
47
50
76
-43
-128
70
105
-78
77
-18
99
-102
-24
34
59
-65
42
59
89
-121
-11
117
-102
51
-73
-12
-107
-126
-18
-112
32
-33
67
100
107
56
-61
-104
-29
-101
-12
116
-62
-94
-118
24
-11
-57
-109
-76
-123
92
-17
-29
-18
103
101
37
47
69
118
-44
0
2
-31
-102
109
30
78
103
-56
69
15
70
28
-113
-109
-76
-36
-35
-37
124
43
-126
-84
4
-5
-43
23
82
-71
-91
28
-99
25
46
78
-91
58
-80
102
69
29
-69
6
63
126
-115
25
44
28
-13
-99
-24
63
106
105
59
-80
114
4
-27
125
-53
6
-16
-114
1
-45
-90
68
116
-113
-23
-112
-79
-54
25
-107
125
-45
26
72
-108
-72
-94
29
22
97
-103
101
122
71
-60
-94
5
-79
97
-120
100
-82
76
88
79
18
11
9
-104
-68
-23
23
-48
87
-38
96
-4
-33
36
112
0
61
-16
115
4
37
80
-37
-39
96
90
100
-35
-13
-18
91
107
-54
63
-50
-83
-90
-68
-97
104
75
-77
64
104
-3
112
-18
-38
118
-103
-117
122
-6
-43
-30
28
-114
-52
-82
58
4
-57
63
-114
18
-110
114
-21
96
-34
47
103
9
94
11
-128
-90
65
-121
-70
-74
25
-38
-45
-44
-44
82
-96
-83
-115
18
-16
-21
-52
-115
-36
78
-85
-120
108
-65
88
-52
-51
-123
55
24
86
-62
-5
-80
-26
-17
83
-20
-128
-47
-73
10
34
-109
-94
32
-92
-96
-43
-13
67
-114
-72
-57
48
71
-23
17
13
-74
-18
14
-32
39
96
15
-5
43
-86
80
111
-59
2
-75
96
110
53
92
-81
73
27
-124
-112
113
-114
-69
93
5
-10
5
-99
-53
40
66
-92
-128
72
110
-28
73
31
-38
101
-46
-35
-89
34
-115
-89
-38
46
-122
72
51
18
16
-70
63
96
-93
-95
-113
38
113
-41
-80
-52
-32
-109
105
101
103
116
29
120
92
25
2
-97
12
-6
44
-33
-87
-47
45
-102
95
90
-4
18
41
-25
-109
-112
64
-58
94
92
126
32
-98
86
-86
63
120
-116
-52
9
-117
28
-36
53
5
84
17
-68
-33
-79
87
45
-95
114
-47
-113
-36
119
40
-57
-109
5
-58
103
11
-102
45
-6
12
-29
-112
-77
-6
-80
104
2
120
-125
19
35
74
-86
4
-44
-115
-4
-42
68
30
-91
24
74
52
-102
-123
2
-12
-104
-99
99
119
-11
98
51
121
17
-1
61
67
-27
3
18
126
-14
-12
-62
44
123
83
94
-19
5
24
-23
110
-80
28
-82
-55
64
113
62
-7
51
49
78
-106
-102
-7
99
-16
-128
91
-60
-58
114
-43
-88
-97
88
112
110
-71
96
120
-108
7
-48
49
-40
-96
-9
-115
-80
29
-118
81
-54
-83
86
112
-114
-97
-50
-94
-55
-70
32
-26
-52
-48
-102
83
79
52
-56
24
-54
-61
102
64
3
92
-50
-100
122
-95
-18
117
11
-55
-76
-84
108
39
107
-33
-69
-96
-20
119
126
-89
-98
-109
-93
-127
88
9
-15
-102
94
-26
121
-1
-22
5
106
94
108
41
116
11
56
90
-46
0
110
114
-114
27
47
-64
-76
34
55
31
-36
111
-103
55
104
-100
-107
-22
-79
109
15
-37
26
-14
108
89
-50
70
-39
-23
32
37
-97
-68
20
-47
-5
4
114
-66
-57
-92
84
-20
55
-30
111
-79
84
56
39
2
-93
-109
-101
71
-18
-69
23
104
-59
-85
69
-126
107
55
66
-21
56
-107
102
86
-94
-6
-100
-122
24
79
55
-93
-25
59
-112
-12
-46
-36
6
-83
-61
61
84
116
-56
0
14
-31
63
-9
39
-120
-27
114
90
-6
-95
-102
52
-95
114
24
28
-97
-31
2
-3
-60
37
111
29
39
18
19
95
34
-119
-115
30
100
115
-76
-119
-42
-12
82
-17
-35
-34
-116
63
57
89
-35
70
-112
6
-6
-108
100
-92
-77
-99
18
97
-87
-90
-80
-75
-53
16
-22
-93
72
109
77
-41
-105
-34
111
82
-78
-32
-53
-2
32
-58
118
58
-108
-8
-32
22
65
-65
-71
51
-128
-58
-126
-53
-15
4
-9
-102
103
-22
107
-23
-119
45
-107
85
-21
13
93
75
-24
81
23
49
-23
53
125
112
-84
-124
120
52
-1
-45
100
118
-93
19
-72
8
-64
75
-43
-90
-37
124
-84
93
-100
3
33
7
104
-63
52
-63
-38
-14
57
100
52
-20
119
66
-98
-84
47
121
6
91
-37
65
-80
-81
-13
6
37
-102
-26
81
62
-89
11
-106
79
23
73
61
62
-123
110
-128
35
19
-17
-98
50
0
92
-44
122
70
-126
-89
78
59
21
-21
-53
89
19
-77
82
-19
35
-60
49
-70
94
72
-44
-63
69
36
-60
86
28
-46
-83
61
76
-73
1
125
37
111
126
-59
-116
-29
-119
-115
-122
93
-60
8
119
47
115
-88
-27
-91
-25
-9
106
96
-82
20
-34
-109
-108
-85
-41
-27
50
-82
-19
123
-101
-9
-4
98
-59
102
2
-61
-6
104
57
105
-69
40
-58
-93
86
-75
-92
-123
86
111
-78
28
94
-101
115
-79
17
-80
80
-49
-118
-110
80
-85
62
-71
120
48
-100
-1
-32
-59
-87
-62
82
-111
75
-52
16
-80
30
70
116
105
37
116
-34
76
126
67
92
126
-51
114
-108
-120
-110
-4
-9
114
14
31
47
-58
-53
58
56
-44
126
-13
110
-73
-14
22
-29
-99
-77
-127
-97
112
-6
-121
-90
-120
124
82
2
30
-39
-48
2
117
-62
113
102
96
94
-79
-5
80
-78
19
42
23
-53
-9
-53
55
14
106
36
-108
-39
-68
27
-73
74
33
103
-22
13
-125
-59
97
110
59
-120
-8
-83
93
-18
-8
-7
-46
-11
-64
-64
-63
-28
20
-117
-21
82
-67
-46
-28
89
22
-90
47
119
25
84
-28
-121
93
38
98
14
-49
87
-127
26
-55
48
56
99
-20
34
12
53
103
-29
-54
-99
-40
97
72
14
-89
-119
-67
-31
112
75
47
125
-95
-74
70
-97
36
-91
77
117
-17
126
-92
104
78
36
61
-4
35
65
-53
92
106
-67
90
93
-13
107
72
67
-36
45
-4
35
-64
-10
101
-10
8
-64
116
30
-103
56
10
4
-85
-99
-113
25
-20
125
51
-36
-53
108
-23
16
99
33
-50
-56
-17
77
-58
-19
-46
-55
118
42
-128
33
-18
59
-128
24
24
86
50
40
-84
-93
11
59
111
-87
12
-107
-3
-17
-54
-110
-33
-46
81
-116
122
49
-123
4
71
-117
118
-111
-105
-56
31
-105
-24
-1
18
-43
-57
57
6
-75
6
89
-69
30
7
31
-85
-15
-59
-19
-22
64
-41
-33
16
14
-28
94
108
63
-101
-16
-48
14
-25
-19
-28
99
125
-79
-8
-31
13
95
-124
102
108
-64
75
-70
123
0
-21
-81
-111
58
57
2
69
-114
-99
56
-27
126
77
18
119
-116
-37
53
62
-36
-65
-120
117
-49
-37
4
-46
-23
-22
24
44
79
-71
55
-67
-78
107
27
-91
38
13
-59
99
76
50
-106
60
-99
-17
79
-13
121
126
-34
-127
64
72
-38
71
123
-91
101
85
-24
-121
1
38
-51
-99
101
-27
101
23
-118
100
22
36
43
-89
-56
-127
-115
57
-41
4
83
-24
9
60
48
-96
120
20
-31
15
15
-85
-24
40
51
-105
-16
-26
-74
-4
-87
-52
-103
-34
96
82
-28
-75
-63
-117
93
-14
18
115
71
77
87
-81
23
-92
-30
-9
33
-49
9
117
-128
83
-8
67
91
-7
-31
-91
65
117
-42
96
-119
-68
-100
101
-44
66
-4
-45
-32
-103
124
-52
73
41
41
11
12
-22
-33
72
108
71
42
-46
-12
-124
-121
51
125
28
9
-55
-69
-111
44
105
72
86
-49
-77
-19
108
25
72
64
-27
35
32
-28
34
-120
-67
7
-30
-123
-10
-69
-31
102
0
-98
-90
-69
-82
84
116
48
-73
21
-69
-77
114
-11
-104
46
-107
84
18
-123
-36
-113
-91
-110
16
123
75
-9
84
-110
-6
-10
-64
-94
-14
-17
89
-117
30
41
36
15
-121
-128
-5
-1
115
7
27
-47
64
44
-23
64
105
82
-16
57
88
90
68
-80
-17
-68
-87
-121
-96
26
84
43
-32
1
-65
15
-124
-14
40
-84
-18
-4
-28
26
18
-77
35
56
119
-48
123
45
85
48
108
63
119
12
65
101
118
101
22
-32
14
-13
20
-94
50
-44
-85
-44
-126
-37
-83
96
6
0
78
87
-60
-123
-29
-44
-82
-45
-71
-12
74
-96
24
53
-124
78
98
72
78
-12
-51
99
-58
16
12
53
46
110
115
-1
-83
122
54
-4
122
125
-13
-125
-12
14
-66
-75
40
-109
48
-70
-25
-30
56
-52
-89
-104
-55
96
42
16
-68
58
61
-108
-111
28
-10
77
-38
-40
-32
66
-1
-114
16
-25
81
-29
58
41
-96
-74
106
-43
-119
-114
36
-45
17
52
120
-5
-62
-21
-116
-114
-2
18
-110
42
56
-2
39
-29
51
82
-68
-125
41
89
24
-65
-109
116
26
16
-72
-101
-112
-87
-53
-104
-102
-3
-35
-44
-44
82
79
73
-52
13
-28
-1
32
48
66
21
74
111
-99
52
-121
-14
-50
109
82
-29
-53
-101
-81
-45
47
-68
10
-43
-6
105
73
23
13
90
-106
-24
-24
-57
123
-43
70
41
110
8
95
50
2
-100
80
-83
18
49
-119
-15
-23
-106
-27
34
114
-90
26
62
32
-62
86
-108
-44
-98
-12
-91
68
-61
91
46
40
-66
-96
123
42
-109
8
-87
-22
-110
-109
-79
-6
39
68
-72
-26
122
7
-71
-31
76
-7
-98
69
110
-49
-42
104
44
65
-101
99
-30
-82
84
69
-25
74
-96
-106
22
-61
-101
53
-73
-74
74
-45
68
-53
-58
67
-77
42
-118
-101
49
-116
-24
99
92
36
8
124
110
120
-40
97
70
110
-13
15
76
-14
-53
-52
0
-67
-95
-110
-88
-125
80
90
-114
-52
37
-34
12
113
86
54
-20
-40
-116
-75
5
40
-79
-23
-33
-31
99
-54
-113
35
113
6
120
-59
-112
57
46
87
2
113
-85
101
-59
101
15
94
38
45
-10
87
-116
36
-93
-66
-54
-38
83
21
-52
-104
-46
-100
-113
-123
112
81
-95
76
75
-62
-110
-119
35
46
-94
-15
4
-30
-37
-114
75
-82
-123
-101
90
-6
17
6
-32
44
-121
-26
-58
56
-25
118
-90
55
-108
99
72
81
28
54
-35
115
92
51
124
77
68
83
62
96
-109
-60
-13
118
6
-85
-81
-29
107
100
-49
101
83
-97
113
63
-60
28
-29
-73
117
-128
-43
-117
2
35
-60
-108
71
78
100
93
79
-95
-52
-58
-61
-112
-87
-13
-91
-68
-106
93
99
126
-58
-90
123
-53
5
80
-79
-72
-28
-65
-117
-30
-41
-6
50
-123
79
125
90
-37
-66
12
-86
12
-81
-53
123
59
35
51
1
82
-3
-72
-113
-8
-16
104
-43
-92
-127
-11
21
91
-48
75
52
-67
-102
6
111
-80
-21
-9
-29
24
-98
123
-98
87
89
-66
19
-31
-18
31
-104
99
67
-30
-30
101
44
25
108
13
101
51
30
-33
22
90
-62
89
33
124
-68
117
-6
58
81
109
88
-101
75
26
12
30
76
-41
28
20
-117
114
-61
-27
92
-65
-36
-35
-73
51
-95
-34
-55
100
-25
62
-99
48
80
62
33
56
98
-117
39
-32
6
73
-99
-36
49
51
-123
-1
29
16
-50
-28
124
-69
115
-22
19
54
-104
-41
-116
-86
59
-113
87
-63
-27
-13
-45
78
-36
-81
98
85
-14
-26
-13
-11
79
-67
29
27
-81
36
96
-64
-6
-20
-122
-9
107
-96
-78
-67
103
70
-33
48
5
98
-128
65
-67
-40
9
-20
111
-28
86
102
-81
-38
-5
-26
-69
-21
-123
-62
49
-121
100
126
-74
98
12
-76
-89
-25
49
87
126
17
3
58
105
41
-5
91
-31
10
71
34
-68
-36
-5
16
-18
72
-76
74
13
41
92
-58
-116
-26
101
30
-57
-2
-2
25
69
7
57
51
117
45
75
-33
-54
115
69
59
-121
-34
-95
7
-21
-104
25
122
86
6
95
-61
49
4
27
12
-13
-1
107
52
92
-15
-5
-67
-63
110
-96
21
-53
-85
-62
96
-71
79
1
118
-63
33
-65
-126
1
-85
125
9
-1
123
-31
16
74
-84
86
-27
72
48
72
24
-29
-29
41
-78
25
83
69
25
36
-115
96
-26
-113
-5
79
-30
123
105
-1
-71
57
-20
-87
-15
-21
-37
47
-110
-98
105
16
22
-32
-8
-98
-26
123
-82
-18
-86
-28
2
112
-60
-49
-8
99
-62
107
-19
23
-53
7
-40
27
-91
7
8
16
-4
18
48
-68
91
-53
39
-113
-120
95
61
64
98
-93
58
-3
72
33
16
-22
58
-83
-100
-37
98
85
101
-87
107
-16
-123
-28
4
23
53
-60
-108
54
63
9
-5
-19
-111
-111
32
-31
13
-38
86
115
71
-57
90
45
-70
75
119
3
-11
-32
51
95
25
-39
-115
0
103
-95
-17
-114
15
-115
120
113
13
79
-91
-53
77
-98
30
112
-100
58
33
-78
57
116
52
-40
104
-42
44
80
111
-61
-80
-25
-43
-60
72
-125
86
-25
24
40
-14
-82
-62
-86
48
112
60
-111
90
-14
-96
7
123
-103
-101
-64
-128
-50
16
-71
30
-21
-120
-41
-106
-12
114
115
8
-11
-99
-17
-85
-20
71
-96
-8
-41
109
-108
120
75
-44
-30
30
-1
-16
-79
-40
-26
-24
78
-19
58
-96
68
3
91
59
-124
98
-34
94
-28
-25
35
63
17
72
-79
-109
28
-15
-119
74
-74
64
0
41
10
21
45
-68
125
124
-106
-69
-30
-126
14
47
-126
-83
98
-95
85
73
-96
-55
-40
-86
81
26
-108
111
-88
75
-99
73
-84
-91
-104
61
90
-58
122
-90
-69
-12
-101
-20
18
-59
80
-20
123
-16
95
73
-55
40
84
-2
-94
0
-100
-123
-16
106
-37
80
56
117
-103
45
-96
-89
79
109
65
37
-111
-46
43
121
-45
-108
-95
104
-105
-39
65
49
79
-66
65
-124
-64
-18
-91
6
124
-21
-116
-37
-72
-101
-74
115
78
-61
-125
-116
17
118
44
18
118
-67
-14
-77
-113
96
97
-29
-77
-117
-105
-36
7
-126
80
53
11
-67
0
-26
34
124
105
-9
-113
73
36
0
-101
-62
46
-72
-69
-65
41
1
-28
73
-12
-32
-118
-24
-82
108
-18
80
69
100
-99
83
-3
-51
-94
54
-119
-90
-124
115
19
-109
75
-41
8
37
17
-78
105
92
-54
-81
14
111
80
-67
-96
-30
-90
114
-35
1
5
103
1
-20
-48
72
-115
57
-116
85
36
-93
-104
-105
-113
-52
-66
36
95
104
-46
-107
-82
-60
-6
126
105
32
-87
-36
-99
47
77
-61
2
-112
85
39
-17
89
-66
-114
53
116
-122
-60
-105
-3
3
95
73
-23
-75
-63
-90
28
3
115
105
33
53
-100
-95
50
11
107
23
-100
2
47
52
-113
6
49
13
85
121
92
-95
68
10
120
-128
43
114
-78
-96
-51
26
-22
30
-41
-12
-2
69
81
-108
74
-5
20
-94
9
60
87
106
-39
-35
-9
104
-8
64
95
-10
-103
99
100
121
-80
111
-124
-29
9
5
-47
-123
-105
-34
-22
-122
22
79
-7
-20
34
28
87
-114
-76
39
26
100
119
1
-117
81
2
40
-35
-48
-30
24
35
108
0
-35
18
-54
-37
-65
101
114
118
46
-125
-49
-55
-86
92
69
109
-48
121
-23
54
105
37
-53
71
49
2
-28
99
-80
-90
-104
-99
-16
-121
-38
66
-12
73
101
20
61
-12
-124
-84
-111
-79
-62
-121
59
11
9
54
-18
-51
90
-31
124
90
-99
-22
41
107
-45
49
-78
-71
82
-119
117
52
62
-3
55
111
97
-120
65
-92
-20
-103
77
-92
-122
116
102
56
38
98
-69
-25
113
35
59
91
-121
-123
61
-4
-42
44
25
-73
26
-63
48
-47
35
2
118
-106
52
-76
-82
23
111
-6
74
31
69
99
75
24
60
65
93
-34
74
-116
110
89
-37
99
10
-6
123
22
90
100
46
43
-112
-14
119
-61
-56
-41
-75
125
125
30
67
-60
107
103
-107
123
-41
70
25
105
14
-4
-78
37
-93
-52
-96
-28
45
37
69
-56
53
23
31
-89
106
-66
124
-64
41
113
-20
44
-20
-78
117
60
-13
-37
-3
-105
-27
18
-15
-106
-11
-64
-31
109
-47
-56
-42
-45
78
2
-112
-94
61
30
56
10
-38
-20
-48
27
-16
86
109
-51
55
-81
-89
-90
111
-21
100
-48
1
104
-111
-39
-27
-103
-92
-93
117
103
-86
-103
124
50
24
-32
69
48
-59
10
-39
109
-61
-76
75
-41
-84
-1
-113
-18
-53
90
-108
61
-1
73
33
-74
-36
97
-19
105
113
-50
39
111
78
51
65
75
97
-29
-29
-6
-124
-62
99
15
121
36
-13
76
74
-79
-68
35
-123
-31
114
-64
49
52
21
-9
-103
-110
-34
114
-104
-26
-55
-69
30
29
51
37
-69
-54
-28
-96
-10
-96
-56
-23
-99
-46
-106
30
44
30
-102
49
46
-72
-71
32
-59
110
63
9
-117
-35
0
52
-116
-52
-5
-31
-9
28
-96
-12
-107
-24
-69
-50
-111
74
-109
-41
-23
72
-25
71
32
18
101
51
12
7
-35
-96
125
29
-40
33
-108
9
-44
-87
116
65
100
49
-100
-71
107
4
70
-16
97
-90
22
81
-26
-38
-96
24
28
31
-53
106
-43
73
-58
74
114
-103
73
29
29
-31
117
92
-21
12
23
-97
-61
72
49
-8
23
-93
-62
-34
117
-96
-127
20
9
-37
-74
116
47
39
60
-40
57
45
-19
-42
39
-57
32
-70
74
69
-31
19
-82
81
74
105
-57
-63
60
-58
71
-123
123
-66
-39
35
17
27
-101
77
-40
33
89
75
48
-20
-29
-16
-118
-23
98
-39
-96
-10
30
76
15
-105
-20
-91
107
67
47
-22
-79
126
16
12
33
7
-73
104
-36
99
-54
-107
12
93
18
55
-62
-17
72
124
-73
115
93
81
21
26
11
27
71
118
46
64
57
-100
-117
31
114
103
114
-109
-76
48
43
107
-30
108
-74
-94
-77
-29
-1
33
126
87
-22
-103
24
-88
-68
35
-103
-11
-18
-108
35
29
-127
-107
-58
-45
98
-89
-1
37
47
-127
3
-70
-74
81
-98
-35
113
-32
47
-102
-3
-126
-69
32
-91
2
114
71
-128
33
-78
-26
-21
62
-4
107
-120
121
-26
12
20
76
97
-97
-57
70
-92
74
66
95
-13
83
-50
-60
-97
-33
-16
-18
123
-31
-68
-80
73
-2
-2
-87
60
28
99
120
119
-6
23
-28
3
108
5
29
59
108
126
87
57
44
-84
1
-53
-107
-88
31
-6
97
121
58
32
82
-10
-108
-55
105
-85
54
-72
0
-9
-23
22
2
63
-128
-17
18
-128
-1
56
-119
57
-38
45
-1
-32
-43
122
111
62
56
-112
-90
19
-100
57
-113
-104
35
-56
-45
117
45
-13
40
-42
-114
-75
84
109
42
-83
-8
27
-42
61
-127
-89
38
48
-6
-97
-12
32
4
93
67
3
88
-124
79
105
77
59
-45
112
33
-95
-82
71
60
-96
124
-70
-84
126
94
-97
-119
-63
71
76
95
-51
-33
-51
87
32
55
68
-66
-81
56
82
86
-89
112
-40
98
100
-41
-108
-97
57
55
-26
110
113
51
-110
50
17
-120
-59
-25
121
19
43
-101
-83
125
-89
62
-121
-99
-122
9
75
110
77
84
-73
65
-89
34
33
110
20
55
99
52
81
96
79
-126
63
-80
-31
83
-81
-22
-50
102
122
74
37
38
47
-98
-101
38
-80
-106
19
-124
-106
85
109
90
33
5
87
11
-48
-81
-60
47
49
42
4
16
-79
-125
116
-25
62
-116
-17
-13
114
-62
106
-96
-109
76
-63
-113
27
-56
52
-68
35
68
-11
-56
-111
117
62
-18
114
101
49
-126
-66
-125
110
95
30
-126
105
-110
-96
119
-5
-87
-106
64
-23
112
-98
100
-20
-112
-3
-100
0
119
-65
-71
28
19
45
121
25
65
-29
13
42
95
-91
115
-65
39
-9
-123
-98
-83
-81
-72
10
95
88
-105
-37
-33
49
1
117
-84
75
-25
3
7
-29
46
40
-13
83
8
-50
117
-84
111
44
-55
30
-126
-126
-33
42
5
100
-18
93
-15
-108
-119
-44
0
-47
-70
36
-44
-64
-72
-58
-17
-27
6
-36
58
-69
83
69
-63
-95
-49
2
-102
4
86
-47
-87
42
-107
-108
74
-13
-19
-40
-15
124
86
-25
-64
-47
27
47
-96
12
25
-94
73
-10
41
-57
125
44
1
38
-61
115
60
28
23
62
-64
95
-65
85
-11
-104
68
-48
69
28
-98
70
124
48
-24
20
59
91
-70
24
0
24
87
118
76
-67
-99
-8
95
98
-120
83
50
-62
-8
12
-72
26
-53
30
5
-8
-38
77
80
18
-8
103
38
39
73
-126
-92
120
-3
-74
-97
34
66
77
62
-122
-24
-96
110
-62
-63
68
24
8
56
-29
122
-96
-39
-105
-95
19
-97
80
7
53
-16
-23
57
-1
-32
70
-88
-94
-3
115
-15
103
-119
110
5
-119
34
58
39
19
-120
23
-89
-86
-109
-6
-3
-112
94
-110
-68
-64
52
-15
-85
-96
-19
58
77
72
-20
22
20
47
-104
80
22
-100
-9
-96
-38
-97
111
-54
80
29
-81
76
41
-6
-104
75
34
63
-33
-93
-17
-32
-37
-44
-64
-95
94
40
-44
-119
101
-6
95
2
-106
-27
7
-94
-38
-22
-30
3
122
35
24
64
60
70
-78
35
-36
-28
-53
-114
10
47
4
-72
-2
59
117
6
83
-16
100
65
4
97
-24
-1
-75
-34
8
-26
-63
-23
37
-96
18
33
70
95
-85
108
-21
-10
65
-121
44
65
-49
-122
-79
48
77
2
46
-65
96
83
71
-98
-10
30
-105
-12
42
-113
79
-89
-27
-106
126
-106
-73
-46
-12
-27
-116
-104
-86
-118
2
59
78
46
-61
-26
96
68
-107
-81
6
-84
7
99
-118
108
-19
102
-15
-45
-48
26
-67
-67
107
43
50
43
96
21
-93
-4
-35
5
-15
52
-100
112
105
53
-14
7
20
78
-61
-76
59
-88
-7
-54
84
-79
-115
102
109
-121
69
-108
109
-121
-126
123
-73
-50
-99
75
116
94
69
-110
114
91
83
-126
-121
39
59
-85
-38
46
121
-46
-75
-94
30
-124
99
123
-97
-30
27
-84
69
-74
-27
29
-62
-28
-89
57
79
61
-35
123
49
-39
-92
1
53
19
-71
70
-104
-85
-37
-125
-25
102
67
20
111
-30
-57
105
-94
6
89
-65
126
33
107
20
60
-33
-97
-13
-76
-45
-46
5
-109
11
-48
-41
91
87
118
53
22
-82
-61
65
53
-94
23
103
42
-118
-51
-38
-120
24
82
-108
-101
113
17
45
15
-38
19
-99
25
-123
-67
98
-60
-61
-38
-93
-59
52
90
-97
-19
33
-99
2
-64
114
31
-7
-78
81
-118
78
40
-37
-73
-7
93
6
66
-102
106
82
-17
23
22
81
89
61
84
67
-62
65
-14
-19
-45
-73
-62
12
110
117
-66
20
-30
59
67
105
24
3
45
4
-46
54
90
83
-25
42
115
-2
41
-1
-33
-9
-69
4
11
90
69
-48
106
116
-20
-71
64
-99
-102
-73
-24
-83
-10
89
-24
-10
-10
51
121
32
105
20
-101
-53
-26
-94
-52
-5
26
-50
3
34
-35
88
106
83
23
64
14
71
-19
-123
122
-52
115
-110
-83
-110
-89
97
-97
13
123
72
32
-22
-60
123
118
-50
63
64
-114
51
-110
72
-21
-104
76
-106
-124
-90
113
-84
-38
-23
63
4
-40
-67
81
35
-55
-93
-105
-55
-126
-87
116
53
-36
72
44
-48
50
-18
66
-4
49
-103
-97
5
-106
-25
65
-2
53
29
93
-35
17
-104
102
94
70
-62
-24
-128
83
-88
103
-51
-4
75
-68
-51
-61
-38
-35
13
-107
81
59
-88
-60
-74
44
117
-112
-45
105
54
-115
2
117
71
-98
-80
-94
45
-87
78
-82
-95
83
-102
-8
35
-57
58
61
-115
-78
5
97
119
-128
-21
-26
-1
98
-84
29
-53
-23
54
72
-34
-8
-92
-101
-121
-109
125
71
-121
-96
-98
80
-98
-18
-118
-24
124
-9
-2
-103
-127
73
94
-128
51
17
-29
-74
27
98
111
-60
-86
26
-93
-10
24
120
115
-14
78
68
36
-8
65
101
84
-11
-90
0
65
23
-43
106
0
89
90
60
-3
-93
36
-55
90
12
42
13
87
-38
-112
-96
-114
17
58
-90
-110
47
11
104
-64
69
22
93
-88
-112
21
125
77
120
-79
0
111
-61
10
74
62
-50
91
21
100
-64
122
-124
106
-100
28
23
96
-99
-18
-99
47
-39
-109
28
40
-127
-49
33
-38
-104
-78
-112
54
37
-2
106
-2
-78
24
-66
94
-31
102
106
85
25
-74
-46
-74
9
71
33
-13
22
-128
49
22
-86
-119
-49
39
-93
110
-23
-70
90
125
-78
113
71
37
108
96
-105
-87
-85
-67
-96
-24
-71
-110
80
-48
116
39
116
-126
25
-73
-19
97
-86
-43
-9
72
-37
-6
-38
-124
-113
84
-44
80
21
-75
23
19
-89
-98
90
92
60
-80
-103
-80
39
-84
-7
42
83
32
-50
-61
67
-9
48
-54
6
103
102
36
21
-69
-53
-115
111
81
-114
-31
11
78
-117
-110
117
-85
45
55
88
96
-29
84
-69
-73
32
-107
-13
123
-52
75
-2
-31
-125
-10
64
64
-67
83
25
56
-58
37
-24
86
0
36
-4
-107
-76
-76
43
-45
83
3
-10
-38
-17
-95
-58
22
-24
-12
-115
-81
-53
126
-78
41
-40
109
-122
70
125
39
42
38
-71
-28
-2
-96
22
81
4
4
52
86
-116
-97
78
-28
36
39
101
-58
79
73
-116
8
-80
-55
33
126
60
75
-77
-112
-57
117
126
-34
-45
62
32
51
-19
92
95
-45
19
101
-19
82
-66
-2
96
-29
-72
-119
77
-60
89
-7
73
-106
-13
-84
-14
-96
34
-104
-103
-33
-26
14
103
-41
-38
-3
-58
42
81
76
85
-54
-52
-63
-83
-19
109
-67
11
-89
43
-23
19
58
93
76
-28
24
85
16
27
22
-54
-68
-4
-55
-123
69
10
98
118
113
-18
65
23
103
89
110
-121
6
-117
-17
-105
2
61
-108
112
0
-100
-115
-68
-98
-92
-20
18
-116
-25
106
-26
-70
24
-65
-7
82
6
-63
-72
86
-15
-122
-66
-17
50
81
-90
16
-115
-90
-71
-99
-24
-87
19
-126
-114
44
-55
-43
-47
94
17
-35
-117
39
2
-101
-106
-98
-81
-127
-101
31
-108
119
-123
-81
35
50
-87
-11
8
60
81
12
115
78
47
66
15
29
-17
-15
23
-64
117
-79
-94
55
-105
-80
73
-86
-85
-111
-3
102
-110
-51
-43
-95
46
90
-69
38
94
53
22
-26
-39
-27
73
-74
91
-18
117
-107
91
81
-102
-104
-117
101
85
47
118
24
-93
-72
-29
-119
115
-3
-101
-101
-57
-49
90
45
86
-101
-115
78
-83
-17
43
4
-7
-108
-29
-98
67
-112
-68
58
89
60
39
62
86
57
-29
22
15
-30
7
103
-16
42
77
-120
65
89
57
-120
108
-72
-84
-76
-81
118
97
91
117
2
-85
37
18
-24
36
61
57
-49
-116
-17
106
-84
112
-33
-28
-43
92
-112
-57
5
102
69
58
66
-10
96
-87
52
2
-116
55
-36
-98
-93
100
36
114
30
108
-12
94
-33
-22
-24
-9
83
-121
87
-47
-9
118
13
14
61
11
-124
54
-100
-74
-47
-29
-96
-21
96
-112
1
-14
20
60
-106
-120
-92
1
92
106
109
124
103
45
-18
55
-73
-58
44
-112
-9
26
-1
-112
32
-36
38
84
6
-14
-64
-56
24
-12
8
-122
-80
28
-15
44
38
-45
-62
-106
-90
-41
45
0
102
53
26
-23
-95
-126
-79
-100
35
5
-114
-55
11
84
-120
-81
-30
33
70
32
20
75
-40
-80
111
50
-2
77
-10
-46
-8
-77
87
48
87
123
-62
125
1
44
114
100
22
73
-80
41
4
-28
39
-119
98
90
67
29
36
109
115
-80
-83
-101
80
0
43
82
68
47
-92
46
-7
-81
115
-11
-45
60
13
3
47
-107
43
4
18
61
123
30
-110
-31
33
7
105
-18
-104
59
-12
-28
93
-35
-23
-120
17
90
-120
-109
-45
-65
-81
-110
97
-42
-61
99
77
-88
29
-15
126
97
-70
-64
26
111
-71
-62
86
0
55
-39
58
-31
-2
-117
-122
-18
-42
-24
6
119
-116
-50
-121
-42
49
-73
120
-97
107
38
-5
-84
7
39
47
56
-14
-35
-37
51
107
27
25
-18
-79
58
-110
-124
53
12
-3
-25
123
61
-59
-6
64
-79
-122
63
41
-115
-56
101
82
15
-37
13
115
-114
30
91
1
-34
-42
-69
-34
-80
-99
31
-96
35
-123
39
-97
108
-45
-101
90
122
-43
45
-54
-128
-102
85
-104
-82
-32
-18
18
-9
-51
-100
29
119
64
41
118
-126
63
-125
3
-30
-63
-85
-119
37
123
-38
35
-97
75
-14
-2
-46
-65
92
104
-38
-27
25
-19
-6
85
-32
-3
111
49
74
-90
-51
-112
-44
-50
-2
-30
42
116
91
72
-15
24
73
5
30
38
102
44
120
-36
94
7
-96
-7
126
118
45
-106
58
22
-6
95
-73
-6
-88
-62
87
104
-99
9
23
107
70
-24
103
-54
-39
-1
77
-77
-84
0
72
-79
-57
110
-55
-42
-16
58
-37
92
94
-30
103
9
-101
-107
-103
-61
99
124
-30
79
5
-37
-6
67
-119
59
126
54
-85
97
-67
-1
-11
-67
-64
-125
-50
-39
-54
-104
21
-62
-47
-124
-80
44
84
-49
-42
-47
-109
-14
-17
-10
61
-37
88
-31
64
-29
-6
-67
-37
49
-107
-112
80
79
-50
67
119
-96
107
-104
-103
42
53
124
-37
-81
23
116
-62
92
97
-89
9
-39
34
-11
-37
-125
14
-98
-34
-101
-127
120
126
10
-4
-102
-103
64
72
-78
36
118
-91
-43
-8
16
-4
-76
-86
71
-92
2
72
93
126
-71
112
33
89
33
22
-26
106
-3
70
28
-21
5
-22
-14
123
-38
57
-61
13
-82
119
76
11
-29
65
112
2
33
-115
-119
34
-69
89
100
53
54
14
-2
-44
-91
63
-59
13
88
87
80
26
-68
-104
-55
101
-69
97
-73
16
-98
-77
109
120
-56
72
-103
107
-66
92
10
97
-53
122
-77
123
-29
113
5
-101
76
-44
-57
12
-124
8
-67
89
-119
-40
0
30
-68
118
-64
82
-117
-41
78
-43
-108
-77
65
-48
46
-9
21
-115
-1
-110
56
67
112
72
-64
-90
-77
65
-123
120
42
109
42
8
-27
-123
-96
-28
-31
-67
-64
30
1
-80
73
-61
-101
-27
28
92
36
-53
18
108
12
-92
97
9
77
-103
66
11
-2
-87
-40
10
-4
-49
80
108
-76
16
114
-81
-4
-87
31
-21
-12
-93
-11
34
-36
119
-61
-36
-8
-1
-26
120
107
41
42
102
72
102
4
107
47
106
58
73
52
96
-13
44
-76
-18
52
-104
18
-122
34
122
82
-40
30
-27
-11
-63
-47
81
30
-14
-57
29
-12
116
18
-83
-95
-71
74
-85
11
-122
50
-119
90
-72
-123
-38
10
73
119
-51
6
114
104
-15
-66
-66
92
-93
-75
96
92
123
59
81
-39
-15
-70
-14
-123
23
88
27
91
11
104
24
-100
94
-35
-27
23
89
105
-40
10
-22
-46
35
67
-27
-85
-84
-28
-33
-26
-54
-17
123
-21
-32
-85
123
-33
27
9
-23
113
54
68
-11
6
64
78
76
-69
77
-29
12
8
43
118
59
-83
-36
-57
5
86
-26
57
72
-74
-17
124
-52
-125
-62
-116
55
-52
-94
82
102
107
22
69
96
-55
-59
-15
-40
29
0
-113
-97
4
10
37
89
90
75
-44
52
117
-28
114
46
126
13
-55
-72
56
10
29
43
60
-3
26
-122
-114
-97
73
-60
123
107
-90
-128
43
25
11
44
-99
12
-118
-77
-35
107
106
117
88
-120
-16
-58
74
4
22
85
83
-42
-111
-71
124
73
-126
82
54
31
96
122
-60
4
45
17
6
41
-36
70
-36
121
-22
-15
-112
119
-14
67
-23
-91
-74
-66
19
62
-41
-49
-71
-109
60
-124
-29
-54
118
102
65
-37
90
-123
-69
-94
-95
-122
-39
-28
-31
80
-54
9
102
-12
76
3
59
-38
68
65
80
41
112
63
-103
-113
94
20
116
122
-61
0
-16
121
-52
-124
-65
28
-80
31
13
85
-78
106
-2
69
-101
108
25
-113
-86
56
3
-65
109
-48
111
-103
59
-96
-72
-85
-12
-39
-29
-9
-51
-122
-68
-69
70
63
87
125
0
89
-75
-94
-16
88
-34
25
-45
28
-121
35
41
32
-88
-70
-19
41
112
49
-63
17
-61
-104
94
40
-34
-23
43
-43
75
102
-113
8
-25
81
-88
117
-103
126
-28
107
7
-67
53
-34
71
-88
31
-127
123
-84
47
-62
32
-63
65
-32
-116
-3
-21
62
-75
92
37
-94
-125
-85
59
-8
-26
57
-34
-81
-106
26
-106
51
-64
-50
38
-127
-99
-77
121
-127
-5
12
-60
100
-59
20
43
-22
120
69
-117
-53
12
-104
95
-90
78
-39
-117
-57
121
-44
49
49
106
-23
124
-61
-113
-42
-75
89
-117
-29
-41
116
14
-94
123
5
-94
-100
109
103
56
5
-89
-83
91
-14
68
93
30
-11
-28
79
-23
-73
-110
59
-41
-75
115
42
52
88
-116
-72
-71
64
-112
-90
-46
6
32
62
-3
-96
63
90
-103
-26
66
95
-20
-90
-67
-94
25
56
-59
-94
45
109
28
-25
-55
-37
5
-107
52
93
-75
70
82
-46
94
-128
-29
-78
-81
19
93
116
-98
-54
-108
33
-111
-123
112
-21
-74
81
113
120
-50
-18
100
-99
-125
60
25
105
110
-25
-124
-55
-39
119
-116
-11
36
-110
-56
-87
23
2
-106
5
63
-27
91
-107
-60
86
-99
-88
-115
3
89
68
60
-118
-103
124
-90
-85
-28
44
-27
-31
64
-102
-40
26
34
18
-52
67
-23
-102
2
-5
38
8
48
109
73
-120
8
48
-117
22
30
88
21
33
82
102
121
26
73
-119
-95
6
-87
120
2
38
68
-20
-7
-1
-126
1
124
-12
-116
-99
5
87
-110
-23
116
66
77
-118
77
-69
-108
52
52
109
71
-113
95
-110
40
-61
38
-34
113
-123
109
72
-73
-124
76
40
-108
-41
-66
-88
-41
40
-4
-108
73
-123
-20
48
-120
19
125
5
-54
-66
33
15
-45
105
79
122
82
76
74
27
-68
-57
29
-15
-64
-88
-55
-44
-18
115
-96
-115
-65
-39
-100
46
-99
-127
-4
-108
-52
10
-25
-47
15
-127
98
-50
3
-46
6
-93
-46
97
46
-96
27
-63
100
115
107
107
-43
-5
12
99
91
-119
26
-100
39
50
-61
27
-114
68
56
-76
-105
81
38
-76
-120
29
-47
-29
40
-84
-57
-46
-7
-109
-57
-127
-12
-15
-37
-36
76
-37
78
90
19
-56
105
-17
62
95
83
119
119
-98
107
-119
-13
25
-39
-47
30
5
-117
-110
-13
49
-15
-75
71
111
-50
-127
77
126
-116
-36
-12
-15
117
117
-6
-104
-32
-122
125
19
89
-101
-98
91
92
107
-52
53
-105
-12
19
113
-17
89
85
76
103
-74
-122
101
84
-124
63
-63
35
-65
-18
83
-28
53
122
-82
45
-118
50
-102
7
-78
82
-121
11
48
-3
-97
-26
-84
1
-13
112
-19
10
42
71
65
-26
48
-90
-83
-9
-123
55
63
87
13
83
-14
-21
51
109
-64
-110
23
-39
97
33
25
122
96
-19
-24
-35
82
-3
-28
-58
60
-1
14
5
-82
41
41
-23
68
81
-59
36
105
15
-111
-99
-30
75
-70
-49
-58
-64
5
116
97
-74
-40
-95
7
-4
-65
-62
102
126
-51
67
24
-121
-118
-18
50
126
-7
107
-93
-85
-57
-128
-73
0
66
-21
-43
-77
-4
70
-104
18
5
58
22
-18
122
29
-24
101
5
51
-42
34
32
-118
68
-12
-22
-79
78
-68
-54
-50
-14
108
-35
-29
76
18
78
86
-118
110
47
40
72
119
101
112
30
-110
121
79
9
81
-114
10
103
-95
-124
-43
-27
-41
91
-27
35
-37
-95
-80
83
23
-95
8
-76
-99
-92
-80
-5
-74
125
-50
-27
-30
-34
4
95
-100
23
18
-97
4
-118
-17
-105
68
-33
-16
-92
-56
-121
71
124
12
-61
73
-86
-128
34
55
65
-89
-38
-87
30
-107
107
107
-18
24
99
44
-48
-60
78
-66
-33
-38
69
-1
-28
-54
29
-13
39
92
5
-60
92
27
125
38
22
-53
-56
-47
111
73
-14
104
-77
37
106
70
19
118
-78
123
84
76
99
-2
-31
-126
71
-112
78
-1
30
94
40
34
4
51
-125
95
62
105
126
24
119
47
-22
40
-58
-50
-62
101
-42
-110
42
32
33
-104
-38
37
-123
30
84
-102
49
-34
126
119
97
-44
-124
122
84
107
-103
87
-58
17
-3
78
-38
-70
-109
-53
-41
-55
-1
29
-88
-1
-77
-65
-36
-20
48
79
-28
-81
-69
82
82
113
19
6
-43
40
62
114
-79
1
-72
28
55
48
-26
45
-123
77
117
100
13
94
78
-51
119
-64
6
-80
-48
-84
6
114
-12
-25
-48
-61
111
87
72
-15
-74
-109
2
-108
99
89
74
22
23
-85
11
46
29
48
110
54
3
-1
73
81
95
-104
-54
103
-124
102
57
-111
45
52
55
93
51
-16
76
17
84
87
106
0
20
106
40
-45
37
18
49
-84
-31
-97
71
-91
107
28
-5
-32
33
0
104
-116
-3
56
-89
-113
71
-30
-96
-48
7
32
-80
-21
94
74
91
9
-60
-60
-48
8
-126
24
-46
22
32
-114
-33
91
-118
11
-68
-126
-54
-17
-91
94
24
-80
-79
115
33
15
78
10
-55
77
-3
-69
65
118
-69
-12
-120
21
-4
90
124
-54
-4
-119
-106
45
27
-46
67
-49
-8
-125
125
45
-104
41
-3
-7
-46
-20
-10
75
56
22
-93
-111
-14
35
49
-121
-70
58
50
116
-10
-90
21
-26
125
83
21
23
70
22
61
27
-125
-4
70
-56
18
69
-94
-128
-61
89
-104
23
-28
80
88
-36
58
-115
-1
-6
123
35
126
-43
-71
-54
124
-36
-55
-112
26
56
22
78
94
78
-84
56
26
-6
-66
-6
47
-52
120
-104
-124
-90
72
-19
71
23
-39
-89
7
-116
-119
-101
77
3
-116
92
56
-49
116
28
-104
83
92
-10
120
118
95
-90
116
-128
-24
44
27
-37
20
-69
-9
-49
-90
35
-68
85
-3
116
27
-116
-101
-55
-19
113
48
-101
46
88
-71
26
24
87
126
-72
42
91
-128
116
93
-98
121
67
60
-36
-13
-12
114
21
-8
-14
49
-63
-66
56
20
73
57
83
108
97
48
118
121
-33
59
-127
-120
-91
-100
-91
-89
-107
-21
20
-77
49
-11
-128
96
108
-31
114
69
-123
60
-102
19
11
122
71
105
49
-48
94
69
-35
60
-16
5
24
64
-126
64
-1
80
-41
101
-4
-27
112
24
-50
-81
20
-66
101
4
-116
-7
88
-34
117
-60
117
-96
-47
-28
44
105
74
9
-12
-114
20
-36
-121
-58
99
-38
29
-7
102
-123
-45
23
-94
-40
99
-87
-127
46
-87
80
123
-62
-20
-28
102
3
69
21
-78
38
-29
70
-3
27
29
73
70
55
-111
60
-69
123
-16
44
55
113
41
69
-65
-46
-21
105
-29
4
51
-16
107
-55
-85
33
113
-120
91
13
85
-61
15
-43
32
54
35
-90
-117
-88
42
-67
43
64
30
114
-114
61
46
16
-92
36
-3
-24
-121
121
-113
-4
119
55
-53
-40
112
-102
78
99
-46
-60
-7
87
115
-67
-24
-119
74
65
61
74
-50
21
31
-62
37
49
-31
58
57
25
-69
54
-25
54
40
-45
39
8
76
51
56
18
-71
26
-87
-25
4
78
4
67
70
-105
0
91
-35
-41
79
68
-126
-7
-82
95
108
64
89
-2
36
-78
10
113
-15
43
-99
81
20
77
10
61
79
-127
-73
71
-65
23
41
115
-123
25
9
108
-70
-50
69
-81
-128
98
-86
-7
-99
-112
61
117
-17
124
114
-99
-19
62
-113
49
-52
63
91
-77
10
59
-127
-96
67
-2
69
111
68
-116
-101
-68
-32
50
93
125
51
109
-97
-128
72
-78
-93
57
-96
-75
-17
-87
89
-114
76
85
-28
91
21
-3
-75
-85
-50
6
81
-72
-120
44
47
-93
-16
7
1
75
-9
-48
-12
-17
126
-106
39
-117
-94
33
-47
-54
15
-13
120
-91
23
-117
-108
-66
-120
109
-39
-28
112
34
52
124
57
-82
12
-106
109
29
108
-34
-92
-66
1
3
-61
-113
-25
-71
-102
-31
87
-33
-92
25
122
-46
123
8
-15
81
-36
-91
-70
72
8
-21
49
34
-48
86
-28
126
109
120
-119
66
117
62
124
-40
59
-58
101
19
-80
36
-127
14
59
-53
-79
13
61
-91
-94
122
64
-28
114
-93
-30
-40
-11
104
-119
-92
-40
46
124
-76
32
-1
-21
-84
-123
-112
27
45
5
63
-26
-126
15
-57
80
-4
-75
-55
117
-89
-5
-111
3
-57
-41
-89
58
-40
-43
-39
-95
36
83
-61
42
60
-6
-98
113
5
-127
41
-41
66
100
-104
75
55
-50
-108
92
-111
119
-6
49
-127
-36
-29
-90
-51
115
90
77
26
67
-127
-3
114
89
-43
68
8
2
-117
-70
109
-51
-26
82
-128
-109
-69
63
25
113
-36
-25
-102
-49
42
-91
5
-107
81
65
-71
35
-109
-44
-119
-101
80
94
-80
-14
19
120
111
-76
-119
108
80
52
-88
44
125
-18
-126
-56
88
-79
62
-96
110
-80
-95
115
-102
-75
-42
45
-90
-98
54
-117
11
-89
115
124
-104
-80
-19
67
-45
-40
-97
-119
85
72
-98
-75
7
-91
30
104
-37
125
47
-92
29
4
61
89
22
39
33
123
-51
67
21
112
120
5
-18
-91
76
90
24
125
-101
115
99
-29
-113
69
8
71
-15
92
98
111
51
-37
-95
20
-15
-57
-98
-107
-88
-122
-7
-98
-112
-124
-83
111
-90
-110
3
-76
36
60
76
-113
43
14
-17
123
16
-1
100
-60
95
-85
88
125
31
-71
-18
-98
-40
76
-54
-76
-61
-18
120
-12
96
-87
-36
-73
105
-49
-77
-50
-67
-72
103
80
90
57
-43
-19
103
12
15
116
36
-37
77
113
-104
41
-20
-73
59
-95
13
18
56
117
-117
85
-17
30
20
40
-51
-102
-93
-87
-119
-52
-37
28
-111
-79
-29
63
-88
-17
-87
78
-84
-19
-52
19
-21
110
28
-112
47
115
33
-44
-67
50
102
-87
6
-54
-38
-40
-116
-76
100
-109
2
5
75
4
11
92
-71
-81
-92
36
77
47
2
-35
11
104
-28
9
-120
116
60
113
35
-64
35
-56
20
-114
-90
93
82
-17
-64
59
93
19
-32
66
-124
118
63
70
53
44
-50
-33
-46
80
-38
-121
-104
-30
118
-87
-49
96
22
58
-52
42
86
1
-60
-42
18
32
-103
109
89
-79
-13
91
-110
114
-27
-89
38
82
-65
50
-28
-45
27
-81
3
109
-57
-13
55
97
70
105
34
109
-27
90
34
-39
-87
30
65
-17
63
44
-99
-98
-80
66
-59
-50
-13
51
43
-62
37
-34
39
106
121
24
-11
-13
-42
124
100
103
26
110
-65
-116
83
-99
124
-35
-71
-12
-4
-22
-84
-37
-1
-83
115
-14
-115
-100
-82
51
29
32
56
-7
-3
125
-114
-3
48
-66
29
111
-109
89
-87
-79
-114
1
-106
-114
115
7
-114
-52
-87
27
-31
101
-54
-3
49
27
75
65
28
-89
16
62
15
-36
-84
108
124
113
-57
-39
114
79
-21
0
-25
-8
113
-76
-65
19
57
0
17
53
-91
-24
125
70
-52
64
-67
9
-20
-107
-58
92
100
-51
2
-116
23
-70
-13
-44
-103
73
-42
81
9
-15
-103
90
-64
17
112
38
-78
-64
25
98
-46
114
57
4
-99
36
-107
-112
85
109
-34
-113
97
-70
50
-100
32
-121
-56
-91
-91
-111
-55
47
-110
85
94
-55
-53
66
1
-33
-122
77
-104
-127
-128
62
84
13
114
60
-40
-2
-67
-35
-28
-28
99
-45
-43
109
79
123
33
43
-68
-6
-21
85
-103
50
57
-49
-118
-25
84
97
77
2
-97
6
-65
12
-45
5
-91
37
118
21
105
115
64
45
86
-36
-104
16
110
-73
67
-10
-71
-103
116
-9
-88
37
-117
106
-70
-79
-74
-1
-35
82
77
-8
-115
-107
-112
50
36
-96
100
62
125
-116
8
29
-14
120
74
4
21
-22
63
44
-13
41
-11
-123
-37
53
79
32
39
-124
-50
118
-7
89
100
-65
63
112
122
-15
-13
-121
-10
27
76
30
-111
-127
36
-67
-59
-125
91
79
95
17
-89
77
63
-89
-4
-115
-95
-101
71
-33
77
-69
48
-21
-122
-79
96
-9
114
-42
3
-6
40
32
-1
-58
73
42
-71
71
-29
-61
119
54
-12
-111
-75
4
-8
60
-126
42
95
-109
19
121
-22
111
-48
-111
-13
69
29
-47
121
-34
-76
15
-44
7
-109
-66
28
87
-44
-101
-51
-28
-113
-94
-102
49
-70
32
-100
87
80
66
-48
101
-106
-117
86
8
-90
-63
-18
126
-61
86
-13
89
-113
-16
-21
112
-50
-26
95
55
81
90
36
108
22
-18
-76
48
-93
-18
-113
-65
-16
36
120
-18
42
-9
-33
85
-47
104
-42
-55
34
91
-45
-25
73
-95
-3
38
59
93
-9
-33
-62
-28
88
-81
-13
126
-104
-60
-126
90
119
43
27
-22
-2
27
103
104
20
65
-54
-40
-83
86
63
34
49
47
23
6
-83
-109
-98
40
61
-38
118
47
-95
99
108
-69
-67
-96
-18
109
67
83
74
-107
1
113
27
-101
-71
112
-19
-80
-40
113
121
-41
92
-58
1
-81
97
-64
41
45
-99
31
-125
-25
116
110
9
111
-44
-123
95
-3
119
115
52
-27
93
85
-47
-32
33
9
-104
115
-14
-85
-93
-47
-41
-107
-11
-81
-1
44
-109
-102
-22
-19
36
-68
8
-30
-85
-119
12
-48
74
-45
97
54
-92
-102
-69
-120
10
104
73
-90
42
40
-102
42
111
91
42
9
-40
-32
24
-39
12
-89
63
-110
-1
-110
52
-26
31
73
-74
-79
-12
98
-72
-96
68
-107
-19
70
6
5
-93
-124
-1
114
-72
-116
-113
-29
-33
23
31
-113
-57
-106
-11
-16
26
97
-101
21
3
-127
32
-116
101
-24
-117
79
110
82
-41
-49
-77
111
26
120
40
19
-28
-38
33
-23
-126
-119
-19
-62
5
64
5
-119
46
12
110
54
81
-8
-32
-30
91
30
46
-106
-125
96
-121
-107
98
-31
95
-79
93
-7
16
-12
-114
-16
-19
58
-8
35
51
83
100
-16
59
43
-37
101
-56
-6
14
-66
51
83
-47
88
122
68
-121
-59
38
27
-35
86
-90
15
54
-66
63
112
-3
-115
103
2
-116
70
24
-16
17
-122
-90
15
126
-40
93
-33
44
-105
-99
-64
-18
-25
-99
-32
-97
-80
61
82
-113
-105
-34
-62
18
-37
-80
76
71
123
-36
2
74
66
-98
32
17
-25
-33
34
77
14
-104
10
-64
31
-62
-81
-86
45
-95
-106
-2
53
-16
-8
-8
-97
-28
11
95
60
-121
-30
54
-2
32
-74
-68
45
-104
-12
-98
46
-15
-18
89
121
-16
-75
-13
64
19
53
-56
32
-30
28
0
126
-7
81
-98
11
-31
-90
-3
108
111
-44
-88
46
-84
35
94
43
93
-122
34
5
-112
-122
36
113
38
-84
-44
43
125
17
23
-49
77
83
-57
14
-125
-98
113
92
51
-29
42
-26
0
58
55
122
122
32
-43
-64
-108
5
122
69
70
-124
20
87
-76
-96
51
-83
55
118
-13
66
70
36
-69
8
-123
-3
51
-87
42
-31
-116
80
-109
2
47
30
98
91
112
126
57
82
-106
51
-13
-122
124
109
5
-48
-92
-100
-38
106
6
24
-88
-30
-82
62
52
118
-118
-40
48
62
96
118
-123
-115
-124
66
-25
-52
-66
-109
-54
48
-58
-75
21
44
19
-100
23
33
69
-14
-55
-61
-81
118
11
123
-1
91
3
108
34
15
60
118
-104
-34
-16
53
29
70
80
-58
42
-120
72
118
77
-4
33
58
-29
120
-120
98
21
21
10
-44
-17
125
-87
-46
-127
-57
62
55
-22
-58
40
21
16
54
-124
59
-36
120
76
-124
-43
-25
79
-35
-115
59
-44
-31
34
19
-27
-121
-92
33
-73
-115
85
10
-32
-82
-90
36
-119
-127
99
48
78
-30
28
4
-17
118
34
-68
-115
105
122
96
-114
-81
59
54
111
-77
-60
-58
105
-31
89
-30
-48
-50
93
-57
84
-43
-1
-49
-11
89
80
77
-1
71
88
64
-100
95
69
42
-96
103
7
35
28
57
4
124
66
46
68
15
0
103
59
58
106
2
-91
-7
35
-121
14
40
-103
-123
-12
-88
72
28
-76
-119
-72
84
77
-29
73
64
-73
37
-72
90
-118
-44
-53
-96
37
-82
118
115
109
121
72
103
101
56
-5
50
-71
94
80
-49
-116
36
39
-22
-45
-115
2
30
-63
-29
-52
38
107
-58
-53
92
72
-39
-118
-42
-79
-44
56
6
-127
61
84
72
-95
-58
-41
-62
79
121
-62
-37
-108
37
42
56
11
16
-75
110
-45
-7
-117
26
-68
50
-20
76
-122
54
23
-112
76
-60
-112
75
-111
10
-45
-120
-85
-112
-22
-112
4
81
16
-103
84
-60
10
81
-44
-75
12
-45
-38
100
-104
-42
-21
62
-64
-112
67
-24
63
109
18
39
-103
-51
-128
-89
-108
70
87
-18
67
-10
-96
-51
8
36
106
-100
46
-77
47
-105
52
2
90
21
-2
-2
70
22
47
-3
28
-40
28
-76
-87
73
118
108
-59
-11
-48
19
-60
-14
112
-108
0
-50
-74
-42
-108
8
4
59
54
-127
20
-12
-55
8
123
28
-8
80
40
49
69
70
-104
26
6
-119
74
106
-127
-107
122
-20
96
36
82
62
-64
55
46
-62
2
2
42
-75
-85
-53
63
55
-42
100
115
112
112
96
16
66
4
54
-128
-53
26
-95
-45
11
48
-97
-10
-6
-80
72
-100
104
-63
-96
-47
53
9
-7
-44
-98
-122
-54
-58
93
-7
10
80
-117
9
-18
-78
-47
90
53
-110
47
92
18
3
-90
-89
-48
-29
-118
-125
-126
-60
75
91
-125
-22
37
-53
57
-67
-68
16
46
73
17
66
-37
55
-26
-96
33
-64
13
-102
23
81
-75
1
-55
-51
-79
11
-19
18
-17
85
66
18
10
-49
-40
44
10
-83
-35
-123
-106
104
-71
9
-26
-112
-76
-35
94
71
6
90
66
-126
79
123
97
19
93
-36
-70
-12
-59
88
36
-37
-61
90
107
65
-12
78
113
-68
98
81
95
-70
-69
80
-25
16
-40
74
-98
-50
-99
27
71
-9
-7
-43
31
-69
88
-99
-1
-116
60
-40
126
-39
-28
7
-104
94
-102
-14
-62
-114
-2
107
39
-23
88
103
16
-86
19
-59
25
-126
-29
47
35
-81
113
79
106
-63
-95
-9
19
114
23
-16
-105
0
98
-116
97
60
100
-89
54
10
60
-124
110
67
98
123
5
-104
-128
50
76
53
115
-90
-111
-118
-125
86
-88
74
82
-90
-76
113
48
6
92
-61
-19
-64
-40
-69
-123
25
99
44
53
-85
74
-21
-79
3
-66
-13
13
67
18
40
-91
45
110
-57
122
-15
-115
-39
-19
-47
44
-78
-53
123
66
-37
-40
-102
62
-59
-87
93
-121
60
60
117
-4
110
87
84
-67
-21
-48
-7
-62
-126
-67
36
-57
-62
83
-67
-23
-91
58
-48
-35
62
-64
60
27
35
-72
115
-11
113
-23
65
-68
-32
-97
-119
-47
25
20
-9
-117
-9
23
56
30
-124
-75
39
-39
-28
10
-40
17
29
-13
-71
60
62
-119
-74
-103
-41
70
0
25
7
-2
-69
-7
114
66
-90
-5
-98
-77
9
-38
9
-72
-68
-7
-14
-100
117
-114
58
-54
-38
-71
36
14
92
121
-25
-7
14
-5
-103
-51
-90
32
89
88
20
-49
-45
-80
115
103
75
-30
97
51
16
81
-51
-98
-107
125
108
-4
-47
18
-121
-63
-97
87
95
-110
-7
-103
54
59
-66
-42
-97
-96
-101
-33
-34
-128
-69
-111
61
-86
-80
87
64
-76
-47
89
36
33
30
-104
-59
-113
-106
-72
-105
-33
22
6
-127
21
-111
86
-85
-71
50
-20
23
16
-63
103
7
-57
78
-33
-100
-39
122
-101
-111
22
90
20
-101
39
-87
-37
-39
126
-38
-74
92
80
16
-123
40
69
123
-123
33
85
-91
-77
-91
-97
-75
125
-110
-100
-109
114
-22
-3
-101
95
69
107
-72
121
16
-45
19
32
-107
78
115
-94
8
-80
-40
51
-30
82
-20
-63
89
-15
-113
-72
-107
-9
99
30
115
-1
50
-42
-32
88
-91
120
-99
-45
110
112
-102
-12
-101
-30
22
124
103
-60
42
-104
48
-53
-86
28
-39
-44
-125
108
-9
15
-18
-15
73
-68
-72
110
61
17
36
82
59
12
-100
79
125
-49
27
-3
-84
93
12
4
61
-8
-30
99
-31
95
-29
-123
98
115
126
-68
31
54
6
-6
85
84
70
-48
-125
-71
71
-18
101
-6
-84
-94
122
66
116
65
57
16
-103
53
-62
-108
121
-4
42
-23
48
-3
52
-113
95
86
-47
-121
-76
107
-110
-109
121
-8
-110
-97
-14
19
71
-46
117
18
-14
71
-27
108
-115
-75
-120
-85
102
82
84
-41
105
80
121
-4
-14
26
-110
38
103
-94
56
59
-6
-7
-88
-31
37
-116
-42
-18
77
53
46
-102
-53
-22
-101
94
91
-22
23
-6
-52
70
-43
123
-33
-121
-79
-16
-22
-69
34
-80
110
-17
-57
52
-97
-4
-5
112
102
-1
19
87
9
115
33
4
-22
43
96
-4
-53
-7
-16
-4
5
74
41
126
-20
41
78
-119
15
-66
-83
33
-33
-101
2
21
-36
77
-56
-44
-9
-85
-120
16
124
78
-30
46
99
19
-46
115
79
26
-55
28
-62
88
-12
-21
20
14
100
67
-124
-110
-112
-27
-31
-30
-67
13
101
68
-31
-3
-124
-97
90
77
-38
-36
-101
4
-14
-26
14
-54
32
47
104
99
-35
63
53
-54
-43
90
-110
-26
48
-122
-121
-20
45
-71
-55
10
-122
56
-55
81
-86
-27
32
94
-32
-56
-38
-53
105
81
16
-97
-34
-99
62
-66
-64
20
78
-57
-12
95
41
-102
-113
97
79
-56
119
-99
-48
-78
-7
48
-31
60
56
-5
-81
-37
-16
108
1
53
-38
-101
-110
-107
-5
-95
28
-86
-62
-88
-98
-128
-9
6
39
25
-118
71
-123
79
124
-48
41
52
27
115
120
-83
13
57
-41
-116
29
97
37
-23
78
-100
89
-56
43
-99
-97
20
-112
64
69
108
-103
2
-21
-16
73
-43
58
63
3
-73
52
-93
-67
93
66
-29
46
75
35
-36
27
110
94
-12
121
-69
-100
23
-76
-43
71
118
-54
66
89
-104
-28
37
-78
1
-105
47
64
-61
91
-98
-6
35
18
111
7
66
101
20
-76
97
-65
3
-89
54
-76
105
89
69
-71
6
18
-115
115
-9
76
67
-90
97
46
86
-78
122
86
-112
8
-27
70
112
-117
-53
4
117
114
-83
-13
-121
106
-40
-22
96
112
-123
-70
21
-35
-69
-99
123
-26
116
107
-37
27
-60
-106
42
-55
82
-62
68
-84
-113
119
105
113
-41
-27
22
17
117
25
110
-85
-92
-57
105
-57
66
-5
-108
56
-83
101
90
5
-102
-79
115
-122
-125
124
-119
-115
80
-69
-31
-16
19
79
27
-68
53
-49
-55
-94
-128
10
25
-114
118
30
20
51
-32
55
112
58
-75
-28
-27
111
-40
35
-51
90
76
9
-113
-83
-60
111
82
-105
-82
-64
31
-106
-50
60
98
12
24
4
62
-71
114
-36
-54
-46
-40
-16
46
109
-50
-44
52
-112
118
-86
95
-42
-90
111
80
-84
-71
-58
109
-56
-75
105
101
93
119
18
60
-125
83
41
37
-79
97
15
-127
80
61
-45
-21
46
111
66
-65
62
107
-45
-15
-118
104
-106
-69
-57
119
-110
96
-75
85
46
120
-37
-107
-80
21
-32
11
55
110
-23
51
82
41
105
-106
91
-83
-22
-105
-78
28
-114
0
12
-40
83
7
28
-123
-34
-8
7
59
26
91
-16
-40
79
-77
79
92
-98
31
-42
69
-99
123
-38
42
-115
-81
-92
65
56
25
-101
36
-89
74
101
-63
-94
39
-79
111
69
101
54
-39
-53
-112
51
89
-8
73
72
20
-34
126
-109
-99
-36
-88
67
-12
48
72
10
111
37
55
33
34
69
-60
104
20
103
82
97
-86
77
-38
-99
118
11
-7
-117
-1
3
102
-86
-75
94
69
-110
-18
-65
-87
106
91
82
58
79
-85
40
-96
-73
6
-91
-16
90
-71
-56
98
63
-97
-66
-92
-14
49
-16
-75
10
85
28
-27
14
-85
-118
13
-29
-64
-21
108
1
27
-126
49
-39
92
-60
49
-15
12
-50
-70
15
-100
-64
82
-60
-79
-61
-93
-14
57
124
113
11
-86
95
21
-79
100
-16
56
-61
88
24
-49
-60
-88
89
-74
0
-59
-123
-31
-1
107
-126
-81
-65
10
53
80
-99
14
24
-115
-92
99
-36
125
-65
-64
66
-57
45
51
-109
-93
-89
-50
55
-124
-113
-41
-27
56
-62
-4
122
121
-122
78
66
-48
4
-77
-57
124
-88
-103
-47
-38
-56
-107
44
3
30
64
-16
42
4
-19
97
-44
107
-108
-124
-103
122
108
-126
121
-93
-31
-112
-1
7
35
-47
-12
-23
-50
84
-3
84
79
-45
-78
-119
86
-114
105
111
-123
14
-56
-120
35
44
-50
-91
70
-66
114
-10
-66
-37
104
-73
4
-10
-119
63
17
68
-64
-86
-4
113
14
-94
-38
108
63
-6
73
-61
97
81
121
-2
-105
93
93
-83
120
122
-7
-38
113
65
52
-83
21
-80
-105
121
126
-48
61
-49
-109
93
19
69
-93
114
-49
33
-66
-55
-32
-76
-120
-18
-97
64
-13
76
16
40
72
67
89
-116
-123
24
-11
15
84
-106
-77
119
23
-80
2
-98
-118
-18
-101
-56
-46
112
40
-102
-35
-89
-83
46
-94
-68
105
28
90
53
-90
-30
42
-8
16
-114
-6
-39
-15
64
-1
99
-56
-70
-58
102
-53
49
-12
-81
34
-62
-53
-18
-115
103
72
-117
-117
73
9
-20
-7
-18
-98
-48
-57
-82
-53
87
-44
-60
-55
-50
83
-36
105
82
125
-11
-125
90
123
53
56
71
-56
9
118
67
116
45
41
73
50
81
107
18
-45
-84
124
-88
63
-122
-49
-30
-28
-78
-73
-77
-42
50
-81
120
-13
86
-54
-45
-8
-73
-68
1
-56
105
-66
-78
71
15
-34
11
34
82
18
3
124
-41
-63
36
-13
-2
40
-25
43
-112
-34
-1
-122
-39
50
13
-128
42
-19
-109
-44
45
87
1
-40
-14
-9
60
-125
-112
88
-2
9
-84
40
-79
-119
108
-37
-43
-53
74
-7
-14
44
92
-81
-125
-128
-107
21
-82
103
-75
-102
83
102
-101
89
-99
13
22
-122
112
-84
29
-10
124
104
-36
-52
46
-21
116
-36
-33
50
92
93
-71
-65
113
1
-27
-82
101
87
10
-41
114
-94
98
93
99
91
-14
44
-80
55
37
119
49
-104
95
-41
-89
-38
-96
26
-9
91
-85
-127
-77
-13
-68
-118
-52
-105
88
-38
-8
-42
-3
50
62
9
-87
124
-112
-7
-123
94
-1
81
-117
121
6
-88
-99
-29
-36
94
-91
11
-35
-49
-56
-11
47
-64
-41
-120
-88
60
-100
14
-11
67
60
-86
6
-31
12
-60
58
22
-72
-115
-125
-126
93
1
-113
36
-9
-21
36
-102
90
111
-50
-17
59
-39
-45
110
7
1
73
97
-15
-30
-56
-122
-38
88
-64
-26
-110
92
-117
-83
-74
69
45
23
62
-26
68
100
34
-17
-28
-85
72
99
70
-97
-42
-58
-2
16
-117
95
114
-22
-126
1
87
2
-81
-66
-113
103
108
-16
-49
-14
-96
92
-42
-69
62
105
34
-62
-2
97
32
8
-83
-61
60
-75
46
-23
-12
-10
31
-41
-52
-89
-40
-7
42
17
-40
-65
33
27
113
125
-123
100
-34
74
16
-57
-70
107
43
56
-124
25
116
27
67
54
-120
87
117
-124
-73
91
-14
-8
34
60
-10
-5
-32
-27
-35
-119
119
-32
108
107
-122
5
-41
11
-55
-80
64
-102
88
-104
-50
-123
-75
-56
-89
6
-64
-50
111
66
30
-19
-105
29
106
117
2
-124
-57
-77
-112
-59
-46
54
-105
12
81
123
31
-98
-49
-18
-81
55
-65
107
-44
55
-38
-89
59
83
-34
-33
71
41
-112
40
-109
53
82
-18
96
-44
83
82
82
-120
-15
-12
29
95
-9
12
-23
124
-62
-84
50
-37
81
-69
43
-7
-114
65
114
-46
-35
-102
18
-77
115
-3
62
14
-50
28
25
-15
14
53
-47
-67
47
114
97
71
-121
-122
-68
-86
-20
-98
126
94
97
116
-56
87
-72
-112
102
-126
94
65
17
111
123
120
-76
-69
109
110
70
123
71
-59
-122
10
67
55
81
-12
-87
108
-51
-86
-33
108
35
13
10
-55
104
1
-64
43
9
26
-42
20
8
107
6
-36
-10
-16
-81
11
109
-36
41
-90
-110
-58
-73
62
-2
-123
-88
82
-87
45
-83
-43
96
-18
75
8
0
101
-86
34
-58
18
36
5
24
29
96
126
30
-85
67
-113
-49
-103
-9
70
-5
78
-17
18
93
113
107
-97
111
61
-85
68
32
9
-11
73
109
-7
49
48
41
87
-54
62
74
77
-93
-4
-19
-62
-4
-122
-47
-68
100
-115
-86
37
10
1
92
78
15
-11
-89
81
-84
-12
2
11
-52
13
-119
39
-19
-91
30
76
103
-87
124
94
61
125
-118
-106
116
-36
-36
-70
-79
9
-126
98
-83
-78
90
114
-17
99
-109
109
-4
12
34
49
-127
-46
-55
-11
64
-101
-128
81
-104
126
-2
-38
111
55
-18
91
3
-35
-13
46
120
-70
-107
77
108
67
-47
-124
-104
-94
-119
-92
29
115
88
-13
-47
-66
-56
114
-88
-127
31
-126
-118
-41
98
41
-64
105
-58
-2
61
-110
-63
68
3
46
96
22
79
10
111
22
-11
17
-71
89
-15
40
-128
33
54
1
-97
-123
2
44
124
-95
82
76
-65
109
-62
-12
-73
-48
110
65
-50
21
-31
-2
-35
-97
99
-4
-39
-21
-75
15
-60
-32
-59
-30
65
-60
-34
-71
-4
-30
94
-70
-13
-66
-17
15
-68
-59
-26
119
0
-91
43
-94
108
-31
-74
42
54
-78
103
-39
124
-123
-89
-100
107
26
-70
-56
72
-123
-8
101
35
89
79
-123
-103
123
28
112
-10
-87
50
-20
-44
-29
33
101
-70
-44
-5
94
-118
-48
111
81
-10
43
-120
-61
-69
51
96
27
93
-29
-22
84
16
-64
-127
18
91
-65
118
71
25
14
-110
33
35
-5
114
46
46
117
55
-119
90
105
-116
0
-71
56
123
106
-36
58
-99
-8
68
43
-60
61
35
36
91
69
-67
97
117
0
-77
-43
-102
-29
126
-101
78
-48
-83
-4
16
85
110
14
-43
69
-100
-121
44
-103
-128
-82
37
-88
66
-101
48
-104
114
63
-77
-106
-114
126
60
-46
89
86
32
75
1
69
82
69
-56
50
93
-81
-55
120
70
-120
121
76
8
27
-62
-71
-16
93
-103
-60
-26
101
76
-122
-104
-77
41
-106
-83
97
9
-48
79
-14
94
-32
-75
7
116
123
73
50
-90
78
76
-122
-45
120
-60
-79
-110
-83
98
51
-118
-63
-24
-92
24
110
-73
-107
-64
-17
13
91
55
9
79
-119
-48
-124
-78
31
-8
77
-109
14
87
-42
72
92
-24
-97
68
-9
17
35
-44
25
-21
42
123
-56
53
-66
-94
-74
9
55
5
95
-12
-36
-115
-5
63
-89
-119
104
12
-29
19
-95
51
113
-6
20
119
105
98
-58
-39
91
-51
-128
-65
-126
37
-85
-10
-112
-17
107
72
32
-100
-1
-99
97
25
12
-75
-125
-2
-40
-109
-66
-14
-125
-82
-128
-59
-79
-128
-65
-84
10
-13
124
-24
-62
-32
-103
-43
63
3
0
-120
37
35
-62
-47
-63
39
21
-65
112
42
-11
-117
40
-36
-101
36
-49
-83
-112
67
5
-26
58
-22
-23
-88
14
-51
-5
125
-96
84
120
-121
-28
-60
4
19
121
-52
77
58
85
29
36
-60
-70
42
0
-28
119
-23
109
26
96
-10
74
28
-12
-86
18
59
-75
91
-92
100
53
36
-34
-43
-1
105
-53
-61
-61
-88
-69
122
87
61
-85
97
-54
-107
54
-34
-92
40
43
40
-20
-59
85
-73
-114
-76
-19
94
-120
-11
-83
33
125
-79
-91
4
21
70
29
-33
43
-59
-119
99
-60
5
1
-47
98
95
78
43
-7
27
25
-19
27
122
-83
-24
-128
-95
122
20
122
-64
93
-93
16
-31
-124
-89
92
-7
-14
116
-53
66
-45
-13
8
-15
80
63
102
-11
-8
78
109
71
61
-31
-8
72
-100
91
80
119
73
-46
-112
37
117
49
-95
-14
-63
-8
-57
-94
-119
-8
-37
-110
42
80
97
17
-94
124
-98
-15
24
23
100
104
81
49
-83
-59
64
-58
-90
112
48
-92
113
-71
108
123
-47
-43
63
-77
79
83
40
-67
-10
-106
-46
92
46
-120
-65
-58
-38
11
105
70
120
-41
15
112
-4
-69
105
-9
-119
84
117
-66
-126
-30
71
-36
-46
76
-106
-125
47
-3
22
-117
65
-9
-128
64
115
-54
-36
-63
-64
112
-22
-127
-55
39
78
59
90
-75
-87
-124
-72
34
62
23
82
-8
-18
32
-40
-35
116
91
23
-118
-28
89
108
57
-50
5
-43
33
-83
-35
-97
-112
-127
13
-81
-110
-8
83
-40
109
-69
-35
-4
37
-30
36
-40
-87
-101
-35
-24
-87
-87
-68
-18
116
-66
-59
19
-118
84
-119
-118
-100
-46
73
-47
-103
60
115
103
75
93
117
43
28
123
-98
96
103
2
-17
102
90
-73
7
83
30
74
-45
-89
-29
-77
58
-79
-6
-12
59
-81
90
95
-111
101
123
-25
-125
-2
-105
-32
-26
36
10
-3
-34
-121
-111
-74
-126
-78
-110
15
99
-3
51
-76
-3
105
-41
-91
27
6
34
47
-121
87
-94
52
121
-75
-122
63
82
-47
-36
-59
102
-127
62
-36
97
-25
59
95
35
43
-27
73
-81
-11
103
39
-25
42
-123
103
-16
-17
75
-6
66
-25
-31
32
-4
117
-39
-49
60
-67
-22
105
-98
-128
21
-37
-58
-1
32
-83
-57
41
63
26
-53
33
89
-101
26
-18
-109
-98
123
39
78
-67
-105
74
75
86
105
-119
-102
-89
-71
-4
23
-47
-107
-91
90
94
111
112
-80
37
83
-85
-69
-83
-59
-88
-11
-122
14
93
122
62
40
119
72
49
-55
81
70
-108
75
119
-74
20
-20
-1
10
55
-114
13
-108
-44
-64
37
-109
-107
15
56
-114
93
-41
-70
-46
-123
-37
44
0
74
-91
94
-42
-10
-43
126
-2
-78
-105
112
-39
-112
118
-21
-72
69
-36
79
61
90
-44
-14
-124
122
-116
6
-25
24
21
53
-89
-27
19
125
76
38
-1
-98
88
-63
-64
115
5
60
-95
-40
-112
47
14
76
33
-40
-101
84
-35
62
30
-109
-17
25
-123
72
112
-61
4
-77
54
19
66
-13
70
104
-111
117
-86
65
-111
-108
-41
-60
64
125
-109
102
-32
9
18
-6
52
84
117
-65
9
67
-34
39
-126
105
116
66
-114
92
51
-47
-3
90
-16
-55
-125
56
-103
39
85
-127
-98
-35
51
47
47
74
-77
15
50
-64
67
-67
-69
-59
81
116
53
76
-75
83
4
-18
122
33
-67
-1
112
89
102
94
59
-63
-42
82
-13
-29
-97
-84
-91
0
-82
-72
101
43
-61
71
40
93
94
64
-47
-127
-5
-89
107
33
98
45
16
-107
-60
-3
-104
4
-61
-20
49
67
-34
19
-89
48
-76
36
-27
67
99
94
116
-66
47
-69
-29
-99
-73
-62
-20
-8
102
66
-81
48
78
26
-118
30
17
71
103
99
-9
-55
32
66
-1
18
106
-104
-93
91
39
-128
-51
118
25
-35
11
103
102
-63
81
39
-121
-30
-86
-103
-45
-28
6
28
54
50
-24
-103
-104
-93
59
44
-12
96
-37
-97
41
-8
107
117
26
38
43
-108
49
110
-103
11
88
70
100
-117
14
-10
-66
-93
38
-65
94
45
-104
-36
-21
-109
65
124
109
-45
-35
46
-79
44
87
117
-41
125
87
5
37
12
-64
118
-21
-56
-25
-39
71
-70
49
-81
2
75
15
96
-28
-8
-126
68
-52
55
124
-55
59
91
-58
-67
-93
29
-8
-108
-61
115
-66
23
99
-121
-78
-115
-116
72
-81
-81
14
-101
-34
23
99
-38
0
-81
123
3
26
-99
-71
-76
42
-8
121
-58
59
19
-81
4
-64
-79
-73
-99
-39
-16
-27
-17
41
79
54
-76
-111
-66
82
-116
61
-61
94
113
-24
114
-126
9
7
-19
81
123
57
24
-22
-55
-50
-86
69
4
63
-127
-120
-37
58
88
-10
-83
81
19
-102
-104
-21
114
-3
-96
-119
-109
-102
-66
0
-25
21
-107
54
126
-103
-91
-90
-70
-15
-85
21
4
-88
30
96
-117
83
14
112
2
86
-87
-80
-68
21
-86
-70
120
105
-61
-109
-110
-46
7
-49
58
126
19
-66
-126
-14
106
-94
81
123
-45
11
112
83
-68
73
19
-98
-6
-86
40
-55
-119
93
47
57
25
-44
108
48
-16
60
122
113
113
-54
12
-118
67
90
13
79
-118
97
61
-69
-118
-30
-53
87
84
-21
-48
115
109
-94
118
-35
-106
-56
36
104
125
-38
0
99
126
-126
39
-84
43
-48
-1
-6
43
-48
-94
-89
-25
48
119
-79
99
-2
6
95
40
39
-38
106
102
102
-29
-16
-31
18
3
-76
74
93
-80
-73
-9
125
124
104
-81
-25
76
100
-115
-95
92
-17
-81
71
-62
-107
-112
-59
83
-107
62
-111
92
97
-39
2
-83
59
-22
104
-77
75
-53
81
-124
-53
-107
-118
-81
-123
-47
71
-86
24
-52
70
52
-40
119
19
-102
91
51
-100
-113
-48
42
-105
-45
63
109
51
-85
-30
-53
-86
70
2
-50
-42
-34
79
-6
25
65
-81
101
-74
-71
-102
-14
-9
-122
17
63
-22
-96
101
87
81
41
-105
-16
-79
-37
-124
36
-54
-119
36
-106
87
-22
45
-60
27
125
63
18
-35
-90
18
91
30
-36
59
-46
8
103
-50
61
0
84
-5
101
12
-108
-36
89
79
99
-19
112
39
48
27
118
-82
-53
-106
-84
-94
2
83
-70
-119
95
28
-75
97
-56
-116
-8
-56
106
87
-84
-96
20
-118
-62
76
-8
121
-54
105
-97
-126
22
105
-94
58
16
102
-30
53
68
78
78
0
39
84
11
86
-112
-19
78
38
-81
53
96
71
42
94
-67
95
-35
-11
-53
-8
56
115
38
-9
-61
68
-90
-67
43
31
-44
-83
-7
-19
-34
10
-9
-37
60
-53
75
-95
92
42
-22
70
-88
55
-106
-14
65
-37
-52
61
-120
114
-98
-112
124
-50
34
-39
97
-21
99
-80
68
-85
-2
73
87
126
-93
100
57
13
-59
4
126
-6
71
-95
-106
-60
52
-101
48
29
-32
81
-65
0
114
-14
15
-89
-82
89
20
112
68
-23
-18
-19
-119
123
-56
94
-40
71
-96
-109
69
95
74
42
9
-21
-97
-74
87
-18
27
-103
109
122
26
-82
-29
-93
60
-70
-88
-27
90
43
54
-51
-21
69
73
-28
-53
112
-103
-112
-94
-21
-111
-36
74
119
25
22
-117
17
11
-19
33
-30
-83
-100
61
91
60
-125
-82
-20
-75
92
-27
-35
-32
115
66
-108
-35
-40
93
51
117
24
-115
53
-53
-59
-49
-98
19
-40
-128
-6
97
-20
-114
-65
22
9
44
2
2
71
104
115
-71
115
68
12
90
11
67
106
-109
-10
-22
97
63
94
-76
-50
-94
-34
1
-36
40
-31
33
52
-38
21
-56
81
51
-39
-124
121
-84
-82
66
-7
54
117
88
117
-117
126
14
-122
-45
-18
118
66
28
101
61
67
123
13
-16
-15
-98
97
102
51
16
70
-101
92
8
-50
-92
125
91
90
-48
-51
53
108
-62
-33
82
60
-47
-69
-40
-110
-29
-112
29
-51
-102
-118
92
-24
-9
22
-46
-45
-94
-62
90
-110
13
104
95
-125
-78
-104
94
70
113
-7
-47
-101
-57
72
-38
68
34
0
-7
-63
-99
-46
-99
104
-51
-4
99
-118
-95
-64
-118
-20
-44
-3
-122
1
42
46
-80
119
60
-48
-50
-59
121
-27
71
-21
50
-81
31
-37
30
83
9
-9
-46
-2
97
-69
101
53
33
50
18
-49
-105
37
-37
29
-29
-52
90
54
-109
-98
7
-25
-22
-58
90
76
-100
-47
-44
85
-117
-41
-43
43
15
11
-15
70
-31
15
71
45
-16
-109
-24
102
18
123
-111
69
-37
20
-69
-8
18
75
-7
-23
83
57
-64
-75
-111
53
-81
-30
38
78
-101
73
32
-52
94
37
-93
46
-118
-77
52
-38
53
67
-73
-63
11
-47
-62
71
-86
63
70
-21
-92
70
46
-61
-37
16
82
-30
125
96
111
-101
39
71
-5
114
111
0
-7
-10
78
67
-95
76
53
34
-67
94
107
-73
-103
-106
10
-83
37
6
59
-13
48
-12
-70
64
-95
-91
-95
-8
43
77
54
-122
-85
-22
-89
-91
110
121
-66
-68
65
-10
11
-50
50
-60
50
-111
94
123
-68
-39
-110
124
25
1
-34
95
-19
-29
-13
-72
44
-84
-119
-10
-56
-64
-52
-40
31
31
-51
84
-94
-39
-116
-56
120
-57
115
110
-42
-8
114
-39
-89
12
57
54
30
-48
80
-40
-111
-24
86
-66
9
83
-61
-122
-113
93
122
-37
15
116
62
-40
-82
-21
-102
-25
28
-22
-46
119
11
-40
69
-59
-5
-47
119
100
18
-47
111
42
-94
-58
-65
35
-115
-123
36
25
-1
-113
-6
43
-9
54
-34
-23
-14
-110
-15
28
10
62
87
-15
121
-37
102
-101
-76
-53
14
92
-70
13
-120
4
96
76
6
-63
-37
38
39
34
-104
108
-100
115
126
81
-115
38
-5
73
72
76
-115
-55
25
-21
-101
-102
-120
-34
-114
-86
23
35
2
-82
-102
110
-63
-111
46
87
-64
45
-51
-122
1
-48
-55
-33
19
73
7
48
24
61
96
94
-85
21
-36
45
-19
-20
-40
15
47
-30
92
120
89
-105
62
-62
76
27
124
114
73
92
32
-82
27
-59
-74
8
-71
-107
-83
-53
-106
-18
12
19
119
49
-115
-93
4
-99
0
68
-119
86
103
76
4
-11
-9
71
33
-9
50
16
-48
34
-8
-57
-68
98
38
-77
-67
-70
83
-105
97
-92
15
121
-94
15
9
62
17
-5
-62
57
-4
-71
-32
15
-128
57
64
-28
-33
-33
118
-72
123
-25
76
-41
73
91
-66
68
-95
-107
81
114
11
-114
-93
-40
53
71
21
-58
23
91
104
36
52
18
-27
-12
-115
118
64
7
45
91
-1
-59
-22
-49
-6
25
15
101
-8
-22
-40
-3
32
34
-120
29
119
25
30
-99
24
68
65
-118
124
-127
-79
43
27
108
-56
12
-43
14
-104
-1
52
1
-40
71
126
33
52
-109
-96
-20
41
-57
57
97
-45
-92
64
78
81
-119
-103
-42
-81
-50
-121
63
-106
-115
56
106
34
120
-22
48
57
99
-84
17
-119
-7
-68
57
-123
-110
53
-111
63
41
4
47
-79
-123
113
-18
6
36
-13
-98
-123
-45
-27
-11
-66
28
-2
32
38
-50
73
-37
103
-62
60
-20
33
19
8
-3
52
4
102
-54
-52
60
6
86
12
-58
39
4
39
-83
-59
35
-48
-117
-27
-109
4
-38
-62
-49
-27
-34
54
-64
-92
32
-48
60
8
-89
-30
26
-104
-47
74
-62
10
-19
28
16
-83
10
89
120
-123
-41
-32
50
111
67
-66
92
-84
69
-102
-17
-58
-84
121
36
-60
-117
70
119
-101
112
-128
117
87
50
14
-72
-117
72
61
52
22
16
-52
45
-86
-122
-47
2
-60
96
114
-101
-17
12
-86
115
-122
-107
-119
114
-85
75
-41
91
-96
-27
-103
-116
80
-39
92
17
24
83
-24
-106
-19
-104
1
-91
-87
49
-78
104
-78
-65
105
70
-91
-89
66
120
25
51
77
20
73
-122
80
51
101
123
-96
-69
126
-97
-49
33
22
-110
50
-109
116
-2
58
-56
-22
-85
-47
-92
-78
61
-89
-43
15
-71
30
3
47
103
100
8
-77
18
57
48
-125
-90
37
20
80
93
80
-38
-108
89
71
-25
-57
57
-14
-21
-9
-104
-7
45
35
103
102
109
-125
-66
-125
-118
-40
-20
74
64
36
-92
115
-76
-6
-71
39
-68
81
102
80
88
28
74
-47
96
104
-63
-102
-125
4
112
44
-85
-52
116
-24
-2
-63
82
42
93
-49
-65
-51
-4
17
98
97
119
5
-56
-120
45
35
4
72
106
120
98
-94
83
-21
-109
46
75
-75
65
-95
68
92
42
-82
-55
-30
68
-99
-78
11
-118
66
95
-49
-41
61
-58
-88
109
118
-38
-116
-113
109
-17
47
126
83
94
51
-127
65
-44
33
-62
-38
-12
85
117
-51
12
98
-72
-48
52
117
-95
-40
-86
103
-106
32
-23
-113
-86
-66
-37
-50
119
-88
55
29
105
109
-28
2
-48
-13
73
-30
118
34
25
-88
-19
-56
-29
64
-12
120
28
-32
-9
67
-5
6
-24
-69
-95
80
108
34
-15
-47
-126
-127
77
87
-44
15
69
36
-123
-32
-33
26
27
-104
-57
87
-63
-36
85
78
-79
17
112
-41
25
-88
25
-123
93
83
-57
63
-7
34
-65
-27
51
98
7
46
-65
-50
21
-123
-105
78
-107
-127
3
79
-47
20
-94
77
-54
-100
-48
-20
-125
-3
102
42
91
28
-110
-11
-32
11
-93
83
91
54
6
121
-65
-3
-10
-61
86
-63
109
53
58
90
-96
102
17
63
-53
-9
-15
61
91
-120
-13
60
84
-35
-32
53
12
-12
83
-37
-74
-50
19
-1
119
121
-83
121
-33
-59
83
-80
93
-106
84
-105
69
-53
-106
-70
67
-87
33
-66
-26
25
27
-92
96
94
-19
-103
123
-50
79
86
-16
15
-49
53
23
19
-76
-29
115
98
-54
-14
35
94
-76
77
-119
77
13
-53
-123
20
7
51
125
2
63
-87
31
0
-41
-59
-37
-114
-107
120
114
-19
21
63
-36
-1
18
-49
88
-62
42
-100
-13
-29
-88
-115
-104
62
5
-100
17
64
112
6
-104
-68
121
-32
98
-39
-6
47
-109
105
3
49
-5
121
-101
-128
-46
106
31
-39
-111
64
-89
37
109
16
118
56
52
24
101
-103
-87
37
-34
61
7
-29
11
80
-75
124
91
-92
31
-105
-9
92
114
-4
51
-82
-23
74
104
-10
-24
-58
110
-23
34
-83
52
106
40
-59
-67
21
-70
-27
-15
58
-8
114
31
101
78
115
40
-37
-88
118
74
109
-54
44
102
-32
75
-38
104
70
-120
97
-61
-107
-115
-85
19
59
-97
-59
-115
-4
-62
61
-33
125
-58
-26
84
105
-78
34
-70
-124
106
46
-117
-112
91
49
114
-107
-5
52
-126
9
-91
-7
13
75
1
32
-73
-29
119
48
-101
-82
17
-106
63
109
39
-122
-46
12
-49
32
-86
37
-26
-66
12
41
-55
-30
-38
96
-109
-1
-126
120
11
55
-50
109
2
-3
81
-76
-110
-122
-90
22
64
-41
66
117
11
106
-105
-59
20
-105
53
-63
34
74
-89
-7
-7
-43
-118
-92
39
64
38
-75
97
83
-102
-115
21
-94
0
43
9
19
-105
-61
94
8
-38
-80
107
-17
-56
51
100
122
-30
-67
-60
37
7
79
29
-108
18
-21
94
-54
110
84
60
90
27
81
91
-62
39
-6
22
-23
-48
-73
-115
113
-24
-113
111
-111
84
118
56
74
-50
100
61
-52
-87
19
-125
39
16
58
36
67
78
-128
75
91
-100
-55
-4
-127
-31
2
66
-123
102
-120
13
58
-125
43
-59
80
1
-14
56
-91
-1
78
123
-17
-39
-25
57
-85
-17
-62
-104
-58
121
-15
-8
23
102
30
117
63
-59
-84
-100
-44
-115
-97
-109
-5
18
-47
30
77
-128
5
103
74
34
65
13
70
39
-110
73
-20
-70
-111
76
69
79
-9
26
-7
-15
27
-64
-39
56
5
126
108
9
-49
14
83
-80
12
-40
-56
-5
27
50
86
21
-54
12
28
101
54
75
88
-54
-53
70
19
34
48
-80
30
-104
-27
56
-81
106
19
85
-127
57
-45
75
-46
118
68
-38
-103
-30
91
22
-98
-99
49
-118
-17
8
20
92
118
64
55
-36
26
105
125
-26
-22
14
117
34
12
-23
-68
-19
-90
-65
-81
120
-17
-36
10
40
-85
-115
-72
17
-6
-56
-113
-46
-67
25
91
26
99
-7
59
-99
4
-98
-96
38
114
47
-116
-7
-6
54
52
-119
-16
-25
40
-41
105
-81
-103
-34
-62
96
-103
4
122
25
-42
93
-99
111
32
61
-22
-40
27
-39
-57
65
95
-119
-9
-15
-113
63
69
-5
59
-82
23
-90
-48
113
-95
17
50
60
29
82
82
115
126
-78
77
0
63
53
-88
73
-3
53
-121
50
99
-45
-114
86
98
27
-22
3
-103
-2
-18
-37
-18
-79
-109
77
-28
-23
24
-76
33
96
-37
47
67
-127
56
-126
-76
4
-118
-93
88
-94
106
-90
-117
18
-27
-8
-5
34
-127
30
3
-66
13
-118
50
46
48
-96
74
41
-40
-24
-97
-41
-17
-87
-90
-79
52
23
11
125
-98
-91
-18
-97
-101
-15
95
80
-94
71
90
51
95
35
50
10
-88
64
-25
41
-96
72
-121
69
-91
-78
-111
-43
54
52
-111
-8
-101
-39
47
73
95
18
-23
-57
-34
-18
-19
73
44
108
33
11
111
72
-1
95
64
23
72
-32
-80
-49
-95
42
81
-93
-54
-24
56
-90
-37
-40
-54
-43
-128
19
76
44
112
65
3
13
-3
46
88
36
-78
49
26
-93
26
107
-86
2
-86
-11
-65
61
-77
85
-28
29
-30
-101
-36
109
87
55
94
29
-120
-116
113
1
3
79
-58
-67
-117
-7
69
-103
-105
-24
-39
61
-27
38
-101
13
32
-98
45
63
28
124
-15
-118
-60
-115
86
51
-32
101
-78
97
-87
60
74
57
-54
28
46
21
-60
76
-106
98
75
-64
113
121
60
117
95
-65
18
100
67
-109
106
87
-42
-57
-108
-77
-80
-116
-6
-124
5
18
100
-54
100
-66
7
46
-4
-1
-112
109
-38
77
-77
112
-88
-64
-115
-91
-45
-8
11
117
-72
-11
11
-89
-20
-72
61
-107
-80
6
71
-84
47
-125
41
29
48
-127
3
79
100
-5
-76
43
106
-85
-99
-31
-63
-28
-111
9
-97
-72
-6
-19
38
-27
-81
82
125
-4
47
-117
33
73
9
-28
90
54
121
-36
55
29
5
112
120
53
-117
-80
-51
-91
-21
75
93
3
-65
1
89
28
-126
-21
85
70
124
94
-55
6
-47
104
82
-115
5
-50
-71
73
11
-85
46
95
-78
-65
-112
-80
-106
-41
114
71
-77
-111
-49
-61
69
20
-36
123
-30
38
114
88
87
117
7
-37
61
-100
-9
123
-96
-74
97
-41
-8
48
55
37
-105
94
118
-127
-32
-39
44
91
119
-60
55
-45
-102
26
-30
-3
-15
-76
61
63
-33
-2
50
-60
-13
-69
101
47
61
-20
-59
-46
-65
-6
73
107
20
37
74
7
83
-15
-73
-111
-35
-89
-68
-70
44
-64
21
-53
-5
-65
31
105
94
-109
95
-86
15
85
112
-65
124
-23
112
41
49
-111
-68
85
84
38
56
68
-8
-108
55
23
78
68
-117
11
-5
70
54
65
60
-18
-47
121
42
-122
101
100
59
-31
0
-105
-114
-90
-57
-22
-75
104
115
-114
8
-95
-68
9
54
-75
122
-2
-49
106
82
-21
-118
13
89
32
93
-61
-83
-26
110
-122
51
32
102
43
41
99
95
-115
52
-61
-103
-86
-113
-84
19
-118
-101
40
-87
20
-126
108
-120
-19
25
-62
-77
36
-116
107
-50
-73
25
-87
91
28
37
116
-78
81
3
-12
55
-75
120
44
14
16
-18
73
116
123
17
86
-64
18
1
52
-94
8
-95
-19
-102
49
90
3
-33
36
-25
98
-24
-16
-13
2
-104
-96
124
-1
63
106
-81
-37
88
-61
35
-65
-96
-70
24
-82
-32
-72
-86
-13
-119
105
-23
24
57
-31
-25
-45
121
-38
-107
-49
5
-54
7
-46
18
-94
-92
-34
121
13
66
-70
83
81
50
51
-69
-37
58
69
-3
-46
-110
105
51
-18
15
105
-98
112
-68
107
-45
70
-22
113
13
59
61
2
17
32
89
37
-54
-33
-91
51
-76
-82
60
-89
68
-10
-116
-39
-116
-31
94
66
-15
58
-54
-45
-40
12
-114
-16
4
115
5
43
-34
70
-109
114
-112
-85
-47
66
51
85
119
-52
121
96
-20
101
-41
84
-106
55
105
8
107
10
117
49
-111
-32
103
-56
73
101
-117
66
-61
20
-80
-66
38
-18
-4
107
-119
-91
107
-52
-62
-127
-101
27
41
-69
-46
-96
-89
-104
-1
54
41
-94
-123
118
120
-19
-40
-36
48
108
119
-86
-50
44
88
-36
39
117
-19
80
125
107
65
-28
-44
-103
103
-40
71
-39
100
-25
34
51
-59
20
-108
66
83
-92
55
28
-85
9
93
22
-123
-122
-102
-85
-66
-33
-76
58
116
80
-50
-77
-63
-35
-74
-95
84
-103
-104
49
-14
-58
39
110
-26
-59
26
-19
-65
-29
101
-79
-93
93
-47
-65
64
79
88
0
-33
36
-28
-8
72
-63
94
-62
-32
-26
-15
40
75
17
28
-26
-81
88
-82
-24
-35
19
93
101
-89
-98
-20
-45
44
-125
35
-115
45
8
35
-49
40
-125
79
115
-19
-19
78
-123
-32
30
12
112
33
-56
115
-77
13
-97
124
-22
37
-2
-64
41
108
114
92
56
99
4
-122
79
-120
-3
107
-122
-47
7
61
-51
-34
-29
17
99
-95
-40
-63
9
46
125
-29
110
-46
-58
-61
23
75
-110
44
49
9
-60
-123
58
107
-35
-32
21
-75
25
83
-119
-16
14
-96
110
-13
111
-4
-76
-104
-14
-80
-25
-66
47
-1
-54
121
-27
12
-104
-59
20
-59
-81
31
91
-118
-98
-126
-125
11
33
-12
-71
104
96
117
-24
79
-71
77
-35
-16
83
88
5
-99
-5
126
-86
91
92
-33
-102
-15
-52
87
68
79
-74
46
-120
35
-6
-74
39
-34
97
-36
36
-30
21
29
3
94
126
-91
109
-83
53
33
36
-19
-40
-43
-58
-93
-11
-39
24
-13
100
-111
5
18
48
61
-6
56
82
23
86
59
1
24
-128
95
59
126
20
-75
-30
14
-123
-62
-60
121
-56
-29
96
-49
-118
-72
-102
79
23
89
83
83
4
53
-1
97
96
92
120
70
26
9
-15
-100
-83
55
124
-115
-53
-34
41
-17
108
96
-5
106
-56
101
3
10
-53
63
-124
-29
-2
-94
117
-35
118
-103
93
-113
107
-34
61
-117
49
8
32
-88
11
-79
-77
31
4
17
111
101
-24
-113
83
42
-84
-121
15
-9
-55
-125
-37
-42
7
39
-106
-47
-42
3
100
-15
-37
2
-67
-111
3
15
123
110
81
-42
-72
-89
-109
118
-6
34
24
38
-72
-44
-9
85
110
57
48
-66
111
-106
97
114
-36
46
107
95
19
40
57
73
-77
69
-98
-58
-62
110
-21
-109
-27
91
92
-33
6
86
121
69
21
115
76
-125
-33
-117
116
-74
43
-61
-16
41
-107
48
68
-27
98
-10
-40
49
-117
-33
-39
32
64
-10
-100
-62
-59
78
-63
70
-18
50
-126
-35
113
123
12
115
-60
-6
41
17
-80
17
95
-103
87
38
95
-1
-36
-95
-15
13
-96
-50
37
79
-9
-100
-16
9
-42
63
-52
-5
103
29
-83
99
91
-90
45
1
-48
-72
119
-55
118
93
-118
-48
-2
-49
81
60
11
99
4
-60
19
-72
-100
99
-62
3
57
-12
-46
71
28
69
119
-99
-45
18
122
42
-50
-90
-91
-2
28
-105
122
-99
111
-102
-45
-27
-3
-123
-94
37
69
-96
27
68
94
-63
-128
85
98
81
-37
85
13
25
-101
93
112
-71
-13
-49
-116
94
-79
89
-21
98
108
-89
78
40
1
57
-53
124
64
43
-5
10
-66
106
125
-26
38
72
50
42
-3
-13
115
-103
19
-29
-40
117
109
-100
68
-31
18
-54
-71
106
115
116
37
104
-80
77
-43
92
-66
36
10
57
-125
1
-19
-57
68
-106
68
-111
-110
99
-66
-38
85
5
-88
23
116
-6
89
-50
81
58
-52
118
92
-37
-67
-29
-80
-21
68
-108
63
-101
-23
53
46
-61
-115
-55
-2
83
-58
-97
113
61
-105
16
-117
89
78
-121
-59
24
-68
16
126
-29
5
-36
9
5
76
109
114
62
53
-74
51
83
-80
-73
58
-123
85
-15
-83
-112
-86
10
102
-41
-74
91
-89
-95
-13
5
119
-107
-59
67
-80
-43
114
26
-9
59
-67
29
-35
76
22
113
-73
-117
43
-20
26
-9
-42
-43
63
61
114
65
36
-6
-125
109
-85
85
98
31
74
-42
118
74
-26
-7
37
-107
-26
-118
13
-86
-14
-33
-90
106
119
63
69
-9
117
-97
-25
-56
122
-87
10
109
-83
-1
53
-70
-5
102
-8
-35
-88
-43
87
99
-77
-39
17
88
44
54
-111
-40
87
-89
-2
104
60
81
-54
105
-6
-8
112
-66
67
19
29
11
11
53
62
-84
54
-48
95
-56
3
83
41
-63
-77
46
118
83
-75
-17
-7
0
-55
10
-73
-78
39
125
-11
100
67
-5
-54
-51
-46
63
-110
-57
113
41
-54
79
-125
-109
-128
-75
1
50
29
28
125
-82
-68
21
-36
96
-4
-42
-71
24
117
44
-128
47
92
-7
71
107
5
70
14
-111
7
-40
-101
-18
79
-123
71
80
12
-36
-127
125
91
-99
-54
52
-117
116
113
-120
70
-34
-48
99
-68
-55
100
-8
-105
90
-85
78
-18
-116
-66
-16
10
-116
92
3
29
54
-45
-71
33
-106
40
-68
11
74
-84
91
91
-18
50
72
85
78
-114
76
-128
112
60
50
-84
-49
-11
-87
-56
72
-56
76
86
-102
77
-71
-38
-15
-59
96
24
-21
-20
-27
-45
-125
2
107
84
-111
-86
-71
11
76
-115
-11
-30
89
49
79
69
31
48
-15
96
-14
22
102
47
-93
-71
91
-48
-119
55
10
-126
-63
-82
-102
120
-27
-120
75
-110
-105
-83
-128
-76
22
41
101
-91
14
-31
-38
92
28
69
8
79
69
-86
-98
89
61
123
-88
-25
111
90
-81
94
62
57
-20
29
-112
-50
-2
74
-12
22
-69
39
8
67
59
31
55
-93
-20
-3
45
92
123
58
76
88
-96
-28
57
76
2
32
95
33
19
-118
96
-106
-78
-101
78
-102
-16
115
67
113
38
-106
-63
-120
-63
22
106
-50
110
-108
-37
-115
75
31
-3
11
51
-29
-19
87
-6
101
121
-92
93
110
-37
-46
93
103
31
111
77
6
-4
-12
-14
-44
-109
-85
-96
-41
-105
-115
43
0
-84
2
101
-125
68
63
-3
-7
-102
109
41
98
-113
96
-28
84
-114
16
-46
93
-40
26
57
5
-112
110
-46
65
73
-29
-80
-128
39
-8
-32
-69
-55
-126
108
-69
90
73
-22
81
-97
41
13
62
-127
15
65
44
-45
-104
34
-39
-31
72
-9
-109
123
4
-18
50
79
104
41
99
45
36
110
-124
-113
106
1
47
15
-3
-64
-25
7
120
49
6
-75
-119
-124
-52
120
-107
94
92
4
-125
-100
-69
-54
-76
-13
-23
113
-109
122
67
-24
9
-57
-1
-76
-63
119
-39
-61
9
21
-127
37
126
-50
-15
-98
-113
-103
-94
5
122
-4
36
3
-67
84
-82
91
-101
4
-65
30
-21
-110
-124
105
-88
-108
51
26
45
-128
62
88
-38
-58
-29
-3
118
107
-13
-4
2
-31
120
-43
-51
1
-2
75
-19
48
-24
94
90
-70
-42
95
-55
-37
30
-43
-19
-56
-66
-82
-124
-116
-49
109
91
-15
13
38
-5
-12
-110
125
-102
-107
-111
-48
-118
-59
116
-26
108
-7
-121
-5
-75
-49
-110
-33
-108
-20
-103
62
97
-33
-59
63
-61
-117
82
-110
-54
-37
-28
103
60
36
-48
81
85
29
-70
71
108
92
-111
-18
34
4
92
-31
-90
-96
-103
73
-72
53
-127
-87
-118
-58
-78
-89
-115
59
-33
-15
108
-114
-19
-40
-99
94
-71
-90
51
51
101
63
-9
69
-17
-91
24
-126
52
90
-42
74
-36
105
-11
-1
7
9
-45
31
24
-42
-36
-114
84
-25
52
-110
-117
75
56
-45
96
-84
72
54
101
-101
14
-90
-105
-121
51
-33
-43
23
-8
11
-115
123
63
-9
4
95
28
112
-100
11
-41
-53
-119
124
-35
24
-121
-69
34
-61
93
112
-36
95
75
22
-37
-124
-32
-93
99
54
92
-114
-13
-37
68
11
-67
18
-46
42
118
-15
95
99
34
32
37
-23
-11
-63
-67
91
99
-76
-108
110
-126
106
71
125
105
123
-5
9
16
108
81
87
92
-124
-87
78
48
-33
-85
-24
44
-90
109
-93
-35
69
-40
104
-120
110
-6
46
-21
-71
67
70
76
64
101
125
-25
-12
112
105
-107
-86
58
106
-117
-17
82
-89
-2
104
-35
-67
-109
12
34
-50
114
-20
33
107
104
-52
69
117
78
104
-52
84
-81
-94
111
107
-13
-113
-18
-123
-68
-40
13
89
106
0
-96
71
78
-125
126
-25
89
108
61
-89
-86
98
88
-39
-84
-111
123
-119
64
3
25
94
8
-44
-8
-5
72
-48
-99
28
43
99
-65
81
-33
-77
14
9
-16
12
-80
124
64
34
67
-14
-59
18
67
77
55
-88
-69
81
-9
7
-65
25
36
16
18
31
23
-5
52
-25
-58
59
96
97
83
-86
118
57
-74
120
10
124
-82
-70
92
-78
-9
-114
66
59
33
120
-123
80
-23
102
70
96
35
70
41
72
-124
63
40
-1
-84
-25
-63
-75
-102
101
85
-115
108
44
-87
122
-25
-43
-113
-108
126
32
67
27
-21
-61
4
-88
9
82
83
-67
24
-35
47
-106
108
-84
-12
72
-47
32
-49
-110
-62
112
-22
94
90
-76
-95
5
101
-111
103
-115
-6
25
63
35
1
84
74
-122
50
-51
-81
-126
50
42
15
-125
-70
-8
22
104
97
4
-43
93
-126
-30
-34
97
17
-44
61
70
44
-26
85
-42
-128
33
-27
65
47
-90
83
50
79
19
-26
54
-54
34
34
93
10
-48
-98
120
-43
-36
103
-6
114
-4
18
64
69
83
1
-100
-59
72
-94
-61
58
-31
28
28
71
-58
-50
26
-128
-75
-120
59
-37
76
-83
18
52
-43
72
-83
8
-62
43
37
-44
43
47
-85
-98
-94
-127
88
108
107
-54
-10
-94
60
122
-79
-12
-94
-78
-32
-4
-123
-103
14
23
11
35
87
-4
-32
-107
86
-11
36
43
45
-56
33
-90
-23
104
-104
-74
84
-89
84
65
50
-124
-31
28
10
-3
-102
40
24
49
77
-113
30
42
119
-79
-101
-66
10
-71
72
-42
-51
-58
-31
-59
41
65
116
57
66
-98
19
106
59
-18
-47
55
26
-79
-117
58
57
-119
44
48
19
-103
-118
-83
82
102
105
-103
74
10
72
26
88
46
90
23
56
-98
-122
31
89
-106
22
113
-34
20
2
-31
-4
-26
74
78
-105
0
-65
97
111
42
24
-120
-52
0
-90
57
55
-110
-70
-28
-28
18
-25
-70
122
-28
-62
-14
61
-118
1
-29
96
108
-14
96
-16
41
-42
17
-76
109
22
-91
76
-114
-63
87
-71
55
89
94
8
-31
-17
-93
-13
92
19
65
0
-122
126
-22
118
-78
-26
30
21
-85
31
-50
59
-17
67
74
-9
58
2
-21
54
25
123
-62
-117
-19
-20
-34
-48
-109
-47
100
126
-121
-116
98
5
53
-13
125
-79
96
-55
15
-110
-46
-105
-4
-72
60
-58
-38
-10
-65
23
-14
-29
-54
60
126
-46
17
118
-40
-103
-116
28
-66
114
-31
27
-101
63
33
72
5
108
-112
94
37
-40
-100
75
-40
-38
-79
-46
-46
-73
88
79
-78
17
42
10
37
-80
-19
-62
-13
43
-40
39
89
-48
102
-50
-108
-44
-98
102
-79
81
47
-123
23
74
72
9
123
-125
20
-98
-112
29
54
102
50
-91
-113
-99
-32
20
83
78
59
-15
-106
-99
-15
28
-69
-89
-62
-29
-88
94
90
-6
-102
-83
-70
52
-26
27
-116
-34
-85
-3
-40
-24
-91
-18
39
-76
-33
-34
-26
47
-47
126
-75
57
-33
-123
-29
-114
-70
-109
-29
106
11
-27
-53
42
-121
23
-26
-89
50
66
-8
-125
110
-25
-91
60
84
55
55
-85
-38
-125
47
-56
-30
-22
49
72
75
-117
-53
97
-114
115
-86
21
-72
-62
-6
-102
-27
-66
-25
-84
112
38
-99
10
65
93
111
35
-45
-96
-44
54
-93
-41
-10
-104
-98
122
41
-127
-125
-81
84
52
76
-56
86
-56
-3
93
7
-90
97
-103
40
-9
2
-64
58
-29
36
-19
-77
85
77
-15
117
-93
-28
24
-111
84
-128
117
-15
-76
-25
47
69
-34
-99
41
-82
111
-92
-113
125
-114
84
-39
-65
29
97
74
72
-58
62
-9
-85
99
-116
-76
-73
48
125
-108
-110
43
8
-26
15
-47
-54
-97
-41
-114
-71
69
-64
-89
-52
123
-126
39
-115
-55
5
-27
-91
-17
104
-79
-92
-101
-7
-126
125
-91
-87
3
-45
-23
-41
50
32
-52
46
-42
99
33
100
-37
-36
-8
86
-33
-105
-69
11
-32
122
82
-39
-43
90
-117
72
19
12
28
-100
-45
81
41
126
-3
119
82
-59
80
-128
-31
91
-75
27
-101
-70
-53
-99
-117
-50
-115
24
-5
23
111
68
40
38
-103
114
6
-17
-5
121
-97
-1
-80
8
104
-118
117
-81
-25
-74
100
-38
98
15
32
-82
-31
-113
-19
-63
92
-53
-22
76
-70
13
-83
-70
84
11
-128
124
59
77
52
123
6
-128
109
58
1
-50
-1
-74
-95
-55
-97
-38
97
55
22
27
-91
26
-56
97
-115
54
29
-117
9
-49
-123
93
-78
70
-26
-15
-125
19
-91
92
103
103
-17
116
46
9
69
61
-127
-102
-1
86
122
-107
108
36
-84
74
94
12
-66
-12
34
-24
-110
-109
28
-84
53
83
121
-2
32
50
-4
0
-120
-112
66
87
-62
-25
94
58
21
-63
84
38
-14
59
-79
43
-80
4
-64
18
-69
-8
65
-99
87
106
111
-85
-5
-19
-27
118
29
88
-34
-16
-5
112
82
79
43
-24
-86
-19
103
-9
120
115
-112
-86
109
-110
28
67
108
98
118
-15
50
5
21
-38
109
48
95
-125
-46
-22
-104
-62
-51
-58
37
-7
63
-84
-5
-57
125
-49
-70
53
-122
107
-27
29
-42
42
50
110
83
59
-74
-50
-60
-66
-25
-53
116
117
70
-47
108
-70
-6
-75
-29
-97
-74
-123
-11
-29
80
-10
112
-59
91
23
109
-4
16
-14
-24
-92
-124
-65
-121
-26
-53
46
5
-45
-3
-6
-33
81
117
41
-107
14
-102
-116
-7
107
106
-106
30
-108
125
62
8
-66
-67
-62
39
30
-94
38
-84
-3
-10
-111
-68
-74
-83
105
68
-94
-16
76
-106
-81
76
85
-53
-65
-102
-50
-126
-5
-39
-24
-7
69
-66
-91
16
-93
59
-63
89
-88
32
109
-93
93
62
-72
30
-49
44
108
29
116
106
110
-70
24
17
-45
65
70
-128
69
-114
92
112
0
98
-124
11
-93
117
36
-19
67
80
-75
-9
91
-59
109
-75
-92
67
118
101
61
-122
-26
87
89
-62
65
-42
-75
23
126
46
-39
68
-61
-94
-30
83
32
-113
-8
-41
84
-84
-20
94
45
-51
94
81
21
-10
33
55
45
-19
110
-44
125
27
51
63
77
115
-110
-115
-90
32
14
-119
66
96
-32
-99
53
-82
45
112
117
-36
-125
44
108
64
82
21
-40
-44
-95
-88
120
96
30
-94
-82
19
-57
1
16
-31
34
-23
48
-60
-20
-120
-45
-4
35
22
-88
53
13
12
107
114
19
-113
34
116
-54
-37
-113
12
22
-87
107
-114
22
-103
39
-61
-120
104
-31
28
63
49
-73
47
-92
-95
64
20
-95
-106
-49
-9
118
-54
-90
-122
-116
-113
109
22
-36
-96
-7
33
-23
-65
-65
15
105
91
72
68
-3
-37
111
-122
92
-74
117
49
-4
-80
29
-15
42
-107
-36
-125
-26
-22
80
-4
80
-73
113
-23
113
69
100
-5
-59
-109
100
-80
115
-6
-88
88
56
16
88
-11
-9
42
68
31
47
-56
18
-12
-13
-64
108
53
65
-28
-26
-34
40
92
-88
87
-14
-56
53
58
-26
-90
-9
-21
53
111
-122
75
1
-53
-52
-52
113
-93
86
-83
-99
38
72
13
-20
-122
31
60
93
-4
17
21
99
38
-62
-5
67
100
-3
-73
90
-114
-126
-72
36
68
104
-25
112
10
-45
70
85
-78
-50
60
-98
-124
-13
-34
-91
-15
-70
90
-20
-71
31
-101
46
77
102
57
-125
-66
102
-87
-42
75
-92
-25
2
-102
-31
7
11
66
21
-88
125
-62
-48
-22
99
-38
48
24
-46
-95
-26
-119
-61
-75
-22
37
73
-62
-54
-22
101
-65
91
122
-59
99
-98
49
103
22
74
-24
13
-106
17
46
-41
62
-53
-75
53
85
39
55
-47
-10
92
45
40
19
-27
-21
22
74
-90
85
-118
68
-34
-118
-26
50
-96
63
-52
-13
124
38
-93
121
76
62
-90
73
-122
24
-46
-85
20
81
117
55
66
-63
-2
-32
-38
-60
-24
-85
7
-70
64
79
122
123
-93
-35
-109
-82
-12
33
-108
-10
-93
15
76
40
-37
-37
51
120
54
35
-8
87
-57
80
-65
42
30
-65
-73
-14
-67
108
-92
122
26
-24
-119
7
-80
98
3
16
74
-88
-124
28
58
80
-50
-116
-26
-87
-47
105
126
32
-104
-91
38
-20
-72
26
105
-75
72
-33
40
-20
-44
-19
120
29
-80
-67
-65
20
-33
-15
56
94
-94
47
86
60
-19
79
-38
61
38
-73
-90
-91
-62
-79
91
-104
25
43
-107
-81
-85
-44
-30
49
-51
-28
-72
-35
-38
101
-30
-31
-25
100
-111
-81
-125
50
-10
-48
-17
-98
-106
36
2
49
9
10
-122
-31
-97
125
72
-8
-111
-31
-122
-1
-73
52
-93
-109
81
-79
65
3
-6
-60
125
26
29
-71
19
12
-84
118
48
-87
-23
-55
-128
-32
102
-103
-60
29
75
96
37
-13
-85
-26
78
-101
-92
-93
-50
-3
-89
41
-8
-48
112
-101
110
-119
78
-76
-43
90
97
121
-116
-101
-74
-100
78
24
-128
40
115
12
36
-73
-70
-4
20
-54
-91
-5
-12
87
-39
16
8
-96
86
90
17
-86
-13
58
18
41
-17
107
-89
-102
-107
22
31
42
56
-75
75
41
112
-127
126
63
-68
-103
89
-105
-45
55
28
-116
58
-73
-23
31
120
23
-70
101
-69
-55
-40
-105
-34
41
-111
-89
-50
-107
-68
-69
23
-31
110
1
-36
-13
12
-31
0
60
-97
-28
48
-40
76
-93
14
-92
63
96
-85
80
-5
15
35
-73
-80
-90
71
-65
-90
-33
44
-74
30
123
-23
-109
-84
89
89
-22
10
-98
-59
28
27
53
53
-80
26
-56
100
32
-10
-16
121
123
112
8
15
91
34
15
92
72
49
116
-54
-27
18
-24
-101
-122
-9
-66
-61
77
55
-60
-39
-21
-25
-78
73
-119
6
82
121
63
-52
78
-38
12
-39
115
-26
-40
-117
-61
107
-62
102
106
11
111
77
-81
5
-93
-126
-54
108
54
109
20
-104
-128
-5
101
-54
-36
-19
105
-48
-23
-113
-120
125
-88
-110
29
40
-76
-70
-42
-29
20
80
-16
-58
-125
0
-48
73
-72
99
121
-108
-105
27
-41
61
-115
-112
-56
117
-86
-77
33
46
101
-127
110
-117
-98
-88
-108
126
-83
82
10
8
-128
88
20
103
100
74
-26
62
-85
77
-128
-6
-10
73
-51
2
-76
27
-48
-84
-10
92
85
57
51
-89
74
118
-59
-21
78
31
-4
-100
-58
102
8
102
-85
-4
-32
45
85
122
32
-13
-64
-85
76
-60
37
-109
78
84
38
45
-115
66
-15
40
28
9
-121
74
77
-97
50
22
79
-67
-28
-37
73
116
-109
-23
-58
39
-101
-16
106
43
10
-14
-105
-1
66
58
-34
-14
-61
28
16
64
-126
-119
78
115
33
-8
116
-5
-14
-42
-27
-57
80
-81
-19
-32
-12
-60
-30
84
-66
86
-13
91
15
97
81
87
17
-94
100
14
21
-37
54
-59
-82
111
-27
-69
-79
-80
124
-103
-95
83
-29
-122
-34
-25
40
-39
97
-33
-22
-82
60
-125
78
-81
13
-15
-13
48
-15
70
-122
-37
-54
-101
59
-84
119
59
67
30
63
-13
-33
96
-67
82
5
-74
-2
-67
65
-34
-13
69
-10
57
1
11
69
122
126
-59
123
65
58
-27
-24
-44
-109
21
-103
39
-9
93
114
-101
-21
84
-83
-118
30
-40
70
104
92
73
-51
-54
-93
80
-85
-49
78
-63
77
-80
-49
-95
-38
79
70
82
78
-67
-33
-11
-93
-52
-106
-40
89
10
108
71
68
-126
111
-49
-74
108
83
-1
90
-37
109
-49
110
-8
-29
-54
54
74
54
109
-57
24
6
-38
120
57
101
32
44
20
-21
23
-119
-41
-82
-19
-7
-32
114
79
-38
95
-76
46
12
-123
80
-23
117
42
10
68
109
-3
-82
-67
54
4
3
-28
126
34
-101
-81
62
-5
-9
-6
83
-120
86
-105
-15
-56
126
13
23
-68
-34
-108
48
-30
49
-4
17
-6
-55
54
-104
44
-118
-30
93
-107
-44
-29
-78
124
-36
-116
-115
63
-70
84
6
9
47
-72
34
-74
-102
-90
-103
98
69
29
-15
-109
-48
30
-9
29
-25
-31
68
-103
89
56
-90
-46
0
85
82
-21
-100
87
62
57
34
-30
-104
86
-75
-81
-122
32
-83
116
-14
-52
70
-52
-30
49
74
-56
96
114
87
-26
-42
-42
-96
-41
83
-81
-20
3
-92
-56
5
67
10
104
37
105
2
-55
-46
-14
-81
-40
-125
81
-124
-13
56
100
-125
-76
-32
-45
-38
8
-108
-26
23
-99
-123
115
0
-72
-4
24
89
19
28
-27
123
39
37
-128
123
89
-128
25
101
61
-28
109
-79
64
-60
37
-65
124
13
57
7
-9
-109
93
-124
-66
91
-74
61
-31
66
64
-2
95
-62
71
10
-35
113
78
-94
19
-98
-60
32
-14
17
36
-83
1
113
-36
55
13
-34
58
-3
-53
102
-82
58
-8
18
123
31
95
-10
93
-92
-23
-96
-22
24
40
-3
-1
-37
-81
-67
-15
-9
-125
-16
86
-112
32
82
-19
20
65
-15
60
-15
-114
-73
-39
7
-38
-104
-114
-110
-19
114
-102
47
64
66
-88
65
72
-127
16
4
-25
70
122
-61
-40
-51
-20
-73
108
-105
90
-101
21
95
-22
-64
-20
61
-81
-11
10
-8
23
53
23
65
44
-24
-23
-116
18
72
-99
22
91
-80
-30
-13
108
41
7
22
69
37
55
38
125
-62
-44
113
-15
20
67
22
-85
17
-127
-30
-59
73
-57
-37
119
53
84
29
-23
-46
-43
-35
-52
-38
68
-4
-39
106
10
-84
110
58
112
-32
53
97
-50
-101
-77
-76
-72
22
-25
-44
23
123
-126
-65
-15
20
-42
0
-81
-33
-34
72
-90
124
-107
-102
-95
-32
72
107
-89
-80
-128
35
40
45
36
-63
78
52
111
-98
46
-100
87
-56
19
9
-71
71
-40
80
106
6
-122
34
103
-20
21
-12
82
26
29
-112
-100
39
76
1
-65
112
115
39
7
-23
12
-49
48
-117
-104
-74
-20
-99
-27
27
-40
-115
19
58
108
74
-66
-67
-56
53
-115
95
-117
-116
-58
-30
-38
-100
117
110
103
-9
103
40
2
-46
-67
-4
46
-22
14
108
-82
-72
1
105
65
-89
-74
-55
-23
-43
-20
44
40
-123
-11
-49
55
-17
-76
-13
-66
89
-30
-36
68
60
-78
-4
-54
59
-72
-79
80
-94
99
-17
125
105
61
-97
26
-1
90
-47
-79
16
-117
44
-111
74
-23
-114
17
37
42
-86
1
-42
-18
-57
15
-40
-23
-63
-114
126
115
-118
-93
73
-72
-127
105
-65
30
13
60
-119
27
39
-48
-109
111
-109
44
-55
40
47
-36
-123
-47
-105
39
45
-13
86
-51
-127
84
38
91
88
-33
119
-117
35
-75
2
1
101
-61
104
125
-79
69
98
-34
42
-115
-79
-55
90
-30
43
75
-7
-103
23
-102
68
126
-23
-114
118
38
82
24
101
17
34
-90
41
8
-54
66
-50
-116
-117
25
38
92
-107
-99
7
-66
17
83
-10
-1
-17
-20
-108
-10
113
-72
-88
24
-12
113
-66
-46
94
126
58
6
-47
75
70
-102
104
-94
25
-52
83
-105
31
-30
-87
-81
59
77
85
93
-58
23
125
-69
-99
42
56
66
106
125
-13
-3
39
38
-15
-79
8
80
-86
-108
79
42
-69
63
-57
-107
-28
43
-11
81
-113
16
-63
96
47
93
20
-23
23
15
96
-100
119
25
-39
-71
69
-115
-1
17
-24
-82
-15
65
-71
-89
-90
-80
-78
103
-94
-101
50
8
-2
-126
-67
77
69
102
60
-9
53
-16
-36
-14
94
95
-33
123
5
-4
68
89
-48
30
-13
-85
-30
101
-5
56
49
27
88
-7
17
6
-17
124
-110
-108
-117
22
-59
26
58
16
17
-116
27
-18
-105
11
83
54
-114
-69
-62
70
11
66
-60
35
94
8
71
59
13
44
91
86
-11
-40
11
-58
113
94
-43
81
105
120
64
-106
81
-121
105
92
109
-77
-62
76
13
118
-59
113
-40
69
-85
75
-18
39
34
-79
-71
-61
-38
23
23
13
-118
-60
121
-69
-37
75
-3
118
-48
-34
-94
4
-82
-103
-90
-115
48
92
-30
-46
-91
75
-105
-90
33
75
22
42
-111
-66
65
114
-38
-79
-51
-45
76
13
-40
111
49
-61
-18
-118
118
-50
-2
-100
90
-65
119
-49
78
-117
-108
37
3
-68
30
113
-19
25
-123
86
-15
-71
-71
-32
10
51
-84
27
-91
43
-94
83
67
84
2
-114
-21
-71
-48
-112
113
0
52
42
74
73
36
-124
-53
89
101
55
71
-29
-43
96
-33
-20
98
-120
-31
60
-97
68
8
110
-54
111
11
-126
80
-74
29
54
38
-74
42
-62
61
-45
-120
27
-116
114
-117
34
-66
12
122
14
87
36
45
-58
54
-37
