48
99
-9
18
-72
86
92
-16
38
-118
104
48
-30
-31
-23
64
-69
-70
12
86
25
-95
-64
36
-27
109
23
70
13
98
-36
95
104
113
102
-6
-18
45
81
-75
97
-93
84
32
-37
17
-74
9
70
-83
-48
-124
-92
-58
-53
-13
51
85
97
-16
61
-85
-11
-53
-104
-97
-119
-105
21
-31
-8
-29
114
17
-14
112
28
81
-23
-38
-72
10
49
74
-51
-6
37
21
-85
111
54
24
87
71
50
120
43
49
103
92
9
34
116
-78
23
74
-102
-71
58
-45
-112
12
-124
-100
45
-34
109
119
120
39
44
-51
51
7
-78
-100
74
-8
-43
-43
-85
80
-81
3
-19
-81
-95
-54
-85
86
-88
42
2
40
-7
62
-11
17
117
-97
-63
68
-54
-58
83
79
1
78
113
35
-38
-34
-26
125
85
-15
-49
5
120
109
7
8
-1
36
-109
-98
79
13
56
72
-3
83
66
125
110
47
36
76
-106
-4
-104
103
7
125
73
-12
-46
-11
-73
122
63
91
-26
105
-33
103
24
56
120
-61
-57
-2
125
5
-60
110
-57
-76
-25
-53
44
26
83
-119
97
-122
34
-46
-3
30
69
-80
73
-29
59
-103
-10
60
-29
115
-116
27
33
-61
37
-109
4
-15
107
-73
-106
28
-91
-73
12
58
81
-30
-25
-43
95
-49
-7
44
7
-101
-35
-50
26
35
-107
-31
-16
82
-73
119
83
101
-21
115
-21
-125
83
-27
-121
112
-74
-37
114
98
-93
105
1
37
115
-104
90
64
-50
91
88
-80
62
87
-120
-89
66
126
122
20
-89
37
-19
51
121
-77
-103
-75
-34
-20
82
65
24
-79
-12
40
-1
-32
114
-87
11
-124
-124
-14
-36
8
-84
-30
65
-46
67
71
-7
-76
-22
36
28
16
-80
71
11
43
-15
-53
-23
-96
43
124
-103
38
-60
17
-2
81
29
-39
91
-15
-87
98
-122
-71
-125
-93
119
-128
72
-114
-22
-66
80
-30
-109
-101
-69
19
-93
82
62
73
118
50
72
-80
-45
-94
54
-61
-52
21
97
94
-65
62
36
112
55
-65
112
-10
38
88
100
-80
-55
62
-24
100
84
81
19
91
-123
-119
62
108
-41
78
-52
17
30
20
-50
26
-9
110
118
-115
52
-71
-56
-28
81
-15
25
11
-79
-127
-57
-44
8
124
-1
13
13
-88
-28
-96
5
-126
102
-4
-87
-80
-35
96
4
40
38
-127
110
-116
-9
-17
-111
31
-72
18
-53
60
125
31
-68
-78
-122
-104
-54
-63
-68
-126
69
34
-31
83
18
102
51
120
2
61
14
-111
51
83
-68
-84
120
-68
-90
-18
23
-37
16
0
-111
41
125
-119
-116
-95
102
-100
80
68
10
96
-23
96
-88
-52
-20
124
17
-70
47
30
-64
33
-88
-119
109
68
93
111
-63
124
-10
-80
97
80
-118
120
5
79
67
-38
13
-57
-62
-52
-72
-49
-99
16
-68
-121
-86
-126
-70
-28
-89
-71
108
-50
49
-91
50
-83
-47
-105
-10
51
-24
-25
-113
-40
3
-122
-54
4
-54
-31
38
-115
74
39
6
-88
-116
13
-50
-54
-76
-5
-38
104
-55
31
15
25
-22
30
113
58
-54
-105
77
100
8
15
22
-34
67
-109
97
-87
75
15
1
16
-44
-96
31
-56
71
-24
-54
-72
98
120
46
125
-26
85
-2
-6
6
-40
66
29
-85
94
7
107
64
78
-64
103
-29
37
-60
-85
109
21
-69
-101
60
93
-85
-58
-88
45
88
-121
-43
49
-38
-11
-112
-111
-64
-20
-32
-84
-48
91
44
75
76
-69
89
-84
-3
-61
-64
-25
-52
-64
-42
-123
-71
84
-43
0
52
-36
-126
83
-34
-86
-62
90
110
-31
108
109
64
-114
11
-30
65
-47
-102
23
-113
98
104
94
57
12
-116
59
25
105
-65
29
-91
19
-6
120
-4
-72
6
24
-119
90
1
72
-56
-38
-102
-105
-118
-11
68
30
125
-19
-128
3
-8
-126
118
-128
83
105
-122
-98
108
-10
95
-51
79
54
80
-44
34
91
94
115
88
-90
-32
-57
-70
58
-66
-112
15
-106
113
-16
125
11
-78
-38
-30
-5
-16
-67
-26
-128
64
115
99
-120
-15
-24
-66
-82
-42
-36
15
-20
58
118
43
41
-23
-68
-51
31
-21
-81
7
-118
78
-20
74
-2
76
97
84
54
25
4
111
-115
-20
-118
13
-97
68
-57
55
-101
-1
-107
-23
48
-17
-90
-105
92
-53
112
53
-66
22
21
-15
-117
57
-79
-103
-30
84
-43
6
114
-25
-69
9
-66
94
-1
23
126
-12
43
89
22
47
81
-9
60
103
-58
17
1
-19
-42
20
-30
-38
-16
-45
13
-67
-33
73
5
-110
4
-81
86
77
-123
53
5
-126
78
-48
113
48
-53
14
99
109
-61
73
-42
-35
-84
99
-48
-3
123
99
-92
104
-23
1
-33
76
97
-120
120
-8
34
27
-5
-91
-69
-90
-11
-59
35
110
84
47
71
-118
124
76
-25
-17
77
34
83
-95
35
-55
-38
-42
-114
43
95
-53
-116
2
-14
12
-82
-127
-90
125
112
48
3
-127
-22
82
-96
38
53
42
80
-24
6
46
89
-105
-86
-124
103
-83
123
10
-107
-99
-21
60
38
39
-20
87
-65
-25
-59
94
11
-51
32
-24
-47
-45
-67
-58
-75
103
65
-49
-60
-18
-21
52
-76
-25
-26
72
126
-51
-73
62
-68
-47
92
34
-102
53
100
-89
84
-127
-22
67
73
58
-128
-35
-88
-47
21
74
28
-96
-90
22
-82
-116
-73
39
-30
-16
-92
-19
-71
-76
-86
122
-52
-58
-36
-50
27
80
70
-109
-95
79
-75
71
-61
-44
-77
-85
60
-35
48
25
-82
77
-40
-54
-124
-95
-44
94
20
-81
63
-11
-10
103
-41
92
-126
-4
-17
-21
110
72
55
80
8
-98
-95
-23
73
8
-52
104
-64
-66
76
-119
-85
-59
114
-91
-55
22
-83
72
-57
-36
5
2
83
92
-94
12
33
120
-17
48
84
-14
50
-77
72
21
-23
110
-128
79
-34
-50
29
-108
-86
-34
116
-82
-113
46
18
-89
-84
27
50
107
114
-92
-79
-114
34
-64
77
42
-5
59
126
-105
27
-75
121
0
-83
111
67
-63
-89
-64
35
-40
-27
100
-43
-86
52
-94
122
79
6
-119
-105
16
-59
50
5
120
-19
-66
-70
29
84
-39
36
-85
-10
-123
61
-52
121
38
46
113
-108
-84
-91
-27
-77
-86
-73
-79
124
1
117
61
55
0
82
-79
-37
-2
76
-64
-86
55
-66
-59
-71
37
-60
-100
52
11
-125
-115
20
24
-66
40
-97
-121
83
-63
-33
87
108
16
47
65
-112
-46
68
-109
33
82
-93
71
-71
-46
-93
1
101
-43
68
75
125
105
-45
-12
-26
-89
33
26
-71
49
-71
-109
-43
-92
-8
96
-21
-71
-50
-72
106
117
-38
-128
70
104
-19
84
46
83
34
-39
113
108
70
67
122
61
-99
86
-77
-9
-18
89
20
-29
-45
111
-111
-42
-66
40
-86
43
-123
111
-51
107
9
71
69
-124
-28
-69
117
44
121
-121
126
-128
-58
14
116
-23
32
-5
-32
92
5
75
-61
-120
-58
48
47
103
91
18
22
-63
70
52
-54
80
90
79
-94
-77
-110
121
12
-15
91
88
36
-32
-11
-114
-21
-87
-65
78
-33
-50
-1
-55
108
85
-33
-63
115
118
-21
102
-118
70
-73
38
81
-109
121
6
-92
-66
0
124
-43
-52
-85
79
9
81
25
-46
85
122
52
29
-45
-64
123
-4
100
-123
18
48
93
-127
23
-17
-80
-38
-76
85
-88
27
-46
-44
-96
-50
-82
-76
57
65
126
-49
109
-42
-40
6
112
-53
-91
-13
87
-13
119
-103
106
-96
-73
-36
84
-90
-77
-31
51
7
-70
93
-119
-125
-46
21
8
-58
71
-88
-23
109
-64
54
-52
-102
-2
-65
-124
102
113
91
-69
61
-105
41
46
-51
-106
124
-97
-71
-53
27
96
33
-103
-23
105
-13
-75
119
40
39
-38
52
66
-89
83
64
-116
-7
126
29
3
-19
-52
-117
92
-120
-1
-8
-128
122
-61
35
-42
43
12
67
10
119
-6
-4
14
51
20
94
-67
105
103
43
-94
-87
24
-125
-114
-67
87
-108
-125
-71
42
-51
118
10
1
16
-81
109
68
-73
-19
67
32
-55
-81
-44
-14
110
76
-43
-64
-13
-95
62
-19
62
1
38
-64
-122
78
1
65
49
-34
8
-113
42
-11
118
-79
119
120
-1
103
76
-53
-99
-28
-101
80
-123
-17
-34
37
-87
94
-104
13
-86
28
17
-69
27
29
123
-89
-126
106
-88
98
-62
70
-102
-80
-81
-29
-112
-67
39
-20
123
-15
-14
-87
-82
-38
-13
-118
71
17
-13
-44
105
55
-87
-40
-83
-24
76
-39
-53
106
-40
90
40
27
-104
-10
82
-110
45
103
-50
87
-92
-57
29
-16
23
102
-66
47
-117
-44
-13
-117
67
-12
125
113
38
-97
8
-62
-8
-110
122
54
-98
77
-67
34
-97
-32
-7
9
-88
-91
14
-50
2
-112
85
2
-32
-97
-65
8
-96
118
-65
-118
-99
117
55
46
86
-76
-121
-117
64
-62
-106
-16
-114
-103
-11
-18
-58
-43
-105
68
68
9
67
-105
65
-102
120
123
-102
-65
71
-29
-66
115
91
110
40
126
13
-72
-69
56
-27
67
-42
69
-102
57
123
22
81
32
-76
7
36
112
-115
-94
-121
32
-107
-128
37
-63
126
108
97
93
0
-41
-95
-68
16
-116
66
-33
17
96
-122
72
-17
122
21
58
-42
-95
-87
96
-5
-88
-19
107
81
-26
-75
92
-5
18
70
94
0
-114
-93
-27
15
110
-117
91
-73
121
52
23
84
28
63
42
-109
4
-62
-39
-6
83
-82
92
-89
-84
0
80
6
-30
53
57
-21
-100
-97
106
114
9
38
16
-103
-14
-72
-37
19
-28
-46
102
63
-23
26
29
21
-88
-69
-96
-97
-63
8
40
-5
-108
-105
102
-82
-77
31
124
-40
-69
24
-60
118
80
-8
-85
-97
-46
-95
119
13
110
-50
-121
-92
-60
-23
25
118
88
-29
-67
81
-100
119
-126
-75
-25
122
-6
-71
-82
35
-86
-89
-115
-74
100
76
23
80
36
-53
38
-86
-43
82
14
125
18
-109
-86
-93
-66
-42
-79
4
-100
72
-43
-47
-41
28
61
104
85
57
-58
57
-60
-112
-113
14
34
-82
6
116
-74
-4
-24
-79
66
-114
-115
10
37
-81
54
-89
6
-5
65
-40
2
112
12
66
8
72
112
119
75
68
33
100
75
75
77
121
1
1
36
-87
-68
-102
64
-112
-57
-88
58
-21
-3
-14
-98
-110
-122
61
-56
126
-105
-46
-7
-53
-35
105
-71
-60
2
109
79
45
-71
-97
91
-121
69
-40
120
-70
29
30
-71
-54
-34
-105
-87
70
-53
-115
89
9
-92
-55
0
53
6
103
94
-121
-4
89
-40
37
-88
-110
-81
-118
114
55
82
28
-108
4
-76
114
-121
13
-51
-115
-35
114
107
111
-17
76
91
93
-128
-117
25
-37
74
120
61
23
-1
-102
31
-113
33
109
44
126
73
47
70
-106
-68
-51
-119
-9
83
-81
98
84
-22
49
-4
-5
-106
-26
94
-29
-33
-18
87
78
80
72
63
-78
35
11
-16
24
-42
-17
-30
116
-93
-107
-9
54
-45
12
21
-103
28
-84
-100
-21
-107
41
-10
-92
-33
81
101
-110
-86
100
47
67
-103
-120
-40
-111
73
98
28
-80
126
111
-115
101
120
-37
50
-97
-114
43
-33
-3
-31
-115
-104
83
49
-101
-15
-105
16
-26
-58
-104
97
76
-67
10
38
99
84
69
-85
-105
68
-13
-40
-80
-76
66
-27
-80
-121
71
-70
99
-103
-83
6
-68
72
48
104
44
-80
-25
-101
63
-60
13
20
-87
-105
-62
-56
48
-81
94
-121
-117
-103
105
125
-115
114
20
-87
12
-41
-107
76
8
-95
-12
117
-59
75
11
-122
-55
123
-70
68
-80
30
126
-73
18
-113
-66
-3
-14
-64
-71
-55
-54
47
112
20
62
102
-28
68
62
123
-128
-57
-51
-26
32
59
-87
-79
-2
-78
65
103
-24
10
114
37
-109
33
76
106
17
-26
94
-54
85
-81
64
-17
-106
-115
25
-20
54
-101
16
34
14
-16
110
-63
-128
60
116
-98
-76
-7
-50
-125
103
79
-75
-19
8
-59
-50
51
87
105
-10
-114
-110
52
-24
-42
39
66
62
-53
-79
28
-45
17
-8
91
-19
21
23
-42
-5
30
67
-81
122
52
71
-45
40
-38
-42
-76
-50
25
26
92
-114
-65
37
118
-40
30
68
-34
69
-71
-122
125
62
7
68
11
-92
-10
-94
12
-6
-13
105
18
2
33
-52
44
-20
-20
-96
13
120
-6
-62
30
118
89
-33
-2
-17
-40
-68
5
-53
-83
-18
-29
105
79
97
-123
-74
92
-23
67
94
45
71
-83
-39
99
-94
78
-114
71
-15
-13
-106
101
-90
10
-54
-92
102
-47
-67
31
-32
42
-51
-60
-71
61
-27
-42
-5
-118
-121
123
-77
-35
30
-123
21
-59
-105
-67
17
-117
25
26
6
46
76
49
46
-19
-105
22
-78
-56
122
14
60
-122
100
122
-64
-82
-15
59
-8
-82
-4
33
108
120
105
-119
-43
-78
-96
-6
122
87
44
-97
106
63
-59
86
10
-35
18
-82
-40
-109
73
101
122
32
7
-103
-101
118
-73
82
26
-99
108
-79
93
62
-58
-88
99
-51
-95
106
101
-109
4
106
26
60
58
87
-91
-111
114
33
-19
66
-4
-70
-8
-2
-67
48
-50
38
-94
111
-77
-77
81
75
58
-11
4
18
98
42
-28
-55
122
70
-45
-54
126
0
-53
39
119
94
122
37
57
-94
-95
-113
46
-18
-121
33
-47
-54
-19
-97
27
47
-18
18
1
-75
17
-82
44
-62
-80
54
-86
59
-112
-72
-111
30
-77
-84
-84
-122
-70
-57
-12
-37
-64
-75
-19
86
9
-80
22
-37
-27
58
91
19
-38
-18
95
-103
-41
83
-82
76
-22
-16
3
-62
6
-102
74
-120
-93
-81
16
93
22
23
-52
94
123
105
120
14
59
63
41
84
27
53
-15
116
107
-2
-118
76
48
123
-105
65
97
-104
-108
7
17
31
-125
27
15
-85
-41
-22
105
91
-98
109
85
-45
76
10
-98
53
-3
32
-60
-107
-80
103
-113
-74
39
24
-11
125
89
-111
-80
55
-51
-107
-96
-22
-94
74
74
-18
60
103
-118
16
-34
116
31
-44
-78
94
-73
100
-7
12
-3
-98
122
-28
-15
-24
33
-28
28
-114
32
-81
21
-80
-122
27
-118
94
-108
29
29
-82
26
-126
104
18
-11
-79
-67
44
-3
91
61
-50
12
63
65
22
44
111
-92
-49
-13
100
37
35
-123
-64
27
-47
22
118
70
-48
47
98
-82
-102
89
-55
-39
23
-91
104
-80
14
-82
88
74
-87
54
43
-42
4
4
91
-107
58
118
37
122
62
-47
95
89
79
121
44
56
-110
-6
25
46
6
-88
-20
95
-41
-118
62
-46
19
-65
121
96
-126
72
-28
-18
97
125
-32
-1
-89
-61
64
-10
-121
-2
46
-120
41
14
-5
27
-5
-114
22
38
-69
-29
-16
-93
-105
23
-123
60
-124
-110
112
22
80
17
17
-21
48
40
-117
-118
83
115
76
114
-91
-125
-58
91
-83
-16
63
37
-64
-13
91
-28
-24
-112
112
-48
62
-82
57
-65
-61
-113
84
-53
-85
-68
7
-46
55
28
-120
-4
111
65
69
-105
66
-78
-107
58
-52
-86
-28
52
24
108
81
25
-125
67
-116
-85
58
126
-35
40
72
2
97
110
-17
-119
-36
-46
-26
57
42
-23
29
-103
-69
-15
-46
-40
38
108
-4
-52
113
-15
-119
-26
-48
22
89
93
-121
106
76
-116
-117
5
-15
53
59
-47
-20
-95
-3
-10
109
-94
37
-125
29
32
-121
-24
115
-32
-40
-116
-109
96
-125
-104
42
5
-71
35
16
100
48
52
39
93
-69
69
52
99
-48
-6
-127
114
119
95
110
119
17
-89
-13
59
3
-93
118
-26
68
-109
124
-38
18
-82
-47
89
70
-125
-42
23
41
71
99
-54
-83
28
15
109
-30
6
97
-21
27
-79
-49
52
122
-47
-63
116
92
19
53
-122
78
44
-97
-58
37
-117
68
48
-19
-80
-42
-18
46
123
11
-89
117
121
-105
57
-57
-35
15
23
93
30
88
-68
-73
53
-71
-93
108
-32
84
-13
66
-32
48
76
68
53
-4
-107
97
38
-45
10
67
-104
-72
71
-44
-124
-120
-98
7
-122
123
-44
118
40
113
-122
-116
111
50
27
56
13
-93
65
78
116
-58
-75
-81
-53
57
-14
61
33
26
-95
-33
-25
114
4
-125
58
120
-55
56
84
98
83
94
-41
78
33
47
-80
-89
-2
-38
-89
48
-75
27
10
-30
-38
97
-100
-95
-70
78
14
44
95
-105
-34
-126
125
-120
-69
-102
42
6
-24
-3
-74
-38
-66
-31
-115
114
111
-73
47
-73
78
-49
17
-93
-116
-86
46
36
-35
-77
12
8
-123
-106
-32
52
-57
54
-73
-87
79
-25
-47
86
56
-61
-96
8
11
118
39
-106
72
57
-50
-21
-61
-33
56
86
28
43
85
125
90
-126
-11
35
105
-54
91
-15
35
-5
9
-46
-127
114
19
103
89
-24
62
-7
125
-108
-50
-76
28
-107
-118
84
-32
22
-17
-12
-86
-76
101
85
-61
-50
88
4
-121
94
117
-28
34
-77
-85
55
-122
-95
78
32
20
-74
68
15
11
-27
16
-127
47
-11
14
38
-47
-101
61
40
51
76
-127
100
-48
9
45
29
0
-74
-42
92
-66
-113
-118
17
55
95
20
125
-75
117
38
36
-82
-60
37
77
118
-110
-115
-96
-24
13
34
-98
67
-25
-53
-60
-47
-56
21
-66
61
-20
48
104
47
-105
121
109
-66
21
46
26
38
104
-109
-76
68
-115
-123
-73
-29
124
-41
-114
-52
77
12
-112
-26
-5
-123
-35
32
75
43
93
-13
67
-31
-110
99
23
22
-37
-47
-85
-25
75
-44
-102
-62
44
68
-9
-90
83
-22
-70
10
122
-6
-24
54
-11
-83
90
-46
-114
60
42
12
106
78
73
-24
-17
-27
-90
-120
-36
-52
-36
-81
91
-9
-37
-43
-18
-25
88
-31
-125
-19
27
-4
109
47
-59
100
52
66
28
114
-31
-70
-50
65
-38
77
83
-62
37
-19
-127
-82
121
40
-125
-10
-26
-10
-76
-44
-26
109
48
-70
110
16
28
11
-111
-18
59
-126
78
-105
102
46
-115
-14
88
-25
5
-26
40
-117
29
-112
-2
-1
-9
119
-59
96
95
107
-76
29
-34
-125
-65
-94
54
-2
14
-63
-71
-55
71
-8
-100
-37
-88
68
27
-72
30
-4
52
-111
-120
-110
-107
9
-56
3
-55
10
-75
-19
23
-58
92
-8
125
-40
126
-107
-91
-29
69
89
40
-40
-44
-99
71
-41
-116
2
-112
74
-120
-57
124
99
-15
-66
-3
90
58
38
-123
-124
116
80
-11
-21
-82
17
17
-55
-74
-53
-60
8
96
-90
77
74
-53
-99
-123
20
-104
30
70
120
-12
54
-15
10
56
-24
53
-33
45
-70
-87
5
-4
-22
17
-54
-118
-96
-88
-108
-30
67
-30
-67
89
59
38
106
-110
-78
-51
46
-93
-24
7
-17
-85
6
-1
47
36
27
77
-103
-116
-94
73
126
-6
119
-8
-61
-128
-47
-37
-100
8
53
12
76
-119
-82
116
-72
49
35
57
26
91
63
-29
41
-10
-77
-34
-26
-69
23
-60
100
-10
-125
89
-92
35
-9
-30
-86
70
114
25
95
109
94
-59
17
16
-55
2
60
30
-67
112
74
53
-120
9
78
-71
-90
66
-39
-98
120
-128
-82
-43
-118
119
38
58
-5
-65
-104
-12
-23
-56
-23
-50
120
122
-99
97
88
-122
120
122
-25
5
-30
-9
101
100
120
89
72
-27
49
73
-96
-114
39
-99
-98
42
52
-115
-52
52
-78
-116
67
-68
-25
37
23
2
-6
121
66
125
104
39
-27
89
-22
-94
85
-20
-67
-30
60
118
-34
23
-23
82
-81
-49
-10
25
95
-65
-1
19
-51
45
-51
3
-46
48
31
-72
60
53
-57
60
119
90
117
99
-96
-15
57
48
-6
44
-95
-5
-25
95
-69
5
24
-50
-39
-50
115
-123
114
123
-116
-28
95
-94
6
-15
70
-4
-86
2
0
89
87
32
-43
99
22
-34
-31
-80
-67
-101
11
-86
83
88
96
12
-86
-98
-11
-30
109
113
-100
-75
-101
89
-49
-53
69
77
75
-8
-47
57
117
-93
21
69
1
-54
-70
-10
103
7
12
18
-94
42
-126
74
55
-62
-19
96
115
85
-73
61
108
-119
91
68
105
-65
-49
5
101
24
-90
-42
-79
113
114
26
-11
-25
30
-31
-20
-107
-114
-10
-25
-29
2
-15
-36
-30
-34
-7
19
108
-118
78
-121
122
-91
-60
-19
13
-18
-4
40
89
88
-92
71
-103
-87
8
-124
101
-63
-76
-9
-125
98
103
62
-114
36
-95
38
-85
-62
-37
104
-23
-40
49
105
-32
-55
-3
95
-40
87
-66
79
-73
-77
-110
-36
-110
51
47
115
-50
-75
-106
22
83
-26
12
-108
119
35
-83
16
-47
23
46
32
11
-72
46
-42
-59
-13
-107
16
18
5
6
16
78
48
38
3
7
46
97
78
-50
-42
-46
-14
97
-111
120
-55
-60
44
-91
100
116
-126
-40
6
126
-19
126
5
-44
-27
-124
-77
-58
56
74
-114
-91
-119
49
-37
-81
113
-62
42
-41
38
-108
-38
71
-61
24
-111
-28
99
-19
-84
94
115
30
21
3
-53
113
-1
31
-15
116
-33
-27
-76
33
6
-114
31
-51
-41
66
28
23
-36
2
40
-77
69
10
-87
-125
-79
111
89
81
30
-113
-80
59
35
-39
64
81
-39
2
-21
-89
101
-89
-51
-45
-52
119
57
-40
121
-123
-19
-122
38
35
-85
116
-51
-54
-19
-52
18
-111
109
-114
-95
-35
-34
106
10
-33
-124
37
110
59
12
120
-118
-59
-120
-83
76
56
121
-124
-13
-110
-2
101
35
-5
-30
116
-4
22
-106
-41
58
-127
-56
-72
-108
-35
109
28
-102
-73
108
-97
-122
-116
-36
-56
80
-9
-42
99
-24
-109
-3
114
17
-126
68
23
122
120
24
65
109
-69
-15
-40
-98
-3
114
93
111
-101
97
-44
68
54
78
-101
-91
47
-68
-84
-54
84
99
59
-119
101
-54
-5
-93
-123
-57
-103
-15
117
11
-56
-61
-128
-124
-88
-67
78
-64
-74
125
-43
57
-111
100
81
-44
-109
-86
91
-125
82
-12
-55
-55
-113
-120
-52
4
-91
18
26
-97
45
67
9
-92
44
-58
98
-60
85
58
122
-126
-78
-126
115
-82
-80
-109
-34
-121
-81
-47
-98
81
-110
-57
53
-98
98
92
64
-37
78
-32
-22
-48
-61
-6
-18
-125
48
7
-127
29
-120
119
110
106
-79
-78
-59
-106
-60
-74
26
-79
29
122
-14
42
-32
-25
54
39
126
114
-61
35
76
42
77
-38
-69
-78
86
-67
-9
-89
-33
-71
-53
-66
1
-101
10
2
-63
-47
-15
6
78
69
86
-57
11
109
-76
-103
-48
40
-66
-12
95
-27
118
-8
-30
-8
117
113
-85
125
-22
102
14
-117
-48
-8
113
-64
4
-112
90
9
10
46
-82
-26
-126
-88
20
-42
100
-37
119
97
-33
-62
-70
-80
-59
-70
-58
-40
-35
27
14
-93
-46
41
-87
-123
79
-90
120
25
-57
33
-5
-110
-56
-115
9
-75
95
-78
-124
54
-19
-77
-57
-121
2
78
113
41
63
-121
-25
112
-14
-21
-128
19
102
106
-72
12
112
46
-4
100
-62
-81
-125
-35
-83
27
92
100
58
-93
-22
-72
-61
-3
2
-101
-25
-67
65
98
18
-18
-14
103
-108
-5
-20
-127
9
101
-28
60
-12
118
-62
-126
-111
-116
-33
86
-76
99
24
-73
34
63
32
125
-81
103
39
-115
-124
-27
-22
-4
95
-93
36
-113
-72
-72
-55
-73
97
-14
-38
123
-99
39
-12
-43
6
4
3
-63
-50
-126
-84
82
-19
-40
112
-50
-32
57
97
-92
121
6
75
-34
-87
100
-39
64
-56
-15
64
37
95
-11
111
47
-49
-14
-7
-74
-86
116
29
69
26
-117
117
-98
-17
-40
-45
-51
47
63
-1
-67
-50
14
47
-101
42
75
-88
-47
-14
-93
88
112
-116
35
-58
-102
-70
-53
109
70
-11
13
-86
88
126
25
-39
46
97
-56
101
-71
5
-66
75
-119
-63
-103
-80
-74
30
-61
-96
-38
-105
-93
-102
-121
19
-99
123
88
1
-34
88
40
-32
109
71
-95
65
-76
51
76
118
-105
-4
-1
65
27
-24
47
-2
-80
-127
111
44
47
28
50
71
103
-66
96
91
12
50
121
-42
56
-5
123
-119
-119
-72
-15
13
105
-115
13
-36
9
-104
-2
37
-105
61
25
126
-56
-116
78
56
59
-95
-90
80
-98
-1
63
-103
-24
5
-67
-27
30
-78
46
31
-1
-37
-17
69
32
117
-113
-110
-66
-13
-76
-13
32
69
42
121
-30
93
66
-98
28
114
101
66
-32
-109
28
112
47
36
-73
-93
16
-19
76
12
30
-45
110
78
-89
0
-108
-65
103
-1
-8
92
-121
-15
-5
-28
126
-27
-100
72
-39
84
-32
7
-52
-53
6
121
-79
27
-50
116
-80
23
-51
-61
33
-62
-57
10
47
-19
66
-113
39
5
-107
-45
99
-124
-5
52
66
68
-64
-47
-95
35
-21
51
47
-18
46
-32
87
-12
-107
-26
101
-26
-2
1
94
-2
-125
-99
-3
4
4
50
-128
-118
-23
-121
49
-124
16
-36
-33
60
-21
-43
101
54
36
89
-39
17
-100
-60
-125
-97
-63
-54
2
22
-87
-26
-109
-121
-63
-43
30
69
-5
-98
-57
110
-77
-24
4
87
7
-61
-59
-114
4
-89
-71
90
-53
109
-71
-67
8
-125
91
30
104
-109
82
-33
21
37
-23
78
-121
77
-41
-75
-80
16
-16
99
32
-86
-58
-47
-103
-75
-125
-11
-46
126
-7
-126
104
-49
-54
-85
-38
-7
-18
-10
25
45
30
-111
-87
-8
-52
-106
-76
-38
113
51
21
123
65
124
-61
91
121
-87
-107
-3
88
-10
-6
-5
-74
80
-53
-51
-2
-4
91
-1
52
-94
51
-54
25
-49
85
-97
39
-127
-18
11
31
58
-52
-57
-61
-97
-109
-119
-67
61
90
8
-62
-6
84
-98
-55
43
28
5
4
121
-113
35
-29
41
26
-19
-64
-87
14
-35
15
43
116
29
6
-99
-24
66
68
-16
24
-103
-92
-14
-112
-91
29
-117
-25
33
29
-126
29
-82
115
-25
-49
-117
-118
69
-114
115
1
13
-93
15
-73
93
98
-82
-22
113
44
-107
20
-53
-23
40
52
-120
-4
63
89
29
21
25
-100
-113
79
65
-80
63
-88
-94
-74
48
-45
98
34
-2
16
3
-24
8
-25
-76
78
-100
-46
-87
-2
40
103
98
-98
-50
39
-42
122
104
-126
-25
84
-32
-103
-80
-27
-35
103
-57
20
73
109
106
79
-67
-60
87
-27
-72
-15
-4
-18
-1
57
96
-63
65
-111
23
33
-34
-4
85
-44
84
-49
113
34
59
-125
32
55
21
-25
-12
-82
-1
111
56
19
-11
-8
76
-42
-114
4
16
61
-78
61
11
115
-12
-40
-127
-68
0
49
-53
15
-79
-18
32
70
104
-44
-60
-57
-37
10
30
-10
-74
-69
-107
-25
40
-40
78
-37
8
-60
37
69
-15
125
-49
-121
89
87
-50
-75
-77
107
107
111
-71
-45
60
16
-114
-116
123
-89
66
-116
63
-6
-105
16
-120
45
-71
-97
-108
-99
-49
90
78
36
-1
-42
48
113
38
30
88
11
-41
-59
-108
-6
-114
-101
125
40
-47
-7
-92
-27
93
25
3
105
5
21
-124
-64
47
-92
48
43
117
-103
84
-92
-103
-26
-1
-4
90
44
88
-38
71
-30
-58
18
42
-102
21
23
90
-25
16
105
92
87
77
95
-83
-98
-46
43
25
-64
-100
-125
79
50
61
-96
32
88
89
59
81
19
60
76
16
-117
82
-4
-95
-79
86
-37
-85
8
90
19
-104
-78
-110
-103
-107
15
45
-5
96
-118
-23
-110
-113
12
115
-109
46
-51
-90
77
-76
-124
-53
29
-44
-49
-58
-41
68
-84
-87
22
-84
-76
-75
-17
96
24
48
-102
42
87
-17
-76
40
84
35
86
18
55
69
-63
-21
59
122
-85
85
-43
-127
53
89
-15
-65
3
78
-24
-103
35
-67
85
-44
94
109
-16
125
56
-39
20
124
37
-42
43
69
52
-88
121
-114
-106
-20
-5
-90
27
-107
-1
79
71
-121
26
-98
-21
-33
67
-110
-68
-57
-108
19
-49
-55
102
111
-2
-59
48
114
27
-68
-12
54
-114
22
-114
-119
17
119
-64
-24
12
92
92
-42
-71
-27
61
-111
33
49
116
94
25
100
41
-43
95
-95
1
74
-36
116
-50
-107
2
-77
100
78
-82
-5
-37
5
-49
40
-92
65
16
-14
-110
86
25
-99
19
-82
-79
85
89
-52
63
111
-121
77
27
4
91
6
30
-64
97
39
-77
-124
113
-100
40
-113
108
-55
80
66
83
8
24
-54
64
70
108
-4
-59
-46
-68
-3
14
66
-77
114
-118
35
-104
42
-105
-70
32
-80
-54
117
-64
-11
92
22
37
50
-65
17
-61
101
-83
48
-14
-46
-39
87
-26
91
-100
-15
24
89
-19
58
39
30
-63
101
-76
118
-27
-124
-19
8
-77
-77
15
29
-74
43
-5
118
3
-10
52
-38
-85
11
49
-119
40
79
90
-7
124
104
-97
106
-17
98
-42
-61
-6
47
92
97
-3
103
-76
-6
101
15
-96
11
-85
-40
56
105
-32
-93
1
-97
-39
-8
-124
59
-95
-56
-39
91
96
55
92
51
33
76
-69
-114
81
69
-101
105
65
-30
57
-62
46
51
-14
0
30
-65
14
-53
1
-56
3
55
-106
-15
46
-104
13
-24
67
-27
-96
-75
-80
-90
17
-10
21
-125
9
123
-52
75
9
-36
52
62
119
-28
24
-116
12
85
-41
-4
10
-110
-13
65
-88
114
-72
-30
112
27
18
108
0
85
62
-34
-127
114
9
113
19
56
6
105
12
-64
119
45
-114
-108
110
-123
26
-106
15
-124
29
-73
-111
-112
57
-95
60
115
0
41
15
-109
4
1
-43
-89
72
52
-125
120
107
68
112
-60
-95
-64
-18
79
-98
-59
97
13
36
26
-1
78
54
-2
-6
-102
25
13
-68
72
73
108
49
-7
120
-27
80
-10
37
109
44
85
-90
27
122
-9
22
-115
-39
114
-30
-83
31
29
-86
101
-10
-18
-35
120
33
-59
113
-90
123
-6
27
-18
-47
55
-84
-75
-97
69
0
-7
23
85
-61
7
-67
38
-42
-100
4
4
-96
-59
6
109
-78
65
77
-87
12
-37
-70
117
-74
101
119
-31
-1
114
15
3
65
99
66
-85
-67
-104
-87
-120
-5
91
61
27
10
-109
27
113
-127
56
-37
-71
-106
77
17
-92
120
-44
-63
106
20
-47
29
-28
125
-11
-15
-110
56
-13
70
-89
-54
-27
-93
0
-121
-81
-100
9
5
104
-18
-114
51
-125
1
-39
-45
120
17
-115
71
-48
29
13
-37
-66
78
-29
-115
-49
-27
48
-66
-124
50
-45
-114
64
58
19
-92
70
30
-88
-46
-7
15
-110
-25
75
48
54
29
-53
32
-8
70
61
-24
-28
36
50
-7
1
16
-70
121
-127
32
22
29
46
74
-3
-68
102
82
76
19
-59
70
117
3
-36
43
-17
104
-59
63
91
74
84
104
82
-26
-29
109
24
-25
56
23
92
48
83
-43
35
-59
92
-8
34
6
70
15
3
-30
-66
18
-19
65
-15
26
26
92
53
-37
107
-70
-78
97
-42
-118
12
22
-4
60
54
-53
-121
-34
-36
-52
-73
-20
-58
3
-17
65
37
-64
-79
13
-20
-87
-46
100
74
-52
105
99
-115
46
39
80
-37
90
-84
38
-84
70
18
17
-8
5
-79
-56
-84
11
-57
-34
-49
2
-69
-112
36
53
31
-97
-96
-47
41
-12
-25
18
78
117
-11
-41
-60
51
121
15
123
-16
110
-14
-120
-55
-45
111
-115
111
108
83
-105
-99
-115
84
2
102
-125
-7
91
-21
-7
95
-113
41
-12
107
39
-122
-101
95
51
112
126
97
28
-16
10
-95
-80
119
-34
-44
-111
-69
115
-9
-23
-75
-87
16
17
81
-114
34
-15
26
100
-42
28
51
-67
51
-46
70
51
4
26
98
-32
-10
-41
-8
33
35
93
-34
-17
-115
-37
3
1
-105
-16
57
-58
-117
-60
-92
-57
59
19
54
-24
-38
121
-41
-57
-48
32
25
51
-73
-81
16
59
-23
-11
-83
-40
-123
108
-49
19
-60
104
-58
3
114
-72
-40
29
50
100
47
-77
100
17
79
-9
13
31
-37
123
-71
65
6
-106
-87
102
-63
-91
37
66
-88
-93
83
-110
108
-96
43
4
17
-20
-55
6
-77
-18
32
-87
100
70
-70
19
65
38
-51
-51
-39
57
50
120
68
84
-36
-126
123
98
45
12
-105
41
-88
8
109
-57
-73
-123
67
4
95
60
47
74
41
51
14
95
-100
-108
-36
-22
-31
-72
-89
-126
-1
125
-63
12
0
51
16
54
59
120
60
-95
-38
-103
89
38
-118
-78
7
52
-61
-121
-32
40
-8
-9
-49
27
83
-35
-3
-101
-60
-126
-78
24
94
57
-30
1
-128
-53
46
99
-2
13
-41
82
87
-6
-115
113
-21
-15
-24
-62
-120
-127
-90
22
116
-118
-22
72
92
79
-10
26
-92
-127
30
-98
-118
-58
-97
-55
-45
-48
-122
-128
-120
43
-115
-79
-43
-28
-1
-128
-94
-109
-78
-8
8
-31
25
-96
-54
69
-34
-27
59
37
64
91
-100
114
4
42
91
-17
-56
60
111
13
-28
77
-117
34
-89
90
-91
-100
-29
-107
-95
-104
-21
31
-11
-118
-86
78
82
-109
-113
64
-64
101
38
-62
-54
-28
-117
125
115
94
101
106
-66
-91
-6
61
44
48
117
-56
-69
-54
0
90
-67
-58
-49
-102
126
-25
101
-103
116
65
-9
27
109
-9
112
-78
125
-73
75
-73
124
35
75
-32
77
106
8
106
79
23
-54
-25
21
89
-101
-97
45
-43
5
92
120
52
44
125
-58
2
91
-111
68
52
73
83
27
58
-105
9
57
82
27
-116
20
96
12
-94
-120
94
-75
32
116
54
-43
-89
121
43
7
101
35
-40
-14
20
-77
-87
-120
34
25
-59
-124
-26
124
117
-119
-122
-42
-29
-13
42
34
61
123
90
-39
6
-37
41
-66
-100
80
-41
63
-13
13
-3
11
-87
17
57
58
15
-15
-63
-26
34
14
56
44
-44
61
90
-11
-33
53
-21
-37
19
-109
69
-45
-116
-112
103
84
-86
-19
-108
-103
69
-81
44
16
104
71
88
107
118
46
28
-49
-8
24
-77
-90
-16
-26
-60
-91
-52
42
-99
73
-111
89
-115
49
-127
9
116
-64
-27
107
-114
-75
-26
48
-25
89
-36
86
19
-105
-92
111
59
-3
79
-110
68
6
-111
-97
-47
-35
-9
30
-10
35
11
-76
27
-39
114
-2
46
114
4
64
-20
64
-122
-15
119
-101
6
29
-63
41
-23
79
-21
-4
-102
98
91
74
-7
-53
-124
-62
77
-82
114
-35
115
-60
-1
1
-31
-60
79
111
-94
-99
77
126
102
108
-43
126
123
52
-124
67
110
-75
21
78
5
68
-27
24
66
-20
20
-116
-32
49
-108
92
-122
-107
-20
66
2
-75
112
59
-113
-98
-83
-4
-65
41
-103
-35
103
-113
126
110
-66
45
52
-17
13
4
-66
-25
-110
95
-34
32
124
-53
-7
-72
-16
21
73
55
-18
114
67
100
105
-91
119
13
-109
-51
21
70
107
-54
-98
-7
94
-104
63
72
-99
108
25
47
124
76
-15
16
28
19
-31
60
60
-61
-120
30
112
56
79
-48
-52
-72
-82
35
118
-8
-2
-68
48
-58
52
79
15
-56
54
-2
30
-23
25
99
30
-110
5
85
-77
2
89
25
-37
72
0
-125
-15
-6
-91
-42
-79
-51
-102
-45
74
93
91
85
-16
-127
98
57
-107
-88
121
106
22
45
66
3
62
41
123
27
46
104
-110
7
21
93
81
-110
-28
17
84
88
29
109
23
83
-20
124
78
82
72
9
4
51
-73
-36
10
-79
-45
-8
-111
-66
95
-116
91
-24
41
-23
57
0
-110
101
-100
-124
72
81
-83
101
-110
66
-46
33
-75
-62
71
59
-40
-51
15
-36
69
19
-47
-128
12
-74
-70
-106
-37
-91
-18
-89
-6
-74
103
92
23
-79
21
-87
22
61
27
-73
43
-117
-128
107
-44
-104
51
-14
5
79
15
65
93
51
-51
-44
-6
23
116
-67
117
103
88
48
45
55
-23
-47
48
-82
-76
-108
-126
33
-73
-88
-82
7
17
71
7
1
-87
65
-84
-32
27
65
-96
-38
36
-73
28
47
110
11
-61
61
-115
118
-119
38
125
83
-9
47
79
-106
-121
-96
-35
90
15
41
-71
84
-93
63
-128
-92
61
94
-70
18
61
-120
-56
83
65
86
-56
65
-89
-110
87
-58
43
99
-52
42
-52
112
121
-3
80
70
-106
-82
-1
77
-26
-25
64
-109
-1
-33
-50
21
-70
36
30
54
-69
-49
122
-100
40
40
-63
38
83
-39
-72
-86
-127
-125
46
43
37
77
-65
89
-51
-9
2
-92
-89
-58
100
2
-120
102
75
-88
92
59
-41
-119
102
-85
-115
-108
-72
35
-76
62
-30
36
-99
-4
3
70
-47
-16
89
-125
-89
-53
39
59
99
-73
100
-37
88
15
-40
81
79
7
-52
57
-91
24
85
19
66
108
-40
-96
-119
-106
42
105
15
61
-3
-25
114
110
-21
98
-54
21
-16
-66
66
98
105
8
9
-114
-16
-118
72
48
98
-44
22
-111
126
86
-103
88
-105
113
94
-47
98
-50
-105
92
-108
-89
-3
-46
-24
-104
-7
-82
87
99
-47
-109
-17
23
104
-108
116
99
-81
-108
-48
-73
121
58
-95
18
-51
-122
-84
-11
108
-108
69
-114
55
82
75
61
-35
46
114
20
118
41
-25
-62
-8
-103
-122
27
24
89
69
-40
21
-87
64
-21
58
53
-52
-8
34
-92
-100
-49
54
-54
88
67
-31
-71
-72
-61
90
75
76
83
-94
46
97
-86
109
-19
40
93
21
-124
-27
-90
89
-63
-47
-57
43
1
93
-45
2
-85
-93
-109
126
-37
74
-81
-102
40
57
-68
37
-33
55
-27
-91
-93
38
-8
-102
-42
-20
52
89
-16
-110
101
111
118
117
86
78
-10
-40
-14
-32
63
-82
74
37
101
-46
-39
98
13
-61
120
-70
99
71
-22
-24
92
-108
-92
-117
-17
-81
36
-4
-89
44
36
126
-108
-17
88
-37
19
-35
73
77
98
51
-66
-51
-123
-90
35
84
20
122
12
-60
-121
95
-52
39
-57
-59
-42
-30
-43
-72
11
-74
-121
111
-39
101
-35
-57
84
-10
122
110
-84
101
-109
-7
-111
-121
-125
17
-70
-66
73
8
87
21
-126
-76
-81
-122
64
89
75
38
115
-34
51
-94
-72
52
21
92
-83
83
-63
90
107
59
-71
78
-107
-38
121
98
-29
19
93
-26
78
-28
-54
-19
-29
21
2
43
31
-31
108
-54
29
10
93
-6
6
25
-84
-40
21
-107
-122
-122
-69
-47
105
33
109
-84
38
72
-66
-73
-19
-20
-67
-6
45
113
72
83
5
14
32
-115
-32
-68
24
56
4
96
-24
-38
-75
-118
118
-120
21
49
115
-75
89
92
42
111
-56
6
122
-69
26
27
7
-39
-69
9
65
-49
-57
123
-32
-64
69
-66
-87
-90
100
-117
-87
-86
3
-88
-48
108
19
-56
-58
0
-31
10
103
-1
-30
78
77
-105
-91
102
-48
-63
-127
104
21
-128
12
74
4
-44
-40
-10
-27
-98
-32
125
-44
93
62
8
27
-38
72
-55
70
-121
-24
-83
69
115
-124
-43
55
121
4
-106
20
-122
32
96
-42
72
106
85
59
-109
-43
69
-94
14
-17
-71
8
126
25
105
-96
123
104
6
-121
-44
107
-2
11
-114
-102
42
27
14
25
-24
-105
85
44
-5
7
100
-10
126
-64
-91
54
-67
81
73
-35
75
116
-23
57
-21
28
-61
117
74
-56
-89
32
-110
111
-126
87
-49
91
-43
-34
-83
-85
-27
39
-66
21
43
38
110
-100
11
100
-78
-110
96
-108
-31
-34
-47
92
-83
-42
-36
-11
-116
-57
-128
70
2
-105
28
-120
-103
32
6
43
56
76
89
13
0
76
83
-24
37
-27
-127
-94
120
107
-14
-66
-50
-58
-74
-60
12
-100
52
48
102
-4
-6
-95
20
72
81
-38
98
-23
48
-87
-105
2
-29
-56
16
-45
55
111
103
-74
20
26
-51
100
-43
-23
122
-41
-105
102
92
-42
122
32
-61
35
-53
-110
-120
-107
15
-56
14
-37
-101
-24
28
-71
-84
31
-95
112
-124
15
-40
83
112
69
62
47
115
21
32
96
-95
87
-107
52
-116
91
44
-70
-76
33
103
-106
-38
-94
80
-31
101
1
-81
82
76
121
-118
56
41
-123
13
-65
-50
-36
96
45
122
115
-99
41
43
-39
-126
-126
-117
118
124
-93
-4
-93
65
-90
59
-36
59
75
-18
-9
49
-109
-28
9
-44
-119
122
-52
-128
29
44
68
-81
-46
109
60
-57
-39
8
-50
-119
-20
99
24
74
6
63
-74
120
3
-75
-94
53
-63
48
45
124
-120
-95
56
-30
20
-100
58
-32
-60
115
15
-6
61
-74
-109
-79
3
43
126
-47
5
56
-21
13
-60
38
7
-104
59
34
82
124
52
-18
-22
-16
41
74
-76
83
80
6
88
-41
67
-31
-105
-62
33
-117
-98
66
91
48
-64
77
51
-49
-9
87
-37
80
27
-16
73
-62
-12
69
-41
-64
16
-93
-38
-92
44
-68
54
65
117
35
24
23
92
88
-57
-79
-88
31
35
29
-26
-119
-18
19
79
-109
-89
-18
28
-81
31
15
-108
-23
42
88
95
96
101
54
-25
111
-106
25
44
-116
-85
-74
-21
-17
2
-53
109
-122
87
-9
76
92
31
32
5
-108
-43
-105
-12
-57
65
22
-56
19
75
10
-37
1
121
-69
100
-15
-96
106
-95
61
-28
-106
-81
-84
90
-58
102
-19
-103
-109
108
-90
49
-7
-16
-81
115
124
105
9
-27
-15
114
76
-84
-79
-104
84
-49
39
-101
102
7
15
117
25
-99
91
-14
-118
-79
-34
-26
-57
-54
-30
-94
-97
-41
126
-19
120
-38
71
79
21
1
-110
-44
-71
88
24
96
-86
-32
-126
-54
-106
114
-64
-49
11
-122
3
41
-52
-55
-24
100
74
-71
79
-9
-90
75
-30
-37
83
2
-7
-25
126
-66
-81
-41
115
-104
1
31
-63
85
41
-45
-93
1
-12
122
88
86
-60
121
-107
113
-81
76
13
93
-120
27
-24
-35
-99
-28
-125
-49
4
-104
-128
31
-25
-16
19
27
-123
-111
-110
-97
-26
3
19
114
4
83
125
82
57
77
111
-4
95
90
0
-20
-13
-25
59
-57
126
-103
-126
-59
-119
1
-19
16
-125
21
-112
67
-98
18
-20
-114
124
88
0
-56
-39
-128
-112
-21
32
21
-93
-126
-54
104
81
-94
79
-18
-82
-122
113
12
-100
-57
-87
19
70
38
4
72
-68
11
112
120
-99
89
-110
-43
25
42
78
26
27
33
62
82
-63
-75
7
73
82
87
-84
96
23
18
-105
-68
102
47
94
112
77
71
-37
34
122
4
-127
80
-108
17
100
-30
30
100
-43
-79
-95
109
9
105
-113
27
13
-80
25
123
21
6
-26
-9
-37
-62
-99
119
-5
-71
111
-116
117
34
64
-4
-105
-76
101
7
28
16
31
43
-95
14
-41
99
-59
-71
76
54
72
67
31
-106
-17
41
65
102
-114
34
-127
-105
15
86
93
51
118
77
-104
-14
-64
-67
-107
-116
-91
-110
38
-63
-106
-47
-118
88
-51
53
-113
-116
-44
74
3
39
81
26
99
94
92
-84
126
-75
75
-21
-87
103
106
-104
82
-39
25
-77
126
-97
-101
13
-78
-88
-48
-106
-51
-79
-117
8
9
87
-85
-100
-14
115
84
111
-120
-113
-123
-78
49
-118
65
-40
18
-53
-2
52
-59
-41
-95
-102
80
18
-116
49
116
57
4
-100
82
-61
54
107
116
24
-122
16
39
42
9
4
-65
34
-21
-81
-74
-94
-43
39
45
46
50
-78
-62
37
-97
-87
86
-66
80
-93
40
72
114
20
30
82
-56
109
59
-65
-79
-118
-7
-101
-89
81
30
124
81
52
-48
-95
-106
123
85
7
44
30
58
6
-1
-54
-88
-37
48
17
-56
36
-119
57
2
77
93
-97
99
91
-29
69
18
-50
-34
-92
52
-103
-101
8
-92
-123
-32
110
-42
-31
117
29
87
-63
-94
16
67
-43
31
-113
-126
-59
-126
-106
66
-124
3
-85
82
-3
-52
78
-97
47
-20
89
-80
-32
-95
72
63
54
99
-36
-48
-27
72
32
-100
-10
10
-59
24
-42
-23
91
-6
13
-30
-12
-99
74
50
13
116
5
-105
116
-47
104
17
64
-26
51
-69
-42
-16
123
-75
54
55
17
66
15
75
-123
-121
-128
21
-14
-24
62
87
55
-93
95
-104
-43
115
25
-41
-86
23
-93
47
87
-100
-92
-56
97
-124
-57
54
46
-51
-24
20
75
-59
13
55
-46
49
-94
108
92
-60
-126
71
100
-112
2
-48
-75
-80
7
-55
24
-97
72
-111
-15
-84
1
-52
-78
-122
-106
47
-100
-126
-24
101
-13
104
8
-94
72
96
83
-62
8
99
80
-86
84
-4
-13
23
64
34
12
-46
-3
-114
-28
104
2
-12
-71
-114
-6
27
122
60
94
-48
71
-90
97
67
-89
-84
-47
-6
85
18
2
-32
-45
-99
16
95
12
-123
-120
17
-74
-34
9
73
-55
58
16
105
-60
66
22
23
-17
107
38
43
-36
52
-47
3
-90
31
-19
-34
62
-108
68
9
18
-4
24
-24
110
6
-27
16
69
83
-59
126
-14
-58
-54
65
-63
-15
35
11
125
-78
7
-8
-69
-57
-36
-38
-24
-93
4
-125
-49
-106
59
-3
48
-59
49
8
72
62
-61
-89
-93
-60
68
104
116
111
110
-33
-59
-24
-9
66
51
125
24
-6
25
-118
56
-114
-62
-34
22
32
-122
-95
22
0
58
-23
-25
95
-26
102
95
60
103
105
25
-93
-120
-24
-85
-103
-71
-71
-86
100
-9
-29
-17
-77
-118
-45
-111
-100
92
-34
0
89
123
-40
63
-99
-35
-110
-100
-123
53
-76
8
97
24
-16
-117
-100
-120
-31
-99
-126
57
-58
-27
-39
-6
35
-117
44
-60
118
-20
-39
43
-34
89
117
125
-94
-62
45
41
-97
-35
71
-71
-68
-43
-18
33
-7
41
24
-36
32
-118
-122
79
11
-80
21
120
36
-107
-7
100
-74
-122
-16
-13
59
110
-27
113
-18
40
-68
4
-115
31
122
55
-113
-78
-12
-66
6
-91
-80
-96
101
13
-64
69
115
113
-91
-50
32
-111
34
-125
72
-90
-66
-108
91
23
-117
-82
-103
50
24
-71
-30
14
12
120
-32
108
34
40
25
72
81
58
15
-113
23
-98
-33
33
-96
-78
-15
100
-22
-5
38
-91
109
-2
-69
61
4
-85
-126
-54
21
-116
-37
8
-41
-103
-76
-97
-97
94
123
-99
9
109
-72
-72
109
30
-116
9
-89
89
-85
-80
-89
59
12
-18
76
-99
-113
-86
51
-108
84
117
-63
-100
15
2
-32
90
-97
-27
52
-67
-101
36
40
77
-16
42
-47
82
35
-30
34
1
-32
-63
-26
-41
84
-18
-39
108
113
-30
87
-51
-42
29
-10
-123
61
46
39
11
-57
41
-42
114
25
-69
-80
10
29
122
-85
-68
-18
70
70
-77
-87
40
59
-114
-54
89
113
-84
46
-126
-108
51
-1
75
89
37
89
74
49
-99
-65
53
-71
-111
101
91
5
47
85
-37
-23
-87
9
-90
101
-46
50
12
58
-30
-59
-111
125
-25
-34
8
-73
98
121
-45
-66
-125
-8
4
126
113
101
-102
-30
-114
-122
-115
64
124
-122
64
29
113
120
1
-28
-64
74
24
-92
50
-108
69
28
122
25
-21
-46
-56
46
-89
119
37
-19
-63
68
-73
-71
-55
105
38
43
-47
27
-14
32
-33
-106
-37
-90
-17
51
-41
14
-74
-25
-95
-124
-82
21
75
17
23
-84
48
-110
-60
98
-66
-14
52
-10
-1
38
-92
116
56
124
76
28
40
118
-54
-25
9
117
1
82
71
-119
124
62
44
-102
-22
-113
59
47
-28
3
38
-97
-123
-46
-29
92
-96
125
52
-40
-107
29
115
-109
43
8
126
8
12
-81
-55
-5
-114
26
-6
-10
5
-75
-125
20
118
-8
-2
-16
106
50
-26
-1
-25
57
-52
-108
109
-115
111
26
-98
13
8
115
32
37
74
94
-29
-43
-55
-111
-107
-98
-124
-117
13
-3
70
-46
-49
70
57
-26
112
-17
-97
-118
19
-52
6
71
76
79
52
84
5
-93
-123
113
25
12
62
85
77
50
-62
-15
-107
-113
68
-37
119
-56
-122
7
25
-58
-66
105
-109
-109
46
-94
-64
113
97
-9
118
17
19
-58
87
-48
-61
-95
0
89
-70
19
-23
-93
-29
17
13
-91
6
32
121
99
-47
-91
49
-21
112
-54
28
90
34
-28
62
-121
-64
42
113
88
-25
108
93
-38
-96
-123
-5
65
19
28
21
21
68
96
74
123
-77
113
65
-112
-83
68
71
-128
-104
-54
24
-60
19
-19
4
27
113
-18
-122
108
110
86
106
-103
-27
82
103
42
122
45
101
115
52
32
-4
-51
29
-76
126
89
34
-37
-42
-34
99
86
35
4
15
49
36
79
-119
13
102
29
110
13
118
71
-6
109
-124
-124
-17
29
-15
-52
103
98
36
-11
-37
-18
112
40
-113
-91
122
-77
-124
122
48
-58
-110
-59
-2
114
-113
-41
-73
52
-42
20
-3
55
-51
117
80
79
-36
-22
-110
-42
-64
43
121
-77
-4
-56
-62
85
76
-13
82
-77
36
95
-77
-26
-16
43
-21
9
-80
96
83
57
25
14
-34
-1
-93
-1
-124
-49
24
-43
-15
-29
-2
69
-25
6
38
103
12
2
40
109
-71
-126
-40
48
-112
-83
-67
28
-126
-89
-34
29
81
-126
-83
91
-49
33
-3
-26
102
13
116
-24
17
-35
118
-13
102
124
-100
113
-71
-4
-102
24
56
-16
90
106
1
-117
48
-86
35
-64
-111
21
-94
-22
-92
-53
55
74
113
37
107
-126
86
49
0
-74
70
67
43
23
-120
-4
-127
-11
-59
-88
-100
-23
-123
71
106
-109
-49
114
7
125
66
-67
-86
13
15
39
16
41
-34
-108
-104
-118
45
21
73
-68
-111
4
102
27
-84
-10
125
29
-118
15
111
-110
109
-71
49
-120
-5
3
34
-75
-12
21
37
98
61
-110
-64
-51
-114
22
-6
-120
-25
6
51
23
112
-35
-81
-65
-107
-71
-82
-86
-5
16
-5
-79
-14
-38
87
-114
110
102
-119
107
38
-23
-74
-47
-70
120
112
100
-33
84
53
84
-81
-72
86
-52
-38
87
71
-92
-73
-1
-25
-119
-51
-14
-21
-63
59
-46
125
-88
90
70
58
3
-20
32
0
50
7
-3
114
21
-57
113
71
-97
-88
-78
11
50
-53
1
111
-43
-35
-98
1
35
98
7
5
68
-14
-77
-55
6
72
90
91
-118
-73
-32
63
-37
30
115
96
-83
-72
123
-76
111
71
29
67
-100
34
65
-75
3
12
31
67
126
10
-59
-4
70
-79
-76
62
-69
65
66
-96
-105
1
35
-76
25
60
-75
-10
-10
48
15
69
112
102
2
4
97
-126
119
114
-36
-33
100
-24
20
-13
71
65
-44
62
72
5
86
79
-24
123
-57
83
6
-90
-104
-41
106
-99
95
-68
-23
-93
-70
-104
-101
90
-41
51
-23
77
-72
-24
78
-66
16
20
106
72
-118
-26
46
3
-118
-43
60
112
119
60
-89
58
-51
-80
3
-75
-62
-90
61
-46
-95
-6
72
-117
34
-2
-116
-125
-26
-73
66
-38
38
-121
-66
-3
-90
100
-83
-13
-75
-20
62
-4
122
35
124
-88
-80
-114
-13
-24
93
68
67
1
1
72
-106
58
-80
107
36
81
-56
-36
-21
21
-50
-36
-111
91
42
-16
-28
-69
35
-4
79
60
94
72
58
-29
110
-19
-107
71
59
-61
8
-49
118
-66
14
-35
-19
54
61
64
-70
-50
115
-126
-38
-108
10
68
-90
76
-56
-74
125
-51
4
35
-94
-127
111
33
16
-113
-10
-59
-51
0
20
-98
-73
-17
-99
54
-79
102
94
103
7
-68
22
-9
-128
18
69
49
-103
97
51
15
-69
-62
-55
37
30
-28
20
-11
-40
-113
48
-89
-113
84
-95
75
107
12
116
-84
-86
-11
-28
-96
66
-24
-48
50
-127
109
-65
-125
40
-124
74
71
-25
-106
101
-47
-64
70
-12
98
96
109
51
53
97
-1
43
-87
-39
-17
-13
-102
-118
-62
-64
-108
82
92
-73
10
-49
-41
-72
82
-113
1
-24
92
-110
-97
17
-125
-63
52
-112
92
-123
-43
65
-116
2
106
114
-8
-120
-38
-63
8
-18
12
-33
66
93
114
77
-35
15
-5
-112
-52
13
-82
-120
111
-122
-48
-84
31
-98
-96
-83
6
-45
89
116
114
-68
111
69
-36
-124
92
18
-68
37
77
76
12
109
-21
90
22
-42
-30
92
35
-93
-115
27
-39
-114
16
2
-114
-64
109
-65
21
90
58
80
16
116
92
68
-61
-16
44
58
-106
-17
65
-111
4
97
120
40
64
100
47
-71
-107
4
125
-106
63
103
85
47
-15
-64
62
1
106
-126
32
-124
-30
79
-29
108
91
-6
72
118
-58
107
-125
121
-19
-31
14
81
-80
-73
24
-53
-53
-32
-36
-13
120
-89
32
-4
-89
70
-2
-87
-21
53
29
-5
-48
-19
43
26
108
-52
48
-72
75
74
108
-19
-124
39
113
32
-16
2
-19
-93
-15
-51
116
-11
59
28
-34
65
-2
-122
126
47
-7
40
49
-82
-30
65
123
-38
-104
99
-60
-18
-113
-33
-52
-49
75
6
-97
-15
65
-68
-10
42
114
47
-17
-18
-66
-119
-71
101
-100
-97
87
27
-5
-42
-90
104
118
61
78
-74
-8
13
44
16
32
67
68
42
-99
-109
103
90
26
8
-48
-124
-43
-96
-68
-79
-24
-19
0
6
57
98
-116
50
75
77
-13
76
35
61
-79
-12
-30
-66
48
113
-87
-96
-13
-85
65
-15
63
-109
-3
-96
-65
88
86
79
-20
-83
-117
77
-25
-88
-5
95
-74
-25
-114
90
39
-30
73
99
73
-71
90
119
63
88
-19
-26
89
99
-115
10
7
126
-46
81
109
-24
-36
20
-127
125
11
121
-73
81
41
-82
-88
63
32
73
-64
106
-8
-16
-88
-58
-36
-79
63
-49
74
-85
-106
-87
-81
36
6
-7
-63
12
99
-70
-31
124
-51
-60
4
23
27
2
82
109
42
43
-74
119
-40
-91
-56
-81
5
7
-6
118
-100
32
122
126
-121
30
-46
-45
33
-108
115
120
104
53
-12
58
126
-128
-116
-4
96
77
118
109
-28
-57
41
81
-94
-2
21
98
-8
-114
-27
-55
14
-75
-116
-43
121
-71
-38
95
-45
53
-84
18
-87
-32
-84
75
-36
-19
121
106
-4
-102
-17
108
101
92
44
-76
3
105
-107
29
71
-73
113
119
65
-66
25
-51
-62
-89
91
78
40
-23
-14
-115
88
56
-33
22
-32
-100
14
-65
-122
-11
47
90
32
-119
-86
-43
-20
48
-61
63
109
32
54
49
-113
-91
30
126
-25
28
5
-76
7
-38
-93
66
-8
116
-84
-27
-49
-48
-106
-106
-116
-107
-12
-126
95
50
4
-117
-7
-46
76
-33
121
-114
-56
94
15
92
-77
103
-71
-78
118
96
9
16
-7
78
34
-37
58
55
107
105
38
8
-69
118
-20
27
7
38
42
121
2
-46
-114
44
9
-104
27
37
-43
-5
-68
-91
119
73
-74
-112
68
-15
-1
-43
82
32
-26
26
75
-119
41
-78
106
71
79
99
-48
-7
-48
45
33
86
-64
85
32
-127
17
-77
109
43
38
-92
-35
113
-47
47
-72
26
-32
87
51
-15
49
47
108
-10
-96
17
-101
-118
-100
-127
-49
9
60
51
72
-30
-118
75
43
-128
64
-12
-14
-111
-9
27
-51
-65
112
-109
-111
-67
-57
-76
-3
47
56
-44
-73
52
52
-42
51
-41
35
70
-42
-114
-1
-49
-99
-33
83
-80
24
-125
-61
38
20
-81
57
99
46
-61
-61
25
122
101
79
53
29
-112
-76
48
98
-90
-48
-68
37
9
65
-84
-127
-60
-78
-44
-68
-61
49
17
29
104
-59
27
-115
-30
116
-104
-64
29
-46
15
113
-14
-89
-83
17
95
-5
-126
-49
-55
-94
-122
60
37
58
73
-90
16
-88
-7
-64
-28
-8
71
-101
111
-17
73
-50
52
123
-26
-77
-72
121
5
77
58
-40
126
61
28
-65
83
18
55
-9
36
41
43
-71
102
-18
-81
123
75
113
-36
-90
-43
2
-115
108
-127
-66
-6
68
-99
-52
42
-83
-103
118
-107
1
-109
-127
-69
-59
-6
27
68
118
-72
-119
111
107
-3
24
-108
-105
46
60
-92
-98
110
105
121
61
-55
50
82
-40
-56
-36
-53
33
33
58
61
-95
26
89
-46
-125
-100
-114
-117
46
18
-104
48
30
-79
-78
-121
-100
-37
-50
95
38
114
-50
123
-124
-40
-35
69
20
22
120
11
-20
-96
77
106
100
-19
-83
-69
-36
-115
13
-69
-112
45
-106
26
-29
50
-111
-48
-35
-40
68
-107
122
-31
30
-13
96
-100
-39
-92
-50
-98
110
-109
-69
85
2
-33
68
-55
45
119
65
30
-14
36
79
-64
78
-3
76
81
20
-9
9
-45
124
-65
62
-121
-15
88
1
86
73
70
-43
106
-4
-115
118
-85
54
93
-64
107
-67
-30
35
15
2
125
-69
52
-12
-95
-32
18
-63
-50
-109
107
-111
77
87
84
-110
34
-50
72
-40
-3
82
-60
27
-106
-82
-126
-83
-68
-7
-31
-19
44
-70
30
-42
-61
94
37
111
54
-119
-50
-70
-18
-103
-30
1
-35
-113
-101
-52
-44
-7
4
-44
-16
36
12
-90
65
91
-106
-13
13
-52
-112
-31
111
-127
39
-84
27
-40
-81
-49
-17
14
-55
102
-31
-120
89
5
91
-51
-66
-112
-67
5
-91
23
-4
100
-29
113
97
74
98
-102
-32
-23
7
8
-60
13
3
-128
-4
-52
81
94
-102
46
-96
54
-78
-17
19
-91
-9
34
84
-61
53
44
-104
81
23
-11
2
91
-92
-7
-107
31
-104
35
45
-37
-41
-14
49
1
-106
-127
71
-34
-37
85
-65
-128
63
102
87
-104
-44
29
64
60
-110
76
-71
30
4
29
-57
-94
15
-107
72
92
108
58
-96
69
72
-76
-99
84
40
-76
25
109
94
25
-6
-94
-47
-5
125
-105
123
-25
-82
2
98
75
-44
31
102
99
-108
-127
6
-77
-68
-102
60
13
46
-70
-3
-68
98
-12
-70
51
14
-110
-122
-8
-37
-109
-43
115
73
32
-86
-102
76
17
-119
76
67
97
98
-118
45
82
-40
-27
38
24
118
12
-113
85
-37
-1
-24
-36
21
-124
-72
-66
-69
-14
75
21
107
18
3
-126
35
57
22
90
-74
-10
-29
80
17
81
-67
-124
-63
-96
52
-12
-19
62
-110
34
-33
36
18
-79
124
41
100
51
33
78
-63
47
-71
-20
31
-30
-51
33
-72
83
-91
120
-65
21
86
-109
-96
30
-3
-17
-92
75
-53
14
105
-98
-113
-76
28
26
-34
123
82
-19
-102
-2
102
106
-101
-97
67
-53
-77
-112
68
-9
7
-10
-81
-27
-37
72
-72
95
40
90
-84
-122
95
91
15
-80
95
-102
-37
-55
36
108
-11
112
18
-32
-39
-87
56
-78
33
110
0
-112
-122
-67
72
109
70
89
29
118
26
-69
-4
75
92
84
-3
-61
123
-51
73
45
110
-39
-18
-54
7
-36
126
-84
22
39
85
9
-96
0
52
96
7
-96
-32
25
-102
15
-65
19
-125
-7
-71
26
10
-30
70
41
8
-36
-84
86
96
-44
-57
18
37
73
-71
-39
-128
-39
-120
-91
-23
-125
67
-2
-78
3
-77
-84
75
113
44
-16
-102
65
-100
123
68
3
63
-56
30
-104
87
71
-72
88
-87
69
-116
-105
118
42
-70
-46
-52
-65
-126
-53
-13
-107
-14
-34
-67
-37
96
16
-2
57
-112
20
-4
106
95
24
75
47
46
-94
0
-76
-14
17
92
31
-17
-47
13
101
18
-38
-25
-23
-66
-16
64
9
109
-38
21
34
87
8
-53
-25
126
1
103
9
125
-117
75
116
110
69
99
-109
-29
-80
41
-19
-106
107
84
-85
106
-119
-113
-109
108
125
37
-101
-110
92
-25
54
-95
-123
-119
-28
-71
-77
96
-24
68
59
97
-15
-97
67
-94
25
74
95
98
38
-31
53
-74
72
119
-32
-20
-109
17
18
-88
55
-84
-107
-28
70
-42
-72
-81
33
11
124
-122
-79
25
-98
-128
-83
-46
-89
-70
80
46
60
117
-91
38
46
-121
-83
34
10
76
-76
2
-68
-118
110
-1
-26
26
41
36
102
-80
-127
19
32
31
44
-12
-94
87
-11
-89
-66
-8
-124
-63
25
-53
-24
80
77
-105
118
59
51
-11
126
-93
32
124
-4
-89
-122
55
14
44
-13
42
-19
119
-119
58
-108
39
-124
98
126
27
53
110
60
-24
93
-33
-47
54
-111
-24
-125
-82
-66
27
8
-72
79
-53
75
121
-53
-54
69
38
69
90
1
60
102
68
14
122
-5
-35
-4
-60
-118
115
-38
-79
88
15
-64
-53
100
-123
-59
-57
-20
-65
-14
37
-52
-56
126
-51
-35
51
-39
8
93
126
-65
30
-92
31
27
-71
19
34
-44
-34
103
48
-2
-9
-54
10
96
-47
37
61
-92
75
11
-41
18
84
112
109
-122
-78
-112
-3
55
-61
-53
-82
3
-99
30
-15
6
113
-20
105
52
1
-83
91
-81
-58
-102
69
118
-64
-63
-38
53
-39
-127
31
6
68
34
-122
-92
-41
-59
-34
-30
-2
44
-85
-103
15
14
-98
40
102
76
14
-36
-26
70
6
64
1
-91
-79
-14
64
-97
-44
-44
-44
-62
-80
-75
99
9
2
36
10
-118
99
94
-8
2
55
-35
-102
11
113
118
-127
-8
93
-88
-42
-93
-40
113
-55
100
98
37
-70
46
72
91
-3
-120
-26
16
-80
93
97
21
98
87
-110
-52
6
82
-22
123
93
33
-22
-19
121
75
-29
114
104
-37
-96
-71
-99
57
-34
-27
-94
8
21
-104
39
-104
-83
10
-75
-43
108
-21
-78
109
55
121
-50
10
-93
-38
24
-102
56
107
-42
91
104
-4
-34
-86
99
-53
-77
-5
-104
88
37
61
64
-30
38
81
6
51
118
78
87
-22
-101
116
85
-126
-50
-72
101
92
15
122
2
57
125
117
59
-93
-118
67
-80
78
-24
-31
39
-80
64
-82
38
51
71
124
122
94
-118
60
24
-20
43
11
2
-115
126
-46
85
-109
110
20
91
-74
94
110
-52
45
45
-99
-16
37
-108
94
17
-66
-39
-78
-80
2
2
-82
-100
74
-50
-59
-71
126
-96
-117
-54
47
-85
-67
-19
-20
-28
-72
-70
78
84
109
117
-100
-95
90
119
-7
73
96
83
61
67
-44
119
82
65
40
56
-84
103
-128
63
106
-64
26
-21
9
74
2
28
50
121
-57
51
-77
95
110
41
30
118
-64
-114
102
6
-44
68
81
20
-100
112
-59
15
6
-119
80
110
9
-107
-94
-7
79
55
-108
-24
-18
40
22
-30
110
-27
97
-108
-77
20
-31
-1
66
87
-63
55
85
86
32
-102
-82
-96
22
-1
60
-85
-3
49
-65
111
24
-60
-107
-19
74
-45
-27
9
101
-95
-22
78
70
34
-88
9
52
81
110
102
-26
58
26
47
112
102
111
93
-111
60
-70
-88
-39
-118
34
-3
-84
-116
-5
-11
60
51
-68
3
-114
87
90
-47
-30
37
30
-20
-74
-105
-91
-107
-49
63
-63
31
-78
17
17
-54
-22
-10
106
-10
-45
32
-35
-71
32
-89
36
1
-26
99
-53
-60
77
120
3
-87
60
-102
-5
120
-77
-43
117
103
-34
32
72
-52
-61
-125
-15
-10
99
-72
17
-88
-58
-118
17
36
-68
-7
-26
69
-82
-15
-14
-29
-115
112
-81
-101
-28
-38
-46
81
-122
9
80
-26
-75
-33
24
101
94
94
120
66
-103
-6
-94
81
-111
-113
66
-93
1
-29
-110
101
-69
-64
-98
99
-89
44
-75
-65
115
-72
14
-9
-67
22
-93
-77
34
-117
-98
62
6
-84
120
113
126
60
-64
-125
6
44
-76
48
-76
48
-33
73
-104
44
41
-104
62
-128
-62
13
61
-56
-98
46
-76
-26
18
-47
17
-119
-75
103
109
126
-57
-40
52
115
94
93
99
33
29
-116
3
38
-91
22
29
105
-79
-15
-16
-14
48
-85
-122
-65
-78
-47
-15
47
-99
-77
-61
-65
28
123
-72
-127
-80
-9
107
6
108
22
66
-43
-103
-103
34
70
-69
20
72
-84
86
-35
-105
-106
-28
108
119
-23
125
-29
-57
79
117
38
42
70
41
43
-25
-42
37
-87
-110
-93
-57
105
117
50
-82
-46
-108
-51
115
-70
-36
-110
-73
-11
-58
3
-97
6
21
75
-66
-93
-11
-53
-22
9
125
-103
-31
22
-77
-76
125
14
-18
2
66
-112
-11
-24
105
-38
-23
-108
-30
106
-86
89
126
68
-113
-103
-1
57
38
16
61
-105
-2
-54
22
76
-54
-39
13
-103
-82
30
-103
-99
0
85
15
72
56
21
-32
-93
-111
85
-104
79
-89
106
89
49
78
-101
22
-1
101
108
34
-99
33
20
6
-8
103
97
-13
71
-35
25
123
64
70
23
41
72
-118
63
117
15
-32
-47
9
-111
-104
-48
-52
-58
-24
-90
-27
75
-104
34
-80
7
-81
86
90
82
-108
93
107
72
-104
-14
-108
0
27
67
-28
94
-108
97
-9
-7
44
-37
78
0
90
-66
-7
-97
91
114
-41
24
59
74
-107
10
48
-122
28
-43
116
-127
-92
101
66
7
-75
95
-52
15
-28
36
-75
-117
76
-17
10
-107
-64
-105
84
-99
53
-70
121
-38
-79
76
-66
64
-83
-112
70
-70
-78
113
6
-121
-100
84
-28
33
-75
7
45
-59
-94
-83
37
90
-28
38
35
-14
40
-82
37
-112
100
-6
-15
94
-2
57
104
-114
118
-48
118
78
-53
-127
65
56
-58
8
116
-94
-108
66
-26
93
60
-37
-6
42
-116
-100
90
55
10
-107
125
97
29
31
52
12
-10
-66
54
83
80
-3
31
-32
7
105
-78
-13
-115
-38
-46
50
102
-128
16
-68
-47
92
-44
-97
-39
25
14
-128
-124
-101
58
-126
96
-96
-52
-18
21
100
-34
82
46
61
-52
70
51
15
-43
-57
90
83
111
55
46
-25
84
-69
-88
47
1
11
-21
124
23
-114
112
-51
30
-110
-119
60
-53
-64
-29
-101
87
59
48
-87
-49
31
111
-65
117
85
-86
-46
-59
-59
52
-27
-14
85
-107
72
89
-127
-15
105
50
53
55
125
26
-20
15
107
-107
-36
16
-120
108
-26
-57
102
-78
-125
-10
-99
-95
-51
85
71
-15
121
-112
-12
-18
-31
26
109
-88
-103
-54
-48
-18
-93
-36
-119
-1
116
-60
-89
-28
105
-26
31
43
-93
-110
1
-49
-50
-101
58
41
-35
5
-23
-68
-101
-65
4
16
88
-90
100
-59
-83
94
10
78
106
-108
-45
-126
-84
87
-64
103
-91
47
79
77
-5
30
-59
102
36
-52
113
-104
25
52
55
1
-6
-115
-60
-81
-100
-7
-120
95
67
-72
-89
40
-68
99
20
44
-68
-58
-94
-117
-47
-53
-6
119
-3
-19
-14
63
69
108
-118
85
93
85
-46
102
-61
-115
64
-68
61
-118
-21
-15
73
-25
-42
118
-28
75
60
105
74
69
-87
-30
-93
11
36
-29
-112
108
63
-13
5
11
57
5
60
67
-55
-31
70
37
42
62
-45
33
-43
-118
26
89
-1
1
-39
109
62
91
-103
124
97
-44
-75
-7
-22
-57
-61
-36
27
77
76
8
-27
-62
-79
67
68
-74
121
-88
-123
-60
44
-1
-55
9
101
96
47
11
-101
-114
6
19
5
8
-86
-118
-95
-123
50
49
-56
-72
38
-10
107
103
52
-55
124
-108
-106
76
-32
113
119
49
-14
58
24
-89
34
73
39
110
-110
104
-11
-37
66
95
-89
-28
100
-51
-62
-2
-88
67
-126
-13
-16
110
-14
-88
33
-108
-55
-98
-79
-47
-128
26
-38
-98
-33
117
-113
-107
14
64
-128
22
9
-9
-65
77
62
118
-12
54
39
18
35
-37
113
-88
-53
89
-100
-53
10
52
-92
117
80
-4
34
-3
123
0
-58
70
121
-105
-109
-17
-61
45
18
-58
-42
103
-3
42
-4
106
-10
-39
11
20
-84
-107
38
-8
-14
91
-23
-82
55
-121
107
-103
122
-47
-6
-16
2
-89
-87
-127
-53
82
9
125
22
-38
-53
-13
-59
-114
-126
97
14
-104
-14
4
11
116
74
110
-74
122
-77
0
-83
71
96
-96
2
-82
26
12
95
52
67
-58
3
69
-106
78
113
-85
119
87
-100
-97
-60
119
108
-114
-86
18
-122
-4
12
-71
117
-18
-18
68
106
-33
75
5
113
-41
48
43
74
85
112
-25
82
-23
27
-97
-61
-2
36
-111
57
80
-25
-85
55
-69
66
0
123
27
-27
20
95
-43
49
-17
14
-7
107
92
69
-58
-118
-107
67
-1
92
111
-108
-72
63
51
-32
-118
-113
6
55
43
9
93
-117
-32
-118
114
-128
-122
-124
-84
113
51
-8
-22
-19
119
-65
-32
59
24
-61
13
42
-20
-84
21
-101
-35
-64
-10
-92
-47
123
101
-36
-46
-98
76
-18
-122
-12
-110
-49
17
-94
-100
-83
-126
-46
14
-14
82
-91
-107
-70
-44
9
50
-99
-73
-32
-86
-17
-109
-83
123
81
-113
107
35
-43
78
-14
115
28
-40
76
118
5
109
-63
35
-37
-1
-9
-99
-100
-13
-62
98
-70
108
68
22
-44
-116
41
-125
43
-77
40
86
114
13
49
35
-46
-108
-75
-109
-92
95
-123
80
-54
59
-119
31
36
102
-28
71
8
87
45
-88
3
42
-102
-15
-14
-113
16
73
62
47
-97
24
112
-34
114
38
-78
61
-57
-84
90
116
119
91
116
-70
66
96
65
116
68
49
24
58
-40
-13
96
105
-11
-39
19
-33
97
-63
8
-7
-64
97
-59
-94
42
64
-123
67
-41
55
-114
21
-94
-107
111
-52
45
36
-82
28
-23
123
107
3
7
-80
71
-23
-17
13
-26
-117
-114
-31
70
39
-31
119
84
-70
-27
-53
-97
-10
15
112
13
73
8
88
-76
117
-78
57
17
-75
-72
61
88
-25
-72
25
-13
-103
46
-85
-36
69
5
-107
48
52
24
61
22
-29
-25
63
-14
-63
-51
3
13
-57
54
-119
88
9
-57
-34
5
65
-107
-105
-28
99
67
-118
-39
52
108
-26
109
43
-82
84
125
126
-8
-125
-103
-85
11
74
-50
-125
35
-108
-42
65
76
119
101
-57
118
116
81
-22
12
15
33
-23
114
-79
61
-91
9
-14
49
-62
82
-51
-30
-87
-95
-65
63
15
-119
68
-60
-28
11
13
7
55
-13
17
24
-21
16
-62
-3
48
108
29
-64
-29
73
23
-57
74
48
-59
-58
-21
-57
-52
34
-61
-20
12
-46
104
117
14
-89
-23
2
-88
3
-30
114
-69
-99
-40
-67
-11
-8
-87
-9
93
111
44
38
25
-117
-46
-36
83
65
-98
72
56
106
-91
106
73
-89
61
-54
36
-41
-10
15
64
-107
-47
108
-109
85
-98
49
36
44
-37
-61
-107
-23
-38
-84
-80
15
-80
34
48
-87
35
16
-2
17
-54
30
18
-3
-118
79
65
-27
25
-26
37
90
87
-25
-65
-55
73
-101
-58
43
90
91
126
109
-85
53
123
-67
88
-47
-55
110
57
62
-31
-99
20
20
-25
-20
-101
-93
-7
15
-26
106
-65
-126
47
72
-120
124
72
23
-63
-40
42
-56
-18
6
-26
-15
35
-88
29
27
7
-68
72
77
-113
-23
114
40
-8
126
-77
97
-98
70
-111
-101
90
100
6
-20
-64
108
74
108
-59
-108
74
103
5
-117
-116
-96
120
-102
-85
105
-125
-100
-89
12
-84
24
-109
2
-75
-121
-113
-78
5
-14
-12
-55
114
-37
101
-127
-17
103
70
44
-13
82
-110
90
-124
102
108
-49
-96
-102
-60
74
-87
-28
-52
-6
32
-42
56
91
-120
50
-4
-9
115
28
11
20
81
93
117
-127
-64
8
109
39
33
122
21
-34
-83
55
69
62
109
69
-115
-98
96
112
33
10
-76
-105
-113
6
119
-56
117
8
-94
52
42
126
-37
8
-72
8
-54
-50
-59
-52
-64
30
83
-121
42
-112
-118
97
-77
107
86
100
-118
-8
21
-50
-31
71
-116
-70
-46
-17
25
76
111
31
81
9
121
-26
-20
-53
-16
-61
70
73
87
14
45
-25
37
80
112
32
111
21
95
-12
-96
-113
102
28
-50
-48
-34
1
-55
120
99
75
-86
41
126
68
17
80
116
-79
-49
48
101
121
20
81
-119
41
-87
84
26
-42
36
42
19
24
75
64
-123
85
-102
28
25
-7
-5
-91
-128
-29
-41
126
-26
70
61
-70
0
20
-124
-19
6
96
-65
19
-78
62
-95
23
-13
110
-27
96
-13
80
43
-79
-70
-66
-110
37
-59
37
-35
110
7
-90
-64
-82
19
-77
15
100
16
-119
125
-113
106
124
94
-10
-60
-14
-104
11
-125
-46
64
112
-68
103
-32
107
121
-61
-38
75
-50
54
47
-121
-97
-114
82
-112
28
-80
-35
69
-10
67
54
-52
22
6
-4
86
-22
110
-69
-14
-115
87
23
-23
62
43
-103
-40
41
-109
83
-64
38
95
-56
84
-111
-107
50
-108
-78
55
106
-92
-89
-116
-58
107
-123
-75
87
43
-42
101
-35
-48
0
-123
122
-42
12
87
-10
95
10
48
-27
126
16
102
73
-78
114
-74
71
-101
73
120
48
40
54
-102
-29
-74
50
-9
22
-118
47
101
41
24
-33
-4
-113
32
-31
-52
68
90
54
-62
-79
38
-100
85
-55
69
-86
76
-58
-115
126
45
47
-120
-36
11
-20
20
-8
89
-69
-108
91
-96
109
45
90
-84
75
-55
-51
-5
33
-39
102
-48
-21
-57
79
97
-53
-73
-106
-81
-116
93
-88
-74
-17
27
-117
25
-38
-18
60
45
35
-55
-82
73
-63
-83
-101
-125
88
-8
-39
113
-128
66
-102
41
65
39
0
5
-82
78
-85
39
-73
-44
71
43
-27
-77
54
82
97
-81
-99
24
-124
67
60
19
6
46
69
105
33
-98
122
53
-97
-123
90
-122
-79
-53
41
-89
101
-51
102
-5
-33
41
45
66
-13
39
-9
-45
-46
-62
6
-13
-28
-3
-40
-107
30
116
-112
-122
-54
-8
-96
83
-13
10
-105
5
-94
-125
-85
-80
-39
46
68
97
104
111
109
-47
-111
113
-30
-91
-98
-56
21
103
-119
-8
36
-39
62
-58
-51
-3
-117
75
-76
-39
70
23
122
53
119
5
43
95
0
-98
-2
-38
38
-111
-6
-32
-60
54
-1
29
-85
-88
-94
110
78
-2
94
-74
20
61
-82
65
-47
48
26
21
29
-115
-42
-7
-88
97
51
-71
9
-24
-44
-124
14
30
70
-114
-94
-58
72
-59
0
31
-127
-99
108
-94
69
24
62
-110
-61
-101
93
109
25
58
117
-5
-77
-108
8
106
29
124
-44
41
-42
-90
82
65
67
-96
-4
108
39
-115
-71
72
-27
-11
-2
-51
-67
12
-57
91
33
9
51
79
51
-43
-114
51
-58
-109
-93
-33
-38
34
44
67
44
-14
106
7
-30
113
101
11
-42
-56
-125
-35
-94
-33
-3
17
-29
-127
118
-24
-58
-47
-119
-34
-106
-125
43
-116
-61
9
-114
-22
100
-68
-43
-67
-32
122
-21
-1
-79
40
-123
-57
-126
-92
-57
75
-58
121
-89
-56
15
-10
51
126
-76
23
58
-100
17
103
-55
-56
-21
12
-53
9
-124
109
56
-29
-116
-1
-5
-128
44
-97
84
81
-117
-48
-96
-23
-61
-20
70
93
-47
4
74
6
-125
-83
-28
-46
2
93
-43
82
85
-97
51
-50
14
37
37
-69
124
79
-24
-48
39
-22
37
-92
-71
-5
-14
-9
-60
-108
-124
-82
1
-107
37
-53
54
121
22
-24
56
6
31
-2
117
-88
43
-107
-122
122
1
-91
55
103
-27
59
-64
-89
-16
-108
93
-39
-6
18
121
-44
-55
-1
-103
-8
50
59
27
-100
-101
33
-117
38
96
98
-84
-114
-15
-64
106
12
46
-60
118
71
-41
-48
83
49
-63
65
47
12
-57
82
33
-44
-91
-46
46
-43
-112
-65
14
-77
48
73
-104
-118
31
-71
43
-104
22
-13
121
52
48
-104
-102
-36
-56
-105
-58
-93
-51
116
-16
51
31
95
-100
-104
92
-23
23
-44
86
-20
-1
-117
-77
-80
-10
36
-110
125
-93
82
36
40
-42
59
44
111
-15
-58
33
99
120
80
15
95
-41
121
26
11
-83
29
119
78
54
89
-28
-13
-33
-120
-31
33
-106
116
58
-105
-113
41
-106
70
-36
62
109
102
-53
26
-32
-65
104
124
-103
-77
16
108
3
32
-35
-45
97
87
119
111
13
-25
-72
-100
55
-76
-57
-52
81
26
-29
-29
87
-36
-99
-37
-72
-11
95
102
-121
-103
69
-62
-56
-64
32
89
-117
-12
-58
-14
46
-90
-34
29
4
121
-94
-69
-32
50
-1
-38
117
-70
-11
77
58
122
7
89
-14
-37
-44
-28
-44
-118
-6
-112
118
-76
0
-92
17
-112
-24
-83
-89
52
81
-120
-44
107
93
101
-102
91
89
-7
13
-37
75
-104
-19
34
-36
102
-127
25
37
16
93
82
-8
-118
-64
32
58
-58
36
16
-3
-125
3
48
26
22
-97
74
114
-9
-74
-14
-99
67
4
47
78
-80
108
-41
-84
85
92
-69
89
115
102
-3
72
-105
-43
15
-123
-103
69
-104
-112
90
106
11
-121
-123
-76
-47
-93
104
61
75
118
-118
85
-55
35
-17
112
-112
14
33
-17
-22
-123
95
-5
101
106
-95
28
79
-114
-7
-34
-21
-113
-110
-69
30
-109
97
-92
41
74
90
64
35
-96
30
-106
-12
20
-115
-41
-28
-22
-65
-37
88
-40
-27
-82
58
-116
57
-35
-86
59
102
-96
-62
-95
-22
-39
111
16
59
-56
-117
-42
75
-118
-98
-56
121
110
80
93
-127
57
-61
-100
55
-95
-41
-80
-84
-88
-74
-12
-106
24
-79
-78
109
50
26
-19
-79
-1
-53
-99
120
31
116
52
-117
104
-20
101
-37
-79
91
56
110
-71
-87
108
-13
-50
-36
39
33
63
-53
-32
85
118
126
124
-124
-44
58
117
-86
-78
61
17
-42
89
88
52
55
-70
73
75
-75
-73
118
102
98
29
-48
7
39
65
107
-46
29
-111
-10
45
-84
-115
23
116
-34
8
103
-59
-72
51
123
80
-35
106
20
-121
-85
-3
-104
-116
13
-36
-116
49
110
52
72
102
-78
-112
63
58
-36
113
-95
-125
26
113
-38
-97
-101
8
-85
46
-65
74
64
-106
25
12
3
67
112
-124
121
-94
5
-56
77
-3
-2
124
-92
-98
-76
82
-120
-89
80
-36
-39
-108
66
-59
-113
-39
91
-75
106
-115
42
-58
126
-4
-67
92
106
-12
-84
75
61
-115
68
-111
-88
-85
0
42
-11
-94
107
-72
-97
-32
34
117
100
111
-68
100
100
-9
36
17
23
122
72
12
-26
-125
-114
107
-93
19
14
-122
-57
-115
-51
103
-38
-43
62
-91
-1
-35
-22
124
88
-12
-78
-126
10
-29
-44
6
22
53
-53
122
-93
8
-44
-40
-57
-22
-35
65
6
28
118
125
-20
-54
-6
44
87
-45
-72
32
-29
118
59
-38
-73
71
-94
111
60
-39
-54
-62
-63
8
-117
33
-108
2
-15
67
126
10
-66
-14
122
100
107
-33
-87
14
90
-62
-73
-47
16
-3
120
104
-36
103
-44
-121
13
-104
5
-124
-29
-101
86
83
116
47
19
-37
93
34
-11
61
36
97
-25
-112
81
57
-24
99
61
-92
14
55
19
-73
-127
119
-107
105
-37
73
-63
81
70
-104
-91
3
-77
31
83
73
37
-17
-101
-19
80
36
0
80
-1
-61
76
-23
-41
48
-97
81
17
93
74
-42
62
-123
105
16
95
-2
-128
59
17
70
76
-37
-13
55
-23
59
-100
-29
112
-91
38
-18
-122
-60
-12
-82
98
13
62
11
-72
116
-62
-113
-115
54
28
-113
-46
-38
61
99
-103
-53
59
-18
-53
-65
-124
-61
113
-110
-50
42
92
-34
105
93
53
-31
-11
-38
79
51
-116
-3
82
-67
27
-44
95
-51
13
-48
11
64
-14
62
-45
32
-4
92
0
-17
35
-106
63
37
52
-96
-92
4
111
93
-72
-34
92
-42
-34
-53
-42
54
-34
41
57
122
-118
-93
-3
5
9
112
-49
-91
54
41
-118
-93
-128
55
15
123
4
-30
-35
-23
-81
3
83
-96
121
-121
-77
-44
17
126
-102
-94
8
94
-25
-97
34
-94
-56
-119
-86
-9
77
-42
-115
-100
-44
124
23
122
17
117
-89
56
75
1
2
46
103
80
80
20
55
-11
-90
-128
-37
-10
-92
-114
-120
53
-7
-7
-111
-104
28
-84
-59
-16
120
-66
-42
66
47
50
-102
122
106
-91
86
20
-10
-34
10
-23
106
11
-50
78
-56
29
-43
-31
100
108
-85
-4
123
93
25
46
88
64
-46
114
57
-48
64
72
43
39
-7
-80
-7
-96
-9
-65
22
0
-27
40
-17
54
-103
76
-61
-98
66
70
-48
-118
-41
-61
0
35
-44
122
74
41
-98
-72
74
83
-67
-121
-117
78
-44
99
-124
-43
-12
3
-30
48
112
36
-17
-118
-94
2
55
89
-22
56
-45
35
-124
70
105
-42
30
-55
-107
97
92
-74
120
94
-72
-77
-81
-61
31
37
-7
101
84
73
10
9
-94
-21
-78
44
116
-84
-104
-26
43
46
77
36
-34
-29
-55
-76
-95
-66
114
-36
15
-66
-7
-67
99
91
114
53
9
-59
-23
19
54
-8
38
-93
-106
-49
111
-14
-12
-82
43
-42
-25
34
6
86
-123
-14
8
-31
-55
84
-75
-6
56
-24
62
113
109
-111
54
125
-46
-32
52
-114
24
97
124
-30
60
85
108
108
0
9
-47
-95
-91
-76
113
64
16
102
-32
-50
87
-25
-11
28
5
33
-58
92
64
116
57
-14
-61
96
-45
35
120
7
-27
1
36
-68
7
63
32
-82
-85
30
-95
-9
20
55
126
125
-22
121
30
25
-89
-1
-47
-31
116
-62
104
12
19
103
-27
-38
-27
78
-5
99
39
39
-56
-72
-25
-32
86
69
-24
68
57
5
33
28
-120
22
55
88
-37
-60
-109
117
37
38
61
-5
-108
49
55
38
108
117
113
31
68
29
41
-70
90
-36
93
33
-107
70
-66
-9
-59
-85
7
-112
101
-21
-74
14
-124
125
113
-63
50
119
-59
61
-103
-126
13
-54
-13
-128
68
-97
82
-19
-87
-25
54
-92
119
-67
4
-58
-28
-68
25
30
-13
5
93
-98
126
62
78
19
66
99
110
115
-97
-57
84
13
44
-41
106
-74
60
-67
0
-117
-48
-29
107
-68
-56
-1
83
1
-113
122
63
4
39
-61
79
33
-106
15
-83
-80
103
40
89
-2
80
31
45
-66
68
-18
-57
-112
-34
67
18
82
33
-44
13
91
-21
13
-100
-49
119
-88
97
-35
-35
-57
112
98
53
112
101
-102
99
99
17
-86
44
-38
64
-122
-50
54
-57
-124
66
-19
-27
65
58
37
-85
46
-98
21
9
25
2
-13
-128
-23
-32
1
3
-86
112
-92
-80
-105
17
27
62
60
-118
-89
-8
86
30
-22
75
104
24
47
10
-81
80
101
96
114
-82
-91
65
116
-2
-3
107
-1
5
5
69
-25
-83
-125
46
-19
-117
-9
-30
-103
-105
-102
-44
-110
60
103
-50
-41
9
-20
-90
11
68
-125
-35
12
91
61
92
88
-118
-119
47
59
98
-46
36
115
18
-35
14
-39
-26
-6
2
49
65
64
-109
22
-67
-54
-7
122
89
-105
-126
-55
39
111
41
70
3
75
56
-67
-104
23
88
-7
-20
101
-7
101
-23
26
-41
53
-100
-11
124
93
-92
-113
-52
-47
-26
-2
65
56
87
-15
-95
-34
-111
-45
2
-128
3
4
-12
15
10
-44
-42
4
100
-35
28
-109
36
-22
-28
-55
-39
46
-56
93
-59
-98
-124
-9
-101
-42
-103
113
-78
125
-75
115
-93
-125
55
66
-88
121
-88
56
-97
73
4
-40
23
124
26
-26
-117
-66
-69
62
-8
-119
113
117
22
87
6
-71
40
-111
91
-18
-61
-43
-106
98
5
-78
59
-40
11
-27
-109
56
89
-48
7
47
40
27
-29
-56
81
-107
105
-25
41
-60
-18
-79
-122
-128
40
-122
-107
-92
28
-83
11
-119
121
110
-93
-8
111
95
-125
22
-36
103
-26
-12
119
-29
99
13
46
114
89
-77
81
-61
11
81
44
116
-125
103
14
89
48
108
79
85
13
43
45
-105
-103
-29
-34
-78
117
-32
124
22
44
3
-32
90
-6
-63
85
45
57
-101
-103
-49
7
68
-21
27
115
1
26
112
-116
-82
-124
-64
-97
39
-19
-116
-3
-58
124
-87
-108
-56
-124
-41
-96
41
82
-82
57
-6
98
85
56
36
-18
-57
-32
-114
-49
18
-16
-77
-110
70
15
-48
-93
-64
105
116
28
73
39
-28
90
64
-6
121
-102
34
104
-111
26
-9
55
21
-7
-9
-105
-86
120
-113
-103
-3
40
16
48
-105
-63
-114
-53
-66
69
78
54
-36
-33
105
-33
56
-69
-112
105
-11
21
116
12
-37
-14
-2
7
6
14
61
-5
-35
-2
119
29
-71
87
-72
-27
-2
-41
-8
65
23
9
31
110
-4
-31
-112
-80
-110
49
106
-27
100
101
-56
-33
35
-90
-34
116
-68
-11
27
20
55
82
-10
-118
-122
125
-119
57
37
-116
42
17
113
-11
89
-62
107
107
-126
114
-24
-63
-95
-19
43
-124
102
-62
120
-55
-13
-26
-59
-81
57
-104
-97
-107
104
50
-19
-114
-88
-121
124
-40
83
103
101
91
79
62
116
-24
-109
-15
124
-98
66
0
-75
-6
-56
58
-33
-17
17
-29
-60
99
113
-69
69
114
-109
-59
-13
25
-24
8
-101
-105
-22
-90
96
-4
-61
-52
37
-46
62
-24
-24
-36
31
-114
113
82
111
91
97
8
10
61
114
65
-60
87
-102
-127
-2
-69
-96
-66
-118
-56
12
-30
50
-2
-126
-62
-127
-60
42
4
-80
111
-83
10
-37
119
-54
-114
45
-58
-83
126
-39
109
-100
55
-44
-90
98
-85
5
45
-36
43
-50
120
-113
-117
-24
-50
-22
84
-60
3
50
-120
56
-2
-61
95
-54
-51
-8
37
69
109
-4
-82
101
26
-39
-20
1
22
-23
88
-67
77
-84
-5
-119
61
-96
-36
30
104
115
110
-20
-35
-56
-35
8
-4
51
5
121
-81
-119
97
67
-109
20
-85
-122
-90
-114
70
-80
-42
37
54
123
-124
-20
85
-55
-112
6
25
-41
-13
75
-71
-6
111
-26
72
-120
-74
40
105
-80
-54
15
2
-51
112
-2
75
-2
62
6
-27
3
116
94
-71
116
28
-21
-94
-33
-63
-89
-18
29
-110
-57
-17
96
25
-123
-34
31
65
-13
39
-105
-5
15
-53
67
12
-80
61
-89
43
104
37
40
-56
-18
84
107
74
-59
-15
-78
25
89
-112
-59
-18
-26
-39
-9
22
94
121
-49
-102
115
-49
76
-123
89
47
92
14
25
-53
99
99
75
-69
63
-63
-55
117
-119
51
93
93
97
94
-57
-99
57
-1
84
28
50
52
115
-128
-44
65
19
100
111
29
-99
10
-45
-31
-127
84
109
-108
-109
-87
8
-105
-24
-77
-2
-71
-70
4
-71
112
-105
-31
-4
56
99
15
79
-62
-87
83
94
16
-71
-122
-121
-26
-46
35
70
-98
-86
34
10
-36
26
46
17
95
-76
-117
51
-7
47
-55
-105
2
118
2
-95
-63
55
59
-89
-48
11
-74
-99
79
-65
-47
-120
35
-128
-85
-121
-8
-68
-79
-9
-15
-24
12
-50
78
-90
-95
-32
-50
111
39
45
-54
88
85
-69
-41
-86
12
9
-9
-86
112
83
27
10
-40
-30
-104
100
53
-66
-105
68
-71
105
68
-43
-90
24
117
-33
-88
57
110
10
41
-75
41
48
-36
-2
73
44
-120
89
13
-52
-18
84
-24
-111
62
69
-2
-29
42
-59
37
-45
-96
-15
24
0
95
-28
28
15
-81
83
-43
-91
21
-34
42
78
-12
30
84
-50
-102
121
-27
126
120
23
-40
66
-96
68
-111
-35
-38
-13
-93
-86
81
-72
71
12
8
-20
43
-35
-128
86
-82
33
-90
46
-93
-9
63
-7
-74
4
-123
-117
-125
57
26
6
85
-28
-78
-69
8
-126
111
-46
-7
2
60
-68
67
95
-85
-59
-75
-61
56
28
44
-104
-113
108
-110
126
10
100
80
87
20
10
111
-78
38
-115
44
-114
45
99
-55
33
-94
-62
101
28
-71
-52
80
-38
32
37
-93
93
-85
113
-75
-63
32
43
108
51
16
-35
1
115
-113
-69
58
-32
-90
-106
-87
101
-37
37
120
-97
79
79
-70
-43
67
79
73
65
-2
-118
43
83
29
77
65
52
-27
-41
-110
126
88
86
97
123
-37
66
73
95
-120
-109
-14
57
93
97
22
100
-2
-98
-106
92
-34
-71
31
-16
53
125
-76
-90
101
-29
11
17
33
120
93
-9
103
45
62
-44
18
47
-62
-94
-18
-56
68
116
45
2
-73
77
-8
-25
-76
-29
-108
29
-95
41
16
75
47
-53
-11
-88
56
-99
-115
74
-104
109
-94
-22
-22
21
48
-72
-4
19
101
103
-43
84
-89
-117
48
-65
96
-125
-81
50
-13
117
-96
-78
-120
19
7
-74
-44
66
-69
0
76
-79
78
98
-108
105
-15
73
105
13
-1
20
-6
119
86
18
-5
-37
-56
-21
42
74
52
-117
-40
55
81
-6
114
105
-53
-88
9
3
-107
-22
54
77
28
55
16
81
99
119
-19
34
-100
86
-118
-21
25
54
106
-44
-62
-50
-7
-57
59
47
-115
-65
42
61
-98
0
5
-81
-9
3
40
-11
-30
67
-56
-59
-92
37
79
63
50
17
116
0
-22
-56
66
-96
-54
-86
95
79
95
74
-46
-12
-36
33
65
-16
44
-101
26
68
-126
-63
-69
-49
-91
51
61
2
-34
6
10
-85
-72
-96
-108
-11
-87
13
50
-13
-5
36
62
-71
-106
32
33
9
-5
109
5
46
-85
26
-70
34
-118
12
121
-48
-70
-58
52
-119
-55
13
109
-77
118
-75
99
24
2
29
48
0
-20
-115
-59
87
-14
70
84
87
48
0
-118
97
10
107
-127
120
-22
-5
-126
104
-40
89
-18
-83
-103
-77
-101
-120
-3
42
-85
125
-67
11
-46
102
-90
77
-109
102
-48
51
7
0
59
-36
115
-76
60
-29
-93
54
-69
-44
84
-30
9
-100
51
68
35
46
116
-87
86
-62
-20
-79
-37
45
-3
126
-44
-4
86
-128
-22
-107
-78
-43
-4
7
-98
-126
0
118
-51
126
-1
-3
39
126
-104
107
-59
-31
8
31
118
74
111
113
28
-89
-61
-51
81
105
98
-13
-98
66
28
-32
0
-105
108
49
-10
-9
111
-95
-107
-39
23
115
-48
122
106
-117
-119
88
19
-49
-17
-120
-95
-85
-113
-42
13
25
-60
67
87
-81
-102
-16
-7
99
-9
-32
90
107
-109
-125
-1
70
119
-71
-104
-29
53
91
-115
53
-21
47
93
0
-117
9
-68
53
121
87
31
106
20
-5
110
80
-115
44
-106
46
114
-20
32
-124
-121
-28
-68
112
-86
33
-127
-101
29
53
88
60
29
-61
53
-10
-48
10
-125
94
70
45
28
119
68
-124
-34
-100
-105
31
-81
57
-5
-39
111
103
66
-35
102
9
-64
-3
30
117
92
15
-128
-56
34
-122
76
-121
104
-64
11
-114
-61
-23
92
-21
-63
42
-66
-18
-100
-51
-60
8
58
28
-19
46
126
3
11
-56
-4
83
21
87
-61
22
50
-69
76
-126
-32
61
-128
-28
63
-7
-108
75
34
63
-104
36
52
-80
123
-58
-89
-25
-55
18
-29
4
-84
-104
19
115
-71
-75
-93
-106
11
67
-127
-90
-40
-122
120
-104
103
93
92
76
-126
48
87
-91
1
-15
65
84
-86
75
-114
120
-111
69
-58
-86
-47
-78
14
-43
-27
9
8
-40
40
-37
87
-63
94
-70
7
-8
96
21
61
-52
-52
-36
2
-85
-84
67
57
122
-32
75
-39
-120
-110
-103
-12
108
108
-62
-123
112
-100
-70
44
16
-104
-83
42
-83
-8
38
114
-26
-101
-58
37
-17
-71
-89
-123
-48
55
-91
50
-91
-50
18
36
-89
-13
19
-26
-32
73
121
63
-91
98
-43
-71
37
-51
71
-9
-7
-16
-127
-109
-15
-98
-3
-37
-4
45
-126
-19
-24
76
10
-3
-37
116
-121
51
63
97
91
-54
-60
-65
-92
-60
-90
90
103
24
-35
105
-83
-125
95
-6
73
-91
110
-105
-41
-25
-86
84
-56
-23
60
-118
102
-85
-41
43
-80
-97
-22
29
48
85
-4
53
-56
51
-94
82
38
55
-40
36
46
34
-30
-127
56
-72
75
93
3
117
3
92
86
-114
120
38
-44
-115
-127
109
101
102
15
51
-86
17
26
17
85
-85
-125
-62
107
32
-64
-91
86
93
-103
-96
57
28
-109
5
-32
-115
100
113
-53
-55
53
-88
-122
-57
-124
-98
-87
37
33
42
-27
40
-106
-85
72
31
20
-113
-56
-120
70
45
-25
34
-18
-66
-93
-40
113
115
73
-79
-35
-126
-81
-73
116
13
103
27
16
-77
-95
-40
4
29
69
96
7
-60
86
79
-80
16
-102
121
-7
110
-115
115
13
-9
17
91
65
121
60
-80
15
-110
-103
-62
-85
45
31
92
-10
-26
-48
34
115
-120
41
-104
-44
93
37
-73
17
24
-94
50
-35
-108
-23
-121
-24
-26
81
97
70
66
-97
38
-70
-2
-1
97
44
-46
-123
-13
108
-13
27
44
-11
-100
-38
77
-128
102
114
27
50
-127
90
96
-54
105
-18
23
67
98
116
12
125
25
-41
-125
-80
8
37
-12
113
-94
-118
90
58
34
-35
119
-39
-68
-127
88
113
-76
-28
-70
-122
58
-56
-88
-41
-48
-104
124
62
61
-64
-3
2
-34
84
-124
-63
114
39
56
-102
-110
-50
121
-68
-90
64
42
80
110
-70
-12
2
36
-109
36
34
92
-39
-15
111
-101
81
1
-85
8
96
25
-58
118
74
-16
-79
-103
-57
-29
-90
52
44
45
-8
-54
58
39
-40
23
-96
-114
42
-123
13
64
-45
-87
113
-126
11
-57
1
112
69
-56
53
-48
7
126
-21
31
101
-84
-37
95
94
126
-83
-118
114
52
125
-12
13
18
-51
-61
-19
57
-104
-11
82
-33
59
-91
-122
-43
-19
-81
-126
-27
-94
-33
-31
-77
-88
-108
-112
-52
-20
-108
-75
52
-72
65
106
-94
28
-26
-14
-126
0
-54
-94
-124
125
106
-67
72
96
64
40
126
109
-95
12
117
-106
0
98
13
28
47
-99
15
125
18
87
55
100
66
-110
-14
-2
-34
-81
-74
-115
-64
-40
-47
-94
109
55
-105
-5
31
110
58
-57
-82
107
107
-10
39
98
20
-90
-19
4
-52
-33
84
-31
-62
-9
-86
-59
-46
-39
-92
-67
-65
72
69
11
101
99
-118
-117
101
-18
102
-80
110
74
-52
44
27
105
-120
-29
76
66
101
-109
41
119
25
44
1
26
-69
-25
-88
38
120
114
26
-28
-81
107
-91
-48
-63
-112
95
-125
-35
61
-8
-33
25
100
46
72
113
46
64
118
-103
-58
-2
96
89
4
15
-124
-88
86
-46
-39
116
81
56
-113
53
33
100
-86
43
119
1
-121
2
-89
-108
81
-9
50
66
-100
97
61
-48
49
97
99
87
-99
-14
71
-27
-15
104
-8
-28
-42
-51
-1
47
28
-90
-39
-39
97
-115
-125
101
103
1
-76
-27
66
-5
-84
57
-16
83
37
-1
-31
70
-108
72
53
29
88
23
5
-120
40
113
-70
-33
73
-11
78
19
-23
-72
-25
91
-110
76
-124
119
-115
-70
77
32
38
65
-110
-31
99
16
64
-51
-125
91
43
-21
-8
-91
94
54
-79
88
97
1
-125
70
-106
16
22
22
98
-64
-38
64
6
-41
81
-83
38
-12
-116
-1
-86
-10
-63
-102
109
89
-67
106
-49
49
-46
97
-92
2
108
3
-50
-126
68
-46
17
32
-31
-63
-114
96
122
-105
-100
-84
-66
88
-46
75
-29
-1
-17
-105
-68
39
-64
99
-76
-23
88
126
-39
-126
40
-39
-24
-17
107
-107
41
-75
-113
7
3
-45
99
79
81
62
-28
-17
124
18
114
-103
-18
91
-18
-47
48
38
-56
11
-20
79
11
109
121
-96
92
57
-105
-6
33
61
-46
-20
-4
21
-110
101
-75
-71
-18
22
41
-82
-20
-8
-105
-37
22
27
62
-5
-31
15
112
-79
59
-110
-8
-107
-95
-56
59
-1
-98
88
77
-103
98
-55
83
126
116
-80
45
35
82
-67
-7
55
41
0
-121
119
-106
-30
49
41
120
75
-81
-10
94
114
-111
-42
119
-41
-41
82
18
-3
111
-46
-79
105
-17
79
2
108
-13
102
-100
-78
-19
-127
-44
-52
-102
95
21
25
88
62
-96
-80
21
53
-37
-114
-22
-58
-99
115
92
111
6
66
2
115
-93
-51
-52
-61
73
-47
58
-31
100
-62
1
41
96
43
78
-23
-115
-21
-45
-87
63
-127
-26
67
105
53
-102
-128
-26
-102
43
-62
80
-104
40
33
-67
-5
-33
-8
-53
42
42
54
-113
-93
76
-128
-82
-76
57
-57
23
85
-104
83
115
-51
-108
76
103
-25
120
73
-60
58
-61
62
-100
-98
-18
87
-113
94
-122
-1
-56
-39
-111
-68
124
-71
-35
77
31
42
-104
-93
5
92
-85
-81
-49
35
-32
-60
-79
107
-74
-113
13
-72
16
-77
-28
106
123
-7
54
-52
24
-28
62
38
108
70
-18
28
-90
97
103
-121
-46
70
-51
35
11
-88
-50
72
-115
-59
72
-47
113
-105
-85
-100
107
21
10
67
92
-44
-33
74
-97
29
113
-16
52
-61
34
-5
18
-65
-49
38
-86
-100
-58
9
-28
40
36
-128
21
50
-42
44
-127
79
36
77
25
31
-66
-47
3
104
121
120
49
27
-42
45
43
-113
95
-81
-13
-46
-16
-9
37
11
78
-94
25
55
-61
103
40
-34
-5
-29
-92
33
-58
-86
12
-14
38
-110
-27
83
-62
73
102
-88
24
99
-92
-36
-117
-96
-69
122
107
22
-124
66
41
-47
122
76
-119
71
-25
-72
-20
106
-43
15
-71
-10
89
-103
64
-106
62
-86
104
-21
89
73
19
-122
-50
40
45
69
95
7
44
-16
25
113
30
63
-102
76
-12
-17
-5
109
-61
-101
-32
67
78
97
88
70
-111
-74
-90
-44
85
-45
-118
76
-106
-112
121
-122
85
66
-91
10
-20
89
-32
-38
13
44
47
15
95
-30
46
11
28
-100
-73
-108
67
91
47
50
43
112
10
0
-70
-78
124
120
104
1
-100
-4
90
61
-123
115
122
-106
-123
94
88
-47
-26
77
-23
115
125
-122
24
-101
116
112
-78
85
122
-74
25
49
-117
-102
-101
15
63
64
-120
-98
-27
-35
-73
121
100
-20
-65
-48
86
-16
-28
-40
12
-16
91
22
-114
-59
-82
-128
-102
-99
-114
54
39
18
-28
105
73
-97
-10
-89
110
-31
-84
-42
58
-44
49
-41
-31
-46
108
89
8
-77
-52
-47
-24
-6
44
-99
-66
6
-101
-89
-49
-21
-8
21
-102
26
-50
-99
-40
30
-109
124
87
-96
-77
51
86
-27
-53
105
-107
-69
75
-52
-55
-85
-67
104
70
-45
40
11
57
40
-70
43
-47
27
-40
-98
-56
-8
-82
109
101
110
82
42
100
-124
-62
-39
111
5
109
84
6
-120
-20
124
-100
-65
-87
-74
31
25
86
-8
85
-44
67
-2
-35
-79
53
59
-122
80
32
-18
-68
47
-98
63
15
71
-109
-50
112
-109
101
-40
97
-118
-52
-104
116
-54
-99
-7
-44
-60
-86
96
-21
-90
-93
-120
-49
-25
49
-60
-90
-60
98
34
-80
-123
18
-66
-61
-94
29
-28
36
-45
-65
125
-119
-85
-122
-128
-105
73
-68
-31
42
-114
24
-71
-99
-127
-72
13
100
-100
3
85
-33
73
72
-71
102
-9
-36
97
38
73
121
-124
44
30
-6
95
18
21
-14
-13
100
85
-49
3
105
-106
-70
93
-14
-22
80
36
-75
-80
92
-55
4
-24
-28
-72
-7
113
-59
-116
-91
-28
-92
101
35
-63
-20
43
50
112
81
-35
3
94
104
-119
49
93
-22
84
70
-126
-88
109
71
-47
-57
-13
-107
79
56
126
7
-55
17
-37
92
33
50
16
79
87
-87
-91
-13
78
-21
-33
53
-36
-9
-39
-72
-22
82
98
121
96
106
-86
120
75
-17
-89
50
126
-1
-109
-18
-105
94
63
100
-20
-9
-67
83
8
72
103
-14
-92
-60
-8
76
69
67
-40
48
92
-98
116
-102
-114
-45
76
95
60
-16
73
16
-81
43
102
38
-26
-56
-19
-88
-111
-87
12
-108
-77
82
-15
-92
72
95
-128
53
59
42
12
-90
-18
-27
-101
100
30
-110
-28
21
-110
87
63
-86
-99
-66
-26
-128
126
-116
121
-23
124
81
36
84
-45
-108
-7
82
-18
-83
50
-39
51
57
-11
-9
-88
-13
97
-55
79
-108
-98
-59
-47
111
-69
48
87
88
6
-126
70
44
120
-33
73
95
29
-17
81
29
109
1
-41
-85
126
-86
-43
-24
-126
61
-126
125
26
68
121
44
13
102
106
66
23
-25
-61
102
91
102
-80
75
-83
-50
70
105
20
-63
-47
-47
118
-113
-45
119
-21
30
-45
-52
25
-116
116
24
-98
88
20
-103
-93
-49
57
91
-12
46
-127
0
-71
8
28
-96
-125
-56
-19
-123
-16
-38
123
-67
21
-37
-10
100
93
-98
87
-120
66
48
18
-80
-11
97
71
-113
-105
-3
-125
-92
-92
-88
112
-57
-8
-85
95
61
-70
-20
-79
34
81
4
-47
36
56
-33
11
57
-88
-78
-33
82
109
-119
94
7
1
20
112
-123
-96
6
39
-78
13
113
111
107
-3
75
-101
-126
-34
-104
35
115
-35
84
76
-52
2
-50
-21
103
4
43
-110
-91
28
114
-77
-33
126
-20
80
5
-44
25
-5
58
81
-14
24
52
-95
91
62
69
-34
-40
114
70
-79
88
-10
-40
56
121
80
15
-100
63
-87
96
-5
-63
99
42
-70
54
-7
-38
23
-24
121
-43
80
-90
107
49
44
74
-76
34
-97
108
86
85
-54
101
-22
-94
87
-46
70
119
123
-43
-23
37
39
-53
-37
-121
-58
-120
60
40
116
110
-14
63
-38
-108
89
-70
-7
23
-69
-7
-93
15
-65
-53
22
119
36
57
-22
66
46
41
59
-117
-48
-124
72
57
-25
-121
-127
71
39
-66
-58
1
-120
94
109
-79
55
43
72
1
-44
31
42
-107
-43
-115
-11
84
66
21
94
19
12
31
76
-95
-18
-23
74
20
-16
24
51
-58
-121
62
96
115
36
-53
113
-68
-91
-120
83
56
91
35
-30
68
-25
122
-64
57
87
-119
109
4
115
79
15
-54
75
32
-54
31
106
84
66
90
-91
-37
28
71
107
32
58
-61
-121
-11
-75
73
-68
-62
10
89
-5
86
-125
121
-62
43
119
21
117
-33
12
-106
80
27
22
-9
-81
116
-29
-59
-111
16
91
39
12
8
-113
-105
10
-43
-42
-73
-55
-58
-27
-65
-107
-40
107
70
-91
91
11
87
90
85
-18
-68
-35
45
-21
33
-42
63
70
102
117
79
-104
72
28
-63
-92
98
111
122
77
126
113
109
123
98
-101
117
-9
-102
-21
-48
0
-32
-90
-81
-63
3
62
-38
124
5
38
15
32
82
-102
-47
-51
-73
-39
84
118
44
101
-53
-57
95
-78
-77
12
78
-9
86
18
28
-37
42
-45
-26
-35
-5
12
10
-16
47
-40
106
-16
19
78
-86
-3
-24
-39
-37
106
103
-118
-84
46
-36
-28
93
-37
-56
48
-31
-104
-39
-23
68
-74
-119
-30
-109
-79
-124
-16
-45
90
48
-104
55
-22
39
-59
25
14
-116
19
101
81
123
91
-82
34
69
6
40
46
8
-76
109
106
34
-87
-71
11
-10
99
-22
-54
-29
81
43
95
-23
-104
-34
-49
0
-97
121
-100
1
-89
-17
-100
104
118
41
-81
4
65
-57
-49
99
95
5
0
-111
124
-7
-93
-52
1
-87
109
-16
112
93
-88
-112
105
-2
54
51
-60
65
-47
-4
-47
-59
125
5
-29
87
31
-121
-128
44
-39
16
8
-61
114
-29
-33
-24
-105
25
16
101
-58
67
-35
-111
-91
-115
-69
-95
95
-111
-72
-100
43
-117
-75
120
43
-96
-100
-83
83
-6
-69
30
-25
63
-5
-94
-95
81
51
-112
121
-113
118
-5
30
-82
-96
-89
93
-46
108
67
-109
60
108
76
113
30
-84
-19
56
-73
-9
-38
30
-57
-61
-33
9
-17
36
5
-1
103
95
-20
-63
39
-75
-60
116
-64
126
-82
-18
-80
-96
5
92
89
-96
70
91
73
70
-100
110
12
76
50
23
-64
33
-39
100
106
67
-45
-12
72
83
9
84
-100
-47
-16
-39
49
57
0
-53
-123
-44
50
-1
119
86
23
20
113
-63
26
-30
81
85
-88
32
59
16
-49
-126
-29
33
-85
54
-46
-91
-113
-3
-92
64
-77
13
75
-122
-26
5
13
47
-121
72
-124
49
-21
-25
-27
-127
117
119
-120
-6
-2
-10
-114
-35
43
-125
59
124
-55
-107
-112
-108
-15
-54
-66
-10
-69
-111
62
59
-48
100
83
-87
-69
10
66
-128
74
110
-17
-122
-23
120
-101
-65
30
-54
-30
72
-86
94
-44
-73
50
70
4
110
-9
104
25
70
94
19
-95
-60
-65
85
-53
-69
-48
-84
15
99
34
-95
50
-70
29
-101
86
73
35
-112
-91
58
-76
92
30
122
-121
-32
-81
5
66
56
-8
-45
13
58
-62
78
102
14
61
-24
79
61
40
-37
0
-65
-95
115
67
20
-27
-67
-19
75
60
-125
-94
-107
-82
-29
75
-54
-81
-43
-115
118
45
-18
-115
-96
125
51
-51
-39
107
46
-47
-84
105
122
-10
-29
-78
69
82
-60
-32
-38
-85
-124
86
107
-96
-62
-15
50
-75
62
52
58
61
0
55
22
22
-47
122
-34
-95
52
-19
101
-26
-125
-56
13
14
52
-122
15
-116
24
0
-77
71
-68
118
117
121
124
80
-79
-100
-81
46
-122
-39
-43
-70
89
34
-5
-6
-70
49
-80
-26
114
3
114
-62
-91
19
102
-8
-51
83
-22
-49
-19
-81
49
95
119
79
-70
39
112
37
-126
-115
56
78
72
-49
-83
113
39
2
65
-114
5
-102
32
-73
101
-6
98
93
96
21
15
-97
-56
87
-57
-68
26
-37
-26
-93
75
102
65
72
78
-45
79
-12
83
-85
24
-31
24
-49
49
15
-38
-52
69
55
73
91
32
46
39
-22
-7
-118
-50
35
-66
84
-54
-31
81
-60
49
7
-3
-113
42
116
-31
-56
57
7
-71
-50
-67
-56
66
-32
-1
-69
46
116
-83
92
83
117
21
72
81
91
38
-123
2
-14
-108
78
-28
121
84
45
-102
3
-1
-87
71
112
-38
45
53
-84
34
113
57
68
-33
-11
-96
-106
-13
-82
119
-116
49
71
28
-53
105
126
25
89
125
109
124
-68
86
-103
11
23
-17
-66
-102
80
-39
-6
-62
52
126
-1
84
32
-120
-8
85
71
13
119
-122
-25
-18
28
-9
40
49
-97
-12
-61
42
-39
119
13
-74
72
-48
110
15
-67
119
88
112
-116
-113
-8
26
73
32
-2
71
102
90
77
-69
-47
56
-102
75
82
-65
51
34
25
57
12
30
-30
76
45
-68
-47
-1
-124
61
-84
-53
79
17
-99
66
-116
0
28
-100
113
40
12
44
-9
78
-126
-59
-115
-116
-57
-104
67
44
68
47
-102
-112
-45
59
39
96
103
37
10
-62
122
-65
-11
-128
-106
123
22
54
-103
-55
-9
-68
96
-127
-54
-7
60
-114
-123
42
58
73
7
108
-55
-121
-10
-57
67
-77
-16
-89
-100
21
-71
101
-60
-72
-8
-113
101
-17
80
38
-32
7
-115
-11
-7
51
-3
-93
-81
52
-24
20
79
-45
-107
-64
-56
120
7
45
-35
-23
5
-128
73
-125
74
96
-124
42
-66
60
-67
-66
9
-74
56
-4
-16
6
26
21
29
-35
126
-100
-93
-26
-87
112
61
11
16
62
-113
65
-109
105
121
25
-4
58
58
-22
103
99
-10
53
118
-82
44
-48
79
84
18
-28
-82
-44
-59
-50
68
-29
-127
36
-20
-66
-117
-110
-8
-123
23
39
12
-100
-66
-89
-19
88
-61
56
105
-51
35
59
-121
-38
51
-65
-35
1
-72
71
2
-59
-13
69
125
-99
73
-51
-96
-63
-122
97
76
38
8
117
83
-32
-19
8
95
52
85
63
0
-11
0
37
89
-3
-3
-103
-52
65
-4
-82
74
-102
-52
-40
-40
-54
37
-24
-99
-57
49
0
-85
-93
-63
-25
74
-4
86
38
114
56
100
-95
-13
118
56
41
85
51
-1
-4
-117
7
124
-40
-90
101
-76
71
8
41
37
11
-39
0
-21
-74
-67
-82
48
-13
-87
44
-34
119
126
-107
-11
8
75
89
-59
49
5
21
-31
-22
125
-104
-4
82
-125
57
63
-100
-74
-81
-121
-64
3
-128
-111
-93
-43
-59
-54
-19
-49
-91
61
-7
-27
56
102
59
74
77
-10
-102
-45
18
-61
95
29
57
107
27
72
-90
18
-88
-75
56
-79
-59
22
8
21
98
29
102
-84
-51
100
42
-119
89
28
59
-118
-94
102
-42
119
109
-13
-27
-115
56
-19
88
91
-43
51
113
63
16
-18
104
77
-93
85
-38
-49
-45
-78
108
119
39
-61
125
73
97
26
111
-85
-104
-84
-21
-72
60
32
124
42
-78
68
45
75
-118
120
-109
-119
119
-64
-78
72
-65
39
-90
54
125
17
88
-2
11
42
-16
70
-29
104
74
30
-108
48
123
-70
104
-3
-94
117
115
90
119
124
79
9
88
-123
63
99
-83
125
29
2
-7
21
-24
-27
19
113
-76
76
2
121
-122
79
-101
-17
-5
76
21
8
94
-5
90
107
37
-77
6
109
75
43
-124
-76
69
100
-125
56
-79
-68
-45
-82
-100
-24
6
-40
94
13
26
36
-11
-114
-53
-69
-4
92
53
64
-15
-8
87
30
-12
-70
68
32
-31
32
28
73
-126
-39
21
-37
-33
8
-124
-117
59
-64
-90
-72
47
-31
-109
113
-54
87
103
-70
-125
51
-29
-111
-55
-112
-32
-7
-53
5
71
55
-41
51
-34
83
115
4
104
43
99
-103
23
1
-28
-60
48
104
105
-111
-60
18
-104
-11
-75
126
-123
-15
88
-38
52
39
-92
116
105
-103
-77
51
70
124
-85
-118
-31
41
104
101
-79
-37
78
-26
61
-33
-78
-52
-8
14
46
-45
9
41
18
117
-108
-56
-17
126
-98
-122
92
24
-27
-71
126
23
54
78
-73
15
-69
58
88
-119
-116
95
-57
-125
80
-35
-62
22
13
-29
-113
76
-12
-57
59
12
33
62
11
19
-124
79
11
-34
40
74
48
-13
-110
123
97
60
-32
21
2
121
-41
9
32
-8
13
31
-59
-34
-80
-50
34
2
62
2
91
36
67
45
21
-66
-95
5
-127
103
-119
-91
58
125
35
39
25
117
77
-34
73
-23
-109
-95
78
9
-10
-19
-12
-64
-40
-35
-46
-50
102
-107
-82
50
-2
20
77
75
-21
-69
26
-20
-60
35
-59
-55
-84
-48
71
-77
-86
80
28
-4
9
111
18
-29
-13
-76
-91
109
37
-44
-102
83
-50
-70
-59
-68
7
112
90
-56
-112
97
-40
-1
52
-114
-107
-97
22
18
-70
40
4
-106
63
-119
-31
75
78
73
-105
-45
-2
39
102
59
91
45
-24
111
29
-12
108
48
10
-80
121
-46
-26
7
-54
85
4
-65
75
-74
-37
89
-31
-117
122
99
19
-32
-62
125
40
85
76
-122
114
100
-2
-98
20
117
31
88
-39
-38
80
44
29
-59
-49
50
-58
104
-81
18
-75
-94
-35
-36
101
-61
-108
97
84
-78
-72
113
-17
-1
126
-57
43
-103
22
122
-22
95
63
-9
-24
7
89
-71
-71
-100
-68
-70
-40
-41
-28
104
-103
-94
77
75
-43
88
93
39
51
-61
-38
83
-121
57
-119
-71
46
42
53
64
74
35
-71
92
88
116
-29
-96
-86
86
-60
47
55
-100
-108
116
-23
-49
86
-44
76
-85
-42
-28
77
18
42
-99
-97
-72
-103
-13
-38
107
101
98
-105
95
-15
-69
73
59
-104
-18
105
-22
-119
71
30
-86
88
11
-40
-105
-19
106
54
48
-126
27
-76
88
-48
-113
-17
-54
105
-87
-47
70
-86
88
72
-117
-77
-25
73
-82
87
-22
12
101
-97
72
-50
-19
12
-96
8
-16
122
81
-1
-73
-104
-34
30
-54
-12
-92
108
-49
14
-1
-89
49
28
70
100
-95
-92
112
121
110
-120
-31
38
-120
-128
92
53
-119
-80
-123
19
-16
18
-29
-60
-110
21
-37
66
-21
89
-95
94
34
-83
114
-35
-115
-25
40
50
-42
89
-111
98
49
14
14
8
-44
-89
25
-75
3
-112
93
59
45
-98
-100
-49
-37
95
113
-8
64
35
-75
-62
63
-80
-123
61
-81
-32
43
-19
-8
15
-116
48
-118
73
109
31
107
13
-94
14
-121
-91
83
56
-27
-5
121
-37
77
-58
119
50
59
-48
-108
82
-55
-63
-40
75
-13
-8
-98
-17
126
-21
38
-86
67
-70
-9
113
-22
-62
116
7
-4
112
61
88
3
-24
10
-84
58
-84
76
-31
60
0
-51
1
120
7
99
66
47
-102
-87
80
-72
-8
-16
-28
71
-12
-32
-16
64
-96
-105
66
-15
18
43
-47
-103
8
-50
64
22
-74
-77
-82
-4
-79
75
35
-78
-126
82
121
22
-122
25
17
43
-11
47
8
34
-36
-44
97
-68
70
103
-73
58
-66
-126
-42
53
49
1
53
92
-23
-85
-119
-74
100
30
-18
26
64
117
65
-26
14
20
102
-93
-80
-42
74
15
-98
-97
-10
-26
54
86
70
95
-58
122
-31
72
39
-105
-93
-98
-65
67
70
7
68
-95
64
102
31
27
30
-100
-15
-59
-99
-127
-127
119
-100
58
124
-87
-1
-101
46
29
-2
83
43
58
-76
-75
-99
76
-6
114
-99
-36
60
-93
82
97
20
3
115
72
115
13
-41
-118
59
24
-44
110
68
-125
-122
-66
125
119
125
-43
106
54
81
91
-39
5
22
26
4
17
126
105
-31
55
-49
113
83
-68
65
-25
-35
-103
82
-13
-127
-123
-93
-93
93
105
105
119
2
65
-86
18
65
-29
-93
51
-95
23
115
88
89
40
-58
-84
-84
79
29
-48
-75
2
72
45
-75
-101
4
95
46
0
-103
21
-73
-7
21
99
-27
-74
99
-85
-101
-69
86
122
28
-75
13
-102
-97
-85
39
-110
-81
97
59
-37
-49
-77
-40
-63
-91
37
-69
-65
-120
-93
113
80
28
81
-125
18
-24
-110
21
62
-74
-42
52
-70
3
-90
-57
97
-105
-125
-96
125
15
-115
-13
-43
107
103
67
107
-53
76
-93
-43
118
-30
40
9
99
-70
98
93
-30
-53
48
107
-2
-13
4
17
-5
-40
-12
16
65
-67
-24
-34
34
121
-114
-118
-33
-14
116
-82
15
60
-28
42
78
54
-24
-92
-27
-116
19
48
-48
101
-23
-120
26
16
-32
-69
-45
-77
70
-82
-118
-118
68
82
-75
47
115
-70
94
70
59
92
118
-29
46
-18
-115
57
23
-30
15
-118
57
-22
-122
4
52
124
73
-21
83
-96
-108
93
96
10
104
-63
-119
-59
-90
-74
99
23
115
88
16
-96
105
107
75
-11
58
-29
89
-75
-83
-99
-70
126
97
-25
-116
14
-105
-48
9
65
-67
116
63
91
-54
-18
-47
-52
-5
-51
-47
-93
-95
-36
-120
110
92
-23
106
-51
13
-86
-102
-20
-50
39
54
-23
-75
3
-99
-125
70
-94
-48
-98
-107
53
-46
-125
71
55
44
81
-73
-12
-108
15
70
-105
15
-11
103
75
-106
-56
100
40
79
82
-2
46
-26
-60
36
15
113
-25
-47
-121
83
12
115
-54
111
73
41
23
-26
-77
33
-103
-65
22
58
-15
-126
50
-4
126
-22
10
4
-121
90
0
-62
69
-86
108
-9
1
-70
120
-71
-15
-119
-7
120
-65
26
-120
24
20
-83
73
-85
-125
56
-92
-63
-78
111
48
-116
-72
20
105
-80
-120
92
116
52
-31
91
97
11
26
-18
76
-16
41
-31
-11
-68
-56
10
-22
85
-79
9
70
-33
31
-47
-82
77
-72
86
120
-48
-46
-82
60
8
80
77
-106
75
52
-24
-78
-115
-75
50
91
95
31
45
37
99
106
2
-86
52
-109
-85
77
-104
24
-77
-107
69
-114
86
64
-68
72
75
-68
52
8
-100
46
15
88
-50
-77
3
-74
-92
-94
-24
79
81
32
-5
-68
41
106
-17
42
-112
-77
-125
-61
26
-18
62
-108
114
-115
80
119
-79
-60
-82
-53
-60
94
107
77
75
107
-124
-124
15
21
126
-123
83
-75
93
-85
-108
2
31
-16
9
71
29
12
55
-56
75
124
11
-103
54
39
-40
-89
15
122
-94
30
-43
-119
68
113
46
112
-70
0
-9
-101
-36
-14
98
-47
-6
40
-11
-9
89
-125
29
-64
113
126
-119
-43
-17
115
-29
108
-101
-102
-86
-89
-21
53
60
54
60
75
-64
-45
12
-92
23
20
73
19
-93
-18
-56
-46
-44
-75
97
-63
95
-109
-42
8
125
-1
33
79
114
-25
-98
-20
107
-106
56
-56
71
-38
13
-93
31
41
-79
38
15
7
53
40
102
17
-64
37
-71
113
-6
-5
51
-64
-7
40
5
91
65
-12
101
-26
109
-68
-103
46
-43
-101
111
-123
56
-18
107
111
-30
-37
52
-80
-110
-27
-97
-119
42
-73
-35
-120
96
33
118
106
123
-69
118
-9
-90
116
14
109
-55
-124
4
-45
37
-4
80
44
-29
-5
-120
84
119
-22
-106
79
100
101
86
-38
-21
33
-82
-78
71
-93
-53
-107
78
-91
50
89
109
-17
-4
-121
-59
-81
49
113
-4
-61
-86
23
-16
115
-94
-53
121
-56
49
-35
11
81
38
69
70
40
-82
79
-25
-80
-99
89
42
-61
-81
1
97
-23
-32
-57
19
11
-11
-32
-53
126
-85
-90
32
-104
-124
-16
-59
-128
117
-24
16
-73
-16
-119
-16
-104
-119
75
31
91
22
-97
74
86
-123
-121
-76
105
11
-63
-106
-107
-92
-117
85
5
88
112
-101
-39
49
-116
77
-112
-53
42
91
-8
-45
-99
37
84
-75
112
-25
-2
85
83
-120
26
16
-89
-13
75
108
15
-1
24
87
-25
-63
116
23
-45
11
60
-63
-14
-8
0
-55
-105
-54
-58
-79
-51
65
-67
106
7
-1
-67
-26
-16
38
89
52
-108
-80
117
32
-8
85
-61
36
108
-2
84
50
-91
78
80
99
-81
-115
102
-103
-35
-127
-61
121
14
-123
69
-110
-33
88
105
-87
-64
37
70
99
30
-69
44
-125
-52
68
57
-69
19
78
-128
-37
52
43
-114
21
12
-5
58
-89
74
-36
-124
111
-119
118
115
-99
-58
31
-88
-2
-42
72
-5
38
-106
-116
24
-55
29
-114
123
-48
49
70
56
25
-61
109
7
76
-33
-111
62
114
34
-16
124
-56
95
43
-64
-93
92
55
-109
-69
-92
-35
-98
-128
60
11
-23
50
-63
-33
33
2
-75
-119
53
-5
-116
-104
28
39
-65
102
27
32
-106
67
3
-110
-42
-52
31
3
-25
86
75
38
116
47
38
-56
-118
-102
-115
-43
-38
97
90
-35
-78
-105
-26
84
13
-73
59
-90
-47
-63
76
39
13
1
9
-3
36
-92
-51
70
126
47
20
-24
-126
-48
23
-39
-11
-23
-128
81
-59
52
44
-55
-116
31
-123
-126
64
116
-40
-60
43
-27
-25
-126
78
33
-54
-123
83
-102
-72
-11
-42
44
23
-125
3
-28
54
29
-94
82
98
-109
101
-35
-112
106
-11
123
-58
88
35
-36
66
36
-115
65
111
103
-41
22
-79
15
-28
-67
0
-121
-18
67
-105
22
23
-89
-77
-73
-37
-8
-11
101
-57
63
88
77
38
70
-52
-119
-68
-128
-22
-24
-94
-11
-87
-114
96
104
82
64
93
-85
-105
-12
121
109
26
91
-81
-101
125
-33
20
-66
87
-112
-107
-77
-14
-94
-3
-72
-111
-39
-93
-1
66
-52
35
-95
-21
125
-101
40
89
-29
85
-125
16
-97
-20
-63
-7
-6
23
15
78
46
37
30
-126
-41
77
27
-71
-2
48
-117
-66
-103
-77
-91
51
123
61
83
66
99
-19
49
-50
-108
-53
-94
17
-42
-65
65
-80
-69
49
32
68
104
90
44
-88
-104
119
34
-28
123
19
82
-17
101
60
-30
123
-97
88
55
-117
72
-84
119
-38
115
48
87
-122
-116
-87
26
-49
4
76
124
-84
-105
81
-7
78
104
41
64
41
-104
122
-116
38
-23
-3
-40
118
-88
103
92
-60
94
-111
-23
-74
59
42
-43
40
-5
-37
105
-110
-76
125
3
-85
119
63
4
5
72
37
75
-124
101
11
43
-13
-119
-29
-76
13
23
-58
80
11
-96
10
-2
-99
-15
33
116
6
78
109
-18
21
-103
55
-62
-24
11
116
112
74
111
-67
-1
116
-19
123
102
-67
-114
-23
9
-16
-104
77
25
-104
63
-101
-119
-70
120
117
-114
101
-124
-107
18
-63
68
62
-89
-104
-42
-33
74
-37
-9
-9
-63
-32
-84
23
81
81
124
3
30
-9
-7
-57
-34
2
80
2
35
-1
-118
-64
-103
-46
-81
-93
-50
10
-36
46
68
62
68
-24
-119
51
-77
115
-6
-16
-50
-74
67
-72
-49
-42
64
49
108
36
35
-85
78
-10
48
-85
40
88
49
-100
118
-44
122
-6
74
60
-42
124
98
-73
22
-42
-54
-80
-113
-85
-49
-92
4
96
108
-91
-7
13
-2
-35
121
-5
-23
-21
-64
-108
-31
-57
4
-81
126
78
-10
56
-9
-66
-103
-88
-90
25
-125
37
-45
10
-38
-100
-17
26
-90
27
62
-118
106
7
87
-87
123
-47
-78
61
-54
-106
26
-118
-21
-41
-28
-53
-65
-105
64
15
119
-98
38
-106
108
82
83
108
67
-97
72
123
-82
32
-102
81
62
-75
91
-11
122
-28
-17
-6
91
-40
-101
-116
24
-47
98
-62
-59
-105
-51
-33
56
49
87
23
-1
88
-6
59
-125
93
58
125
25
121
93
-3
94
-110
-84
27
97
13
4
52
104
-78
1
63
20
-75
-27
-61
-77
37
50
31
51
90
82
76
-122
103
78
57
119
19
-43
7
116
-104
110
72
50
-24
51
0
-40
52
112
73
-13
73
52
95
-33
12
15
76
125
-78
26
88
-71
109
21
46
11
-31
37
-44
-23
-113
-13
126
-19
113
-31
-82
60
-109
-109
55
1
68
-104
-9
-99
-67
106
-119
84
105
-51
120
87
-84
-29
-83
-86
87
-46
-116
-31
10
-4
-7
-68
-111
68
125
-19
100
-52
-2
-1
64
31
-109
12
0
-58
-40
19
19
-80
96
-75
105
-32
-55
19
96
-65
-97
-9
14
72
-25
-44
-122
-46
-94
-33
-77
-44
69
-88
66
51
77
114
63
-13
56
111
-122
109
-107
-21
16
32
103
-12
-120
-106
54
79
72
94
-80
-30
-64
40
25
64
-48
-119
75
53
-43
-74
-125
-61
81
77
106
119
20
-49
-24
-110
-15
101
-88
113
41
0
-91
-18
-43
22
-113
-92
120
-73
-90
79
83
-59
-107
-8
14
106
53
-42
113
31
122
-120
117
95
125
5
65
118
-54
-46
-52
44
-116
1
84
-82
-65
108
73
-39
63
113
95
-32
6
8
114
-62
-49
77
106
-62
70
66
55
60
21
-88
-106
15
38
54
-4
14
79
-61
50
-92
78
-23
67
-90
102
-49
-18
99
-101
1
109
58
115
-1
105
3
106
-2
-18
-12
107
-91
13
-83
-72
-80
117
24
-115
-47
92
126
83
80
-113
-78
-76
-104
-95
-13
-123
32
24
60
44
-112
-71
-51
-3
31
113
7
23
-25
-28
-79
-30
72
75
84
65
-68
-106
-128
3
-43
-104
42
-111
-56
-116
101
-123
102
89
57
68
-42
-31
14
6
102
-125
20
1
-41
78
36
-5
-116
43
-105
35
81
-30
-61
33
-23
-14
37
-88
9
125
116
-115
-108
-95
49
79
76
62
3
-30
68
109
-61
34
94
-42
-23
56
-126
-78
89
10
45
14
2
124
105
121
-39
33
35
-106
-70
-99
-1
36
-49
81
-7
119
117
-94
-37
-92
-90
-109
100
33
126
-120
-64
119
91
22
-7
-120
-31
-43
-108
96
15
-126
-67
85
-83
16
-42
57
-54
-127
33
126
100
16
-110
99
101
-98
102
-37
-109
-94
-116
-22
-21
52
8
-20
124
94
42
101
89
-82
49
86
11
39
89
80
105
-31
48
-61
108
65
-116
-49
-59
46
103
-61
-18
-46
-78
-79
3
26
49
80
-65
-37
-27
-105
29
-37
125
-64
120
20
59
58
-18
-80
-35
-4
104
-30
-123
11
50
113
88
-53
-92
97
3
-7
-115
-45
67
-105
-23
50
90
-63
-19
-65
-120
120
10
44
82
-100
78
-78
-65
6
53
-47
-107
-23
97
-40
67
37
64
9
15
-34
39
33
-92
-52
91
125
-90
100
56
-56
63
44
65
110
85
21
-89
-10
53
-51
0
114
104
-79
83
79
23
75
-94
4
-15
7
79
-20
13
71
76
8
-30
-115
-21
-108
-82
23
89
46
104
71
20
-18
68
117
-95
54
36
100
119
9
-45
-1
92
-100
-24
-19
-105
82
97
-10
89
126
-116
28
87
34
14
30
-10
-97
97
90
-89
80
9
109
46
17
-36
-73
-79
17
-17
47
-116
-59
-26
-32
-61
-120
7
-100
-112
39
13
100
124
-51
52
-81
-54
11
-18
106
98
-81
111
21
88
-93
51
-127
-35
-51
73
108
-54
-29
-4
54
49
115
-98
126
16
-47
35
82
-72
124
-63
72
19
42
23
-121
-32
-85
123
-69
-114
-34
21
96
14
-48
-4
-44
74
-118
14
-59
76
-83
-115
-102
78
21
-111
-1
7
-103
-78
118
-61
107
-55
-58
-26
-85
-72
50
-10
22
26
34
-33
-90
-128
101
107
-121
50
57
21
105
-64
21
-40
-122
43
20
-29
-91
106
56
86
-121
-38
115
44
25
-47
59
-16
117
-45
81
3
-101
-39
17
65
-48
-7
67
-117
-86
51
23
110
-26
41
125
-91
-86
-67
-26
1
-17
-86
39
86
-71
110
-8
23
-111
-76
-31
-40
-59
95
45
125
61
-52
9
-34
-42
-57
-32
87
-41
-80
103
-110
41
22
-98
-85
90
-40
49
20
37
-68
-45
-110
-5
-112
2
74
-51
-4
-110
94
-32
-37
-65
91
-120
-43
89
76
-55
-91
16
-118
94
-119
-103
-12
-101
82
41
122
-101
48
-90
-38
96
72
-80
-79
-45
-22
98
-7
-24
59
42
-120
37
-81
50
-12
60
-51
9
60
98
86
68
-5
-34
1
-2
67
-55
40
118
36
-119
41
72
126
77
-51
43
21
6
-35
77
-15
62
-89
122
55
24
-61
-9
12
93
85
16
-108
0
-49
125
-20
117
-87
106
50
119
45
-48
-37
-21
-128
-89
-34
10
26
-98
108
-63
105
-13
65
-111
-21
-67
107
-26
-98
50
-89
-125
-25
4
-100
-89
-110
-96
60
57
54
98
17
-32
104
4
-16
-40
113
59
120
3
-76
5
-8
35
69
72
94
38
95
7
45
-23
65
42
-103
107
84
-106
-8
-56
-74
111
46
62
-29
-86
-112
50
100
117
1
30
80
-66
-50
90
-38
-95
-101
18
-56
-115
105
-83
47
-100
93
-6
111
22
69
28
-78
-75
106
-43
-109
-4
33
-71
-93
-95
31
-56
36
-25
-3
-73
0
40
96
-85
48
-40
-73
-94
-88
80
-100
111
-52
61
-3
-84
69
-60
-63
38
27
-91
-50
58
-100
-74
-76
70
92
22
93
-3
-85
-83
-23
-24
-14
-119
126
-36
89
-96
62
-48
117
20
-75
-113
105
60
-76
47
-52
55
62
109
-76
-6
-14
-80
-127
-69
-13
6
-37
-90
117
-14
-33
-64
-86
-21
10
-27
88
66
-91
45
-120
9
-40
-93
60
-6
-17
126
125
100
-48
20
-59
121
120
115
-113
-20
-57
-48
-9
-125
48
86
103
42
-99
-4
87
-36
43
44
74
20
114
-96
-44
-110
93
57
108
82
-17
70
-38
4
53
117
-63
-9
29
-89
-116
60
117
9
110
-74
-91
-64
-74
-51
117
41
51
109
49
-8
-70
91
-39
-2
-113
-18
125
103
-53
66
10
-61
36
102
-58
-6
-30
15
33
86
-11
52
-23
27
1
33
-76
-9
17
-79
98
-52
110
-36
-19
46
-97
-82
48
117
32
92
-97
70
37
53
-113
-106
-56
6
-57
99
13
-83
-37
18
-52
17
40
-62
-7
90
67
-26
-57
13
-106
41
-89
26
-69
-54
-75
-111
69
43
108
93
99
-8
71
125
-44
3
-19
-81
-29
-116
-16
-83
79
-83
-22
-37
20
-49
-7
70
-63
4
-110
106
69
-119
7
2
-60
-44
108
-100
-5
-109
-96
-94
-55
29
-39
111
124
52
85
118
49
96
-32
123
33
-18
63
62
-66
54
52
82
24
93
-6
121
3
-21
-57
-125
-124
91
63
40
78
50
81
-11
92
78
58
84
-27
6
11
81
-100
35
-4
50
47
99
63
98
-41
-125
-29
-98
-38
47
-23
-112
84
-118
-43
-85
90
-112
-51
124
125
-78
105
-11
113
70
-30
-6
-8
44
-1
-5
125
91
23
0
64
55
-100
123
-55
78
24
109
-77
-13
-48
-82
56
-29
45
85
23
23
14
65
17
55
-121
-57
103
80
-13
-34
-97
121
-98
54
69
123
-87
-40
47
-98
-41
31
74
-27
9
-97
19
-72
111
-20
-71
-54
50
7
-96
-39
20
41
15
26
41
49
-52
-57
-93
-84
81
-60
9
108
-12
-20
-103
109
60
104
-96
-70
-113
-11
32
86
-105
-44
71
-19
81
20
-73
-29
57
-39
106
-53
-84
111
95
-123
-113
34
24
-47
-19
-110
-2
-31
87
-12
98
-74
-14
-62
1
-116
6
-72
-56
125
109
-58
-90
-97
47
-92
-38
34
7
58
-71
10
28
-22
-32
-89
-102
75
-118
-28
-26
-27
-79
-85
120
-76
63
79
-22
3
-32
-83
16
44
-7
-66
-60
111
-87
-62
-114
26
-9
-16
29
99
-21
-2
83
-75
-82
74
63
4
-62
99
23
-105
-60
54
113
43
-4
-75
32
106
-75
109
-98
-98
-13
-75
-43
-1
-27
-63
-3
-5
-116
-1
-100
-54
108
-24
-58
29
41
-19
-65
119
57
-97
118
-40
-73
2
-85
2
-6
0
-111
17
-32
93
-126
78
69
58
107
-13
-127
56
18
0
80
-9
-38
-66
13
-115
116
20
-76
-26
-40
-56
66
28
3
-45
-61
-121
-22
10
60
27
-82
-89
38
88
116
-95
-56
-84
-113
-76
-49
-83
90
-69
60
-12
18
43
9
40
38
-98
-91
-29
-70
-91
43
-13
70
72
105
85
32
-24
53
-55
72
-53
42
6
49
85
-118
125
-111
42
95
5
124
-105
-86
-10
112
-68
0
-75
-97
-105
-94
85
82
-126
-55
41
1
28
50
-51
-25
71
-128
27
-123
-87
-53
-43
-73
-88
58
-9
89
0
53
118
-83
-84
103
43
-88
-8
-48
-67
-109
-93
-84
-59
16
110
89
6
-126
117
19
-58
-56
48
-28
37
-9
-79
-108
120
-40
108
-54
-110
110
64
-103
26
-85
0
125
-105
-6
-38
-104
91
59
-79
-31
112
38
13
-24
-65
-118
73
88
125
-104
25
64
-8
-127
-58
-111
-80
24
-31
-115
-117
117
101
106
109
-125
99
-35
12
34
12
-5
102
32
-104
-128
97
-91
76
34
105
22
-71
-77
-89
52
2
-9
-97
-113
-5
50
-2
71
-78
32
119
-10
-76
-20
-114
-35
31
-115
115
-9
7
104
-43
17
-33
-67
-63
102
26
-125
-97
-78
110
-87
66
-90
-16
-83
66
26
101
-24
9
-60
-62
-97
-56
45
-15
59
-124
-1
88
13
84
90
71
85
33
81
-102
-48
23
-4
-60
-125
-84
11
-105
-73
41
45
-34
-103
4
-49
-65
108
-62
-67
-121
114
-123
37
56
68
-100
45
16
53
-99
40
-10
-103
50
-123
-1
-119
-50
96
-63
8
30
8
20
-120
106
63
-42
122
-47
-81
2
-72
-65
51
50
91
80
17
-13
116
18
-96
116
-65
-108
69
41
114
-1
-42
-80
93
-83
27
-55
-105
76
-9
-85
55
-13
30
-58
105
-126
-111
-38
61
-96
126
106
108
-79
-7
102
-15
-96
-52
-78
-36
-28
-81
63
30
-72
43
40
-91
-15
-93
19
109
-35
56
-84
105
107
-53
-108
-63
49
93
16
-81
33
16
-5
104
-13
-15
62
115
-18
-72
-111
-38
90
-35
-59
-4
58
57
105
84
-25
-110
-116
101
-7
64
-105
-82
-35
57
63
29
91
9
86
-17
-9
92
67
-98
-126
-48
102
19
-63
52
-45
-121
54
75
100
-12
17
-13
-100
-120
93
-14
-8
56
74
-7
121
-32
-108
-127
69
-3
-28
-128
-16
-109
68
106
123
-49
-84
-4
100
76
114
-122
82
20
22
-28
60
87
-78
-116
-32
-35
2
-126
124
-70
66
-8
-17
97
-83
21
9
45
-47
66
-123
61
120
-49
-26
29
2
-72
92
76
-15
37
33
-1
21
-50
-33
-43
71
-50
-72
-91
-119
-92
-31
-55
-11
66
-93
122
-87
81
-10
-128
49
-89
108
24
2
-42
-48
95
-58
-33
-90
78
14
-52
54
-4
103
-99
53
19
-34
98
-69
125
-100
85
39
-11
-24
-64
-34
-18
-30
-40
-115
92
24
116
60
25
-66
79
-41
105
43
-6
68
-127
-37
-30
117
105
-23
114
-44
-39
109
82
-81
-111
-87
-3
-18
-53
-88
-16
95
-14
7
81
-128
-30
-96
-97
53
113
-66
7
18
2
-47
82
19
49
-34
103
-16
-54
-39
7
94
4
16
-58
-10
5
-71
-109
46
62
-83
27
-30
-127
-19
-64
-28
-27
46
-7
21
66
-35
58
-125
-25
61
-60
5
79
-112
47
105
-112
-89
-33
-33
86
46
-18
-97
-78
-51
56
93
93
36
107
-8
64
66
40
-82
35
-78
-23
8
76
-79
125
100
-12
-18
-17
107
-23
-29
-79
117
70
-10
97
-31
85
11
-90
119
-75
71
-116
-16
29
90
11
111
-68
72
116
-93
-84
-111
52
-38
93
-128
106
70
15
-54
-22
11
67
101
-17
91
43
-66
37
-105
-26
-113
-29
84
-105
-5
-39
86
9
-127
-90
-41
106
87
-91
-91
31
-110
107
-61
-54
-90
8
-84
-56
11
10
53
91
125
63
-99
120
86
-54
98
66
-31
-47
75
55
1
44
27
-45
-116
-108
-57
-35
-84
-104
19
74
74
67
5
108
-67
48
-79
-16
72
99
78
82
113
111
111
72
112
51
85
-78
39
-87
61
95
-69
55
30
71
-81
-83
3
-126
86
44
51
109
82
68
11
-108
61
-98
17
-63
123
-124
-70
71
-120
6
65
-29
-45
2
-10
73
-40
-11
-11
99
69
109
65
25
-113
-106
110
-62
-117
52
25
-117
-98
-64
89
-84
-64
-66
-72
-25
-94
-128
81
-123
17
8
123
-112
-9
7
-22
43
3
82
-46
-12
-85
-119
-73
-83
22
56
111
-62
-40
110
-86
75
-124
-21
119
67
8
-126
-28
58
-107
-67
-82
56
54
-96
114
9
56
60
76
-127
-115
-1
57
107
-104
35
25
7
-41
93
18
-30
13
27
67
-24
-87
-7
-59
-16
29
56
-114
71
-39
119
-10
-66
28
-69
59
50
-17
6
-115
113
-127
20
-56
-34
-51
53
103
-93
91
50
-29
44
42
-8
-109
-46
-15
52
-87
-27
-34
-106
77
19
49
40
-111
23
36
-104
11
5
-37
100
115
98
104
-59
-40
14
-44
-57
-83
20
19
122
26
-94
-119
9
-38
-42
-98
96
-60
115
41
103
-51
125
29
93
95
-89
50
-2
13
-71
111
-46
96
-7
-9
-73
100
119
-128
-49
0
5
75
-25
54
-11
-12
-107
-62
25
94
-42
3
-36
100
-100
31
63
98
-100
85
62
-29
102
-115
-37
-38
-117
115
-104
82
-79
85
-11
4
6
-43
37
-94
-2
104
-1
-128
0
77
81
-37
-46
-108
-10
102
-44
-16
-36
-13
14
-97
98
116
75
52
37
-19
18
-54
-115
95
-51
-75
-110
118
100
-50
83
62
21
58
117
-111
87
21
-100
112
57
88
27
44
-117
115
14
-43
83
-111
46
-89
58
96
-20
-120
-72
-6
106
-63
-19
6
72
86
-31
-114
-31
53
-25
-86
-17
0
-120
-7
-99
-55
94
5
-82
105
28
-50
-23
39
-3
104
-19
15
-92
-117
20
68
-7
-26
36
52
33
-62
-124
-56
28
-103
-62
-118
15
-7
-120
-3
92
120
55
-111
-83
66
89
-117
6
-96
62
69
-2
119
117
-94
53
-44
-65
89
35
-122
-87
126
-26
-110
-6
46
117
-70
-14
-126
114
-101
-71
16
104
69
11
19
-20
-77
51
-89
-82
24
-32
-110
116
123
-30
-48
29
51
-69
6
-97
103
-63
-34
4
70
122
-63
61
-72
13
55
-76
-105
57
11
96
-57
61
25
-22
40
102
-69
-4
-55
-66
-19
28
-1
-19
67
-90
18
-28
-19
1
-21
18
-109
-13
-37
41
21
-43
84
111
-92
-81
82
-117
-83
29
14
74
56
94
20
55
56
125
16
-107
-22
64
-115
-75
-126
-104
-94
44
100
-38
56
34
88
-118
124
57
-50
108
68
83
51
-11
-23
71
-46
-121
62
87
39
123
98
-29
-1
-128
-44
-106
-88
40
50
67
-12
-26
-10
109
103
16
-59
35
124
110
42
-113
-124
12
-24
-56
-89
77
-115
-105
-108
73
103
-4
-127
126
-73
20
63
87
76
43
-4
-113
84
71
57
38
106
4
-87
-66
-92
11
76
-123
85
75
-27
100
-96
54
-113
38
-34
-16
24
-18
-14
17
-79
116
-68
-76
43
-120
6
-72
1
-39
87
-101
54
113
-101
19
-36
-68
-66
-81
117
57
-36
-18
125
16
66
-80
23
104
-68
-56
-39
63
74
-49
-25
-28
107
8
-81
66
95
-118
81
-14
117
82
108
-122
62
94
81
91
97
82
-8
32
-114
-28
-82
20
-4
79
-8
-113
94
59
-43
106
124
87
67
24
-117
99
59
-14
-82
-117
103
3
79
108
-117
45
-120
28
16
11
-1
106
112
-25
73
-19
7
-27
97
-105
-27
115
119
-112
48
-35
16
-16
100
-86
-89
-51
98
-120
82
-85
-73
-72
-6
101
62
51
-78
125
-53
83
75
97
-64
-107
-54
69
34
-86
83
-121
-67
-36
6
-80
-7
106
123
-57
41
-94
43
88
-116
74
15
75
-126
120
117
15
-28
76
-50
23
-2
123
87
84
-3
95
-30
81
-58
103
-39
57
-103
-77
68
45
48
-126
-106
122
-68
6
64
26
-9
-42
-47
4
-8
-125
88
10
59
-104
85
31
27
78
53
-109
-100
84
-46
122
-5
-59
-111
-95
-100
-116
19
-78
74
93
102
-86
54
74
33
30
-19
42
78
79
-62
75
-47
-77
-112
87
86
53
2
-83
24
118
47
-46
58
87
-126
-17
-7
-41
-128
-29
89
16
-47
-63
-28
95
-94
2
29
-113
38
-53
-66
85
1
-38
-55
82
-55
-77
73
24
-35
-87
-82
-31
-21
-22
61
-23
56
29
-69
-67
-65
-59
71
20
63
-86
-63
-48
116
111
-18
87
10
75
-89
104
-106
-83
-2
101
-37
-30
86
93
39
123
119
7
90
-59
-21
2
5
-84
-36
-53
-87
-93
5
-127
90
-106
-45
-127
-92
-124
87
88
-24
-109
-82
-30
20
-19
109
49
78
-127
27
70
108
-77
-125
-61
16
-36
-109
77
-109
-5
-108
115
-77
-96
-97
55
-28
123
-109
-8
89
-49
99
122
-98
-55
1
76
-13
-23
-42
66
-1
-97
0
-48
-104
85
32
14
-67
57
31
113
36
37
99
-65
108
-81
22
81
57
12
121
94
72
96
-18
18
18
-60
-19
106
120
-63
-84
113
0
124
100
-59
-81
57
-118
4
112
-121
126
-13
116
45
-69
64
-116
-113
-18
-30
62
-11
-125
-19
46
89
101
89
-38
79
85
37
54
74
-103
-126
26
6
-69
83
19
-5
51
-53
-105
-124
-128
-69
-84
-79
-40
107
92
42
-112
-18
88
-26
-88
30
-118
-127
124
-58
93
75
79
-23
-49
-44
74
18
-49
-107
39
-92
64
79
-42
-67
78
48
117
-105
-84
27
-34
-108
22
-45
-65
105
-35
-7
-11
94
-58
26
95
-101
-91
78
-56
57
-91
-9
31
-33
54
7
80
63
93
-51
63
-56
18
12
-114
17
12
13
55
-70
-107
56
73
-128
-32
-35
46
13
64
51
-48
-103
-64
-46
-100
-33
27
-65
75
124
-128
-97
-118
-123
-8
93
67
-71
63
-12
49
108
49
-116
59
112
-70
-39
-25
-81
77
92
-33
-38
48
94
13
71
-69
-48
-40
62
19
-123
-44
104
-18
-18
60
13
76
-93
125
10
-30
35
38
95
-6
91
-74
-41
8
-126
98
-54
123
-10
113
1
-14
79
-14
-34
56
-22
48
111
49
4
71
13
81
68
-4
99
17
86
-11
-96
-31
123
119
-19
45
-89
-116
-2
-8
67
76
94
124
80
-25
19
27
-40
-102
-52
-93
-16
-82
55
20
-45
-78
104
-60
112
-67
23
-52
67
-123
118
-21
-126
-86
70
-66
118
-58
110
-57
6
-86
19
11
-36
90
-126
8
-72
5
63
-41
-81
49
54
74
-25
66
79
-45
-50
-57
98
-126
-17
-63
15
49
2
-86
66
-105
-102
56
28
103
48
26
-48
13
13
73
76
-18
58
82
116
-32
-90
-40
-25
47
-120
66
2
-2
-35
49
-88
-12
7
-40
62
-111
57
25
-81
-80
-74
14
91
-98
64
26
118
119
52
102
46
61
46
64
-61
96
47
79
37
96
41
112
-40
50
-51
57
25
42
-101
-57
24
-119
-76
-88
-90
-76
114
33
80
-54
23
104
5
-113
-93
-4
-16
87
122
-45
76
-69
-31
112
-78
16
-114
21
-96
75
-32
-34
23
80
64
105
-95
82
32
55
-123
3
59
-107
-13
104
-57
-117
-3
-100
11
-32
46
50
30
0
107
106
26
117
-13
-26
57
63
-53
118
-121
-87
-92
-52
-95
-1
37
65
-71
71
-81
44
-29
0
75
