-95
-45
84
108
52
46
50
16
-57
-69
82
81
7
-43
-104
48
35
13
54
-10
-36
125
-83
0
-44
19
65
-30
125
-43
-97
99
-55
-67
25
95
-126
-26
-47
-111
8
-93
24
-25
73
-85
-119
-9
-38
-33
4
-51
83
85
-105
41
124
82
-79
-43
-12
80
-105
18
-112
-97
84
123
-88
-14
-43
-89
-53
85
43
82
29
21
-35
-18
-113
-46
28
22
-91
-87
-64
83
-91
-33
-123
-93
84
-23
48
-21
14
-95
63
81
14
-82
-13
64
-13
-63
111
71
-39
110
25
52
34
119
42
32
-50
-38
-95
-116
87
115
-51
-71
36
-128
-82
-76
63
-35
90
-13
119
69
-2
-29
81
99
47
-23
-117
84
-5
77
-11
-34
74
-99
-80
95
-102
-75
-38
93
-99
-123
71
-107
-10
-14
-70
103
-58
-73
-77
49
-110
-51
57
-120
114
98
-14
35
25
-89
45
-44
21
17
-121
16
40
-32
97
29
17
1
118
28
38
27
-36
69
-63
18
-35
-92
112
-69
56
26
-38
65
-33
73
48
-10
47
-125
115
26
51
-120
-34
-2
-50
-52
-45
-11
106
69
73
4
-74
114
-13
51
-20
-96
99
0
-5
-77
52
117
-105
-100
78
96
-109
-33
-26
-46
114
53
110
-87
-15
-48
-41
22
-114
-95
-75
6
-42
73
111
79
-34
-2
-10
125
-1
62
-12
95
-46
-81
21
-72
-114
5
-115
54
-86
-6
51
-119
13
73
40
-49
-11
3
-31
86
43
-110
-20
80
-62
6
-24
-116
13
118
-1
-7
-73
-19
-8
92
95
4
-118
-44
90
-40
-25
-95
-88
50
-32
44
122
-81
-29
-16
-82
13
-109
-76
2
-13
62
-7
-13
118
107
-46
-85
79
77
-25
6
110
4
7
-112
-118
-19
126
119
-21
9
-93
-10
-34
-40
-26
116
-50
-62
36
85
71
62
29
-103
102
71
1
-123
-50
-54
72
-74
-121
-39
112
2
17
1
3
106
-118
69
101
61
29
-124
126
-46
116
-72
65
33
-55
-28
104
-47
4
21
63
-111
79
121
-1
15
15
121
42
115
-114
58
63
-43
62
-112
-32
10
-45
-13
-44
-59
-109
-98
53
-8
122
66
-6
17
13
2
-66
-127
31
-94
-93
-8
42
60
98
-2
50
103
-74
-112
-10
-110
41
-114
123
-59
18
-73
42
-117
26
103
-11
-109
21
51
120
-60
-69
34
-85
100
-52
-46
102
-110
102
-69
66
-18
11
34
61
-50
-70
60
-40
84
5
83
-96
-101
-43
-97
-55
2
-37
-60
105
-111
-110
-111
-79
-104
110
-51
-22
41
0
58
21
91
-21
-12
108
47
-70
96
-69
21
82
-53
-81
13
34
110
66
-113
102
-28
72
114
7
63
-95
114
38
-116
86
-97
91
-31
29
-40
-100
-96
-80
-87
-101
91
-54
17
-118
2
77
68
94
108
-85
3
80
5
-45
11
-35
-26
-85
-14
104
-14
-123
-57
115
109
94
-122
68
-126
-94
-124
-50
105
86
112
48
-4
-92
-6
-115
-32
-13
38
-19
-96
70
-124
-43
-52
-108
-95
-51
-24
-60
83
-94
-97
-44
-64
-52
-73
-73
-28
68
121
-86
-44
-73
-79
-23
-82
-121
-65
105
-122
-117
-36
38
-69
75
38
-34
94
62
66
25
92
32
8
55
78
92
84
81
117
125
46
116
20
-68
-16
82
4
-31
94
61
15
-53
-120
7
24
48
-30
47
90
118
125
-50
1
18
97
-68
-71
42
110
56
-120
-118
63
57
-7
-124
122
108
64
-106
-46
61
-18
-6
115
-39
-85
125
-15
-123
57
118
-78
-2
-81
-51
26
-17
72
6
-120
26
16
-44
22
82
99
40
103
-20
8
-90
24
87
-101
54
46
-110
-62
-37
-21
43
-9
84
-116
-33
-6
10
34
119
-114
63
-50
-95
-92
-15
-71
-35
-124
102
85
26
45
13
46
61
-82
-51
50
80
-82
3
6
-39
32
-120
-43
119
39
81
83
-11
95
-109
29
120
112
-106
70
44
-103
117
12
53
55
88
64
7
-54
10
102
54
-124
26
-33
-88
28
-30
-82
5
-101
-90
-114
107
4
96
-4
-61
-14
35
103
42
81
-31
-127
-126
-1
-32
11
64
-54
-23
-87
-52
-36
-107
24
2
-23
-23
-90
78
-107
-57
-30
78
-31
96
-80
21
8
-31
56
40
-38
64
-114
118
-89
-107
-96
-87
1
-120
-90
-109
44
105
113
-82
-81
-47
-115
88
-84
-128
118
-40
65
-1
-77
121
121
-45
-108
-113
63
92
10
-29
0
37
-65
-83
49
-8
-31
6
-121
-12
-84
46
-11
34
37
-67
80
-63
-118
-24
-34
-128
51
-92
126
-26
-91
18
-10
-102
-55
-87
-94
120
107
17
99
-76
28
109
81
53
-81
7
10
-95
46
-67
100
48
111
100
-105
22
-26
86
-34
-94
-88
-74
1
80
114
41
-24
-102
-88
-101
83
40
-113
116
37
-26
-67
49
-80
2
-5
-53
108
-43
42
83
-106
9
-52
-67
118
111
-127
-9
-87
121
-56
2
-32
-125
69
116
126
1
108
-78
-81
124
-100
97
96
-75
-10
-45
70
-20
-12
80
-20
-104
-75
-1
93
61
-56
51
37
-49
-92
-3
-11
-2
45
84
-3
-123
-58
125
-4
-30
-44
-58
-48
90
6
-92
-110
-70
57
-80
-27
-60
-56
92
-107
-59
57
-46
70
-77
125
-48
-23
-70
65
-64
38
-88
-35
97
-84
-16
120
-7
-72
-69
112
113
48
58
-47
103
-115
-52
96
94
-30
82
-61
62
10
-70
48
48
-17
-66
-102
-29
74
-20
4
-65
65
-73
-57
-11
49
12
3
-53
-90
-112
23
37
39
124
40
62
-46
119
-2
17
74
86
-81
81
6
126
-99
76
8
122
7
-66
-128
-89
-27
-89
103
53
54
-100
-30
108
117
-39
-113
-61
-70
0
-58
33
-77
-84
-41
100
-89
119
53
97
55
-53
42
35
93
124
14
26
-86
27
92
-89
6
-126
57
93
46
106
-11
-42
-119
-43
116
-71
-73
50
-126
84
-67
108
-123
-9
5
90
-96
-6
42
-99
-72
14
117
-33
-50
1
54
123
-76
87
19
88
-10
-91
-100
-117
16
15
26
-54
-8
-44
-66
-89
-112
-13
-62
20
-56
5
80
-12
-86
2
40
125
-58
114
69
-116
0
6
111
-72
15
-90
-54
49
-93
-73
109
-113
-8
106
-14
10
-111
48
55
-33
39
-121
18
81
29
-85
77
-81
33
70
-4
50
24
38
55
-25
-6
-100
1
86
-126
-115
8
-14
-99
40
81
12
-78
-121
113
-109
-128
-104
-72
37
92
84
-43
-92
-45
-72
58
39
-91
-43
73
-21
-27
-122
86
33
-61
-78
104
78
-97
120
-127
14
-105
15
-113
-60
6
17
38
36
67
83
125
117
-51
25
-22
99
92
-106
98
-85
-88
-70
-127
112
71
101
5
-97
-6
-95
82
109
-53
113
104
109
-116
47
110
55
-7
-21
-60
-63
37
-64
-96
-61
112
-16
94
21
13
30
-116
-65
-76
115
110
68
21
36
-5
-75
-21
0
86
-40
118
43
-125
-52
-23
49
-79
107
-4
-127
65
-25
-100
-41
-76
90
-79
12
-46
-85
32
-71
124
114
-17
-22
-40
122
-97
-95
-121
40
119
67
21
79
-5
-109
1
-92
-21
67
2
-6
106
-68
-117
27
120
10
8
9
-32
-43
117
-79
110
73
67
-97
41
-18
-60
-90
-106
-118
-104
105
-10
-3
-46
84
12
-59
-7
-91
-1
89
101
-8
-29
-98
95
116
-73
28
47
23
-94
-37
46
121
17
86
59
-53
-121
88
-50
-44
44
-16
60
112
-91
-113
-69
-90
112
56
29
69
97
87
-61
-99
6
-37
101
96
-80
3
124
-15
88
-8
42
95
-83
-55
88
-43
51
1
-41
90
-3
-91
-53
63
50
48
-6
-79
-38
-124
-54
72
4
-89
13
-83
6
-45
13
66
-24
57
-19
-35
19
59
-2
84
-115
63
-17
-69
123
-38
-39
-10
50
-126
-74
-68
93
45
-52
86
-31
39
-69
-4
-84
-22
38
73
53
125
57
-69
-50
-64
-9
112
-22
-21
-57
-54
-85
-27
53
-42
-66
11
12
-101
-54
33
-17
-10
36
-125
-76
-58
111
109
42
-35
22
-78
-116
60
-76
-88
-111
38
28
83
-25
83
54
23
80
-84
21
-38
59
93
-5
-119
31
88
16
-27
-53
79
24
70
112
-71
114
16
64
-104
-1
119
-58
81
92
-92
61
-114
72
58
12
-82
9
-116
-62
-10
103
-6
71
25
5
-8
55
34
55
-128
66
35
38
66
-106
82
76
-4
-88
-46
75
96
0
-64
80
-35
8
-86
16
-33
-16
-110
-53
14
-23
85
-61
-21
82
77
8
-88
-75
108
-2
44
-90
8
-46
-89
-12
-100
-101
-65
-33
123
95
11
116
71
-38
2
77
-33
32
7
30
86
-94
-17
70
-56
-111
13
54
-118
-37
110
-8
90
-54
16
-60
-48
91
-44
18
-95
-61
70
41
121
95
-105
72
-106
75
-62
114
18
-118
32
78
117
63
116
54
23
25
-76
-78
-11
7
100
81
-96
-101
44
78
-112
100
124
8
-125
-7
116
-77
-128
-26
9
100
2
-11
-81
58
-84
-50
-23
63
-50
-26
60
-86
-27
93
-39
-79
-50
-85
33
1
84
117
1
121
-77
33
56
62
82
-120
16
21
25
2
-4
15
-78
-92
123
-24
99
-15
-30
25
-85
-38
109
-72
100
-80
-121
44
1
87
13
6
-48
-117
-5
105
-58
104
68
18
-80
71
112
26
78
71
98
46
-3
57
-16
-65
-88
-55
93
-53
-55
11
-74
83
113
50
-36
89
123
-79
-67
29
45
31
111
60
62
43
-37
-119
35
120
95
72
-89
-103
17
-114
45
-99
51
109
122
-120
-71
-79
42
-98
-47
112
-115
-14
96
-103
103
-28
20
-64
52
-58
-50
-37
-5
-95
21
119
-74
-72
-122
-11
-50
-101
94
54
29
48
-72
-2
59
-23
74
75
100
-37
72
-18
87
80
-67
-52
-45
47
106
76
126
73
28
-45
0
-1
86
-56
80
-32
-14
19
111
-2
-29
-71
80
-120
-103
87
70
-89
-71
-77
-85
39
77
-106
-46
-8
-52
-14
-30
63
121
65
-91
72
15
-84
-75
9
4
-35
-59
-53
-122
87
56
47
-68
-98
112
4
80
-3
-85
47
72
-27
-119
116
0
111
-2
-64
61
10
2
-42
118
-26
12
-77
-7
11
-24
-89
48
75
-36
124
-51
118
-87
-126
93
-92
-2
-8
-86
75
63
103
-36
-126
54
-71
85
-60
6
28
87
119
-120
-38
30
33
84
74
-99
-7
-5
94
116
-123
-98
45
-6
-47
-91
-30
-115
98
59
69
90
102
-90
111
92
-105
99
-103
-26
-91
88
15
-63
125
-24
-15
114
97
-38
43
104
-86
-92
-30
-128
19
-121
25
124
31
100
-53
98
-122
-34
49
113
-124
104
84
64
-6
-43
-22
-10
-68
84
-23
-93
34
-26
103
102
103
-23
-43
115
120
49
30
-80
-78
81
-96
105
-46
125
92
-6
68
76
19
-17
-58
-92
-123
105
-102
-64
103
117
-64
-105
8
-96
33
23
-28
122
-43
-57
-17
103
-2
123
91
-38
-86
27
-52
-90
100
80
-46
21
-105
29
-34
43
-65
-4
18
-128
55
-75
104
22
75
36
102
58
68
-16
37
-94
-124
100
22
70
-66
121
-64
-82
89
4
55
-8
64
-17
-17
-21
-2
-108
89
45
13
40
106
105
69
118
-125
-45
97
49
-7
-69
-77
73
82
-76
108
51
-65
70
-66
-16
64
98
-39
49
115
109
35
-19
-6
29
-118
92
26
-111
84
0
112
18
-125
51
102
108
-69
-59
66
80
48
53
-4
22
-44
99
-62
46
-75
-118
42
-111
-95
-3
-29
-118
-48
-91
45
-82
-11
-122
-25
-27
24
-76
-3
97
111
124
67
-38
29
29
54
106
-92
69
47
-29
64
63
53
102
-86
39
64
-101
-55
57
47
-49
-47
119
64
-28
6
39
-31
-75
-21
106
-85
75
16
43
121
23
-83
1
6
99
-4
-38
113
97
-122
19
43
1
-3
85
9
-18
123
-33
114
-120
-72
-11
58
80
-104
91
124
37
30
-15
34
45
10
76
-25
-15
6
-112
-54
-118
-54
-123
-103
115
69
-49
116
81
-107
97
-69
-24
24
-111
-105
120
-63
-119
38
-104
-80
5
-78
-75
75
-53
63
-42
68
23
-87
-87
102
-123
-63
104
-59
0
-66
-116
77
38
-23
-95
9
102
94
24
113
18
70
-19
-71
-83
76
-73
121
-86
26
-87
67
-66
-104
-125
91
48
52
84
37
111
-119
39
1
-43
29
96
-105
47
13
-114
-69
93
-54
46
-60
67
-85
-30
-83
-48
14
42
27
-39
2
-122
-117
47
-25
-38
113
26
-26
-111
-23
116
69
-40
103
-63
40
-124
54
120
-33
22
-23
48
-93
116
63
8
68
81
38
54
65
23
-112
-52
-51
-91
31
45
-58
-15
-10
-80
-37
96
-15
94
-113
72
78
-109
76
6
30
-47
76
28
-43
10
-41
52
-56
112
87
-79
-82
-41
3
5
25
18
-71
-26
65
107
61
78
-89
-106
39
102
47
-81
69
-66
-122
80
-68
-119
39
-86
6
-118
67
21
11
43
124
-1
-106
29
23
90
-12
105
-82
73
-73
-12
8
104
9
111
-74
7
67
56
87
100
-39
23
-99
-120
9
-66
-119
-64
77
5
-68
62
-60
90
73
120
23
97
-21
120
-66
-82
90
-20
100
79
-126
108
17
64
-29
109
74
-93
60
-8
94
-42
1
-32
8
67
69
-41
-2
-50
59
7
-102
84
38
34
-1
-36
72
-84
15
-38
34
78
81
91
-103
8
-71
32
1
82
21
-5
65
-117
-86
-67
61
-127
80
83
-100
-63
-59
-16
36
14
-88
-88
-102
-44
28
87
-105
23
90
34
52
-89
114
-92
-87
125
-69
-19
120
-13
17
-108
41
-17
79
-39
11
-64
-91
-19
-68
18
-96
107
123
-117
-69
-125
46
-80
-94
113
-125
35
-55
-71
-23
97
-29
-93
-78
-80
43
83
81
-79
108
113
-36
33
56
-111
48
-51
-48
97
32
116
39
-40
-3
66
-65
-103
102
65
-123
-114
107
100
-83
-122
-46
49
-6
-88
15
-125
-107
78
107
56
71
50
-71
-57
-50
-110
61
71
20
80
-51
-63
-81
118
-64
-46
-98
12
82
-97
106
116
0
-33
-79
13
10
-95
38
33
-77
-37
-10
106
-70
-33
-59
75
18
-12
-93
44
-69
22
-84
21
46
112
-45
-75
109
104
-49
78
-8
93
-51
-18
46
-17
-80
-84
0
73
39
-74
78
77
-6
-127
62
-97
-92
96
63
-70
103
-32
-44
73
45
-40
39
27
23
15
-56
-48
22
13
-31
-52
29
88
-10
-1
58
-37
-20
-5
126
-20
-38
91
-34
-57
83
17
-39
-80
60
36
-45
17
87
-91
-12
58
-102
44
67
-62
18
30
91
62
-29
-109
-112
-74
-65
-69
43
118
-105
75
-109
-52
102
20
-15
87
115
-98
12
9
-102
-109
-97
81
-102
67
27
-71
-51
-38
-77
108
-115
-40
22
-76
64
-86
-63
-26
-65
-12
29
42
-106
-76
-110
70
20
-27
-83
-86
-112
-93
8
-75
71
125
123
-51
124
85
121
67
24
100
72
122
-57
-66
40
92
-29
113
-89
118
-97
-88
12
122
-66
-43
-57
-52
-60
-100
-78
33
36
-20
24
7
89
-32
46
-107
17
99
35
116
-123
9
123
3
47
-40
126
-72
80
86
101
-103
7
-89
-49
-32
-4
32
85
-50
-8
-57
42
77
18
-26
-52
90
117
116
-98
80
116
82
100
15
-57
16
119
20
-85
-37
-111
-21
2
46
30
14
-107
107
57
41
-6
-23
25
-43
26
-6
45
-119
-19
-74
64
-59
37
111
-66
44
116
11
98
-13
-100
115
111
-14
13
-32
-33
92
106
61
8
89
-48
-18
-116
-106
19
114
-78
-70
-112
-2
-18
-96
-44
46
70
-39
115
94
-33
8
-6
116
109
-122
28
28
-2
-77
-25
-90
89
43
-118
76
97
-72
51
-50
-87
-120
-116
79
-124
70
-59
-11
22
41
-11
-69
-87
-49
120
26
98
-89
27
13
-100
-83
94
-59
47
-23
68
89
75
-99
2
-9
-122
66
33
56
45
-48
11
35
81
-68
30
-84
15
16
61
110
-71
126
-61
72
-34
-124
-88
-42
-5
-5
-66
38
-126
10
-71
27
-15
61
40
-86
-36
-58
58
-79
-108
18
115
-97
106
1
-53
-46
91
-99
-97
52
5
-36
-21
4
-105
70
91
8
-88
16
27
-44
88
86
-121
-94
2
-50
-3
-100
102
94
110
-62
98
-81
96
-96
36
-77
83
122
83
27
-107
7
50
84
54
-127
-111
32
82
17
72
-97
-70
-116
-81
-120
65
82
-65
32
-112
74
-27
-12
-102
124
44
-87
-66
-48
-119
48
46
-105
-98
-45
-92
121
-18
81
68
91
0
45
-43
84
-42
72
74
-45
109
18
-65
-39
55
-64
-55
-43
6
-2
-29
68
-107
-10
-84
35
-17
-40
-49
60
17
-36
24
48
-32
20
21
43
-75
-72
-5
68
-127
86
98
42
51
-8
-42
83
99
-24
21
71
-76
-110
-25
63
52
-112
-40
-87
-63
-55
119
12
-10
-94
56
-43
-17
32
5
110
42
118
67
-87
-6
-31
9
-95
79
-33
107
-86
122
-45
-51
110
-9
-51
125
-3
1
-68
14
118
-125
122
37
-3
109
-92
32
84
60
31
-19
-61
16
-121
-111
-115
-93
20
-109
83
119
-58
-24
47
103
-21
-128
-64
-44
-86
51
52
119
-89
4
66
120
-53
-47
71
-58
-81
3
-25
-96
-126
83
-71
-128
37
-15
125
39
-13
-14
72
-82
0
40
-8
-62
109
33
-50
-32
-9
-63
79
92
80
-98
-43
-77
-114
126
-110
70
68
-103
-82
-11
-18
-33
6
-94
70
-110
-47
31
-93
13
122
-102
-73
-23
-76
-114
89
87
-119
12
-109
-122
-41
124
-27
-72
54
-80
-19
105
57
-21
20
108
-105
33
-95
-81
124
31
20
-119
-31
85
85
-95
42
-12
86
-112
103
14
24
-72
88
44
-105
12
-126
60
96
-79
-1
-100
92
-60
75
-16
-1
-110
-6
10
68
-49
-16
83
91
-41
34
-127
106
47
102
-78
-44
77
27
-57
-104
-16
54
49
15
-84
-13
45
47
-69
10
-17
27
-7
-27
63
-41
-31
-68
-12
107
-126
105
54
90
-83
-123
-100
-73
-34
-97
46
-4
-77
-100
77
-40
21
-72
-51
62
70
23
-46
35
-104
72
95
-94
-85
0
90
-14
-118
-79
-24
-96
-3
-20
4
87
26
-23
102
113
5
-38
50
-62
62
-63
-74
19
-18
-18
-77
-65
-45
-118
17
7
-8
-52
31
-70
-68
-56
72
-19
107
110
44
51
-67
124
1
-118
-126
-64
-56
-28
-84
-28
-114
51
-73
47
-51
85
-58
76
-19
78
118
-42
71
-89
120
81
-22
121
-106
36
51
97
-75
-25
-42
-20
-128
-123
-24
-71
-68
-15
-66
-77
28
76
7
-16
61
28
-40
15
-69
-98
-81
67
-13
65
-87
-29
16
16
120
79
-56
61
-69
110
56
77
-29
32
-75
126
-65
-45
47
-59
-17
-75
126
104
24
-117
-27
-67
-112
-55
119
-49
78
111
65
50
48
71
-105
85
-60
91
67
34
-67
-81
40
109
-33
-111
-112
5
84
-61
111
-78
19
64
-16
117
121
126
56
-35
126
111
-91
23
2
47
-1
51
-1
-118
-126
55
-110
-25
-33
-41
43
110
-46
-112
37
-117
32
-84
80
100
105
-8
79
-28
-1
-109
-92
-110
5
-68
118
75
-63
105
-40
-32
-3
-81
54
-123
-88
105
50
-40
107
56
6
-106
27
70
-95
-4
-92
-107
-36
100
0
-27
-43
-80
-70
-127
-84
50
-17
-87
76
71
121
116
126
33
6
38
58
7
-47
-69
-17
-106
59
60
-121
-71
9
72
52
88
6
-23
-9
-39
-86
-27
46
-66
-43
-91
-67
-30
-5
-93
69
36
36
98
-71
-18
-28
-128
-85
50
103
-17
20
74
83
-71
-54
108
-90
25
80
-103
-91
-106
-78
61
65
77
-30
-2
105
84
-72
-50
-18
11
-30
-75
-73
-4
-100
-85
-49
34
-38
76
-122
-43
98
49
23
-79
-109
-34
12
-104
74
-11
-60
83
-16
97
-98
0
120
-91
-37
-127
-101
-20
58
103
-8
-53
-46
57
118
-73
-42
-97
39
-44
39
-42
-50
-42
-46
120
-14
-44
-7
-58
80
121
69
-32
-20
-14
-38
-40
-1
-66
68
-19
50
-77
-53
57
-8
52
-102
-7
123
110
52
6
-55
40
-109
-66
-77
-85
-35
-60
-85
23
57
9
-15
76
66
112
108
-86
33
-70
72
60
50
-95
98
-67
-106
-128
17
9
-55
116
118
28
37
-78
96
-58
4
-86
-42
86
82
83
-123
52
19
45
89
30
-87
126
-91
87
-83
-121
-105
-34
58
15
-93
-109
-82
-99
78
65
50
94
75
13
122
-51
70
9
-105
-49
16
93
-6
-100
-98
48
51
-74
-76
16
93
-40
110
-41
-33
-51
-61
122
-48
-85
6
32
121
79
23
-125
91
86
69
3
81
-54
66
-60
-8
98
23
-79
-124
-66
81
74
92
82
-62
11
-26
35
-9
-56
-48
-103
-13
54
65
-124
108
54
-117
-83
-49
3
20
100
91
111
122
-128
95
26
-34
46
57
-111
-15
-48
96
-92
-80
-93
-95
-73
30
-20
-10
62
99
41
-117
105
-119
62
-126
-49
55
-81
-113
82
-123
-20
-114
102
-103
-10
25
-71
-26
-82
72
-13
-51
16
46
26
21
-96
-110
-28
-83
-92
-37
-60
-48
57
-28
100
-107
93
-18
-99
-59
13
52
68
6
-33
74
2
-55
-90
22
-34
38
-100
74
-72
-19
-44
118
-86
-123
58
30
-93
-3
-42
-34
23
58
8
-53
30
-127
-102
-110
-76
-106
120
88
118
95
-79
-31
-23
-5
53
-99
-4
-82
-62
-115
101
-32
-55
-68
-26
-40
113
-80
82
-65
12
-123
52
121
44
-96
85
52
56
-73
68
-42
20
-114
83
64
-41
12
92
6
-16
49
27
-75
96
16
-69
78
-64
-128
-113
23
-92
-126
63
-5
1
24
-128
-24
-6
-8
-103
76
-68
-33
-106
-11
67
-114
-31
125
-56
-58
105
30
-54
18
82
87
10
97
102
106
81
-48
66
7
13
-123
88
-119
37
-29
-16
-74
89
-113
-92
50
-122
-25
68
1
-83
-110
21
108
-108
66
90
44
-30
19
-81
12
-10
66
25
38
-83
-123
-80
-90
62
-41
-39
12
-49
102
57
72
8
90
111
-36
-15
103
-25
124
-34
-107
-35
26
-101
-16
-103
-21
29
106
-125
-8
-90
-59
-39
12
-55
-85
-26
22
-65
-18
37
-96
22
-121
108
-105
120
-24
62
-68
81
120
109
89
-61
97
35
-22
23
33
-79
-67
-6
-42
123
72
101
61
79
93
-113
125
-123
-94
-52
-47
93
17
-62
39
-128
48
-110
23
45
-121
84
-32
-64
74
94
-54
62
-117
30
66
-57
104
-86
-1
-71
87
114
-67
-81
-104
76
20
-111
40
68
-24
-61
-57
84
53
-109
-66
26
-101
-49
-12
-119
-104
-120
-125
-9
13
-50
54
98
-71
124
79
-11
11
-10
-23
-82
30
-110
-10
-90
34
88
-73
83
-93
-38
-73
-25
-86
25
-56
116
70
-107
-26
83
-98
4
-87
94
108
18
-101
99
16
-86
110
-69
23
48
88
85
-76
-18
6
-50
21
-40
105
121
72
78
0
-125
-47
25
78
-58
46
-16
41
-89
-40
4
-9
75
26
-32
-31
23
85
104
101
-19
65
-81
126
67
-92
-21
2
60
67
113
47
43
-128
-39
58
-93
-19
78
-53
122
-48
31
-96
-87
68
27
46
-93
78
73
103
73
-38
100
-19
113
-101
-8
-89
108
-101
-35
-6
-105
-125
-123
40
-121
27
-39
49
-9
-127
22
-27
-43
99
10
-109
-118
15
76
61
-66
-57
64
-48
115
-81
32
-39
-29
-28
-31
-71
41
121
29
40
76
-121
-60
39
-27
-79
-37
106
-53
-1
27
74
123
-19
-58
25
118
62
-51
44
100
-102
-97
76
-85
-89
-47
-18
105
-97
-88
26
89
-53
-26
-80
47
31
91
-116
-68
-61
22
60
120
27
99
6
-33
-79
32
-25
67
-113
-121
-117
7
64
118
103
14
47
-51
46
-2
28
59
-101
-103
33
69
-77
30
83
95
-23
-72
120
9
-10
-22
67
-121
79
-41
-32
-82
-110
-31
88
-65
-50
49
-12
-56
-76
-70
-25
94
-25
78
84
-47
-36
-20
96
-1
120
35
54
3
-44
10
-53
117
-47
33
-13
89
-110
-107
12
19
122
57
-15
-55
-26
122
-60
-28
86
47
66
70
98
-63
26
23
-38
100
-125
-33
4
-71
-49
65
-5
-23
-106
5
3
-128
-16
-51
-61
88
12
3
7
39
80
-78
32
-78
16
78
90
-81
-87
-25
22
53
-117
91
-92
-104
-20
-82
-39
19
36
4
24
2
-30
1
79
86
108
-18
-98
126
109
41
-4
-58
-95
-23
-111
55
-127
-71
-112
28
87
-22
8
37
-27
46
90
-14
61
23
-106
-123
-23
22
74
60
-3
106
-96
-52
-100
39
-99
33
69
115
-85
74
-69
18
-48
46
14
67
-116
-9
52
50
-66
-103
59
-52
41
1
-70
-45
36
-107
1
-103
78
123
-84
39
87
-38
-119
97
5
-46
-10
70
-118
59
-18
-95
76
-17
-45
-87
63
-120
109
-40
-15
55
-121
-48
16
63
18
106
49
-40
17
-79
-60
-40
44
120
53
28
-2
47
-34
41
1
101
46
-68
-8
-2
13
-111
126
-70
59
-120
46
98
116
84
-75
-109
-19
5
91
-78
20
73
73
29
51
-114
-86
-51
-99
26
10
10
109
-6
-47
34
56
-80
-32
-125
47
-10
-98
45
97
91
56
-75
48
-24
-56
-77
-61
-89
48
-42
115
-25
-11
-51
88
63
-24
-19
-70
54
21
-85
-96
-2
76
23
-50
-29
-30
3
-122
-29
53
23
110
-11
-66
55
8
-38
68
41
-47
-119
35
58
101
-11
35
-97
19
29
-112
80
43
12
11
-21
123
-63
114
70
70
-104
14
81
-124
-22
-36
16
-63
113
11
60
82
88
-74
24
-30
-92
-40
13
33
29
85
71
20
-80
84
-38
50
-88
-52
-69
27
-124
-40
100
23
-24
-31
-51
-55
80
33
-113
79
-109
74
126
37
-47
-90
-6
104
42
88
-65
-11
22
88
14
55
39
-20
-62
13
97
-44
-96
75
67
-14
-7
30
4
93
68
99
70
5
44
-113
102
-85
44
109
111
7
73
-39
-40
70
-2
65
18
-125
-61
120
-51
52
-16
-69
-77
57
18
-125
117
68
-55
-47
-4
-120
-82
31
27
17
4
-105
-53
-19
65
-87
98
47
30
-20
111
41
-102
-44
53
-82
106
22
-83
21
103
-105
28
70
-71
-95
65
14
89
-78
-15
44
26
-78
-18
23
-24
-62
-80
-106
-54
-3
69
-5
-55
94
116
-62
60
-56
-29
-42
10
-56
126
-68
-34
-75
2
109
-46
120
41
-33
-58
16
-83
61
-122
11
-89
53
71
-106
-15
113
48
122
-10
45
92
28
90
-20
-95
118
48
-4
99
22
-36
-100
31
-25
-77
-70
-8
11
-46
48
78
39
-75
-107
-54
83
-30
-75
-72
5
-34
-87
125
-111
-114
104
32
-106
27
97
-83
-78
32
51
72
-40
109
28
-7
-113
-1
45
116
-49
-94
-3
-18
-121
0
-71
59
75
-84
114
-112
-82
21
83
-32
-77
29
35
-42
21
-48
-61
125
-108
-17
-12
-15
-58
72
-17
-108
-117
75
-99
12
25
-70
94
59
40
-42
-73
-69
45
-22
64
112
-70
-88
89
112
-46
-98
-104
-21
-114
124
-33
64
12
-1
-79
68
21
67
-76
-34
99
-67
-42
-90
28
8
-46
-111
-50
-102
-47
26
67
11
52
-45
-96
19
-79
76
-80
1
-7
22
39
5
86
36
92
125
-20
-65
71
-117
-90
-118
53
1
-76
70
-63
92
-34
122
61
42
-117
22
-10
-105
27
-39
-73
107
-80
58
122
105
-5
114
48
111
-51
-105
109
66
-5
23
100
-2
54
87
14
79
30
37
-81
-115
-119
-87
-94
-78
-114
-91
-7
-118
-86
-91
60
97
67
-109
94
101
-9
70
37
-107
22
104
12
76
59
-111
-122
-123
-81
33
-121
120
83
-53
-26
-34
-101
60
-30
-26
5
-40
-18
60
47
20
72
10
38
28
12
-7
89
53
-9
-69
-4
126
59
42
-105
-74
57
-30
-45
15
-108
19
-49
-57
101
23
-22
-107
-126
12
121
68
-50
-38
10
109
119
108
-53
60
100
-60
17
-91
78
106
109
15
-21
97
67
-30
43
-41
118
110
86
89
-125
-105
-18
-81
-70
-39
-89
24
-74
22
-49
-68
82
24
30
88
61
-89
-43
65
-87
19
38
93
0
-18
-74
-53
19
115
-127
4
56
4
-76
-42
15
-116
27
-64
-4
41
6
-56
21
17
-78
-104
-113
-122
9
-29
87
-113
-69
78
51
-66
95
39
-90
108
-117
-34
-79
-90
-33
-122
-3
-106
111
-58
66
0
51
59
58
67
121
-67
-25
27
57
-118
75
50
8
-54
-85
-45
96
68
-19
-92
98
112
78
-103
29
111
-70
-16
110
11
58
-94
11
110
-94
102
89
-29
-111
9
43
-36
43
41
49
-40
-10
26
-125
58
38
-80
-3
48
-112
114
100
-74
122
76
-117
-37
-81
-115
29
-52
-69
14
-98
123
-72
33
122
92
52
106
-103
50
98
89
32
-86
-29
-82
122
-105
-111
-19
-64
-23
71
17
105
-97
84
9
-121
-28
-16
88
-28
65
30
66
-82
67
-45
-26
125
-114
-22
-92
35
-118
69
119
120
100
-54
-29
-105
78
-66
11
-61
-100
-104
6
-83
78
77
90
89
-10
-118
69
102
73
21
-27
-33
-95
-72
97
16
-121
75
117
72
-125
-96
89
46
-24
46
16
56
-70
71
-21
-47
122
-8
99
-27
89
-88
40
-115
-17
26
-127
86
78
-44
27
-44
98
-50
103
-14
101
-47
-111
33
81
111
-20
42
84
52
-114
25
7
105
113
101
74
91
-13
85
67
122
103
-84
97
-101
122
-23
60
-106
-1
102
74
-120
-75
-115
-18
79
24
-99
67
20
77
-80
-42
-122
69
110
39
118
-81
-36
-73
-40
40
-121
74
114
-41
-34
121
99
38
109
-124
-56
-68
-123
-87
-61
-96
56
100
-5
-36
-85
74
10
107
-25
116
-80
-53
-92
36
-15
-104
-26
93
89
3
92
55
-90
110
-79
-84
-21
13
-91
42
16
45
53
-117
91
-83
13
-57
-24
-5
75
123
-124
116
-65
-107
-70
10
-51
-101
17
123
-24
52
-93
74
-15
97
-77
-4
-15
94
40
94
-115
43
49
-55
115
24
-105
-87
-24
-104
-84
-70
59
45
-38
-54
114
-33
-4
0
-32
108
23
54
33
-108
-84
-8
-8
71
-42
85
20
-3
-5
53
-40
81
-123
43
-28
7
-122
-2
-82
-83
-76
-81
-87
-31
-106
6
23
-91
-47
-96
49
-92
-108
-40
-14
-27
38
47
28
14
-124
-79
46
-60
57
-15
73
35
-30
-44
88
-90
104
-11
43
44
-120
-49
32
-19
117
57
-96
-9
67
-99
-25
-120
-109
14
85
95
-98
52
11
13
-93
48
-114
-30
-30
71
5
-36
-76
38
125
-105
7
122
-51
95
124
104
-68
-58
29
115
55
30
69
-117
-99
-124
94
70
-16
70
-70
63
-80
-43
16
-30
39
-66
29
-87
-44
-122
-21
-125
61
41
79
-73
-36
-23
-80
98
100
119
-60
102
52
-41
112
66
-57
99
-87
-88
-103
95
-37
22
-30
-23
70
66
73
21
-58
11
20
77
34
-119
28
-54
83
-93
-123
41
87
-90
40
18
0
11
-28
37
67
-37
-60
90
-106
-73
-78
-81
2
-43
27
-69
118
-26
-1
-6
-13
31
-34
-108
-57
98
-34
-53
21
8
-39
19
0
93
-47
29
114
-108
0
-56
-117
43
-96
106
7
-58
-45
-53
-1
-98
-116
25
60
-42
28
17
-70
-67
-4
-39
-50
64
12
-115
-26
103
-109
-125
-124
4
-114
31
-57
48
33
99
25
-17
-41
-104
94
94
96
67
-110
4
32
-125
-12
-50
108
-94
26
-106
-107
83
-29
-121
-125
-116
112
91
-81
27
-37
38
120
78
92
-115
76
49
-33
-4
-72
-18
21
-6
39
-86
-67
-41
-26
-52
68
-47
90
-34
-122
-47
46
-4
69
44
-99
70
89
-116
40
-36
-115
-101
-126
-126
123
-63
-42
40
1
-95
-98
114
59
2
-117
-81
-123
61
-11
125
-44
116
-59
89
-54
-5
42
25
38
-112
29
91
-73
40
35
-120
118
92
-115
-33
74
-47
49
-74
-53
-64
-43
106
119
65
-119
-93
77
36
32
-116
-116
122
-91
6
4
-42
123
60
107
-30
63
25
74
-90
126
-104
-52
-77
-116
-50
-27
8
-52
98
-48
-96
32
20
-94
61
122
-16
-77
27
-2
-13
-60
-53
-101
34
-22
102
123
62
-20
-111
-115
-8
-45
-37
-118
-8
83
66
-60
31
124
-106
-85
-35
36
1
-54
13
11
-83
-67
90
84
-2
-87
-12
57
-65
-43
-71
-49
19
43
43
78
96
64
-120
28
29
106
-13
48
-125
13
-9
-53
-54
2
55
25
-97
58
-115
79
-65
96
-94
37
102
-75
-50
-122
19
-104
-85
22
-107
21
15
-64
-94
105
-114
-114
25
8
-101
-18
89
42
58
80
58
-80
-85
-75
111
-119
71
-65
-20
-95
-15
87
-40
5
126
17
118
-122
-41
-19
-77
-43
-15
37
54
-12
-105
78
37
-71
-35
17
37
27
-22
86
-77
-78
-13
118
-101
117
16
80
-88
-13
88
-70
-25
52
95
106
74
-112
-9
-29
51
105
-69
40
19
-107
-92
-10
95
-115
109
-110
-120
-2
-37
124
76
-54
-102
113
53
16
71
103
-69
-52
94
-78
-57
-1
-43
-41
-127
91
42
-122
-122
18
-103
7
5
52
-59
-51
124
-9
-18
-114
100
-15
6
-116
78
95
-17
55
-57
-40
-78
125
89
120
-110
11
15
1
74
-73
-12
32
98
-82
30
93
-91
-80
-25
68
-20
75
16
21
86
29
64
-14
102
-106
67
22
93
-19
-43
-72
46
38
-49
33
49
-118
-43
46
-8
107
-73
-127
-125
-43
10
-49
-103
-42
46
120
-72
-35
-6
-112
49
-26
-38
-121
-60
-101
-73
83
-53
59
-3
-70
-20
47
12
107
-83
-103
15
43
52
107
-22
-99
0
116
-69
-24
-123
-101
-66
93
-3
55
61
94
16
17
58
-103
-90
-36
-104
-65
36
-37
114
-55
-5
54
-74
87
-78
93
13
-37
-14
67
-76
81
-80
0
24
35
40
-21
122
-118
105
9
81
-96
-106
-40
16
-59
-26
72
-110
16
72
48
62
94
91
-80
75
-6
101
30
34
75
-58
63
-81
100
2
40
-47
-108
-98
22
58
122
-90
68
14
11
-104
-78
-118
48
97
-117
95
29
109
-37
-11
87
10
-34
-16
-122
97
35
114
5
-87
12
24
-78
17
46
99
119
-25
-52
-48
35
-24
111
44
6
8
18
-50
-116
16
-93
-15
-59
88
77
9
-5
-3
50
-97
16
-124
-94
-39
67
-55
-24
-66
96
-31
12
45
9
-74
27
-58
78
101
42
-50
-68
2
7
-3
95
-125
-112
29
-46
-38
56
37
67
-118
24
89
3
-66
52
-114
24
105
-45
76
94
20
66
115
59
-90
17
-123
-11
-110
110
-4
-125
20
27
60
-51
3
-94
6
54
66
117
11
43
-39
102
-2
76
-107
12
-11
-110
120
-41
13
59
65
72
-2
87
-38
-109
123
-112
107
121
51
-85
63
62
114
-66
114
-72
40
-2
-39
-61
-44
32
58
-89
-115
45
-6
19
41
83
84
72
35
94
13
-67
-54
44
9
-108
110
-88
40
-114
98
15
-106
65
46
-57
-26
126
-72
-40
-122
112
-57
-80
-120
85
-92
119
108
43
74
20
-59
-114
-84
44
-62
96
58
-26
48
-57
-28
52
110
-118
89
29
85
-27
4
44
-54
69
110
-55
76
11
55
39
-17
83
79
-82
-45
58
18
-97
-92
-71
-63
123
-67
-16
82
93
-119
115
121
26
76
91
98
106
102
-122
-128
-70
10
24
28
-69
-36
76
44
-126
10
19
42
63
-47
125
60
68
38
-42
-108
48
-63
-126
115
-25
60
-17
90
107
-19
-26
0
-127
-66
13
-117
38
-76
74
-123
37
30
-85
58
-76
27
-5
-74
114
-31
-93
68
3
-9
55
114
23
-67
6
38
29
-4
-123
-42
19
-115
65
48
7
-125
-62
123
2
112
-1
-123
-34
109
-35
92
103
114
78
-19
120
-27
-74
69
-118
93
-81
27
-26
101
104
38
78
69
8
-89
-28
108
-115
-43
-54
-24
-114
-100
-11
-96
-34
-92
4
109
-24
4
3
-121
91
-49
36
120
-23
76
126
-13
-5
-127
25
-113
-34
51
82
29
-50
-127
38
31
100
-109
-32
45
66
-128
-105
-106
93
-82
86
-9
69
5
103
107
51
-54
-17
71
-4
119
-79
23
93
94
-64
121
-1
-87
-5
-76
-60
-45
-66
-7
48
2
-93
-105
-75
-81
-20
107
97
-57
-60
-10
-123
111
-43
44
-57
89
41
-123
-125
-103
40
94
44
21
-87
-35
-15
85
85
-116
-1
24
-99
-65
-28
91
69
-46
114
56
104
-98
-38
-28
-59
-67
62
116
-80
99
-17
4
52
-26
-91
-110
18
53
-18
-55
86
31
7
-98
30
84
-30
-76
99
57
-125
-6
-11
-3
95
122
10
-32
68
-76
126
69
116
114
-48
42
-58
25
-79
32
-103
70
-35
42
11
-7
-73
-85
-93
-121
46
98
-19
-116
-6
74
47
-124
-125
47
32
-66
89
111
116
-80
97
103
96
-28
121
53
36
116
-65
-59
75
-113
-24
-73
-58
-42
78
62
115
95
66
-120
27
80
-94
100
43
-118
62
47
-75
-18
-50
-114
85
-94
125
9
77
-11
54
52
93
17
-7
-73
-81
46
57
-49
-90
-69
-3
-22
-84
-29
-104
71
-63
15
-125
-126
91
86
17
118
92
-53
9
-104
-94
-110
-10
-101
-114
123
22
-115
-28
97
-101
-83
59
87
-98
-80
43
-8
-19
-111
83
76
21
66
114
89
-90
-30
94
-26
-13
41
12
38
65
49
20
122
-3
-17
124
-65
38
30
117
-13
-115
28
28
-14
61
61
64
-63
24
21
-81
-60
-98
-18
-81
59
-120
60
-82
-36
83
120
108
73
-55
-87
82
-51
115
-35
101
38
97
-87
54
-95
-48
-41
-109
24
56
67
-127
-71
109
-86
-126
-93
74
-65
50
84
-2
42
-27
111
54
124
105
103
-6
-23
91
46
-67
-60
-41
-45
18
-51
-92
-50
18
-105
-107
13
-127
29
-83
6
44
-107
83
-54
-82
-60
-10
-125
-113
68
-9
-51
114
-103
-16
-88
-3
-80
-82
126
-40
-71
-94
103
-66
-13
54
-115
119
-69
63
-20
91
103
76
0
-109
61
12
79
-3
-40
-45
-35
-42
36
-73
6
104
78
-103
-21
-2
66
-13
55
125
78
-53
123
-46
-95
61
-15
39
-71
-116
-82
14
28
67
95
-108
-49
57
11
-14
38
108
70
-27
-90
-94
17
-63
114
-31
20
-50
17
-14
-89
97
-85
-119
-4
89
66
73
17
-71
-31
-110
125
-76
-93
61
117
63
-17
102
63
-78
76
26
101
-54
21
77
-38
-73
-86
110
-87
113
-38
120
6
-68
8
-98
-28
-86
40
-116
61
55
65
91
99
18
41
22
-91
100
-57
43
7
27
15
-121
-81
75
69
21
39
114
-33
-35
-30
-121
-37
-16
-116
112
-9
-89
-98
-49
-99
111
-6
-107
-57
47
-75
116
-90
19
85
-35
112
72
14
-72
121
-38
109
58
43
82
95
-122
-37
-96
44
2
-34
-88
-76
94
-20
126
-28
-46
-92
-16
24
46
-97
43
53
-91
62
-86
30
87
78
-105
94
-78
54
-85
-55
-95
-54
102
112
-41
-21
-68
96
-117
-85
-14
-11
95
-15
37
95
61
-113
-22
-53
73
-27
-6
-75
-14
-80
12
114
110
-46
-64
-41
-50
-74
-16
39
101
-42
-13
-19
-64
-76
21
107
119
-40
-13
-118
12
39
3
119
122
-5
105
8
-71
66
-103
111
17
38
91
62
63
24
-62
94
32
-118
18
-59
-55
-27
28
-17
-111
-62
91
-86
-22
-39
126
-55
-55
-70
99
-75
28
-116
33
121
120
-37
68
2
-94
-98
-6
-74
71
-50
23
117
-107
-86
26
-105
-55
104
105
0
85
120
119
-53
-8
65
22
38
-118
46
-95
57
-60
-23
-65
89
-20
-128
-8
-60
-100
-38
-37
36
84
36
-33
-57
83
8
-13
13
26
121
-96
-10
-15
121
24
52
7
-18
-33
-54
-63
102
92
-104
62
-61
-79
-115
120
-62
85
73
-111
-63
31
56
98
-106
-16
60
-56
-125
-21
27
-84
4
-83
-55
-9
-49
-33
-118
-67
-23
33
60
-45
-92
45
25
110
-110
-125
117
31
103
-109
46
-79
-121
-54
125
-57
75
-9
-32
9
-106
62
-126
73
-20
-85
89
-54
-83
-83
-66
57
64
-103
-99
84
-7
-30
112
-50
-51
-19
-68
35
-11
111
-17
106
63
86
-11
-105
114
94
31
55
-3
37
-11
6
-57
92
112
80
-35
10
90
31
78
90
100
55
-22
-56
-26
-89
108
-28
-46
65
-11
6
122
7
-121
2
-50
-54
-80
-84
76
-13
-4
-24
19
22
125
-102
37
-103
123
33
51
47
-121
-100
91
59
-52
-112
-65
44
89
74
57
-101
-77
-52
87
112
71
-21
93
3
113
112
121
111
-111
-120
-94
118
-35
44
105
20
-70
-107
-128
44
-40
-49
87
-67
-82
-61
8
-37
77
-47
-82
-32
-35
-25
-35
-91
49
5
32
-30
-43
-128
96
-88
83
-85
-60
22
-77
114
15
100
105
101
-43
60
-118
-47
-90
68
-62
-25
37
-17
12
4
23
116
-32
24
99
118
119
-37
77
27
37
75
77
-12
8
-125
93
-93
41
62
53
-66
-28
77
-47
121
-105
-39
-90
-32
-53
-4
-64
-114
96
7
-84
39
-59
-27
-83
30
-49
-39
-53
109
-93
9
24
-17
-8
55
31
31
-29
-108
-124
89
21
38
33
75
31
122
-110
91
76
-37
109
-98
-98
-80
-77
32
-23
52
105
-31
125
105
-116
-15
-83
125
-89
69
63
-26
90
94
47
46
116
10
-94
115
-52
37
116
-69
-29
64
80
-92
-104
-65
38
42
-9
-65
31
-53
58
-105
45
55
-118
-93
-103
4
94
-24
-78
-11
106
24
-14
-127
-113
-29
50
-44
28
5
-12
-78
17
113
-112
-117
56
27
-46
-94
-17
-113
-87
-5
-5
101
121
88
-50
98
-93
-101
-121
99
-2
-87
-126
35
-8
-98
52
66
-42
126
-32
18
-46
10
-81
59
101
-125
-40
-29
-52
-57
66
-32
56
25
57
-18
41
2
-47
-119
35
-79
6
41
-106
110
68
-109
-5
-39
97
-14
-87
-63
-98
101
-5
111
126
22
32
-121
-96
54
112
33
-27
113
-64
-15
8
21
-60
-111
21
-4
22
-81
-59
-2
27
76
-124
-100
-24
-65
90
-124
37
23
25
60
29
-100
6
-6
18
-69
-19
40
12
3
19
-64
69
33
-100
54
46
9
109
-102
108
-114
8
-113
92
78
-104
47
-15
-34
-113
74
30
100
90
91
-117
19
124
-22
104
-12
98
60
-4
-54
-100
-78
97
96
22
85
31
-109
45
102
-50
96
37
26
-45
98
-29
-54
3
14
116
115
65
68
27
-78
24
-87
-4
-8
23
55
-102
-91
-53
-2
-35
101
-66
84
-100
-84
94
36
-90
111
101
68
-46
27
-79
-85
42
-52
124
35
32
-121
88
-1
-70
27
123
0
-79
108
78
-55
-38
-12
52
-63
-2
70
-97
-109
6
-29
-74
-91
-67
-27
53
-12
-57
57
5
-97
6
118
9
-108
-45
-46
-81
-32
78
-68
101
96
-23
12
72
-73
-10
108
-124
-6
-10
-28
47
-120
-1
26
-76
-77
-64
28
123
46
-92
103
-123
-47
81
-54
-30
89
-19
-19
-38
-24
-47
112
-119
97
121
-108
79
-15
-110
-5
116
81
126
-64
113
4
-95
47
-119
-56
6
-5
-90
6
-57
-93
-4
30
5
-87
51
87
35
36
-72
101
75
-20
120
78
53
-123
22
-113
-44
-53
74
5
-78
25
0
81
-77
108
92
-24
-78
-92
125
-4
79
-121
-3
104
65
13
85
69
-77
-55
-42
-103
-110
48
-49
85
65
-34
-68
-18
77
-68
62
-101
15
80
-71
35
-103
43
-121
-44
-80
-36
102
-114
-87
72
-34
105
29
66
-27
-67
-107
117
89
84
63
48
-95
-18
120
-126
102
29
8
108
65
0
93
38
-107
90
59
56
91
28
-103
-101
-102
-93
59
-104
-16
53
-45
-29
14
-4
11
-3
2
-20
-61
-26
80
-5
94
113
-32
-111
-76
-111
125
-105
107
121
121
27
14
94
-90
-85
-19
105
-126
82
13
81
-96
-41
12
71
-93
-77
107
-46
-66
118
-128
-65
-65
61
41
-82
-25
27
73
-73
5
10
116
-34
-27
-50
85
94
-37
-56
113
-44
48
17
100
-15
123
68
57
35
124
-95
-109
-60
-36
-101
9
-42
-43
-85
-123
14
-109
-110
106
-83
-39
-77
-34
-20
-108
-100
9
1
46
13
-23
14
21
7
-21
-73
-15
-71
-34
-127
25
69
-98
-57
-106
-80
-27
-35
123
-61
51
-93
13
5
-87
9
-57
86
98
-103
-41
59
-124
15
65
-59
47
16
105
-66
100
101
33
-57
92
-15
58
35
-77
43
124
-114
-18
-19
-115
75
-39
-28
-5
11
64
117
-127
-39
-58
-52
82
51
12
73
-127
65
-74
83
61
85
15
-103
87
-49
-88
-73
76
-125
-37
108
114
-30
43
8
-111
-44
45
84
-50
113
-94
-20
19
1
-70
49
9
57
-5
24
33
94
-5
-92
-75
34
-74
-58
-59
-39
117
-7
113
-62
118
-54
49
109
96
-103
-77
59
48
-76
-40
1
103
-51
-68
-83
29
-85
52
-16
3
55
-108
121
-89
55
-55
98
8
-61
-11
6
68
-20
-96
87
-56
7
87
16
10
-93
64
104
83
-115
120
-49
55
54
-35
96
9
-61
79
-90
63
-64
64
-10
-126
-107
92
28
21
-127
-109
-69
40
-88
-18
-128
-30
-82
61
4
-38
6
83
-38
40
112
31
-12
99
-16
16
23
-49
-125
-32
-32
-5
3
-52
-48
0
77
-77
51
110
121
-123
71
57
47
-122
-81
-103
49
75
-21
16
-91
9
114
67
-7
9
-102
-25
10
87
54
-63
-39
-9
26
27
96
-45
93
-106
-85
105
101
-107
116
-61
4
46
76
13
-119
64
60
-110
109
-37
11
-56
64
56
29
91
-89
-32
12
-36
-63
-56
-12
-56
-76
78
-56
-72
81
74
6
121
-71
87
30
9
-103
-15
118
-115
-103
-32
-61
-108
-39
-114
-99
-87
90
-12
-45
-104
-80
64
-62
9
-48
-22
-128
-35
2
-91
3
70
-45
-74
120
19
46
3
64
116
-16
-118
-26
107
-125
-45
-17
117
120
101
-27
56
51
-10
70
94
125
-23
-1
107
32
98
65
3
17
119
80
6
-14
52
108
25
56
-110
-4
111
55
34
37
-36
-115
-31
-10
105
0
-38
-4
100
-39
-113
90
-71
21
-2
98
15
-38
68
-64
-110
-90
52
-70
40
104
-9
109
-24
-25
64
-109
101
27
-29
38
99
-121
88
99
40
-128
-59
-60
88
-99
5
29
29
53
104
20
-93
53
-110
-83
-45
-58
49
14
89
59
-75
-110
-46
-2
71
-45
73
20
3
7
-80
-66
55
-19
96
9
54
71
-4
-111
23
-36
-14
112
-29
-93
74
-41
-12
99
65
-127
4
111
94
34
81
8
91
-41
-106
102
53
69
-82
81
124
83
-123
23
65
-73
-111
-97
-69
-127
-113
-4
36
-27
-74
15
56
-56
-4
57
-30
-111
-113
55
-39
-106
-3
-100
-92
118
-65
5
-24
105
118
-24
-107
-53
-107
110
-2
-74
37
-126
-75
40
-48
-124
109
-21
-119
66
-3
109
-26
78
37
30
95
-111
95
-66
-61
-88
28
-89
49
68
88
-71
101
-89
-105
-61
-11
-116
-78
-12
-6
-67
-102
101
-37
-16
-10
-67
-26
0
61
-96
111
-33
-124
95
-18
78
-73
-89
-81
-64
43
71
-1
37
12
30
-85
-59
41
20
12
44
-45
-25
16
-79
-17
-48
114
109
-64
-65
11
-46
-43
124
115
88
60
-12
3
13
104
29
15
44
119
14
49
-68
95
37
-109
-38
16
-82
-24
-20
-59
13
3
85
45
-53
-119
-3
-95
-42
46
71
-114
-1
8
31
-93
-47
31
-49
-83
95
16
72
-24
65
-126
45
80
5
-33
88
-116
74
-100
39
91
111
-113
99
57
-23
-104
1
-120
90
-109
-125
93
-11
-33
-79
-123
-37
-72
-36
-103
90
-72
0
43
-65
-76
118
33
64
36
7
-43
-74
-3
89
-96
8
17
88
-67
-89
70
-79
57
32
81
-108
-111
46
22
16
-22
98
-119
61
54
32
95
11
-98
-13
79
119
35
109
-48
-7
-58
-108
115
-58
-49
-49
-38
-69
-13
-123
45
68
95
15
-11
-80
-91
53
77
123
112
102
-75
37
62
-38
-101
8
-101
44
62
-52
-100
-115
98
118
15
-106
67
24
-6
8
-2
-108
25
-38
47
86
54
-27
-125
-64
108
-51
113
-103
-5
-125
1
-65
126
-105
-49
-76
-19
118
48
-74
-97
-45
-62
-92
-74
91
94
103
-56
-93
-14
99
-77
-8
7
125
-122
-52
42
-14
80
30
-2
-1
-116
-102
-7
24
-57
-30
-127
-43
-116
119
-41
-87
63
-37
65
-90
-114
1
40
14
1
43
-51
-30
-116
111
-25
-46
91
-66
99
27
-108
-56
79
66
74
69
-90
-58
123
56
-76
100
74
78
66
122
110
3
90
-77
-36
52
77
18
-89
19
78
74
84
-29
-85
-9
-123
55
-7
114
116
-88
-76
42
66
-11
-100
-5
123
-19
0
112
25
-29
-101
-84
-128
-61
102
65
65
45
-34
-63
-66
-81
-110
-50
-100
80
-62
48
104
-80
68
-89
38
-57
7
98
54
92
34
-39
-62
-25
107
28
-84
-75
100
95
-88
82
-21
12
72
-94
88
33
45
29
-125
-71
21
120
113
106
92
93
42
-85
-62
103
107
-124
-67
-37
-50
25
-4
-114
125
-60
-24
-4
-76
90
-123
119
-18
40
52
63
86
-2
18
-56
70
-46
114
-51
12
-109
64
87
-89
102
-16
67
-11
112
-29
99
8
49
18
24
-11
-15
-103
121
19
110
-16
113
123
-32
68
124
12
-2
-77
64
-67
-112
-53
104
-125
-8
78
-121
-74
-73
-121
-8
29
57
-36
57
38
-91
-51
-109
-99
92
56
19
-86
34
2
117
-120
-111
-56
-40
-108
29
-2
82
-3
-121
59
-99
116
63
78
113
119
100
80
121
-38
-117
-4
-33
4
-15
-95
123
29
32
113
-85
110
81
-9
-123
71
-52
104
-115
-67
22
26
-106
124
-118
-50
121
-124
-102
-116
-8
-46
105
82
-49
-104
-115
-106
-15
104
35
-107
-114
-53
21
63
76
-87
99
-26
-27
-87
-39
15
46
-97
-104
2
-106
29
23
-6
-42
-2
-115
-29
48
-120
114
-124
-104
106
42
-77
-20
-44
90
-105
-114
40
-49
-35
120
-114
-41
92
-23
104
-112
105
23
96
116
72
124
-83
72
72
-77
-107
-124
28
-39
55
42
-34
26
-42
86
34
-125
11
65
45
48
-89
60
-6
27
74
-62
-25
103
3
-125
-20
62
-24
124
70
-48
71
92
-26
92
79
25
67
-10
-103
-122
-68
13
-91
-94
118
38
-16
-91
-11
43
-66
-121
-120
51
74
-122
60
4
-3
-15
22
-44
-62
-85
-3
38
33
-112
100
57
-117
-49
41
60
60
-87
-82
-80
114
-107
58
118
-19
-76
-20
-20
18
42
-71
88
-68
-113
4
120
9
18
90
-52
24
-101
64
68
-120
-9
-21
-1
75
-25
91
21
4
-5
-90
88
69
125
41
125
106
-44
-42
-19
-61
33
-1
37
50
-28
80
1
26
-81
63
-22
-79
-109
99
-122
24
29
52
-23
-128
126
-98
-34
-117
103
-121
102
-78
-86
-24
38
-111
-126
-94
78
-118
-27
-1
88
117
39
-25
14
-59
91
-109
35
-28
46
109
-66
-5
-30
29
13
-17
-105
100
-5
-49
-25
16
4
103
39
24
-124
91
-83
-73
-24
98
-70
78
-90
-58
16
-120
16
98
80
-25
50
61
31
-111
67
-42
32
-82
27
-41
105
45
61
-98
-37
56
-45
27
29
-112
-27
-61
-80
-5
-107
68
92
-71
-78
-50
-31
-38
-34
55
8
72
-69
84
94
96
72
119
-74
-115
81
-34
-30
-4
-67
2
-73
-42
-12
-97
19
84
81
-87
-120
46
76
-69
-52
85
94
85
9
-22
91
54
25
-42
11
-87
-82
18
88
-32
-101
13
-116
-82
44
-28
-34
3
62
-24
-54
-111
24
72
-122
65
121
-19
78
94
87
70
-6
-55
-44
-128
120
24
79
-44
85
69
112
-113
71
50
-81
21
-105
122
37
-114
110
53
40
-111
-58
-87
-119
88
109
68
49
-112
-90
41
41
-90
-6
57
119
-74
-60
-56
-80
-79
-107
72
-103
41
-56
-40
66
-26
76
-106
90
-41
102
51
29
51
-121
-23
-100
63
40
-98
-115
112
-117
-106
-125
-3
-85
99
-82
-54
77
-121
72
-103
-32
-17
-124
-14
-48
-60
82
114
116
-19
115
25
-41
49
-39
-24
109
-40
-27
-21
-8
-74
-12
17
-51
-84
-25
-49
-75
-124
84
5
71
-45
-22
-128
113
26
-55
-126
-54
94
90
23
-114
10
-86
57
-96
-6
-54
-37
-1
-84
87
-97
61
39
-84
92
64
-109
101
-95
-75
47
117
5
79
-87
77
-108
11
-42
38
48
58
27
-10
60
-80
92
-64
-49
71
22
95
-99
115
122
-84
83
19
113
-18
115
-90
97
-11
40
-121
-84
-83
-49
-12
104
126
95
-70
79
-97
-23
-17
11
-9
49
83
123
76
-83
104
-55
49
17
-21
-41
-57
-22
-8
-12
69
8
54
105
74
78
96
-44
72
76
-81
-62
3
-55
8
123
-4
51
17
83
-42
61
-110
-102
-77
-89
91
7
53
71
-98
-21
37
7
-128
14
-7
-93
-17
92
-47
-14
-14
-91
101
105
13
75
86
115
105
53
-79
1
-75
14
5
-29
31
99
28
1
-93
-117
7
74
-50
86
79
106
-33
95
-30
-15
-10
38
-67
64
-69
12
96
52
105
-88
-125
88
12
18
45
-112
29
-52
91
79
33
83
-63
27
-127
43
80
-89
2
-59
-49
85
-80
16
-32
-67
-95
-51
-4
19
-64
-79
-55
68
-19
115
-117
-97
16
-36
7
-27
65
47
95
102
4
29
-113
23
-52
30
-118
39
-16
-33
-52
30
-76
63
-93
106
-112
122
-120
122
18
21
69
-127
99
60
-53
-78
51
-1
36
-72
90
-14
-52
120
-111
3
70
-43
-92
-127
-35
0
17
-3
92
-92
26
-76
-98
90
-40
-126
18
35
70
56
120
41
-10
103
22
65
-98
-75
-46
78
-127
-25
17
-59
30
-37
33
15
21
-76
37
16
-21
-17
43
36
-68
84
-8
92
-88
-71
-59
-109
-125
-6
50
-14
-33
96
25
-1
0
-32
1
45
-63
51
-21
88
97
28
-30
28
-6
-73
-114
-85
23
105
-4
-95
-57
48
-123
57
97
-63
35
-62
89
116
82
-121
15
-49
-126
28
120
-75
-4
-92
-15
-34
-31
21
29
-107
-120
-106
31
18
-2
-29
25
-63
64
-39
-107
-117
-58
7
-101
95
-15
100
49
115
-89
-101
119
-108
34
22
-13
49
-122
-106
25
18
-109
-46
62
60
-79
15
96
4
125
-79
-96
45
1
109
-26
80
-35
2
-54
47
-99
57
-115
-63
-91
63
-41
-112
4
-108
-59
-119
27
-111
120
123
-51
-5
24
78
123
45
-66
-75
43
114
75
-65
-52
-39
94
-74
-114
-18
32
-21
6
46
76
-67
-113
12
9
42
4
24
109
-53
115
11
-86
-43
121
31
118
-50
-72
112
10
-32
-91
65
-114
113
1
31
-58
101
-79
-1
-105
14
-72
46
46
-25
18
109
-95
-1
13
58
-47
54
27
-37
-4
47
-55
-4
-82
54
26
-69
-35
31
5
-8
-46
-106
113
4
9
101
-65
-110
67
24
-64
-42
49
-103
-79
34
-7
77
-90
1
123
15
17
86
-110
48
-100
48
-53
-80
-56
6
15
17
123
-43
-52
-96
-61
25
-68
-102
-125
113
15
-27
-84
70
-110
-92
-6
-89
75
11
101
-99
-57
42
79
38
-79
-35
-70
83
-98
-29
-99
50
91
-60
120
70
67
-28
-106
-99
-65
-25
23
-75
-5
122
4
-99
41
64
7
58
-41
-38
61
78
85
11
124
-21
-51
60
101
51
-124
-36
120
-77
-111
-100
-100
-116
-21
40
-81
38
-107
-40
30
18
108
76
78
76
-19
72
65
-116
-96
112
72
-79
-62
3
103
113
-13
53
75
81
-72
123
39
108
-31
100
28
78
-35
-84
16
84
44
126
125
105
94
-40
51
-107
22
-110
50
-14
-51
55
10
-103
-41
-9
-42
2
107
124
-58
-64
-55
-59
-122
-64
13
22
-100
-124
60
-62
23
-85
104
88
-53
59
-68
46
-93
-52
-103
36
-50
-17
-1
-101
-73
100
-26
39
-97
-15
-34
-15
15
-57
-75
89
116
69
65
42
97
-62
-126
126
45
-40
106
116
-73
-61
-125
-39
-80
32
27
75
-14
-81
-88
114
67
-98
10
-33
93
-97
-11
17
23
117
-24
-88
-38
-125
20
-61
9
-3
-33
-27
11
15
-25
120
27
72
9
-85
-83
19
-108
87
50
30
-18
103
-57
3
75
-44
-18
52
-36
-40
48
-82
19
-17
61
88
32
-57
-34
-30
48
-63
-47
-125
52
56
-14
-79
-49
-76
-96
11
70
20
-49
-66
54
106
55
120
62
105
-46
85
-55
40
32
-41
104
73
94
48
-81
56
12
-47
-110
35
102
57
-88
37
20
-1
64
54
-96
-57
103
9
100
-52
-30
-11
8
-15
-13
-93
-61
-1
66
118
69
-22
-126
-64
-39
-59
121
19
9
36
39
-62
-31
-33
45
-60
-113
2
-8
-52
-65
-98
21
-116
-119
-85
-116
124
53
118
-84
109
57
70
-74
70
-3
-104
-112
-63
-96
-91
-101
112
-106
-37
71
110
-102
30
-33
-59
12
-31
64
103
119
-46
-65
8
-98
-53
3
66
-68
42
-93
43
-128
-103
39
-5
98
-45
94
-124
-82
-6
10
69
-15
-80
50
5
-114
-87
6
85
111
86
-88
-113
70
94
31
-103
98
-109
-46
-100
-51
-113
47
-47
123
-35
-42
35
-92
114
-124
-76
-82
-119
126
-60
-61
-110
-2
-14
-99
-83
100
76
44
93
37
33
-22
-67
-7
-125
33
-66
-80
-93
39
27
-37
42
-58
111
110
6
113
61
-126
-97
-62
-13
-127
88
-12
92
119
77
98
-101
59
-114
2
18
29
20
-84
107
119
-32
-39
89
102
84
88
-59
-44
109
-69
-19
-53
-47
-75
68
-28
-93
87
-52
111
35
89
-108
-60
106
-112
65
32
29
-97
112
24
1
-26
63
-2
86
59
-6
-57
79
36
-15
-8
-28
69
-60
-116
-97
91
111
-59
18
81
-114
-37
-67
126
-22
3
8
35
58
38
-7
18
-77
-100
-113
-48
-88
119
1
72
-65
-128
37
-13
-60
-23
-116
-111
100
-88
60
87
-123
-113
73
57
64
91
-34
-20
55
30
48
63
119
114
-25
85
78
71
-20
87
-63
55
-13
51
-88
77
-34
-64
-4
69
-42
119
110
46
48
-77
67
-76
9
71
103
16
-111
1
95
-76
96
57
96
4
53
39
-25
109
-62
9
100
5
-17
-127
49
-5
40
4
81
-113
18
8
87
10
46
71
42
-96
48
-81
72
-40
81
-97
32
6
-34
-69
44
-103
63
-44
-19
-59
-13
-62
-114
-88
-102
-96
108
-50
89
44
90
104
-63
-57
-76
111
112
-43
100
97
-38
-60
97
12
31
-107
8
-49
-54
10
-13
44
-116
6
58
-33
-69
85
-44
120
-51
20
-62
-54
2
47
32
47
35
4
-93
-62
-78
58
68
-118
-41
-53
-6
-85
22
-19
69
28
-58
3
-22
-70
86
122
54
-59
66
53
26
70
125
0
-95
12
-39
-100
-121
48
55
19
-101
10
-60
31
26
61
-11
-7
-64
85
-8
-15
77
114
69
60
125
30
87
-97
92
-24
-15
23
-18
-41
-124
24
27
27
-63
76
40
-10
-27
-96
53
-28
-110
85
79
-4
59
89
4
-68
-21
16
-47
-74
-72
22
105
112
17
82
-85
47
4
-90
-46
-21
-104
77
-45
-44
91
-11
-71
0
-41
-5
-6
-120
104
-119
-120
-107
-29
-100
-36
-19
86
-51
-33
66
-101
-25
92
-124
-9
-85
-62
-48
63
-105
120
112
86
57
-23
-62
34
-16
40
-56
92
46
-60
-68
112
-55
67
109
-38
28
-114
49
119
65
-99
-91
88
3
75
-57
121
-52
-65
0
20
-93
-93
113
5
-100
-19
-19
-126
-34
-38
113
-23
-108
124
89
-106
32
97
-114
-95
69
-55
-47
-70
120
86
-32
-20
102
95
-123
-2
84
-4
96
8
-103
-71
126
114
41
48
89
-15
-95
43
-118
79
-23
84
-38
-87
66
42
50
-102
-63
-72
-80
-67
-126
78
-120
28
40
-98
-7
-26
-113
121
71
-70
-50
-61
-59
-9
-78
-101
-83
23
52
-55
-18
-109
39
-30
103
-53
-126
-3
-70
-89
-126
-91
76
-36
-120
43
-10
-121
5
93
-66
109
-84
2
-58
-33
115
47
56
2
-47
-37
36
56
-61
-98
10
-95
-19
91
-12
59
-117
-7
-69
-15
41
107
50
-13
7
-59
-110
-56
58
6
54
122
82
-92
-107
-4
-12
-70
-7
70
-67
97
-13
-39
39
30
-114
-85
-4
-27
-25
-18
-25
-78
1
-89
38
13
65
91
30
-64
22
85
-95
93
40
-1
102
-122
76
-3
27
15
-72
-8
119
-73
62
-17
-6
-100
-65
12
-104
68
-13
-9
31
-125
61
53
-90
39
6
119
48
-75
-122
106
29
56
57
91
124
-23
92
-53
-66
117
-64
98
-14
-107
-41
-28
122
117
-71
39
-70
103
71
112
108
86
69
-50
46
63
121
9
112
-104
81
-90
-76
108
60
-32
-46
98
39
110
40
-119
121
-69
-64
-121
-17
122
-16
78
64
-101
101
-83
-73
-92
4
86
-17
-64
54
-61
-114
-125
-56
-95
-120
32
-117
41
115
4
1
99
39
-85
-29
-105
102
43
-69
-68
2
-119
-3
-59
111
31
108
59
88
53
-4
28
25
-63
-107
66
96
70
82
-101
-40
-71
-82
-68
121
40
63
5
45
-43
-45
-98
91
-11
-19
-25
-35
-53
-80
-84
-124
-77
89
4
30
30
99
28
12
13
-40
-67
27
-66
-109
-54
-13
69
29
121
-111
69
-124
114
50
-86
112
65
14
1
-34
84
-110
10
18
97
16
-54
-42
36
-88
96
-63
97
-114
-43
-79
25
-40
57
78
-42
-70
-27
-100
26
114
55
101
39
-119
-127
86
3
78
96
117
-118
121
-93
4
-1
-72
92
-76
-77
17
53
-37
105
-37
-63
-11
12
-127
0
4
78
-30
51
118
-124
119
89
-85
5
8
65
-103
-64
97
-28
-38
120
-82
-119
102
95
-15
-22
-109
51
73
-76
112
-95
47
120
-2
-82
-22
101
-78
31
-52
-127
9
-3
87
76
-118
-110
-109
-91
-8
105
102
9
102
82
85
69
50
99
109
-91
46
-124
101
93
43
45
-75
94
108
13
62
-51
-87
-69
-92
108
-33
95
64
-24
59
59
82
-8
-51
112
-59
41
98
-96
-1
-16
-33
81
-16
39
-9
-66
64
-102
67
-23
40
-20
27
-95
117
70
118
-97
26
9
-89
-69
-21
-55
-13
18
-39
41
-83
-42
105
-56
-54
-121
-123
-54
-43
-24
52
49
-47
36
-83
-50
35
-106
50
-55
83
48
-124
-45
-7
24
35
84
35
109
91
-2
-73
50
-42
-41
65
45
72
74
94
66
11
-86
-40
-9
-17
13
-123
100
28
-60
86
55
81
93
-104
-20
-76
-19
-14
112
-56
-41
67
47
51
51
-56
-23
-83
91
63
20
27
-108
20
-78
60
82
4
-77
-67
121
117
109
-9
-94
121
26
92
107
-91
5
51
88
-109
61
-66
102
25
-122
87
53
-118
-51
-83
-2
102
14
-94
-37
126
-35
66
75
-99
87
-37
-63
56
100
-42
11
-48
32
-72
19
-37
46
98
-88
91
-9
80
48
41
-43
-36
-114
-63
-115
52
-35
74
114
105
92
-74
106
55
73
104
-96
31
-57
113
-25
29
86
90
115
-92
23
-78
94
41
-76
10
51
107
19
-128
-62
106
36
-90
-52
96
-51
30
4
-55
14
-13
62
-71
-128
-43
-126
-48
1
72
-66
-125
62
-127
-25
-121
-113
-52
-83
12
113
-2
57
-2
74
-21
-120
-111
-89
-53
13
41
95
-96
-57
92
107
117
-81
-128
-116
-8
86
93
-102
-93
-50
-116
-12
-91
8
-52
-124
-35
93
31
-103
22
90
75
27
-80
82
84
14
-30
-104
-101
9
-106
-57
-87
122
-87
-102
8
-10
-30
121
32
-21
-102
31
125
-105
-23
114
77
-12
-20
-73
-3
105
65
-47
101
85
72
-116
-39
-103
-77
125
111
87
95
100
51
15
-89
48
-110
-16
-99
-32
114
69
-87
-73
13
-6
60
17
-46
123
-110
-82
66
-127
108
49
-2
-81
-120
75
-28
-115
47
79
70
-16
87
-76
-46
98
25
-108
46
44
34
-73
77
113
74
-9
51
110
-14
76
27
45
-123
-23
-11
-102
-127
-32
21
73
-81
20
8
59
-118
92
-16
124
13
122
-116
42
104
-68
92
77
-102
118
9
-41
-79
31
73
-120
-65
-41
-57
27
21
24
-83
98
40
41
-114
-119
-34
32
-62
-95
-50
-105
-128
14
-128
56
83
51
57
-25
-16
102
-46
-99
-47
26
87
-57
-23
102
-80
-74
98
68
-106
86
-114
-32
-125
-98
-12
-57
-7
-48
69
-13
-101
-15
52
-77
19
-71
-30
-4
33
-87
-13
1
7
115
-32
20
-77
-112
34
55
22
-120
85
-53
-86
-14
-34
-71
-78
-66
81
-2
95
45
-86
-13
-102
26
-110
27
-97
-22
32
5
-84
24
-73
96
27
-79
-79
-50
3
61
120
-117
51
-94
-9
-33
125
124
9
-43
-25
79
92
91
-87
19
73
-51
13
94
-18
-9
-35
32
-114
-44
-40
120
-112
85
-99
-87
-72
76
4
-86
81
-76
-72
34
29
109
-79
-19
-72
64
77
-44
24
90
-58
-108
33
57
47
92
114
16
25
124
-117
-21
41
13
4
-14
43
-126
-75
-107
124
-122
4
104
-59
35
34
-15
51
31
26
-120
99
33
-62
-88
76
-107
64
71
-124
75
-89
-24
14
-37
98
-55
-52
-73
71
121
-15
-20
-20
88
-26
-32
90
-62
95
123
-32
-45
-26
5
-12
56
-36
102
70
25
12
4
-63
-66
-68
-62
-118
-85
-57
-108
69
-30
96
92
2
-24
74
96
90
-51
37
-8
72
-115
-54
-43
-41
20
45
-42
-105
-105
4
-24
107
-123
-33
-103
48
-108
-30
-105
-64
-100
122
122
28
85
-44
-38
59
-90
55
-122
98
-72
-39
-78
108
4
-52
88
60
-100
-38
12
16
30
56
82
0
-47
21
-60
109
50
85
13
70
89
20
-95
-127
-91
15
-49
30
-9
117
18
-57
96
-106
-9
-61
82
-31
73
-82
0
53
-126
-78
-124
5
-115
59
-127
-118
109
83
10
-121
113
110
-60
76
63
-96
80
-52
113
82
101
29
-90
-64
109
54
120
-48
-50
-28
108
-109
102
37
30
-37
-35
76
-83
-60
32
117
112
-107
-44
-97
27
-21
120
65
-83
24
-84
-126
65
-120
-2
-4
-80
-25
58
77
-75
67
-86
-13
27
66
-95
-31
80
-73
-5
-12
-62
30
-55
23
-128
-43
44
42
-88
59
106
16
66
64
107
124
77
-91
-120
-100
-71
-10
111
-52
-82
-40
22
28
2
-122
118
117
106
-100
-127
-108
65
-41
-115
112
7
-51
45
19
-75
-15
46
-119
8
-29
-90
-36
6
-8
111
121
17
15
66
-31
112
119
28
-122
106
-107
22
-22
-106
33
108
-94
-12
16
58
115
32
-120
44
-40
-75
-71
35
-27
27
-44
35
-97
-57
-93
-32
-99
-61
-103
-5
-10
-118
78
84
-91
24
22
-76
-41
65
-38
-60
41
35
32
7
-27
118
-107
20
-93
89
-111
62
126
22
-92
115
43
-53
6
100
-98
-120
-38
122
38
69
126
-30
-85
-32
15
28
96
-107
-13
13
-27
13
2
-103
-109
91
113
-72
-16
-78
89
-58
-60
46
65
-101
-48
-6
-101
20
87
-56
47
118
-36
-63
-13
-48
74
-4
-128
37
-112
126
50
107
-8
-111
-17
6
-50
24
26
86
-88
124
44
125
119
-35
-104
-12
79
72
77
-7
31
83
69
-70
-127
81
-127
-4
100
-19
-19
-101
71
9
18
-118
27
22
109
-21
23
34
106
-83
39
-5
-19
11
-33
34
10
-33
99
-81
-26
98
74
5
-21
98
-87
-79
-71
110
-17
-76
60
71
-126
44
19
-59
-70
23
-74
-121
-85
20
-67
-71
-29
1
-72
105
-3
71
-36
3
60
59
-101
-49
-42
79
-95
116
-31
-87
35
83
80
7
69
62
60
-113
6
-8
-29
23
-104
-118
-72
102
93
-105
70
1
19
41
-61
-98
29
24
-13
-54
-21
-22
-89
-63
-34
-99
-106
-87
-47
123
-120
-83
-63
-77
42
-25
31
72
-126
-91
-17
-115
-19
-56
44
15
-39
-110
43
-10
-32
21
121
12
-8
-40
86
36
120
19
-68
-6
-126
-120
56
126
125
49
98
-60
-102
21
-103
-99
-38
75
54
61
-126
-107
76
-64
-44
115
-29
-121
-42
-87
88
-4
71
10
65
-74
-117
15
89
-91
93
-75
19
95
-20
64
-105
3
-12
113
-22
-10
39
-37
118
94
-124
64
-10
-53
83
-120
-111
-54
-21
30
42
111
64
54
-79
-23
-79
120
-61
-12
-20
19
-74
90
97
11
-2
-61
114
-92
-119
-98
-107
37
-88
-106
43
70
75
-70
17
-90
-49
124
79
-7
52
-21
77
-88
1
80
35
-90
-78
-68
90
-51
-80
-4
12
110
-44
-58
43
54
60
-97
23
36
85
7
-84
78
96
78
105
-62
66
33
-91
-128
23
-39
59
-27
-116
92
-7
-82
45
-115
115
64
16
-117
-103
55
87
64
-124
31
-47
-17
76
89
-68
107
80
33
45
-62
106
-58
-18
84
71
-58
-39
90
-82
65
-128
27
30
-4
41
-90
34
21
-11
92
-1
37
-115
84
-1
-84
12
46
112
-65
-23
-16
61
89
-118
79
125
66
-37
2
77
-32
-74
104
56
41
79
-26
123
-101
-86
-10
-63
-88
3
102
-26
27
-70
-110
79
-103
-21
-60
90
-97
78
26
12
-93
1
-125
79
-37
117
-109
118
-56
13
54
62
89
93
-52
52
-21
113
70
21
1
35
-79
124
14
0
-67
8
92
-26
39
89
58
94
-47
1
121
24
3
-93
-37
76
81
27
42
78
-57
-16
53
-47
-16
-110
-69
23
43
-4
-101
83
73
-38
111
-28
-59
-110
-52
98
89
-1
32
-123
48
115
-91
45
25
-13
28
81
-79
-81
79
-103
-79
69
122
40
54
94
102
-36
47
-10
-105
-107
-14
-56
-46
123
14
-48
-69
65
-65
-121
-77
-72
-89
-17
4
-125
92
33
-107
24
-19
11
58
32
126
73
36
-3
-14
-103
38
-65
51
13
72
-126
85
-69
20
23
-29
-35
-19
-126
-56
22
87
-90
-26
-21
-72
-107
-122
34
15
-15
-103
-86
3
-87
-79
102
-87
-62
-48
-32
6
-115
24
-28
-73
-72
39
108
17
113
38
12
-61
50
-78
-74
-23
-85
-20
-106
-30
-73
54
73
-127
-80
9
-51
100
-118
115
-14
-101
-103
72
-25
65
-106
7
-48
-35
-4
-91
-39
45
82
-92
0
83
-105
-7
64
-96
-37
21
-52
103
-102
-52
6
-43
-109
-127
51
-110
-16
91
-109
-38
-91
93
-72
-113
98
42
-37
5
-113
30
16
108
57
-21
-1
36
-18
81
-82
126
91
-99
41
92
64
-98
54
-96
-58
-7
-44
100
92
126
-93
-24
-24
-35
72
-56
-54
-42
101
-8
-50
-125
-71
-15
88
-47
65
28
37
75
-55
6
-19
-30
111
34
-105
-89
88
-96
-57
5
-90
-71
-27
116
70
122
-29
-43
118
-92
92
-53
24
106
-79
56
59
-84
-127
-23
-121
-69
21
-72
117
-100
-108
39
6
54
-114
8
-57
65
-32
-119
32
20
21
-125
-32
-125
-66
122
81
-30
40
12
94
-73
9
-98
112
38
-127
-30
-4
97
95
-57
65
-120
-57
-55
114
27
-71
121
-95
47
-108
-28
123
81
99
28
-39
4
-45
110
74
29
-103
-32
-1
125
22
79
-71
-63
-97
51
12
-75
-6
-24
72
-106
-23
-98
-24
-97
-90
-119
58
-63
-97
102
-15
109
-90
-114
115
-69
1
-22
0
24
84
-27
-34
117
-58
53
-9
-15
-64
93
104
41
-67
59
-65
-19
-72
-25
10
108
-40
77
-45
-56
44
85
76
44
-111
53
-116
-10
-111
-88
-114
57
76
-103
-33
-73
-89
-110
35
110
74
73
-66
120
-64
-118
59
43
-117
95
-50
28
-6
-28
118
-66
-7
-111
-100
52
101
-58
120
4
-60
-113
21
47
-74
17
-8
45
-53
89
80
44
38
-97
60
17
-92
41
-70
110
103
84
-2
52
-124
-115
-41
125
-62
-55
-95
-20
-57
-12
96
-95
-88
-21
-36
31
-94
57
-24
26
2
11
86
-49
-89
59
-86
61
31
13
59
-95
120
-21
-83
27
43
-74
78
54
-3
99
-32
-28
35
-60
75
112
107
28
69
7
31
-121
-10
-54
-46
-73
-126
-106
29
38
-18
-124
-14
-61
115
-39
-31
111
-40
88
-24
100
-109
-28
123
5
83
-79
12
62
-124
53
-80
-103
106
-74
11
-56
88
-11
113
90
-35
8
-83
32
-122
-60
-35
116
-42
-26
29
-50
-117
-20
79
-42
69
-49
60
103
-10
-31
-54
10
66
23
-115
122
-94
89
-6
-119
-125
57
53
85
-10
118
5
-63
-49
34
-39
-7
37
12
-2
97
-102
-92
125
59
-52
-100
8
-108
52
124
109
85
17
79
10
67
-53
3
120
48
87
-40
-126
-100
17
39
-106
9
121
50
-5
34
4
72
-47
19
-87
-3
-60
-24
105
120
82
114
81
-67
-13
-67
0
71
-1
-13
-89
45
123
-101
29
106
-19
-111
36
11
92
88
-68
-17
-62
49
63
-58
-54
-45
-38
-55
59
107
30
-61
23
29
48
13
77
-127
-13
2
-28
-48
-103
6
19
39
54
61
-79
109
-58
4
-82
9
13
91
-117
-122
89
-77
54
-122
-69
-115
21
23
52
-66
114
116
-3
-111
125
-128
38
-18
-24
-101
-54
-81
-26
7
-9
15
-66
117
-124
-69
108
-39
-14
67
-104
-37
-106
-84
-119
-104
49
-40
-50
74
-43
9
-54
101
-32
-31
-7
88
114
90
-18
59
-109
83
-58
-56
55
65
29
-35
63
-71
-82
15
-64
-58
19
34
-28
112
-74
-89
121
-49
10
-57
-82
-72
87
-40
-69
-103
-35
65
-12
-116
-72
-64
114
-112
-128
-58
-84
65
-107
2
-115
-42
21
87
115
6
-106
109
55
97
-4
-71
-121
31
-62
-117
-88
57
24
120
26
90
28
10
13
79
-22
-74
-114
-69
-41
22
-103
44
-18
-84
-38
-78
-66
-81
-95
-109
-16
-122
125
-96
-59
60
-103
49
-30
73
44
71
101
115
73
99
-74
95
0
-63
64
11
-82
76
-93
25
100
-108
-66
34
3
71
112
97
-49
51
-50
-109
45
84
23
-51
70
-61
-27
-45
-16
84
-20
36
-48
-13
22
97
33
10
-64
123
-119
60
124
-128
120
-26
-113
84
-11
94
88
-106
-49
118
-87
83
79
-25
-35
-64
11
68
115
-120
-118
32
-38
95
122
-119
22
-20
15
-110
115
-27
-87
52
94
43
-78
-87
121
51
-100
38
61
124
-56
95
-60
107
17
73
101
-115
7
100
-41
112
40
125
27
78
54
-34
-1
-114
57
83
106
-79
52
70
-57
126
-49
102
79
82
9
69
-60
32
4
-57
93
84
74
-61
99
81
11
-19
-109
124
-44
62
12
-110
-106
123
-6
-10
37
90
-47
79
-122
-103
-89
52
-119
47
-100
111
20
-32
6
122
101
75
-109
7
3
-109
-18
-18
122
115
52
-126
-122
-64
25
110
-46
76
-17
-52
28
98
-76
34
-91
-125
-121
-22
122
-34
-53
-15
90
-83
21
38
-66
112
123
17
13
0
39
32
-15
-128
98
-112
83
118
126
-67
43
21
-119
-102
-40
108
121
-51
-94
-39
4
89
26
22
1
124
64
-94
63
39
-38
-25
-42
98
117
-92
-27
-96
14
124
84
126
-128
-109
-4
29
-14
-38
1
-3
-101
-39
4
-4
-74
-58
66
-85
2
-115
-65
14
-26
69
21
109
100
73
11
32
-58
-56
86
-60
90
33
26
-53
119
99
17
84
-64
-47
21
35
-12
-28
-117
-91
-91
-51
-17
-18
67
-86
106
-27
71
-60
-10
-99
-126
-75
72
51
40
83
-73
82
-2
32
1
-75
58
27
-66
-43
-61
-70
-48
97
-63
-9
43
72
30
124
-31
-26
15
58
-91
-28
-121
19
32
28
38
47
-117
9
-23
-53
-60
48
-15
-105
-6
-1
-32
65
25
-16
83
79
-128
4
25
-7
79
-25
-63
9
61
-128
40
38
51
10
41
108
28
-22
-52
21
48
87
32
69
-84
-84
-39
83
23
57
-52
-90
-81
-16
-128
32
102
-49
96
-66
-40
101
98
-94
104
-91
-55
49
31
41
29
96
-4
91
-42
-87
21
-109
13
46
-108
24
-24
-7
15
74
44
-95
-6
-43
72
-90
-107
-7
-61
97
116
85
78
-103
36
-49
87
-86
109
-104
-38
18
-92
-35
-16
20
3
47
60
-9
-48
-73
-67
95
-100
-85
28
-122
-8
-78
-2
-74
-101
45
-114
92
-110
52
65
67
80
92
110
105
104
13
41
-111
-90
95
-119
117
31
23
67
28
-89
10
-1
-30
-4
105
-80
-96
111
104
-121
11
9
-55
-36
39
-76
-104
55
117
-15
54
-98
-4
9
35
-53
95
-105
-46
37
-73
-46
-51
53
-93
46
-89
3
-90
-7
102
-109
123
116
-102
3
22
74
28
84
-33
7
116
-12
-45
122
-48
-119
41
106
60
-128
-58
-76
-52
8
-102
-68
119
-61
121
-103
67
-39
-106
107
51
99
-72
111
89
-26
57
44
-94
-8
-51
-73
-95
-72
-121
-44
-73
30
-16
-94
-36
34
82
48
-109
-9
-51
-81
-80
-86
-96
-104
-36
-110
21
-99
86
14
27
117
-78
-49
-39
16
119
-127
-35
51
10
5
73
77
19
56
-116
-56
-8
27
57
59
-34
100
-16
-108
-76
68
87
-95
-34
106
100
-122
-111
120
-86
99
19
74
-81
-23
83
-81
-107
20
-83
85
-117
-122
-121
-70
109
-81
66
-71
115
42
80
-46
52
72
-85
59
-87
-69
-125
99
-19
-108
108
79
124
88
6
109
-116
81
-27
-109
-86
-47
17
71
40
-48
-40
-17
-44
-87
-78
-65
107
-9
-78
-42
34
122
-53
-66
-76
-116
63
58
-18
-107
-115
-32
-72
-108
126
-113
-115
-52
99
113
-92
92
58
-83
-34
-91
122
13
120
-128
-121
-122
75
112
-38
-20
27
-127
40
-69
-116
-99
110
16
-55
2
-102
118
108
-125
15
-74
-25
-80
52
-90
-21
-64
-63
-29
-92
107
-98
-61
-100
-106
117
45
-80
-47
-18
-24
-73
-103
-81
-68
123
29
32
94
79
-48
47
-26
-58
95
117
-16
24
4
23
-107
-96
-114
120
61
-48
-43
-65
-94
38
60
48
-95
-59
23
30
12
-41
84
-66
-25
-38
88
39
-33
-60
-8
-78
-125
90
-14
-79
85
55
126
-105
44
20
-69
8
83
50
-23
-44
46
15
5
-45
-77
-18
102
-92
-44
96
-54
-31
-35
120
-11
-111
43
41
79
-8
2
114
108
111
61
12
0
25
-3
68
-83
-69
37
-71
15
-111
89
67
-43
59
90
-94
90
-96
-101
84
-40
115
-9
105
95
88
60
91
-38
39
-43
3
105
-70
-22
93
-73
-96
-90
9
96
-41
-57
44
98
-66
69
-88
33
-66
-24
21
121
-119
75
-27
101
67
-39
-70
-23
21
-94
-48
109
73
92
-124
58
-106
-30
-15
54
-31
8
-76
48
43
14
108
-84
8
-108
-27
-95
42
-46
-81
-36
-59
-50
-91
100
-105
-121
-114
10
71
25
39
-96
-126
-67
-127
35
-22
20
-45
-43
-102
-105
99
96
-37
-97
-83
-101
-105
50
72
-115
74
-57
-46
61
-6
-60
-125
57
-127
44
-65
62
-95
1
110
32
-6
125
-107
1
-87
-20
104
-52
109
3
47
6
0
103
-70
20
0
-61
-9
-94
8
-42
-54
-119
120
-17
0
-61
-33
-58
-104
110
-54
38
-13
22
55
-85
-73
1
-69
-73
-82
-103
49
-61
107
-70
64
-31
75
-18
-92
40
-38
120
-17
-41
-6
-12
56
-49
-79
-46
124
16
105
-17
49
-44
125
-10
93
52
82
92
-91
77
84
65
-66
25
100
126
-3
-11
-120
-67
-54
-60
-36
-123
-9
-65
-93
93
95
-37
105
123
79
-33
94
-58
69
-126
-126
108
-23
89
63
51
-116
72
-91
52
-110
53
-75
-49
-34
-78
123
-49
-75
-51
-128
-51
91
0
119
-124
68
-21
32
-102
-27
24
98
19
-87
-37
114
-25
-105
-50
33
-87
38
-17
19
38
87
-92
-90
18
105
83
76
111
-62
-119
103
-105
110
-71
-56
72
21
-117
89
-51
15
2
-84
-106
33
-20
-106
2
-100
8
-58
-66
-126
-17
-63
-122
61
-7
-79
25
-117
99
-38
-29
11
126
0
-73
-76
-81
-47
-84
-3
12
79
-106
56
7
-68
40
13
110
-85
-21
7
65
8
66
-98
76
-124
41
62
-78
22
99
110
18
-6
117
-58
-28
-6
-23
-119
53
38
-83
-114
96
-125
-15
-119
91
75
-53
5
-45
-6
-29
-52
14
122
64
40
70
73
-58
-38
122
-60
41
-47
112
-28
55
93
-47
-37
-67
-84
108
-78
54
87
18
93
77
22
18
109
-116
101
-56
-19
-97
94
119
86
76
-42
-12
33
-37
46
66
68
-7
-87
20
32
84
-50
84
-84
49
78
38
-92
-81
-20
89
-81
-125
-4
-86
-3
73
-41
-58
109
-110
-108
0
-73
-2
-28
-3
-72
-49
-48
-9
-92
-44
-24
-125
13
67
6
-37
116
126
59
94
45
-60
16
2
61
-6
41
-15
-109
110
-111
19
54
-25
37
57
12
104
17
-92
94
23
-23
-6
-51
-75
-97
-109
-43
101
64
-30
-105
-58
81
-89
-70
116
57
-91
21
21
-47
69
-89
-103
91
1
41
3
-114
-25
-104
44
-98
24
-94
-56
100
25
-31
-19
-81
36
-57
-11
-25
126
84
-116
66
74
80
16
-78
105
10
-20
-122
-4
43
108
114
-66
-49
-85
91
6
-31
-45
-110
-96
103
-67
64
-89
1
-108
110
-81
39
-74
48
63
101
55
96
123
-1
-6
89
44
93
69
-21
27
114
-98
-127
-108
-77
-31
-59
-2
60
-86
25
-6
73
-64
-2
-35
-85
54
53
39
106
-62
58
-11
-38
-33
106
-44
28
8
105
25
-71
-78
43
109
112
63
14
-61
-109
-22
-41
36
-87
30
-101
90
-30
-93
-77
78
107
-49
69
110
42
106
108
126
-123
-77
34
102
-119
19
-83
-25
-10
-94
-46
124
84
80
118
-81
-115
3
-27
63
111
-110
-78
-98
16
41
-1
51
117
73
-66
59
-102
14
-58
25
-117
123
-55
28
50
102
-126
-83
124
34
22
28
87
-115
-23
-107
-53
-58
30
40
40
18
88
114
-46
-47
-21
8
115
-43
-66
-58
18
-67
0
-42
70
78
-35
-45
121
116
-100
-128
-88
114
34
100
61
117
-110
-79
107
5
-9
-116
43
65
114
-53
8
-72
-15
2
-120
103
101
-51
-54
68
30
-112
7
-9
4
46
109
-40
26
-120
-56
88
-100
-102
-98
-27
-10
103
101
27
42
99
-57
29
100
-41
-101
-21
-64
-74
1
111
-108
104
-30
45
75
36
-45
-114
98
115
102
-17
77
120
-81
103
-31
6
78
113
38
126
2
55
-54
-104
7
2
51
3
82
-74
-34
-121
77
72
115
-108
-85
82
21
1
15
-53
-49
-75
76
20
-47
-44
-105
83
-34
-17
-93
75
-16
-113
33
-34
113
24
124
20
-101
59
-95
121
-8
37
22
109
-62
-89
79
-121
-1
23
105
32
-24
10
-60
105
-81
105
-36
30
-84
65
-22
-92
71
114
72
-2
104
-85
-25
-50
3
119
120
87
46
-92
-96
13
-59
105
123
-55
59
105
-45
98
-124
64
77
68
81
-70
-66
-56
116
-89
-52
-60
5
57
20
67
-63
-70
102
26
-33
21
60
40
-96
39
67
-78
53
26
114
106
-121
-33
53
-113
36
53
16
89
85
-55
-105
39
41
51
45
-3
12
-89
-79
-25
-6
36
-96
-49
41
100
60
-92
-52
-105
-37
-85
45
-114
33
-97
-20
-77
-99
-71
33
-71
-69
85
2
116
8
-78
13
-71
96
1
31
-87
-113
-30
-7
-71
-57
18
-48
-47
-92
-62
-78
76
23
-19
-63
40
-86
14
41
-86
-36
2
-75
104
-123
37
-88
54
18
16
85
59
51
12
24
100
-38
-32
-80
17
-32
-97
-48
72
-105
-125
41
52
84
54
-121
79
30
-81
-84
90
-80
-6
68
-122
-26
-1
124
-112
-95
61
-66
-24
115
-72
-10
106
96
109
96
7
-1
38
-122
92
75
64
-3
123
96
86
125
1
83
-124
74
25
-25
-92
64
-123
107
-70
-90
-57
-83
-52
29
-117
57
-124
123
-58
57
116
29
11
-18
11
45
3
50
-70
-81
-45
17
77
21
-83
28
84
16
-111
76
-77
-83
-127
-113
74
107
88
-3
-75
36
-82
100
-93
-66
54
-97
-70
98
39
-13
8
-61
100
-116
-48
-103
-69
-19
46
16
47
43
-39
117
-25
98
5
59
97
44
105
2
-65
-93
59
112
57
-123
58
-73
-65
-103
76
88
-14
124
-93
49
-57
-102
83
58
-90
120
-32
-44
32
7
33
47
37
-104
59
100
-4
84
98
-59
79
-24
-41
-82
-81
27
-91
92
-38
-11
1
60
-65
-124
-34
53
-82
-112
-1
-33
40
-30
-57
12
78
89
-31
60
-42
22
-122
7
-114
-108
120
-36
-9
-24
-45
7
64
110
-87
-106
67
-68
21
-45
-54
84
-32
32
-29
-93
-99
-55
-26
-42
86
-51
31
102
-112
-93
89
117
108
-118
-17
4
16
24
51
-31
-66
-79
-106
47
67
1
113
-63
34
-122
-77
-125
95
-97
-69
117
80
-117
-17
94
-98
-12
-43
12
-50
100
83
-72
-38
-118
48
25
-17
-77
-66
-52
56
113
65
116
115
-83
6
123
87
15
-86
14
29
113
105
-108
124
120
-116
-84
-126
-13
-90
-76
71
111
35
-34
-15
65
-109
109
76
1
2
-86
-38
-75
-104
111
-92
-110
-64
-1
-52
-112
-109
-115
28
-28
16
-7
101
-64
-63
92
11
-25
-32
-52
122
-124
-77
-57
5
-37
53
-120
-117
100
32
102
52
126
-82
8
95
107
-40
97
111
-81
59
13
114
-24
15
-120
-16
75
-57
-78
100
69
-21
75
1
-121
-8
-12
-42
-97
-112
71
-86
77
94
-119
-123
-106
122
-93
-59
-14
101
-3
122
102
-105
80
110
94
-43
54
123
-22
64
2
24
23
-73
-126
54
125
-28
-83
-69
-108
-110
38
-120
105
55
99
112
96
0
-12
56
-30
49
-28
121
-74
-94
-4
-106
97
-100
-115
-55
-23
-17
119
124
-25
47
-126
43
26
15
-12
-2
-73
6
16
-119
-96
-84
-100
40
79
-118
-49
12
72
-42
29
-93
8
41
112
18
122
46
15
25
11
-45
-106
-123
-111
-16
87
40
9
65
77
-20
88
-126
2
72
-80
-111
59
-120
-15
123
-63
72
87
102
71
-114
86
-108
-32
81
21
-100
-3
17
-84
-75
-94
114
-85
-114
-37
124
-60
106
-11
-108
-20
-41
71
-73
109
-111
-93
103
-83
46
111
40
-64
114
-28
10
62
106
29
-1
-71
21
-1
98
68
-94
26
118
74
-8
-96
68
-4
-99
67
-25
49
-94
-124
36
71
-64
-98
-54
24
-120
66
-90
122
95
-100
-119
-120
-22
-49
-11
-128
113
13
-25
-92
-27
84
27
-44
-76
-27
-113
79
28
102
35
-21
-13
56
51
95
-109
106
30
71
75
33
2
4
4
122
104
37
9
-84
-81
104
124
19
-90
47
-63
54
84
-31
35
91
5
-58
-52
-37
112
108
-1
-40
-29
112
39
-117
47
-40
8
-36
-92
45
49
118
-119
24
-71
86
-123
111
-14
-47
-67
-96
-52
31
-125
19
93
-94
65
51
-54
72
-76
-56
80
77
-87
95
118
-106
-3
83
63
-15
60
-79
-64
88
-111
16
-118
-123
-127
-73
-105
-61
-101
-10
75
122
110
-48
-88
63
-56
61
62
125
-111
-11
-52
-111
-25
100
120
12
70
21
51
90
58
120
92
48
-74
1
54
16
20
-100
34
34
88
121
-1
-97
15
36
-34
-59
-34
-52
55
67
30
-14
-127
122
0
-107
75
-27
-113
-107
0
49
9
-78
17
-43
82
115
-105
4
-56
113
89
52
23
-7
89
8
73
-122
66
31
-56
84
15
-127
-39
-81
-38
-24
76
35
-68
34
-51
-5
-92
24
-37
-104
97
8
9
50
-63
-48
-56
124
-23
65
-14
3
-53
-43
-18
-54
-9
115
117
-108
8
50
-74
-88
-93
-75
-21
34
55
-15
112
24
118
32
1
69
-18
-127
125
-80
-70
3
-63
-75
74
-29
40
-60
17
37
82
28
-78
14
39
16
99
-123
-96
-35
-108
91
-23
-124
15
121
91
-81
-74
97
-102
53
100
-31
27
-119
91
11
19
-91
45
48
-17
-97
60
-61
91
-75
99
-39
-30
-56
-119
99
-125
-24
40
-30
-24
99
-56
122
34
17
-124
85
18
-111
-87
-98
117
-119
-111
74
43
119
20
74
-60
-98
-2
-4
5
23
55
-128
25
-12
69
-92
83
-89
75
95
-48
49
-84
15
51
-47
-65
67
79
-113
-63
46
-19
-27
-88
123
126
-67
-106
-62
-90
22
-9
90
50
-65
29
-106
-91
77
-73
-21
-97
66
-5
36
107
62
24
-23
-113
44
-41
-44
-117
35
37
-67
-98
100
123
72
-55
-106
15
-113
109
111
86
80
-128
76
89
-101
-33
-74
-40
62
58
47
75
-126
59
-120
93
-108
-112
13
74
36
33
-122
63
-61
16
-100
-123
-59
-65
-113
51
17
-21
93
49
40
-96
-16
-99
-89
105
-126
-121
-126
-79
-123
118
100
32
-120
12
109
-51
-114
-104
12
59
-12
113
-2
-113
19
19
74
71
122
-33
-65
4
-13
-101
31
-46
21
37
69
-91
-19
-58
94
-119
25
66
-125
35
-24
90
67
125
37
107
-25
122
4
87
-29
124
-21
93
40
-94
93
-41
126
-88
98
-126
6
-77
27
-48
-43
62
-46
67
93
-15
-105
-90
-34
-50
120
8
-98
-112
-27
-72
-94
114
-8
-20
-100
81
-102
-9
49
124
72
-28
-108
-113
-30
-125
-34
-90
-118
-26
28
58
126
-6
-63
70
-69
21
52
-118
75
-19
102
100
-32
31
-109
100
121
32
102
56
-85
-22
31
-56
116
-82
-112
86
-86
-107
-5
54
23
107
102
85
-80
-90
35
-26
-95
-71
-57
99
-39
19
-72
-64
90
62
-51
3
50
26
97
-97
-110
-53
61
-52
-58
111
76
37
-2
-56
-8
-4
121
125
95
-20
-115
124
34
-128
79
35
-22
40
32
-108
-64
-87
-120
1
-97
-58
76
-25
-92
-117
64
-99
77
-78
-13
-35
-93
-60
-24
-128
-106
-118
-78
77
-30
21
27
-65
-16
-15
59
-110
-60
66
101
21
66
-7
49
-104
30
-93
-24
53
42
100
110
-100
68
22
-13
-14
-124
-101
-118
-14
100
-126
-35
-71
-47
-22
-27
-123
104
23
104
-24
3
-89
65
-64
-43
-54
-99
114
-124
-127
68
51
10
90
61
86
38
-124
113
-61
-55
44
-56
77
74
111
67
-23
-59
70
-110
49
103
122
-18
-95
-111
-102
46
-35
71
33
1
77
-4
58
-64
0
12
48
-122
0
-107
-22
-89
15
-25
16
1
-72
70
3
-51
-74
2
-58
108
89
-98
-113
119
40
-29
2
-110
108
110
-58
99
5
72
-115
-50
44
-11
-96
-4
72
45
-115
53
-123
105
-114
12
-123
-53
47
101
-68
125
94
-25
-65
97
22
-21
-126
-92
-73
61
-87
103
31
-40
-3
-113
-105
-101
105
111
85
105
120
12
105
87
60
-116
-111
-3
32
62
-82
-30
-15
88
-51
-83
93
-34
-5
-11
-90
108
-100
125
62
-33
-79
32
-41
-7
-33
17
98
-85
99
15
125
21
-121
86
-70
8
-55
-38
118
94
79
62
38
-37
103
43
57
-107
126
26
-93
110
12
122
35
-114
76
107
117
34
-41
28
82
3
-79
52
-4
-110
64
-61
-111
82
-5
113
53
116
-17
8
62
-85
81
-40
-67
-79
104
-28
101
35
38
-18
-76
111
107
-94
87
82
30
18
-107
-95
81
-125
91
-30
-91
40
8
110
38
72
55
-3
124
-53
-116
109
-94
-49
5
34
109
-68
97
-33
43
96
-93
-52
81
-2
-91
9
79
4
-5
-106
-113
72
-24
-79
-20
-114
70
40
-110
110
-70
-124
59
37
-112
101
-10
-106
78
-76
32
22
67
109
-59
86
19
-117
47
-19
-52
-47
-59
58
-66
62
0
-6
43
-71
-2
106
-23
13
-28
-63
13
-64
-51
-80
16
-69
50
-120
23
-126
114
-103
-93
-3
3
68
7
-101
-10
68
74
35
-71
-96
12
60
60
106
-116
35
53
104
46
-61
-25
15
-70
-29
-70
-79
94
-25
25
-25
-6
61
13
-91
-111
-72
-104
67
-80
86
100
-12
-41
-11
6
43
15
-109
31
115
-62
-99
-2
42
8
-14
33
-102
-25
-94
-47
55
126
-35
-36
80
94
-22
47
31
-43
110
90
43
-19
-35
-15
44
52
-77
-51
58
62
66
-83
-6
72
13
-6
-69
55
43
0
26
-50
-105
111
-110
-65
103
-102
1
-87
-94
16
100
-49
119
36
-122
-92
-74
-59
58
94
123
-46
-124
24
-110
57
42
72
39
-30
-36
-101
83
102
-15
47
1
-2
4
24
-59
-36
83
95
78
52
52
-110
105
-18
-104
85
-32
-69
-115
-16
-24
52
-62
-104
-97
-48
-59
38
-113
-82
-128
-37
-63
61
31
-117
-9
-47
8
-43
47
-95
-41
-63
27
-122
31
-23
-26
4
122
-100
66
3
99
115
-20
-106
-95
-106
13
113
-25
-82
70
0
107
20
65
7
-25
-120
-40
-113
-27
-29
70
38
-73
-120
-12
20
36
106
66
-3
6
-4
48
-41
82
17
-46
-97
-71
111
98
-98
81
72
-96
114
51
-127
-112
-73
103
13
-49
-123
-55
-122
96
-73
-56
-118
-105
21
23
-11
-83
52
42
-91
70
-46
105
72
73
-60
61
0
68
74
-4
-124
123
-48
8
-74
-108
86
12
-39
22
-52
98
93
5
-124
81
107
-60
4
-29
-107
4
106
81
86
-77
-105
18
63
65
-42
62
-54
61
64
-75
68
60
-74
-93
58
115
95
-121
1
-114
-71
53
45
55
-98
112
66
103
-31
-45
-61
79
106
-59
-16
-63
111
8
-87
65
-105
35
-95
-28
-115
-126
6
85
47
-108
29
-29
-90
118
2
2
122
106
63
-3
74
-105
90
-2
76
-21
72
-98
94
16
106
-37
-8
-15
72
-7
-9
-104
85
-26
-30
-1
80
46
110
9
-110
-7
-81
-83
-42
-98
5
-28
-87
-41
-85
55
-120
51
-90
80
25
89
123
-102
-47
-80
12
-16
9
84
-126
-113
-31
125
31
-86
-41
-80
85
80
-118
25
-100
19
-90
-18
-54
-78
-99
24
-19
84
-86
-32
7
18
88
123
-57
27
101
-39
21
-12
-126
-6
-34
-4
23
-95
44
-116
-51
21
-87
-123
-48
109
-17
-36
-26
1
-57
112
-59
-67
-42
122
6
57
-29
38
-84
51
-99
-21
46
35
113
-35
-88
28
20
45
32
-26
92
43
31
53
54
21
3
-76
71
-81
-100
-126
-3
101
121
112
-96
-47
-98
97
-79
-50
-118
25
-97
-65
-23
-89
55
115
99
-17
125
27
96
-107
28
-52
-65
90
68
15
114
116
119
-52
54
-73
1
45
-83
78
82
1
115
-66
-21
12
-64
-106
94
11
3
109
-2
22
7
-45
-24
93
74
19
-9
108
-14
7
-102
10
118
35
124
-66
35
42
8
16
-103
119
123
-61
-12
69
-92
-8
48
-23
-85
64
42
-16
-51
65
124
15
-49
11
-67
25
-15
-88
50
-100
110
14
-96
-84
-34
-22
64
-53
71
-52
-62
-128
0
-93
-57
-44
-4
16
-116
20
-54
-27
90
-95
65
-105
110
-73
5
35
41
-105
-27
-52
-127
39
57
-73
-39
80
55
-71
-11
-19
-88
-99
-83
-16
-12
101
-46
108
-116
-66
57
25
62
-13
-93
72
30
49
53
6
19
-111
50
113
-37
6
-58
-118
-108
23
47
63
58
116
-113
-26
70
-110
12
-30
8
-91
-27
56
68
64
87
54
6
57
-116
-9
38
-97
58
87
-41
-80
-39
-114
9
34
-100
99
-1
4
-44
-37
4
-26
-96
-1
102
-36
-43
60
-88
-107
-123
-34
-51
52
-47
-97
52
-14
-83
43
94
-111
60
-75
-78
-71
71
29
117
32
-91
-118
-40
32
6
-87
103
91
112
-10
11
-82
106
81
80
-4
49
19
-107
-33
-45
-39
7
42
119
-10
50
-86
-109
-126
79
-51
-21
-52
29
-106
53
35
50
117
106
68
13
-16
-18
3
44
-93
-91
-22
-111
52
-61
-68
11
-27
-21
-32
-33
29
55
65
13
54
-52
99
-69
26
31
75
-101
66
46
15
-2
91
-81
-55
32
94
113
15
3
57
-112
34
34
75
-124
22
-122
31
-71
-99
-6
-65
61
67
96
-12
-97
120
75
-126
95
-15
-110
84
53
-38
97
-60
-93
-117
-106
-75
65
39
50
26
57
-5
-41
-40
-119
69
75
-80
-15
53
-81
73
-26
62
94
114
-26
33
-126
47
66
81
-127
-99
-93
107
83
-9
-53
77
-123
-57
3
113
110
-43
-47
105
-127
77
41
109
15
-81
-30
-51
-103
-96
-6
-62
18
12
-92
-36
-54
-100
74
-62
72
3
-59
-42
-76
101
35
-34
-4
-46
-56
-48
-88
82
3
-99
-68
19
-111
29
-97
13
-117
22
24
-3
97
-27
-37
-61
39
119
11
114
125
-10
-97
-64
44
32
-24
-114
-124
72
48
54
81
-5
112
4
89
-17
-68
-16
60
48
-53
-5
-49
-83
-36
29
112
6
115
-37
116
-13
22
-28
-89
15
1
16
114
91
-22
-76
-54
71
-109
-90
114
-102
-9
-69
58
69
111
-5
7
-49
-110
126
28
76
43
-17
-68
-118
-128
35
-51
112
-43
-79
125
33
-42
89
90
79
8
51
-118
27
38
-126
114
23
-56
124
-87
-104
125
-3
-16
-72
64
-55
-121
-79
14
30
-58
-20
68
47
-95
46
86
60
60
55
-60
18
74
126
-75
-102
58
-43
45
35
-116
-71
26
24
99
-77
-53
-53
96
93
56
-77
53
104
-86
-116
110
-15
-53
-87
-11
-114
118
-77
102
120
-1
114
77
-9
56
-92
94
-44
-24
-85
54
-117
16
-128
-85
-107
-42
122
1
124
-67
-57
114
85
-62
61
59
65
-31
-64
20
124
-112
6
-66
-11
-103
42
-3
-34
103
97
1
64
18
-33
82
-104
-12
-111
41
-99
-40
31
66
-62
-49
67
114
91
78
37
-25
-123
94
69
-60
-122
110
-28
-57
32
17
107
26
-71
120
83
-34
61
123
115
118
-95
6
104
54
-100
-56
116
99
111
-99
125
8
46
-99
113
-20
22
-27
2
46
-10
36
24
94
-116
89
82
-73
39
9
-91
-39
0
16
-12
-51
10
-119
-122
92
117
-110
57
111
-62
18
-4
-80
102
-35
-14
66
-3
-64
34
34
52
126
-41
69
-64
69
79
3
2
-98
-38
-67
-26
43
-37
-28
84
8
14
-36
-108
49
60
-75
4
1
87
-86
102
121
-42
62
5
12
-74
-124
82
-103
94
-62
97
35
-114
13
13
-77
-34
-121
-93
-81
-25
120
-40
-70
-29
-19
21
-1
-77
72
124
58
49
-1
-84
113
65
-94
17
-111
-43
-79
-77
-29
-46
-55
-11
-38
74
-110
89
-16
-101
32
-112
102
-60
-58
-63
107
-4
-60
44
-20
-93
69
105
114
-38
-119
52
9
-59
84
96
-49
100
-8
58
52
-62
-2
97
100
-7
-41
115
-124
93
103
87
53
-83
21
7
-13
45
112
69
24
71
-112
-102
-93
49
73
-62
-31
-70
106
79
-73
50
-122
114
105
-54
-62
-1
31
-112
115
72
-36
106
74
-39
-51
15
-53
-111
-79
-32
-53
85
-42
-65
-97
-29
46
38
105
20
-27
1
31
-107
-118
-9
98
11
109
-50
43
58
69
-71
-24
-59
57
16
-84
34
-43
77
121
-57
-72
32
-34
-23
83
-114
20
24
2
39
126
64
25
111
-45
41
-72
-111
89
-25
-59
-6
75
-42
77
42
-75
-4
42
-4
-66
-42
109
34
117
95
126
27
-59
-23
93
9
75
-105
78
95
92
92
97
72
-90
-126
98
110
15
116
-4
99
-64
-123
-55
-95
18
-73
51
58
61
119
7
102
39
-24
-56
86
42
113
-5
-124
-68
10
15
-29
-46
114
5
-119
16
17
-62
35
113
25
-114
-82
37
-49
-69
110
-95
-36
68
107
41
-35
85
4
88
12
26
21
44
17
81
-47
-119
68
-89
-55
-17
73
-53
-56
42
-35
-73
35
94
31
74
68
73
119
111
118
67
-88
-16
-105
40
43
-98
79
-78
120
-53
114
28
1
56
-107
-10
-25
102
6
-4
-100
8
-48
-32
42
97
76
27
101
66
-5
-20
-3
-57
-56
58
-92
-52
-106
-114
-20
103
-9
6
41
-90
103
-57
-29
-33
65
41
88
-21
-17
126
76
-35
-40
-40
32
-20
81
-95
-25
63
-30
75
82
74
-83
-74
95
32
-11
-36
123
17
125
-84
9
105
-65
30
-107
-53
-20
74
1
62
45
80
-11
-83
-76
-32
55
-76
51
12
-70
10
123
-125
114
30
-125
125
-26
-14
122
13
91
-97
4
-21
-76
26
90
-8
25
-116
72
-94
102
-58
60
55
-6
99
-65
-87
101
27
0
4
-69
9
-90
-62
95
-54
94
-46
13
91
34
103
7
33
-20
126
-80
-89
-66
45
60
65
-48
49
-30
-29
-21
106
28
62
-13
77
-41
-62
-19
-6
-33
-14
38
-34
118
76
15
-25
62
-6
75
76
-72
-55
-107
72
100
-77
-23
-108
-13
-13
49
108
85
-10
17
12
82
37
71
-117
-24
-55
-74
-104
102
82
36
93
77
5
23
109
-113
30
59
34
20
6
-47
-118
124
-77
79
-38
50
-75
-84
-27
-5
18
2
113
-111
52
-115
-16
75
-63
-60
114
-114
9
-34
90
77
9
98
99
-116
-122
37
-100
-118
-25
81
-49
58
-69
-97
99
93
111
6
-120
18
120
-95
-21
37
-15
-107
-30
62
-68
86
5
122
8
-48
-34
-30
121
104
109
119
48
-109
-75
-8
8
-125
6
-60
-38
-23
46
-90
14
-85
-99
-14
94
-45
-120
-124
106
-55
-85
77
-115
-57
84
-3
-10
59
-71
21
108
-104
52
-101
-27
-44
40
-4
-26
69
-43
-49
-95
-18
-27
-8
-9
72
89
32
-67
56
-39
82
-25
-36
-43
79
19
111
-75
-59
116
-71
-112
67
0
-64
113
10
89
-108
41
103
-63
71
-94
-12
69
-81
-104
16
82
-25
101
29
-85
91
-97
105
-15
-90
108
-99
18
-74
82
31
-63
59
-102
122
-80
23
-35
25
35
97
92
74
-50
-94
-39
43
-75
-57
-30
-85
-89
-117
71
-93
11
67
-60
50
-34
-43
25
-95
7
126
-21
1
-28
-61
-2
-13
72
-70
45
-100
36
-119
-96
-62
-125
48
90
-24
20
8
-116
71
90
120
21
113
95
13
-123
-15
20
-110
22
92
-11
-49
-125
65
91
112
73
-71
-77
102
-5
-107
118
-60
-42
-110
-40
118
-26
-44
-118
100
-68
-4
-26
29
65
-113
-8
98
91
46
63
101
100
-60
-12
-42
-100
12
104
72
-14
-106
21
48
-4
76
-78
57
5
32
17
-121
45
-53
-70
64
-33
24
-5
32
-22
55
-108
-43
-61
79
-58
121
-107
73
27
-5
-76
-108
-64
-58
75
6
31
-33
-69
71
-64
-41
-20
-22
25
34
82
-59
-83
-109
-104
-24
-47
34
8
-91
126
-41
81
-65
125
-66
-99
79
-122
56
1
12
-114
115
-10
-14
54
-53
-29
91
125
109
13
-78
-31
-86
26
-121
-87
42
-115
30
-29
-2
47
-121
48
-17
-86
-60
-6
45
43
87
86
-111
-64
-19
-112
-4
-72
-49
77
-58
104
-54
4
-109
-114
-68
59
-82
-71
-120
125
-89
-126
13
-92
39
-77
14
73
-103
-122
-18
12
-103
-68
-24
-78
-84
71
116
52
45
126
-41
82
-126
-115
70
-18
50
-43
-85
7
-47
100
5
-103
46
-97
99
87
-59
64
70
76
24
-18
-103
-8
-6
-112
-105
-101
50
-101
-59
-84
-119
-30
-97
-113
-66
-73
62
-73
-33
-111
-102
-16
110
19
68
-2
-66
92
17
48
14
66
72
-32
84
4
24
43
13
28
-37
-16
-14
35
-125
-89
-35
-38
5
63
53
102
56
-21
118
21
119
106
52
-93
-63
-113
-19
38
86
-37
84
27
-16
9
71
21
-56
50
-10
-36
-115
-84
37
-109
-88
100
-52
49
-68
-102
-114
-48
12
40
101
-13
-87
39
-57
87
-4
90
56
-28
97
-109
31
18
65
8
-35
-104
-29
115
-10
107
45
-116
64
51
101
68
-54
-69
27
89
97
-63
117
25
-29
102
85
105
68
106
-91
25
70
-44
-109
-77
66
54
-75
-12
126
76
-56
101
-49
88
-13
0
-85
-42
-32
-70
-50
69
121
-82
-79
-88
26
-107
53
93
64
69
17
0
-62
67
-54
-96
-112
-107
86
-55
57
101
19
-55
96
67
54
83
-25
-67
-7
-11
104
-42
72
-22
-18
-39
-75
-87
-64
-28
58
-104
-30
-104
107
113
-19
78
-50
-66
113
-73
-48
121
-62
104
-73
-13
-60
14
-115
97
44
-3
95
-6
-14
52
-7
-114
-89
53
81
76
-18
81
27
74
-70
76
38
68
-89
52
-48
-56
91
-12
41
35
-113
-80
-39
98
30
81
114
-99
-83
-42
45
94
78
58
-82
61
-33
-73
-114
-82
-128
-46
91
100
-127
-35
-119
-89
107
-53
15
-122
-79
-109
60
-96
63
85
104
98
31
51
58
-70
84
-13
-65
95
124
-43
-110
22
106
-109
-4
37
6
-39
-108
80
-85
-107
19
91
41
115
76
-1
-64
110
-34
-70
68
8
39
46
106
-14
-125
15
100
73
-71
35
-43
-90
-122
-54
124
123
10
91
-2
54
-88
-23
55
-85
-23
87
109
-47
-5
17
-10
32
98
-81
11
-78
-85
-93
122
-51
-73
-73
-123
89
63
57
34
98
38
-15
65
112
90
38
54
96
-39
47
-120
-59
-78
-128
-22
45
43
78
32
16
-18
-52
72
101
-115
-51
-105
120
-81
-77
-40
-111
-53
98
76
7
-61
-62
36
-120
116
10
-115
120
89
50
10
-108
-82
90
-52
-4
3
-26
-72
110
-62
-93
25
106
123
-58
69
-59
27
64
93
-35
91
60
-62
-50
-125
-44
-66
-11
48
20
19
44
-121
-125
-101
28
-57
90
19
74
104
-102
-42
20
-50
-52
17
51
33
15
40
126
-88
-79
-52
24
16
-32
-61
-9
123
42
95
-41
86
92
-23
-128
63
-12
-49
-53
2
-23
94
9
-124
-83
-5
35
-64
-77
-14
-116
32
-30
75
-53
-114
7
37
-45
-40
-103
-126
70
85
103
-115
-4
73
-66
6
-32
-64
60
26
20
-86
46
34
93
-124
60
-119
-34
-7
-80
51
32
30
-85
-21
91
99
72
-122
126
98
117
-113
-67
-71
95
33
-86
4
-3
9
-74
-53
91
-92
-65
126
-91
-109
-37
26
-102
78
-102
29
49
74
94
-77
-3
-41
30
27
38
108
96
10
-37
-63
76
-57
-33
115
103
-60
36
-97
77
-89
122
-66
119
10
-5
53
-44
-29
97
-33
16
-62
-81
15
-123
-33
-1
-123
112
87
43
-69
61
72
-5
-49
-23
7
-4
-54
-112
-74
-29
-125
44
-82
-35
-98
-4
79
-128
-32
-115
-83
98
-113
-58
-17
-107
105
120
23
30
123
-103
64
-85
-31
-22
118
-35
-45
118
76
88
-34
80
41
-73
-116
-28
-121
96
-103
-60
-97
-127
18
122
-49
117
18
13
122
-21
-100
64
103
25
-127
124
65
116
84
29
112
-28
102
73
-93
119
-69
-24
13
47
-78
68
5
19
-66
117
84
-57
118
88
-109
49
114
71
91
8
111
124
-35
118
-49
-42
32
-71
88
96
-64
48
-97
-36
109
-60
54
-65
69
-107
-55
-114
-127
-78
56
77
106
113
-15
-13
-65
13
-119
62
20
1
-94
-1
17
118
-33
118
-8
-87
65
120
21
3
-50
-121
22
-109
-122
-49
-77
96
22
109
-16
-96
-68
-89
90
-65
2
110
-5
-120
-59
-92
53
46
125
16
-30
-55
47
17
-94
111
28
-52
-104
-26
-34
31
110
-121
37
-2
70
36
-71
-119
15
24
50
45
88
16
-30
27
60
-83
-101
57
41
108
-20
76
-107
-60
121
45
37
-80
-2
-71
-24
34
-110
-112
8
-11
31
67
72
-117
26
-11
62
-24
-81
-26
-74
7
-125
21
-16
19
-60
-68
80
22
-124
-71
84
39
-91
-109
46
-28
-23
-123
74
-24
-79
-55
23
-109
48
-107
-75
105
-104
44
103
46
77
4
54
100
-82
-14
25
79
-99
84
27
-116
73
-88
29
15
35
-115
-9
-89
58
-127
-36
-53
-41
5
-88
-120
-47
13
62
57
43
2
-11
122
-94
-110
9
-57
69
104
-22
83
-33
-36
-112
23
-70
-65
-52
-97
71
101
-56
88
89
42
-67
-105
-99
-109
84
46
126
-41
-2
-20
-99
-57
80
48
-127
-110
-44
30
-114
-117
33
55
96
-77
24
-73
-120
58
-127
-128
-70
-15
120
-127
60
-99
109
9
-32
-28
-88
-13
-10
32
58
-4
-18
88
11
-69
37
-33
43
16
-100
-57
-58
-85
42
-4
80
-52
-103
1
-20
-59
58
83
38
-7
14
41
-36
65
114
-89
16
81
-30
86
-96
-6
73
-80
-92
78
-65
81
-79
-15
47
70
116
-107
-57
-99
61
93
44
19
93
10
92
20
-36
112
-30
97
92
-19
51
-16
64
97
-85
34
-33
76
-25
-4
-84
18
-51
98
108
74
-77
37
-30
21
-103
-44
-47
-76
54
106
86
-32
33
-118
58
-45
95
-108
38
98
15
-34
54
2
-95
95
96
-39
-72
45
-96
97
18
66
55
80
-10
-51
48
43
29
-42
57
-83
-80
43
42
81
110
37
-23
-90
-126
111
61
23
94
125
-39
-58
-113
-102
121
56
-19
-56
-48
38
-42
6
-91
0
81
-107
71
-91
3
-24
94
-74
-79
-35
-90
-94
85
99
-67
-118
96
29
-92
70
18
79
72
13
-96
-49
56
-36
-17
-84
65
-74
-75
81
-102
75
47
-100
16
106
64
111
53
-62
-93
11
104
-84
84
-110
-25
-26
-117
53
94
-7
67
32
82
79
4
76
13
-99
-34
-107
-30
-41
88
-126
90
-46
-38
-9
31
-45
93
-4
95
-61
47
-32
-109
-3
48
-59
92
94
1
73
77
27
-90
24
-35
34
-122
-94
63
63
-17
-2
92
-102
-35
70
106
68
16
-125
113
-37
-11
-2
-49
-109
-18
-87
68
46
-113
-43
100
118
-88
-61
-47
58
47
21
74
-3
-66
-21
-61
-96
-101
106
-19
-72
-7
38
47
55
90
98
-85
-96
-119
53
-16
-27
110
94
81
87
14
103
-111
-68
-123
24
-44
-87
83
82
69
9
41
17
6
-110
-98
48
-24
-118
-119
75
-57
56
-91
-40
72
101
30
-66
51
-52
40
-2
-125
110
-28
47
18
-78
120
-27
-76
-95
118
-39
118
6
102
-9
-82
-1
-71
46
37
33
-65
38
-99
-97
-96
-49
-92
93
68
-55
-81
-15
-2
82
94
-48
-67
21
-118
103
-28
54
-98
106
92
-53
-60
117
4
-4
-92
92
27
-103
43
-103
39
85
-35
-38
-1
40
25
-36
-10
-14
-117
40
-76
-122
100
-95
56
-110
65
-113
50
-123
81
-10
4
27
65
112
-12
-2
-98
118
-16
-108
126
11
-53
-109
38
122
120
45
-14
-7
1
-93
-107
-54
-70
-17
104
68
20
-22
14
-8
85
90
117
-55
74
-118
-85
48
-33
10
-119
-99
11
-24
100
-25
6
26
-96
31
-29
-31
-111
31
-86
43
-30
-13
35
74
-75
-125
106
-120
-45
-125
25
-123
83
54
-52
-4
-83
-119
-64
20
-72
107
32
-8
-106
-65
-71
29
44
-78
-44
-115
-69
111
-28
-81
26
105
-119
-114
-87
88
101
-5
58
-17
-7
118
-36
107
-8
57
-32
38
-86
-27
-81
86
-100
-48
-106
19
4
-85
-115
-3
71
99
87
8
-43
-55
36
79
-97
-19
-17
-22
-64
-78
78
82
76
-54
-66
-26
-77
-94
73
110
21
24
84
78
-114
-80
87
-22
14
10
27
26
96
0
-71
0
86
118
40
70
102
2
-22
123
-36
96
8
41
-24
-76
-39
-112
-109
12
-76
34
6
2
-101
93
-26
-47
-72
36
68
-14
-128
-122
-96
-113
25
41
67
-23
-3
48
-43
-110
-122
-59
125
38
-101
12
-52
109
72
46
-98
-115
-71
-106
-28
21
-4
-92
-45
-4
-27
115
-72
-4
58
119
-107
71
76
110
94
-93
-84
26
2
120
3
125
126
34
-51
41
27
-40
-24
-90
23
-37
28
-2
-105
-126
-53
-8
52
50
97
10
-42
59
-103
-50
52
-35
125
-36
40
-6
-3
-121
-100
43
-65
95
-36
-60
-33
89
-60
114
-18
113
124
110
-35
-50
9
64
10
-53
39
112
-83
-102
9
29
114
67
123
59
-120
31
117
64
92
-33
-128
64
-27
96
-52
-40
-11
-106
12
-60
75
-98
-11
-119
-55
-91
-44
54
13
24
-101
46
51
-69
-20
14
6
-20
87
43
65
-9
-16
93
-69
-108
111
-61
-15
118
48
-75
-7
-83
27
26
-111
34
36
-64
-112
-105
-17
-61
49
-20
-61
-116
-63
-117
-5
108
4
84
12
107
45
46
73
25
47
27
63
-43
12
77
-42
-52
97
-88
-44
-82
116
33
70
37
79
102
59
17
-39
-67
30
85
109
9
68
-100
85
-22
6
61
-53
-80
97
92
-120
72
-3
-37
94
52
81
74
-126
-19
64
-92
75
-127
-15
31
-91
109
-17
-1
25
81
20
-50
-50
121
1
75
121
19
-97
-17
-23
70
-92
-24
-6
7
-65
-83
-2
-21
81
-2
-120
-112
13
87
75
-27
80
-29
48
-118
124
49
17
77
63
-38
-38
-63
55
-64
-41
22
-56
124
64
-60
101
-41
-32
-17
126
-13
-53
30
27
80
-107
-61
-18
-94
-24
25
-119
107
-27
112
-101
78
-74
94
-89
-74
-61
98
39
-28
-63
103
90
125
-81
-50
-86
-80
78
65
-124
-56
107
55
-20
-72
89
-117
-11
87
95
-60
23
-51
-120
-85
-63
-88
126
-93
-25
96
9
-77
-6
81
-14
-120
60
-88
50
-120
0
-51
-38
55
-43
21
-119
37
3
-46
-127
116
-9
-8
60
91
37
27
57
124
-7
-88
113
-61
-90
-67
-106
60
-50
122
108
7
109
121
99
-25
-90
48
120
53
65
-30
26
-92
52
101
-10
38
32
-71
-70
-88
104
-72
40
44
91
35
-29
-98
123
79
-96
42
54
-38
-31
-5
118
75
64
-104
-106
15
50
110
-26
53
17
121
49
95
124
95
61
74
100
110
-100
-59
-72
75
-91
11
-53
32
67
-47
-125
89
75
-36
-94
102
112
-71
101
-29
-79
-41
-54
31
-94
13
67
29
-53
21
-47
-26
-59
126
92
114
-14
18
69
44
25
101
-2
118
14
-124
-5
58
15
-96
15
104
64
84
38
-12
74
18
-78
26
105
-72
125
-35
-75
-93
-33
-66
38
-39
-35
92
104
83
97
-126
32
46
-36
-16
-29
-101
-75
44
-123
-127
-112
93
81
64
113
-52
6
103
48
55
3
-58
-111
-123
0
87
-84
103
43
48
-4
73
-61
31
-106
-38
30
113
71
-16
10
-70
101
34
-57
39
95
-53
32
-63
-110
0
37
-89
-34
-46
-76
91
121
-54
-98
52
55
-80
-13
-37
-35
-69
-75
-102
-56
80
106
-89
-122
103
1
-101
11
-14
43
-33
-63
-26
-77
54
26
-105
9
35
124
53
-122
-69
-94
-106
107
-65
112
13
-127
121
-117
75
-26
-85
30
-88
42
81
-114
1
-73
106
12
81
-13
2
-111
105
-77
29
-101
2
-113
-45
-51
-74
78
108
47
23
13
125
-48
121
-72
-112
-118
-46
-91
53
-60
-25
-74
-19
-71
-11
-52
-69
-35
61
121
-76
-100
-114
30
-84
4
-114
-8
-124
-107
2
-112
52
-40
-55
5
48
-127
44
126
18
23
90
13
39
4
26
6
-117
122
-37
-97
112
69
-94
95
-38
3
-69
-98
-66
-105
47
-119
-54
2
-96
-44
109
90
87
98
-25
-77
-4
-113
-69
123
112
80
47
57
-71
-44
-122
1
-11
38
-23
-84
75
-76
-14
-25
102
110
-85
125
-99
-44
-78
60
-89
-31
-66
75
92
28
75
-82
63
-18
-50
72
-111
-94
53
24
56
79
-96
-120
-51
-109
48
30
6
-34
-10
43
99
-78
4
79
-58
57
122
21
-54
-58
-127
-34
-72
80
90
-2
-105
88
-90
-93
86
30
7
123
-52
-71
18
105
-53
-118
-124
4
-32
-94
78
81
44
-5
4
73
1
-41
-98
55
120
-6
-84
121
-61
-29
50
17
107
18
62
-17
117
65
-124
91
13
-110
-30
-117
-117
-111
23
-75
69
106
-11
-77
45
-42
-79
-125
100
-17
-95
-40
68
-126
-25
5
-87
-98
-107
40
120
55
70
27
-26
-81
46
-11
78
66
56
-78
-27
22
89
-36
87
102
8
25
91
-31
-12
68
50
77
98
-49
9
-25
-87
27
39
44
113
125
-92
111
-95
-107
82
58
-90
9
-104
28
-32
2
-30
16
32
-106
-7
-127
-32
122
-40
-40
-48
60
27
5
-84
82
73
32
-16
63
-107
39
18
-31
-56
126
-68
51
37
-76
75
109
99
67
2
103
111
9
-67
117
57
-62
-112
102
-66
53
-16
113
84
26
21
2
93
-107
-19
59
-34
-80
-3
68
-8
-74
64
44
-3
-34
107
98
-111
-94
-20
-93
-27
-75
55
14
-124
72
9
-16
-61
123
18
75
60
-7
-28
-118
-94
99
-61
122
-63
119
109
-102
123
82
3
-44
-16
102
49
126
-31
98
45
-48
-93
74
86
115
-113
48
124
-14
111
75
-4
-23
-128
36
-118
-104
-93
13
-92
97
-15
38
-62
29
-88
-56
-40
-58
-64
-24
86
2
99
46
96
95
54
-36
-4
92
-23
53
106
-14
111
-46
32
-10
-48
-111
39
-65
74
40
-20
64
-100
99
-64
-22
-127
-32
57
35
-23
80
116
76
-120
-88
-98
74
-107
119
-4
-40
-106
2
-66
-110
112
56
113
121
-125
-1
-58
16
106
41
-36
-97
14
119
-81
-123
-123
-38
-36
-56
96
90
-85
78
99
31
-61
-63
47
75
-18
0
-74
-111
99
-118
113
-11
11
-74
31
-84
-63
30
-36
61
37
72
-43
7
-36
42
73
68
-19
85
-104
27
-50
-13
-53
28
9
-30
-5
-38
-19
43
-71
42
-93
47
35
-40
-109
96
33
-65
65
-118
-68
-93
121
-74
90
-99
-15
-15
45
-81
107
-100
33
83
-84
75
-91
66
106
119
119
-109
-51
-64
-70
79
-72
67
8
9
-53
-5
25
-32
-38
65
-51
-19
-126
31
-88
55
-70
-80
21
2
-82
-35
-53
-20
21
-100
73
-102
35
102
-39
-108
78
78
-104
36
3
-4
-24
-109
34
123
45
-2
57
99
-118
-24
84
-24
39
10
-99
-60
80
17
87
68
110
102
22
-108
115
69
89
19
-37
-96
52
-13
100
13
-39
89
86
26
-120
-88
92
88
-103
66
-78
-70
12
-7
-102
-94
65
-18
-50
68
-14
67
-93
94
35
-32
-91
61
-40
104
-123
-107
116
5
102
-122
-68
-18
-98
0
1
-119
-46
80
-76
120
-106
101
-52
88
-120
-35
-74
45
-107
-85
56
-115
-67
-41
101
22
84
-67
-52
-93
-20
-44
82
15
1
-23
102
-78
-50
-43
62
-70
71
-1
-59
76
64
-3
-44
-11
-31
71
-120
-55
-35
-2
-46
-11
72
77
83
120
-8
-71
-15
-106
27
-16
8
-96
11
-54
-45
75
99
27
-93
121
-113
-115
-114
69
-37
-49
-111
-39
58
18
-127
43
119
-8
-4
-40
63
103
116
62
-41
-17
77
-92
61
55
-60
-128
73
116
-102
-91
88
90
-11
1
-14
14
87
-50
-95
-9
-78
64
-74
-84
-17
-56
-19
26
59
106
49
-55
84
-98
26
36
-44
-12
-112
-27
108
-81
-26
8
28
-126
34
-18
109
-31
-104
-118
30
-118
77
18
8
3
-39
106
90
-127
-3
40
117
39
-83
99
-15
115
-105
-88
-53
63
-18
-101
-74
6
-84
22
-100
-80
10
94
6
-38
118
55
-25
-56
-54
-97
-10
-77
-116
-30
-95
64
-75
-8
113
-79
59
-84
126
30
7
67
-29
-68
8
66
102
-4
44
45
-106
-66
33
106
-76
-122
94
6
-50
-88
117
87
112
-127
41
-103
0
-100
30
79
-90
9
-114
102
71
66
-86
65
120
115
79
94
59
12
48
-109
-88
7
-120
110
88
101
-30
17
55
118
-36
122
73
68
-34
-92
-42
124
6
70
80
-123
-63
-103
-9
-55
-19
-126
-120
-23
30
-29
70
13
-90
99
120
83
95
80
-81
49
-121
100
-43
-9
-111
125
21
53
-73
111
104
-108
-54
-61
-128
-104
-14
-66
41
-61
-33
-11
-77
78
48
-108
-97
-70
3
112
88
65
27
-71
47
2
7
-106
18
47
41
60
-8
-48
1
102
-110
110
89
41
-68
-14
68
-49
101
5
89
-48
-34
32
-106
-31
34
-109
-46
43
-61
-111
-15
-48
92
7
99
-124
65
-124
-127
-120
-50
-69
-125
-71
49
-9
-1
-106
44
-6
-115
-43
-2
-30
71
89
72
85
-100
102
17
27
-43
-106
-76
118
10
-96
-122
79
-5
110
90
-82
-43
2
-20
88
51
-107
1
-104
-36
-53
80
-102
-11
-27
119
38
108
55
105
15
-11
-28
103
87
126
-77
17
60
60
97
-7
51
-21
-35
52
-64
126
70
9
71
-84
-112
81
13
51
-108
73
71
-78
-102
1
-53
-93
-42
125
-72
22
68
-67
46
-124
99
37
29
78
88
-53
20
5
-62
-99
124
109
-120
-21
-10
-41
-44
-76
-14
-83
49
96
60
-81
75
37
-88
-125
48
-41
1
118
87
-127
-83
-98
63
59
-60
26
-40
-89
-80
107
92
-107
-62
-79
-4
-5
-18
42
-6
111
-48
69
59
95
25
46
-45
98
-80
-120
-3
93
38
-7
53
-91
-80
54
-64
110
-92
-105
120
26
-12
55
-90
27
124
-57
-50
-85
102
11
-40
35
-75
-75
-121
-56
-49
64
-50
-22
-53
-98
5
-3
23
-128
81
103
28
-122
11
-95
12
-55
97
13
63
20
-34
83
72
-103
12
-110
-8
-28
-64
-38
-53
-34
5
-40
2
-114
-18
29
-51
82
-116
3
-100
7
-68
126
-29
-37
91
-3
-33
-117
-81
104
-65
32
-107
105
32
126
-79
47
108
85
-51
82
68
46
123
-59
112
-26
-12
-107
122
-46
-24
-7
91
-65
-66
-60
-55
18
75
27
-109
26
-126
29
126
81
-19
40
-6
-68
-77
96
124
109
11
-83
100
32
-72
-117
88
39
-9
-124
-70
3
20
83
122
55
113
91
-123
124
-81
75
-87
85
7
-63
-3
-114
-31
61
94
121
118
-81
-59
-4
33
116
69
9
-10
-96
-68
87
-1
67
-118
-50
-127
-58
-57
-89
11
110
-116
-96
-81
52
98
13
-83
42
42
-102
-96
39
60
9
-102
-110
57
14
-67
-69
-78
8
-56
93
-40
20
15
93
82
11
27
-97
38
-45
-5
106
-102
34
53
8
-83
18
47
72
-21
-67
1
-98
102
-111
-76
102
54
-13
26
121
-47
92
123
-1
105
-86
100
-127
-11
-41
43
47
-98
80
-36
-119
-123
-50
-1
-64
120
12
120
-74
-72
96
-38
-11
-14
93
90
-37
121
16
-94
-71
-118
91
60
-8
116
110
113
-11
-57
-80
-4
66
-75
17
124
46
38
62
77
-8
33
8
-119
-101
89
12
-63
112
4
78
-95
69
51
-126
17
4
103
69
-114
-4
-60
-128
-112
27
45
-104
113
-115
-111
75
95
71
-121
109
0
49
72
63
-67
-106
119
48
-36
-30
-67
-119
50
-73
30
-24
6
-82
118
102
5
-82
65
30
-90
116
-57
41
4
113
-46
-36
57
-30
-58
87
-91
-126
30
-79
-43
-104
-76
-78
-117
119
-45
20
98
65
107
90
66
-44
60
10
-8
-102
-20
-122
124
69
-105
0
-27
-12
-12
-47
87
119
24
-93
93
69
-65
55
-122
99
118
52
-37
-19
-70
-30
-63
82
-20
-38
-88
118
-14
14
-79
-109
42
96
72
62
51
37
55
65
43
24
-42
-64
37
44
25
-29
-70
7
-72
-110
14
111
57
121
111
-97
44
-127
72
93
105
-86
-23
-97
85
-73
18
98
-63
40
-62
65
5
81
-65
47
-21
-72
72
-52
57
-4
1
-120
-33
-72
110
-122
-120
21
102
-11
-50
-24
114
7
66
-38
-6
107
34
122
9
16
-92
30
-117
84
-85
57
-85
-12
-20
-54
-45
-13
-53
-93
-123
120
-117
-98
-50
-78
-30
37
-96
52
-10
-125
94
44
83
-37
13
109
48
87
-21
-8
105
-124
64
104
89
-42
36
-2
-115
-57
106
-114
0
18
84
-45
3
7
56
122
-59
-2
-37
-10
-87
-69
50
-80
118
13
-90
37
29
-71
-17
114
92
-58
104
-104
23
-83
-14
-78
2
-64
-3
106
-7
65
33
-127
-116
123
-125
-44
-4
-68
36
-121
-115
29
47
71
-46
-66
-108
125
50
-38
121
29
100
-7
79
-100
108
-46
56
79
76
25
115
11
75
-104
-19
64
-29
-31
-64
-37
-127
15
-44
99
-33
-51
120
121
77
99
-31
30
85
40
11
-102
-93
-63
-52
-13
-98
-80
-46
-96
95
34
-110
-20
86
56
2
56
-40
-38
-56
42
-128
41
-52
-32
40
-33
-122
-74
32
-84
-115
107
113
53
126
-19
-83
-19
-65
25
90
36
-8
-105
-102
103
126
-42
-55
-39
-51
119
-46
-106
-126
-102
-84
18
-37
-104
-78
-60
-27
-63
-70
82
26
-15
42
68
-36
122
30
-8
-28
-25
110
-128
-78
-92
97
-100
-19
119
67
-34
-105
41
37
124
-112
79
116
65
88
23
94
-16
4
111
-86
-38
-63
105
-113
32
-37
-73
15
110
10
-61
96
-14
-35
54
90
77
95
2
16
-100
-34
-71
-78
-18
-55
86
64
-70
-88
-112
-11
-97
-34
103
-5
-124
76
-91
75
23
-107
109
-74
83
-78
100
82
45
90
-78
-42
-3
-22
96
-65
-37
-7
43
102
-67
-110
60
89
96
44
91
81
99
-61
50
41
-5
-108
-20
-10
25
39
-5
-83
-83
59
58
9
11
-87
-13
-37
-108
33
99
-26
111
102
-28
-7
34
-31
108
-33
-81
-91
-59
113
-106
-43
20
31
-65
-128
38
-97
-99
22
22
73
-101
-107
-114
-88
76
-118
44
43
117
16
35
91
33
-77
66
-104
-28
-49
-126
-53
-32
26
-68
-93
85
-68
-14
114
20
-76
-43
44
-38
63
109
-10
47
61
87
109
-84
-7
-109
29
-26
119
-84
35
-32
-25
45
95
-121
-70
14
69
24
15
85
-64
109
84
90
-37
59
82
90
10
-97
0
45
-115
-109
-26
-98
-29
43
-70
116
-1
24
-23
-84
48
-114
20
-25
-98
2
106
49
73
-82
-27
119
-9
-61
27
-56
-124
-95
62
13
110
77
91
-33
92
41
0
-117
105
-59
81
-77
45
-41
-33
-54
58
35
102
-118
-98
50
-46
-18
-45
47
-1
33
103
58
114
-25
47
-57
126
-71
-82
108
-37
13
44
52
-82
-39
-73
67
56
85
70
126
11
-76
-67
-73
17
-97
-19
9
87
59
38
-9
-57
122
-49
117
-3
95
123
-21
18
-84
76
-66
39
124
-91
-104
40
-65
124
102
81
86
34
36
37
49
84
-123
60
-5
-4
83
-47
-111
-87
-87
17
62
-5
100
71
-110
41
-46
32
-62
-27
112
-58
-76
100
-89
84
-81
84
-113
92
-65
-14
-14
123
97
89
113
89
-58
-110
-86
-47
40
-41
6
125
-103
41
-46
-63
14
-100
119
-1
-94
1
-46
92
-82
24
-8
14
-103
-104
81
31
-104
-53
49
1
-117
-49
-59
-44
37
59
103
-18
34
62
-122
-78
-14
10
-14
-39
-47
-50
-59
-97
-112
74
97
2
70
-128
9
17
75
-27
82
-124
37
96
-75
-65
36
23
84
-53
91
-99
13
-97
-55
126
-112
-19
80
112
-121
-126
44
-57
125
-97
116
-100
42
-61
-51
16
28
6
112
33
-113
47
-37
74
126
-10
-70
-13
-20
-2
-5
102
-80
96
32
10
-78
72
-61
48
-8
15
66
-62
-84
36
-80
-79
121
24
27
59
-118
-115
51
28
24
31
95
-37
113
-77
-127
85
-51
20
-117
-28
54
114
66
-128
57
-46
126
-121
-59
-117
-66
-65
-40
-62
112
93
85
28
-99
18
104
-107
100
-22
-41
-28
90
-126
-51
7
-74
50
62
51
-24
99
-107
57
34
57
-110
77
17
119
-114
-124
10
-2
105
84
45
-93
24
-100
69
-126
-18
89
-65
-32
93
-54
-72
55
-32
-66
-122
-28
-15
101
-100
-116
-92
-46
82
40
-63
-96
85
60
123
41
40
125
38
71
109
42
-7
-16
31
-89
-79
122
27
120
68
-16
-20
-10
37
66
-116
76
-51
-97
4
52
58
109
-53
-101
52
-39
100
-107
-13
66
-69
-62
80
17
11
-92
24
62
-6
58
-27
25
-6
10
71
-112
20
13
-26
-54
116
117
-89
91
119
41
-14
14
-15
48
-35
-11
72
61
-75
-22
74
80
34
-103
-3
-35
85
-128
94
-122
25
-24
-84
-56
-33
-10
33
73
-35
-65
111
-76
5
-120
-107
-59
-125
112
96
98
21
-111
-39
-78
69
19
21
-105
-14
124
-23
-58
-103
13
65
-70
-101
57
102
114
-10
-78
95
-113
-12
72
-38
-21
-85
73
116
108
-35
80
-48
-74
67
62
-12
6
-55
23
-84
-57
11
8
68
68
-64
-25
-80
81
93
22
-91
-55
-26
95
86
-45
38
-38
125
120
13
40
-103
-23
90
61
-25
-24
26
-82
-88
-39
102
-9
3
-35
-9
-13
-38
-8
67
82
96
123
-60
91
81
-38
32
-71
-115
52
66
-39
-21
-54
10
126
22
6
-22
81
-14
-63
15
118
-68
41
-18
56
-121
-29
-120
-120
-66
16
38
8
91
-127
65
-46
37
93
-118
-122
-1
-15
51
80
-104
65
87
101
-12
-73
70
-41
93
18
115
106
119
-53
87
-59
20
-121
20
-41
-7
25
94
-4
-51
38
-116
-74
111
-11
-70
82
25
-78
-50
47
-65
10
-104
62
114
10
79
103
110
-4
73
124
-19
5
-107
-124
-2
28
123
105
86
-98
24
106
-74
34
39
97
-14
-23
72
-101
57
-43
64
-38
-35
46
101
-10
122
-3
110
-44
63
-68
89
58
104
116
70
-23
-105
-76
94
-45
-77
123
-110
-75
69
-101
-127
-126
-114
-127
23
-108
-106
-26
94
32
-21
71
54
-95
-96
119
114
-63
-80
-52
74
88
49
22
-10
-85
-57
-101
-52
23
-113
-56
-37
-40
15
34
-50
-76
24
-44
-92
55
79
73
22
-13
102
117
101
42
-80
-61
-125
117
58
-116
-47
-69
97
120
6
110
28
8
-127
-56
34
-20
35
-78
-40
41
123
66
75
-17
-12
-78
-79
26
8
87
-108
-105
-20
15
-123
84
-118
84
-127
-121
-84
44
41
18
-58
-118
124
79
-33
99
-46
-70
-11
-109
-10
-12
84
-98
-111
-44
44
-48
-82
53
104
-7
-73
-67
97
-123
-119
-128
-55
-96
-37
-54
6
-88
-58
73
62
-125
-16
-98
4
1
-85
-90
11
98
-70
64
52
-33
71
-92
-20
-1
84
-82
25
88
-67
-44
-64
48
-106
-28
-49
-9
9
-118
-126
4
51
-98
0
-110
-68
91
28
119
113
124
-8
61
48
120
77
78
-15
112
14
-88
-123
50
53
91
100
-48
-114
-24
-5
65
-20
18
-39
111
59
110
0
0
104
-7
108
-65
-15
96
118
-92
41
-30
-28
18
120
-35
-83
-58
-11
-22
-118
4
105
-96
-48
101
72
106
108
-47
66
-71
71
70
-37
-57
85
16
50
-52
118
66
-118
-86
119
17
-103
32
96
121
66
-61
93
88
53
-18
78
7
63
89
-23
-119
-6
-89
-53
48
-4
-27
-50
-94
-17
-18
48
12
-108
57
-13
-125
101
0
-73
40
86
96
-48
52
103
6
-87
-46
-42
17
96
43
-36
123
-106
54
-22
-13
-34
42
70
-26
35
104
65
-75
105
-77
-46
27
-81
-102
110
80
1
126
44
-15
16
117
76
-72
-11
40
-98
-27
98
86
73
55
110
55
-70
115
-32
-125
3
-84
126
-83
108
38
110
124
-23
16
-91
81
-49
-57
2
10
1
101
-58
126
108
39
-40
-8
69
59
66
-35
66
113
19
58
20
-125
14
0
98
108
-89
-108
20
87
60
-94
-4
116
-58
-26
20
119
98
-45
89
19
9
75
-21
-62
-54
-17
116
62
13
56
-61
10
-56
88
-78
84
77
-79
47
-125
50
26
-102
-121
-16
-50
-63
-53
59
-6
123
0
-91
64
-31
29
-83
28
-83
-104
75
-57
-103
-100
94
-59
22
81
-33
17
37
48
35
47
-61
-108
-74
-102
74
-48
14
98
-128
-1
-96
-105
95
-36
85
-90
55
21
-53
-75
117
126
125
-75
-94
36
2
-109
-89
27
-46
100
125
100
-127
95
15
68
-29
103
81
1
-82
-17
-28
77
102
-59
26
-34
65
-52
-32
-113
-57
109
-111
-26
26
-61
100
76
-61
-83
-20
82
56
15
-47
-103
79
126
-113
99
-116
-29
-69
43
-55
-37
-13
35
-2
14
119
61
-39
86
76
20
93
-74
-14
-79
120
8
82
-88
17
-89
101
88
19
114
-18
95
-88
50
-115
-70
99
-72
-110
29
-54
-23
-57
-25
-33
13
-122
-43
-74
-9
87
-66
75
8
90
27
30
2
118
-72
97
49
-12
49
55
-22
53
32
-15
-127
75
-37
124
-18
-54
71
-61
-100
-51
72
51
-56
41
-90
125
120
8
-127
58
-32
5
60
-42
27
25
-75
-126
99
-91
67
-61
-40
-51
-21
55
-72
100
-2
77
-122
-74
-80
37
-62
31
119
-66
91
-58
98
32
81
-49
2
-89
-23
-93
-4
-38
-87
24
-111
8
62
7
-126
-100
72
-54
-86
5
-105
-20
-12
101
126
5
-102
-32
122
98
2
-126
55
8
-7
-112
89
-25
7
46
76
-37
-81
-112
-92
8
105
35
-111
-42
-90
123
2
-98
18
-9
-25
79
-77
-125
-7
-17
-97
-92
45
-120
83
35
-27
-36
-104
12
45
-51
8
-115
94
15
46
-58
-28
9
-1
117
-57
66
-53
95
18
-62
-27
64
10
107
61
8
36
-111
57
38
-40
-93
-60
52
-58
-2
-62
-68
78
-107
-52
116
-75
-104
38
42
52
1
77
67
-42
-88
-79
61
106
-36
70
-94
-117
-48
16
70
115
-29
120
-17
22
23
-110
-86
-54
-124
7
18
-88
116
25
-63
35
-110
-17
27
-118
-23
37
41
-50
102
-68
-3
3
81
-13
8
-46
-49
14
-117
47
62
-59
126
-59
108
72
-118
-30
-22
-103
-7
-108
17
-7
25
101
43
37
68
-52
-49
77
79
114
12
46
-64
-75
-94
107
101
-113
115
-95
17
-90
-85
-84
-90
57
-62
8
-62
97
103
97
111
-105
-124
-69
75
-30
-25
50
-45
12
36
-103
-14
-1
79
-95
-84
-120
69
-22
26
124
-44
71
-101
23
-62
-62
-63
125
54
28
79
14
-14
43
-30
46
-55
-127
23
-70
59
32
-52
20
80
71
-63
111
-44
109
-56
4
-12
-76
9
-4
-92
98
-97
39
96
-62
-63
-74
-78
49
-111
-29
11
-114
-60
-103
120
104
-56
21
56
110
56
-68
-93
-12
69
83
14
-52
89
21
-37
13
-98
-59
87
79
113
-39
-14
-109
-78
22
2
65
87
-119
-80
-101
-53
-73
-46
19
-58
103
67
67
-118
-108
16
51
-108
76
-52
61
41
94
-110
3
3
-3
-126
68
-21
-45
-120
15
66
-17
-58
-105
43
93
101
-87
69
42
-13
-74
-15
-126
108
-43
-26
10
-24
-2
-25
99
-69
60
-106
-4
-16
121
73
-84
-26
-57
93
-107
-90
-54
-42
33
-64
-102
-38
41
-103
-35
17
-64
-96
-113
65
-69
15
-85
97
-109
-100
92
-18
24
-40
110
80
30
-102
-23
-27
-99
33
-36
-59
-92
-83
69
60
-33
41
7
116
83
-60
114
25
-40
-23
69
-94
95
-126
-58
45
-4
-109
-90
-79
-121
74
40
-26
-67
114
5
42
-123
-46
-118
-92
-125
56
74
123
-77
-103
-104
-57
112
-75
-100
93
-59
-2
-56
82
90
42
50
-16
17
-97
-49
49
3
-110
-60
60
-108
-119
-12
48
-66
31
32
-36
68
-6
39
58
81
-63
-94
22
-7
-44
72
14
35
-55
94
-98
89
76
26
30
-125
-117
22
38
40
-117
-38
-41
-1
-56
-15
-29
-127
-41
-98
-44
121
-41
54
49
-18
-20
-50
-9
-63
-84
-39
70
50
-13
118
-68
-34
-12
115
57
51
83
-106
7
-75
110
-89
92
17
-65
-113
71
-13
-114
-79
91
62
23
68
-27
-4
-60
-26
26
-84
-26
-102
-21
84
-10
-118
-44
95
-88
-17
78
106
110
-88
-25
87
-57
90
60
-64
-27
22
37
29
-98
-5
113
-10
-14
-123
-42
-64
102
83
-37
-105
75
76
-87
-116
99
120
-85
-39
-88
-60
118
103
-78
111
-6
84
-104
-54
-110
3
-89
-77
119
11
33
44
-28
-91
-125
55
42
-99
34
-39
-93
38
44
-43
35
-113
83
-64
-49
42
-87
-8
37
-11
-79
-107
64
80
14
-107
-55
32
-64
-82
48
-112
-28
126
90
-8
61
48
-123
-54
-14
67
-82
-31
38
19
101
-118
-52
-77
87
-87
-91
52
67
59
82
-1
73
-52
95
-77
121
97
-6
97
-25
-9
9
24
-41
-119
-91
92
-9
-33
-47
24
-116
-16
-96
-85
-64
-33
81
-36
-114
42
38
48
119
77
-114
-54
111
-1
37
-101
-125
117
23
-76
-20
20
50
39
92
116
20
4
46
70
28
117
28
122
105
-51
-15
-51
-29
61
109
-95
40
-46
117
37
-115
-26
122
-96
-114
46
21
94
-54
-128
22
-16
-95
47
7
84
-36
-101
-93
108
-98
90
56
-71
6
-19
7
81
103
73
98
15
8
88
53
44
78
50
-39
37
76
64
42
78
-74
-84
-15
-102
8
-19
-99
-11
-31
-29
92
-34
97
108
39
-60
49
-66
20
56
104
-94
-111
122
101
14
-83
-32
-1
84
87
20
-108
-1
75
47
-10
46
-116
53
-80
13
-57
-91
-75
117
-100
-84
-55
-55
60
79
-99
-25
-100
-70
7
-103
105
22
-65
103
-97
-107
-98
9
105
77
-95
84
90
121
-81
-82
117
29
115
-34
-60
38
-79
101
74
-5
-51
-69
55
-38
86
30
50
105
-72
32
-63
68
-56
15
20
-77
32
-98
-65
93
-14
61
55
31
-107
111
-83
90
84
100
81
107
-42
70
-55
111
49
22
-114
36
-70
-108
-101
54
-111
16
-119
86
56
-111
73
44
-62
-29
21
102
-44
-72
-125
-62
-107
-119
41
100
91
-101
-101
38
82
-25
-94
-28
9
63
-48
-46
5
10
-56
30
-61
40
-2
-60
-80
-25
47
23
-39
36
88
-86
-50
31
44
-33
-95
-22
-46
-33
-6
-55
96
-58
-88
108
-24
90
-73
86
45
12
4
-68
17
60
79
45
-126
-56
98
95
101
-34
67
4
91
87
-109
-104
24
94
12
4
48
-84
69
-19
-6
114
-101
-74
65
115
-16
69
108
88
-96
0
-68
109
112
-8
-85
55
5
50
111
116
104
1
52
-123
-44
106
-45
-108
-45
-79
-123
-106
122
-100
87
-32
-24
-18
22
67
-5
-3
51
124
-92
1
111
49
-7
89
84
-54
99
-51
-100
68
-16
69
-96
-84
-15
-126
119
-8
-47
96
69
30
85
-88
10
-79
90
-103
-82
-79
14
72
108
-14
-128
47
-87
-59
71
47
-107
76
82
-99
-46
-15
-9
-52
-114
91
26
11
-30
102
-15
1
125
-66
-108
0
-108
-16
-67
-61
-86
-23
-38
-101
-93
36
121
11
97
64
93
85
-51
-14
22
-125
88
-79
50
125
-87
-118
-120
90
-58
25
-51
63
-107
71
50
51
-8
38
-108
-113
84
-8
50
100
43
-117
-30
-14
111
8
-99
-32
-39
-100
-78
106
26
21
-4
6
90
-46
-87
-63
-52
87
-73
-118
113
85
55
124
-42
-50
-9
-20
91
-36
-95
-51
45
45
-32
-113
109
-19
39
-5
-42
69
-23
-128
-85
-3
38
-68
-2
-84
-101
-98
-122
104
44
-99
47
122
97
31
-60
63
-117
-38
-45
-71
-79
-70
10
-106
36
-49
-5
47
-29
40
-84
5
-3
75
31
116
105
17
-55
17
28
-111
99
7
27
-67
6
89
110
23
-25
-38
-32
19
47
85
-63
69
76
-21
60
102
-99
98
19
-55
-38
-66
66
26
33
98
-29
-101
-93
53
98
108
76
-50
24
-60
-100
66
-24
-88
14
87
44
19
-9
-17
71
-39
115
114
-1
84
70
83
23
-71
78
-57
120
-103
106
-90
-99
-21
-40
-60
-51
-11
-11
64
-113
-124
18
-82
-98
-114
11
-52
-112
-21
29
-83
107
15
115
48
-93
-15
-122
55
-33
6
36
113
-12
124
31
-112
72
72
-70
-85
-77
-10
-4
-121
117
19
-29
-104
-18
23
52
70
-104
56
-36
-122
34
99
12
107
-113
5
-112
25
-31
-114
12
-70
-14
21
-110
-65
-117
-72
-128
-55
