-117
-120
-11
-70
25
-122
-101
32
76
21
38
-106
13
-55
50
95
89
-102
96
37
116
65
-114
-96
-65
83
124
-60
32
-82
113
91
59
-70
112
67
-40
-25
-81
4
110
18
115
107
20
73
-92
2
24
-93
42
-9
14
5
20
6
-83
-36
51
-46
10
-33
-103
-11
-86
62
-128
-1
-112
-125
-29
-83
-29
-63
102
-127
-28
60
100
101
6
-7
-45
51
35
84
2
17
-44
-93
45
-127
34
-114
-54
-22
74
-64
25
-113
16
-39
-3
-14
-55
40
98
-84
12
-97
-71
-69
-63
-9
41
-62
-89
-21
36
73
-12
-97
98
108
-25
-76
-128
50
86
106
-37
-79
-16
-64
49
-75
82
72
57
41
-105
-92
-13
78
58
-26
-75
-121
-40
80
-90
-92
52
40
-93
104
-37
-94
68
72
7
54
23
110
72
93
-9
106
-77
125
-6
-88
69
8
-9
-92
-14
-54
35
-75
19
3
-118
-84
53
39
100
115
-87
-60
58
-1
-32
-98
-57
-101
75
94
24
27
7
33
-49
-59
101
-18
-60
-72
109
-51
58
-26
104
113
15
16
46
-80
23
-2
1
29
-41
70
-87
-51
-39
87
104
-64
6
124
90
-3
94
23
-35
-11
-121
121
1
34
-77
105
-28
-126
69
-118
123
76
43
-62
30
81
72
25
-30
-19
-91
-33
17
119
-59
57
46
32
-77
-126
118
-111
-101
118
13
30
-11
73
-78
120
-86
-32
34
61
-17
50
40
-69
121
23
11
-17
-29
79
-114
-107
-99
54
-29
8
-71
99
-7
89
-95
-94
-19
48
123
-40
-124
-103
-20
52
99
122
-115
7
69
84
-115
35
15
43
94
18
-99
73
30
-71
10
-67
56
-101
17
-26
32
-128
-78
-37
-112
72
50
-84
-51
9
58
-103
11
117
-38
-99
-15
43
-80
-6
-18
-36
-56
-83
-57
-102
-93
55
-63
-66
58
-83
-2
-91
-13
16
-57
54
89
-86
-93
-27
-121
2
-18
95
34
95
42
-53
126
108
4
84
-109
-59
-92
-119
34
-64
8
-45
35
-128
19
86
-72
-92
-2
67
116
21
35
53
67
15
-28
1
41
118
-85
-83
3
5
14
12
71
-113
22
101
54
27
103
11
-13
15
-43
-102
56
75
27
51
74
-57
87
-6
-104
-82
27
63
49
123
66
102
-30
-121
-51
122
-87
69
79
-21
59
-120
-64
-49
55
-36
29
-58
-50
50
-78
-97
55
-75
116
75
-33
78
104
125
73
55
-46
99
-64
-58
-4
-2
-16
-44
-77
-8
-67
-17
-8
109
7
93
-27
-111
-121
-6
99
2
-117
-22
-32
-30
115
76
71
-102
-2
34
21
86
-115
-62
106
82
-30
-59
-10
-36
-105
85
55
18
25
102
114
17
-91
90
-96
-65
-89
110
-59
72
122
-101
-54
89
102
-26
-82
55
116
122
7
-57
123
-86
74
75
-97
-124
-16
-105
-23
11
-111
-75
-84
68
-100
91
-21
-73
-42
100
-12
-80
-43
-113
-99
51
7
76
100
125
82
99
85
-52
-78
29
10
68
31
-32
1
-69
68
66
20
-88
-124
112
-120
95
53
-37
72
81
89
0
-29
49
23
-11
-19
-14
76
24
84
-49
75
87
-48
-125
-77
-102
97
24
75
73
-41
98
5
84
-41
-85
107
-112
-30
-42
47
3
21
-35
30
-119
-76
-122
-9
-72
90
-123
-46
-110
-57
29
45
104
70
-12
-30
13
-48
23
-115
48
-36
-38
-48
-80
-94
35
107
-39
-89
-13
-10
67
-57
79
27
-51
-80
-28
4
18
-29
85
84
-18
69
-116
-35
-74
27
-13
-91
-57
106
-58
-49
-15
-101
50
118
-55
29
-103
68
-5
1
12
87
-73
-2
98
107
29
65
-108
107
-103
114
79
-57
126
-43
31
-102
78
-35
-56
64
81
-8
-42
72
-37
-42
-53
-120
82
-51
72
63
-9
109
-73
-67
45
46
-6
-81
31
96
-15
-111
-90
-41
-111
84
-100
-22
52
35
64
-12
-41
-111
40
-94
-66
-63
45
24
-84
90
46
-62
-19
124
-87
110
-51
-121
-114
32
-61
-107
57
-104
-36
119
-36
-116
-64
15
64
-39
76
93
19
14
22
-63
-80
37
-9
13
46
24
92
-66
11
107
-77
37
-95
-55
-18
17
-23
-59
-1
5
-94
49
37
107
-11
114
-103
-96
66
-26
-103
21
-52
-16
18
-16
-53
-88
36
-127
-49
-47
17
-51
-17
92
78
-96
-1
87
-64
-123
-124
124
62
31
-52
-70
117
-60
-39
37
-103
67
-39
119
-34
-14
92
-47
-16
120
-90
-39
-13
98
-80
9
107
85
82
21
-14
-104
-29
75
-120
-85
97
-111
9
-90
-68
-25
56
40
5
47
56
124
125
-110
121
-87
-32
-11
-61
-13
-93
-106
105
-20
-120
-74
-128
4
-101
-25
75
-108
-120
0
49
-105
88
-54
-63
35
-83
-44
-75
92
90
104
11
-61
-8
22
89
18
-57
-124
8
-18
82
-85
-33
-24
-9
-12
-117
-112
-94
-58
71
-91
-102
39
-89
-110
116
-91
-58
-27
-113
-66
15
-86
3
-29
-36
35
16
59
83
19
-41
-128
110
-88
-55
-60
8
19
87
-108
8
-46
-32
70
-118
-119
7
89
97
126
-22
73
-87
-63
-5
-115
73
68
107
-117
117
118
-39
-121
73
70
-12
48
-127
9
-77
-67
-44
121
-44
-105
118
111
-13
117
-9
-93
-53
-117
120
-77
-87
38
-101
-73
-32
-107
49
110
82
88
12
5
-56
-19
-62
-61
-104
5
123
-34
-121
-70
1
-38
19
-127
-65
100
118
119
-6
41
-91
33
94
79
-29
94
74
-61
44
-63
-126
-109
-47
101
-26
-15
6
87
64
-48
-56
80
98
-14
79
-92
-61
7
-54
25
-12
90
37
-79
-20
-54
-60
-94
-114
-39
124
67
18
88
22
-57
47
119
99
-60
-101
-95
-49
102
65
-84
34
99
109
52
56
-12
-109
11
73
51
-22
-14
100
-72
6
95
96
-49
62
106
37
-29
-74
-54
109
44
3
58
-22
-18
-123
38
-69
-58
-68
-88
92
-11
-42
55
29
-66
-102
97
33
117
-88
-37
-47
-109
-27
-22
28
116
-99
69
41
-29
-15
17
-112
-32
61
120
119
13
-14
-17
-69
-43
-29
-127
81
78
-22
-6
18
24
92
-112
-83
115
31
110
63
7
-71
-108
-65
92
-114
73
-13
-67
-60
98
-61
-11
-82
-20
-7
-20
-114
-75
-100
-123
114
78
-53
55
-122
-109
13
83
-118
15
-18
-111
91
97
52
-100
-37
40
69
104
-34
16
-51
-85
-25
-32
98
104
-77
54
-77
120
41
26
-78
-10
42
-45
-29
-24
-128
27
17
-83
119
70
-73
-79
27
-21
-58
74
125
50
-38
77
4
113
-14
14
38
107
-75
-111
-57
82
-118
108
106
70
87
122
125
40
71
-124
-56
3
26
120
39
-119
-84
19
-73
118
78
23
-44
36
-120
20
108
-119
72
-72
89
1
-122
69
-96
-24
-2
-85
-66
-113
63
-20
-22
-111
81
100
-46
-1
108
84
-94
-3
75
120
-3
-64
-24
96
51
-83
-43
80
105
-6
50
76
-87
-76
-13
-68
104
41
-63
73
-40
126
-15
-70
-19
-96
-68
-55
66
56
82
106
-116
108
63
-110
24
111
74
15
34
6
55
-94
-43
63
-32
71
94
-72
-11
-14
42
74
39
-75
-20
-12
18
-116
-34
111
60
-29
-60
-6
105
-99
-106
-19
60
36
-69
-3
62
90
-55
6
-54
-24
-98
30
-80
-26
87
74
-3
-86
82
-123
26
50
-20
-22
15
93
37
-110
-52
-92
-55
-24
54
-12
105
62
36
58
-32
65
119
-72
-78
-13
-124
103
121
8
-62
44
42
22
-123
101
87
-69
-54
-101
-76
-4
88
-3
-40
67
101
108
43
-18
-115
-81
-27
-15
85
27
41
117
-90
-15
-22
80
-113
-10
-93
54
-72
-81
-57
60
104
-17
5
-58
50
-47
107
32
38
-1
-81
-99
-63
115
103
-116
-112
-64
88
-101
-85
-84
-128
83
84
104
91
106
69
103
50
28
-34
-92
67
-24
-108
-9
45
106
-98
103
-128
95
-20
47
-73
108
119
110
28
25
-88
-63
17
-24
-52
29
-11
73
-42
-64
-13
61
91
62
-4
94
91
79
73
-50
-90
7
2
110
-26
124
-59
-30
-124
-23
-68
29
-112
82
-94
75
44
38
64
84
-104
78
-11
-107
92
-18
82
-24
122
53
42
-111
113
27
-85
-4
95
32
-24
19
61
39
-78
5
11
-15
71
-64
55
55
-20
-95
37
-76
-84
99
111
-117
109
-84
60
76
-31
-39
90
-117
-118
-68
-63
-72
80
-115
-23
61
79
116
-44
-59
-66
72
-127
63
39
24
-24
38
32
-103
-128
58
-39
92
90
98
67
-114
-107
-85
-75
23
-28
83
29
-127
8
104
121
-89
-22
23
-61
-8
117
96
125
-37
-47
15
38
81
-76
-21
116
-52
-122
106
76
-32
96
24
10
2
117
-24
-6
2
113
-120
-126
118
-114
98
84
46
105
-42
107
11
-20
19
11
115
23
-12
113
65
-27
-100
102
-66
-16
-115
78
-62
11
98
21
-99
-82
-14
-12
24
-53
86
-92
54
37
76
122
-27
-111
-8
13
-118
-107
40
-116
-123
25
-128
117
91
-79
79
-71
-113
-81
35
-84
-23
19
53
-49
61
123
63
19
2
21
39
70
75
-24
-105
-103
-35
-99
-108
111
-19
109
109
-103
-92
-4
-114
118
101
93
15
6
102
122
-42
3
83
-18
48
-28
-24
75
57
63
86
-61
3
-47
4
66
76
110
4
-68
-57
105
29
-107
-29
-23
-115
35
27
103
71
-105
-3
2
125
118
-124
95
17
60
23
-71
-114
49
64
-119
67
-16
-60
-121
-60
-16
41
109
-122
-42
80
-76
-116
23
-73
-6
31
59
37
3
48
10
-71
-124
-68
96
40
-90
-78
-99
79
-76
-125
29
-68
-37
15
114
44
-110
-55
98
-20
10
-125
-108
-15
44
-44
-4
-4
-98
-115
89
66
1
114
-123
-37
124
-90
81
35
108
98
-67
-75
-51
-117
-50
-78
-83
-111
-107
81
-101
-122
-58
70
22
-125
92
-99
96
-80
85
-13
97
95
52
88
52
-94
33
-32
118
-119
30
104
99
17
123
-62
114
-92
100
52
-31
69
41
-49
29
-38
-76
43
-98
-31
-124
51
99
33
101
-3
110
-105
13
-11
-106
-92
97
108
-40
-87
-10
-104
-37
11
21
21
108
-93
71
-48
83
-83
-69
23
70
-56
2
-7
-84
79
82
-7
73
54
-10
-107
79
65
94
38
64
33
115
66
-123
-78
-32
87
44
-92
-115
42
-3
79
-21
23
44
119
30
88
-78
-108
70
71
104
42
-105
48
71
-29
52
49
-21
-119
11
-85
45
15
31
42
-41
90
-64
30
33
96
-17
-68
86
57
-25
64
28
22
-83
-48
-56
-12
-4
117
77
83
67
110
-102
95
-100
108
-15
-102
29
47
79
-113
65
60
93
-33
60
-56
-47
-84
-128
-94
87
58
30
-80
46
-119
20
-63
88
-96
-119
12
16
71
61
-45
-57
-24
-47
99
99
-88
-29
33
-82
-44
-68
-32
124
67
-83
-68
-37
19
102
27
120
-26
10
-39
-5
-88
-11
23
-66
-1
-85
26
66
-59
-101
74
-12
-69
58
-41
30
97
77
-50
-96
-59
4
25
-116
-98
100
6
92
-113
-49
-94
76
115
19
-70
-77
58
37
-77
-79
-2
83
111
7
-98
-32
0
-55
-93
-121
118
-105
53
78
-39
-40
-98
-6
125
-14
52
42
-100
-67
93
13
-53
-96
88
115
-71
-29
-121
115
69
74
-40
-110
32
-60
122
-119
-55
1
58
-58
26
115
-109
13
-51
92
103
49
-11
-56
-13
-99
-125
49
40
124
23
116
-22
74
-74
46
-64
39
-84
-76
-43
45
-9
-3
114
-95
117
45
-108
110
27
-8
-26
98
-104
108
-2
56
-43
50
-71
88
52
1
11
20
-67
50
-6
-121
110
8
39
107
17
-127
-23
-78
94
101
60
-14
-74
88
124
43
-80
-48
-47
-27
74
45
122
84
39
11
12
-64
-86
-87
39
118
89
117
-7
-123
25
81
96
3
-107
72
51
-44
-56
-91
-47
-35
-40
-14
-117
49
104
12
-28
-38
53
-71
-91
76
-72
45
126
44
60
-3
13
92
91
-20
-9
2
-120
86
-85
-93
58
-62
14
106
-26
-86
-85
18
-126
85
18
59
118
73
123
-69
-80
-60
36
23
11
97
-79
-14
10
-32
-27
-49
-82
76
79
23
81
23
19
39
-122
-20
82
-128
-11
-114
-127
13
34
-112
-123
-123
-19
-119
-43
-2
-28
-79
-41
107
-41
93
-111
94
-49
-18
12
-37
115
-114
-38
-34
90
44
-73
64
87
-45
-125
42
79
114
47
-124
-103
-82
-124
-31
-18
61
53
121
80
-79
126
-97
-38
-110
6
34
111
123
20
101
84
-41
-119
86
48
-90
96
-92
99
117
-127
20
61
18
18
66
67
57
116
-83
96
88
0
-100
-48
45
9
8
-64
-20
-13
30
54
-40
-47
-118
-85
-69
-116
42
-100
117
28
19
-114
90
24
-105
-114
50
-124
-128
104
-26
-14
-117
45
-60
-104
94
-82
14
-21
-77
-70
10
0
-37
-109
13
-25
123
-106
-106
49
-103
68
124
98
-91
-42
-95
24
-101
121
-98
52
-92
-68
-15
-75
90
-95
25
124
-28
-95
-37
-79
59
-111
-62
117
-28
-64
31
89
109
-96
-1
-20
27
104
48
107
-111
-89
-35
-55
45
66
-79
-25
24
53
-110
-51
-118
-47
119
-10
-103
45
-42
4
106
-119
41
-67
35
-15
-87
72
50
-128
-57
-116
62
70
-53
-56
45
-89
93
-112
-100
56
83
28
3
-41
115
-92
81
60
-17
117
108
102
-5
-88
18
-46
1
-47
64
-2
116
-106
88
41
-76
-120
4
-15
-13
88
9
-109
-3
94
-21
105
19
103
35
-77
-22
-33
27
-30
-35
-103
-122
-87
71
78
-35
118
63
-114
74
-73
-125
35
1
115
10
-49
51
124
10
-82
-19
10
-27
-15
58
-43
14
74
-11
-106
-57
57
-21
4
78
-11
-54
5
-70
-69
121
9
112
-33
49
-72
29
66
42
71
114
-97
92
65
-10
-38
-85
-13
103
117
72
-112
-36
-5
-122
29
2
-93
-46
-119
98
120
11
14
7
83
-86
-113
6
100
-67
-100
-1
-79
-4
-87
52
-9
24
110
32
37
79
-115
13
125
-67
-95
21
60
15
-66
126
-91
-65
-17
52
27
-106
43
-8
-47
-42
-1
-40
-88
16
114
-12
-96
92
-33
61
13
124
-75
-117
-86
20
-103
-124
99
-52
27
-94
4
71
-81
37
-14
78
57
-84
66
-1
64
53
-9
-45
-23
-109
8
-1
-34
-117
23
-37
-41
12
-29
-75
110
12
-39
13
-112
-29
-3
111
-95
-29
15
6
114
-97
-115
19
61
40
61
40
-72
8
-6
47
-60
22
23
-95
-73
-56
11
2
18
74
-36
-76
-69
102
-54
10
78
-44
-104
35
26
-15
-61
14
-86
89
75
14
-30
-41
-4
20
75
-107
56
39
49
45
-80
12
93
53
27
26
75
-86
76
-6
-25
-115
9
4
12
-8
48
8
-55
55
-71
-27
-124
28
104
71
76
-110
64
66
51
87
103
-12
-12
119
85
-68
-121
52
30
-99
104
-115
-87
106
-115
-95
121
-122
-60
-95
91
24
91
74
-124
11
61
64
-108
46
114
99
97
-125
-83
-18
-53
-34
-56
-114
82
105
-32
41
-119
-32
20
16
-49
56
-84
-110
14
-100
74
77
-33
72
21
-34
-78
58
-86
51
-55
61
-44
-45
-101
-54
-8
-4
7
-4
-63
29
-39
73
-37
-91
-77
26
0
-90
81
-23
92
95
-16
109
-79
79
103
106
65
117
-88
37
113
29
-4
106
-118
-64
28
-108
-15
-116
-76
82
117
90
60
27
75
109
-55
97
118
37
-66
-8
-19
86
88
106
35
80
28
98
-25
125
46
-91
-117
-73
92
9
118
-17
25
-114
-17
-101
-73
88
-7
-103
102
-49
28
-40
61
7
-58
-34
61
-46
-89
13
118
66
119
-10
-3
-89
105
23
62
18
-116
-7
-101
-110
-80
99
-41
8
-35
-77
-92
-22
42
122
18
9
27
31
-120
-70
39
-4
-54
-2
58
116
-75
-83
-117
-105
80
-90
97
42
81
29
3
43
-110
-74
-124
9
92
-25
-42
-55
-101
71
27
-88
-117
94
7
-26
25
-1
-102
24
104
-74
-8
13
126
-93
116
39
93
-128
80
-36
-33
40
-102
-58
3
-107
-86
-25
8
-1
89
-19
-52
-109
-105
76
97
28
-36
-12
-18
51
-73
104
52
-12
35
-54
115
-6
-65
64
-13
-28
81
25
4
69
91
-16
-36
-51
92
-46
62
-88
-58
-63
-7
13
19
31
63
34
-50
5
-56
74
-46
126
114
-3
124
119
-2
7
-70
31
-6
-79
67
119
-65
23
61
111
101
100
51
-67
32
92
24
37
89
-119
94
-114
-13
75
-61
-98
-57
-12
-50
-66
124
111
62
69
-2
4
-102
-94
98
75
10
126
15
-37
61
-122
-71
54
-82
105
110
-45
1
85
-51
32
-63
118
92
122
102
71
-22
90
-103
4
7
43
63
-125
92
-15
12
-66
-22
-48
72
-16
30
-123
90
-79
114
43
-125
-99
-29
-115
105
-25
119
108
-19
-98
124
-15
-83
-50
40
47
46
-81
-125
42
-110
-74
98
-102
-8
-85
-35
-116
65
28
104
77
6
118
-123
-120
-66
-39
-97
37
8
-123
45
31
0
31
18
46
74
15
108
92
-85
33
-3
99
88
-89
-47
-47
-17
30
-71
101
124
-25
90
-22
-117
-3
22
-46
-68
-78
-57
12
113
-27
-70
-120
14
-69
-52
-103
70
92
99
50
-1
22
85
-27
-19
-98
-67
4
-21
-123
8
18
-101
-70
-54
-76
-106
38
-107
-9
-79
-13
-4
9
46
22
125
21
126
14
-122
-20
78
72
2
-112
84
-7
-62
33
-99
-125
60
-6
-26
64
-39
-48
-121
-14
-38
33
-127
66
-71
55
-41
63
56
-118
-23
-24
66
-10
-1
-43
-126
-77
-81
85
-33
104
31
-17
76
-11
-94
111
111
7
108
-97
-97
76
-1
110
-106
8
18
8
-70
112
116
11
124
-81
107
-64
-124
107
107
120
-21
-119
-118
-31
26
-33
112
101
-70
-89
15
-39
103
-8
88
-127
-49
72
40
106
-103
58
61
-41
-7
-106
72
-17
98
-128
38
-116
111
-90
-105
72
30
42
-39
110
96
14
-82
-101
-39
-91
83
30
33
-8
-97
-81
123
-97
-76
-99
-71
-55
23
96
99
27
56
-71
1
-98
67
-53
90
29
62
-102
29
39
-2
-92
73
56
-20
78
-29
4
1
25
96
56
-98
110
32
-59
-14
-9
14
-79
108
91
109
-59
-23
-125
116
-65
102
-68
-84
22
71
124
-85
-127
-93
-114
38
-57
-5
-44
-68
-79
-69
-87
-59
86
90
-127
118
33
119
109
68
72
-88
34
-30
10
-117
103
-94
65
14
16
-30
-19
112
33
68
58
51
28
-124
-88
72
58
101
-30
84
-31
-68
-41
7
104
111
119
-60
-29
88
-87
-49
-94
-63
66
-124
85
98
-51
-91
45
5
107
-110
-61
-127
22
79
59
-44
70
80
103
-97
-17
-124
-124
107
-50
-34
-50
11
12
93
-124
-26
-65
110
-11
59
-51
-46
109
18
-83
105
-126
-68
-45
79
119
105
16
-97
-93
6
-13
112
-31
-22
23
-71
35
-17
-13
113
40
-54
-39
126
90
33
88
22
16
70
24
-102
-48
22
-126
79
-80
-4
89
-15
-104
-30
70
-87
-63
84
-3
-126
-65
81
104
26
-71
72
-69
18
14
-17
-54
18
-30
94
54
-25
-60
-86
-114
-120
-87
-121
-30
54
16
-111
-26
-36
-76
-13
-12
-101
81
50
-54
111
-65
89
74
-14
-38
-115
72
-19
-105
42
-66
29
-54
66
86
-62
71
113
-72
-70
112
-15
-67
13
-34
-82
115
101
9
-61
79
-109
-23
52
96
34
115
82
-30
-7
-97
-63
33
-41
11
-20
-18
46
112
-73
72
-106
-105
92
-54
71
55
-38
32
-23
-7
-11
60
-122
-114
-108
-48
86
115
19
113
-61
6
35
-97
7
-54
123
12
-85
-18
69
25
-31
-125
107
113
-75
84
77
10
-70
105
-78
107
-24
5
78
8
-97
-66
106
28
-81
-51
106
17
56
-81
26
70
-26
15
83
-47
67
69
-63
-117
69
41
-125
-18
113
32
4
107
65
-116
3
-41
-118
40
27
-38
-19
-45
-38
-83
-17
-47
53
109
-55
116
-13
-102
-120
-21
-55
-20
-64
126
36
29
41
-118
81
96
41
63
-66
-55
41
50
-123
-42
-22
-66
-80
99
-74
-94
49
-1
36
89
-30
112
30
94
17
-98
-95
93
-33
86
-60
114
5
73
85
42
15
119
117
46
48
-31
1
37
95
-128
39
-56
-49
29
-48
-57
6
-99
-56
27
-114
-113
-58
-91
-92
-62
71
-113
92
-70
95
120
25
-108
-96
91
119
59
-113
92
105
-54
-10
70
-78
119
-62
-9
-19
56
43
73
-81
-13
43
-9
-59
82
45
38
-17
116
103
-53
24
-112
-127
71
-110
115
11
-98
-30
-85
-38
71
-57
28
-8
-74
-106
105
-61
-58
-5
-85
21
50
-81
-91
124
-99
-119
-115
-54
-8
45
126
-58
19
-36
72
-39
74
-41
-84
-127
-105
-68
47