95
91
2
-11
101
-22
-69
50
78
72
-92
-1
-72
70
121
25
118
23
-94
35
-128
43
-91
-53
86
-83
-102
102
-58
99
-111
86
17
55
-75
76
66
-11
73
-119
13
67
-74
-5
126
82
-90
45
57
-80
-23
-52
-1
-39
82
5
-120
-83
82
116
-41
7
-39
-13
50
113
-92
-103
100
-54
-71
-128
-13
68
-9
58
-60
-41
-121
72
-101
121
-95
-115
32
-15
-2
42
19
-85
-43
66
29
-46
-27
21
114
-82
-111
7
68
23
75
30
-30
-10
-35
68
-57
-120
-111
-63
-107
-63
17
21
-96
67
85
40
-20
35
-18
-110
19
-119
118
111
-55
-82
73
-33
60
-114
-97
-76
-92
-94
8
-60
-18
29
-11
81
-111
-69
89
84
-26
-99
-83
95
-128
118
15
123
-36
55
93
34
102
-26
11
51
-69
49
24
-35
-12
-13
-116
-103
79
-53
-15
-66
-61
22
-18
-103
78
-103
107
56
105
-63
8
-89
83
-118
117
118
13
32
20
10
-28
34
12
-25
-105
-37
69
-87
101
1
-35
30
118
40
-7
69
17
-38
58
34
35
41
-13
49
55
73
7
-2
25
102
-23
-99
1
-29
97
21
70
-89
69
29
114
-42
96
-94
32
14
-55
-26
92
37
9
-25
-106
-54
-124
39
59
70
-117
-105
-106
-60
107
-46
-127
-127
-84
108
41
104
-88
115
-59
-2
23
-62
-126
50
99
7
-101
117
-66
95
-45
1
11
63
-49
125
109
-102
18
89
-105
-113
-32
0
-102
3
104
-39
-18
-55
-103
-37
31
40
-114
19
-95
66
-17
-39
-80
-68
-93
88
-57
-102
16
-32
107
-44
38
124
115
51
102
45
98
98
57
-93
-6
100
-49
23
94
43
-77
-17
-71
-115
56
11
-63
-18
8
-28
103
27
-64
104
-8
71
55
-54
-16
-43
31
89
-77
47
45
107
84
118
107
72
-81
-111
-121
93
37
-96
-51
-60
98
-90
-13
-105
18
-91
35
-46
68
121
21
83
18
-36
-63
-93
40
-97
72
40
125
39
33
-80
-3
76
32
61
8
122
-67
-103
55
2
-64
15
27
-82
-120
78
-17
76
85
-101
-124
-80
68
81
-125
-42
29
35
85
50
-108
-42
-6
-41
-51
76
-77
-103
17
117
-13
9
-61
49
89
71
-36
8
73
-44
76
-65
110
-83
-29
-44
-55
-12
82
52
-77
53
7
46
90
123
46
34
-29
99
10
58
-93
-121
34
67
54
-104
59
-33
-67
115
-105
122
-97
-12
10
72
-48
-30
-57
-94
-29
-101
65
-8
46
-12
110
-39
107
114
-47
-70
-39
-111
-11
0
22
-58
-29
-108
-115
-67
32
-96
4
6
-83
17
-14
73
-75
-92
106
-84
27
16
124
-118
57
-32
54
52
-71
9
-102
-27
-119
53
101
-6
-21
75
-8
-30
-36
72
75
100
29
-37
87
-112
-110
-80
18
-15
29
81
45
64
-87
64
11
-11
-49
-52
-90
97
-32
-120
-8
-94
3
87
-5
-77
-101
-114
-81
20
-29
2
-3
36
49
-90
-9
-118
24
15
6
69
-59
-86
-99
-20
30
-51
-57
-93
-92
35
22
87
79
116
-77
-32
-10
-59
74
-42
-78
53
75
107
-46
-48
4
-49
107
64
-67
35
124
15
-66
107
-127
31
120
-85
-87
-108
-61
-112
-86
19
-63
9
-122
65
-25
5
-125
84
-39
-21
-64
80
93
3
94
113
-64
-126
119
120
-107
-103
73
-84
-83
-86
-59
21
-113
-57
69
-75
-44
-22
-59
110
-86
-73
-52
95
-49
-85
-123
-38
-28
-58
98
-56
-73
52
-19
-64
92
37
36
62
-16
-120
121
75
11
-117
15
8
-87
-127
25
116
-40
14
-112
35
16
-89
-16
-40
72
19
75
104
104
-28
17
-78
-114
-124
-99
50
-56
89
-109
116
71
74
-87
55
-16
-117
-30
-89
123
-21
85
-120
84
-41
90
-36
-80
106
-2
-35
109
-22
-62
-116
24
49
-88
124
-47
75
-110
-25
104
-12
-66
-60
73
48
-70
37
67
-9
-1
51
-113
-62
-79
-121
110
-75
-101
-26
87
105
-33
73
79
-40
18
72
-36
54
84
67
12
51
122
-97
-2
2
82
-65
-57
91
99
112
24
84
-72
48
-51
-57
-73
78
-9
-100
46
-36
46
-94
-53
-124
92
-29
125
-101
90
-9
-113
-55
-22
-12
-11
96
112
42
-128
-45
25
41
-37
-75
23
35
-57
58
-39
-77
-91
-11
-29
123
94
-112
-18
-57
4
-2
14
27
-51
-78
-4
99
106
-96
7
-100
82
-124
76
5
-9
-115
27
-91
87
-102
63
84
90
119
13
5
-16
-123
-14
-104
124
4
92
-24
-27
-88
126
70
-120
-102
-70
-93
62
-7
-64
-9
106
-26
54
-54
-98
-51
-51
34
-19
30
-17
48
43
-37
-6
16
108
-92
5
75
-121
50
-58
-6
-62
90
122
68
125
-88
-14
98
-122
23
79
-13
12
31
72
-111
-84
-36
-9
-1
18
-64
-34
-14
56
-128
-75
-33
-58
110
97
73
-117
89
59
24
-86
6
74
-63
86
58
7
-14
-32
109
-87
1
-30
13
11
-19
15
-78
-80
-13
126
-72
3
56
-30
-50
-64
-121
-115
-91
116
-84
100
20
-19
-41
-76
-48
-57
27
1
-43
-51
-41
24
-104
37
-59
-16
87
119
21
47
-74
-44
-85
-91
-128
89
-121
82
19
44
79
124
34
96
-69
-47
119
-83
-61
13
-51
-29
-38
87
78
-2
75
-13
82
-32
60
-54
15
119
-54
85
104
-112
-34
119
91
-124
92
61
111
-23
-128
8
-76
113
23
-82
-107
19
-99
122
66
-105
-16
59
29
-4
-67
92
30
-76
97
-69
94
-21
52
110
-38
-61
-14
-39
-84
95
38
-37
120
-112
98
-109
16
-45
50
70
118
-24
-3
-76
56
63
111
6
-22
65
-69
-15
60
-116
28
108
61
-30
-107
19
99
-115
-103
-127
81
2
115
-99
-118
-23
-35
102
4
71
67
31
-125
-44
98
-125
-119
-38
-92
-83
65
79
-29
49
1
74
98
-114
65
6
-123
-88
61
92
-60
-122
-34
42
125
106
-73
-96
-94
-87
66
-43
-34
-55
-20
-32
87
-27
-57
103
50
-73
-13
-59
-11
-24
-84
80
32
29
38
-6
11
21
13
-84
-103
6
-47
103
-119
-6
-76
44
108
22
118
29
-106
83
79
-3
71
-107
-70
94
80
-94
102
-72
-18
117
-32
24
-67
55
104
-10
74
108
19
69
84
76
-55
-94
-116
90
50
58
101
-81
-81
115
103
47
-64
124
78
32
-76
-72
38
83
15
-24
19
98
-8
35
-105
15
3
27
64
-73
79
-15
35
70
-32
-49
-11
-48
-107
42
48
-32
-121
-29
-56
-60
-49
100
-22
33
-112
18
-13
-53
69
-78
-58
-118
-84
-122
108
50
-68
55
18
62
26
36
-123
-115
-72
-63
69
-20
-42
-26
-104
95
37
-63
-24
-28
-47
117
-20
11
-111
-81
-24
93
-61
35
49
23
-99
-108
81
-58
33
41
13
71
-10
-115
-105
-73
-34
79
-48
-54
-95
-14
58
97
17
-6
73
78
40
26
-21
82
-119
1
-1
-6
-96
6
-12
-3
-123
62
22
-18
54
-99
106
95
73
110
84
-4
-95
-68
24
23
-37
2
11
-62
-27
-113
75
101
86
-115
-114
-116
-78
-125
-90
-122
-94
69
-105
-93
54
-92
42
-101
123
94
64
-20
-101
-22
3
-102
-15
-22
-114
114
-37
41
27
-57
39
89
-46
105
-19
34
-20
-69
82
105
42
43
-93
-81
91
-128
-11
2
64
-85
-20
-118
39
-75
125
10
107
78
122
-71
70
118
63
-23
-71
-76
-90
10
124
-101
52
-31
110
108
73
44
104
38
5
33
87
-79
-60
51
44
-66
-29
78
92
-123
-100
120
-79
-111
120
-72
100
80
-70
15
-75
36
-86
-12
44
108
-10
-1
104
103
29
7
38
27
55
-117
63
-85
96
24
-42
-115
76
79
39
-114
57
-29
23
80
40
-20
-37
81
88
52
-3
21
-7
87
71
-87
-104
-91
6
37
99
73
109
29
41
81
-65
-100
52
-77
-73
-75
26
72
81
-43
-15
74
39
60
-3
54
-62
101
-113
38
84
-98
-52
-90
44
113
55
90
-127
-107
117
96
105
-16
37
-79
21
-4
75
-107
60
-42
96
98
-123
-107
52
100
101
21
82
-32
70
-77
-61
41
-15
90
119
11
-54
55
69
-127
-108
-75
97
54
70
107
3
-119
-111
-83
126
111
74
-19
74
-24
8
67
80
32
83
106
-24
-50
75
-111
-64
-39
72
-114
-8
-32
46
-66
54
91
2
-92
-24
29
17
-122
-68
-55
114
-111
95
-92
33
11
79
-78
-108
120
-62
-6
-26
-12
47
-109
-74
-42
-99
-29
-71
-114
91
-77
119
38
-56
108
-22
51
-40
24
42
-106
87
-55
121
-40
-22
107
-128
45
17
73
-94
42
71
-31
-66
67
-61
76
84
102
-92
117
19
-103
-28
105
95
109
-124
-110
1
-83
97
114
99
-37
-84
-123
-78
-117
-19
119
101
25
-57
-12
-29
-11
116
-43
7
-20
-111
104
-83
14
-124
20
-20
96
73
-110
-14
-99
-26
-92
103
-3
-15
-47
-84
-9
-63
79
82
53
-15
76
-59
98
23
106
98
-100
86
-128
63
109
48
-57
-124
41
-71
44
66
-78
-13
-62
51
-104
-7
66
88
-53
-56
118
-47
-54
22
56
37
92
28
-69
63
-7
-18
98
17
-14
71
-120
63
-24
-63
63
-11
105
-80
-52
-124
88
-90
50
-85
-108
-88
91
-112
122
11
60
-44
90
-22
-122
-114
-27
-53
25
123
109
-18
-68
118
-16
10
114
89
-50
85
123
-124
-10
2
115
30
-93
5
100
-109
7
88
52
106
-88
-22
-17
110
-20
15
-32
27
113
40
36
-113
-64
41
108
-72
-6
30
-110
-13
-4
117
-58
-101
-24
25
94
29
-24
5
-84
116
92
-89
-52
118
65
24
-123
61
-19
83
4
125
-60
48
15
-115
-117
-80
17
-31
-87
-56
33
119
-9
12
-65
-126
-61
18
109
62
-68
-27
-14
31
-82
-118
-25
-128
4
125
-44
-66
-3
104
-116
94
-60
-98
37
-78
-76
41
5
88
67
28
-4
-68
82
-78
109
79
-39
121
116
-126
113
-12
-116
-49
111
3
110
2
-121
3
-37
-98
-51
96
99
-98
-40
70
64
44
117
88
-127
-63
-92
67
99
-49
-58
-109
13
115
-11
83
-85
-24
77
122
23
-85
120
-68
106
71
-29
-24
93
-72
-101
27
-17
-64
-92
110
62
-23
-18
39
-117
61
58
104
-21
-120
-12
-14
40
53
-108
-42
76
-3
-60
37
-68
-4
-75
-99
104
43
108
23
38
23
-17
67
60
-119
-68
-11
77
19
-121
13
-119
-99
45
56
107
-27
-123
49
92
18
-14
-128
107
64
121
86
-83
-118
-128
-37
-101
59
-111
-103
62
81
88
35
74
58
121
-85
11
24
-65
92
71
-1
111
47
10
20
-6
71
-99
11
105
72
-4
109
-108
-8
9
7
96
83
-33
-96
-44
-88
97
115
-93
93
122
-13
-43
-2
39
-47
-7
-117
13
-85
-79
82
-41
-73
53
-119
116
-47
-124
0
24
-79
107
-10
-116
-92
-106
103
-114
-15
-69
-38
120
-9
-91
-96
4
8
-3
-6
-54
-4
76
104
30
-124
82
-33
7
-16
28
-66
92
61
33
77
93
88
-82
-5
30
76
-55
-67
-60
-56
-76
108
8
-48
117
-14
-3
-86
97
-20
-79
44
61
-41
57
-40
50
10
-95
-37
48
119
-57
115
116
19
63
-27
-70
-10
98
52
126
-12
-94
-109
-29
8
102
-41
-86
28
52
74
-114
77
-4
95
-64
37
-73
-40
30
117
60
-63
33
-39
-41
-94
0
-100
32
-11
-84
-104
110
-80
89
-40
60
-26
11
-122
-28
90
-18
84
67
54
-114
-70
-42
-95
104
-47
-128
-41
-2
105
118
10
5
65
-119
-87
-66
114
27
-23
-112
-72
-69
-30
75
-124
-121
91
-56
74
-8
92
-118
118
-117
28
-64
-4
65
20
-29
10
58
-49
-32
42
-110
49
39
98
-121
43
118
-35
44
106
23
39
-2
-34
-31
101
66
30
-105
-77
-91
-28
27
-118
50
3
64
-21
-35
-19
-54
92
-46
-4
15
16
-52
-45
13
40
-76
14
26
-27
-68
24
-34
-100
-54
-23
106
97
-91
-49
90
-12
-113
-119
-88
-26
-69
-113
-98
52
-40
103
-64
-26
-6
124
39
-47
126
14
36
19
-43
-38
-124
20
18
-13
24
-21
98
124
-20
-51
72
28
-47
94
78
-82
-11
-97
-93
-79
60
-88
99
-9
-39
61
-36
75
27
-71
85
91
-53
14
-101
81
-4
-55
46
102
-41
-56
79
46
99
120
-12
92
7
-14
74
92
46
-8
50
88
-87
-91
45
-62
-60
23
-119
-114
-82
123
18
-20
90
14
124
25
-1
-110
-87
83
1
-3
71
10
78
114
2
-1
21
-40
-124
53
12
40
74
89
53
55
119
-95
-18
-110
-45
-90
29
109
125
-103
42
-48
47
-80
99
27
74
6
111
125
69
-51
-74
27
-67
-74
-86
-56
-72
58
-80
81
-19
115
-103
111
61
-64
-114
-82
68
-95
-96
53
-15
56
-46
-109
-87
124
4
71
29
-100
-95
-1
-103
64
110
61
18
-86
93
-55
-12
-60
-83
-84
-44
0
113
75
-25
-7
31
-83
29
30
-47
102
-101
100
83
-6
115
13
74
110
20
-14
-64
-44
76
-93
-69
23
-123
-37
-124
34
20
8
19
94
-103
90
109
24
35
-100
18
9
-122
51
-21
42
-122
-67
-67
-42
20
-1
-75
19
2
14
12
8
-12
-122
-125
56
61
26
37
27
98
88
15
22
-102
58
-24
19
-59
-98
-2
-98
-121
-109
-22
-108
11
60
12
51
-91
-85
123
79
-123
12
47
6
-127
9
28
-104
49
-75
89
-25
-67
-112
-88
88
-103
-49
57
66
-5
100
125
-47
-86
66
-29
-115
11
-61
-80
48
103
121
97
-49
-55
-77
-88
60
28
-73
45
28
-15
87
-57
-37
66
-116
-79
-40
-29
115
116
45
1
101
11
72
-71
86
73
76
-112
-18
114
-110
117
45
117
-60
-106
-15
31
-79
41
93
-5
-13
-35
10
-57
29
-36
6
13
-8
-117
-84
12
-97
-56
-15
45
-8
87
-95
99
16
51
-91
117
90
80
-101
-85
64
108
-94
-45
-68
26
25
-77
-39
-71
26
23
117
52
94
39
-107
53
-120
118
-82
34
-49
79
-38
99
-48
-100
45
-106
-68
-64
66
-119
-89
102
-15
-30
115
-106
-72
-112
-113
-115
43
-75
57
-41
114
-73
26
49
12
51
-115
114
20
-86
-37
65
117
35
-17
11
-25
-100
-128
61
-83
-85
4
37
78
115
-58
124
-95
88
-78
84
3
-38
2
59
-49
13
94
42
-97
-92
-100
42
-117
123
-92
-28
45
106
45
108
4
27
1
-11
49
72
-86
79
-106
124
78
-37
6
-95
35
39
4
66
106
46
-32
58
73
106
82
106
-114
-119
57
95
-84
71
67
-1
-59
58
53
88
58
40
114
-71
-23
122
96
-28
-9
18
-27
-127
-111
-125
126
96
0
-116
-14
-25
52
117
-55
4
-56
117
-120
-33
35
74
-33
117
83
37
27
13
-14
23
15
23
-104
56
9
64
-87
-108
-119
-78
-39
103
-76
88
25
-21
86
-102
-47
16
124
-66
-96
-77
-105
-96
1
49
-3
50
-127
45
81
12
-20
85
-32
-114
93
-45
-79
-90
88
-69
-26
13
-98
-62
-35
-42
-53
-17
-76
-22
-125
14
112
103
7
32
52
61
37
-117
-29
22
-44
-107
-115
-110
-115
64
41
-34
29
79
-116
86
-17
49
-68
110
-56
12
-32
23
-50
-70
118
-53
-55
-125
-9
-43
17
74
25
104
91
-126
10
-11
-41
87
80
48
96
-85
104
-109
121
-111
-89
45
70
60
41
-77
-73
-43
9
-13
14
110
-17
-33
-81
-34
-95
-60
78
75
-25
76
104
61
-32
21
-63
-79
-15
-19
118
18
9
-90
71
-93
-1
-12
-51
74
23
75
75
32
-15
-115
42
-120
92
-22
-103
18
21
-6
-118
-11
112
-33
58
42
-97
29
56
-65
-79
10
-88
-87
22
12
-45
-13
-126
104
-114
-54
86
79
-18
60
12
107
70
107
109
96
-1
73
29
-70
119
116
28
-115
47
62
18
80
-101
126
8
52
-36
-56
-65
-13
98
-51
92
-29
-125
-123
108
90
-52
8
125
60
56
76
-70
26
-103
30
123
90
96
116
-68
-30
-124
88
-127
11
-68
-17
22
81
-86
50
66
-61
-20
-11
123
-78
26
4
53
81
49
5
-49
92
-78
-17
-57
-119
-68
23
122
-105
-55
13
-25
104
-16
5
119
-114
-94
85
-125
-99
-81
118
15
-25
-69
-123
22
-125
63
-17
8
-31
106
72
-81
-53
25
-125
-44
34
28
-29
-61
-50
-126
35
-48
-65
-60
81
-54
9
11
-7
-54
105
-81
32
-47
-118
-94
114
-56
-113
70
38
71
-99
-105
105
42
-117
-42
-8
-86
-73
91
-50
67
94
-102
1
63
-125
46
6
74
124
14
-21
46
-99
-41
31
18
-118
40
-105
-97
67
1
-23
-5
-88
51
-60
-110
-34
105
-71
-102
-126
-25
-101
29
101
-41
-23
7
-70
56
113
-17
41
-74
-60
39
71
-10
45
-38
124
-127
-89
-22
-83
-25
-74
-107
51
69
34
-79
-119
4
-45
43
43
47
77
46
101
-120
4
9
33
55
104
8
-119
72
-90
-8
-98
4
-59
-57
72
58
119
107
-50
-83
23
24
-3
54
-12
-66
115
33
32
-97
10
17
-18
-83
29
99
86
-128
-62
-54
82
-85
-91
-84
-3
-92
-75
92
104
3
-18
4
63
-6
89
-2
110
7
114
40
104
18
-71
-70
-67
-4
-62
-71
-33
-106
-21
-49
111
33
1
-29
109
38
68
68
111
5
107
18
-22
70
84
94
-13
42
-82
-63
-38
35
77
106
-125
-38
36
-80
-33
95
-92
105
-59
-30
-81
-41
-10
-77
116
9
24
-58
-12
25
31
31
37
69
105
4
-79
-50
28
31
30
-27
-98
-13
-7
66
85
110
120
-127
-116
30
-71
78
91
-114
109
33
104
45
-124
109
-31
16
-63
-30
-76
-105
-34
-97
55
6
84
-51
41
-45
126
-66
93
37
-91
92
-9
-98
50
74
119
-35
58
-124
-102
-102
-36
81
19
-70
24
62
-82
-103
90
-83
65
0
-17
113
-19
-79
84
-127
-81
-1
107
88
38
83
56
-20
108
-93
119
112
7
-91
-124
-46
112
22
-87
18
-36
-19
13
-7
71
-61
-75
-81
69
-19
-64
-22
-95
1
-58
-113
43
11
21
-39
66
8
-2
-74
-1
40
28
-28
13
7
92
111
54
90
-123
-15
-116
31
-47
12
-27
-9
-112
33
-77
76
107
-8
-128
-91
27
56
-79
-127
33
-19
-41
-51
-17
-51
-13
88
70
-54
-26
72
-67
-30
-54
113
113
28
-117
-38
-20
-42
-98
-31
-113
59
-13
115
-85
72
118
-41
-54
-110
25
-33
97
-13
-7
-2
32
124
-71
-22
30
124
-35
45
-47
-57
85
-107
2
-38
-126
-97
-124
103
98
-39
99
73
14
-85
118
-30
-68
98
-97
59
6
33
-30
-17
-111
-115
-15
82
92
19
107
106
-63
27
-55
-123
17
48
-114
119
-81
-110
-5
-36
13
99
-4
43
-26
-36
76
64
-63
119
-67
-66
-122
71
-16
-98
-85
-123
-89
-78
22
38
72
-14
-43
-97
-64
-39
-17
-101
96
-92
-9
124
-127
16
-31
85
103
-11
-93
90
-104
14
16
-38
112
115
-105
115
-125
-66
69
40
-21
50
94
46
27
91
73
71
-58
19
-89
-80
39
3
7
80
-105
-65
-58
124
51
-50
61
102
72
-19
-8
8
88
-68
-1
-106
78
-121
-1
108
107
15
72
-82
23
-2
-14
71
90
14
84
-124
80
110
-97
126
-15
18
54
-14
-70
34
-106
86
-31
-97
67
-118
-120
41
30
117
-56
-96
43
-127
-61
-58
-46
-110
-70
29
94
-128
-109
-6
-88
-3
100
-12
-37
122
-48
108
-102
37
99
-46
50
-76
-20
-48
-10
7
-81
-89
-106
14
-55
39
-59
22
86
65
-30
66
70
-65
16
-39
89
-69
-30
74
-72
96
72
-48
25
8
-47
-41
-102
-55
112
119
-99
-108
56
-112
105
126
61
-101
-120
81
-117
93
-52
115
62
114
101
-57
15
92
-22
119
98
-97
-3
22
99
-54
-122
-39
66
111
124
-70
-7
96
-71
29
32
-84
-59
-94
101
-63
-44
-26
105
-54
-4
72
-121
89
113
52
-73
-108
69
78
83
3
-13
-66
-30
15
6
25
-19
24
-106
45
-34
-7
31
42
-88
39
-19
-54
-46
126
111
-98
126
118
-66
-25
-74
-39
33
-3
92
-70
14
64
-24
111
11
101
-41
110
-99
-102
110
-68
-87
103
58
-94
59
-124
119
40
-80
-71
-87
-65
71
-23
112
-114
-18
5
15
-116
116
63
89
42
-57
120
-9
-53
-74
-8
-58
-116
27
97
27
116
89
35
92
-46
61
-61
10
-63
12
105
-110
-66
-85
-117
70
-101
126
-26
-23
-94
116
112
61
-39
-76
62
-98
102
-69
-117
72
-49
79
93
79
113
79
26
-120
111
-62
-109
46
-122
-85
-24
-26
65
-55
41
36
85
-48
95
-62
103
-8
-54