-71
-115
55
-111
-31
64
80
60
55
87
2
74
24
-31
-53
103
87
-39
-14
-63
24
-82
-50
-57
-101
78
27
-38
33
72
-29
-78
-13
67
0
118
27
24
-48
62
87
26
-10
105
39
38
36
106
120
66
-75
63
-109
93
11
-57
40
-87
59
48
-62
124
110
31
12
2
-74
-102
-26
-75
-27
-16
-32
-19
-26
-66
90
-20
-71
-124
5
-63
-12
119
-9
-38
-36
44
86
113
-95
17
-108
49
20
43
-8
88
79
-65
-7
-8
41
65
94
-127
-10
67
92
-15
32
-100
112
-111
92
-103
123
42
-12
3
-92
35
-70
52
57
-20
35
91
-25
22
-61
-123
-107
-10
81
118
18
-75
-90
-16
-70
-64
-22
2
-6
-14
-100
32
-12
11
-18
-99
-75
-68
84
59
99
-49
-26
126
-95
100
-57
42
113
-26
68
79
-105
-13
-66
38
17
31
-15
-31
-28
-125
-34
82
-4
-108
91
-54
-86
5
24
106
24
-57
1
-19
-29
33
-9
6
125
14
85
124
-54
-125
-43
-96
7
-22
36
-5
-50
-76
-67
-33
36
83
-86
-12
71
34
-53
-4
47
56
42
-80
16
-45
101
-30
100
104
72
91
98
33
89
95
-108
25
11
68
-42
-25
107
116
52
-35
37
-86
64
17
-113
115
53
-105
-52
108
85
-1
100
107
124
-49
1
10
14
88
-49
27
19
-63
31
77
87
-56
-51
32
-77
44
-114
52
53
79
72
-32
-55
-87
-78
37
29
-109
-1
-115
-24
112
90
27
47
-25
-120
-46
-78
-14
33
88
-106
-108
-106
70
81
105
98
-4
-84
-122
49
80
-56
-120
111
-65
-70
-110
105
93
123
115
-104
106
-1
54
62
30
120
-8
25
75
-92
92
36
-43
-7
-12
105
-37
4
71
-91
34
58
-114
-98
-9
25
18
17
-13
-63
100
-57
-42
34
-44
69
-65
24
-20
-22
120
43
84
-117
-21
-90
63
-69
29
9
-106
14
-13
17
-118
17
-45
-114
-9
96
-110
54
51
-1
73
-100
-49
36
31
80
-34
122
89
10
-23
102
-108
-57
95
13
92
17
40
101
-101
-82
-32
-110
-110
37
38
33
30
70
-118
11
119
93
-63
-93
-54
40
-84
48
51
-19
90
-78
-70
37
4
103
54
59
-90
-33
-128
-12
94
68
-22
-69
-87
-22
77
46
-39
-45
-55
123
-49
-2
54
61
114
-31
50
-3
-53
84
75
-97
-126
93
9
-90
-84
-125
-113
-117
-121
62
25
-26
-57
-40
-124
115
119
-112
-18
87
-106
-111
-48
-47
-68
-68
120
-103
-121
101
55
108
26
125
63
95
24
-25
85
101
78
-99
-86
-7
28
40
-63
-46
106
76
-96
-113
116
39
-5
99
103
57
25
-109
82
125
61
26
40
11
1
53
-81
3
-83
120
26
15
19
31
-128
95
-56
-125
18
-115
96
-126
-117
-39
77
-111
-64
50
-96
-36
-22
61
-109
33
-76
-88
-97
-107
-100
40
-52
16
-88
-92
-69
104
-34
-33
78
-91
-23
45
77
-30
76
-100
-8
73
28
-110
16
37
92
-38
-105
53
38
30
-119
-94
5
-47
-13
-107
-12
-54
-55
-86
43
-37
88
-89
-50
-52
-72
88
23
-52
-17
101
-106
30
33
-58
-97
122
104
-64
-38
-46
-61
-63
-22
-80
-71
44
-69
53
-75
22
109
-37
12
-101
9
-61
-114
-53
-7
108
59
-100
-38
-51
123
-127
8
31
47
-42
-45
-40
-120
10
83
-87
-117
94
-51
-109
3
117
-43
31
-85
-120
-9
48
59
79
-42
84
-1
17
12
28
104
79
-21
109
-115
-2
-76
9
115
34
21
86
27
-61
44
-101
-42
19
-75
-92
-52
8
-1
43
115
62
83
50
-69
6
-40
-58
40
-36
10
23
-31
-6
92
-123
-40
69
49
48
-83
23
-18
125
97
-112
-102
30
1
-78
14
-103
31
-101
-91
-81
6
63
-63
-62
63
105
-73
97
97
69
117
-47
-122
-117
80
99
87
19
12
-118
-14
39
-121
-86
122
-40
-33
-99
-34
-7
-40
-67
112
93
-14
-40
2
-74
117
-105
-35
-77
69
-94
-81
-3
34
-80
-60
42
-75
-81
82
-88
4
94
-52
34
-19
98
86
-73
49
-90
8
-12
-59
100
3
-8
35
25
-27
34
-117
-9
-62
90
33
55
95
-92
34
14
-14
19
53
100
43
-118
34
114
-16
-93
109
58
2
-24
47
18
-41
12
65
52
88
-75
32
126
-73
113
40
2
-32
12
30
-81
-77
-127
62
84
-57
31
-109
118
14
92
123
106
70
22
116
60
-55
-68
31
-23
79
-58
-82
-77
11
-93
21
12
117
3
-122
8
72
-43
102
21
-2
107
79
-100
-34
2
63
72
-4
-8
25
73
-44
33
79
10
-128
28
119
-35
-64
59
-91
-34
-77
-45
-37
-114
-114
99
-55
-106
89
37
-113
-84
31
42
-104
-79
41
28
57
-17
86
123
93
92
82
71
-10
2
-97
-93
-98
107
-58
69
-25
-47
60
107
52
-94
-23
-59
-91
-90
51
-81
39
-21
8
36
-119
-49
19
111
-28
4
-6
114
29
13
115
34
21
-5
40
-76
-93
-82
-25
-19
65
62
-126
25
69
-84
-126
-104
88
-82
123
60
13
-74
36
50
44
5
31
-20
24
-112
38
10
67
11
-74
85
51
-87
-101
-35
43
36
11
-40
-31
-19
107
-104
-27
-8
-82
91
-52
23
110
-99
-31
10
120
-27
-96
-19
99
-78
91
10
-33
18
94
76
12
73
1
100
113
19
-108
-43
110
100
16
72
117
-41
98
103
-2
-5
-55
-68
29
122
-66
74
22
32
10
43
23
-110
16
-116
67
100
85
-59
-20
73
33
-41
28
120
94
-10
99
69
0
92
-76
63
57
95
-99
-51
-59
-97
-15
-49
-84
-88
-64
122
-123
118
-89
37
-62
-80
49
-39
107
115
0
-81
106
-48
44
88
-46
-82
41
102
83
-113
-5
111
65
125
-108
-12
-47
-125
33
-70
106
-86
122
-11
-20
-52
42
124
101
87
93
-30
-20
-119
-39
-72
-38
-58
58
100
1
83
9
49
-15
81
40
-78
46
11
-117
6
-104
-79
32
63
-120
28
-55
60
89
107
-86
110
-40
78
69
-13
-3
-123
-41
-78
-97
-84
-84
-99
-117
-57
-73
-58
-107
79
51
-39
-76
-42
91
107
85
64
39
-94
62
20
-57
73
103
55
46
106
108
10
-86
116
-96
115
17
96
-78
-109
38
-7
-5
-58
-108
69
-119
60
-49
-36
78
-50
35
-12
123
-74
111
76
-84
-109
-38
12
-26
19
24
83
107
-75
-128
-121
-110
-7
73
110
104
-98
-126
18
32
-27
109
7
-21
-123
122
-71
118
-45
-13
-16
-24
53
10
-75
47
-56
-48
16
-35
83
-88
-44
-3
19
112
-48
-24
7
-97
-32
97
52
104
-85
-48
-127
-117
-30
-98
104
31
56
88
-89
114
62
54
25
-119
-37
-84
-42
55
75
68
73
46
43
-41
-98
92
53
-28
-43
4
5
-101
-101
56
56
50
11
110
-9
-110
-36
119
19
117
97
29
3
-103
-20
-31
-67
-103
-103
-59
-76
117
-82
35
-41
-40
-108
-95
-16
46
-90
-11
82
-24
87
-32
-16
96
-97
35
82
61
117
0
-54
-121
-72
84
-39
-24
114
105
-37
-6
-29
110
10
-85
-98
35
-41
-74
60
-13
88
6
44
-114
92
43
115
108
-96
-126
41
-5
86
-4
54
65
36
34
50
60
-66
104
-15
59
-88
62
-73
107
8
22
53
-112
-90
92
-113
93
65
59
-125
65
-87
-106
45
-68
111
121
-58
-15
-3
125
-69
121
-7
71
-78
114
64
-81
-123
29
-69
-50
-94
112
1
112
95
26
-69
-70
94
50
-94
-48
6
-72
25
-120
-31
-73
99
88
57
-117
66
-73
116
-99
58
-116
-50
38
-100
79
-80
92
78
122
-21
-65
113
-71
-3
85
-3
31
44
-44
-38
93
52
59
74
104
14
40
-66
82
-43
45
-76
35
-49
82
-12
114
-28
124
-39
46
-70
30
46
47
-82
-9
-54
-113
-78
-30
123
10
56
-50
-49
-76
-101
-45
-10
35
-109
95
-22
-40
-105
-76
78
-22
89
60
60
70
-116
53
-69
-88
120
32
-29
-32
53
61
85
24
118
-53
34
99
-42
28
90
110
10
-48
-60
71
126
-110
-83
-25
117
-95
41
-17
-121
35
-88
-16
-8
-51
113
-30
-44
79
37
83
55
-22
27
-52
116
61
-66
-12
87
-13
-21
27
-121
-62
-71
-45
102
3
-24
94
8
114
-5
-79
-118
112
28
-78
118
68
47
31
16
55
-23
25
83
-39
-29
5
-109
-6
96
-74
94
-46
62
47
121
97
-64
-3
36
97
60
-89
81
105
95
-91
-65
-65
-74
-95
-124
24
-112
-3
-48
-5
-49
75
61
13
-53
-41
26
88
89
51
-4
14
10
22
-95
-124
15
93
45
13
10
106
38
44
34
103
-61
-102
-66
-59
-42
50
-25
-55
14
-109
-44
3
-95
-103
-27
39
-66
-11
20
9
-105
-33
4
24
-56
-90
53
-66
76
-128
-93
-62
-49
-64
-66
-108
101
73
26
86
55
30
91
126
59
13
101
-77
48
-33
-37
-55
-66
-26
44
106
-43
80
73
-76
76
23
-43
19
120
-92
19
-2
106
-123
103
2
125
-65
-49
-112
29
-125
49
-14
18
2
78
-101
59
-85
45
-75
-23
-127
-41
-25
-89
74
-23
33
-17
-82
-36
-89
36
9
-2
69
-109
115
-117
-95
-126
-37
-77
21
112
92
74
119
87
45
-21
-48
-13
-91
-37
125
-100
65
4
-110
-97
53
-52
-114
-25
26
-91
67
-79
-42
2
9
-119
73
-89
94
49
-16
-102
-20
-11
-33
-14
-16
-89
-2
22
-41
59
120
122
70
-124
1
-17
-32
-47
-36
-91
-17
-108
-98
-109
-84
26
-47
82
92
-34
96
104
111
-51
-57
-103
85
78
-27
-55
109
20
5
-102
-75
14
-49
-42
-59
61
18
-119
19
97
16
-22
95
98
68
-41
-94
107
-31
1
59
-73
-62
-23
37
42
78
-35
117
76
89
55
-15
86
-40
-35
19
-114
-47
-113
-95
121
12
-22
112
68
-122
97
113
88
25
-75
56
102
-125
-116
-6
10
-12
2
123
36
-69
95
81
12
116
-76
77
42
-33
-34
-125
-110
16
-41
-28
-76
-88
-53
-98
-61
-82
91
55
-19
-69
-42
4
47
-68
125
-4
-98
-41
23
-85
118
98
-29
-70
51
67
-26
-86
-84
90
69
18
118
-8
8
-14
-61
-73
120
-7
-3
2
-17
-9
-8
17
-34
87
-15
75
21
-107
-65
62
69
33
7
71
-36
-82
-83
-89
-121
70
87
31
-93
-18
-33
11
-22
-95
0
-74
-109
16
57
-117
42
108
-6
-3
94
-14
-19
83
25
55
55
-6
-77
15
62
-128
112
118
-65
-36
-30
-13
-122
56
-3
121
-127
8
-66
-65
55
9
14
76
-45
-60
-75
-22
-1
-19
45
-34
30
-39
-28
-17
-108
-121
95
-10
91
-93
104
-60
-66
-64
30
116
-25
-83
60
17
26
-33
-84
105
-67
104
23
20
4
-36
16
61
-75
7
-84
-119
-53
74
-88
-72
63
47
-5
-112
-110
-74
108
-71
107
-67
-117
-84
86
27
-84
-43
-92
8
51
80
-40
30
33
9
16
87
-25
-38
-11
-117
-49
-126
117
45
-24
-56
48
44
-11
14
121
-54
-27
-36
84
-30
-76
3
108
-60
-38
-32
-70
-20
-50
72
22
114
-7
87
118
-30
105
91
23
-95
18
26
-54
-25
69
85
125
2
118
117
-85
-11
2
-67
32
-58
-111
-105
-59
-75
-57
-33
-127
50
-109
41
-12
-34
-98
23
-128
-99
-105
14
-20
33
6
-75
-57
-125
-15
-122
13
27
14
8
115
81
61
34
-84
120
0
63
-94
48
57
5
87
63
80
-53
-75
-40
-66
-7
118
-35
86
-47
5
-7
-95
-56
74
-37
-32
-75
93
-71
122
-46
-29
37
77
-23
-2
84
85
-50
-7
78
-45
-108
-107
-103
-111
-8
54
-106
80
31
29
-83
44
17
-76
17
87
90
-97
-12
-65
61
-48
-31
99
1
42
43
92
99
-87
-10
-7
28
-6
-99
-63
104
63
-49
39
43
-103
-98
88
89
-22
-3
-1
-48
76
-93
103
48
34
69
68
41
-75
87
-23
86
-84
-20
-31
72
44
5
-82
-40
82
92
-74
-108
-18
-60
14
-103
-44
-91
102
67
-82
-118
-63
90
-67
-53
126
-31
-21
92
-8
41
-106
60
-57
54
-100
-14
47
10
-98
-122
-123
-30
-39
-22
-104
124
-44
-79
116
122
17
94
-76
124
63
65
-128
64
118
-113
-34
-35
45
-76
56
78
-20
-80
53
-88
67
16
-41
94
-23
-114
105
-40
47
-34
-20
9
22
-13
-120
-112
-26
-64
10
29
-60
64
-76
90
120
-67
-117
-5
-57
-46
103
88
13
-87
-16
-108
49
-64
60
-38
11
-123
27
-41
-126
116
-56
-30
-6
-84
-113
-2
123
-76
-82
-79
64
50
2
-110
-41
105
102
43
-126
104
93
47
-107
1
18
-27
-49
29
82
-93
-40
-104
-63
-20
-114
-104
17
-126
48
-45
96
-97
-31
119
-21
36
-5
60
-127
9
117
48
-20
53
-71
-30
-6
76
49
121
36
31
87
81
0
36
-33
-29
98
-125
64
-67
-7
-25
10
1
-100
84
39
-88
16
-83
-80
121
-31
88
-60
63
59
41
90
-74
32
90
94
50
-88
75
-12
44
-72
-96
-42
-123
-28
-44
-111
-86
-48
21
-84
115
40
66
-126
-3
-41
-70
115
11
-95
58
68
-36
90
14
-110
-89
-20
94
-45
-88
-111
69
22
63
-17
49
59
-45
67
89
82
-87
27
36
-118
33
-101
27
96
-102
97
-4
-19
93
71
-10
-59
93
31
-68
74
105
39
-35
-105
-34
65
60
-33
72
3
-95
-74
-91
-112
-113
31
98
-115
-126
-34
-33
7
-21
21
-2
77
99
84
24
84
-44
-66
-78
-46
-2
-72
48
101
122
62
-112
-42
108
-102
-76
-99
65
88
15
-10
78
-18
18
8
-14
-60
16
-87
68
-17
52
49
22
113
111
96
38
-47
101
40
-52
-93
-27
-87
-24
41
38
-23
-23
-37
61
49
24
-51
7
-70
-85
-102
114
103
-83
-17
-87
11
125
74
91
-64
-58
38
-32
-63
116
-88
87
-71
-16
9
117
5
34
110
-16
62
-14
90
52
-19
-107
-59
101
68
-74
92
42
-97
62
59
-36
-8
59
122
-5
-123
-79
76
35
-39
125
-80
-46
31
5
46
96
123
-49
50
103
122
19
78
17
-31
49
4
-16
-68
-60
-117
-121
7
-85
-60
-99
113
-74
52
58
113
71
76
-80
57
-43
103
66
120
-82
-116
-72
-112
-91
15
88
-58
-95
22
-49
-11
78
89
8
-45
120
-14
98
-92
114
17
-99
103
61
-48
-122
109
-9
-97
-37
101
23
-71
-122
-126
64
11
68
-119
-79
70
-63
-31
-81
70
-1
11
-105
-18
24
-60
-80
31
-101
-66
98
-51
-25
82
-36
80
-45
-16
77
68
9
40
15
86
40
9
122
50
87
21
-44
20
106
-9
-113
-124
-68
94
-86
-89
-126
69
62
-84
-66
-108
-105
-42
-13
-124
-116
-88
10
117
-37
-69
121
-112
102
-23
-104
101
61
11
69
94
108
-23
96
-113
39
-100
-120
-67
-17
-70
-78
-94
-128
118
29
-12
34
-59
112
-46
124
-105
-10
31
11
2
27
77
8
-126
55
30
-107
63
60
-112
11
-23
-48
-104
100
-75
-89
13
-4
-32
63
48
-25
-110
-51
-98
-123
-26
-116
51
-62
-76
94
-85
-97
-26
101
-20
46
-97
-120
-118
97
30
-63
-15
23
-124
126
-59
-125
-78
66
32
59
47
-111
-124
-69
62
-65
113
121
-97
-61
-35
27
-11
60
112
-70
59
20
-50
-126
-14
32
17
-54
-55
-26
-81
100
-22
-23
-54
90
121
106
-21
-124
19
-6
-123
93
-36
-102
20
48
-63
-15
-102
116
49
38
-58
-63
48
-34
112
-36
-27
43
83
-103
-11
104
16
-73
-101
-17
-30
-29
7
-22
-3
5
-74
-22
113
-103
-39
31
-5
-102
-109
25
-62
119
-66
54
-51
-124
28
26
121
-60
-95
-39
-101
44
52
-100
114
-127
99
-35
-16
10
-87
-98
-88
66
35
-97
77
-118
35
21
-55
58
-30
97
7
9
9
18
68
-127
-30
-7
-102
95
85
-125
-24
-19
-101
104
32
118
126
-107
-93
-113
-69
-90
69
-103
-34
82
88
-18
114
80
-41
3
42
-39
108
23
49
-94
40
33
-4
-63
-116
-30
-37
-73
-62
32
74
-71
59
-99
123
-93
89
68
19
-75
114
111
-6
-101
96
18
72
29
45
-20
104
-97
68
-33
-104
96
1
98
20
-58
38
73
119
-82
61
-15
-16
67
-39
-88
27
-125
-116
79
0
79
11
63
-54
-71
33
-53
106
114
25
110
2
-5
110
-26
36
17
-62
37
-124
45
-118
61
-95
-69
-78
-72
110
-89
-107
-75
-5
17
-22
-72
-39
-29
-71
-65
13
-60
-15
-127
55
31
41
-52
116
-35
65
-82
-65
14
100
33
-25
61
-6
123
-67
105
6
-119
-25
27
69
-128
-17
-18
-8
89
45
-78
21
39
-43
76
111
71
59
8
-33
-31
-56
119
37
108
-118
75
-111
106
21
30
110
-111
74
-104
42
-80
89
69
-119
-102
-75
-63
-72
-29
-74
-102
-64
27
60
-82
33
-111
82
84
-28
61
-98
-6
-46
-117
15
28
30
90
5
-89
6
-107
8
-1
-76
94
-106
85
-98
-48
-54
55
109
0
89
-116
-48
-39
77
47
-55
56
56
-75
124
-116
-10
42
-101
-33
65
-97
56
-121
13
-122
-83
82
-64
-120
36
-124
-26
24
6
96
89
-28
115
-52
96
-105
-22
73
-16
2
39
19
32
57
6
80
111
-42
-126
70
-76
-30
-72
-92
69
-96
57
-6
-12
114
-29
-112
58
27
-120
28
-91
-68
64
125
25
17
-128
59
3
-114
-13
-103
-109
-78
-69
51
66
-33
-52
-34
-112
-83
82
-51
34
9
-81
119
-23
-28
-117
18
43
24
125
-17
11
109
19
-71
12
8
-106
83
50
17
-57
34
40
-24
-71
62
67
-123
-29
17
43
-17
120
-69
98
11
102
-14
14
-43
41
107
23
115
44
-91
79
-31
-48
-77
-49
-26
-102
-37
-43
-47
125
95
-55
-123
-16
-111
-15
15
-45
-125
-103
9
53
122
-88
108
16
112
-25
-60
-26
89
60
96
-119
-11
-82
89
-50
-31
60
-12
117
-38
-121
22
118
29
-107
14
-125
45
-108
72
106
67
46
-7
77
-24
60
-71
45
35
-99
8
24
123
-29
-124
109
96
108
-117
-86
-61
42
16
-4
68
26
-112
-108
-5
-99
-34
-101
69
-93
-126
-121
-47
-80
103
-28
92
121
-92
75
8
48
-89
-27
-58
-112
-93
-85
0
-126
-88
82
83
23
120
-66
21
-92
-94
-85
2
10
-114
-109
-103
43
-58
-36
5
-50
-20
-29
-43
97
-3
29
-51
-98
18
20
-55
2
-95
111
-120
18
-40
103
119
79
25
-15
-118
-37
-46
-109
-26
13
91
11
-88
-26
91
-55
-1
-5
48
-47
123
-113
-105
43
-22
-39
-4
-54
-8
46
-18
-84
121
70
20
53
18
52
-1
-8
42
-95
73
43
88
9
-30
-97
72
-66
89
-72
-3
36
-126
122
5
73
-35
109
-33
-9
-99
105
-73
22
-53
-29
-37
16
118
-21
54
-46
-13
-68
17
72
99
56
9
23
-33
-31
-17
13
-17
50
80
-52
113
-5
-93
48
111
113
59
-119
126
-25
10
-119
8
-44
-5
7
-100
89
-87
-84
48
56
-113
52
78
40
14
-96
-73
83
34
16
-76
-125
-39
53
102
-19
57
44
30
-120
-62
-103
-36
-108
98
-8
-120
1
-91
-94
-101
124
-62
-102
124
-33
81
-59
-1
28
-26
23
25
-55
77
117
-93
-122
115
6
-4
-5
-115
52
-101
-95
34
5
44
27
82
88
-90
42
102
-36
99
80
-48
-42
-110
-22
-89
71
-84
123
66
-120
81
56
39
-114
-101
-4
88
-3
-67
-64
-58
61
20
57
-81
13
126
30
99
21
106
45
65
-27
112
-28
14
77
-66
104
-84
52
82
-17
-123
42
39
-57
-48
104
69
-61
78
-82
-75
111
-45
-18
-91
-47
-114
113
-61
1
-17
122
-106
8
-8
-79
-2
-63
-108
9
90
-43
-14
-75
105
-74
-127
-128
-86
-11
100
-46
14
-90
-35
51
-32
-28
88
-91
-6
-16
-98
-37
86
-6
-5
-93
-18
-30
53
-14
81
51
-11
-117
-8
36
-85
44
-124
49
-83
54
55
-77
-4
116
-123
-35
122
-110
-52
-66
-97
-61
-49
-36
-95
-34
46
35
67
-128
-107
117
87
18
-28
88
4
-7
76
36
104
-37
-117
-83
5
-86
-38
108
-102
-85
-16
59
26
81
-56
109
-127
-35
35
62
95
121
1
121
-52
-89
0
32
66
-48
30
75
-117
-28
-18
-96
-123
-119
-70
-61
-83
51
32
-68
65
118
-57
88
-44
-77
1
98
33
11
97
34
10
46
10
76
-110
97
-112
62
-98
42
-106
-96
-26
-87
-35
63
106
-88
-61
71
78
38
111
-8
-101
-40
50
-102
-78
-66
-65
8
94
-34
-93
-71
-2
-37
58
-92
-74
83
-87
89
-53
120
14
84
-75
-46
-1
79
-31
-56
-73
-36
37
60
40
36
99
-51
-111
-26
-104
95
100
82
-45
-33
-92
-60
85
-23
-29
90
44
-17
-73
38
-15
85
19
-35
107
-44
-104
-128
114
39
118
-125
93
92
-67
-87
75
-119
63
68
60
-25
29
-26
-72
81
-14
-86
-5
-59
-70
-57
27
71
-19
43
117
-84
36
49
-100
-119
-128
-45
-115
-66
-81
-35
16
125
-105
89
-105
-64
29
-33
-58
-57
34
-65
106
-60
-47
-41
121
-8
120
107
3
38
-26
104
-13
-75
12
-72
17
13
-54
-40
-32
41
65
24
-8
7
124
-104
-62
-127
-15
41
-41
-55
-23
-54
-46
-5
-66
-67
-66
0
62
40
-54
-84
-45
-126
-15
56
-99
-1
65
-100
-72
-54
-50
-42
1
54
124
89
57
-127
-125
81
-90
101
-52
36
-77
66
-106
-99
-19
-109
11
-26
-48
-41
-32
83
-102
11
4
-38
-83
121
-128
4
-96
60
-11
75
-27
3
46
31
48
119
30
-127
60
-49
-25
0
70
24
-45
-81
-39
114
124
-78
-18
58
42
125
-94
40
56
-13
-4
-54
3
-101
76
113
93
75
-108
-115
74
112
73
77
18
18
66
-25
-116
82
-72
111
16
56
-79
-7
-114
-58
116
-33
-122
50
-7
-1
-108
-121
-66
35
94
-23
46
94
-97
-106
-105
52
65
-62
65
-77
-8
2
-86
103
41
94
-123
-56
-33
-39
-128
60
-101
-95
111
56
-53
-43
111
22
17
-43
-58
120
-7
81
44
-86
49
40
-36
-121
-5
-96
-120
53
26
26
112
101
-66
-111
-96
-23
92
-122
-81
101
-108
-105
91
-36
-120
57
-72
-59
-41
-44
125
-126
-92
36
88
51
20
-44
-42
-13
-82
81
-14
92
66
113
-63
76
126
65
-80
53
-100
58
99
-101
113
-71
-14
-55
26
120
39
119
-62
-120
20
-107
-52
108
107
82
119
63
-57
114
20
-68
-126
-106
-28
23
53
3
-4
94
116
-52
-105
-94
-11
3
46
-101
38
88
2
82
56
103
101
71
-121
-62
-63
26
-103
-122
81
-123
95
98
108
-88
-2
48
-26
-98
97
-116
-117
-108
-91
110
52
79
-9
-117
-67
-106
-32
66
-44
-54
5
92
110
17
-14
4
32
-25
114
21
-127
12
83
105
-40
-98
-118
-10
-97
-21
-60
-117
-122
78
-1
-48
-46
94
-68
-79
66
108
-30
62
88
-18
-88
70
125
-40
84
36
9
78
82
-98
-120
84
-12
-37
-31
22
76
-53
-118
-31
37
-60
25
108
53
-116
-71
32
41
45
47
-124
-6
-88
-2
8
-40
-87
61
-102
3
92
-94
-119
91
123
-14
16
-114
50
-128
15
-104
60
-33
-85
105
-95
124
-115
115
-102
-21
49
7
84
-38
-66
-54
124
-118
32
63
-18
16
116
78
33
121
-46
124
25
120
-95
-74
125
17
101
-11
95
-85
57
81
-60
12
-36
112
-16
53
7
-121
-90
-78
-1
99
8
-92
115
-81
-16
83
-120
-128
-122
28
119
78
-86
19
102
-33
-9
94
-18
-29
108
38
-45
-92
105
82
-53
-106
121
27
98
57
-119
-66
123
-70
-24
-87
-102
-43
-9
42
-119
-101
-73
-106
82
-112
14
-116
6
49
41
-125
-43
-33
36
-90
-28
54
-102
77
-98
-13
73
-96
-25
-85
-122
-127
60
86
-40
-64
-117
-21
43
113
84
-122
42
-49
10
77
88
-33
-69
26
-97
15
-58
-79
-110
119
-87
-125
20
-93
-128
-118
119
11
80
66
-44
111
30
122
-13
-66
87
107
26
-30
19
-85
-12
-10
-101
27
-7
-100
36
24
58
39
33
41
-35
63
-7
87
14
84
89
47
119
112
-71
-108
89
6
-21
-73
-21
53
-13
112
60
-113
-99
-23
-8
-71
0
121
-53
-51
-91
32
-30
-43
-30
-24
50
112
88
64
-76
83
-67
-96
62
-81
-4
-57
-111
63
3
-8
-17
-16
-31
-69
-12
-16
-106
22
9
82
5
-34
82
28
14
29
31
-111
-57
-80
57
-123
105
93
-25
-83
77
-33
-35
-62
-73
43
32
105
-15
18
-97
94
111
34
85
-77
-84
-65
-111
-32
22
49
-19
-86
59
103
86
106
-34
-12
-23
-48
105
18
-92
124
-114
111
-21
79
-125
21
99
-69
-90
-92
-5
52
124
-13
-68
-60
85
-65
65
-32
-123
9
-84
-96
-4
4
9
49
-7
-24
-84
-40
95
-64
-96
52
-37
8
4
-91
-24
32
62
115
61
-15
26
124
-109
18
-13
6
-36
-53
118
-1
87
-83
-11
-99
-94
96
3
-55
-115
-116
74
-82
-12
112
-117
-89
-109
-91
71
-80
34
-101
69
-56
-42
-54
43
84
-31
-51
-127
-74
-98
76
98
-128
51
-42
-100
-115
-102
-42
92
52
-75
-95
38
66
111
17
74
46
0
124
-40
-72
-117
-85
-39
112
-38
14
57
-114
-73
-114
-103
30
-107
-103
53
98
-19
-44
-78
-112
121
-124
15
92
-107
-23
-96
-112
99
-38
-81
81
59
-99
-9
-11
13
92
5
45
8
-100
-47
26
-118
-88
-87
36
73
68
76
-118
66
-98
36
45
-82
25
51
-1
79
50
-7
-78
-120
-2
121
98
-51
58
81
101
-32
43
-18
115
-81
124
-73
-94
45
-15
94
-30
83
81
-59
57
-69
29
-7
-47
-78
113
-24
99
-109
-32
106
-70
48
-73
-22
-28
10
72
-60
103
-104
-64
99
11
15
-17
-50
46
10
86
-115
114
40
-70
-83
-10
-17
39
92
102
-116
120
-45
-55
-89
108
53
-18
-71
-19
-33
-88
-20
55
99
-44
-61
-50
-55
111
-53
-128
58
-41
-63
74
-121
-12
-109
-62
-117
16
-4
-72
-107
75
66
-116
20
-10
5
100
55
86
67
100
-87
-107
70
-89
112
-73
8
-52
-38
-103
104
-104
51
95
-100
76
-107
-67
-51
-40
52
124
20
74
-116
-128
-24
-67
-15
-20
118
-19
-45
-76
3
61
-97
-118
-92
-106
45
-101
-40
-31
-14
87
102
30
23
124
-25
-39
118
13
71
93
-21
84
-122
-91
-32
74
-5
108
68
-47
113
-80
-38
-6
-90
8
-83
59
30
-15
43
71
82
-29
-9
-107
53
-102
59
60
104
-34
33
-67
-72
-22
-43
37
99
-75
99
-93
25
-44
16
-110
-93
35
-65
123
1
-15
-58
42
-33
-98
102
-82
-42
-52
14
-3
-81
63
23
24
94
37
103
37
108
-90
12
45
-10
-105
-15
7
42
77
-51
2
-71
-117
35
-102
51
-2
-25
-6
-59
-45
-88
95
-111
-85
90
-80
-24
-32
-122
121
5
65
65
117
105
-1
-46
-105
31
-66
-21
-57
-104
-105
-78
93
-117
-14
58
-77
118
-95
27
115
-42
53
-52
81
-104
103
80
1
24
125
10
96
102
27
51
64
124
-28
-18
23
-2
58
65
68
-42
-98
76
-25
106
-20
-19
-116
-47
-127
81
-73
-39
-85
-72
89
-21
126
44
-26
47
-87
-27
76
-25
-60
55
-40
110
63
100
-90
-108
-44
110
-96
101
59
34
-100
-71
-107
-123
-31
-64
-8
96
-6
-7
-94
-44
-28
-62
110
-33
31
53
-69
38
73
78
124
-104
-110
7
-7
111
78
100
-13
-9
80
-13
-43
10
42
16
-109
-51
2
84
-11
27
-105
62
-127
48
86
30
-121
83
-12
105
-102
-77
-103
-117
-16
-48
-122
88
22
47
-124
-36
31
25
-42
-13
-34
-8
39
-103
122
23
49
-59
78
-109
-96
38
58
-67
-35
58
57
-1
-126
32
-106
74
22
72
110
99
-121
29
44
-22
18
-19
-82
-94
15
36
-76
104
55
-22
-125
88
-124
-18
86
-7
-20
17
-17
98
-81
-43
-121
-63
-34
-56
-48
-54
-94
-59
-97
113
-102
-3
1
51
9
14
-36
8
-75
-54
-9
107
-33
-60
37
-91
-13
67
-63
13
-19
-91
-3
-121
58
53
42
108
-85
0
-118
-94
-61
67
43
-44
95
-76
-29
5
-104
44
77
116
57
-70
36
16
-48
-50
86
42
34
-66
112
65
-39
38
-73
100
-116
-101
4
-103
12
-29
-35
91
-38
-103
123
89
-86
-73
-18
55
-83
99
-97
-85
-55
107
104
-91
12
-47
-30
12
-48
124
60
41
40
47
-95
-94
116
57
-66
-39
119
56
-16
-49
-21
119
-96
74
-101
74
-63
117
-22
-37
125
-1
-26
82
92
-111
-77
99
71
-113
57
-75
18
97
-96
-21
-28
4
-7
-124
-4
-85
62
-53
50
124
-86
32
20
74
-16
75
20
29
-106
-101
46
-20
3
-101
-19
1
-29
126
124
-67
-20
-61
34
110
-48
-37
-114
-93
-47
28
-113
14
101
-123
-86
-83
-37
105
81
81
92
-5
-111
-90
-19
-85
100
-18
81
-94
49
44
-83
62
-121
51
99
38
-6
-111
-82
-81
-127
57
-51
68
112
38
-60
99
-3
46
-120
-41
-51
-73
98
92
-73
-38
-120
110
-61
122
111
112
75
-103
-68
25
101
-33
23
7
-108
-49
53
114
102
-23
-70
-42
1
-52
111
102
-71
15
-45
10
51
114
20
-107
-44
-17
71
66
83
-109
-82
91
-6
-50
-109
-74
66
-98
52
-107
62
44
94
3
71
-18
-108
-72
-105
-110
-52
22
-97
126
-71
78
-88
6
2
23
119
77
34
119
53
-35
69
57
56
100
14
-87
102
38
-79
84
-59
76
-71
123
-26
-87
-33
-20
48
121
-54
-94
-83
-59
61
-18
-58
-66
-70
-53
79
-97
-70
105
-118
-63
-23
71
109
-26
-14
89
47
42
91
106
51
49
-32
-29
-97
8
87
-97
-98
77
-122
-28
3
-17
-86
69
101
74
29
90
99
-68
-90
29
-99
38
-10
117
-18
-2
99
38
18
63
59
-26
46
-64
-3
-37
4
-46
-34
-10
58
9
93
-96
90
-60
-108
-116
14
-93
-24
7
9
-63
63
-95
37
-109
29
-31
104
-64
-29
-45
-52
-80
26
-117
-22
14
110
34
-1
81
42
-102
80
60
-122
-65
11
-98
27
-93
14
106
-40
34
105
-103
-108
40
109
92
-74
117
-29
-44
36
-89
-65
97
-88
26
106
-75
7
-112
92
2
87
-51
-63
6
122
13
-19
4
-37
121
48
116
-64
-89
44
69
-29
21
-93
-60
-103
-91
31
-11
93
-120
39
-55
1
56
-65
-8
2
64
75
93
28
-64
-14
97
-66
10
-42
46
39
1
-34
-15
80
12
115
-58
-97
-75
109
-2
-72
3
40
-122
-3
6
23
100
110
-24
1
46
83
-9
-7
-35
-74
95
-27
16
-55
-83
-71
7
-64
-101
14
-118
4
51
84
52
78
-111
26
-119
115
-61
-67
37
103
-119
81
-123
-45
6
6
44
31
-94
-40
121
90
-43
-97
69
11
-87
-72
-38
67
-71
-5
106
94
15
26
100
-58
-91
-86
-20
77
-121
-92
100
52
57
-108
18
15
71
-96
-8
-124
-35
-17
36
116
-73
-98
-57
-51
84
23
-24
-45
16
-55
-15
84
69
105
87
88
62
122
56
14
61
42
-18
-71
65
-89
84
59
-116
-125
78
75
68
86
68
-112
-66
-69
117
125
92
57
-63
-21
52
-24
-100
-17
-69
118
15
-106
16
86
97
100
23
-34
-91
89
71
7
-27
78
-115
-13
76
61
57
-28
93
56
-105
-63
53
-101
30
125
92
-103
69
-30
-127
-83
-90
-66
64
-79
-80
3
55
91
-21
102
-69
29
45
124
-55
68
-67
-33
-21
84
-97
64
87
-62
57
-35
-49
100
-106
95
11
125
66
83
10
-83
-110
82
-8
14
77
-41
40
-119
-67
5
-87
-23
39
86
-38
90
-52
93
-66
83
19
-14
26
-85
-29
64
-128
-122
102
-119
125
-22
-66
63
-98
-116
-100
-23
119
0
-5
-94
-83
-74
-97
-18
-23
-13
4
-21
50
-79
62
-100
108
-21
65
96
92
13
47
5
-41
14
-96
98
-73
-43
123
-48
111
-55
-72
76
-41
87
-2
-81
81
98
-121
91
63
-13
-84
21
-57
-25
55
57
-55
-58
-64
114
84
0
56
-64
-80
-75
123
-60
-62
91
122
113
-75
-25
110
-16
-7
-101
64
117
-66
-29
-17
45
95
125
-124
104
-124
-47
76
-125
0
69
-97
118
4
-39
-90
7
105
-51
52
75
46
-50
-3
70
-77
2
-70
-64
110
-47
42
100
-13
41
-19
47
-116
104
105
-109
-94
44
50
79
83
10
-38
1
60
-78
65
-16
46
82
12
-63
-51
-2
-87
-86
121
-13
-48
-10
92
-25
100
-108
118
-80
105
-91
89
71
-109
-125
65
1
-23
-46
54
1
58
-69
-22
-5
57
123
120
99
-104
52
-47
34
120
-68
85
-4
17
83
20
-34
24
-86
-128
94
101
15
5
-50
-97
-3
-20
-110
100
-35
-110
-34
-121
-95
-51
96
121
59
-115
-19
-91
22
95
33
60
64
-108
-9
-112
32
75
-95
-106
-27
99
-2
-112
-60
-77
125
60
-14
-58
69
-44
-101
-1
7
-95
-33
67
40
-59
-83
-87
63
-31
-27
17
-47
-37
25
-126
19
94
114
-34
-25
21
79
-75
-82
-2
-11
86
34
70
100
68
-53
-94
-38
-17
-125
-77
88
-93
103
-110
112
6
-107
-45
-70
-57
-122
-125
-120
-118
-15
12
-105
64
-24
107
-114
17
74
-68
105
-80
-34
-14
-118
-93
-126
11
-50
40
-32
-43
-103
17
84
65
7
-128
113
89
-12
-92
85
95
-83
27
-43
41
-34
-104
9
-92
-98
-66
-58
20
-29
-38
-97
88
117
-111
33
47
5
-114
-59
20
86
-113
61
-121
-106
-22
-72
-80
114
-94
115
-92
58
-100
-18
9
26
-28
22
-105
18
45
106
40
-61
57
12
97
24
-53
58
-51
63
-107
4
102
1
98
-26
80
-68
-5
-61
29
-59
-31
108
-32
28
61
-128
-60
5
-54
25
-101
77
-127
-58
-126
-95
7
-103
-18
-119
86
116
113
110
9
-107
39
-57
58
-12
4
-91
40
-46
56
-7
-69
100
-65
-114
-45
-124
42
-89
1
-21
-80
97
-8
-59
24
-64
90
-118
123
43
-118
-47
39
55
-114
25
-38
103
-12
-97
18
-56
62
-124
-110
-75
75
93
19
40
-18
-39
31
-126
65
31
-3
-45
-21
100
-24
105
-6
-26
86
-7
102
56
69
-22
107
33
94
103
44
126
115
-120
46
4
69
-81
-96
-10
2
-14
82
63
-77
126
-68
-103
45
-53
51
-31
-8
-53
-67
99
8
-108
-10
-14
-16
-19
14
113
1
-107
109
62
-28
71
-66
40
-49
-80
-108
106
98
82
43
34
-82
28
10
-109
91
46
-68
93
-120
-38
75
-117
58
34
-15
-20
7
34
-19
-76
26
-2
75
50
-68
-6
-105
20
-69
-112
36
-114
113
-38
77
-104
34
-38
-98
-57
-57
-11
-90
-81
7
115
-2
-96
-118
68
-22
104
23
-95
-27
-90
-87
86
83
90
-42
21
-43
33
37
-47
24
15
101
126
106
-121
45
86
-29
21
17
-42
-6
-31
-12
-60
-29
-58
125
-42
67
-78
-50
54
74
106
6
116
67
-59
58
26
-19
-112
-17
-57
-105
16
85
-77
-128
41
-92
-75
13
117
-63
-30
-20
18
-4
-14
61
-30
-45
-54
10
75
-124
-86
59
-96
64
-25
26
55
-84
46
-34
-56
48
91
-100
46
113
23
5
-1
-113
-7
24
-43
95
-33
-58
40
57
14
-92
92
-128
49
-27
-23
-29
-77
-55
48
74
-70
104
39
-52
112
-3
0
118
62
91
-18
86
108
60
-71
-34
75
74
-23
65
-58
-27
81
-74
70
73
116
-1
-33
-99
-92
88
41
-121
12
-71
8
121
99
3
-8
53
-17
-7
-67
70
26
-80
-119
-6
37
97
49
12
80
-28
84
-127
-4
19
65
86
110
82
-31
91
42
120
24
-41
116
-31
118
-40
-68
-4
88
43
49
-52
104
-13
-47
-80
-5
67
-53
-40
69
-111
71
10
1
-76
20
124
79
2
7
-83
103
-89
24
38
-92
28
-42
38
-83
74
115
-94
49
-125
-104
-1
-9
-8
-25
40
55
-74
107
98
-79
98
-103
41
64
-98
-72
-112
-8
67
-108
70
-10
100
-13
98
106
-55
-25
113
64
-105
-121
0
115
79
-21
16
-116
-4
96
-7
-62
-61
30
85
-9
-8
106
-127
124
-125
87
19
83
-68
47
46
-73
-15
-17
-70
-58
-30
30
11
-74
-112
-47
20
77
27
95
-44
60
-39
58
25
-13
126
-7
-71
-82
-103
117
81
-37
8
-109
107
-99
41
49
74
-121
20
-82
-107
89
-73
54
-81
54
-47
-12
13
-101
-128
48
122
-5
-7
53
-97
16
69
-118
65
40
105
22
7
-120
-76
-56
53
-81
-55
-59
-49
-81
98
-32
-106
109
-20
-87
112
-98
-88
47
101
114
-72
117
-22
-82
44
-70
83
70
18
25
-95
111
-103
98
-97
-22
117
113
52
126
-53
96
40
-12
-46
28
126
-41
93
-27
-84
-83
-60
116
-48
103
-75
3
-13
-47
-22
-84
-2
-29
-64
126
44
-49
-85
95
-68
-6
-50
-11
-41
103
52
35
-55
57
-113
-44
74
-75
-45
48
100
-79
-10
-103
-109
45
-53
-52
-104
-15
17
-119
-64
-54
-51
-9
-55
-56
-125
-110
-47
121
49
20
67
-90
-33
121
-57
80
13
-29
90
103
-125
70
102
90
-43
-38
100
81
72
32
93
-102
114
-86
-125
-13
-51
-66
-84
-100
17
-92
49
-98
-104
91
46
-22
59
103
-18
-101
-13
91
-102
90
-123
103
-111
71
57
16
65
-6
-98
-108
-118
-59
-56
-24
92
11
-120
26
6
-92
0
-117
-52
35
110
32
63
84
62
119
108
51
76
-12
85
40
-47
-1
-83
-112
-40
-21
72
70
-23
-46
71
92
-37
-94
86
-45
109
-77
-120
-14
-93
12
101
72
32
123
120
-4
-22
118
102
37
-112
25
-21
-62
-60
-7
-33
-13
-10
-95
-66
7
72
99
20
124
-22
53
-86
-60
24
66
38
-117
-67
-101
-20
-33
18
-78
33
-59
76
-53
54
-88
-39
-5
86
-19
-22
9
87
96
56
-1
73
30
101
-126
-45
-25
99
15
-114
-42
101
-61
63
31
-25
-66
-116
79
-14
-77
-53
25
40
-71
75
113
72
71
17
-118
74
100
102
-32
87
88
23
125
-41
98
-47
2
13
-77
114
-9
34
-49
59
-3
-99
85
63
23
-121
-74
107
94
-96
-119
102
119
-7
-112
-23
-16
-45
70
7
-43
71
-103
105
63
-4
-27
123
-101
123
84
-102
-64
26
-15
0
72
-61
16
-45
102
121
31
-22
126
-93
-23
-53
43
10
-34
50
-63
-4
117
29
-66
-99
92
83
100
-105
74
-28
55
-96
100
71
59
114
-44
-19
-63
-12
103
71
56
33
-116
-11
34
114
-72
112
-113
78
-126
-90
-68
60
-123
122
62
-50
72
-54
117
-27
-51
51
33
66
66
46
-55
-37
110
35
-52
95
74
62
-46
4
58
117
-60
44
-78
-29
80
105
44
-109
3
-74
-50
-119
-101
118
-40
72
-11
13
-96
-53
-79
-63
-86
86
-125
-112
-94
18
-70
11
-29
23
-42
18
-64
6
62
-6
-40
75
-35
38
122
-96
68
120
110
119
-3
114
-109
37
-108
-49
-94
-33
96
-87
29
-41
-24
-62
39
18
50
66
19
121
-4
122
-104
-55
70
66
52
103
-128
46
53
-29
53
93
-68
43
90
34
40
-14
76
-91
16
50
16
-45
38
-117
-27
-70
54
6
58
-31
109
95
-20
-118
9
-71
37
103
-7
1
-52
-4
-59
49
114
19
16
-74
67
80
-29
-49
-43
-3
25
-28
66
88
23
32
-16
45
-49
75
7
-47
74
-116
-84
-53
-15
-28
61
-15
66
-114
-119
37
-18
-43
-115
-78
-7
-120
-104
126
-75
55
-78
24
6
-119
-28
76
-125
-57
-6
-41
-61
-69
-124
104
55
96
57
-92
-39
47
-48
-41
-87
75
112
109
-41
6
-37
118
-103
112
46
56
-89
67
-125
4
10
-19
-46
75
39
89
-50
-5
80
-82
-79
-37
88
2
-86
-39
-79
13
5
-73
105
89
100
-43
-106
-59
-35
-11
-101
43
30
45
126
50
99
-93
18
50
-119
69
-51
-116
-124
-45
-57
-73
2
58
-102
92
104
57
76
-18
-110
6
-52
-114
-95
107
-79
62
-125
-45
-124
66
4
50
-76
-34
-115
-28
-5
-28
-125
-52
-51
1
-84
45
46
119
-37
-71
-106
-51
-25
-58
12
-22
-66
-121
109
115
25
108
37
19
124
47
8
-116
39
-71
47
33
3
95
-95
48
71
-79
-51
112
125
-91
99
115
51
-77
-78
-44
-122
92
124
-92
91
0
-56
125
41
-84
112
58
-123
-13
-18
22
-27
112
89
-100
-21
72
111
51
-34
-105
85
-40
48
-68
15
39
-42
76
112
-94
102
11
-117
-26
-40
3
-101
-117
-15
83
113
71
16
-67
-11
-56
-125
52
-27
65
44
98
-29
25
-13
-6
115
10
3
-32
-121
-38
-114
-103
-49
104
93
-19
45
108
8
94
38
-73
-43
84
-98
122
92
86
69
45
51
57
99
66
118
111
112
-79
6
95
43
-19
48
-111
25
7
73
-13
84
75
-27
-28
2
81
-101
107
88
30
107
-35
-23
-68
10
-69
-70
9
125
-20
-118
-11
-25
-5
17
46
-108
46
121
-16
-30
-37
-16
98
17
-68
-36
-109
74
-9
110
-55
-10
-19
46
70
14
34
88
45
-78
-110
32
115
39
102
-42
-96
59
3
123
-27
-56
-12
4
13
-52
-21
40
-47
-114
-126
37
-107
-122
14
58
-4
-102
113
43
116
-1
83
36
-124
78
-25
47
0
-95
-70
-45
117
67
16
40
40
50
-108
-57
-53
-98
-45
85
-122
-92
110
104
-79
-105
2
108
-36
-92
84
-35
94
56
-71
-54
-60
30
70
53
-57
-101
119
105
24
-64
76
-41
101
80
102
-27
36
19
-46
-108
-65
-78
-109
54
87
75
126
-105
-24
-110
119
-45
-45
40
101
17
26
31
-25
36
88
112
105
-39
-10
61
15
55
113
60
119
-74
10
-107
68
61
55
-35
86
-34
61
93
80
-28
-42
63
22
-11
-125
-85
31
-49
30
5
-109
-82
-75
30
126
0
117
-64
-85
-54
1
-11
-24
77
37
105
1
2
10
-72
-28
65
-41
-68
79
-70
55
-57
-18
-43
94
42
-41
55
-72
58
65
-122
-2
-50
0
56
2
3
113
-44
-81
-86
63
50
46
-102
-85
-100
-61
1
16
119
-103
19
-3
-105
51
-35
110
-81
107
119
74
-41
82
-79
-89
107
45
101
-64
23
81
-73
-66
68
11
-46
96
18
-107
-82
64
-34
126
-104
-57
-97
100
30
85
25
100
-94
34
-80
4
90
-56
-98
40
70
27
37
-96
126
-64
113
56
-45
22
83
43
53
-58
-36
14
-71
-21
-74
-28
121
8
80
-29
84
62
49
-90
-41
47
11
-105
-104
25
-113
-29
-55
-10
80
125
-74
124
119
40
-19
42
-68
48
-26
84
-86
47
-97
92
-27
34
-24
-69
-115
-54
52
6
38
-7
48
86
-111
-32
-75
8
-81
60
-116
103
77
104
-117
-39
74
100
-100
3
6
37
-65
-56
102
109
69
-45
-93
-49
-115
-58
70
13
114
-73
-71
-98
-8
117
107
108
110
118
22
-119
74
-120
111
-51
81
88
105
-123
54
-26
-116
106
68
39
106
-57
-80
5
-54
-103
78
-14
79
-122
81
19
-107
-14
84
98
-110
-114
26
4
69
-114
21
119
94
41
104
32
-31
-35
103
-13
104
-19
92
88
-105
65
23
-40
-11
-5
-72
-56
18
-49
23
51
115
-54
117
-67
-51
47
46
-66
-64
-11
-64
10
76
-92
-55
-43
-39
2
-38
5
-14
19
-121
-8
-125
-64
-109
-108
73
-127
-7
17
-1
-68
-88
5
18
2
20
-47
-39
-44
31
40
8
29
-27
75
5
122
-106
-33
-60
107
38
94
0
111
83
-25
30
-70
-53
-30
75
-16
75
46
99
113
68
-123
10
13
60
58
-44
68
-28
60
-52
75
47
12
10
-48
28
-12
-94
51
-105
117
-13
107
-86
101
-74
-21
107
-34
46
-66
-114
-123
-80
100
113
3
-9
-8
-69
115
-118
-15
-45
47
-44
-103
-56
23
-31
-47
25
34
-54
72
67
-5
-104
-84
-59
84
34
73
-75
6
-37
106
74
-123
-11
22
76
-41
93
-99
96
119
29
-15
45
88
-121
76
-55
-102
13
57
6
63
-5
-38
-118
-30
-126
1
19
81
-49
9
-13
111
-36
58
82
93
-32
-42
-30
42
124
76
-76
-36
-110
75
16
-122
-61
-114
31
34
122
-115
-53
-26
-76
-118
48
-37
49
-45
-121
71
-81
20
65
44
112
-70
-123
-33
13
29
22
79
86
-42
7
-5
-54
-83
107
-46
32
3
-113
41
-38
-24
111
-123
74
-25
80
74
-105
29
19
46
-116
-20
41
47
71
53
-57
88
104
-72
-81
37
22
-57
-8
-62
10
-7
-98
-18
-57
-102
96
6
116
-111
118
-77
60
-36
-60
7
-94
39
-11
46
60
53
-112
-110
-33
-1
104
65
32
126
106
-9
-58
-36
-5
-108
-42
62
-82
1
-108
-105
99
-80
-13
-17
-4
-14
-126
73
-110
-118
-30
-68
-108
58
-89
-123
-92
41
-37
65
81
-87
23
86
-91
40
-116
-79
126
-52
-118
-1
59
70
-93
10
7
-91
40
126
31
-52
-75
116
61
-56
37
16
-1
29
59
-42
31
-122
-53
-89
35
118
-87
-83
-68
2
-17
88
-83
113
-43
111
72
99
-117
66
53
-67
-24
-9
37
22
43
-87
-70
-69
-56
-43
44
-52
-124
-115
72
124
24
-19
-21
-6
-7
18
75
-47
-19
-22
82
-53
-38
-24
-60
-22
117
-27
-96
80
-65
-73
84
-10
-31
-87
103
-103
-112
-21
-125
113
103
43
-95
-84
77
-44
-119
39
-31
120
93
-63
-43
-28
-73
68
-123
-8
47
-87
-97
-60
-90
9
-46
98
-75
-65
119
89
-16
66
-32
90
-122
108
47
91
-37
-12
104
100
73
-112
-121
-86
-117
124
35
77
-103
-33
-18
-104
-82
111
40
-123
-47
-87
-93
-9
-9
-93
-15
-2
96
75
-92
39
-76
76
-66
-51
-123
61
28
0
-82
75
125
-42
72
90
-105
-70
26
87
55
-81
-87
-91
-53
52
-19
16
33
-17
48
-39
-95
-113
-24
-91
77
125
109
57
6
14
25
97
-50
-77
-105
-21
79
-98
-90
71
21
-67
85
-41
-127
49
-87
-16
-104
24
60
18
-29
-45
84
-124
29
-100
54
-116
2
42
115
-117
-67
25
15
-92
58
120
59
66
104
96
-119
-19
-65
73
-98
-112
13
-27
-64
104
82
-62
123
-127
91
-14
-116
-82
114
107
-106
108
-93
-108
-31
-126
102
-91
29
-7
46
-21
-100
114
89
-108
80
39
-45
105
-77
5
64
-5
61
-23
-26
33
-68
-54
118
-1
-47
96
-115
-102
82
85
117
-66
-12
15
-53
77
72
56
0
68
-110
-21
-127
-14
118
74
26
30
-29
56
3
-118
20
-66
88
-97
61
-48
-110
106
-55
-1
68
21
-53
-117
-73
8
-61
0
37
-28
33
4
86
116
13
61
-90
8
115
-109
-54
2
-45
111
-47
-120
23
20
107
-125
78
86
45
-105
15
11
-96
116
-1
2
120
0
44
85
120
-117
-58
2
-41
77
-52
-103
19
-68
56
5
101
34
84
14
109
22
30
-85
-46
35
-27
15
0
47
-120
94
-61
-55
-93
-78
105
58
-83
-114
48
101
-106
42
15
89
-108
31
-62
68
-120
44
-16
126
44
-2
54
117
-124
-28
121
44
98
-92
-17
-17
46
111
39
-70
38
64
88
26
-2
-82
-79
28
85
76
99
79
120
46
82
50
-118
30
-73
-104
-43
27
-57
-95
70
98
-113
96
-78
-100
-18
-25
-23
114
-118
-88
106
-32
60
106
118
-74
-12
-38
44
-77
26
-91
6
-88
55
7
8
-67
21
-10
-98
15
-123
-80
118
-46
-58
-5
35
61
-11
-23
-29
34
-19
-51
12
-66
-22
38
80
121
104
-21
117
-32
1
-2
37
-88
-68
-83
84
105
-14
73
-104
27
-26
121
71
-73
74
34
44
79
63
51
-77
9
43
95
-21
96
-32
58
-41
78
85
-15
-93
-36
-30
14
83
7
31
-91
114
74
-42
125
-56
91
61
40
9
-100
-83
94
108
-92
-66
-32
-106
-114
26
-101
31
69
-103
93
-43
-96
40
-57
8
23
-95
-99
-87
11
41
72
-7
36
-23
-55
101
6
113
103
103
-112
110
11
-85
-4
58
-70
-97
106
-24
-7
21
-38
114
73
41
-88
-47
-89
100
62
1
120
-57
9
-68
16
98
-103
-126
108
-79
-66
-102
58
83
-112
-128
-4
33
120
-2
-120
-17
118
2
-12
65
15
-100
-67
-51
-81
-34
95
65
11
35
-17
98
0
-55
-114
-122
100
107
-48
115
-24
57
-1
86
-27
23
-25
-20
91
-123
27
30
-41
-97
-6
104
-126
94
79
69
10
-8
-118
7
21
52
110
-2
-109
-82
28
118
91
-34
-78
-103
38
-45
-69
53
-93
78
70
62
46
-73
8
-127
-36
126
39
92
-123
15
25
-75
-122
-11
37
-23
52
-67
-82
-37
-15
-52
-69
97
-114
44
106
-37
-49
43
88
120
-35
-121
-53
70
119
-9
117
2
59
-35
-37
25
-124
22
39
-96
20
-72
-94
5
-63
48
-77
14
-65
-82
-79
124
111
-120
71
46
-82
58
6
12
-14
-94
-43
-5
-111
-113
98
59
-77
-127
28
64
-40
-90
48
-84
120
-23
-17
-122
15
-31
66
17
4
87
-53
-72
-88
-120
-8
6
-88
55
90
85
119
112
31
-3
101
60
115
11
12
-19
31
98
16
49
-108
-63
-71
47
73
95
-97
36
-50
28
-96
41
17
41
-44
101
-63
34
-122
31
-111
8
75
23
-1
-98
-122
72
92
94
-108
-38
66
15
32
110
49
-71
-62
26
10
-45
-6
-44
-90
-101
33
-125
82
-115
54
124
19
-51
-16
120
-44
-101
-105
-70
-100
-21
-60
-127
33
-41
14
21
23
-123
-68
71
98
-20
-15
43
-64
-66
41
-34
-42
10
64
123
12
-18
20
-5
84
-124
-1
-43
40
-120
-89
-47
10
95
114
-84
-77
93
38
-15
55
-75
5
-27
97
-106
114
-125
-36
56
44
62
-123
-79
61
125
111
119
61
88
-47
124
-24
62
-70
-38
-31
25
-70
114
-90
32
2
105
93
-97
-55
65
100
-40
-114
-98
37
45
104
-49
-38
-89
-76
-64
96
14
-105
122
-47
75
-59
87
22
100
27
-33
82
-81
6
-69
49
-48
-60
15
67
-89
-59
79
126
120
-18
-94
39
-48
-42
1
-54
-94
53
-19
-65
90
24
-81
-105
-99
47
-72
-101
100
42
77
-75
122
22
-86
48
-19
-17
92
-128
-26
109
-82
17
-11
-92
83
82
66
-75
84
-40
-90
-66
47
-6
46
-86
-94
-84
86
-41
79
-108
19
-50
9
-107
-83
82
126
-38
-45
-109
-118
57
117
21
75
-105
104
49
63
91
-68
97
-95
44
-24
122
-68
32
4
-22
-89
108
-22
-4
-51
-31
-108
107
-40
-103
59
-9
119
57
-67
86
55
-116
58
114
-38
-18
71
-93
-126
-33
-77
-44
-121
-44
-108
-24
124
-35
-52
-15
90
-123
-50
63
4
82
90
34
-51
93
-109
-95
28
72
117
-75
2
-1
120
-1
20
104
-18
51
41
88
-27
-64
-108
68
-98
-34
-44
-23
91
-77
110
-24
-121
-119
-67
-53
28
-124
-1
-2
87
-21
11
103
36
-127
8
-9
23
99
-57
46
118
-102
-14
125
125
44
112
-108
105
75
83
-95
-43
17
23
67
8
-106
-98
118
13
-30
36
121
-89
-98
104
107
24
-16
-6
-84
84
107
87
94
119
-77
55
36
-35
-47
-20
-68
117
94
48
-25
-27
58
-89
-127
-103
-33
-90
55
-15
-69
-81
13
-69
89
60
115
41
56
26
-78
106
95
-23
25
-97
63
-69
-96
-120
-24
83
33
88
-14
-113
-80
-85
-109
-36
71
0
-69
-3
125
-78
60
-114
-57
105
-98
-33
65
2
-19
-117
71
47
-106
114
4
44
11
97
4
-20
46
105
-56
-92
89
1
-120
-16
-113
2
119
34
-116
-8
-45
-128
17
-41
-26
-87
-35
72
-65
-46
-57
74
91
-17
-96
56
49
125
-84
92
-67
105
32
97
-7
-94
30
119
115
-107
92
23
85
1
47
39
-38
-74
-61
12
38
115
111
66
6
-42
-79
-14
17
55
19
60
-92
0
-80
-44
64
-21
-78
-61
-41
102
-125
-65
-112
-11
51
-89
-123
2
-33
122
57
12
-58
79
-105
-70
-86
88
-16
-93
-126
-51
-27
1
-93
86
-85
99
10
-96
105
-87
116
-29
51
-117
25
-16
-83
77
43
-17
-13
57
-18
-21
106
-110
-75
-62
-116
95
-56
122
10
49
47
-20
64
76
-55
121
74
-37
-53
99
87
-95
-64
-55
-127
51
110
-98
-88
-11
-88
104
-55
99
9
63
44
-100
126
-18
110
-125
118
60
33
11
-7
59
54
-85
58
-122
-82
-113
86
6
68
50
49
34
-117
-102
-2
24
71
-97
116
-34
76
-85
23
-48
-66
-85
-5
-50
29
116
122
47
116
-118
-84
-100
17
54
115
-91
22
-10
-85
10
64
111
-7
-10
106
109
120
36
-97
65
-115
-111
-91
-22
-81
125
-35
-96
-85
27
-25
-65
52
-83
25
35
83
99
-30
106
104
-62
-23
-52
112
-19
2
-121
-113
-24
24
54
86
-120
115
-100
-12
95
13
-127
-7
-39
-9
50
58
41
-71
32
67
84
32
106
-46
-107
-81
124
-47
83
108
28
-25
-11
-33
2
-17
58
102
-61
-56
-93
63
-66
106
-70
62
-81
54
62
-64
-116
-108
-118
86
83
2
58
-57
-28
-26
-90
82
15
-61
-69
-100
57
35
-7
83
119
-125
-96
61
-49
10
-104
6
-42
-76
15
-8
90
68
-35
48
14
98
-73
97
116
87
-107
70
-81
64
44
-88
30
-104
-33
61
22
-38
45
66
-21
-57
74
-40
68
17
43
55
66
76
-65
25
-101
99
-46
-48
-36
-62
-87
102
-63
41
74
62
-95
93
91
77
111
0
-24
26
-111
74
107
123
122
14
-113
-93
59
35
57
25
32
-103
-121
-109
-33
-124
-96
82
-20
8
-124
-60
-18
-107
86
-103
102
39
27
99
54
-20
-123
9
49
-105
-82
78
-71
-4
106
-33
-44
118
-81
-87
-28
-53
39
-44
7
25
94
-104
97
-93
-117
82
99
3
69
-14
-103
119
121
124
-12
20
-7
59
2
-11
84
-2
-104
105
90
70
91
49
104
-122
0
-35
62
-85
52
-118
-79
120
52
-98
-100
-52
40
85
70
91
-10
-126
56
-33
-1
-6
110
-25
54
-39
100
-126
77
84
65
-104
-102
37
76
-54
17
-107
-41
-8
122
51
-87
-106
84
-77
-58
-79
-14
117
37
82
71
13
83
16
81
106
25
-40
-16
-100
-24
-119
-86
122
14
-53
73
73
-87
-87
-88
-28
43
109
10
-2
-90
-72
120
-15
81
-61
101
-41
-58
-38
-45
-18
34
67
-44
-83
100
-6
121
-76
33
-24
121
-103
-47
-17
12
58
68
-26
-23
9
80
-49
-45
71
-119
112
-17
-39
119
-60
67
65
32
-100
85
-100
68
19
-79
-65
0
-83
-42
29
-42
-43
81
118
-108
119
88
-109
122
-50
61
-94
45
-51
-80
-10
10
34
-81
55
-28
37
103
118
2
82
-58
-16
-20
-63
6
-93
109
70
89
-120
42
120
83
-46
-73
-8
-30
-41
-41
-19
86
23
91
77
117
44
-2
37
-74
-60
-32
34
3
-16
39
43
-42
7
29
79
4
-119
103
17
56
-90
84
12
-89
102
-36
-125
-98
-107
96
0
50
-105
-20
-47
80
-19
38
-74
9
11
21
53
-90
-48
-111
88
-49
116
17
90
105
-127
-24
54
16
117
83
-82
120
55
53
116
45
73
101
-4
-63
86
-93
98
-113
39
-42
113
53
-72
-67
-10
48
107
-84
-104
-123
114
-100
67
104
-59
-44
-90
-32
-10
-27
118
-20
62
-77
48
114
108
29
1
20
18
45
-42
-19
103
77
-57
-72
-1
38
101
90
-5
-74
121
-83
51
-91
93
-49
-38
-87
45
124
76
24
-23
-1
105
-119
-77
-40
66
17
67
-49
39
27
38
95
-49
-59
-20
-124
65
-72
-101
-126
84
17
23
-24
10
121
81
69
124
-6
-21
61
-77
-71
113
117
-91
-27
113
-14
56
-111
20
-86
-57
27
15
-106
-122
-66
-70
-73
-12
75
45
100
3
-94
-3
-20
-63
66
92
-1
20
99
-62
45
-81
-35
-119
7
-51
-51
-52
-47
85
66
-80
60
53
-41
-27
97
50
-51
-7
21
-108
113
125
-70
-110
-46
117
59
37
67
-42
-69
13
45
91
-73
-76
-47
-42
-8
-72
-80
-113
8
-4
70
7
58
73
61
-122
43
-103
-68
-68
-28
19
67
-23
36
88
-20
55
-43
-94
5
74
30
-2
-11
-117
49
103
113
-42
-29
43
35
-73
-13
63
99
6
-85
-49
-91
47
46
33
99
-69
-23
-126
-109
-123
67
20
-28
-66
-14
-18
-49
21
-58
124
91
-9
7
-81
102
95
27
-67
20
75
-39
-93
-5
28
-50
71
60
-35
-119
59
38
-47
-21
47
94
-38
-56
68
72
32
91
-108
-87
46
106
-97
59
0
27
18
31
87
-116
-95
79
27
104
28
-121
60
102
-114
10
16
-2
91
-74
-119
91
4
90
83
112
-67
-38
-5
-16
-12
61
-82
-94
-28
-83
-124
58
-16
33
-86
72
40
-74
-42
-81
126
58
105
-45
-22
38
42
-84
-7
103
-19
-107
-63
33
-85
5
-99
-59
-115
10
7
-93
-30
-28
112
32
39
-26
-22
16
-73
-58
24
-102
-56
-21
19
-63
-43
41
61
-102
-24
56
79
117
34
49
-71
49
59
33
-73
-14
-65
-27
95
71
42
89
15
91
59
-61
126
-63
89
8
4
6
-121
6
64
9
-11
-37
125
-95
117
30
-12
89
-102
-34
-4
38
51
54
24
95
-73
28
28
-98
-12
81
-71
-92
-107
-112
-64
-27
-126
49
-61
-97
-89
-5
-79
65
117
31
-5
-52
27
-26
65
-79
4
-30
-97
-107
-34
126
119
-116
65
-92
32
-21
37
4
-98
-11
48
-100
28
0
-83
78
100
-96
-58
-83
4
-103
111
-98
48
101
-95
-36
103
29
17
105
107
-107
-5
68
98
77
-125
-28
-69
-91
112
-2
-123
87
-61
49
120
-115
-93
43
-117
-35
103
-80
-26
99
43
123
-120
42
24
-92
1
-103
42
-51
62
92
-23
-14
-71
96
121
111
-69
68
114
-112
-23
-86
91
-78
-57
18
97
-111
-104
-93
-20
61
78
124
4
-111
126
95
109
-108
121
107
46
-85
-36
16
-110
-118
-12
-116
-83
21
124
-4
47
75
-13
-117
89
-54
-48
16
23
116
9
107
-100
17
-55
-53
60
5
100
-8
-39
35
67
1
27
99
-86
88
104
117
-89
27
124
-36
-100
-124
109
-61
77
86
70
-62
-31
125
-112
-41
-108
-100
-109
11
-56
-128
66
97
98
99
9
16
102
-14
-18
-127
8
-107
-112
-22
105
97
32
47
118
124
-33
116
-91
67
67
-120
-66
37
100
-72
60
17
107
-107
0
-102
56
99
-85
15
-61
122
71
95
-104
99
56
-37
-29
92
-2
-44
-101
-53
-17
-69
-12
-92
81
16
116
-120
-83
-38
-62
93
-101
-90
-94
-116
-65
18
-109
35
79
111
102
-47
74
69
-1
57
52
94
-8
-102
122
-86
10
-9
9
-3
-100
53
-71
-117
-55
-23
73
58
-76
-7
-112
-81
-31
-110
28
-35
-48
-15
32
-4
30
-59
-48
-94
26
-4
-126
-110
-109
-79
50
-52
5
102
-39
-6
91
-20
-93
-101
117
104
-21
30
47
-122
82
-80
6
122
83
-58
-85
-109
-61
-83
44
-42
38
16
58
89
24
-100
-69
122
-12
-86
-10
-36
-57
41
-66
66
-76
87
-81
1
-124
12
114
-45
-36
98
87
24
-94
-13
-21
119
-65
18
-7
90
-94
-78
-92
59
-17
5
-64
66
79
-15
-115
101
-88
-69
-122
54
102
-75
-60
52
15
120
-70
-68
-63
-52
74
39
-33
-63
-120
-108
74
30
-80
3
-101
105
114
61
26
71
-106
98
-93
-106
-105
20
-50
-76
2
-84
121
123
89
-123
49
-64
-39
55
60
56
-76
60
108
100
113
-66
-89
-23
-75
-26
-15
108
33
43
-35
71
-118
-14
-7
55
24
102
33
107
-11
80
18
-79
-57
-101
-66
-40
-109
-100
53
13
-76
-70
65
98
-123
-94
29
60
92
37
72
-126
-17
-64
23
-31
-29
-67
76
-36
-18
104
77
-11
103
77
83
102
101
-63
69
-17
37
-104
-34
58
47
67
-29
92
69
7
-42
59
-113
-53
61
107
-47
108
64
-12
-89
113
-122
-55
-3
2
-99
-72
108
-97
-33
-20
58
84
84
125
54
-41
80
-111
3
-37
-84
-109
-119
-74
71
44
59
22
24
-72
-58
-22
-16
83
-6
-26
21
-64
124
20
-69
-49
-104
12
-107
-62
-18
-19
65
70
80
-73
-24
121
-43
96
19
45
44
-38
-98
38
-73
125
39
41
75
91
30
-82
-55
104
109
-11
-30
110
9
-42
57
47
50
37
126
-31
-92
8
1
68
-104
-19
44
-128
-25
-52
-99
-26
99
-109
-109
-7
-70
118
32
35
49
34
-112
-93
-25
72
-90
-88
1
75
-39
20
-56
-9
84
-74
-34
35
-77
-114
24
-61
-68
54
-94
-3
36
-115
8
48
3
124
-72
102
-114
26
-37
10
1
23
-106
38
12
73
72
111
49
26
-36
-43
-37
22
-94
-58
78
-20
35
52
1
-104
-76
34
-56
-77
-121
-124
-115
-118
38
-6
73
69
-59
6
-26
120
-81
-124
118
76
-32
9
-44
-32
-76
-77
0
-126
-40
91
2
-29
52
64
-31
47
-26
-114
-102
50
0
68
109
76
-7
-112
30
-43
-30
-1
78
-128
21
-58
103
70
-71
-99
-56
105
90
64
69
-78
-123
-12
15
77
-3
-5
70
-18
-62
6
28
99
-101
90
-113
-102
-25
-92
87
-26
-22
83
-56
8
8
-94
57
-39
71
-52
-41
-91
4
115
-62
-125
88
-85
15
-14
26
-91
-15
-122
21
-94
-98
-30
-106
100
-90
-28
-113
110
-106
43
82
75
-97
79
99
10
-125
68
-55
-70
-32
-2
125
9
40
-84
40
-94
32
-14
24
19
-46
76
-9
96
-89
-76
-102
56
54
82
-26
-10
-79
-83
-68
111
11
10
-17
-68
-128
-118
-120
-4
103
112
58
120
-73
40
102
-25
124
-57
63
-11
-42
-22
-44
18
73
-111
63
-63
103
-32
66
5
-3
123
40
-40
37
-19
-80
27
-90
70
71
-106
63
-12
-99
85
19
-49
-55
48
-123
75
-45
-109
55
-77
26
-76
24
64
72
-36
86
104
-108
-35
-62
-3
-72
-37
-5
112
-94
124
-80
-18
29
43
-26
-38
22
-126
-17
118
97
-84
83
-103
-103
4
-20
-117
101
-5
-128
122
122
-43
-47
-6
71
23
-73
-43
-60
82
10
-30
-94
-71
34
28
5
-91
120
24
64
-53
-108
74
-58
40
7
52
94
66
-48
-102
92
-92
49
-123
126
-128
-40
2
32
72
-96
-12
-98
110
-9
-104
86
-28
-115
-99
-86
73
-80
99
63
31
29
119
120
-38
-118
-11
-116
101
81
98
-52
-46
-54
51
9
-35
-83
121
-117
-89
86
17
28
34
117
-33
122
62
107
70
-18
49
-51
-93
-83
-46
-62
-119
-117
-116
-7
-56
125
66
18
61
-17
-32
126
109
38
-122
-125
-87
5
-6
20
-14
-10
-120
-34
106
122
-51
102
17
74
-114
-7
-22
-79
-19
2
36
-87
-23
-62
-34
106
3
25
103
85
-40
-38
60
111
-69
125
30
-78
91
67
12
80
-90
-76
-45
69
14
-92
-39
37
-62
4
-100
102
95
-11
-87
-96
22
86
-1
64
-126
114
111
22
89
9
103
-39
72
-97
-108
117
-116
65
-34
33
-56
41
32
-96
37
16
-99
-53
-64
-25
-115
-53
37
-45
-80
89
-70
-95
-122
-53
-60
-109
-114
-79
28
-94
-52
97
-99
32
-82
-120
25
-92
58
100
46
-96
4
-82
78
-43
-57
76
-91
-13
63
88
58
67
-114
79
-80
-114
18
18
102
-72
-110
11
69
-57
114
9
29
48
-21
-104
-69
71
96
-68
6
-23
-34
-23
63
17
47
23
126
13
103
-48
-115
112
-1
-36
-115
-114
61
53
-89
-97
67
5
-38
-50
-27
84
46
-94
3
17
-122
-55
18
-68
72
-70
126
-33
51
32
-14
-79
18
-26
-12
87
16
-52
-62
45
-70
-48
44
-95
63
-102
123
114
96
83
83
-47
-93
79
94
-113
-95
52
-19
-36
-113
-56
5
119
38
82
4
70
-5
71
-110
-77
-61
104
-5
-114
113
-77
-75
51
94
-37
121
-51
108
111
-44
-116
30
79
-41
19
-65
-70
-29
-70
-98
68
110
-114
8
67
71
105
-7
-28
-116
46
16
8
-9
-94
77
-118
50
41
-105
-107
-14
118
102
0
-74
-40
-125
-16
124
59
-11
-26
-52
110
-121
99
-98
4
-30
115
-106
-12
-109
-47
113
57
-99
30
-13
16
-123
6
-84
112
-42
-123
64
-49
-8
98
-87
32
-81
-7
101
65
-28
-50
-77
-78
11
-89
-46
41
-100
33
-28
-13
38
78
93
58
19
-61
98
-52
-40
18
-55
57
-53
64
62
114
32
-74
9
87
25
-18
94
-38
44
14
11
96
28
-32
-128
-4
-13
39
-90
-33
-99
96
65
36
-24
15
-121
112
63
-5
-70
0
106
43
-74
61
105
-86
25
-16
59
80
-38
115
-80
111
-45
4
114
-59
-44
37
4
2
-44
80
-27
-75
82
-37
125
96
-96
-39
-53
24
24
40
113
-54
-23
-57
-41
-61
110
-109
-80
102
-80
5
-52
64
28
-58
-32
3
-82
103
-109
92
-55
11
105
-50
64
-102
101
-100
113
45
103
122
62
-6
116
-95
-7
12
29
-18
51
-29
120
117
49
-112
92
11
78
-77
25
-55
-106
-6
2
-76
-102
-80
-97
29
-76
41
13
-31
53
21
-81
-20
125
57
120
66
-7
-9
73
99
-72
-47
-50
-25
33
20
-49
126
-110
-22
93
94
42
-124
-77
107
53
-78
-79
111
110
-33
-93
121
-51
53
-78
51
78
28
-23
-76
-36
68
110
-78
51
-120
-31
42
-92
-104
-45
121
76
82
61
-72
93
30
-59
75
-12
94
116
-69
110
-93
-34
38
35
-38
5
40
24
71
-2
62
27
59
-25
-12
-66
98
86
117
-26
-112
56
-5
67
74
71
-118
-54
0
109
-101
-13
78
-1
-73
112
113
-65
-60
105
-116
-36
-61
74
-87
23
121
-113
-87
-28
-40
122
-13
-83
110
-83
96
6
53
-115
90
-16
92
18
100
-114
-81
-16
-35
1
73
-21
-13
-45
27
-52
-18
-90
-124
-115
91
68
-112
-36
107
116
113
78
-54
-113
-114
-85
63
-23
-69
-120
-50
-112
93
108
-83
-79
5
-65
-90
-54
-10
88
-68
25
5
-52
-97
-107
-99
-51
104
125
-84
-7
104
12
108
99
2
-6
39
-16
120
44
107
-128
-125
-33
-33
91
19
-87
-69
-60
35
-47
-96
-58
74
45
-20
114
-86
-102
119
-43
4
95
126
-88
-44
90
-89
-97
-115
-4
-98
88
-4
18
-109
112
-42
41
-93
110
68
-25
-127
-71
30
-109
88
96
-91
-112
34
-21
-114
-123
15
117
-109
-109
-20
-60
-16
-70
40
51
104
-1
-75
59
-99
-126
-113
-102
-78
83
-88
-111
-20
3
5
-12
64
-113
-98
-108
101
-104
-39
75
-48
29
-89
39
-97
-113
45
-122
-31
-28
-3
43
-30
-68
43
-40
125
55
25
73
76
-12
122
-60
-61
42
-59
-11
118
95
20
-26
111
25
-109
21
126
123
102
26
75
-102
-56
-44
71
72
106
7
124
-7
28
-69
-118
-84
-111
39
89
-82
-86
-67
56
76
65
67
9
-28
71
-19
71
73
-84
3
-40
82
-80
83
16
96
-22
53
70
-92
18
-1
-38
-68
-7
70
99
50
32
24
-30
9
-58
28
111
-15
118
-97
-79
-102
58
-31
84
94
-108
2
56
-26
-8
-3
39
121
-32
-60
2
-1
22
37
-93
-22
65
111
-109
5
-65
29
-101
106
-71
39
71
94
51
18
-18
108
-128
19
-69
41
-58
95
23
116
-126
34
104
11
-53
-119
-59
56
-53
-69
49
104
58
40
-70
-63
56
-58
94
52
-44
-93
72
-63
126
86
-44
-38
-13
-75
-63
-14
110
-92
69
57
-73
-123
36
100
-14
86
-60
52
22
111
86
-20
-29
-78
28
119
-99
28
-46
66
-77
94
-83
-98
-127
-101
61
-84
-97
115
76
47
112
-79
-73
121
-48
110
52
-25
103
-101
103
-49
-79
97
11
-3
25
79
-43
-77
16
114
36
-102
-65
63
78
31
-85
25
84
14
27
-40
-93
8
-8
-108
-114
63
76
106
5
96
97
13
-30
-79
67
-93
-44
-68
2
-75
-21
61
23
85
-103
-22
-122
-8
-108
110
-124
44
66
-27
1
-58
21
-60
-52
-7
-58
-119
36
51
12
5
-53
-120
79
-18
-94
51
-54
-79
48
-2
-26
-12
-74
-56
8
-19
0
-24
-98
-17
-42
9
-36
24
20
-120
-6
15
-37
53
31
-105
-57
-52
-123
-90
-36
54
-105
95
-10
90
11
-69
55
80
58
115
-31
41
-49
89
-15
-115
-85
90
4
30
69
-46
-9
100
-126
0
-102
115
107
110
103
-76
55
114
-22
-119
66
-114
107
-42
-21
27
-23
-12
56
47
-119
82
-107
-64
45
-17
102
-76
-107
-35
86
34
85
-34
-94
55
-21
-116
-6
31
13
63
-100
-36
93
57
-122
111
75
89
24
-103
-6
17
1
6
-121
-80
125
91
-90
80
37
-37
-120
-49
111
65
124
-118
126
-80
82
-110
-59
-81
2
80
-116
-13
30
-85
-29
6
-39
62
-119
37
-48
-71
-115
-102
2
120
-122
-26
117
48
93
81
-62
-100
-60
62
113
-1
8
-89
102
-32
119
11
96
-59
47
-106
-6
100
53
26
96
111
-5
113
79
-65
7
-99
-9
-41
81
41
-28
-81
-110
-76
84
-11
102
95
-79
24
-98
14
106
26
24
9
95
114
-27
12
-52
-114
-86
-98
-58
-20
76
-33
-89
-117
40
85
-46
104
-20
105
41
-53
96
-11
95
-110
-42
3
-89
-91
-10
-7
25
112
116
-51
-67
-53
-29
71
31
-55
119
-78
113
55
89
-49
-10
4
6
88
45
9
17
106
118
-74
-127
-57
-75
40
97
100
86
-49
114
-122
-74
119
-117
55
-118
56
101
54
-93
118
-61
-15
52
72
-32
-73
-126
-86
102
40
15
15
-58
-81
-8
-53
74
-69
-24
-35
79
55
81
70
55
104
23
-112
-93
-100
49
6
-25
-107
-23
-6
59
-22
53
-108
-112
-79
125
100
-12
109
112
-92
-46
15
-84
-77
-36
-37
-124
-99
6
26
120
18
-83
-14
52
97
-61
108
-1
-87
61
89
-45
-90
84
-50
100
-80
116
70
118
-75
-56
-39
94
-87
115
79
-79
-62
-88
23
-5
82
-27
73
80
-111
-91
61
-78
75
-25
62
19
-52
-9
-123
42
16
106
110
23
-80
96
-128
-53
30
-82
35
-9
70
20
19
-53
116
-34
-17
55
105
-109
-98
14
37
-108
50
106
116
-85
0
36
-34
-41
92
-108
76
-27
-44
12
-26
-55
-59
-8
-18
92
-88
-7
100
-88
-116
10
79
-28
-12
-51
-13
-96
-78
99
-99
25
59
105
-31
79
100
14
15
-31
88
-67
11
-52
-18
-88
-106
-9
65
52
8
-42
122
9
-69
-23
56
-101
81
-84
8
121
55
19
71
-74
38
-64
-80
55
-11
-33
-14
-96
-116
-36
30
-102
-11
27
-13
92
6
95
-33
-68
67
114
-22
107
48
-104
90
56
15
-109
51
-87
-126
6
-117
50
-121
88
-99
-55
-123
-126
-124
108
87
51
-74
-45
19
75
78
-82
70
111
35
105
-7
-128
4
125
88
-112
-63
-54
-41
-83
-42
-62
60
-55
111
-93
-53
0
-23
19
16
14
32
-72
-22
-31
37
8
-93
63
-97
-64
72
-9
-68
75
109
39
20
-43
77
-120
-47
-90
-41
-27
-5
-37
-105
114
4
124
-34
90
114
-84
111
-6
-66
93
82
-95
-57
-100
-78
-102
-92
3
-32
52
84
33
-53
-95
-20
7
-2
114
55
-39
126
50
122
-68
67
-82
70
27
92
-19
-126
-73
126
123
-89
74
-51
-101
78
33
114
-9
59
103
-108
-4
21
-22
-120
98
-21
13
-110
-59
-53
-125
-4
102
89
-59
-9
2
19
97
114
-61
-77
110
14
-6
82
59
31
104
-19
-120
47
57
35
-8
-58
105
-60
11
73
88
-18
-15
-64
-75
112
125
31
39
-39
-57
93
-79
-97
110
-83
89
52
59
91
89
117
71
84
-107
-62
66
47
94
40
-65
52
-95
-56
112
3
13
4
-107
96
69
-42
97
121
-9
53
43
12
109
-43
-22
-3
97
48
75
-98
0
115
-80
-76
88
97
57
-97
-122
-77
-13
35
-107
-107
-63
-36
-38
19
-91
-109
62
-78
31
65
126
-71
-44
-29
121
104
-125
40
100
77
-13
-52
30
-44
-60
-108
113
4
68
47
19
-98
107
-76
30
113
103
-13
-6
-114
41
-1
87
-22
5
-22
9
-101
-110
82
114
51
100
123
7
102
63
33
-91
-83
-101
-18
77
93
-16
59
117
-18
-48
-128
-17
-8
14
24
126
-7
-25
24
-92
-46
-19
86
104
-11
-28
50
78
-64
99
40
36
-64
125
-84
61
-63
-79
-93
-4
-28
-8
11
35
20
-31
59
65
-117
13
111
-53
-21
95
-87
92
82
-124
12
106
-67
-10
-121
-87
-59
-64
51
-52
99
-94
125
-103
76
-14
28
-34
50
-17
9
96
-106
89
-55
82
60
-117
-69
-28
-99
30
-111
-75
-17
41
44
-63
79
36
105
-117
-13
15
72
93
121
-121
86
-14
126
-128
-49
18
-34
-5
-77
115
-127
-1
-19
71
64
115
108
77
72
-83
-87
77
-16
126
76
-89
94
-73
-113
45
-19
117
-12
-61
-83
24
-19
-113
-64
114
-117
72
-19
-56
77
-79
-30
37
-71
58
-104
-13
114
109
109
-23
-81
60
107
-69
4
10
-89
119
-75
70
22
-91
110
-12
-63
-22
12
-14
18
-80
-66
-21
10
-66
-78
78
-118
70
117
17
-19
-18
32
-61
58
107
55
-89
-93
-110
42
-7
29
-51
65
108
33
85
-119
-86
-56
-19
10
-10
-74
-87
83
-17
-37
-120
76
-83
7
-104
-73
89
124
98
42
51
61
78
-15
-15
-120
63
88
-42
-127
9
5
-64
8
15
-5
110
-45
-63
41
-89
75
102
-107
-67
-46
108
-3
90
-28
-64
-17
93
89
75
-54
-13
22
-70
-110
107
-90
123
-33
72
47
0
-46
67
119
-21
81
-36
25
-81
-116
45
84
-111
122
-4
-28
58
49
35
-121
57
-123
-64
93
2
4
-10
38
69
71
101
98
-114
-117
-10
14
-99
118
8
-49
7
25
87
-38
27
72
-81
71
-47
64
23
123
64
-27
-92
-91
44
35
-30
101
-23
32
-9
85
64
-28
33
-24
105
34
-49
-121
82
-120
9
1
-16
-67
117
38
57
7
-128
-51
88
-30
83
-99
90
-123
-8
101
68
-10
67
-27
-80
-69
91
101
-17
-31
-7
23
100
-83
4
-33
-81
-83
34
-85
27
-62
94
-84
-76
21
57
26
16
-47
-65
-20
8
27
-91
-82
-71
-108
78
32
26
-52
56
-9
-36
-66
73
-115
123
33
67
-58
-32
-85
9
85
0
52
-95
-94
48
-68
-89
-113
-41
104
-45
49
-47
-73
60
62
-74
-66
1
77
7
-119
-122
-116
-73
124
92
-56
97
80
-67
-43
32
-18
-80
114
-8
71
124
112
101
117
-102
116
-43
64
23
8
102
61
50
-26
-44
46
-69
30
-47
-50
3
65
43
-57
75
124
-64
-109
33
69
18
101
17
-94
-4
-76
28
45
126
-22
-95
73
-68
115
59
29
56
-111
-64
87
-27
-105
116
-127
126
-56
30
26
77
31
-103
-55
18
-105
56
48
119
-24
10
56
-116
-1
4
99
-37
18
-85
-20
53
-43
-99
34
62
-57
-113
12
-36
57
25
53
-65
6
-20
103
-120
-75
125
-29
117
6
51
-54
-49
89
-36
-99
-37
-69
-53
-40
-68
102
-31
-118
-87
0
-91
100
-121
-98
65
22
-96
-90
117
36
26
-69
-42
43
84
-82
96
-89
43
84
-119
-56
-32
116
-68
-127
1
48
-100
-115
-65
-73
101
57
15
21
-44
-41
-124
-69
66
4
-14
-77
-4
83
40
114
-45
-24
-84
-11
-32
9
-18
-104
-103
60
-3
-13
95
-107
-96
88
-71
104
-26
67
-4
19
-43
-88
-20
-60
102
95
44
-28
-100
-126
89
-31
-51
-1
64
121
17
-76
-123
-123
25
-81
6
125
93
66
-6
-66
38
-78
-47
-73
-43
64
116
114
60
84
118
14
-25
-111
-77
-40
46
-81
-9
126
-20
35
-128
9
78
-68
-66
118
34
-96
71
0
15
-20
124
123
-96
106
116
80
88
-84
-119
-71
39
75
23
40
91
84
-35
-123
-125
-116
-69
42
-108
-66
-74
120
15
16
-8
115
-49
-21
-77
7
43
-32
108
-71
-115
-106
-104
-15
29
30
-55
19
-80
60
-34
15
-1
112
42
-89
4
30
108
97
-46
7
-23
72
-23
31
16
14
-22
-85
99
-89
24
-15
33
-119
44
-59
-50
-67
79
-19
-56
-31
-71
-22
-17
112
55
64
77
75
-67
-41
-58
47
-78
-33
-19
125
107
16
-46
-95
27
14
-55
-74
-91
-28
118
70
38
94
42
-97
13
108
-128
36
-4
46
124
48
-28
-107
-52
-96
26
84
73
120
18
18
41
20
-77
-123
41
-31
35
-36
11
15
56
-113
12
15
119
-91
-22
-85
-48
-110
-33
-24
123
16
72
40
45
123
108
51
85
75
71
-105
48
-9
42
-16
108
84
-46
-26
63
-110
-12
-74
119
-6
-124
-4
-106
95
-17
70
-104
4
-56
-120
110
-17
-98
78
-48
62
11
-76
87
-51
-62
-12
20
-45
-30
61
30
-65
-65
-88
48
62
-12
-64
-69
-88
-99
-40
-27
42
-59
-21
124
72
-81
56
16
-115
24
-103
-58
87
78
-37
18
123
-25
9
-126
3
-26
85
19
36
50
94
44
-20
-18
31
82
-48
60
115
26
92
-15
-78
1
-1
-40
97
-1
93
90
77
-117
-126
49
-86
10
-99
-6
-106
-52
100
-23
23
-66
-43
79
119
-128
-67
97
-124
-86
30
124
115
35
-101
-33
19
13
26
-87
107
79
-125
44
-37
66
98
4
-98
63
7
15
-37
-100
-65
-109
12
80
-109
48
65
-83
116
-70
101
18
26
-25
118
49
16
-30
101
-119
-72
56
22
-15
-101
-52
-32
-23
-112
-89
14
-106
-87
-104
-13
-27
-53
-55
20
34
-104
96
-94
114
-102
42
50
-90
-3
16
-44
26
-35
-68
-85
62
-44
58
-44
32
-44
61
-126
-87
-32
-33
-25
-13
44
-31
74
-91
-121
99
-96
-68
-26
-54
-106
-106
-58
-113
22
93
56
35
-61
99
-25
113
-101
126
118
6
53
-58
-90
120
-73
-90
55
-59
-74
123
-108
-112
74
-53
99
57
-45
5
72
46
68
80
81
87
-53
-79
28
2
-58
-72
54
113
67
24
-70
118
-69
47
-92
-92
-104
-32
26
48
-39
-116
-54
-75
33
95
32
117
-126
83
-93
-54
-108
123
-31
89
-41
17
25
-93
44
-43
-17
-27
37
-102
-104
-99
-16
-8
-58
-22
-5
17
115
78
-109
-43
-116
-88
3
-99
99
-69
42
49
107
12
94
-1
-2
-125
125
54
40
53
120
-75
-65
-111
81
87
-11
56
49
-66
-83
75
5
-98
47
64
90
114
63
-90
118
42
68
-125
-61
15
125
2
-66
-34
-83
-37
-125
15
-57
56
-62
105
72
-67
-29
-101
21
-113
-122
122
-54
56
-82
-84
-50
-24
-74
77
89
104
86
100
-120
27
-107
-62
82
-108
-37
86
79
-111
-83
-108
73
28
96
-44
-52
-10
6
-98
13
77
0
-12
-28
-38
78
-91
-1
-40
87
68
32
-32
-60
-61
48
66
-123
91
66
-1
-29
46
21
-114
-44
40
74
16
-82
-66
111
-25
-45
-96
-99
81
-71
123
52
-29
-12
42
-121
58
74
-28
-35
-85
-77
-65
115
101
42
-117
92
-59
-118
-30
51
101
-101
-41
124
15
49
-6
77
94
-116
50
68
38
-24
-123
83
45
99
79
62
-10
92
125
96
87
36
90
-109
-116
8
-37
-60
36
124
-66
-13
-93
110
12
118
-66
120
-86
6
-54
-40
12
-85
-38
97
-43
34
-46
79
110
-44
-6
47
-110
10
50
-20
84
14
78
-8
-7
103
-114
-13
98
-91
61
-77
56
-47
-30
95
-123
61
-66
-110
-113
77
-37
125
7
-27
53
-10
-88
78
-23
59
-83
16
60
22
-14
-81
-9
-6
103
-107
-56
120
-20
76
-15
-43
-123
98
47
-105
-96
89
115
39
90
37
9
58
7
-12
-39
30
-127
-97
-95
99
76
-21
74
72
-57
-68
-72
51
-4
113
-4
-118
107
122
-57
3
-32
-53
-117
56
-128
100
125
102
-121
0
62
73
-108
-28
92
-49
25
47
123
-85
-122
120
-20
108
53
-5
111
-47
-117
71
-103
95
-109
-14
41
-96
8
-50
-96
24
-87
109
-74
53
-22
82
106
-124
-110
-29
-43
78
-109
-53
-119
98
-79
-101
-114
72
-6
-81
36
78
39
-45
-45
-12
68
47
17
-51
-72
-68
52
99
-26
10
120
-58
122
-43
-5
16
7
-6
-62
12
-71
105
-21
53
-31
73
-116
46
-81
-81
83
70
-53
-29
21
110
123
107
-52
-13
59
100
-104
15
35
-49
-46
76
51
101
-100
-14
1
83
-113
-53
82
-97
-123
-52
-3
113
112
0
-72
63
81
-67
-113
-60
-95
-95
-8
28
76
-110
-16
-29
75
-88
104
-73
-62
-125
-43
117
-110
80
-92
-128
-119
90
33
-16
-61
-111
19
9
-69
-119
-3
-96
83
44
119
-10
93
-2
28
15
6
18
72
12
95
-36
-34
22
-76
72
-1
8
71
105
110
-71
30
-20
-7
-15
-8
-48
-124
40
66
-30
108
115
18
-46
77
82
104
46
-60
88
-67
7
-88
-33
73
-118
-35
-33
-66
111
-16
30
44
-12
21
-12
-33
-119
-101
-41
-39
90
116
50
73
15
-127
-51
-77
-78
-38
11
-89
-63
-60
-70
46
-53
-50
38
98
94
73
-49
124
-62
72
-22
68
-89
125
-48
-68
87
17
-124
-23
-1
-92
5
-29
77
-3
-45
57
5
77
-103
89
-109
48
21
-35
-41
76
23
-114
110
-7
13
-2
115
-98
90
18
-1
69
-106
-110
-83
110
-24
42
122
-49
-24
56
54
-42
-57
-2
-4
104
123
39
122
44
-43
-29
125
65
70
51
-13
-101
41
82
-125
99
110
-68
-12
-30
8
-125
14
-82
95
41
-66
84
50
89
-75
69
2
24
40
-127
-43
35
-114
-11
-117
46
-52
21
2
-94
37
91
35
-15
-34
-48
-60
4
12
75
-108
-30
113
52
71
-37
86
-67
78
-114
54
-102
100
75
-20
6
93
-82
-40
111
79
-123
-116
-80
-95
-101
-75
-21
-52
90
5
-9
-58
-6
40
-29
-61
17
-79
24
-112
6
-23
-115
50
-11
-126
-9
-123
112
-128
-67
-26
-14
65
44
-76
68
77
14
72
-25
42
86
-69
-35
95
-99
58
59
-18
70
-61
-116
73
-35
91
71
-126
-78
11
-44
33
29
23
90
20
79
48
62
-101
8
-56
-35
-96
9
93
76
-62
-21
-34
-26
28
-86
-61
49
-88
-115
-23
70
-101
46
36
-14
-117
24
-103
-28
-105
88
78
-112
12
92
-33
56
51
86
119
41
108
-42
-63
-93
-122
3
-74
107
75
5
-58
-114
-53
16
-36
98
-94
105
26
41
106
68
39
-97
-36
69
25
56
39
-6
19
-118
-71
-106
23
14
-59
-96
-8
-9
-36
-2
-33
80
-98
25
48
62
123
69
5
33
-98
7
98
56
87
57
-128
98
89
51
65
-117
-66
117
-67
39
19
45
-40
-32
-31
75
9
6
-18
-33
-20
73
31
-54
111
-99
-104
115
-28
-36
99
69
86
49
67
59
102
51
-30
-121
-81
-123
-30
-34
-38
-1
101
-21
-39
16
86
-120
-115
-4
-27
-41
0
18
72
-106
103
48
48
-12
-95
-68
72
114
-17
91
24
115
-114
-53
-29
8
15
39
-29
-11
-115
-113
41
-99
120
-120
-78
-17
113
95
25
-85
13
61
83
-20
79
64
69
71
-91
98
25
-96
-53
-93
36
-8
77
58
-115
17
-78
-62
6
-54
56
13
53
-89
-63
-36
17
53
-120
-30
-19
59
70
98
69
34
100
106
79
-58
53
-69
115
30
18
114
-4
79
-50
28
119
9
-76
-124
-8
-91
-35
115
24
25
-14
20
81
124
-116
69
-68
77
53
43
-112
87
-69
61
19
7
-127
-102
-90
-83
51
42
-128
-47
-95
25
41
95
-40
58
-32
51
103
51
-23
-110
-30
34
-14
43
-61
-121
-113
69
-10
104
-115
-58
73
87
-25
-17
124
49
115
-49
27
56
61
-111
23
114
-3
33
-51
67
-89
-68
124
103
79
-118
-75
15
41
27
-55
-7
20
85
24
-82
93
-95
-5
29
44
7
-26
16
25
-21
-69
-50
108
-104
-21
-28
13
25
-123
124
101
122
-62
-69
51
86
49
115
30
6
-121
-22
-33
95
100
19
22
-61
126
54
90
49
-74
-104
-62
4
98
-41
89
27
12
-116
33
12
-76
-86
124
-13
-89
59
-68
-1
-25
-113
117
-41
-98
-3
96
109
30
72
-26
-108
112
33
-113
120
-100
16
-5
75
58
-22
79
-44
33
58
-30
-30
-78
-83
123
30
57
-100
105
-1
116
-37
-1
-16
52
98
-71
-79
-40
85
57
-40
104
101
-20
-26
-42
-87
-87
-24
44
107
-15
78
80
-16
-21
-19
111
-123
-37
-128
54
126
105
-110
-122
14
15
31
79
-12
-114
-91
-57
-32
107
113
56
48
-94
-74
64
-69
104
-46
89
-11
-116
45
-39
36
-58
-121
41
-4
69
83
-122
-18
37
-61
42
92
-36
37
124
2
-28
113
-67
83
-56
-10
92
-103
41
10
48
-50
107
10
-56
35
87
59
36
-51
5
-1
-26
99
97
55
1
-125
-2
-21
-71
51
113
65
-63
-54
-104
115
-111
68
-5
33
29
-97
-66
116
-42
51
-97
61
34
73
-110
94
-69
6
-2
8
-78
78
-69
-73
8
110
51
-51
-113
-2
102
24
94
-9
-20
-16
-120
82
-64
59
102
-56
-83
107
49
87
-6
52
87
-63
58
92
126
-27
81
-15
17
-13
109
-5
3
-45
88
-67
58
78
-101
-63
105
-36
75
110
41
-81
26
-96
-5
98
12
21
91
85
30
-53
-31
-14
76
-85
10
-26
-41
-62
71
-13
28
96
34
-11
20
-71
-68
79
-117
79
-36
-67
114
58
-61
-28
47
-96
-80
4
-110
68
-25
23
-98
3
-43
53
105
91
-60
-60
16
59
72
-108
22
-124
-125
54
-32
98
86
63
-8
-34
-25
9
-98
94
24
-5
-26
-28
40
-19
123
-25
-14
-111
-82
35
-82
-111
-18
63
-62
32
-86
17
-86
-31
-28
72
48
13
2
38
-35
-7
11
-81
3
-86
36
-12
-35
94
72
30
-49
-77
22
-26
89
107
59
27
-123
-59
32
41
-65
-90
-65
24
33
-105
46
-41
42
71
-114
16
118
87
58
107
-68
61
12
-43
87
-29
32
-14
44
1
-32
-34
-105
-11
23
-49
23
-99
25
35
-120
31
87
-55
42
9
-59
-100
41
-21
-91
40
-61
-101
-126
-120
81
-97
87
50
-82
-39
-68
-101
80
-80
-73
-34
-53
12
-19
76
124
72
84
119
88
83
-3
-121
-122
23
-65
61
38
-57
-22
124
-66
-20
-120
124
-92
83
32
-95
17
119
36
-48
-2
-39
-27
-87
66
125
92
1
-5
29
-61
118
16
27
-27
-63
-18
-81
92
33
72
36
-65
-65
-76
96
-36
-126
74
-64
-35
1
13
-6
-73
-85
41
-20
51
125
92
-122
-95
9
-58
-9
-34
-1
-116
107
-55
123
-26
-96
100
-31
101
-78
-25
16
30
-67
62
74
-57
103
-99
-84
-2
70
48
-79
112
-38
112
-109
60
86
-60
28
-111
115
-49
-15
90
71
-8
-119
-14
-57
99
74
-96
90
-62
-74
7
45
107
64
123
-70
-19
0
-103
75
23
41
-101
119
-53
10
-64
3
7
21
-128
-11
-40
45
-50
-32
27
-68
16
51
-91
125
-71
95
7
124
30
25
8
23
-69
-94
2
-44
53
104
-38
-127
11
36
113
43
-69
-49
75
31
-47
-44
-80
81
15
122
43
16
-121
-85
-112
74
29
78
-111
12
-109
-23
118
82
-7
-95
18
125
58
-66
-119
105
-4
-114
-94
72
89
-113
-26
-107
-9
-5
112
111
0
99
126
-63
98
-13
-83
-10
101
-61
121
46
118
16
86
-34
78
-49
88
115
-53
37
-117
88
-113
-116
119
-102
54
104
-127
-91
-15
81
77
-1
81
-17
59
-52
-18
120
-81
-15
81
-4
-119
39
60
-102
51
-38
54
71
-16
89
-31
109
-99
52
46
-103
93
-51
60
113
-55
-51
-60
42
-51
36
36
65
-106
-93
0
37
-69
-104
-101
-111
-30
-105
-62
-46
-126
-113
46
43
14
-52
-72
121
47
-66
-69
-45
-126
36
-65
-108
-83
95
41
-95
98
104
1
104
-95
-46
-28
-105
85
-107
73
-39
73
-82
-12
65
-96
-60
-32
49
-55
-6
-118
79
-40
126
-24
-66
-86
-82
59
39
13
23
11
26
85
111
9
100
121
-6
54
119
92
74
-18
1
-95
31
-51
-117
68
69
90
81
10
99
-31
2
120
75
124
40
-128
24
90
-35
43
60
-99
-48
114
65
-22
-30
-78
93
41
24
-96
-34
107
35
-51
74
-45
108
26
-116
49
0
-22
-1
-92
-60
125
123
100
-79
-85
-106
-24
87
69
23
68
76
103
-109
-32
-22
-100
-75
-106
108
68
-100
123
115
-37
-1
-121
81
-68
-25
119
-7
45
112
-58
122
-42
-20
40
111
-47
-20
-111
90
-116
-55
113
110
56
-77
-103
-13
43
-107
34
-100
-15
24
-100
98
95
-32
-24
-4
-56
-124
93
104
-90
-68
-110
-64
67
-126
100
11
107
-83
-128
-75
33
-97
-37
-4
39
117
-41
67
-68
46
-71
105
-29
-31
-80
-22
-113
115
-53
76
-76
-59
122
45
56
-115
-62
-4
103
-124
-9
-46
10
36
93
100
76
89
-75
-24
39
-71
68
44
126
105
-82
65
81
32
108
-124
26
-87
-18
-64
-108
-36
80
-18
111
-99
69
-91
-88
47
100
6
75
77
-99
124
-99
-61
83
-21
73
2
-3
-116
-84
-112
-51
-37
-91
85
-94
-72
-104
39
54
-101
61
-17
-119
-74
90
89
-90
115
-58
-66
-124
78
122
-114
115
-61
-90
110
-78
-35
30
89
-71
18
-41
-37
82
-54
-12
99
-119
-37
-2
10
117
-65
69
-6
52
101
81
123
62
114
-108
22
-3
118
74
90
55
46
-5
100
111
-125
20
46
97
-49
-94
43
-120
-55
9
-112
65
-86
60
-14
-92
92
87
119
-20
69
106
-61
-103
109
-39
23
72
77
-118
5
-28
-119
-52
75
-63
3
-64
-30
100
46
50
-22
44
-21
-42
-88
53
-46
118
75
84
-40
46
-27
106
84
91
93
64
95
-43
-67
-28
-16
71
-7
115
-47
-74
85
-49
-106
76
25
120
55
83
7
115
83
68
-122
125
-2
-41
-78
-10
71
-35
67
19
62
-26
-60
-1
2
67
75
40
55
-96
118
-27
-105
-22
-105
32
-23
-106
-52
72
-36
-48
-39
-97
99
-125
73
-113
117
36
22
121
-79
11
92
-19
-99
26
-83
-9
98
16
85
10
-87
56
-118
-15
-110
84
-97
-46
-57
-123
31
-9
122
-4
4
116
-30
28
53
19
-125
-69
116
-109
-116
-12
-122
75
17
-101
-60
-41
118
-20
-105
8
44
18
-3
37
18
-59
3
17
118
80
95
-78
-67
-20
73
105
-14
123
-23
92
-77
-16
-75
-54
-113
95
-63
-81
96
73
-90
14
97
-55
28
111
-29
40
3
80
-77
84
115
-67
-117
-2
-56
77
-48
-35
-41
-92
121
-9
-75
-122
-23
104
125
116
54
-8
125
102
105
64
30
56
37
95
67
38
-53
-10
-60
98
71
-103
107
-69
49
99
103
-25
2
100
-107
113
-28
121
123
35
99
-80
-41
59
-80
111
70
91
-90
-124
25
-121
-104
-29
105
-123
-99
9
70
8
76
23
-65
126
-6
-106
104
109
-20
40
-2
-2
-7
-105
13
-49
78
-121
-18
-86
-25
-53
101
74
102
52
12
13
101
75
-84
-66
12
-28
-34
38
-57
-8
52
58
-2
-57
70
118
46
65
-39
-9
41
-87
-18
63
-25
-13
52
9
-91
-113
-26
115
62
-127
81
-26
-121
52
-21
-26
73
-96
-57
7
97
-37
-18
-27
-90
-69
-111
-85
119
6
-122
51
-44
59
47
53
-93
111
-6
10
92
11
-107
-57
-65
-92
28
-54
-46
-4
95
-62
104
22
-27
-73
-18
51
53
10
-64
-108
-106
-7
-82
-47
20
14
35
-89
-27
28
-95
114
105
-96
-105
-94
33
-30
-36
0
53
-90
7
-100
-100
114
-126
-123
-95
-35
80
-16
50
1
53
106
11
5
11
-37
107
103
-67
80
23
1
0
56
-100
-20
-26
117
2
-48
34
-103
47
72
124
45
52
-115
105
-96
-113
57
-9
-89
6
-116
-113
79
49
85
73
109
14
61
-16
5
-4
-4
-121
-47
-78
-42
-38
-123
37
44
66
-105
-93
25
-12
-34
-52
-73
73
-22
-96
26
101
-122
-28
-63
20
22
45
48
61
79
37
-47
-12
-7
69
35
-124
-20
-56
2
-84
34
53
118
-111
28
23
-106
-79
87
31
52
-62
-114
-89
-76
-121
-76
66
-51
-21
43
6
107
-20
-92
-124
-8
-86
-37
92
29
-128
114
22
92
122
80
43
-14
111
-99
-77
62
-124
123
-7
-53
9
14
-116
-85
-3
-4
70
82
6
-54
-13
21
-40
114
75
-108
-90
-49
-90
-73
-68
47
38
-71
20
-5
-3
-115
-125
-63
50
50
16
-97
10
-38
121
124
-40
-1
-9
-90
-117
53
-103
-83
44
28
112
-118
126
-86
-21
68
11
13
83
46
-6
-92
54
-37
-51
74
120
-13
-85
-80
100
96
-52
17
-88
-116
-61
23
-40
-41
96
63
77
35
28
-92
33
-77
-25
104
-14
89
-127
-58
-26
3
-59
-72
25
91
-35
-34
124
106
-96
114
50
-66
125
-104
24
124
29
-26
-32
-64
-40
-55
69
41
33
-69
48
113
-108
30
-59
-20
9
29
10
44
-44
51
-39
-20
-87
37
109
-78
116
-69
-61
117
65
-54
-76
60
100
-28
75
-13
49
-96
-41
-37
-100
-10
-84
-3
-71
-96
-1
-105
99
98
-73
47
120
-89
104
39
119
-1
-36
60
-6
37
99
-40
23
47
-54
57
-28
-127
-107
45
3
3
12
-19
108
-70
93
-42
5
-74
18
39
29
81
55
-57
59
-98
-62
32
108
-35
-17
-70
126
113
72
74
87
-32
124
69
57
47
-73
-31
44
-102
115
19
87
-89
122
-107
-111
123
-105
-51
-49
-112
96
-88
49
18
57
103
-76
-109
-102
1
-37
-114
115
-20
-112
-65
114
-57
-70
-31
-96
114
-39
-42
-35
-61
27
104
-58
-13
31
87
32
-96
76
-125
-22
113
-115
34
-87
2
60
-52
117
-54
-24
78
35
88
-66
-91
-33
-125
-104
118
-128
8
-39
54
37
33
27
55
89
121
-112
-16
-70
-103
-43
85
-4
99
-1
-111
-92
14
-4
36
-48
-98
-49
44
-10
-28
115
-121
-77
-57
-54
-84
79
44
-118
-123
7
-107
18
93
-81
107
36
12
-84
117
-15
5
22
-64
-28
-39
27
-55
-53
-122
6
-48
107
-56
-113
-27
4
-23
-18
18
70
-99
-53
-15
-16
-46
90
-106
97
-106
-108
-11
-90
30
61
-64
22
44
-1
-31
81
30
73
109
-26
-102
33
-47
-38
49
-74
-56
-96
46
-36
-42
24
-72
97
-45
28
-71
-19
78
31
32
105
2
-53
-59
113
-112
106
110
-50
-94
-84
-3
93
-82
1
-126
81
81
-53
-69
21
74
-107
32
26
105
-88
-91
11
-57
31
2
27
-63
-6
114
71
60
97
71
118
-58
121
-128
46
71
58
33
64
-123
32
-78
57
123
82
-26
-100
-66
-10
-21
-117
-39
-108
62
31
35
-55
-4
114
17
105
107
103
27
58
-48
120
-61
102
-73
-124
23
-127
9
62
117
122
-87
-68
-94
-50
65
69
30
33
97
122
52
-28
2
53
29
-4
-9
-40
3
33
12
-95
47
28
69
-69
-121
124
56
89
-116
-30
35
68
-124
58
49
-125
23
58
13
27
-76
-77
40
35
-112
-85
52
57
-61
-104
94
-65
1
79
-2
-116
-54
5
95
116
19
12
7
-61
-24
84
114
76
67
117
91
25
-34
103
93
43
-51
-2
72
97
79
51
-79
-109
12
-44
-87
-32
20
-56
-88
-50
-71
-128
-62
78
12
125
-67
80
-68
99
-25
80
-28
49
67
119
-55
93
-78
-26
-58
-43
63
39
61
73
9
111
30
-58
-117
78
56
74
-35
51
10
114
0
65
-38
-103
52
75
-20
73
-116
97
-48
29
-52
-29
27
29
-5
-29
-16
-31
-31
-6
86
117
-9
-124
109
92
28
-62
-51
-21
-96
99
55
12
-12
15
-81
23
-107
121
-89
-97
-24
36
-90
-85
-120
114
-101
54
121
-109
77
-72
-26
-76
-40
0
12
48
33
-9
20
43
89
-23
76
107
75
22
97
-30
48
2
-97
108
-20
63
-57
-74
-29
-128
70
-94
-16
-17
-92
-77
-118
18
74
-29
-23
-128
66
-1
98
-1
95
33
-39
56
-13
126
-96
-119
83
87
-10
12
-59
-79
89
17
42
-29
103
18
-101
-43
-72
20
-29
86
5
-111
31
27
-51
117
-35
21
3
52
46
33
106
-31
109
-87
-65
-64
-125
99
38
11
-51
-108
-55
-30
93
-116
-102
4
-77
-88
-19
38
23
-90
38
-74
-104
15
77
10
-121
-53
-14
33
-25
-98
97
12
-41
-1
-90
52
-47
69
102
-120
-7
121
111
-71
-9
93
3
1
104
24
-110
94
58
-87
-66
80
107
53
-52
-12
122
-127
-37
54
117
59
38
18
-92
-3
-20
-33
-107
-34
-122
90
85
-96
-94
-50
-117
-76
99
-16
62
23
91
123
-92
62
46
53
-19
80
-123
-61
-69
-13
111
72
-50
76
-21
49
-111
74
100
-8
74
-79
-48
23
-109
-68
1
-93
-41
35
104
-62
-23
-123
-111
-34
72
-31
-39
117
-25
114
-27
-96
71
-64
-103
-127
32
49
-92
20
18
52
-93
9
101
21
117
-37
51
-9
103
-74
12
-103
-86
116
7
-110
-103
57
-50
-22
30
-38
-60
-103
76
45
-97
24
15
-1
-33
-88
-105
-32
-16
-68
-20
-43
-18
35
-91
122
123
-103
107
111
-31
-11
67
62
-68
-18
47
56
-80
-108
-22
-112
73
35
-79
-90
-2
29
126
19
-2
-127
16
-100
-87
-107
12
57
60
-58
33
-113
28
-45
7
42
108
22
94
-33
-40
-122
-64
42
44
-4
-95
-39
-5
114
119
72
-63
-44
125
123
-83
-43
61
-109
10
83
-19
-120
-3
73
-115
-49
-1
18
92
28
20
77
-16
111
45
-87
29
-114
56
-120
-97
-114
91
43
81
-118
30
-79
47
27
-40
-124
-93
-38
-81
48
34
-106
-81
-80
-53
3
77
92
54
98
-64
-90
16
-69
60
45
-24
4
-51
109
-7
-70
-127
8
-20
-101
-91
117
-92
-70
94
-20
106
51
-62
-11
109
-2
69
-18
-104
54
-44
21
-69
-74
74
-2
38
61
-29
-121
43
96
96
-48
70
24
51
95
-58
62
111
102
-73
105
37
-81
-104
-110
38
56
35
-96
47
82
-56
119
-98
86
-45
-5
-101
-89
117
-87
38
112
45
-106
-80
-40
-13
64
-106
98
40
-23
19
100
-42
112
-124
-41
-114
-98
-106
-108
-75
100
85
-97
84
-20
109
57
109
-112
90
55
42
-3
33
-26
-83
-100
5
110
-8
58
-74
44
44
77
-97
1
-55
72
34
38
30
-20
66
-61
-126
22
77
115
-126
20
62
60
-33
47
-122
28
42
-104
-24
23
5
80
-96
62
100
22
110
-64
-18
-100
-62
95
93
-9
-63
-65
-15
-96
68
85
-108
-38
24
-11
-119
-97
8
-104
-44
111
56
68
0
96
-114
-114
14
-91
50
-12
-9
-20
39
18
-38
-116
-38
-69
80
113
-1
-16
-34
47
94
-67
114
-102
-116
48
-54
75
30
-97
-85
-56
109
77
-2
-47
-9
-36
-116
-45
19
-97
-101
88
-99
45
-82
-120
-53
-109
-70
4
-118
26
-67
-58
-88
69
-41
8
77
-98
21
22
112
-90
98
11
24
-81
-116
48
75
7
-58
-12
-69
-128
16
63
108
-1
86
-82
94
3
-96
3
71
-40
123
-90
-49
-11
28
-124
68
93
27
68
113
-126
55
125
-87
-83
63
-27
60
-80
35
46
14
-20
60
27
-51
32
-70
-1
-76
-13
61
82
64
83
37
0
87
113
27
119
11
51
-42
-65
-48
-110
61
-71
-81
50
-127
28
-60
17
-89
19
47
-120
38
45
49
-59
48
121
42
-25
-6
25
4
121
-97
65
16
19
-12
-29
-79
43
32
13
-125
-101
4
42
116
-83
93
95
-25
125
67
-91
62
-89
3
115
-116
62
88
-54
-29
-48
-47
80
122
69
-70
29
-96
28
36
-81
-39
-98
-44
76
-105
70
-64
41
-95
124
-72
-6
19
48
-58
-104
-97
-24
-17
75
80
20
-27
34
7
59
6
63
53
91
-36
-33
-16
-70
58
-93
-23
24
-69
-17
57
0
83
-32
-1
24
69
-37
-32
87
-63
-119
-9
86
-16
72
-47
35
86
-86
-40
-115
4
-126
-47
47
-8
-81
125
53
-80
-115
-116
-49
52
-60
120
106
119
-106
-105
-84
-44
86
-4
36
-23
98
126
-63
-108
-42
-98
90
-92
-105
76
119
85
87
15
10
-14
45
-6
73
82
76
124
37
121
78
-65
54
59
-86
-116
-33
25
-115
62
-56
93
-113
2
-75
88
43
-86
-66
92
-107
-15
-91
-34
-110
113
-99
119
-82
-68
-128
51
-83
-1
-95
119
-54
-27
106
4
35
-52
110
-71
-123
-34
-32
78
59
112
13
-102
-111
40
-49
112
-79
73
-128
81
3
81
25
-83
-80
-116
77
21
-65
-17
-121
-124
39
-13
-99
79
-9
114
-122
105
-123
-62
9
77
-98
106
75
59
-83
-96
110
-45
-81
-109
77
112
-72
76
84
33
10
-63
-73
-95
95
-113
65
-82
88
27
-89
71
-105
-56
34
60
-37
52
33
-96
-33
-68
110
124
49
35
20
-70
1
68
55
-84
-44
70
118
-95
-64
-88
76
-49
-95
-94
-67
2
94
-3
-99
-102
40
115
-8
4
-44
-15
95
86
-119
103
98
-47
101
-119
-120
-87
-6
110
83
42
95
5
50
-107
2
-119
-62
-108
-106
34
-8
74
-27
58
12
-13
7
39
-72
-19
-94
19
26
-40
-38
-120
-53
-15
57
70
94
66
-12
95
114
87
-85
-10
-117
56
-122
-57
-71
64
-114
-61
-83
-52
-114
-28
44
-100
84
91
11
71
17
-85
49
-80
20
121
24
-13
-87
30
-49
99
115
-27
-14
-41
116
64
-56
-41
68
13
123
-118
-23
-100
-104
-24
51
-33
54
112
118
49
126
47
-99
67
-93
37
18
1
-121
21
55
79
-125
-100
-101
-66
-78
4
25
-1
75
106
-90
-99
-90
-46
77
12
48
-103
-53
83
-81
54
-50
56
40
64
-115
87
5
60
122
-116
-96
-99
38
26
62
12
-71
-19
-19
-92
-99
54
-50
-48
69
-22
22
105
-70
16
41
93
117
-11
99
126
-84
-56
52
94
75
-111
81
-97
-25
117
96
-119
3
62
79
-63
7
-18
-126
71
-29
114
63
76
46
101
-80
95
40
49
-31
-51
-13
-126
83
-33
83
-66
-81
-51
8
-125
-22
87
-50
110
-50
32
117
95
102
55
-84
30
122
68
111
-126
74
-66
-22
23
30
124
-30
-89
5
86
3
-86
-8
-25
122
-109
-38
-64
35
-6
77
-47
24
-3
80
27
64
-112
18
47
60
94
-8
-96
70
-110
103
12
-78
-68
38
25
35
-64
39
-94
-36
52
73
73
-28
-15
-126
-10
-53
-85
-92
41
-114
-96
120
-57
10
-19
-3
125
33
82
-81
-51
-24
31
-35
-115
-9
115
20
-26
44
-82
12
37
14
-49
-33
78
28
-8
-64
-81
34
-96
13
116
55
5
-83
-47
-128
-88
-108
-100
-78
34
37
1
-46
-120
122
116
-69
-1
-109
11
-69
41
-112
75
-29
92
-83
-36
86
-6
12
-15
-6
-14
101
99
-107
-59
-76
-11
-11
-8
-11
62
-33
-23
-27
103
-36
-53
18
10
123
83
-40
99
-52
-78
46
5
-19
11
29
-48
47
105
46
-115
-30
43
-60
62
-42
-84
88
96
-37
78
81
-72
-66
-93
105
-112
-66
58
-32
-20
117
5
-63
18
61
33
107
38
122
-68
121
-60
6
123
-104
47
89
-73
-86
4
-65
-50
-118
-72
126
-99
2
-2
33
75
59
59
107
116
78
117
20
94
46
6
60
69
-61
83
-33
-110
-26
-16
-97
114
96
100
-13
91
68
65
-76
83
-107
4
-45
-126
-81
97
-46
-121
6
-24
5
39
-84
-1
-109
59
7
-75
81
-104
116
114
59
76
-20
31
-88
-106
-71
-7
-60
-124
64
-78
-74
-90
-99
81
44
113
-102
-118
117
-84
-73
78
-112
-38
-24
40
-45
-23
-83
-37
105
63
-10
-73
54
4
89
-7
-115
-40
-24
93
2
-67
-10
6
117
81
-10
66
71
35
51
-102
-98
-55
121
106
87
-78
126
-67
7
70
-95
-96
22
12
113
111
106
-53
-64
-42
18
-92
-116
64
44
-15
118
91
-16
19
-89
47
62
-21
-51
86
-8
68
100
6
77
-45
-81
102
-113
101
114
71
-33
2
35
115
15
71
74
30
43
-1
-97
44
-96
-68
35
126
67
83
-90
-88
103
-107
65
99
-61
-118
90
65
63
-4
125
-27
-16
-54
74
-28
-91
-15
57
-64
45
23
-19
-108
66
25
32
35
-60
-96
80
112
-116
42
109
-90
67
-4
-16
57
-45
72
-101
98
-71
69
-116
117
61
-107
-58
86
-57
-114
70
-60
-34
45
-13
-36
93
112
116
-96
11
-85
99
-34
-48
-38
-118
8
-41
46
108
-26
91
121
-19
-63
87
-46
102
-23
118
-75
-15
37
53
-94
-45
-96
22
30
-48
18
-82
-124
26
33
-61
99
-67
70
65
123
-67
95
53
-97
107
-85
-94
-30
43
108
23
27
50
-21
103
-84
43
-10
42
69
96
65
-80
-93
32
82
-94
-105
105
-17
45
-55
20
23
-87
-126
-101
22
78
-87
-53
81
-82
116
-26
89
-95
53
-94
61
83
-36
-52
84
-102
72
-5
67
-8
44
26
-62
35
-48
-50
65
-57
50
3
-14
58
-18
34
-19
61
66
-35
-45
-115
-4
88
-73
-78
49
106
-62
33
40
-81
-99
38
-115
12
30
-1
93
-119
125
-58
112
-96
73
-115
24
-96
44
-9
43
53
110
-30
125
97
-37
-23
112
-75
-34
88
-109
51
8
27
122
-88
-26
77
122
67
54
-127
111
-53
-97
-53
-25
55
58
-66
106
12
-60
27
109
116
-115
-80
89
114
111
-67
-97
-13
-121
17
49
77
-3
-126
58
-106
-120
-71
51
59
-127
-24
66
7
-57
57
58
42
34
22
-125
-23
-56
49
67
21
32
5
120
-48
-21
-35
-121
81
-51
-66
107
95
80
-123
46
81
-118
28
-72
-115
-83
-59
56
-21
-10
-58
-111
74
81
-10
16
34
58
-118
-74
21
-121
-51
-27
-93
44
-38
29
-4
65
-120
-62
-35
-49
24
-28
5
-122
82
-89
-15
-79
-108
57
52
48
-101
79
-100
77
113
61
112
2
17
-35
105
46
45
123
53
-65
15
49
-14
96
-38
-39
7
83
19
-92
20
71
-99
1
78
-98
25
53
-61
-10
5
-103
83
12
97
-97
23
110
119
5
64
117
-128
-106
14
-66
-21
-25
71
20
-26
65
-19
-30
-1
-2
-123
59
98
53
122
67
-84
29
-52
105
29
93
115
24
-53
-35
-110
3
-23
17
-83
45
54
-104
-110
4
72
102
-89
-46
-34
94
97
54
-8
70
-97
90
93
23
-69
13
-92
-78
114
114
3
-74
-106
62
21
84
-102
-4
-75
78
-60
46
-7
126
-106
-6
-104
21
-99
125
107
-82
-29
-63
5
64
-60
111
7
70
81
104
-114
-60
48
88
95
67
-72
-50
22
118
-57
62
72
-113
112
90
5
-126
-37
-100
63
36
32
-100
-89
-20
99
-18
-108
-3
-120
63
88
-23
52
-4
73
-45
-122
27
-85
-47
-108
-88
-90
61
116
51
93
-99
-17
-94
25
98
95
-109
-128
-89
29
59
-63
-106
-121
-16
-103
53
97
-10
28
-15
125
-61
-18
47
-125
67
-18
35
-8
-58
-1
121
34
-68
-72
44
-68
94
-123
19
-76
30
-67
-71
59
-105
98
70
-88
-12
-60
-104
-7
42
-61
-85
-54
-113
-38
-37
84
79
-93
-125
-79
-89
-59
-25
-115
-27
52
102
102
-106
90
67
109
126
-97
20
-121
-106
-19
111
69
-73
33
-30
-108
-46
-99
-57
109
-12
2
105
-121
-27
-64
-94
-126
-116
-92
-62
13
83
-101
-24
123
-25
-121
-128
72
42
-109
83
32
115
125
-88
-22
-2
71
103
-60
41
-121
-51
123
-1
-96
-4
118
-33
-98
75
-50
-9
80
-68
63
-69
-98
-51
64
4
-18
-61
-114
11
-118
-38
51
90
-24
-35
-110
69
124
13
72
-48
-9
-107
-21
106
8
-100
126
-32
16
-95
-126
-72
-98
83
-52
43
-89
-24
-78
-24
103
98
66
-88
-25
70
-42
-39
-87
-101
88
53
-27
-99
76
44
-110
50
92
-21
123
75
69
18
53
-42
-72
-90
71
36
39
44
59
-91
-92
45
33
-50
39
118
57
59
-65
-54
-52
-72
-55
87
-104
-60
110
-9
87
-117
-41
-2
50
-82
-115
61
69
45
-27
-2
30
-56
-63
4
30
55
-64
-35
-105
89
-59
60
-6
-12
75
-70
120
-116
1
119
-117
98
63
46
107
-39
90
-53
38
-53
-114
-74
-22
-70
-3
101
-52
109
112
-83
28
-127
57
61
-7
-88
-116
3
32
22
-88
-2
-50
-86
-112
-103
-61
-119
21
-127
67
-49
125
73
-9
39
77
94
48
-93
120
-128
-54
110
-79
51
6
-23
0
17
103
-70
111
-29
102
90
-61
-74
36
125
10
27
21
-78
74
98
-69
113
62
111
-53
71
-50
-60
-115
37
91
-86
111
108
21
26
-101
113
101
-38
-106
-18
-19
-17
-98
65
82
-95
-81
23
-66
-58
-127
103
-2
22
-101
89
96
-24
31
110
-29
-12
-108
-121
-72
-115
119
6
-119
-81
-123
-117
77
-53
-81
-17
-60
126
35
-105
89
-78
50
2
-7
41
-87
61
73
-40
-11
-108
-106
109
8
112
-13
-122
49
-75
-102
19
108
-30
61
-76
8
0
124
91
112
29
-47
91
-116
36
23
-125
-27
-33
118
-116
-9
-21
-72
76
91
50
87
-102
81
-108
-38
106
72
-108
112
-20
-16
35
-90
-80
-127
-82
102
-95
-96
10
105
103
-77
-46
-56
62
31
110
-58
-75
-56
-29
-84
-60
126
99
81
-3
53
56
90
42
5
-50
113
91
-13
-92
122
66
-124
-25
-116
94
-120
24
1
97
-73
-47
-29
54
104
124
-99
-51
73
100
-52
-30
-62
-13
-26
-106
-8
-107
-87
-20
27
3
75
-79
25
-88
-7
-41
-31
77
-117
-62
109
48
57
86
-28
-11
-80
61
81
96
100
-93
-114
-105
-64
-10
-31
-87
122
24
11
-85
-124
120
78
-67
106
115
-117
-96
-100
-14
-110
-24
28
78
117
-71
23
68
-85
-110
96
36
45
80
-99
-8
55
-48
-18
65
88
116
-99
101
96
39
47
84
-29
116
-39
-11
84
-126
-109
-90
-69
25
28
0
60
0
-84
70
81
-100
-14
125
12
-115
-96
39
115
-68
34
42
78
-98
-104
38
47
-92
-103
-71
66
-20
-33
-28
15
18
-26
-2
29
-116
14
-96
-17
-25
103
22
-15
106
-41
81
23
-26
-38
4
-64
-70
-3
4
117
24
-58
52
-79
-65
42
86
-94
-7
81
-116
2
-87
-54
-2
44
-7
81
19
-69
-124
12
34
52
-17
35
-51
38
19
29
-50
60
64
52
-79
-95
-35
-75
98
9
78
-22
70
-22
-94
86
-67
40
-111
-5
54
119
49
21
-70
-35
-54
-41
100
91
30
-16
-48
7
-27
113
111
120
65
-77
71
12
-25
31
39
71
28
-23
71
-8
64
113
-96
-81
64
-93
-47
-99
-38
-111
25
-82
-6
24
77
-72
-124
28
15
51
-45
68
-102
8
-117
115
-60
13
-56
63
-125
-71
126
117
7
64
-52
44
2
58
-21
-33
52
-31
5
77
114
-44
62
-5
43
-42
6
6
65
63
-123
84
-34
-73
-73
40
65
32
-19
-127
23
-107
97
-49
-43
-13
-86
33
106
123
-43
-38
0
-52
-9
-104
89
75
72
-78
90
-2
-37
-112
60
-31
-6
54
-3
-125
-38
37
-93
-10
-124
-2
36
64
-113
106
-55
64
84
-2
90
-67
-44
-78
12
83
80
24
42
25
21
-66
13
55
82
76
-97
-105
6
85
78
-80
-63
-54
-28
73
-72
-52
36
-86
86
-63
39
-85
-15
-83
101
-111
-122
-19
-58
-3
-66
109
79
102
-17
-67
73
-110
50
11
-116
-51
81
-89
8
-43
-90
43
-80
-95
16
-23
-55
46
-115
19
33
90
-90
58
126
-69
-71
93
60
102
-10
101
-72
108
80
64
-5
83
13
52
-119
-113
85
-60
-72
-18
50
1
100
-106
23
-121
12
37
81
-94
119
107
86
-4
-49
-91
-28
19
-36
84
-112
-41
-11
109
-44
81
-94
-69
-102
118
107
-39
13
-102
40
41
-128
36
-124
-108
26
-118
-108
1
-116
-121
-57
-39
23
74
75
95
-7
32
50
97
-4
6
-31
85
62
-40
94
109
-10
-67
57
-8
-26
-117
-110
98
116
107
-11
-38
-112
112
19
81
108
99
109
104
106
27
-90
75
-49
124
-96
-100
55
-47
96
46
-28
-43
4
-20
-40
48
19
114
-20
6
54
-86
-79
-42
-59
56
-75
94
87
-58
23
-31
-38
37
19
102
-112
-24
-89
106
-96
86
-98
85
-114
0
90
25
17
36
92
-74
58
-4
60
-46
-90
-107
-80
-74
-110
-76
-103
9
47
-76
-80
71
11
43
39
33
104
-45
-84
-13
-64
83
-7
22
69
3
42
-128
22
-10
83
49
93
38
-99
76
75
94
-24
-28
-77
53
-87
24
-112
22
19
85
-57
-26
-126
16
117
-39
-114
27
126
-27
44
22
-34
73
-55
-54
-45
-74
-43
-68
62
91
-47
-4
32
-18
94
-55
51
117
17
-123
-19
-107
-35
69
92
91
-117
10
95
81
39
98
-45
-102
2
118
19
-52
-121
-69
-120
102
67
-94
16
81
-113
-33
-40
62
-100
41
-19
-19
64
106
-82
82
48
-101
39
66
-48
-16
-100
-32
-53
-111
9
23
-101
6
-112
-109
-126
72
-87
96
6
112
3
-106
14
55
-121
-114
78
100
-124
-77
31
-105
5
119
118
93
84
-59
83
-61
124
-35
10
-7
-60
-44
-111
41
11
-119
78
21
-66
51
-61
117
98
62
94
36
-36
-71
-33
-94
122
5
-104
82
113
88
84
-45
27
-123
78
-87
79
-36
-91
-24
-119
-99
-70
-111
-28
24
76
-104
-88
-13
-95
-53
67
-47
-22
102
-4
-35
14
-18
12
-9
-29
95
112
-120
96
2
-104
-81
-112
-85
-117
-30
1
37
101
33
-14
18
85
70
20
-24
47
32
60
36
118
20
-106
61
24
75
-120
57
-93
-40
-92
-49
-72
-80
1
-116
-29
111
92
-17
-119
50
106
106
115
-2
109
-84
-3
77
124
112
-101
-10
103
-33
-101
-46
45
-28
-57
5
-43
120
43
30
45
-97
4
38
-54
107
18
102
-128
38
61
44
-102
-5
123
120
85
-84
30
-36
-104
7
-110
94
-82
39
-31
7
-32
47
33
-96
-18
56
7
-7
18
-14
105
126
-9
-35
-18
118
-51
-37
-104
45
-100
51
59
-106
29
107
-12
58
119
27
-28
123
-81
-27
-10
60
65
42
67
-104
6
81
-49
-119
89
-65
-54
10
-21
46
-14
-119
-58
125
110
-38
-20
-95
5
100
66
73
-2
-111
-41
-40
-40
64
105
33
47
-108
-125
-71
34
32
-122
13
96
-97
56
-76
-91
-5
37
-59
-125
107
-56
-65
108
-32
-2
8
-110
117
-119
90
-17
-96
68
88
-72
-93
-125
-21
6
-100
93
15
84
-48
72
-106
91
61
99
39
36
-93
78
64
-5
110
43
-105
-69
-120
-113
-30
71
-114
-5
-110
-128
-102
-49
-3
-77
-118
-19
16
-81
-94
53
-79
-15
89
116
-3
-82
53
57
-125
59
-74
79
39
108
-8
-18
-43
-49
-77
55
92
90
87
-73
-112
45
48
-58
-57
86
87
44
5
-101
123
-112
102
-115
-62
-9
69
78
125
26
58
-83
1
-1
66
-17
44
-112
-10
43
114
32
96
4
100
-36
-87
-7
22
38
52
-108
73
84
2
-29
-80
6
-116
-98
41
-14
55
67
22
64
25
93
-6
41
-18
-35
95
118
-79
-23
-73
-126
58
-120
-6
63
-110
17
-88
-125
-124
90
-62
3
53
-120
87
-30
12
-109
104
-63
-3
-45
-99
-85
-25
-65
9
-119
123
-81
23
37
61
-110
107
123
-59
97
70
-38
-6
-42
-24
35
64
-61
103
-97
-79
99
41
-105
-8
-64
9
28
126
22
110
-41
101
25
87
61
41
48
-84
0
43
-22
-40
-98
-71
43
-7
-92
-99
-126
-77
40
-49
2
99
76
16
-56
-69
-59
52
-19
68
43
-57
76
41
-31
30
121
33
107
-102
32
-55
-102
-36
98
9
60
99
104
-99
-28
-55
34
30
112
-36
-24
87
-97
-60
-5
55
-20
103
-10
46
-126
83
-103
-14
-7
-89
37
9
-86
106
-88
7
-91
-83
-26
-65
103
-4
-47
-52
-126
-115
-99
43
-74
52
5
40
106
-91
43
57
8
-118
30
70
91
76
19
118
-56
107
115
-126
-113
-31
24
-16
113
-72
-36
4
-64
-36
-112
-28
-56
-98
-68
39
24
-93
58
-119
-12
100
89
98
8
36
60
90
-122
114
39
67
-80
30
62
29
28
108
86
36
-15
-12
57
109
44
94
-29
115
38
-33
22
-80
-45
-22
15
-83
-62
-24
-30
-101
-106
-9
7
80
-90
83
103
0
-41
-121
-16
-54
75
-122
77
-39
-14
63
-88
-1
-2
41
29
77
-46
-115
-15
-77
-65
-56
126
-84
92
101
97
0
104
82
-70
72
-38
15
-64
-79
-27
-37
26
-57
25
13
111
110
-19
115
-71
-55
-6
-114
-62
-42
85
30
86
-16
-32
91
0
58
-3
1
55
-37
111
-34
-39
-124
4
31
-26
-21
10
-94
121
40
49
-92
118
-28
15
58
64
-117
121
45
85
1
-63
28
-12
27
-67
63
-85
-32
96
-69
-29
-82
-112
66
-35
94
-102
-14
77
-115
-105
-20
47
119
-41
120
15
27
41
8
6
102
74
-80
79
-94
39
100
-37
93
-117
-77
6
121
-110
-70
-2
112
-67
-92
-116
-43
97
63
-49
-77
-95
83
-113
-100
122
31
70
-124
-84
-12
-67
110
-123
-89
-104
-57
86
-2
120
4
-62
24
120
-3
-71
-28
-79
-79
108
-22
-6
83
-123
-37
64
113
34
-77
93
47
-73
-52
16
63
-59
-98
52
-34
112
-109
14
43
45
87
42
82
0
-47
77
68
102
-9
-120
47
53
118
65
-92
26
13
89
46
-23
14
57
-7
-95
61
-120
-81
-126
11
108
115
-79
-124
-72
-11
-100
54
-84
-45
35
-100
-76
60
5
-74
-81
13
-114
-47
118
3
-55
-29
97
47
11
-96
91
-107
84
-21
117
92
49
-42
58
94
74
-69
-31
-30
-90
-34
-2
103
-51
-80
-117
9
-112
-99
-122
-101
-44
31
-18
-107
-50
-96
-42
-103
-2
35
-24
-61
-30
-123
6
99
42
39
119
124
116
-97
-116
-30
91
108
-50
79
72
-45
-121
5
-15
-101
-42
-37
24
90
49
-6
73
122
-73
-70
-71
103
79
2
111
93
11
4
64
-91
-120
-61
114
39
-127
104
-102
115
7
26
-16
-67
92
43
124
-58
15
-126
48
108
18
20
-125
45
102
69
25
-32
-3
-110
36
113
-80
4
96
-43
121
-1
-69
110
95
102
-50
67
0
32
-1
-114
67
-22
-4
-108
-43
-39
-102
83
90
84
-59
80
-93
105
75
47
-49
-82
112
99
108
-98
117
-112
59
66
-40
-120
30
-36
113
109
-81
55
-111
-86
-38
22
-31
-69
-121
95
18
-18
-83
-72
14
0
13
-7
-105
-117
39
-44
-43
-109
-42
44
-54
-65
-74
62
96
41
107
73
-102
114
-7
78
-119
-39
67
-43
34
34
-119
-108
-69
-11
59
-77
89
-37
126
65
100
-125
54
-48
53
14
-85
46
54
-98
97
-9
14
-34
-67
21
-2
-101
-1
-115
-44
-127
-11
-1
-91
120
-67
-110
63
126
-64
56
-59
10
-125
67
13
-4
-50
112
88
-102
-39
72
87
-103
-54
-55
9
50
114
-72
-23
-119
-81
56
113
90
-4
10
54
-72
-87
29
68
-123
31
43
-11
-38
-21
60
6
10
-12
-3
64
73
-93
26
78
119
-11
-122
76
-51
34
-114
-69
6
-36
-97
77
114
119
73
-29
104
-61
-60
12
-15
-36
123
8
-66
-8
107
43
-66
-1
77
-51
-48
100
-93
15
-43
19
7
73
-40
-23
3
-42
-103
25
-49
104
-122
-79
-71
59
-76
-101
75
55
21
-18
110
41
-111
54
-93
35
23
100
125
-51
-89
15
-77
-74
121
-85
88
80
-102
-46
39
-112
-122
-95
114
30
-49
13
-25
93
-97
100
114
-59
-67
-88
50
84
98
82
-72
105
-75
-82
-70
-49
-73
50
86
55
-102
69
32
-88
-51
91
81
-110
-95
4
17
3
39
-78
-16
64
-128
1
40
-11
119
106
25
-87
-128
18
-122
-126
-19
-6
-45
68
96
75
95
42
-4
81
-10
104
23
-67
-112
30
78
82
-23
91
18
-43
-64
80
64
-104
-90
26
72
21
-77
-68
-78
-62
65
-104
36
-47
-123
-55
118
-124
120
101
-91
-80
42
-69
-43
44
109
97
-8
84
42
-73
16
-49
8
16
-4
-42
-27
-98
-76
-47
-123
-77
-86
-109
-96
109
71
-14
-28
120
-92
-17
-31
-56
2
-10
-67
72
72
61
-90
118
92
-26
-128
59
-93
120
43
-83
-75
107
25
-36
96
41
11
-57
92
42
44
5
123
102
-99
86
59
72
12
-26
81
102
-118
57
-39
4
-77
72
-15
107
-35
-74
-70
47
107
-17
-14
106
106
124
-123
58
117
-52
23
73
88
-125
88
52
-120
-62
27
96
-30
59
33
-78
12
-105
34
-97
-126
59
96
-37
-23
92
-80
-108
10
121
9
-128
72
-127
119
-19
-8
87
-69
40
-122
-34
76
-74
93
-116
52
87
104
-56
-103
44
-39
4
37
59
66
-18
-7
92
48
-23
124
14
-58
-81
-114
-38
-7
118
49
-54
-20
-9
-1
-97
-13
84
-3
33
42
-114
60
-59
-87
-41
-1
-83
-119
-95
-4
126
79
16
35
-47
15
9
53
5
106
-90
42
95
93
-108
-101
-100
-29
-103
22
-78
59
55
47
-27
19
99
92
-120
27
-97
-27
118
15
-99
-75
71
32
115
64
101
-35
115
-67
-76
23
102
116
78
-64
-103
93
-37
30
107
126
88
1
-66
-71
-31
-80
92
112
64
73
10
33
-29
-61
97
89
-6
-101
-53
33
-67
-27
122
22
-37
28
-77
-26
49
92
123
106
-107
36
-29
-3
-112
-53
113
70
80
18
5
28
79
108
-101
-21
-50
12
76
5
67
-92
-44
-22
119
-16
-116
91
-13
-58
55
11
44
74
-52
104
-76
4
-94
24
-18
22
82
-100
52
85
102
94
-104
83
107
-35
18
-42
22
-27
-122
-111
69
23
34
-71
96
89
122
124
-55
105
82
73
-59
-40
-40
-126
-15
10
30
82
-40
-22
-27
54
29
-46
-11
31
0
35
-63
-100
-81
41
-128
68
79
60
37
-10
-104
126
99
54
34
22
10
-48
-78
81
20
-114
102
76
73
-90
-81
21
-8
-121
48
0
89
-120
31
-2
-82
83
-46
-76
83
-118
-58
77
-37
-113
36
53
2
120
-60
-73
-62
66
-110
-15
-89
-42
56
27
-4
85
95
119
-89
116
-89
35
-88
-84
105
109
-13
118
28
-69
-124
31
106
88
86
23
-15
94
6
-2
-121
-25
-86
35
96
30
22
117
-52
4
81
-12
-46
-100
15
-88
55
94
-119
62
-78
-93
-108
114
86
-119
31
78
-48
43
-20
-103
46
61
-105
-26
-3
102
8
19
-84
-94
105
97
-57
-14
-96
9
12
123
107
77
-124
-38
-104
-103
8
57
-103
66
-67
-61
42
11
89
13
53
-2
-119
-82
124
-87
-40
119
-37
-40
0
76
-81
10
30
11
23
-4
-68
-29
116
-49
118
65
-62
80
-64
112
92
108
82
2
97
-76
-117
33
-89
16
-41
-115
9
96
-113
67
-47
122
-97
-27
81
-60
4
-85
30
4
10
-84
-14
45
37
-28
-57
17
89
-33
29
6
90
-26
-12
41
75
-54
116
-36
-44
-17
18
70
52
123
-83
-36
117
-21
-95
121
-28
-32
-71
-22
114
-85
74
-15
46
123
-85
-112
126
-33
11
119
13
27
-122
-85
-92
-76
-62
-96
-44
14
-95
10
-48
-92
124
-59
-4
-126
-46
40
-117
-126
-60
121
-63
-112
70
-39
4
-100
-96
-92
-61
87
33
75
115
32
-26
61
-17
63
99
120
115
121
83
55
8
-49
-34
-119
-53
-109
-114
23
-19
23
84
86
-42
35
57
-92
-11
26
-33
109
22
86
-84
23
-10
92
50
-48
83
27
-124
86
-113
-28
-117
-43
46
26
110
-45
-6
-95
50
-64
86
-111
-37
103
120
-34
-119
-72
91
118
9
-37
-105
2
-98
96
51
92
107
115
-112
91
110
-24
-73
-102
-42
94
111
-66
-116
-73
3
51
17
-14
-72
-96
10
12
-25
-2
-14
-104
81
69
67
95
-88
-101
-23
-90
117
108
-91
78
-103
25
-74
-39
126
-113
-66
-117
-28
-86
19
-57
107
56
62
121
7
3
-41
-44
-67
-65
-49
49
53
109
-71
49
-34
-48
-109
106
71
111
60
-23
-88
-103
-124
124
31
59
-29
-61
-127
-96
-54
33
-95
-116
-3
15
6
-11
-96
-45
-87
36
63
105
120
-110
90
79
2
-56
-103
122
38
-87
-26
82
68
23
66
76
-20
2
95
74
-7
-106
-20
27
-1
5
-90
-68
-126
63
-67
-57
1
-27
-94
29
124
91
25
-15
-12
-107
56
-64
-116
-60
-59
-88
-99
86
-94
58
25
-18
62
-11
6
-94
41
-8
-34
-128
13
85
67
39
-37
26
102
-49
25
30
-20
-49
-25
-66
51
62
-34
-126
-44
-98
-125
-4
99
121
40
-95
-16
-52
-65
-68
-118
-52
0
81
65
-107
-94
-119
36
-90
58
83
3
0
-85
-46
95
69
97
-82
-118
31
-90
57
-81
-82
73
61
-18
95
61
26
92
-16
87
-100
43
-120
72
-100
-45
118
120
-15
-4
29
88
-31
45
-56
46
-80
-90
-74
-22
-25
-21
-29
31
-53
-31
-28
-50
-124
124
57
107
-99
-108
107
-125
80
-35
-105
121
55
75
72
31
-51
-72
-27
42
-45
-72
6
0
-113
123
-72
118
-42
-84
-85
102
-75
47
-12
65
89
-62
-39
-37
-117
32
-29
90
-29
-63
-9
-123
-41
65
-51
-69
116
-32
-122
-94
14
-116
-68
-95
-94
-3
-69
-122
123
-21
70
-39
5
62
63
-28
-94
-75
87
-31
-100
92
125
80
109
37
0
-54
103
-94
89
9
-55
5
-99
45
-44
87
-88
109
-18
-110
-115
28
115
-23
3
-25
-96
116
89
-55
-115
66
68
-37
-65
77
60
5
-39
-118
-118
-107
-100
77
-103
52
46
-69
124
93
-99
-108
-90
-75
-127
52
-85
70
-4
52
-28
82
-108
109
44
-46
-52
71
-27
94
10
-113
-31
-128
44
95
-120
-116
-46
79
92
-27
2
-39
-53
90
-69
-111
51
-52
59
-10
52
-103
-30
85
106
-61
-66
-75
-40
-34
-70
72
-107
68
117
111
-34
16
-73
-119
111
-57
-126
103
92
-27
74
-16
106
-22
-41
-105
77
-90
63
-80
111
94
-26
114
-5
61
-2
-125
-94
74
30
69
-72
-123
-91
118
91
-97
92
-122
-101
84
30
-45
-91
68
-116
3
-103
77
-75
76
46
122
54
100
118
124
-63
8
18
-77
17
54
5
-87
25
-100
56
-100
-82
-56
44
82
17
21
-51
-83
122
82
-7
-33
6
-5
36
-62
-29
-121
-94
3
94
111
22
-100
56
-125
-75
102
5
-85
-94
-12
-89
59
-16
76
-83
-8
88
3
91
-26
-34
59
-14
57
25
-38
68
-34
-45
68
93
-81
28
65
30
-106
-121
80
-11
26
35
41
-28
-106
41
112
79
51
32
63
-23
-64
-88
-103
-73
-50
-70
-113
-110
38
-19
94
59
-127
41
20
-25
95
64
-29
-47
-110
-102
-78
15
40
-40
-81
-127
-61
26
19
98
38
34
93
-50
-34
18
116
3
113
-52
-98
-46
-123
67
-54
6
109
-23
-108
-93
72
-102
33
-46
-73
2
-111
97
-124
-5
-123
46
76
38
112
-96
40
8
-21
27
-108
48
-74
-63
-41
109
81
-71
84
81
-55
-101
47
-2
88
-18
84
4
-42
-58
23
66
51
-64
90
92
-66
58
-79
-93
46
-1
120
109
70
-118
-74
-101
24
65
83
95
111
-70
97
14
-33
-77
-121
16
-25
-10
32
107
-109
120
100
-57
30
10
93
62
53
-63
41
-44
32
17
113
83
59
46
-67
-86
-82
-30
6
98
61
82
66
18
-33
-117
6
-55
-62
-31
101
-44
-128
-76
-34
51
-59
-31
55
32
-42
5
-116
-26
-117
91
83
39
-107
94
-88
-59
-48
116
69
-83
-30
59
-112
-74
-49
-23
-3
121
-107
56
-59
-98
-84
-105
43
-88
17
-30
27
113
-28
-41
-99
112
116
-75
-77
49
122
115
121
-63
-61
42
-127
17
0
52
-5
-61
-16
88
12
-104
121
-116
-60
94
-52
-72
100
40
-124
-71
-59
-34
-65
64
20
-23
28
-112
43
43
-80
-90
-22
-43
31
-46
120
75
13
6
69
102
85
32
-117
-113
-78
62
-53
8
106
100
-66
73
113
115
-88
-120
120
107
-41
8
-50
107
40
48
-18
-43
-4
-117
100
-5
-108
22
-99
12
73
30
-125
99
-123
88
60
91
-20
21
25
-119
48
33
105
26
-120
82
110
-100
19
102
-25
39
125
121
-124
50
5
26
-55
-61
-54
73
-39
27
-66
-119
119
-27
-15
114
88
-107
49
58
96
-116
-103
-118
97
-112
-30
112
124
55
-87
-84
-104
84
5
-31
88
-3
51
-64
53
-76
6
8
25
78
-37
52
-1
43
-13
71
37
-98
-7
84
92
36
-23
23
103
-121
-72
11
-19
-79
-62
-49
62
29
-39
-124
34
-3
-42
1
-107
-34
-53
95
-6
27
84
74
76
33
35
11
89
-7
31
28
16
6
31
0
113
116
-104
-72
39
67
121
102
-105
-70
-14
-12
49
-122
45
66
-71
-112
-86
41
-98
101
99
-106
-86
124
92
-86
88
94
-119
55
106
-62
4
123
15
107
98
96
21
-107
89
21
0
-121
-9
-6
-114
-118
-123
-104
68
-18
55
-32
56
50
63
-122
-76
126
87
125
-105
-7
13
19
81
107
83
89
38
-93
-14
-101
-76
-85
-21
-98
-120
-57
51
91
29
-128
109
92
-47
-73
-64
107
-29
0
-110
-52
40
66
23
53
-84
-21
-39
-105
-57
-43
97
-12
-46
28
40
24
81
55
-58
99
-114
48
-50
44
10
-26
-62
-48
103
45
101
-60
-95
-123
-42
78
-124
77
-110
-66
-43
117
42
-33
-27
100
32
-38
-41
13
33
69
91
94
-104
-1
-27
78
-38
-28
35
-51
37
-54
-37
119
-123
29
-95
-64
30
-13
-80
6
84
39
83
-78
-113
62
-79
30
68
-93
33
-26
22
70
69
21
-29
-85
-47
-30
20
10
-108
-100
-103
-28
109
108
-80
104
101
-111
-7
76
-115
-124
-4
-33
64
-119
69
91
-119
-2
-20
42
112
73
-103
-22
-99
102
37
51
82
-113
32
83
39
-124
4
32
-98
13
-124
124
-111
-96
-14
-89
120
17
-90
-21
-77
51
110
-62
97
-70
-125
29
37
-54
-60
-92
-38
-67
-33
72
59
108
95
46
9
69
118
4
61
-116
63
-19
65
-21
-32
-70
-73
66
12
-42
87
2
6
-16
-107
88
-21
-28
97
17
106
-100
-12
90
-13
19
-20
3
-20
-117
52
-77
33
19
-7
-4
25
113
-109
70
122
-17
-57
-104
96
89
-127
18
-19
85
-12
5
-24
76
-15
58
-35
103
-37
22
82
-74
-36
-18
-3
-122
76
122
-28
101
-37
29
-58
84
78
-24
60
-124
90
101
-1
63
19
5
14
-63
-56
51
5
35
105
-42
-82
-65
-17
-80
-102
92
23
-48
49
5
-95
-84
-34
-60
8
6
126
92
-76
114
119
27
-99
-12
97
125
-92
-25
-44
38
-80
-48
-124
22
-5
-61
122
-53
-74
111
84
-56
125
87
107
-47
-50
72
-103
111
-27
-15
87
73
-30
-74
-58
-14
-34
-109
17
104
4
2
-3
-77
95
105
24
81
-50
102
-50
-73
115
65
20
76
-92
70
49
27
-60
-52
-107
-40
-84
-57
83
53
-10
21
-84
17
12
6
-116
-64
-27
83
49
-37
-63
-42
118
-40
96
6
8
60
-11
-102
-106
43
-42
59
-67
80
-126
-38
42
93
-118
10
67
-121
76
83
-37
77
108
-73
86
106
-121
-96
123
80
75
-46
-58
20
56
-37
101
3
54
64
-114
-86
98
-78
-21
74
43
-14
-107
-81
60
-127
-56
-88
49
74
89
30
-7
-75
-91
114
64
81
57
75
-26
107
-61
90
11
48
47
-124
-117
95
65
-24
19
-51
113
-108
-78
-101
-111
-80
-121
34
41
-18
62
32
41
83
95
-118
-23
-28
83
68
68
53
119
-12
81
122
119
-22
-59
-82
-98
-79
36
45
107
78
105
-118
-119
-68
15
50
-13
-54
-111
-102
25
-50
-99
7
-39
-14
-30
-78
-47
108
75
82
30
-35
-70
-121
5
-29
-49
11
-117
76
-58
48
-110
-108
78
37
-100
99
-38
106
23
89
-70
70
18
74
-109
19
-97
22
-53
118
4
23
-41
-78
-118
-85
-55
123
-17
11
-1
84
-105
46
29
76
68
29
-88
99
-33
48
-1
-2
-16
110
-77
-31
-92
54
-65
-126
-56
3
-36
71
-121
-1
-20
-112
71
73
48
78
124
105
-33
72
75
-58
88
-44
-23
-117
115
-31
-30
10
74
97
116
6
-101
-61
35
8
35
-108
-66
-46
25
-19
-80
-11
23
121
-67
-60
-32
-32
61
-11
28
-67
46
-81
57
-15
-104
34
32
24
-52
38
-110
-76
14
-80
-21
59
55
-30
18
-109
63
94
28
-62
-111
14
71
-52
-116
101
31
105
-67
-52
115
115
-22
-92
13
86
83
11
15
122
6
-89
-102
-61
-93
120
-12
66
64
-107
-46
-19
107
-95
-60
-15
93
-14
3
-24
-63
9
56
-121
47
58
18
-80
79
77
110
118
6
-33
26
-95
77
-106
89
-1
-82
-126
88
94
119
18
-64
-3
-13
78
5
-97
49
86
116
-26
-15
-118
97
-84
-75
110
-74
1
71
47
-40
-13
111
40
-95
112
-50
72
7
-19
-127
119
-4
10
77
101
-65
42
126
112
-62
71
-116
30
102
65
-36
-110
126
-26
-12
121
-51
48
-15
79
67
-90
117
9
24
-83
117
81
79
-1
12
95
-28
30
-61
-104
-81
94
73
-54
-69
40
-86
103
82
34
-128
-124
82
4
34
102
113
51
55
57
19
-125
65
-111
6
95
-89
45
-43
62
-38
52
40
105
-87
55
62
126
30
93
114
24
-107
51
-79
119
107
-16
1
47
107
76
-72
-22
-18
-119
38
79
-79
-63
-75
-104
-114
-82
-77
26
24
51
30
20
-99
-85
-90
94
-2
13
79
1
-64
20
16
92
-120
87
96
38
43
-87
-27
43
101
56
66
120
-18
69
13
-91
-103
-96
98
-33
126
-68
-30
18
122
-32
-118
-12
43
-13
108
10
78
85
-83
75
-127
-88
-5
-101
83
69
-24
27
72
93
-59
68
110
-126
91
67
-1
-65
-107
-42
41
-109
20
115
-105
89
117
-120
16
-4
99
-93
88
-16
118
-72
-42
83
-88
40
-34
15
-117
87
117
69
-82
68
-19
102
0
122
-18
103
12
-64
-7
-25
119
-95
100
43
-9
-119
-59
28
-4
115
17
-104
70
33
84
83
-56
15
87
92
18
78
106
-10
69
10
0
120
-94
-55
20
118
-128
77
106
95
-61
-3
40
-90
89
-69
-45
116
-104
65
37
-128
23
118
18
-24
-28
-69
49
44
80
-12
-84
27
88
-120
-31
-37
-36
21
-97
20
58
-4
71
37
-29
117
83
49
4
-60
108
-31
51
117
97
58
-16
-96
48
57
107
-47
118
25
-55
-28
121
-69
-85
44
-33
54
33
105
59
-25
113
74
-127
54
-120
9
-120
40
91
-12
-91
-45
13
-114
-100
39
85
20
-91
8
-61
-36
-89
76
15
-121
-107
51
-43
-58
-21
-104
83
-60
-114
32
-66
34
-87
14
119
-47
-62
-84
77
117
-94
-83
-24
-23
0
-6
42
0
-64
111
14
-107
31
-126
-62
33
10
8
-36
-126
-60
-109
-53
-32
11
-83
-25
-2
-91
59
24
85
53
-28
-9
81
-19
-60
-125
-119
77
-76
-98
-120
74
123
23
65
36
117
-7
-113
-85
87
-74
54
-63
44
-91
-64
40
63
-96
26
-127
-63
90
-95
120
20
39
-78
31
-123
-106
-47
1
-77
-15
-74
-79
-47
-60
126
105
120
-49
90
2
53
47
-44
-48
12
39
61
-18
16
-79
-22
25
-34
103
-121
75
14
93
-34
83
-119
-71
49
32
-69
-115
90
-91
-9
-1
124
107
-49
-6
-54
28
-90
123
-4
-5
35
35
-119
-32
-68
126
-106
33
85
-43
45
0
-3
-71
27
104
116
-54
-46
-116
27
124
67
-3
-116
-36
-49
56
-101
-55
-8
-89
-55
-112
-125
-113
-19
26
125
71
113
56
45
-30
48
22
-104
-96
56
32
99
20
18
54
-38
-77
-71
35
29
49
26
-90
-7
-11
-87
-117
102
-128
-25
-88
-123
96
4
42
-45
108
78
-67
23
-31
4
43
-94
114
67
64
-40
69
70
30
99
-123
-105
114
-87
60
0
-114
-127
-102
91
61
46
19
-35
46
-87
11
-41
16
80
122
-49
80
15
-119
118
-40
-86
13
-66
-97
120
119
-41
5
124
30
63
-12
32
-88
109
-92
-107
-92
48
-53
83
-66
-106
-108
-74
-94
-11
-47
-38
-5
20
115
40
76
106
28
91
98
126
49
-101
39
55
-116
44
-122
18
51
49
-53
16
-85
82
-4
-20
-32
-3
-40
64
-122
112
-59
100
-93
-41
-74
-10
-110
-37
121
-1
-100
39
-113
19
69
-15
86
-96
20
51
-99
62
102
63
-30
-12
102
-88
35
47
-31
32
-124
7
120
95
103
24
-58
-78
-23
-114
-82
3
61
78
45
123
113
106
117
-21
-72
-39
104
103
-85
116
101
-42
81
-101
78
41
-48
46
94
-3
7
88
78
-7
32
-71
-84
-46
-80
26
56
-20
-21
24
26
-10
94
87
-6
75
74
126
-66
56
91
-72
-6
22
9
42
47
-93
-60
91
-52
-111
-60
-128
120
-14
-48
116
-104
35
8
93
-124
49
-126
-98
-90
-121
24
121
72
-70
-46
79
-92
123
71
68
36
-62
105
-126
-3
-20
49
-7
-24
-28
-48
-82
-121
102
94
95
121
3
69
108
-113
69
-35
64
-4
21
60
89
119
-78
-16
-2
55
38
5
36
-53
-29
24
-78
-40
70
64
10
112
-3
-126
113
-102
27
64
-15
78
29
-1
43
99
73
80
7
67
-28
-101
-68
-15
-117
-128
32
-76
67
104
5
114
-128
-76
31
-17
-24
126
42
85
52
95
-26
14
16
97
113
-16
-65
-89
-27
-70
30
-22
91
-97
94
21
15
-72
-96
17
-6
-115
-78
-14
31
46
91
29
13
-103
-14
91
-96
-91
125
-68
-28
-116
-52
-81
-70
-59
-123
5
86
115
89
-71
-65
-72
-23
-18
13
48
-4
-53
126
58
88
-77
119
-27
17
-37
103
-122
-78
64
122
-100
15
-89
-60
-79
-71
65
88
-36
8
90
-125
-79
6
-70
6
77
98
-105
82
-74
57
-73
6
56
80
-86
-23
-94
-79
-59
-29
40
87
79
67
-19
58
22
60
71
50
32
-36
23
116
-114
-13
-39
-10
-33
-12
-89
-90
91
114
7
21
-118
21
-116
-26
11
-8
-119
125
-68
-14
-101
83
-126
49
77
21
-54
-63
3
23
-17
-66
-116
70
-91
56
92
22
94
20
56
61
