85
23
26
-81
-64
-103
-113
93
91
90
15
-47
121
-4
-61
-18
116
95
71
57
-56
-53
105
98
60
-54
-7
-41
107
64
20
-36
7
50
93
-107
-106
44
105
86
15
-64
113
122
-52
-102
-61
55
6
62
64
21
-13
-73
37
116
112
-105
35
-61
-33
51
100
-51
35
-38
-24
-5
27
41
96
36
63
-88
-5
27
-47
65
-1
114
-114
64
112
67
118
1
-65
-56
13
95
-97
69
-105
83
49
-126
-103
79
68
-91
54
105
84
78
-42
-79
-31
18
-36
51
-43
-57
114
-109
-4
110
101
-67
102
63
-39
31
121
-85
-22
107
-92
-54
105
-84
-24
21
-117
13
-111
21
85
36
98
-79
79
-93
22
27
-94
71
-35
34
66
-10
-102
101
51
-77
61
-114
48
-73
23
32
-83
-92
-40
75
-76
-54
115
48
0
-86
102
81
-25
112
-60
8
58
-84
67
87
59
-86
-39
-126
-103
86
-17
61
-93
-112
-101
-2
-53
92
27
-14
-125
-32
109
-30
107
-27
-44
-11
-40
104
79
73
121
-38
38
79
84
124
-109
-58
9
15
-61
-127
124
-62
14
-30
32
-59
0
-84
55
9
21
69
-62
-29
4
72
99
-12
85
-82
-25
48
-96
3
-71
44
-97
77
83
-11
-39
70
-93
33
-39
-81
70
-41
-106
52
-40
28
43
-69
-30
118
60
-53
52
85
25
-104
40
69
82
-12
118
-57
-25
53
13
124
-99
116
94
44
91
-91
85
-51
-28
-5
121
-21
-65
113
120
88
1
55
24
75
-102
-13
-9
115
-7
50
7
-95
95
33
14
22
117
-99
83
71
-34
49
4
-107
3
-81
-12
-84
-9
77
-101
-32
-76
2
-128
-52
102
45
-8
101
10
-28
68
56
30
7
66
57
49
-121
-71
119
35
-26
3
22
118
-116
37
41
47
117
-44
20
-41
38
55
-79
119
119
-26
63
-103
-44
82
117
35
30
-119
-30
-83
-105
-52
-88
24
-4
-6
-46
-67
-13
-114
10
-51
102
76
-128
21
-69
-9
15
67
98
-4
-54
86
47
-21
-118
11
126
-68
50
-6
23
-42
119
-29
126
15
28
-69
-84
86
-122
-32
2
21
-82
-51
36
99
85
-92
-38
-70
52
120
-99
-47
84
29
62
96
-1
-15
68
71
6
-91
-7
-4
2
-63
13
24
-60
-105
-113
-51
-72
-112
14
40
47
0
116
-103
44
-114
-10
19
-77
-123
64
104
12
-17
-72
-3
15
68
4
-87
-97
-115
-29
9
-66
86
-67
-35
119
-106
85
96
-64
-60
-115
-120
15
-99
49
34
12
5
26
-55
94
74
10
-70
-106
88
-109
18
-82
116
115
15
78
-69
-4
-20
-37
92
-122
45
118
86
40
113
-71
110
125
81
-125
-124
-92
42
-88
48
-43
-9
-37
122
71
-101
-84
100
45
76
-46
-22
68
-71
-28
72
97
61
-90
-76
-107
-89
80
-9
-46
71
17
61
113
-15
-19
-10
-5
-68
-29
111
-112
-105
-88
-65
-12
38
-42
38
-34
123
12
-50
-17
13
-98
89
-124
94
-119
-103
-31
-36
63
0
-119
117
79
89
36
-92
104
-4
-43
111
103
88
-114
-9
-15
23
5
-121
114
-86
-29
-103
67
73
15
30
115
74
-46
36
-39
108
-10
-56
-31
-58
105
13
-77
60
-86
63
54
12
-51
-73
64
105
103
110
72
-65
0
98
14
3
-84
-31
80
-15
46
-4
30
67
114
-48
-117
73
-91
1
-128
25
-15
87
50
53
94
-125
-54
-62
43
-83
100
-51
1
-96
29
-61
-111
112
-105
97
-88
-112
-108
-21
-46
26
116
-55
-97
-56
13
123
-87
105
-29
-13
-25
74
-4
24
-39
31
47
89
-114
116
90
-60
-111
-116
96
21
125
-115
-46
113
-123
53
-6
-20
66
-64
95
-116
15
46
-7
-2
-90
53
110
70
62
-96
59
-44
108
-95
-124
-30
10
-69
76
62
49
-57
-99
-89
43
-23
41
-15
-30
80
-58
-120
-69
-61
62
69
-43
-123
84
-85
-80
103
98
-105
-75
-45
7
-40
58
6
107
-67
-90
-128
60
-60
3
84
62
34
106
1
40
-68
103
84
38
-6
-62
-27
4
7
-34
-97
-125
-16
110
-52
-64
4
-65
-111
62
-74
44
-44
110
-76
44
63
28
-94
33
-62
115
2
-123
-36
-96
92
26
-21
-49
34
-58
108
99
107
117
-25
56
-80
15
-65
-127
48
-92
53
38
88
-67
-58
-30
-29
-3
-45
-73
-107
-21
-93
-73
57
53
118
21
123
9
-88
-128
-17
-15
7
50
-34
101
61
-62
28
99
-30
109
-74
15
-9
-41
98
-47
45
-97
103
106
19
27
-126
7
88
108
-99
97
-9
-36
58
86
112
123
26
-108
105
-3
-106
19
-51
-21
103
-10
7
-73
-63
97
53
-43
53
-87
77
-7
54
28
120
-21
-98
-11
-11
55
-38
-97
-5
4
126
114
13
-40
40
37
124
-15
-53
101
71
42
113
117
46
-126
113
46
-62
99
-96
82
113
-110
114
6
-76
-10
25
-63
-43
111
-63
4
108
23
-7
-119
-107
125
-119
-3
97
2
52
-99
-58
86
40
-78
111
-124
-12
-92
-76
-17
109
-21
43
-35
-25
-87
18
-106
-79
-79
114
-109
94
65
82
-62
14
-122
-71
-76
-1
-12
69
67
-45
25
-106
48
-44
78
-21
23
39
56
30
-73
-99
-72
-80
50
116
55
-90
-118
74
0
11
3
125
-36
-64
124
98
54
-32
106
28
20
39
67
29
98
-55
-91
52
70
114
-16
9
-94
-53
7
-44
-49
-95
67
-15
-63
-52
-69
82
-48
-109
77
-15
61
43
-46
-69
66
15
52
-78
-25
6
80
103
-42
45
39
-11
78
-49
126
60
70
-120
-78
31
-13
21
38
-63
-91
75
-13
5
70
-2
-23
-23
-18
68
106
83
77
86
58
-5
59
-15
63
98
17
-38
52
-84
110
-109
-96
60
22
43
0
-33
-41
26
10
-22
-77
58
22
-61
-96
-72
-110
-49
66
-58
3
22
87
67
-46
46
-82
-33
-103
-66
8
50
53
-105
-107
85
-9
-47
111
-106
24
-81
-126
-53
-31
-98
36
62
42
80
-109
10
58
90
-110
9
110
67
74
-117
-55
94
-119
89
19
-95
2
-81
-16
61
-2
-102
112
-34
80
-112
-5
-33
-63
50
63
94
30
-117
-59
82
-79
-117
-50
-113
16
-82
18
-127
-73
110
-74
-49
116
-114
46
0
15
66
-113
41
4
118
-117
-46
10
-101
62
-16
99
63
42
90
-28
-109
-78
-116
8
43
103
81
-70
-32
-112
18
-110
115
-106
106
-116
45
71
-108
-115
125
33
-40
55
62
19
-22
37
-59
60
-44
-93
64
-120
-16
-29
95
-48
-75
-61
44
21
-5
-55
-45
-1
77
34
-121
52
-15
-65
-23
-85
41
-105
33
124
47
10
-9
-82
107
-108
30
36
-93
-89
-19
122
-38
-107
-128
-38
114
13
92
51
-36
-15
69
33
59
-37
-7
-47
-119
-76
115
3
-10
69
-52
-45
-43
-125
-28
37
115
97
-59
41
-23
-67
68
102
92
47
-113
54
-120
71
-65
-39
-88
67
40
-33
-43
76
-93
62
36
-109
105
-114
-100
-24
37
45
109
75
-118
51
49
-59
-68
56
-81
51
27
-39
-120
-46
98
-126
-98
29
-75
62
-73
-86
-59
-32
104
-59
26
18
123
38
3
123
55
74
77
-86
29
49
-102
-43
117
59
-17
126
-106
8
-99
-128
-98
90
109
114
70
-28
-49
-22
89
116
-41
-111
0
-104
95
-121
-33
-73
-73
10
-106
51
10
-115
-75
-80
64
-33
102
-90
50
100
-7
-63
-64
-1
79
101
49
-102
30
87
-98
-95
-17
115
4
-50
-123
40
125
-26
37
9
123
48
24
116
74
-114
109
87
-47
-53
55
-48
-105
-87
126
-126
116
18
-21
14
-98
-103
-115
-19
-23
-11
-87
34
-8
-110
-85
-118
115
-103
-3
84
-19
6
-87
126
56
105
-60
-67
-81
-81
85
107
-81
-72
119
83
123
-56
-1
-41
3
7
25
-96
72
-119
-90
-118
6
-33
-128
-101
-68
30
4
93
-55
39
-117
38
-35
9
-90
72
-82
-20
-49
109
-61
-70
62
-66
-13
32
37
106
-38
-26
-128
-95
126
-35
-27
-111
-64
124
72
108
-113
-45
-76
45
49
79
-66
-94
2
72
-104
58
-2
-8
-75
57
-20
-101
-22
-29
-36
-108
-38
43
-95
67
-34
-11
-58
28
-42
-48
-122
-30
-15
-117
72
-75
-108
-79
53
71
39
-41
-50
102
28
114
27
-65
22
-27
-71
-106
104
-1
46
49
-62
-17
30
-52
-80
16
-72
-34
-36
19
-92
11
82
37
-73
28
-27
37
-95
-53
80
89
-73
-116
92
109
-55
-94
-47
46
-10
-14
-12
15
112
4
57
40
119
-16
-101
-91
87
-35
95
84
62
-106
-40
-103
84
23
-89
25
-8
-7
15
102
-29
26
-20
113
27
-79
28
-55
-120
-84
26
67
67
-110
0
-64
64
81
85
-74
-87
45
-89
-49
-11
-98
-103
104
116
116
-49
-54
114
-90
-2
115
-78
106
-11
56
31
-99
-127
85
-46
-109
74
69
7
-55
-43
-12
25
90
37
122
-82
-38
56
-26
14
-2
-79
-61
-105
-12
-123
62
-55
61
110
114
122
112
60
28
69
33
-32
29
56
42
7
100
115
-61
11
44
-13
25
-76
-69
75
-67
48
46
67
99
-99
115
9
14
110
61
-56
93
-52
78
-68
-27
75
56
-50
23
-84
-126
22
125
44
71
-100
-60
-53
116
3
80
64
-93
24
-11
120
80
24
23
-17
-77
-83
-111
106
-24
74
28
117
-68
-95
-63
23
-107
67
-66
96
66
83
79
-56
-13
-103
-17
-67
58
-122
-94
64
27
7
-25
40
-82
-124
82
81
21
-1
90
-48
116
53
-89
103
-6
-2
-112
76
76
122
104
-68
85
-18
3
73
80
-64
37
105
-102
-17
4
102
-109
78
-10
20
117
91
109
-110
-98
122
64
-67
66
-36
-62
-1
-54
-84
-46
81
50
-57
-14
-23
-47
-55
-11
-60
-100
-125
35
15
88
-111
-2
58
39
-73
-54
-28
-26
77
42
-29
-73
-56
-112
97
41
-87
31
94
6
-78
22
91
-120
-10
74
-16
-9
125
-57
-82
71
121
26
-29
-104
-62
-24
-60
-94
79
-81
98
113
34
98
70
61
111
-88
4
-119
87
113
24
9
-100
6
82
-3
-95
89
-72
-89
-37
-33
-78
-96
-68
-33
-97
64
-128
-101
-120
77
95
60
-83
51
33
-58
-61
-61
66
-117
-46
-75
121
-125
69
-126
-33
-80
107
100
-41
111
-16
-89
67
11
121
90
-84
74
-113
-3
-19
-51
80
113
100
-87
-20
-27
108
121
-50
-112
114
50
-99
-77
35
-59
81
-7
-68
-21
70
-73
3
-30
-48
-90
-96
28
86
21
-38
14
-25
2
-52
22
-28
2
-106
-82
-82
54
84
55
79
-113
-89
19
29
109
80
-45
-83
-44
-115
-29
-66
-105
126
-115
-67
57
1
119
122
-52
-6
-57
36
-113
47
-72
-128
-111
-36
-40
-22
102
23
-13
-47
28
87
94
40
-119
106
23
-17
-119
-7
108
-19
-108
-127
-80
-104
-5
-65
124
-78
26
-69
28
26
82
35
79
-121
-53
-58
110
82
-61
13
-12
-120
72
87
-60
20
101
86
26
-24
-108
94
-127
29
-19
-89
66
-65
-72
-33
0
14
-74
-105
96
83
68
-126
-27
-43
1
-59
35
33
118
-111
68
-108
-25
-105
-46
-85
-22
108
94
121
-39
44
7
-62
12
-57
-114
65
25
-109
118
-105
122
-15
-79
-37
120
108
122
-112
-23
-2
-64
97
-33
26
111
-11
23
-15
32
-40
-50
-63
17
-44
-27
-73
48
70
-27
92
-33
79
-116
-4
106
-116
1
111
11
-119
1
-49
16
-42
112
-78
-89
-3
-73
-13
33
-92
-73
-111
-9
-45
-71
-70
-71
-40
36
102
-74
-71
6
108
54
70
11
34
15
93
-7
-49
93
-106
72
-41
-125
11
-111
-34
105
59
-54
-97
-124
-97
118
56
111
111
19
9
73
-1
55
37
24
85
-117
117
-15
109
-75
89
-48
69
-64
-87
-65
-94
-51
-61
67
57
-37
-78
93
-45
36
75
0
-69
-73
18
-88
-31
24
114
6
-65
83
40
93
76
65
0
21
-53
20
-91
-51
-66
91
-71
-61
-82
24
32
70
12
-115
4
84
34
-79
94
42
-95
69
45
-71
-101
-90
12
91
25
-75
-122
-13
48
116
-15
-12
-11
21
104
70
-31
94
28
-9
106
-64
-15
117
-27
71
-114
29
123
-109
-22
-21
-8
58
23
34
0
123
114
-14
-79
81
-106
-122
-22
33
25
-4
76
98
32
42
-55
-23
11
4
-77
-123
-44
-93
113
91
105
-124
-44
63
40
82
56
-80
33
-46
-35
-30
115
83
-72
109
22
57
-100
29
-118
5
-23
46
-30
103
108
-65
71
112
49
-124
-72
56
-100
-7
97
-32
-1
-95
98
120
-102
93
21
-83
-20
-31
-120
-31
74
55
22
104
-44
71
33
-61
-96
-117
82
-112
-124
-91
-73
106
-14
-69
-112
-99
-2
-14
-110
13
-89
109
34
28
-112
-92
47
-50
-78
31
110
100
-57
-45
114
-95
-30
101
14
18
20
-63
12
58
-22
104
-88
-96
-28
-82
74
-112
-80
114
-15
-38
9
-106
109
77
-58
115
-107
26
-77
61
53
1
-70
43
-36
79
19
91
60
63
-27
-83
2
-60
-48
14
4
60
59
16
-53
121
67
-108
-49
5
-73
34
115
56
48
48
-22
12
124
-116
-115
-11
96
91
93
-1
-65
124
-32
-124
-94
-54
-60
-15
31
61
-11
-36
51
109
-13
-27
18
68
8
38
-103
104
5
90
-103
124
-18
-88
-7
66
-60
-116
-127
-121
17
-90
-15
-121
94
-109
76
-101
-24
-51
123
-19
-67
-72
-111
64
83
115
8
82
11
-91
125
-81
0
16
88
50
-121
80
86
-95
85
102
-66
-113
-123
91
-72
9
115
112
42
106
-88
-62
-117
75
-106
-113
-101
-67
-10
40
-127
74
30
-45
119
30
20
51
-21
38
-44
-46
43
-95
-84
121
106
80
-25
-50
76
-79
-123
50
13
-117
34
-53
-91
20
21
100
109
29
41
120
-120
-126
-97
54
62
-117
95
87
117
122
27
4
23
43
55
86
115
80
-37
62
-65
17
115
77
-88
-111
2
56
76
-116
-86
105
-78
27
-118
-42
105
-71
119
-30
-22
-109
-119
23
-103
-61
106
-87
41
-46
64
114
102
-55
4
38
111
-48
-21
42
67
-76
-46
-105
-88
16
-45
11
10
-41
-44
-95
102
66
115
-24
44
-29
59
25
47
-55
-71
68
26
112
33
51
-107
10
115
-7
-20
-118
-122
94
92
-123
105
40
20
-72
-72
10
-68
-15
-73
61
-58
-43
-106
-9
43
95
91
-42
92
-48
-101
-36
96
113
-57
-3
-24
-4
-39
78
125
-104
-85
45
94
25
-100
49
113
27
-124
-70
113
15
16
88
61
8
-49
-121
57
-102
74
104
79
-52
66
-19
-54
-112
-91
71
112
53
-85
16
86
-20
-29
-85
33
-113
-27
-25
50
111
-23
-54
93
-119
-37
12
-31
-18
-3
30
113
5
-34
61
105
49
6
55
-79
-45
63
-116
-1
85
-47
91
6
36
-9
62
-38
60
-20
111
-36
72
-35
39
80
-78
-59
-93
-50
112
-34
75
-87
89
-61
15
53
52
26
-56
-26
-29
-35
-120
-37
-110
-82
-9
-35
41
-76
-28
61
74
-99
60
-90
58
-93
29
-54
103
-94
-69
33
122
-116
-29
64
-53
42
-25
122
-117
-106
-28
15
-65
98
-128
-120
74
78
106
-87
13
97
-43
-63
-102
-103
53
-123
-25
90
-106
-114
-107
-69
47
118
33
-54
122
94
-45
-83
-101
-45
-116
12
61
113
93
-32
56
-87
-68
109
-7
-92
-59
-1
14
-84
62
58
65
-113
-54
87
-25
-5
-92
95
88
-103
20
71
-86
-109
61
-29
-37
-103
57
106
-127
-68
88
77
-38
-39
-44
56
-21
2
-98
-19
52
-70
-4
-84
80
125
50
-111
-125
-18
63
-55
-44
78
112
-125
44
-123
-81
112
8
-104
107
-111
25
20
32
41
113
-118
-115
36
16
-24
109
-41
124
67
-74
74
-82
-69
-122
-79
-1
29
-94
73
123
-126
-80
26
35
125
39
83
124
-8
-114
105
-113
82
29
-97
-62
60
39
28
-35
-23
11
-10
-11
-43
-21
72
-97
90
-78
-70
-35
102
-111
-19
73
-15
-40
28
-123
59
-74
61
-111
47
42
-43
-14
114
-82
-61
102
-85
6
113
7
-76
-112
-106
62
-65
-115
-77
-46
74
0
109
0
-115
32
2
-12
-78
14
-113
103
64
3
68
122
22
31
125
-40
78
75
-3
107
77
-105
-110
101
108
70
-13
-33
-103
49
-114
-100
-59
48
82
109
-7
-6
71
-97
-69
72
-61
91
-2
-71
123
-72
-45
58
-7
-13
36
-15
-66
-23
-69
79
30
-92
-120
-81
120
-43
29
55
-24
-46
-128
40
-6
-12
-84
-27
42
126
85
-6
-23
1
-99
97
-92
-6
-20
38
23
-79
-1
47
-56
-33
-51
-84
-95
-41
-126
-109
-20
86
85
1
-99
48
-43
41
-55
-101
-88
112
-18
-47
100
14
14
19
116
6
92
123
15
-99
84
-4
84
118
-7
-110
-34
-114
23
100
-85
25
-42
37
106
80
-75
-68
29
103
-126
76
25
-86
-107
-21
37
123
84
45
67
123
10
-100
18
62
122
-109
89
-10
122
-85
113
-114
94
-92
-124
-61
40
-101
-107
-23
-93
35
23
9
-17
-97
22
44
65
30
42
-58
-115
-81
45
-37
29
-29
40
82
55
-87
38
4
-94
67
-75
107
-37
69
-3
54
-21
-101
119
-81
-97
77
-1
-47
73
85
-84
91
13
90
-75
58
-9
-83
55
104
-66
-20
92
-48
100
85
12
-45
12
-39
40
88
115
-100
-112
49
68
-124
-93
-119
32
-50
76
66
-29
-50
-106
-18
-82
69
-128
-18
7
-78
-77
12
-35
-11
-50
-63
-70
12
-69
22
62
-18
-51
84
-109
-79
-98
-68
23
108
-40
118
112
-77
11
102
-81
-47
21
-114
71
-50
92
-43
41
3
46
124
-8
-50
-75
-43
100
-13
92
-5
90
-61
27
15
69
-27
11
-57
-52
-121
23
-105
111
-114
64
76
-39
69
-111
-72
-101
-29
32
17
57
-118
-91
-84
114
100
101
110
20
85
-108
49
-65
-123
-36
117
124
-119
64
-37
116
35
44
84
-60
-108
-8
-33
119
2
-104
116
51
-64
119
82
34
-111
-93
51
40
-19
-85
-118
-82
62
123
-115
-89
2
-52
52
-115
-86
68
-103
-84
25
-107
-39
122
63
-51
-105
75
-112
-104
67
89
76
7
48
-98
-82
-122
125
-71
32
-57
0
-72
-93
-41
39
-121
-105
64
96
-77
-2
-76
63
7
-17
103
0
-125
-29
125
-93
95
108
-106
12
67
38
-52
-74
81
62
-62
98
23
-53
-83
57
69
-35
67
13
73
-94
9
-21
111
-115
-90
-48
114
11
-19
-101
-40
116
-108
-25
104
-24
59
32
87
39
-101
126
65
66
103
-61
-50
116
122
-5
-55
61
38
-65
-28
-66
-91
-102
-34
-46
-44
-31
95
22
115
22
-6
80
-79
-103
-29
50
-42
88
0
28
-119
-105
0
60
120
8
-73
84
-21
-21
24
72
-113
-49
-74
46
-86
108
-7
-93
5
-96
-20
77
73
-7
-100
102
-63
56
33
126
71
91
-102
70
-112
-112
-54
-125
-57
-116
19
96
13
31
32
38
55
15
31
-11
-51
-71
2
89
-77
-78
0
96
-114
8
94
95
38
-102
87
70
25
102
-49
-11
-108
-66
-32
122
-25
118
-75
19
-108
54
-107
-4
115
-14
115
-65
100
-94
-72
34
-116
117
-62
-53
73
-71
7
66
-71
36
4
-101
12
42
110
53
110
110
17
58
118
99
-77
48
65
97
-61
79
-68
92
71
-61
99
-95
16
-41
-44
7
11
-58
-69
-22
19
77
0
-97
52
-89
67
125
-63
31
47
55
-64
-31
-38
70
6
112
65
8
-120
86
42
90
69
46
-111
-43
-77
-121
90
77
87
-52
8
37
29
102
-8
-99
114
126
-98
-114
-126
72
44
50
-45
52
-51
-31
97
-84
44
-128
69
-107
67
82
-1
-77
-93
19
-77
-57
-3
-108
-37
7
-6
82
-9
-77
-70
40
-115
122
37
110
-73
30
63
113
-84
67
65
-13
39
-70
100
-80
-71
54
-22
109
-89
42
-88
5
-125
-49
-13
95
76
-81
72
-15
-76
-51
41
-68
-65
8
23
115
35
-59
-8
-52
103
-94
0
73
126
30
-125
59
22
-94
-102
1
12
19
-20
-62
14
86
65
-39
12
-104
17
-65
94
103
72
-6
-109
119
11
98
-96
-3
-82
96
49
-29
105
46
21
32
-116
-95
-14
-78
-37
-124
111
119
31
3
-72
6
123
-105
-8
-78
-75
118
-9
-7
97
-32
-112
81
-81
-98
62
-85
75
-22
103
-49
14
-100
-66
116
11
-109
-3
25
-86
29
-53
-60
-77
-72
-108
11
-40
91
-59
90
-48
48
0
119
18
-83
4
45
42
-47
97
125
-103
63
77
-119
83
-103
104
89
-18
94
-1
-73
-41
120
80
1
73
-14
-78
-51
14
40
-90
5
-94
66
-117
-41
-25
-86
78
119
-86
-15
34
-78
70
-35
3
49
-40
-125
-40
120
-75
-80
120
5
76
-108
-127
116
-27
-82
11
27
-76
-62
51
66
24
-116
33
104
121
102
-87
31
-120
17
-127
29
99
-69
-66
51
-79
-43
-110
-62
-76
-70
84
-122
24
-55
-92
-107
-93
-31
-55
4
17
7
67
67
-75
-114
62
28
-59
49
60
111
-66
-55
73
7
44
85
86
5
-93
119
-103
74
-127
-40
36
114
104
82
92
-10
-95
-38
-58
104
-54
-95
33
-98
-8
121
-11
-103
50
12
-71
46
23
-99
-29
49
33
11
-9
95
-101
55
-75
-3
104
-20
-49
11
115
-120
112
-47
-126
5
-73
-41
33
80
88
73
55
115
-72
21
36
37
-121
121
-105
-46
56
120
-103
114
103
91
98
-12
117
2
28
94
-14
91
-94
96
-43
-85
-116
22
-71
-52
-9
87
-34
-15
-101
-55
-27
53
34
102
71
-91
-104
103
-42
118
-10
6
52
116
-22
0
57
34
-98
96
-89
126
-103
-112
-126
99
-27
10
57
46
-93
-85
70
17
8
55
-24
65
77
45
45
-58
-60
-18
6
101
28
-115
32
63
113
-41
68
-127
25
-121
120
92
-11
103
-127
18
-18
-89
98
-7
8
-34
60
93
-60
68
33
-25
-90
69
76
95
-1
48
-101
-45
-6
6
1
80
115
124
74
-57
67
-7
97
-110
112
104
-93
61
79
17
-27
-57
-82
65
75
71
122
-57
-120
-49
-43
-118
-84
-39
-57
-98
105
41
60
98
-24
-96
83
-16
-92
-30
-95
112
80
108
99
16
30
-81
-46
107
-24
-32
-96
57
-87
115
70
106
-89
-89
-62
122
-19
-53
-6
-103
-2
-24
37
-68
-73
-109
10
-72
12
-79
-119
112
15
-118
-77
-45
102
-27
47
-21
111
114
-66
94
-107
56
36
-31
-3
-20
-113
90
-45
40
-34
58
51
98
-34
76
102
-52
32
11
-105
71
99
-93
-58
103
38
-46
-1
54
0
-21
-3
-67
-110
50
116
82
45
81
-118
35
100
78
-20
81
66
-24
100
-105
82
-84
-53
-31
72
91
23
117
61
120
-117
-121
37
-46
-66
118
-75
101
-23
-102
-109
-61
-72
19
-21
-77
10
-85
-8
-104
65
27
-30
-68
52
-46
93
-96
1
-72
57
90
-53
-84
-71
78
-92
77
-128
-11
-26
40
1
-37
-25
-64
-23
-51
-29
18
52
-114
112
2
47
25
-2
-121
-87
68
-125
52
-71
-124
6
77
77
61
107
79
119
100
18
-30
66
101
65
39
-57
-120
10
18
-15
-119
61
-30
-56
30
96
-47
38
82
50
-78
52
80
-47
34
6
-127
17
-17
-80
35
-40
-20
16
-59
68
-52
19
67
-85
69
-87
67
-17
-52
-6
29
-108
-19
19
-16
69
125
90
-119
1
-111
34
101
87
22
65
-120
-21
-70
4
57
59
-71
85
114
54
-28
8
61
-105
-68
-62
-120
-83
-101
30
14
-87
-57
29
54
3
40
-118
-64
-34
74
-122
-105
125
-114
121
-91
-22
-52
-81
-86
110
-94
-38
1
90
118
47
-10
42
126
115
40
64
-79
-17
15
37
64
117
-25
30
93
-6
-102
106
-105
55
-45
24
-39
17
-108
-38
24
-112
-124
-33
-43
-99
-57
70
-92
-101
-54
56
13
-88
-31
-69
-37
-82
6
111
-18
-17
-112
-106
-15
58
24
-92
-38
73
9
104
92
-40
48
32
-24
10
4
-95
-121
-12
-88
-124
22
121
-115
-45
-78
-74
107
43
-87
107
-27
34
-93
113
-106
-5
72
-26
-108
47
-74
-4
-77
77
38
-120
-87
-81
-94
8
-70
108
119
108
-122
-60
66
-10
-54
61
-49
-4
59
114
14
58
-76
109
-22
114
-24
1
-81
18
-113
27
35
-51
-25
-76
79
-128
-58
91
-77
33
50
-104
15
-53
53
43
67
-118
-22
43
83
-87
-3
-77
10
-126
-84
-45
-109
-116
92
-89
-22
123
75
48
-7
-44
7
34
-91
-22
-1
-90
-108
-4
120
-45
-102
75
-56
-67
-97
-15
26
-106
11
58
-46
58
77
103
-78
31
80
-96
-68
67
37
-121
48
8
6
-86
-10
56
-124
-93
-121
-18
79
-46
106
112
-126
118
70
55
-37
44
-8
38
22
118
27
99
18
100
-111
-121
110
-22
-127
-86
-120
67
118
109
-87
-37
27
-53
59
85
13
110
56
-47
-94
-3
86
-43
10
112
7
125
39
61
-15
-16
43
-85
-122
-38
-75
118
-77
82
122
-103
102
72
67
25
106
-88
-32
100
96
-97
-31
20
121
6
-30
-70
-32
77
-34
66
102
-67
-93
125
-56
31
-83
-6
-3
-109
-34
124
-121
18
24
86
-117
-57
20
-26
-35
94
0
-54
-4
-48
-31
-126
-108
22
45
-120
-107
-61
108
-33
51
32
68
-5
103
-40
-67
42
-124
-84
45
32
104
-58
-127
-58
65
111
-112
-115
-38
-3
78
97
-87
105
113
-44
-47
48
113
82
-41
-33
-109
-107
11
-30
-52
-20
-127
-88
-77
-55
-88
-127
-76
-104
-57
-22
-24
106
-122
-101
-128
37
29
41
92
-103
-15
-10
-106
-4
50
37
82
-78
31
43
-100
-103
-50
-80
-116
-73
-9
107
37
-35
-43
-111
-38
42
80
115
-102
-49
-119
-40
-33
41
105
-4
24
27
-28
-90
-32
-8
-75
37
-104
-128
118
11
91
-99
-66
-7
92
-15
-45
96
-47
20
-102
0
-56
-26
-83
19
78
-48
-74
-33
72
76
100
-27
-58
19
50
93
-124
-102
-26
-75
74
-123
-47
62
117
-71
73
88
-121
105
-19
92
-127
37
-119
98
65
81
-123
31
35
-57
-60
-16
-27
5
124
-112
-125
18
6
37
121
43
-41
-103
-28
74
-50
78
100
-61
35
119
-7
65
-57
15
-15
-100
103
-58
-12
44
55
110
89
-23
-21
36
-48
50
25
-72
-89
-103
-72
58
-46
86
9
-13
29
-25
-65
36
-2
-94
-51
-120
23
-114
57
38
-110
42
-64
110
61
-101
-108
36
92
-32
-86
-37
-75
116
-109
87
51
106
73
-27
-36
53
18
11
117
-43
-20
-20
-8
47
-116
-65
23
55
-51
107
87
22
-91
2
107
9
77
-44
-97
-111
66
39
-64
-69
55
60
84
33
107
68
85
42
7
39
-106
-56
-57
4
38
41
78
-12
101
115
53
13
-126
65
78
-109
90
-83
-67
-59
97
83
17
-99
109
23
-114
65
-12
-95
21
91
82
54
14
-121
19
-12
116
-72
85
39
82
74
97
21
113
82
97
95
-14
123
-55
63
55
-87
123
51
-57
-98
29
45
34
-89
104
-18
111
82
0
-42
73
84
62
4
-25
18
87
74
6
-126
124
-69
-26
-37
70
45
107
98
-47
14
-4
-35
26
-71
28
125
-83
-1
-109
88
-7
60
-30
-14
103
100
-61
-31
-71
50
-42
-64
64
4
-103
-78
-104
20
12
0
-10
-33
37
36
36
-50
29
6
-92
-126
-18
47
-110
-23
64
11
72
-53
-98
46
107
115
-5
46
52
111
-29
52
-116
-76
-88
48
-93
44
118
117
100
-128
-64
117
-94
55
-12
-70
18
-54
103
122
-48
64
118
-94
-31
121
-23
-90
88
-119
64
2
-45
-80
-97
-3
101
66
-8
-77
104
-11
-79
9
-30
-43
-19
25
-113
-20
-20
103
45
-31
-109
92
35
122
75
20
-92
126
121
93
-83
-43
-122
-111
118
-66
-73
92
-72
-37
-62
-11
-15
-36
-46
-126
51
41
81
74
-16
-45
89
94
80
-80
66
31
-118
-21
-24
73
0
80
81
-109
123
-113
-115
-80
13
118
4
96
109
78
70
100
-64
5
-27
-4
-114
-89
37
-12
40
-8
-32
57
-23
-103
96
-111
72
-54
-28
117
-8
58
126
85
115
55
-105
-10
-108
10
-125
123
-12
71
59
-68
81
11
116
-14
27
-14
61
82
-3
-69
-44
24
100
-6
8
-30
55
-98
-116
-31
37
101
-17
-17
-76
125
-74
7
-104
-11
-87
78
78
-119
-11
23
-26
-82
-89
63
65
-21
64
-112
100
97
-13
50
-20
-50
61
101
71
-38
-14
17
126
28
-120
-53
-116
71
42
19
-86
48
-23
-106
-1
122
-11
-125
91
121
76
56
-33
74
-116
45
-49
-45
-98
-105
116
-58
-105
11
-15
31
20
-58
9
-16
102
-51
-98
-127
-13
-61
-70
-101
-49
5
-77
-66
-43
-51
-115
-7
118
36
-11
46
-11
-17
79
84
105
77
45
-117
-128
-118
-25
-64
-41
-4
-9
73
-8
-20
-66
34
40
-104
95
111
115
-40
2
-106
46
66
-121
-106
59
-113
-40
-108
54
-115
-78
12
-75
71
-120
63
-78
-111
-10
73
-91
102
9
100
3
-87
87
-66
14
67
-104
31
117
-10
41
-21
94
58
-92
105
-98
-83
110
-75
-54
38
-119
37
19
28
32
102
3
-74
29
-75
-54
-75
-66
92
-90
-4
-14
-29
-119
117
-98
97
-66
13
-97
-78
-16
-111
106
49
-16
17
-28
53
-80
-45
-16
-110
3
38
-126
88
-50
-83
78
104
-89
7
45
112
-109
73
104
-86
-83
-58
41
-72
70
-7
-59
0
-20
108
124
95
-24
-27
27
-19
24
-126
-84
21
-98
48
114
-32
51
58
27
-127
-58
-111
46
68
-123
81
13
73
118
45
59
-82
7
21
-1
-20
-94
82
126
4
2
-126
-120
66
-107
101
103
48
34
17
46
95
-30
76
-41
16
-102
100
-55
33
-8
-29
-94
5
74
54
108
88
-12
-97
-48
83
42
51
-92
-103
-81
104
-35
-117
61
98
123
-56
63
-17
-103
-64
-59
117
-22
-56
48
38
84
78
-13
90
117
-1
94
25
98
12
-94
-17
-63
31
43
-80
-36
-11
85
-6
60
6
124
117
-93
12
96
90
-100
-41
-53
-126
-84
-8
73
97
-90
89
-16
11
-92
105
-58
25
-65
56
31
43
39
40
-125
47
-122
37
101
52
16
111
-124
33
-114
117
-29
-25
58
3
-113
-105
-11
10
-26
-19
38
-88
-121
37
-112
-94
57
-33
24
91
-43
-36
57
-32
-65
27
-127
36
-90
-45
-76
-12
79
123
-95
79
14
123
-89
75
-109
-19
57
-8
-41
45
118
-2
95
44
92
47
-67
-128
-84
3
90
-95
-116
82
-104
-50
97
43
115
40
-7
-70
-29
44
-12
94
1
-53
-28
17
-112
120
3
-33
76
93
-84
78
114
-4
-28
-60
-52
-31
-54
57
44
-76
-67
-116
53
-71
-119
-66
-121
5
66
-52
-22
106
79
77
74
59
119
40
-65
87
-128
41
-73
-79
-71
81
41
36
112
84
44
79
90
98
-27
23
-68
-57
30
101
-127
-61
-118
-116
84
-86
50
-127
85
-78
35
48
65
80
-10
101
118
-69
-108
94
16
38
-30
-88
6
19
92
19
-16
-115
-86
-68
49
106
2
-79
-110
93
120
5
-99
9
-14
105
42
-35
113
-95
-42
116
-53
-79
30
120
124
-25
48
0
-113
-87
-50
60
-3
56
-85
105
51
8
116
12
30
3
107
-85
118
-75
91
-18
126
112
-126
-3
119
-70
86
79
-58
-2
-48
44
114
115
-119
-115
-100
83
-15
113
101
-4
101
48
-15
74
-58
81
54
-90
-100
68
57
-52
40
-109
52
-38
-109
-62
-102
118
33
-55
111
-47
33
70
-106
-94
-60
11
-1
72
-108
113
-98
-37
77
94
97
78
102
50
121
-123
41
-125
-104
85
-5
-124
-28
-76
109
69
-33
-14
-56
40
61
66
-54
36
91
-70
-91
111
98
113
84
26
-59
-126
71
-28
5
-93
17
123
40
50
-80
33
-12
103
104
-71
-121
-120
72
-36
75
89
-1
-36
-101
16
-26
68
-37
-26
-2
-87
-97
-74
74
3
-22
47
82
71
-73
16
120
-46
50
-82
-35
72
-115
6
43
-105
101
124
-105
7
-9
18
-9
67
2
108
-38
85
47
11
21
-113
72
23
-2
-35
-26
99
-35
70
-16
50
-59
-12
-39
44
78
105
1
12
-109
73
64
12
74
29
79
67
15
61
-110
-43
112
76
-115
-116
112
-2
66
-127
106
-18
39
-92
-92
-113
-80
-102
-50
-39
-91
-78
23
-5
4
-44
-109
27
103
-51
-17
-99
100
-17
106
55
-88
-73
-102
50
-124
71
92
-110
-58
39
-120
97
36
-77
110
-105
-104
62
-10
-41
75
91
66
96
105
90
92
-119
62
74
-39
94
33
-17
117
-104
70
19
-99
-69
-11
38
17
-25
-26
8
105
94
-40
-62
-82
-115
-73
125
124
-19
-35
-106
-71
32
-4
61
-52
54
-62
-25
-31
80
4
-8
116
72
17
-108
69
-76
-67
110
-14
-63
-113
-90
70
107
-64
-40
98
17
19
-127
115
117
-95
111
-28
-36
118
14
72
-26
-19
-99
-81
-100
-95
-25
114
66
-41
-2
90
119
-16
-12
46
96
22
42
125
43
-124
-104
94
49
-61
5
12
63
106
30
-127
-53
83
69
-92
-62
-60
84
-58
-18
27
-117
-23
-120
-20
93
34
-69
-87
118
-128
9
105
-26
3
-8
-68
33
88
26
78
107
-37
-115
6
-118
103
-90
-87
93
-74
58
83
-4
17
-44
-52
30
106
-65
-52
29
-13
-72
-67
8
-103
-84
74
62
-122
-3
-101
22
-37
108
-42
22
-37
-119
-8
-28
-51
-71
102
-68
101
96
-126
-13
-37
32
-29
49
60
-58
96
48
-74
-117
-110
52
-48
-27
-54
68
-55
118
-66
-4
-97
39
-54
70
-114
54
-83
35
73
-48
-114
-40
-34
121
-51
117
-55
-20
-57
-103
47
117
31
-79
106
47
-106
-22
21
101
102
115
26
103
-8
14
117
64
95
0
-87
41
69
122
21
-89
-37
-75
41
57
74
-87
-124
-120
10
30
38
117
-16
-95
-123
109
-68
-22
-43
76
41
83
120
106
-89
94
79
-11
38
-16
104
-39
11
6
79
-23
-44
20
17
-61
68
-70
-54
-12
95
-31
81
58
-107
-32
109
-110
-13
8
50
-28
101
-41
-95
42
18
116
75
110
-99
-116
42
-114
-65
-68
-78
-43
3
15
-70
-125
35
74
47
79
-26
-21
-116
29
67
-3
-37
125
90
82
95
-126
108
-118
-83
126
-93
-104
-113
9
-108
-41
-116
-116
-24
-75
24
-33
-109
71
12
-74
-73
109
8
97
-98
87
-29
-41
-39
-105
-12
-82
-4
81
49
-112
93
0
-5
-39
-114
-84
17
22
126
-85
15
-108
-37
42
-89
91
-107
-12
-16
43
73
31
116
54
0
63
33
-75
-67
113
56
98
95
27
118
-52
11
-55
-121
83
64
101
-62
-83
-48
64
47
99
-88
8
91
125
100
-8
116
-72
109
87
100
-36
-41
119
-21
-120
-5
-77
-9
26
-23
-121
-62
-125
-7
11
-65
43
-118
118
-81
-105
-29
64
4
0
-108
8
11
56
-74
-114
48
-50
-107
38
0
-12
72
-88
-58
-31
-33
38
20
-105
35
15
113
-115
-51
-28
2
-47
111
2
-123
-14
-89
90
-109
66
92
-35
87
-23
59
102
-126
-114
-110
-103
-69
-120
2
-29
84
125
-70
-107
-127
-15
22
-83
-28
7
-80
80
80
105
51
-97
94
12
-55
107
58
-121
32
38
8
10
109
-13
-55
-35
34
-54
31
16
110
70
54
13
74
99
-88
-55
-106
115
-126
-117
98
-124
73
-74
-5
81
126
-97
13
85
-8
-63
52
32
-68
-39
77
-91
-29
-83
78
118
31
-108
-32
122
1
65
-63
16
-93
4
31
-15
-128
101
124
-32
-116
-12
99
-62
-45
13
41
87
61
18
121
112
114
104
-60
-53
-1
113
120
67
113
25
-17
66
-108
114
79
35
-48
-103
10
-62
28
27
22
-101
-30
-30
30
126
-73
-3
-41
-29
-60
-94
-38
-77
-71
-8
14
-13
-83
57
-80
32
34
38
-104
-14
-119
-46
62
59
-6
-84
101
59
-7
120
-115
-105
16
86
90
-86
89
-125
74
119
110
-72
57
82
-79
-43
-40
41
58
92
-109
-77
96
53
13
9
-19
-102
46
26
80
24
-63
-11
-1
-78
-19
-87
-57
4
56
-1
-41
97
-39
43
81
46
-24
-107
18
28
-85
-16
66
-91
115
-24
0
74
62
-77
115
-25
105
29
-90
-69
45
-57
116
99
-62
112
78
-101
-97
-62
-6
63
49
-49
-25
115
113
35
99
50
-7
-53
61
-36
-59
-53
114
-77
-9
100
65
-55
-72
-64
17
-38
-37
20
-31
14
95
62
-29
101
69
-73
114
123
45
-69
-59
-1
-7
16
-83
19
-89
-109
-10
-32
68
88
-55
-44
-14
-100
-5
58
72
14
110
17
-3
57
53
-44
-99
93
-53
-71
65
40
2
-10
-69
41
-7
77
116
-121
2
-60
-82
-112
-120
116
94
7
105
-124
67
77
83
-17
-26
47
42
-82
109
5
-30
-55
-49
-42
100
-1
126
-80
17
70
107
-43
69
23
-128
-39
46
-19
109
-68
-125
-33
116
34
31
48
48
-10
104
-105
-73
-29
-120
-19
-112
-48
80
-85
37
-86
-108
-5
39
96
1
-37
57
55
81
-102
-31
7
124
-37
-89
-59
96
33
-35
-69
-122
-39
11
111
-113
45
29
55
-33
-78
-106
44
-15
71
-97
24
-82
-66
-75
10
63
15
-117
-43
-47
72
76
69
76
-99
38
-51
78
43
-69
-51
-7
22
8
94
50
101
52
31
-30
-94
110
26
-38
-68
15
-27
2
-35
121
-112
59
-7
79
-126
73
-68
-78
-88
111
-36
90
95
-35
57
-88
102
98
-75
13
-95
-122
-51
-10
51
-85
47
13
-102
-53
-17
-117
-57
120
-30
-28
-53
-103
32
121
52
50
107
13
-4
-128
89
3
-85
110
-18
53
87
12
-116
3
-25
8
62
123
20
82
44
-117
-72
2
31
-125
-31
-42
-39
-48
40
61
102
-99
36
-67
63
-120
-56
63
-8
32
123
109
-119
-61
92
124
-1
88
49
-77
-62
-66
-91
82
-58
-15
122
-116
-43
122
-125
85
-80
-60
39
73
-21
-82
-126
-34
-127
-114
106
-107
-38
52
91
110
113
60
-5
-119
-15
54
105
-51
85
16
103
-50
-31
-85
10
-111
-70
126
-118
69
-35
0
76
30
-58
2
20
-58
94
7
57
2
121
-81
4
126
17
-124
38
51
-94
27
-105
-41
-125
-17
-32
-106
-84
64
86
-53
12
-18
-15
27
-40
-60
-2
120
43
-93
-101
-43
1
37
-35
68
93
5
14
-18
-28
-125
102
-68
45
-72
-47
-13
10
-49
-113
-125
-4
114
-128
84
34
-100
0
118
31
-26
67
-111
122
-49
-15
87
-66
45
-3
48
7
50
-19
-71
-56
-68
-122
-107
20
36
-12
118
109
56
20
-91
-36
-74
-9
-26
-30
-100
-11
-12
15
123
18
120
25
-6
1
7
-127
-106
-6
-93
58
74
-75
-71
-9
-70
-76
58
19
-75
74
-46
18
18
39
114
77
-39
66
83
-81
-96
40
-91
25
97
-89
93
-6
-107
-98
-25
-84
5
78
43
7
6
-125
121
98
-82
44
124
-27
109
-112
-38
45
-119
-85
27
-68
-89
-113
111
-114
97
-40
10
53
-103
-75
-67
-3
34
74
-7
82
-115
102
-8
-22
32
71
-78
-91
-53
-87
-53
85
26
118
57
-50
20
-11
107
98
80
34
-23
55
-71
-65
13
-13
17
82
-110
62
-52
67
-54
96
-53
-47
-126
75
71
86
-108
102
-22
-35
119
65
52
-8
26
-40
-89
-61
30
9
-3
35
-55
-76
23
68
-63
30
34
-102
-49
-69
-75
66
-103
-6
23
37
-23
-106
29
-58
-33
78
-43
-105
5
48
-68
4
-119
-95
-80
-24
-44
20
-103
46
86
27
2
52
-8
1
103
12
109
122
124
-30
54
63
-126
-37
-19
91
39
-123
-110
-81
-97
-32
66
70
-23
-93
46
62
63
19
17
5
-96
65
-7
-40
126
-43
-120
29
98
-21
101
-90
-23
113
-121
-115
53
-120
99
-41
104
69
87
-21
49
-118
25
-115
-93
-45
-63
106
-114
86
70
37
-10
121
-70
-51
78
-101
8
-79
-66
-9
92
4
25
-68
84
63
39
-67
-103
-19
-46
101
25
-38
89
-96
46
68
125
-92
-84
-73
51
-108
119
36
-33
-31
-119
84
-113
81
-114
122
59
-60
-15
53
-32
106
-65
16
58
-87
6
-79
106
27
-45
65
-62
-15
-52
86
-10
19
65
-51
-128
11
-75
23
-39
7
-19
57
109
48
-80
-78
50
-43
-37
-27
70
-43
18
80
-118
96
-64
76
79
-93
-6
88
2
64
68
51
11
-54
-46
15
9
-68
-50
115
-61
-103
25
67
-100
98
-24
-73
-16
84
28
-33
80
-108
-82
121
115
-116
27
74
-23
-72
108
-27
-56
-96
-10
-82
-85
-92
-67
14
-44
13
61
72
-74
111
-78
-49
-77
-109
31
37
-49
-117
75
-40
24
87
76
34
-103
69
-74
-69
5
-61
-95
-100
-82
-100
121
-52
106
18
69
72
68
-21
-41
-115
-23
-5
19
43
7
-109
93
87
50
-117
122
-66
-90
9
-121
33
-29
51
29
-33
78
29
-11
121
66
-34
116
120
-61
-90
3
116
-57
11
7
-45
115
77
-3
98
10
115
20
71
0
30
-110
61
-25
88
-59
-25
-25
-115
-47
98
-116
-59
16
-15
38
-97
59
-96
85
-18
-122
42
-63
31
-86
17
-75
40
-38
-126
35
-74
26
5
68
-54
120
106
88
-9
113
120
-37
21
30
71
-81
21
-73
-30
91
105
-18
57
45
36
-105
-3
-26
64
17
-58
95
70
86
-79
24
66
-11
-4
-48
43
17
-112
-39
99
49
-71
-61
70
58
109
-69
-6
22
-52
50
104
3
90
-71
7
103
-12
96
16
-96
-16
7
-56
10
-103
94
64
-25
-75
-110
-1
-86
-25
122
-31
-27
-54
44
1
-53
103
-17
88
-97
108
74
-118
47
-53
-123
113
110
-107
112
-65
-119
-127
-53
28
99
16
-119
-121
117
40
33
59
58
-61
-118
-1
43
-55
-16
16
26
86
-119
-36
-97
-126
-51
42
1
-39
100
102
-88
118
75
28
-29
-46
-98
-124
-115
-89
97
-75
-32
-57
2
-35
-115
-25
-35
44
60
89
39
-15
55
-6
60
8
65
63
-123
-64
-28
-80
-5
-62
29
-20
27
-66
-26
-89
24
60
86
102
71
-33
-54
38
48
-102
116
26
15
-27
-58
-54
-70
90
60
126
86
67
44
-88
-2
89
-93
-82
-56
30
-114
98
-120
70
121
-93
113
65
69
-17
80
119
49
77
-94
17
95
-41
-78
18
100
95
87
116
27
-24
57
-123
49
-75
-44
-74
16
-7
121
-50
62
-51
43
123
-11
118
124
83
-49
-61
99
-10
118
-87
-21
2
-20
38
30
74
25
42
111
67
24
11
16
58
-117
76
-35
85
-126
-97
-31
27
106
114
-66
-32
-29
-57
-66
-23
69
63
67
-107
-77
32
-47
0
-126
106
-36
108
-46
-124
-128
15
123
-57
71
116
35
15
108
-104
63
-63
-3
7
30
113
-76
-16
-53
88
-124
-26
101
40
-50
50
-82
105
63
122
-52
-67
56
2
-49
51
30
79
33
75
113
15
18
119
0
-43
-82
118
-22
-64
114
116
-46
51
46
104
28
102
-29
-99
116
-14
-36
-119
48
88
23
-70
-127
-50
45
-109
83
93
94
13
99
37
112
-68
-28
71
118
-32
110
-50
65
35
-8
98
108
-23
-72
4
-84
45
73
88
25
-10
44
-38
76
-64
-84
60
-93
6
-126
-79
13
-114
-68
-88
-22
-76
-25
-41
-103
41
-52
7
-107
34
-50
-55
-123
-5
106
106
-32
-18
-115
-23
-27
-41
-92
77
21
-114
16
-5
117
86
-31
40
83
-1
112
-116
-102
-21
-93
-5
-119
121
102
29
-2
-87
-79
-91
-103
29
77
123
63
42
-127
-65
-103
66
-18
-82
93
41
65
36
-10
-84
-110
-40
-46
-70
13
-80
12
-107
103
35
62
-5
-48
98
65
-123
-12
-48
-87
35
-65
66
-41
10
111
-25
4
97
117
86
3
-30
-117
-19
-113
-96
-26
111
-21
-6
-83
64
107
-72
123
36
-128
8
-30
115
-43
-76
120
-57
-26
-80
51
-37
-35
62
63
14
1
20
-73
4
68
-39
-31
-95
-39
-103
101
55
-45
-35
7
91
46
-91
-40
87
74
108
96
26
-104
122
38
109
-34
75
-38
44
-41
-64
33
-102
-15
-67
-77
-73
-76
-40
2
-28
23
-31
52
-65
58
-87
-100
-91
32
100
28
20
117
-95
-108
82
-13
114
-74
-75
124
-5
23
114
-38
-1
68
79
91
1
68
-21
-69
-128
112
-94
2
58
3
-50
-96
94
-50
-3
-67
-85
-58
-35
17
77
46
-44
-2
-83
-25
70
-6
45
-72
-17
111
-79
110
-13
84
-58
-35
-41
101
71
25
-87
-82
-58
121
-66
43
-49
44
48
-4
-30
-109
-105
-91
-51
-99
43
-123
100
-86
-52
49
-1
3
-70
-54
-74
72
-6
50
-6
90
56
-119
-54
99
-58
111
47
119
-108
-90
-80
79
-49
-4
-49
-12
3
-2
107
39
112
-81
74
-81
-92
-12
71
-105
40
64
-40
-34
71
-97
-50
93
-64
61
80
-29
14
-92
107
-81
-35
-1
-70
-114
106
15
119
-32
-61
48
-33
108
-49
-97
28
26
88
53
57
4
23
71
37
-80
37
-51
65
17
-55
0
-39
48
38
-79
79
33
-107
78
-8
74
-96
-124
-123
-72
56
14
32
114
-87
102
-54
-51
-36
-102
-75
12
-54
124
105
-9
-3
57
97
57
56
1
-90
-117
-35
18
-98
-92
85
69
-58
26
-90
90
126
62
13
124
-86
-9
40
-47
69
26
-73
76
20
-2
-114
0
73
22
95
84
59
-107
2
14
126
-37
-46
-26
-73
-14
78
-113
-74
-123
23
15
75
-3
1
99
-42
-87
-102
47
41
-113
-111
112
45
18
46
-98
60
124
-81
15
-18
-12
-44
-1
-38
13
-126
38
57
-76
85
28
-86
5
25
-118
-38
-69
102
-35
-121
-14
24
-10
69
74
-127
57
73
-77
14
-28
-11
19
-86
-116
39
-9
-69
118
-66
0
60
-79
-13
118
4
-65
-82
-16
-106
-4
-16
-28
33
-52
-35
126
64
-118
-112
-105
63
112
-5
29
123
36
-23
-112
0
31
-55
39
-38
76
-75
-32
-66
-102
-86
-76
-30
-37
-102
65
-78
32
55
-34
71
35
63
119
-92
71
18
-1
-82
-83
18
-92
-13
112
-127
-128
-61
-83
-55
109
20
-77
-74
-80
-94
-73
125
-9
-4
-23
15
33
-125
46
52
-122
-114
-99
91
54
-6
-32
-18
36
-41
-46
46
65
-118
-94
-97
-85
-113
-5
-9
116
26
-75
-106
-41
-21
-115
-113
-53
51
70
31
76
2
97
-31
121
117
-41
-77
115
57
-45
64
-56
104
24
89
103
29
19
-111
4
-32
17
-55
91
-82
-84
-29
-85
42
120
36
-91
-83
-8
96
-20
-76
-30
-3
66
82
-59
-7
-10
42
-68
115
59
77
64
115
-73
-21
-37
5
109
78
-31
-47
115
43
15
-55
53
101
62
2
95
64
106
11
-79
81
34
48
-120
28
77
43
2
-49
-114
121
-23
0
-114
-77
-63
-68
87
97
-73
25
99
57
124
65
20
110
87
3
41
36
-119
-82
20
-97
-91
93
23
81
-85
-25
-69
33
52
76
11
-70
-108
-72
112
-73
-32
36
-98
-56
-48
113
17
-57
39
-47
-11
-121
-38
118
-126
115
-52
-122
-99
-102
89
-95
-11
-48
57
60
-64
42
91
86
-101
62
-25
-117
23
80
-13
-100
-59
-41
94
37
118
77
114
-42
-9
-71
-99
-62
-14
-11
9
-97
-113
-108
-1
-100
-99
-120
-32
-111
78
-112
-73
17
-64
116
87
-127
-86
54
108
70
-116
-118
27
42
36
22
-68
-68
12
112
-21
-61
7
-47
-16
17
6
10
5
50
-126
18
-32
23
-113
30
-67
18
-6
44
-54
50
89
-56
-74
44
-71
-39
-56
-52
-30
80
-111
97
-52
75
-25
-110
43
91
21
106
3
102
33
39
108
35
-18
101
121
70
70
-127
-26
-60
13
53
-39
44
-80
110
58
96
-128
-42
-116
-31
-75
-108
-41
54
-56
-114
83
27
-50
-57
63
31
-64
-11
91
121
-125
-19
126
-75
-126
3
-55
-2
-14
-64
-60
-85
-73
106
-33
13
122
52
33
107
-1
-23
-12
-69
-110
-66
95
125
99
-93
-30
-3
94
-118
57
-121
-113
43
-49
-7
-32
-117
53
83
-2
-96
11
-14
101
80
48
-38
-77
44
-113
-66
-118
-47
-52
-116
-98
-15
36
-117
-80
-80
-111
47
44
-79
-32
-54
-127
58
-108
42
-103
-126
-81
-109
-86
80
21
57
-7
93
84
-68
-88
92
-127
28
-68
-91
61
113
21
-99
-85
-22
55
37
94
-38
-81
-51
-50
42
-19
-37
91
-48
91
-95
125
-20
-62
-116
-113
-57
126
-21
21
-95
-83
66
73
-107
-45
-18
-122
51
-26
-23
96
110
-116
-57
-119
113
-114
85
7
-68
-108
-107
-96
68
-28
6
13
-47
13
-70
122
75
114
-8
-96
-66
-105
-62
-112
-104
110
-116
126
45
-106
-82
48
-101
81
-58
-123
-81
14
-1
84
116
34
10
51
19
27
54
-28
-76
-27
-33
54
15
81
-23
69
22
69
-50
99
71
-19
-50
126
-33
-34
54
38
-14
-119
-47
-50
-29
62
-66
-106
55
-7
-54
-86
-67
58
-59
-92
95
-82
-76
-81
83
-4
103
-39
48
75
-128
-52
24
-41
4
-13
-57
42
-111
97
75
-7
-56
49
85
24
41
-101
30
-22
86
20
87
-86
-8
111
86
-5
-58
81
89
-2
41
46
86
-16
-33
-26
1
40
47
-95
22
66
-31
-17
-108
80
60
-122
75
11
109
-72
-2
58
-20
61
46
115
70
114
-18
103
26
-24
-75
119
38
14
70
-36
-85
-118
60
102
-41
-118
0
-91
-113
-104
103
-106
103
111
10
91
-2
95
-120
-11
-52
-24
124
-73
-65
11
75
121
9
-103
-92
71
-17
94
21
-49
-64
-88
-43
-118
-102
-76
-8
-24
-121
-119
-47
-105
114
42
16
-123
14
54
-99
53
-112
-38
-36
-127
1
-17
-112
52
-26
-18
69
31
-31
52
-127
54
-98
80
49
-44
67
-80
30
76
115
90
15
106
-5
41
92
-122
39
95
-26
-100
119
41
72
-64
-101
102
-11
-9
-38
108
84
-24
74
-63
86
62
104
-126
113
77
-101
-93
-107
-127
72
-118
-94
-86
38
-22
-60
39
76
-102
-105
33
-89
59
126
-99
117
5
35
-78
-57
-47
-56
86
37
-81
6
70
-115
-78
33
-126
-30
119
42
-57
-80
90
-15
-66
-83
-78
6
70
-4
121
13
99
-63
-106
-49
21
99
-47
103
-120
-53
4
105
-45
69
-41
-38
-80
19
-7
98
-33
76
-123
49
-60
29
66
119
-102
-101
-99
-46
-123
25
5
-36
113
108
41
-117
107
125
-108
40
99
-92
107
77
-60
-123
96
-30
69
57
-14
70
-122
-79
75
-59
-61
109
8
59
-8
-35
-2
-126
125
85
33
78
35
-75
48
85
-14
-56
-43
1
-127
13
-17
35
-94
90
-103
3
-17
102
109
-122
-62
-128
49
-107
85
41
36
32
10
-17
51
-111
-69
87
-2
66
29
95
-17
-126
17
-73
-53
95
40
77
123
52
47
35
-68
105
-77
-28
13
107
66
-61
62
115
-60
-89
-5
76
-96
-92
16
-108
67
-128
-122
-15
-65
-69
-19
15
45
74
115
-87
-49
31
-123
27
42
-38
-61
-120
75
122
-19
-39
122
105
42
50
-114
-96
83
-81
66
29
109
-69
2
72
-56
-126
92
-5
21
-20
-89
95
74
18
-42
13
-75
-111
125
86
-49
16
9
61
18
12
-8
-124
-32
-115
-101
13
52
39
-92
-79
43
104
-29
-39
-89
-94
77
-98
5
-84
-102
63
106
111
-3
-80
-119
108
15
38
-94
80
31
-18
121
38
45
6
-79
-117
21
6
53
74
84
82
-104
45
81
112
7
-70
52
-50
118
102
-89
-58
2
20
-2
-40
-11
-105
9
1
53
77
103
-59
-90
-85
-31
-58
-113
94
84
-51
-91
52
125
-14
-81
-26
60
-108
60
51
94
-31
111
50
-68
-1
-120
-124
42
11
-103
24
-19
-64
108
-28
-15
65
-79
-3
-94
-93
-77
-76
-65
-97
-80
-48
-50
98
125
119
2
113
-34
113
-107
115
-100
27
-109
-109
38
38
15
4
-75
75
-44
82
82
26
82
58
-68
-68
81
-79
-81
4
-42
-102
79
-72
19
37
62
87
-114
100
-28
-60
40
-95
69
-77
90
86
-105
64
66
15
114
-88
-55
125
-15
-78
93
-6
20
-118
62
113
122
-28
89
75
-89
-105
52
-11
-30
-61
-41
-23
75
-101
89
90
120
108
20
-96
-63
-121
-109
111
-107
-74
-5
-38
73
-114
-8
-43
25
-44
10
-126
-111
71
-52
-17
49
-127
122
-44
110
-112
-26
76
-104
21
-71
19
-51
85
-107
-15
28
11
-90
55
111
124
-62
-121
-48
2
-90
-78
-84
-127
-52
114
-74
-62
-110
86
37
-13
-52
-10
-118
68
-115
-56
-105
57
-74
61
53
35
89
-65
87
79
69
-65
74
19
36
-65
-57
53
96
107
-70
-85
74
113
0
14
116
-28
-97
-125
84
34
100
2
-40
51
-8
-67
-8
0
57
-37
42
74
92
-44
84
68
122
-123
44
-27
22
-44
-49
33
26
-59
10
-58
54
-18
-62
17
-37
21
-47
-27
-106
86
-121
-31
-66
74
16
-20
-125
-18
-40
-120
85
51
27
124
-65
39
107
103
0
-36
80
52
49
33
-113
-72
-61
23
79
0
39
-10
-39
118
-93
3
-27
126
66
123
-104
-86
-27
123
118
11
-57
-7
116
35
93
-58
-121
63
126
86
-19
19
-43
-24
-12
14
-120
32
45
64
-42
-86
73
-105
64
10
39
114
-54
29
-87
-10
-76
-126
36
86
-88
-111
115
-99
35
68
-57
10
4
40
78
-100
109
-60
62
-87
-14
-70
-85
63
-51
29
-1
37
-38
-24
-119
111
-58
-71
63
-105
108
26
85
100
-84
-31
85
41
-125
-52
36
-113
37
-109
-57
-101
41
-27
121
-38
37
-91
-77
122
76
19
-74
-71
-115
21
-83
87
-119
22
-11
73
31
75
-101
-40
118
14
96
-118
15
92
53
-29
-15
-94
2
102
103
7
30
4
33
-108
-49
-3
-16
-80
-60
7
36
113
-100
-5
-30
106
-97
29
-99
-79
-6
-83
65
-126
23
-119
119
-125
52
46
5
-95
47
28
96
65
113
32
-84
-15
32
-19
90
22
64
-101
75
55
48
86
-6
-11
-75
57
-37
25
-21
-117
78
-42
-91
54
117
52
69
-24
-87
-94
9
-117
-28
-6
-28
-116
13
50
47
-116
10
107
67
72
-28
69
10
-60
14
16
79
-78
-95
96
-98
62
-15
120
-125
-1
-97
-73
-106
49
-58
112
66
34
74
-10
66
-75
-60
20
6
-112
-45
-26
-117
-113
23
-56
112
14
24
-19
-114
-23
-83
-125
-22
86
26
55
-127
53
-123
48
-115
-48
22
-127
27
-95
-81
-38
-36
-114
-5
-21
-30
-113
121
-40
-108
-25
39
-22
-4
-70
-58
124
-114
-32
57
-63
91
-119
-64
107
-75
24
-91
-80
11
-89
-78
-40
-28
-67
-66
70
-1
-8
-40
0
37
-75
126
-62
-22
-15
16
62
74
44
-109
81
-47
75
103
-9
-70
103
-23
83
37
-75
80
85
-8
21
26
26
58
-34
-91
84
115
-14
81
-60
-101
4
124
-122
-52
-104
-121
-28
-53
88
75
6
63
51
1
42
111
-46
118
80
-58
44
-110
-26
94
11
80
102
110
-73
-77
-3
58
-53
-27
-73
-128
111
58
49
-128
-98
17
-47
50
110
77
95
51
-47
-74
24
-94
-48
89
-50
-52
2
125
33
-65
-8
-102
104
-69
15
80
-122
-18
69
48
106
52
-128
65
62
-53
-8
2
37
30
-92
98
14
-128
-58
29
25
-114
-43
-112
42
115
-14
105
32
55
126
-94
92
-65
28
-86
39
65
-82
67
45
-10
57
21
-110
107
-15
-5
13
-61
43
-69
62
9
77
-105
-104
-16
-103
103
-105
11
113
-128
-35
-125
-74
1
-66
-23
12
-46
113
3
79
27
114
22
-116
80
-61
-78
-26
37
-2
18
38
120
108
30
58
-124
122
41
36
-46
73
54
88
-79
-122
-71
-51
91
1
21
15
-114
85
91
35
15
-66
-120
61
-81
56
36
-80
67
70
-120
78
65
95
105
24
59
-96
-124
97
-123
62
-55
34
-36
48
-5
101
-124
-64
-32
-30
25
-82
-72
54
-109
-25
58
121
-56
-4
42
-67
124
94
-125
21
39
-4
-3
85
7
-122
-10
-74
40
105
-96
-45
-84
-44
-106
13
100
113
-88
-123
10
60
110
-22
-78
25
-55
-121
124
59
-71
-91
-50
-17
-61
-124
40
93
-19
-119
22
87
-36
50
64
111
-18
16
110
-49
73
-62
18
78
-82
-3
56
98
-57
62
37
-54
-39
-109
-116
116
-47
61
113
-67
-110
50
-67
-67
48
-32
-44
-24
-63
-27
91
96
-103
-26
8
-46
69
46
-58
-64
34
96
-10
-103
-98
16
-52
85
118
87
-42
-52
115
-88
-82
-39
104
-72
-70
-43
-32
68
-115
-104
97
-89
30
97
-15
53
88
-98
4
54
109
75
98
-10
-13
-67
67
51
-43
-37
96
-116
-21
-124
72
66
-26
-128
-81
60
-124
5
-15
-9
-7
-78
-13
-123
-60
-45
-92
-74
74
91
-21
-21
-54
-89
-105
82
-85
53
86
126
106
122
-89
78
38
-122
9
20
-38
-1
29
-24
-96
-49
-28
11
-33
1
69
104
8
-99
59
-20
-18
120
16
30
120
85
-39
-73
-77
-4
82
-118
-98
25
60
31
28
69
-50
-100
-22
-82
-117
-85
50
-69
31
100
117
17
60
72
32
85
46
109
20
-116
-113
116
74
-64
-105
64
74
100
-99
28
-78
-80
6
0
-50
-91
35
24
-116
-18
79
-63
19
-113
53
-59
0
-7
37
-78
52
42
-92
-127
72
-33
67
-74
46
3
37
33
-70
42
-8
-128
33
118
-107
2
-2
-85
58
-101
-9
102
70
102
104
80
24
84
78
17
122
51
109
-56
-10
-22
123
-10
7
-111
-13
67
-38
48
-68
102
-92
83
19
20
-121
-61
-24
89
-22
-120
41
94
-59
-55
0
18
111
-102
-54
-114
-112
-117
87
122
119
24
75
29
-84
111
105
11
-99
-97
-87
-17
-58
-114
81
-10
111
38
-82
-96
-10
-96
23
-114
-79
4
27
23
8
100
-22
-64
-40
-8
23
-102
-14
49
55
-112
51
45
20
115
-19
92
41
-119
44
113
14
124
29
-35
-33
-96
101
11
5
101
-11
-104
88
-88
108
-31
-24
-120
89
36
103
-44
-81
-1
3
-59
20
105
-116
-6
-94
-55
62
8
-32
-47
-89
-2
-34
-126
105
72
115
-126
70
-49
62
92
75
98
-125
-82
51
-73
88
-8
-47
11
81
-50
24
21
14
113
11
40
-6
76
45
-21
-74
3
2
66
11
-65
-32
125
116
99
-77
28
46
35
-89
4
-31
28
-57
-103
-106
102
120
-40
-55
121
-56
27
32
-22
30
-83
-111
-98
66
-74
35
16
79
106
-97
88
-32
3
-98
-46
116
98
124
118
-13
-40
105
14
6
42
-127
-104
48
73
9
119
15
109
-97
3
-16
-61
-55
101
-100
94
-24
-128
-78
56
-16
-108
-45
-96
-98
-127
-120
101
38
-114
-57
77
94
30
5
-4
77
6
-97
40
38
-46
84
54
-61
-14
-73
84
-35
38
-34
7
-92
61
-65
51
-85
3
-126
98
-74
-7
125
-76
-84
-87
-115
117
21
95
38
-55
65
-70
75
-101
-94
-43
-121
104
53
2
58
86
81
41
18
-48
-82
-119
-63
1
-34
13
-78
99
3
123
-64
-39
67
124
24
-61
-63
-87
-7
-76
59
-56
-51
-109
96
11
-54
-107
-23
-109
-52
-50
-127
1
14
91
-128
40
38
48
-3
69
-105
85
65
73
-46
55
104
114
17
79
0
35
-117
-111
19
-96
-104
-5
-71
-76
37
-103
-4
-89
-62
-52
2
24
-60
-32
87
33
-68
90
56
70
64
9
-65
117
-36
2
43
59
28
-20
-117
60
77
105
41
96
62
-72
70
-71
115
97
108
-109
-52
-55
55
18
2
-33
108
56
-83
12
-119
20
109
-68
-97
118
-103
66
-5
66
-91
-98
20
11
-103
-128
-39
-8
73
-73
-109
-47
51
42
-75
-8
-126
-75
115
-7
-67
9
-89
118
-102
34
-40
-36
22
-55
58
20
-109
-101
-54
-35
-57
-14
15
-5
-44
71
25
103
-47
60
12
-104
9
-26
42
-61
-108
-73
-127
-34
20
75
93
-97
-64
-91
-128
-74
60
-54
121
-6
-14
-123
126
-104
23
12
-25
-109
-120
17
-86
-49
56
-90
-21
3
14
105
-121
-45
97
30
95
90
60
78
-81
33
-98
-91
-30
90
39
-68
-94
-90
53
40
49
29
25
-121
117
-104
105
89
25
65
2
80
-108
-56
-105
-6
48
94
-5
81
62
-110
-39
-50
-83
-31
20
-113
23
36
123
-56
114
67
-39
61
-71
47
-69
105
16
19
-14
-98
49
-34
89
-128
-35
62
37
-96
43
-73
-29
-11
104
-96
113
75
84
10
96
-60
-116
95
69
-65
-8
-59
60
-40
114
-113
74
110
-19
122
59
93
-111
14
126
-32
86
11
119
-99
-76
-59
-126
104
-94
69
107
-86
10
-96
49
33
-90
30
-82
-117
-17
-34
112
55
-51
101
-117
51
-49
-44
-85
-33
57
22
-11
-78
4
-73
104
-60
-112
112
-95
-95
38
-128
46
-21
118
-94
21
83
63
-34
82
4
48
64
-30
-10
-119
-70
85
18
-56
118
-83
-13
-38
45
86
57
-80
118
13
48
-2
15
-18
-117
30
-4
-28
98
97
-15
-57
26
-72
75
-122
118
-42
-93
-115
-81
-17
-43
-38
-85
9
2
-114
-31
-59
-85
-66
60
-70
37
-79
99
-13
56
115
-66
106
-35
4
117
-95
-111
10
36
-42
87
-126
-11
44
-3
83
-1
-52
51
-116
53
-42
111
-112
-118
40
77
44
-53
-78
-90
23
-6
-102
-121
114
107
-6
52
103
-89
39
75
19
-72
-21
8
-10
93
-7
-93
-48
-108
-5
33
-73
-124
62
53
-62
-76
-14
-87
70
-50
99
-66
69
-37
-28
61
46
68
14
-104
80
-8
-54
38
-70
117
88
52
-95
112
84
101
76
102
33
-116
11
-89
61
-107
-22
104
95
-84
35
110
-82
26
38
-103
126
44
103
-54
104
-25
-22
110
-29
98
45
-107
-78
2
-30
-93
-50
-48
25
98
-11
54
106
-110
-101
-107
15
-35
-120
-45
-77
45
-128
125
51
-57
-28
114
-6
12
-53
-88
17
-115
-42
-12
-44
-103
-79
-110
-15
-32
126
-60
113
-51
16
-123
87
117
106
11
-91
123
7
34
-28
20
-104
-84
-86
6
-112
122
-36
-11
-90
52
-98
110
116
83
-118
-52
-67
-74
-17
34
-24
40
102
43
-30
54
1
21
-10
22
82
-59
76
11
-86
-74
78
-110
-50
-111
30
124
64
18
-17
-13
-102
31
-1
8
-95
-13
-18
-31
114
58
58
-92
23
-36
126
-93
-64
91
-15
-91
-28
-84
-61
119
-26
-59
23
13
31
125
-37
81
54
-116
-109
-24
-111
35
19
-99
56
-53
25
12
-98
6
-42
65
39
-104
34
107
51
-71
39
-61
-58
88
-66
55
-83
83
17
96
33
97
125
33
76
-83
-55
-21
98
86
121
-74
53
80
-9
42
76
-98
-29
-17
30
97
43
28
99
24
-81
-66
12
-60
58
79
-26
43
12
-65
72
82
39
-72
122
77
14
117
-41
-69
6
-27
-3
72
-4
-30
86
4
80
15
62
-94
105
63
-127
121
-7
60
80
100
55
-71
89
-14
-37
-97
-119
116
-109
-127
-96
-88
-36
61
-98
98
26
-7
90
24
10
49
101
87
-107
39
-30
32
81
55
-115
-40
37
-124
87
-51
73
-26
76
-64
-112
36
-104
81
-40
98
24
4
-14
62
87
-31
10
-49
70
52
13
21
-28
27
53
-114
-4
30
44
73
-17
68
-127
-43
-123
-111
-92
-24
-86
36
-86
-120
58
-37
90
-42
119
-128
40
-15
102
-103
-110
76
-108
-119
-62
17
35
98
-94
-70
115
-25
96
47
-49
34
32
13
74
-69
15
-120
-113
25
-103
94
56
106
-126
-13
70
106
-35
-36
-3
-92
85
109
-97
-85
-111
-7
-27
-51
-25
-126
-101
7
-45
45
-128
-107
27
120
-61
-30
19
42
-72
113
31
80
40
-86
-47
-31
-104
123
-86
-79
21
-70
80
-95
-25
-102
-79
-19
-87
125
67
32
-118
79
-68
58
117
-13
-10
-29
100
123
19
90
-51
18
-46
40
57
16
-23
90
-88
122
-114
-8
14
-76
-21
66
-1
53
-123
67
13
-56
-62
33
-125
-52
16
-65
-27
-15
92
119
-99
39
65
80
-69
-8
-126
-118
-80
-63
-102
-31
53
-16
7
74
109
104
-13
20
78
31
31
-126
75
80
-7
-90
93
54
-112
123
-55
-111
2
-96
-18
50
59
-66
-63
112
-40
72
47
54
84
-41
57
-25
-51
72
10
-45
25
-26
-22
-2
111
8
-113
89
-25
-46
107
-87
121
38
-73
-47
110
75
69
9
42
72
-111
-12
-66
-21
104
-45
55
44
119
-54
53
63
-63
-115
-7
-48
4
102
93
14
102
-48
-58
22
53
100
-127
-71
-127
97
35
32
-116
16
-8
-99
26
17
53
-17
98
63
-112
126
-56
27
43
12
-38
-126
48
26
-104
45
61
39
-103
45
-63
16
-39
30
100
51
-94
108
-42
-122
77
34
-100
-9
77
115
40
-80
58
10
-66
-75
125
91
60
88
62
-17
-21
-102
93
112
-16
4
121
-9
41
119
71
-10
-42
-20
45
20
-64
21
105
29
-97
120
20
-58
48
-80
-49
52
2
-19
98
-109
62
-125
-49
21
5
-9
-93
63
-58
124
-27
9
-63
-30
114
-29
65
-60
76
-5
-116
90
-19
-87
8
106
-2
-60
120
-57
21
-115
-100
-126
82
119
6
11
-79
72
89
21
22
28
-113
54
31
54
-5
36
-120
83
-99
-3
78
-32
-3
7
59
8
-2
-124
-117
-71
-15
80
-102
-106
-25
125
19
15
-44
0
119
-66
54
-112
-114
118
91
27
-26
103
-109
-22
-17
-30
122
100
-4
-102
-43
68
-123
102
39
-24
-45
28
93
-72
-89
83
65
95
90
10
7
-79
45
-71
119
-19
-116
78
-39
-92
-102
85
70
-69
50
-97
-62
46
16
123
-90
-44
17
104
-2
-90
102
95
57
-76
77
60
99
-68
104
-128
105
-36
-101
-2
-80
56
-29
75
-86
-48
56
-80
-37
60
87
-67
105
95
64
-90
-26
64
-32
30
24
34
-8
-75
-29
-69
-33
-52
47
-33
-15
-107
-66
83
70
64
98
113
39
-10
-113
-12
21
63
52
3
43
-6
-18
75
11
-106
83
-72
85
58
-118
99
109
60
64
23
7
120
28
-60
-59
77
68
-122
-92
36
103
-121
-13
-50
-58
-48
56
36
63
109
-81
26
78
-39
83
21
-127
25
-16
12
-60
-19
-18
76
-42
-31
120
68
-4
21
-3
67
100
-6
68
-98
74
-121
-53
-4
90
-82
45
-111
58
-11
-5
76
50
111
75
-54
78
-53
123
14
-89
70
-107
-93
-1
31
42
-96
-54
-95
-77
62
102
-122
48
-103
98
61
-70
-57
104
87
-80
-111
-75
123
-38
-43
-19
67
35
88
63
-112
90
108
-23
-101
-123
58
126
-75
110
-115
-7
43
-45
32
11
-122
-13
82
-50
10
76
58
67
-97
-79
67
125
-121
24
-26
-24
41
-109
-58
54
-128
102
33
-85
16
105
6
32
-17
-81
-72
53
20
-20
106
14
-27
-119
93
24
-60
-102
54
-114
-84
57
43
-91
-56
-68
-61
40
78
-2
124
13
28
-15
66
109
9
-113
-10
23
73
-114
-21
-66
23
69
20
-35
-71
23
-49
54
-4
-55
-38
65
-110
31
90
-119
-45
-108
103
-104
60
-125
-23
-14
-9
68
90
-17
-101
78
59
-47
12
54
104
-78
-122
-83
125
5
89
-64
-95
22
86
90
114
15
-14
56
22
-95
101
71
66
-39
-89
-14
-107
90
-48
88
71
-70
95
53
116
102
115
46
88
116
117
55
-67
26
31
-32
-25
-81
-86
105
85
88
25
-36
-37
-22
-55
55
-66
22
84
-34
39
-62
-93
103
-30
-74
-102
-50
-54
101
-26
18
102
35
99
111
15
-124
-53
-68
11
-118
113
120
-16
48
-120
-7
94
47
-19
71
108
113
-115
27
-69
-47
81
-127
34
69
-112
-60
118
-32
-63
-116
-37
-100
82
-32
117
27
-33
65
-123
65
56
50
-32
62
-18
2
3
-35
45
10
-14
16
-105
122
-108
-45
69
15
-26
-5
40
101
15
18
-123
13
-40
117
8
-94
86
-14
-62
-102
-92
-61
-46
99
104
-126
109
-25
87
-22
56
37
-48
75
-114
81
26
-97
-25
-48
-60
-77
121
60
96
-108
32
17
-47
-34
-8
-66
14
48
-22
-89
7
-65
7
-57
87
37
-86
-56
-3
-43
14
-1
-5
-116
-118
4
18
15
-83
17
45
23
44
-27
-76
-3
-117
-53
-87
0
79
-75
-106
-43
24
109
-119
12
-79
71
18
-83
22
34
-36
-14
122
64
91
10
-86
122
-78
120
47
-108
56
-114
107
-126
22
-122
4
71
97
-3
81
64
117
-31
-87
-47
-17
-112
-87
27
37
-45
-61
7
72
-103
-38
63
-90
61
-126
77
-84
-15
-43
-76
90
-86
69
-37
107
58
-56
-55
77
-13
-39
99
-93
33
-113
-5
4
-95
116
50
42
-101
-24
8
4
-14
-71
110
-123
-66
-42
-23
81
-47
60
32
60
-2
-7
37
-76
-63
-60
-118
106
-10
-71
67
-103
-30
24
51
20
26
-114
-122
-97
-2
-122
-8
-51
-127
-78
56
-101
47
-56
33
-3
-11
108
-98
-81
63
21
-126
78
-2
8
34
35
95
3
1
126
22
-65
-49
22
-110
120
-79
77
14
-33
110
115
-91
102
74
19
55
-8
0
-36
-64
-89
-109
72
80
44
-66
76
-12
101
-61
24
-53
76
-1
8
-41
60
6
-45
-128
-125
58
-13
-14
28
-18
-6
57
-71
-106
-72
-11
-37
15
48
-50
116
-102
-9
-115
71
120
-86
-121
69
84
-71
-112
-100
-88
-23
75
-27
-106
75
-98
-48
-112
69
-105
-11
-25
74
-17
-93
-97
-32
26
15
84
-44
-85
-62
78
110
-30
-40
49
-66
-117
4
-119
75
57
-13
-101
45
-9
66
112
105
23
-3
7
-24
-103
35
-62
-88
-70
-98
-82
24
29
33
50
-114
-9
-95
69
-79
93
9
29
-2
-96
-62
17
-5
-16
102
26
65
70
2
-68
-19
38
-113
-5
-96
-120
-57
115
37
38
-19
40
85
-44
-106
37
-96
-53
-18
90
39
80
124
54
-54
-115
35
2
-44
111
94
-6
111
64
-18
107
105
-4
60
75
-126
108
50
-107
4
40
-50
71
-26
25
104
17
42
95
28
62
-115
56
-62
56
-100
-68
76
-43
114
45
-55
-105
67
91
108
-58
-66
60
47
-39
-69
-20
29
75
61
-96
42
6
74
-53
38
53
-57
-11
-72
-81
-100
1
-9
-44
-73
47
31
59
-91
120
64
37
-122
-39
-27
73
21
-82
4
-85
-124
29
-40
-115
68
-118
-106
-63
-62
51
24
-122
53
0
29
-78
-105
-48
45
120
11
-123
107
41
-14
-119
-102
98
19
32
122
26
-47
61
107
-79
85
16
108
87
-69
-15
18
61
63
73
3
70
87
-104
-11
34
-31
-21
-94
-18
-118
-9
-50
-75
0
-125
111
26
84
12
94
-66
-87
-106
-49
117
-122
-111
-79
-3
-9
2
57
-83
62
7
71
36
86
-86
-32
98
33
126
63
29
79
75
-84
-64
-32
16
91
-45
-84
40
30
92
10
42
-64
-92
-13
96
29
9
0
-18
102
-50
-81
-18
-37
-20
-107
99
-35
31
72
118
27
4
85
3
-25
-7
-75
-17
102
69
6
-43
-115
88
-73
19
92
25
67
38
94
35
94
119
-27
36
-88
2
34
-106
31
-1
-17
28
-42
47
81
-30
44
97
66
-12
88
87
19
-95
-52
77
109
-39
56
51
-37
120
-49
-81
58
1
-59
66
-111
105
60
112
-30
-70
70
89
-50
-45
109
-62
1
98
5
124
45
-94
-126
32
-118
-101
-69
-62
-58
70
-111
64
-106
-108
125
87
66
124
-16
-16
-83
11
-3
-101
-80
-15
-36
40
91
-97
-7
-77
-1
48
11
80
-79
23
40
-79
-10
-72
82
-126
110
-125
-3
99
-47
7
-90
38
33
68
123
-59
98
44
21
-83
108
20
74
-13
-61
-117
-89
62
37
-36
73
-16
89
-99
-98
-120
117
77
112
-122
20
-13
-105
-55
-105
-71
-47
-112
45
-61
-84
96
-127
108
-6
39
39
0
-95
89
-74
-17
-122
66
77
-27
-57
111
54
123
-20
62
-25
-8
-53
85
27
5
-98
48
-61
100
-15
65
-49
91
107
3
29
-91
104
83
83
124
72
-3
36
2
-53
37
-27
-54
68
-37
-6
-51
100
-21
116
9
-35
-39
46
-72
32
30
-14
29
-61
-69
4
-20
-128
74
-84
-9
-22
85
-127
-27
-10
81
25
64
14
-101
-29
-25
39
-108
-13
60
95
-61
115
-59
126
33
6
9
64
-111
-112
-77
-113
-26
95
-14
75
16
67
-6
56
-100
-99
-89
21
-72
111
27
-123
-94
-46
42
-2
111
-17
123
-45
-128
-96
-18
-79
33
39
-36
-24
-49
92
53
61
-104
77
-18
-18
-13
69
92
-64
-3
-84
69
-122
81
-41
-43
26
20
-111
-51
-103
-104
36
51
-95
55
124
-123
-120
77
21
58
60
-13
-102
8
94
94
-14
84
-23
-48
6
57
69
-2
8
-113
82
-38
64
61
69
-6
-97
33
-89
-75
-58
-50
86
-74
18
1
5
-83
-26
105
12
49
31
2
14
122
14
33
-46
-47
-76
123
-127
-64
43
-61
90
-76
-8
-7
-75
41
-115
34
54
-97
100
120
-57
29
109
-93
-106
-100
-54
-98
-34
9
-35
-33
20
25
99
1
90
101
40
-99
-2
11
-18
126
-52
-67
-32
-7
97
73
-101
-57
5
42
62
112
-3
-102
-100
115
103
79
-110
-25
48
-102
-30
107
-125
-23
-77
-95
-23
47
-78
-66
-47
6
27
-55
-9
-4
63
104
34
-94
-100
-77
93
19
-101
105
-85
-75
74
-74
86
90
-89
75
-22
8
-12
49
124
-93
-97
26
61
84
20
3
96
14
102
-71
-86
4
53
97
74
-61
73
-39
-91
11
-106
24
-25
63
11
-21
-24
-6
-72
-15
-97
-16
92
-82
-56
-56
-11
-13
51
11
57
81
59
-60
-77
73
-34
-128
-14
73
-39
56
-86
110
47
-101
78
-70
47
54
103
102
-108
9
25
112
107
-36
67
24
122
-55
-16
-122
116
-121
-67
-103
-104
-88
-84
-63
-14
125
1
-51
32
-74
35
93
43
29
57
-118
35
-60
109
-58
-97
-14
-117
-106
43
-78
111
-99
98
-22
-91
-27
1
62
-25
29
-102
11
35
112
-21
56
120
-5
-47
-16
-53
-54
102
-3
-104
-82
117
23
-51
-42
-51
41
-38
80
-55
-14
121
-97
99
74
125
-106
24
-45
21
-26
91
74
94
71
-80
-86
-27
-17
-12
112
120
62
-56
44
-88
12
-45
-120
-68
-83
83
41
8
-82
101
97
50
-23
-75
32
-127
-121
13
40
-101
46
56
65
123
-48
-59
84
64
92
118
-40
122
-39
-1
-73
32
-69
-26
78
-60
36
-73
104
38
116
83
-117
-16
-78
-68
-112
5
-94
-75
51
47
-13
76
-120
68
86
-55
37
-1
91
9
0
78
65
3
-68
3
-89
-112
-43
-36
97
-33
-44
-56
41
54
0
-18
-16
100
-64
36
60
64
-37
-128
43
2
79
-18
40
-23
-64
-32
-43
88
4
25
64
-17
112
-41
-71
16
-40
106
-7
-70
-44
62
122
54
-125
103
90
-74
-70
14
29
-31
-33
54
-87
6
106
56
40
-111
-27
90
-68
-121
1
-45
96
118
-40
-70
-53
91
25
4
-74
46
-3
-6
85
95
10
95
37
62
44
-52
-122
101
-64
100
-42
-37
-89
-4
76
-105
-123
-26
-81
13
-16
108
-39
75
-110
-65
-23
121
-11
93
-45
66
-17
5
31
57
-124
32
-107
79
42
21
-60
-125
96
-94
126
60
29
40
81
112
-26
11
-72
115
-24
-24
-46
47
18
61
69
11
-97
-42
16
60
-12
-110
77
33
39
1
34
-36
71
-116
54
-11
0
-7
39
-117
-18
123
-59
-91
-94
120
-53
-64
87
-126
-90
-107
36
18
-36
-42
-5
-87
-101
31
72
103
-108
-66
111
76
-70
-3
-55
69
-121
-42
64
-54
64
-55
-58
-21
39
-110
-36
-60
-8
-1
-49
10
86
-125
95
-77
-87
-45
118
96
0
-48
32
120
-73
84
-30
-95
120
40
57
-96
91
115
-38
66
-104
26
-82
-49
-75
-29
-44
2
-106
45
-28
-84
28
119
-5
-72
125
-128
-66
-28
8
-51
18
78
123
-103
92
-92
-58
120
-8
34
110
0
93
-20
36
-62
-92
60
-14
-127
44
-40
-21
-3
-27
-61
17
-2
114
67
-80
-115
27
-20
-91
63
103
-93
-48
-86
-36
106
79
-43
49
-10
-10
81
-36
95
-96
-71
-7
-4
-95
-51
9
-54
-87
-46
109
-3
57
-86
-83
-51
-38
-41
-52
51
-1
-49
4
-104
96
31
-82
90
-43
105
118
-17
-17
38
-31
5
109
-81
62
-44
81
122
-69
-37
17
75
6
126
-118
57
-82
-23
-17
58
86
-65
-2
-89
-59
114
99
-55
-12
114
-63
36
70
-112
-119
-127
-5
-17
-108
109
65
38
-89
-88
-14
-10
-23
-109
59
68
41
-41
82
121
111
-89
-3
-120
81
-1
27
-7
6
-73
31
-24
-37
-101
-96
60
33
-102
-114
28
-44
107
-65
-123
64
-48
45
16
-14
-20
-91
62
72
-127
56
-11
-66
75
-128
-103
8
-37
118
123
-43
-114
50
52
73
-79
101
-100
65
-95
-53
17
50
-4
-41
-91
76
-49
-11
-27
64
-26
117
-24
104
-93
-31
112
52
-19
104
-77
-60
15
-125
-99
-57
-9
-84
-35
-85
-33
-65
-46
-7
-74
7
-42
-40
126
-97
43
-24
-1
-96
-108
-12
71
-49
-103
108
55
26
100
-86
-30
-4
125
86
6
29
-54
-49
72
-100
100
22
-109
24
-100
80
96
38
63
9
-72
-76
-13
72
-54
107
85
-85
117
85
39
-60
60
-10
-102
0
-13
60
30
75
-126
-74
73
-121
99
28
-66
126
73
5
-66
-76
99
-67
48
-120
-70
-107
-44
110
-67
71
-63
77
73
-33
54
41
-41
44
106
108
-63
11
-6
-70
-122
73
-91
-96
115
79
-100
17
91
4
-24
109
56
-5
-98
36
10
111
104
72
14
93
104
92
-101
-72
-12
43
-2
68
-105
5
82
-47
99
18
83
111
-114
-22
-4
64
-105
57
13
-37
85
86
38
-21
-117
115
97
-38
100
-86
-80
-57
-110
-70
-6
-58
107
-128
14
-45
55
106
-91
-6
107
6
107
-19
-5
118
0
-14
-21
-39
73
-84
41
45
-128
-20
50
-40
-1
82
38
115
-98
59
-112
42
102
96
-116
17
-4
123
63
-12
124
65
81
-13
-68
-49
83
-19
20
-8
-10
-50
-20
14
108
-103
-89
-107
-26
-83
113
88
12
73
-123
7
-121
-70
54
124
-84
25
-70
-40
-44
-64
-124
37
-93
-107
117
-38
-51
17
5
51
-35
77
-128
4
95
-82
-14
62
58
-103
103
-14
-60
-121
1
18
-10
81
67
-117
55
44
84
-108
4
-78
121
-109
84
-59
-48
109
119
26
93
-59
-67
-35
7
8
50
-109
37
-71
15
-11
63
77
78
29
77
-117
15
30
-101
-78
-39
39
-6
-84
126
74
117
-18
-62
-74
-28
39
-107
29
-119
69
-83
-75
58
49
-59
107
93
-25
-12
-19
57
-80
-72
94
82
6
87
-2
121
-5
-10
-43
75
-103
-125
28
119
-127
-85
66
-107
125
-40
54
-126
102
-34
5
83
-36
31
92
101
-29
95
-117
57
4
-76
73
-1
7
-6
75
46
-92
-46
97
-53
46
-65
-31
125
-58
-121
-71
107
9
-7
-4
-62
-9
47
97
98
-21
48
-39
93
-113
18
91
-34
-46
-109
77
74
98
-87
6
-61
92
95
14
-124
33
87
-128
-10
66
-102
-71
-50
-68
-100
-34
-80
-128
73
88
-110
48
-109
97
-105
-114
-83
-93
-39
124
117
19
-89
-49
-45
-35
45
-41
81
14
110
-111
36
-18
-69
-61
-19
-23
-7
126
-78
38
88
109
-62
-86
1
-80
-84
-102
94
-18
-76
-114
2
-38
-40
-59
45
-25
-63
-57
33
38
94
-24
-59
-120
-1
-105
28
74
-32
-102
-4
92
-71
97
71
11
91
68
-54
-95
78
59
81
-110
-106
-80
80
-75
22
-24
-7
44
-34
125
-100
95
-28
44
-100
-75
67
13
83
-53
98
-28
-71
7
-29
101
-96
-15
91
22
-83
90
79
-28
-77
78
-25
31
85
-25
34
103
-99
55
30
2
103
-36
-109
-22
-92
82
47
-49
7
-121
99
-64
47
-81
-50
20
-27
-27
-93
-115
-124
119
-17
72
95
-84
-44
-30
36
-79
-62
-60
48
115
85
-17
-42
-92
-21
-105
-107
-65
37
-62
87
117
-46
22
-99
61
-108
18
35
30
34
-39
96
46
40
46
-97
-100
33
-68
-106
50
1
79
68
114
109
-17
11
-39
-104
-77
-92
-92
1
97
-107
-84
68
31
-39
-128
-18
-114
80
117
-16
-49
71
115
42
-75
47
-50
-6
95
118
119
3
117
-111
-120
-27
-73
100
39
78
101
113
-36
-45
119
-10
45
87
-31
-89
-22
24
-73
-63
34
-73
88
3
-20
125
37
-99
-91
-110
-94
85
-99
85
126
63
-79
0
-80
9
-71
-110
94
-77
-127
-23
-74
15
89
-32
-74
54
-112
-118
126
-5
-35
81
43
-9
-75
-106
6
29
8
101
-116
-8
-127
-16
-107
71
-16
-48
42
109
-69
-77
77
57
62
-107
119
-94
-31
-89
71
-94
-25
64
119
-109
-45
73
-42
-46
-116
103
56
48
-86
113
101
41
-32
-26
-23
-67
0
1
-55
52
126
-79
19
-12
-69
-79
-122
-84
-59
-1
48
-101
41
-82
-6
-93
-2
125
42
81
106
43
-83
46
16
-88
-19
-14
98
23
38
-64
9
45
-56
82
-51
10
70
-1
-93
23
42
-82
-41
-50
-8
42
19
-99
42
-88
-53
11
-76
-41
-85
38
88
37
-121
-79
-118
23
-25
18
-106
-108
67
-12
105
14
87
6
40
-109
-74
-128
93
-33
-83
-39
118
72
-34
-31
-65
-123
46
-19
-30
45
41
2
10
77
-75
-12
69
-73
-85
-25
-70
-57
-73
92
-112
43
103
-97
48
-102
11
22
-10
-22
57
-27
89
34
-36
-61
-14
29
-91
-26
-3
-37
103
-80
60
62
15
-95
41
84
81
-79
-67
56
81
-119
-99
-85
59
-119
-107
-3
13
-116
-96
-2
-92
7
22
-65
-57
105
-101
-28
-47
-20
86
48
72
59
-14
-73
102
-9
117
119
72
-9
-72
36
56
110
-59
30
-14
-38
-126
94
-44
-8
-4
-47
72
57
94
42
-105
-84
69
-123
63
-123
31
107
-80
-107
71
30
-72
121
-31
-96
-31
111
46
75
-24
-124
-39
93
107
10
11
13
-95
74
90
-5
55
-128
4
-53
33
-19
51
64
117
39
46
-7
-37
56
-66
67
-100
-107
30
114
-73
3
-10
67
-91
119
-14
-17
107
-32
94
-63
38
-71
36
16
-89
54
27
-51
-36
-39
50
-79
-42
93
22
-11
-28
-102
17
-56
-80
85
-64
-44
101
95
11
66
-110
56
-50
-107
-11
15
-68
-103
86
-87
-98
58
2
-107
-43
-61
-46
125
13
-3
-97
-43
44
-84
52
-100
33
-2
-91
120
-107
-71
34
39
9
-48
-28
-28
13
-23
75
29
-87
16
71
109
-45
68
67
-79
125
-101
83
-19
-97
-125
84
94
121
-35
63
-128
9
124
-119
-26
-1
29
78
100
16
-31
-48
-111
-24
-108
63
41
-90
-122
18
-17
-53
35
-79
36
40
46
76
-55
107
-119
-78
98
75
-51
-64
-51
-1
-16
-1
-123
-109
108
-52
53
29
-45
-75
126
0
-98
40
-96
-61
-104
-113
89
112
99
108
-73
-3
24
47
23
121
-54
77
-119
113
-8
2
-126
-92
118
-35
7
-118
124
17
110
21
76
3
-46
-45
-56
28
53
32
-48
63
-87
0
48
125
125
-121
-9
117
-27
25
-72
77
-61
26
-57
49
-102
80
74
9
46
39
87
-88
-106
-47
22
67
71
-102
-73
114
-58
-64
-67
47
119
-26
-100
-2
-33
82
116
73
15
118
42
43
9
-36
-112
-123
-121
53
-46
36
-18
1
97
-52
9
37
-62
70
-102
-114
72
43
-94
-108
-5
92
-45
83
-58
29
-70
80
53
-10
33
-20
-49
41
-92
-35
-99
6
-16
53
29
-52
-99
97
75
-25
19
38
-114
-107
64
-38
44
37
-94
116
-7
-54
-107
-110
-22
-91
-113
-27
40
66
-91
110
-51
5
99
33
88
-15
61
60
-79
-64
-13
-58
-54
-42
30
-55
-91
-55
77
-91
-13
70
76
-107
-78
-52
-100
-80
36
122
121
40
24
-120
-26
32
97
14
114
-120
-95
117
117
96
-60
-126
113
-119
33
-79
89
-25
-100
112
109
-13
-56
-110
109
68
-116
-49
-110
95
-1
-33
15
113
-16
119
31
-52
6
30
48
-3
-120
-84
13
86
-1
59
104
84
-6
105
17
-122
-40
-108
-119
56
93
48
-127
42
-55
-30
74
120
20
96
-10
74
117
-63
-54
-49
-67
-49
-32
-68
56
-93
13
-90
45
-121
-71
-2
13
-33
5
-121
-45
106
-18
-59
86
-52
-126
67
84
-28
-122
2
-5
84
-79
36
20
125
-73
-35
87
-120
-66
89
-32
15
-46
-15
-100
-35
79
-106
-93
-42
12
-55
46
43
100
16
-102
18
7
120
-76
105
-13
-24
-128
-20
-79
50
-3
28
27
6
-11
64
87
2
-31
-11
-100
-9
112
15
-76
54
-5
71
115
-28
24
-123
43
-116
-29
123
-127
36
-71
69
-121
122
-1
-27
69
-121
-85
122
-110
-32
112
67
-90
-89
-80
-60
-103
11
85
14
58
66
87
-17
119
65
-24
30
-21
1
-57
83
2
44
-21
-49
124
72
99
94
-126
98
-3
57
6
37
77
-1
-57
7
44
-86
118
86
107
-111
77
9
-8
85
36
54
-105
17
-4
-107
-62
6
-39
-77
35
-13
-111
-7
-11
-94
-79
3
51
-2
39
-38
122
-104
-108
-106
26
-114
-95
-14
24
26
-95
-93
-69
-48
101
88
117
-103
15
-2
117
120
-72
77
-15
-12
48
-78
-37
52
-122
-76
36
97
-111
123
-31
75
-54
125
65
-17
-90
-84
77
77
89
35
-97
109
-103
-20
4
-90
-7
19
-120
0
-111
125
-114
8
39
-96
32
-115
93
-5
-19
-84
-71
-30
-111
57
62
-78
-10
-38
10
51
29
44
-21
117
117
0
-84
-70
-122
-46
96
95
-7
69
76
25
-43
106
35
-76
110
-7
66
-114
-92
115
-83
-7
74
22
24
-59
-37
60
66
82
-44
-120
-21
57
123
63
-104
-66
-94
101
110
-2
-70
-96
19
-32
75
81
56
49
-26
104
74
33
-1
35
12
-108
89
-37
-96
-10
30
-6
85
53
17
-113
-116
88
-23
-123
10
12
91
63
77
124
77
8
-90
2
11
126
93
68
64
-70
54
50
70
95
83
34
-79
18
-106
-53
25
-73
-54
18
-13
-56
-113
-25
14
-100
118
-38
42
-88
-76
-45
-48
-57
16
14
-116
99
108
-64
24
125
87
43
-22
34
-106
81
15
14
91
13
-61
-123
94
94
-67
-72
107
78
99
25
16
77
21
-105
33
-90
72
84
44
84
-115
78
57
47
98
70
106
86
-24
97
-75
-87
121
-51
107
-33
-49
-89
66
-118
117
10
122
-18
56
-49
29
116
-44
9
8
-108
115
-119
25
26
85
-86
-63
-64
29
67
30
-42
17
27
104
-4
104
-57
-56
-93
-97
79
-70
-75
-45
-99
94
57
62
-7
49
59
-102
67
-90
63
-91
39
92
118
-65
-82
66
-108
59
118
110
67
-109
55
90
-110
34
72
-13
76
35
-39
-4
38
-49
-99
-105
-34
-91
-118
25
-5
-97
-115
-13
65
118
103
-54
101
-81
-7
62
-101
-107
-68
105
31
-77
-16
-60
-14
34
93
117
120
-25
38
-125
103
-27
93
125
-14
-57
109
-111
92
-89
-88
19
-116
69
63
-123
67
-123
96
78
-47
91
-116
122
-47
-98
126
86
-126
10
115
-44
-89
85
-39
-98
-70
-5
103
-105
3
-127
0
102
-120
-33
-13
-66
1
37
114
-28
23
76
-33
78
-12
-73
-121
88
-120
-78
-82
45
112
-13
-80
5
86
-1
-85
-50
-102
8
-91
37
111
-48
80
21
-71
-19
-62
43
-11
79
-16
29
-37
99
-113
5
50
69
-107
119
82
115
97
-81
60
44
-67
41
49
-103
123
62
74
-95
-128
90
113
-121
-104
-58
-4
99
6
-31
-95
-124
103
109
65
-1
-5
63
43
-34
-18
55
102
-121
-90
12
-106
48
15
24
13
-23
-113
-21
21
-59
-127
-29
9
99
5
14
-113
62
110
99
-73
-40
-11
-86
65
-11
-110
-59
-14
7
55
-38
41
-33
83
-16
109
3
-93
-105
93
37
-34
-26
33
-88
13
68
76
-37
-55
69
89
84
-57
-31
23
-4
-95
1
63
79
-41
-105
94
-47
-70
72
44
47
-6
64
24
111
29
2
-105
70
123
11
-99
65
89
-49
71
-92
-72
-107
2
-84
22
121
-105
37
-94
-23
-41
81
121
-7
-93
-122
32
-39
-22
116
-56
-16
-77
-102
20
-109
-19
118
-124
-49
-32
21
-23
-106
41
-90
-69
-64
-22
64
-54
53
120
-4
-106
-98
-19
-34
48
-40
-94
124
-105
-9
14
48
91
36
75
44
78
23
11
-48
-29
92
125
-14
87
52
116
-38
11
-59
-63
-116
124
-16
99
56
-80
-52
46
-2
58
-74
95
121
-108
-61
-112
110
-11
-46
83
-87
-111
-38
99
-39
49
-110
15
-116
75
79
71
-71
-110
-10
-107
77
-2
-90
-76
-58
-65
-82
-103
99
-93
-38
2
-65
122
-70
114
76
106
-38
-16
22
-48
79
-109
43
-28
-27
3
14
24
68
-48
-84
-13
-54
89
-85
-68
73
-51
-24
13
27
-90
-4
-25
-101
9
71
-44
-30
12
-97
-105
40
125
-29
-50
-127
-104
-66
113
31
107
89
-84
-77
-76
-41
-35
-19
-96
36
-91
69
42
-74
-92
-75
39
57
-116
-85
33
17
7
21
-100
-12
-53
-18
-19
-84
67
-66
5
125
0
115
35
-70
116
123
10
81
10
-43
55
-59
44
46
-110
42
11
47
-123
-60
-63
-75
61
-95
112
79
110
27
99
119
27
-117
18
-60
15
-57
-27
79
-71
46
98
-104
-27
67
84
95
51
100
119
115
-76
34
-126
-18
124
85
106
66
-39
9
62
-37
117
91
-74
125
46
4
91
73
31
-90
48
-63
-74
-90
45
85
64
88
28
6
68
-103
67
-79
79
-75
-36
97
3
-122
-68
45
-86
-117
78
-105
-11
-77
-38
79
-105
-65
106
39
-115
77
-34
-29
120
43
-28
-103
-97
-74
23
-111
73
-62
-80
-92
-17
4
41
121
-72
75
-72
-72
79
-85
56
-109
17
27
-88
88
-88
-91
-95
20
-115
98
-67
118
5
-104
8
52
22
83
-10
-69
47
21
-20
76
54
-63
-75
18
45
119
57
-3
4
27
-34
-78
-119
112
-77
123
-11
-33
108
37
-29
84
-58
-69
-116
46
42
62
66
40
47
9
67
32
-24
-33
-19
90
25
-7
101
3
-11
122
12
73
-37
-104
100
-123
-34
-56
39
-96
63
31
18
96
9
-52
21
-106
39
-91
124
71
68
-124
40
55
92
85
45
-92
27
13
-65
16
98
111
0
6
-107
-28
-91
92
-89
86
89
-64
113
-21
1
-91
104
-64
56
-2
-6
-26
-63
44
14
105
-51
-83
109
-112
70
84
-12
88
102
-32
-114
76
3
124
-124
120
51
51
79
-97
-61
-41
120
-3
-58
22
-34
-22
-7
29
95
42
-97
-100
-28
77
88
111
40
117
48
100
43
38
-52
-121
-111
14
52
17
-94
-8
-109
-102
83
-82
64
-19
19
15
53
74
-127
-120
99
92
-30
-67
84
16
35
-114
32
-27
-61
-117
-71
35
-38
-59
-27
40
-1
13
4
-19
-127
82
1
-1
87
25
3
114
123
12
123
50
-27
-92
12
56
-63
109
5
6
79
-71
113
62
-92
-4
-56
100
79
-54
105
18
-82
37
-124
-80
50
-105
24
62
-32
-110
52
-46
-58
-106
-66
59
92
-68
13
-34
55
-20
91
29
-18
19
46
79
-50
-126
46
-16
85
-113
-60
12
-86
122
25
-18
11
126
12
39
43
84
121
18
-7
36
-55
16
-55
7
-104
28
70
-52
76
-110
-87
-97
-39
68
-122
115
-91
5
126
120
78
88
-60
47
-15
-89
29
-85
114
-113
5
-64
-16
-66
96
26
26
-7
7
-62
-86
122
4
-27
126
93
-68
22
102
44
-80
-66
6
112
110
9
55
-99
-16
19
84
88
-128
38
86
120
31
64
-119
-102
-96
-17
43
90
-10
-12
89
94
30
31
13
111
-94
77
46
32
98
13
-105
20
-93
-120
83
23
-80
23
-107
56
116
50
105
-54
-68
-113
59
120
-73
-121
59
-73
5
4
-3
-90
-107
0
-44
37
0
31
18
-87
-75
-26
79
123
124
95
38
85
17
-114
-67
-75
85
113
122
80
-100
70
-34
-49
36
-40
-83
-118
81
-8
-99
-76
99
-80
-119
-50
95
33
43
-1
8
67
-26
55
65
123
-38
-50
32
-103
5
-33
-79
-64
-5
60
24
70
103
-90
55
44
45
-60
-2
113
100
23
103
-80
32
-128
62
-34
59
55
1
61
39
13
-69
-128
88
-100
73
-6
-109
-113
56
35
0
6
-106
113
-123
-68
-19
-9
-116
-119
112
-17
-48
-76
117
-52
0
-118
-2
-112
-90
-77
72
-35
115
-112
39
-79
-72
-28
-121
76
-115
-59
-98
-107
53
-71
-45
-37
-109
-119
-127
-4
-113
47
5
-125
-113
-22
125
-86
118
-6
-73
60
-58
106
-6
-105
-61
-94
-120
-53
48
-67
63
36
90
-77
-32
-80
88
-58
54
83
-40
105
37
-41
121
44
3
0
-44
115
79
-62
-56
-45
67
-102
-104
-91
83
15
-5
-106
77
84
103
-27
1
-63
27
-26
-94
55
36
120
109
59
40
-8
-84
35
97
2
-87
-14
118
97
81
-70
11
-37
-101
125
124
72
-74
68
-51
1
113
59
103
17
-43
35
68
-102
36
-122
74
-25
57
-7
-82
-15
36
-126
21
-86
72
91
105
-64
1
-71
38
7
-66
86
-22
109
-10
-107
89
-10
9
2
-34
-111
-59
76
-64
126
-24
102
35
25
-58
58
10
-4
-25
103
-84
-34
-72
-84
-83
-107
6
5
-72
-93
98
-63
-68
11
98
-124
-93
73
-8
-90
-53
29
79
-25
-11
-77
-124
-108
26
-90
-123
55
34
57
-34
65
-85
-100
-55
21
-4
-36
-105
-124
110
97
91
-111
56
6
82
21
17
-119
-107
-52
100
-124
115
118
53
97
27
19
46
84
-12
-88
61
-86
109
124
-45
-36
-96
68
-117
113
21
70
64
-41
-31
-109
93
-88
-3
-120
-115
-66
-56
125
30
-45
-1
-92
-122
123
14
105
-88
-64
-82
106
16
99
45
27
-76
-34
-128
-117
76
-43
69
-18
-122
-124
14
16
94
-35
98
-60
92
-127
-123
103
56
-77
-78
67
43
124
125
84
-97
16
-14
-116
113
126
-111
10
53
81
102
-76
115
-53
78
-6
19
-73
113
57
-114
-70
76
5
-53
-95
43
-56
-107
2
44
-86
-44
-64
56
-71
117
-71
46
-123
-8
-6
-35
64
21
107
-58
42
-125
123
-89
-29
-103
-71
84
-36
33
57
86
-41
-16
67
-2
-94
42
62
-38
-35
-39
-57
63
-54
83
-32
79
-20
-56
-128
-94
-22
58
-117
11
101
-27
103
40
-123
-52
-96
2
35
56
88
52
-70
17
-54
-1
52
46
77
67
73
53
54
97
34
67
59
72
-42
-38
59
-54
107
-92
-118
-62
-20
85
-26
108
-51
-41
-47
51
-15
-14
-78
-81
-127
-113
108
27
-101
-110
59
-47
105
-45
48
-106
99
38
-25
-76
18
-96
30
-37
65
10
-49
75
-92
-47
67
-87
34
12
-15
16
68
11
18
-7
-82
-85
-54
-102
55
-70
-16
-33
-108
125
-50
-71
-53
-13
-35
-32
-106
40
106
60
-26
52
115
-6
38
84
-120
-79
52
-33
31
-81
115
-107
121
-6
-102
-84
16
-79
92
120
15
-4
97
-49
80
2
96
-91
-126
-55
-127
49
98
48
-4
49
-108
88
123
-77
86
62
-27
40
126
26
-61
63
-84
111
-26
-36
-29
92
22
-1
-70
-8
99
102
68
-89
30
-102
41
-87
-87
-109
-100
44
-108
-127
58
-93
45
-67
-119
-75
-128
114
81
-45
-52
43
40
-105
-50
-16
17
-54
98
122
112
-42
27
13
124
31
30
72
3
-49
100
-124
-49
70
108
-125
-122
19
74
35
-72
-37
-16
-23
-71
-13
-20
109
114
-2
-26
-86
35
-5
33
75
-57
-46
54
-8
-52
106
-20
-57
80
-45
-74
14
120
38
95
10
-3
42
-97
-1
-31
4
-59
55
-8
121
101
10
117
73
122
-49
-22
29
-98
-118
-91
-113
-97
-16
-124
34
11
-10
-33
109
-71
-43
-123
14
-20
-83
-28
34
18
49
42
-80
-44
106
-123
60
7
-22
73
-91
-52
-21
43
-125
96
15
56
7
-117
-61
-50
89
42
100
-114
-44
-33
6
-22
-70
118
125
-28
111
106
-105
1
-119
122
75
2
85
-95
-49
-88
68
-115
61
94
-103
98
-104
-121
18
-127
-95
-85
-31
-86
4
-123
0
8
-111
118
121
-128
-49
-88
90
-90
-31
-121
37
41
57
107
33
84
9
-59
106
-21
-24
-78
-72
31
-63
-92
-23
-78
104
62
74
96
11
-117
-8
-14
-101
40
-88
38
-16
78
97
-23
-103
27
25
33
9
-83
71
-113
38
-26
111
-36
109
12
32
-53
-103
-49
-22
70
37
-31
24
73
17
50
121
-100
45
64
91
-10
-30
60
56
-7
16
2
-2
90
-112
105
-14
-63
-2
66
4
-105
-123
-59
-42
-101
-37
-63
119
9
-42
88
-79
-77
24
72
120
17
-48
120
4
2
109
-113
102
10
60
91
-56
7
65
-7
-43
-48
-13
-77
-57
74
125
-2
-126
-127
-49
-94
-64
-48
29
42
101
47
33
-97
-104
103
23
-83
5
-87
-98
92
92
-71
87
-107
-87
99
-127
-22
-70
-81
-41
-116
48
63
67
-59
-125
-128
-123
-73
-125
102
-42
64
90
-59
40
-24
64
94
-44
5
-91
-3
-116
-46
-42
-64
80
45
-116
123
-11
-102
-102
30
-20
-62
-68
17
51
121
49
3
51
-76
-116
-50
13
109
-54
-2
-95
-55
80
-26
75
-112
43
-18
-79
73
-79
88
88
44
-31
58
35
64
-4
115
81
-23
-62
-109
-126
-34
-61
-26
7
60
29
3
-70
83
49
-13
51
91
22
-22
81
55
-105
-30
-117
-101
115
-3
-101
-94
-112
-75
-123
-20
-48
37
14
-115
115
46
-63
46
-22
25
67
-27
-28
124
116
-128
-45
23
-81
-119
-41
15
-91
-36
-92
12
110
122
81
-99
5
81
77
-109
66
-66
48
52
42
-78
-67
-26
56
-95
-111
64
-69
-52
33
90
32
-40
-126
64
30
66
-72
115
-106
-7
-33
42
39
-85
-42
98
27
23
-61
-125
-19
-109
117
11
15
-27
58
-90
-63
72
80
-69
-103
54
-41
122
-64
71
-128
-9
10
-97
61
-12
63
-22
-116
79
95
0
68
103
121
-8
-121
89
90
30
94
61
-99
115
-72
-116
103
-16
-7
-5
-128
-62
-123
-88
-29
-8
-96
-16
-1
48
-11
1
-11
-106
-109
-70
13
71
-64
13
41
-11
10
-2
-51
100
-120
-119
-6
-61
-113
-63
19
-7
22
-93
85
39
36
105
38
-64
-119
31
95
79
-77
79
-72
-49
-104
-79
91
115
-112
15
-40
105
114
-2
-40
-79
47
-79
76
-78
-94
-105
116
-57
-40
36
-46
8
-12
-63
-89
120
38
-112
-101
84
-52
109
59
-81
94
-40
104
-8
17
66
-64
-69
-36
115
-95
16
81
-14
-71
-108
56
46
-71
5
-81
48
-117
-115
-49
69
-66
104
-70
-6
-65
-26
-117
99
-12
-92
109
55
76
55
-63
-62
92
19
-90
101
30
42
107
103
19
11
78
83
-70
11
14
-70
10
-13
-95
-83
-97
-29
62
112
-111
70
84
112
-90
-102
89
-1
-23
116
111
-37
-62
-97
6
-77
-97
46
102
29
-120
-97
123
-49
-59
-69
81
125
-80
-22
89
-82
99
124
76
56
-5
108
-33
77
113
-36
24
-64
33
-113
-57
58
-87
-83
-25
-6
106
-110
111
-85
-115
114
19
-8
-75
-66
119
-38
57
14
54
-34
-93
-69
-6
-65
-53
-97
-62
-92
-63
119
110
-41
-69
61
120
55
79
22
3
72
-75
-40
109
-128
42
92
91
101
-88
-72
-24
-102
-32
-4
-94
-22
-108
90
-18
100
18
46
-78
104
52
48
31
-125
111
123
-65
-49
88
26
-10
-51
62
-98
79
25
48
123
85
33
-66
88
-11
-101
-94
-56
-119
-103
114
70
85
79
-69
-97
-44
22
-121
-114
63
-57
35
53
78
125
-48
-26
108
-11
26
92
6
120
119
84
-128
-92
-24
-77
14
-31
115
100
114
76
-95
-25
72
-58
53
125
-16
-124
64
-67
6
38
-3
81
-48
87
-69
-24
96
32
-67
111
80
-96
118
109
-99
77
-17
106
-59
-51
17
-94
93
69
-40
104
-6
67
55
-69
17
-111
10
19
-44
-69
117
89
-45
2
-32
21
-100
6
-127
10
97
-69
-101
-67
120
-113
-35
-72
72
-99
-108
104
-108
-94
-52
60
38
92
-21
-50
62
106
122
37
-31
79
-59
-109
-6
9
111
114
110
-37
45
-66
-34
86
120
55
-94
39
-124
87
66
105
28
122
-103
57
-100
45
28
45
16
28
-57
-5
34
-31
-101
110
9
-64
66
-76
-86
-33
-100
-29
110
89
-96
-127
-62
-28
-48
-99
-62
22
26
-60
88
-15
42
95
-87
91
49
31
105
105
-7
33
-48
-75
10
-105
53
-90
36
51
69
-72
31
-15
-99
-21
-8
50
-30
-40
52
5
48
7
-119
108
-88
49
84
12
-113
60
-6
-106
118
-49
86
-11
-27
-23
66
86
-21
-25
106
56
-99
-127
-57
-82
100
-100
-102
-124
-95
-64
66
-87
27
-125
-80
120
-48
63
22
8
-1
34
-65
-113
80
123
-6
-106
-112
-22
-120
-120
41
92
55
-23
118
105
95
19
-62
67
-76
13
-45
114
-74
-34
101
-107
-128
46
118
52
-40
-47
15
79
48
8
-70
-83
24
-76
94
95
-89
34
-102
-62
-4
112
-1
-51
-34
24
53
30
-19
50
-96
106
-86
-119
-125
-60
70
72
-128
-25
48
-70
25
-11
-35
110
108
-101
111
-45
35
115
-74
24
-126
-95
47
-125
75
-103
-37
-44
-9
-36
-103
84
55
63
-9
65
-46
-76
122
-84
118
-5
-109
-88
104
101
-76
107
-40
-46
90
-101
1
44
113
89
-19
-115
-1
72
20
5
-64
-65
-47
19
31
-98
-115
31
-53
-23
92
81
111
-111
84
124
-126
-4
53
-109
-38
-110
80
81
22
-59
8
-16
-36
-121
-61
80
-79
-10
-52
31
36
-76
-10
85
-18
103
65
-56
-119
-31
19
24
90
113
54
-98
96
109
115
112
49
-59
-58
78
-112
54
56
67
2
73
39
53
-83
65
-55
98
-98
-102
12
-36
-71
-20
116
7
-127
-118
126
-126
-108
-118
122
0
-35
94
6
-124
-45
-39
100
83
-4
-29
-42
37
52
53
-11
-122
96
-111
61
-64
-70
82
-24
-37
-112
-119
64
69
93
38
-111
-55
125
119
-83
-112
111
-82
-3
56
97
-90
-47
-84
-11
117
66
92
-101
11
58
110
-35
-46
-18
117
-124
-85
-97
-66
-9
111
6
-76
-6
-26
-67
-73
30
-28
98
99
-90
-12
18
-30
58
-60
73
17
10
-92
-62
3
-41
126
27
9
-106
44
22
48
121
-49
-31
-111
-56
-124
-21
87
118
-42
38
-43
56
78
78
-7
-116
-119
106
5
-19
114
-97
35
106
-15
-27
23
122
102
-66
48
-128
-21
112
114
79
106
-13
-73
-112
-78
53
12
77
97
-98
62
101
-8
61
-55
-68
21
-105
106
-111
-120
-51
74
-49
-119
4
104
99
-77
-5
115
-42
-46
79
-39
121
-10
-60
71
29
-96
96
111
10
114
18
-43
-9
6
-81
47
-125
-8
-71
-91
30
125
89
125
-78
-127
3
126
119
-52
54
-83
-16
-35
-5
50
62
-24
62
-4
111
16
-123
34
13
-56
-88
1
102
111
-1
9
15
-80
-17
-41
-120
-17
84
1
-68
-123
87
-99
-124
-17
27
65
-80
23
96
19
-111
-90
97
8
88
-23
-122
51
120
-65
43
26
-111
-70
84
63
-14
-123
-1
64
6
-105
-6
-31
-26
58
105
31
104
56
-55
-50
-126
59
-94
119
-123
-88
-97
-117
97
-79
46
67
-63
18
17
42
-110
33
95
-28
-5
-41
55
-118
-102
104
40
3
15
17
64
-81
113
-50
117
24
-119
-29
-34
23
23
32
-43
-100
-15
-116
9
28
6
91
71
76
5
-76
-3
-128
106
-91
6
85
-77
-65
121
20
-14
-34
31
126
111
27
-108
31
59
15
-58
125
-114
-73
87
45
-46
48
42
62
79
-116
-87
-50
-101
36
104
110
-60
-104
80
121
55
49
32
0
-84
-55
65
30
-79
-72
-37
-86
-13
88
-15
-93
14
-51
2
57
-113
-3
-112
-104
27
25
-11
-23
-28
-24
-96
-44
33
83
-80
-88
-74
108
57
115
79
33
91
-6
-79
-107
3
-78
0
-115
56
-4
-117
33
-122
-43
72
-72
-106
64
22
-115
-94
117
74
-88
105
28
-28
115
-87
105
1
87
-80
117
101
31
-8
-124
-21
9
-51
-33
90
-88
39
-6
118
49
-76
-25
22
120
-17
-95
49
-73
118
-85
90
-114
87
-83
-123
6
-63
-109
-101
15
38
-127
85
-107
13
-32
-128
-55
-8
28
52
72
111
43
-82
69
-18
78
8
42
91
5
-39
74
43
82
17
-113
62
-99
-4
23
-64
4
126
74
21
76
-49
-90
121
-22
-61
25
93
-109
-74
-120
-51
24
64
33
75
-32
10
52
-62
-38
60
102
-53
-8
-14
72
-118
-88
115
16
-9
-95
-2
92
-82
85
26
-66
-15
86
117
-103
105
-34
-101
-87
124
12
20
-4
57
-66
75
-118
63
-66
23
3
109
-8
-55
121
-9
64
39
28
38
-111
11
-116
73
39
123
-50
-77
-31
53
5
99
100
-72
38
-75
18
30
45
40
-14
110
-40
-36
89
67
-23
-40
25
60
121
72
-44
-23
-83
57
-22
-125
-21
78
87
70
32
68
-37
95
26
-38
-93
-97
-97
119
2
119
77
-75
-63
-53
0
-110
92
55
-12
-118
-6
-55
112
-99
-94
-84
-13
109
-90
-58
-96
71
84
-14
-112
54
-40
44
-85
-121
74
35
-98
-50
6
21
122
122
108
65
-50
111
-67
-20
-90
53
-62
9
111
-83
-57
-26
39
49
-86
-54
-22
39
55
-107
-44
2
120
86
-87
95
-86
66
-9
-7
12
77
107
-82
-79
-58
101
-110
46
-118
-20
59
8
-113
66
35
-58
-1
-46
76
-30
27
27
79
80
-100
-7
-104
-50
91
-70
67
-18
-42
77
3
61
-117
91
82
-123
-44
-24
27
-13
-11
-116
13
-100
-102
-31
16
30
-14
26
-125
62
-66
95
-113
102
69
-92
2
2
22
-104
101
-18
51
-81
-48
71
120
-54
0
-84
-85
47
-119
-39
41
18
108
-124
18
-124
-105
-25
-72
-92
2
-40
35
-71
-43
65
-10
81
30
77
70
-120
106
-89
-97
-113
-118
86
48
38
74
-126
-117
-108
98
34
75
-81
-17
-94
-94
72
117
-85
-112
-5
-91
0
108
-61
118
81
126
-55
-47
116
-19
-21
-110
-125
56
89
38
43
42
-59
116
13
119
35
9
-3
1
-92
93
50
120
-105
-112
12
18
75
51
73
-110
81
50
-33
-77
-22
122
-24
-65
74
-128
-12
12
72
-11
71
-74
17
-4
108
81
89
38
80
40
-109
38
92
-82
0
-17
-12
50
-109
99
-90
-125
98
22
-77
64
-3
101
34
-64
-98
54
-52
37
-16
58
52
-19
43
37
-74
-100
-19
-77
82
-104
-49
-57
-76
-14
56
68
-78
112
81
102
114
33
-102
-86
-18
-36
-42
-25
19
-91
-117
119
103
-48
16
39
61
-93
-59
-56
-105
-60
15
113
123
6
-107
-72
62
15
111
-88
72
37
50
49
41
16
-18
99
-27
-127
42
36
-83
120
-50
-104
16
19
-19
124
-13
15
108
16
-86
46
95
-57
-111
-35
73
121
73
-86
39
50
-11
0
-119
105
-23
49
19
95
-123
121
-68
-73
-17
20
9
32
-92
65
84
-42
-91
41
39
61
-82
124
109
-22
89
-63
87
-121
-4
86
-45
41
-28
-41
2
-71
-128
-107
-64
-79
-21
-95
-33
-15
125
-104
91
-107
-63
-87
19
23
47
-32
97
94
2
3
-78
-122
-30
17
-59
27
-20
-121
102
-38
14
42
17
-51
118
-19
-121
95
-32
-16
-25
101
-42
-83
-40
103
52
108
115
-76
-27
-26
-24
55
-79
-89
-62
32
117
61
-65
125
88
-64
43
103
-31
104
-100
21
65
-36
-117
-93
-75
-57
30
-17
-119
83
21
19
-49
-23
-37
-48
-95
30
11
105
34
0
-87
-11
116
-78
-86
92
18
-98
-90
-7
104
-32
-113
122
100
-31
-36
81
-92
28
73
-115
71
33
-96
120
37
101
-11
2
-119
94
6
99
99
0
-51
-76
-63
-82
28
43
-47
57
-123
-23
54
-121
15
-17
-20
13
41
-38
-82
69
-96
-98
37
117
-120
-120
-64
-44
-91
115
-66
99
63
-119
52
13
-111
-27
-120
-4
-107
20
84
80
119
-98
-92
24
-100
88
-44
65
-89
113
70
54
81
66
-20
53
-114
-6
-92
103
-52
-74
96
25
-115
-84
59
93
53
-113
-97
-122
-124
-11
-70
-123
72
94
45
99
29
-100
67
-126
-74
-31
25
-3
27
94
125
120
88
100
39
-110
-44
9
-59
95
111
111
-66
23
-40
13
-127
-72
-28
38
85
9
94
115
38
79
16
-84
8
-98
-64
-93
46
-75
-29
105
-85
123
6
111
72
11
86
-7
-71
102
25
74
101
28
-63
35
107
-111
-54
11
-78
-80
-48
3
-37
-52
96
46
-56
-75
-48
13
97
64
28
-87
-80
73
-63
51
90
2
-17
-66
-43
15
-95
-1
34
-49
110
106
53
123
74
-108
10
80
52
-33
48
-89
-51
32
63
-104
-4
97
-69
59
-20
64
-74
-101
-115
10
98
70
-112
53
-85
-46
28
-22
-33
51
100
70
-29
-4
-12
-103
106
24
84
67
82
-77
20
102
96
52
-120
118
123
1
106
-98
52
84
110
83
9
117
15
-45
-81
-21
-42
-74
-61
29
116
123
-40
55
-22
-26
22
109
-91
115
108
64
99
-52
111
88
-41
-84
63
-116
58
56
74
-97
-46
49
24
-55
-119
-115
125
-87
7
-54
-101
45
6
87
-5
-27
5
107
43
-45
-125
-128
9
122
-47
-80
40
50
-121
24
-59
-29
62
107
-91
32
34
-52
13
111
-114
-40
-10
125
72
-59
-71
-124
4
-64
-59
48
-44
55
-105
-29
28
-47
36
17
69
77
-124
5
115
-96
-82
75
85
126
-14
-95
95
-3
78
-82
-62
-104
-16
-44
26
17
-61
-76
94
109
91
19
2
39
-15
-89
-52
69
75
53
118
-88
110
76
54
-101
-76
26
-119
-64
-122
4
-7
-80
75
-69
68
93
6
-8
33
-95
-60
-97
-14
-46
-55
-79
93
37
103
5
-21
19
43
-17
99
-27
-29
-74
81
69
56
58
22
13
-111
-53
110
54
-127
-78
62
2
-115
14
-78
-61
-128
-111
-95
-50
39
-32
-3
-63
26
-16
111
95
-118
8
-75
106
-77
106
34
80
-32
121
-24
58
68
-44
-50
-33
11
67
18
-114
-72
5
94
89
-16
14
-36
-118
-40
-117
-67
102
-30
0
-111
36
53
-78
13
-108
122
25
-112
-21
42
19
-82
-76
40
-57
-32
55
40
92
-65
111
-19
-106
-51
103
-63
-41
-28
-97
-111
77
-9
33
-40
120
24
81
-113
-23
44
-45
-57
73
37
-11
99
48
108
62
83
-4
70
18
-117
-63
9
-21
-42
82
-80
-67
-90
-42
3
-7
-32
-74
-89
62
-26
97
-61
-63
49
-124
-45
66
72
44
-46
120
-11
90
64
72
90
-117
-127
-46
122
-63
-119
-119
55
-24
62
17
-69
-44
60
-128
-53
-123
100
-113
-91
71
-28
105
-22
114
-38
63
-114
-63
-94
55
-87
92
73
86
26
-64
-110
-63
-118
-62
-93
75
113
-93
57
54
-22
81
-16
-1
-53
-79
-81
-99
70
-61
-70
-51
22
-5
-7
76
-116
87
119
-53
33
-71
-68
-120
-126
119
-59
-56
-50
-115
-78
40
23
81
39
6
97
75
50
107
92
90
114
77
13
-34
-10
109
118
109
-121
-17
88
48
106
-105
118
-59
115
-60
-89
-57
-2
20
55
-58
48
86
65
62
-25
-96
-85
99
-20
124
-58
-7
67
-89
38
104
112
-90
89
44
53
34
0
4
-32
-98
-83
25
-86
-3
-50
85
52
54
102
84
2
107
-58
-33
79
89
-105
-39
-75
124
100
-69
-91
113
68
-74
93
124
118
93
-46
-25
-61
81
20
121
37
-117
24
116
-23
44
-68
-6
-28
-73
-116
-2
-42
123
100
19
126
94
-7
32
50
20
113
105
106
-53
8
-6
83
-67
24
-109
-21
18
-12
110
120
79
71
-8
3
43
-71
44
-37
-78
-75
4
43
59
28
20
96
-81
-51
-96
8
90
39
-110
99
8
-75
82
122
-90
-128
56
-56
-45
40
4
-57
-30
-59
-49
74
-33
91
13
-61
-119
46
25
-105
-1
83
69
-87
-99
124
95
22
-102
-93
75
-97
108
27
65
41
-106
95
-17
108
-98
-106
-61
92
57
-104
-92
60
77
-23
-127
34
-14
-116
99
-49
-6
108
-119
-21
23
125
-58
-114
66
-33
-25
102
-28
42
0
7
86
-56
-9
-119
18
53
101
26
-53
-48
-23
23
77
-111
77
-113
-90
10
57
-113
-64
84
75
39
-124
4
-122
12
-44
63
-49
40
105
-73
87
85
91
99
115
56
-70
-47
-124
106
1
101
-14
34
-96
31
50
-72
4
77
-21
-32
-14
4
22
86
-102
4
-68
43
-76
-47
-95
46
120
44
98
13
101
-85
-54
86
-62
106
-24
-20
-25
104
-117
-55
107
33
-14
-73
84
-26
52
55
121
18
-93
74
71
42
-85
122
-24
-67
-27
39
33
26
42
-45
-118
88
-27
78
70
89
-114
119
-84
-54
104
-89
68
88
75
115
-26
-43
-49
92
126
-75
32
-97
27
-99
56
-67
97
-72
106
-66
76
-26
112
109
-78
64
-14
-83
-126
87
-68
105
94
-6
56
-106
-79
51
-55
-95
-117
-113
45
-100
8
2
42
101
-28
102
78
-24
-45
108
-63
29
-76
105
51
-41
-112
-33
-81
-28
25
-36
99
-59
77
-99
19
-74
78
35
-85
2
-123
-55
-104
22
43
-60
-22
7
48
95
-124
71
-70
-14
-106
-13
54
-88
-47
11
63
-125
-127
-56
15
-45
-121
-14
104
38
96
-76
69
26
72
106
103
75
-49
-42
-45
104
84
117
-55
10
43
83
99
-29
-41
-97
16
7
108
-26
-48
99
-96
89
12
-35
-28
-90
-82
-11
90
-42
-84
-67
120
92
-41
28
82
16
-36
106
-122
51
-63
41
93
102
-28
64
73
5
-91
9
-19
82
-53
57
-30
-68
-100
-115
-9
20
96
-115
-4
-116
101
109
16
-91
-101
27
-76
-75
-95
-121
-120
-94
-100
34
-107
-80
-88
-108
-39
46
-28
15
-110
-41
85
-84
-73
-30
-107
-70
104
-7
81
-35
102
-78
-92
-42
-127
113
90
-109
20
42
34
8
93
-40
13
29
-62
-84
124
-82
-42
3
-42
110
111
86
5
84
-52
69
85
-55
113
-13
-30
-105
-9
124
87
-68
13
-22
56
-19
119
-95
-31
48
-27
-22
34
3
-65
-80
-96
72
18
36
43
-63
-95
-13
-80
-14
112
-22
-23
42
101
77
49
-13
-10
-92
71
20
79
119
-56
-59
103
2
-62
-71
-65
22
-73
-49
-34
7
18
-36
70
89
-47
87
116
23
-86
-80
126
26
-110
9
70
65
121
-23
37
-105
47
69
41
-38
62
-14
17
0
-115
-73
57
79
117
98
-16
-112
35
-55
5
-45
-100
34
101
-96
50
-113
13
-115
103
-28
-10
100
48
84
11
-93
-29
-61
96
-113
27
74
-27
39
-124
-17
14
-81
-91
-75
-81
111
94
-73
-124
123
-126
60
102
1
108
50
69
-70
-56
82
-113
-115
-119
108
-72
52
3
-72
-128
-19
-120
-67
88
76
125
11
-126
-98
98
-13
101
-119
5
53
14
2
83
-104
82
-107
5
-104
-22
-35
-48
-2
-33
11
-87
-125
90
-75
-12
72
96
65
126
-113
1
-95
33
13
90
-49
-57
89
-44
-66
27
115
86
-103
-42
84
-35
8
-9
50
-52
98
67
-102
-104
-2
103
86
4
-61
-100
-53
123
-36
57
-103
50
-65
-6
-84
16
112
89
-74
57
-58
-35
-51
-31
-43
117
99
-59
-34
114
-113
-119
103
72
122
-5
-118
-86
57
-24
19
56
84
38
-94
16
8
-111
47
89
7
-74
76
96
-93
-22
-24
-62
125
5
-100
115
38
10
-41
-11
84
-111
30
-96
39
93
-65
46
70
-63
-26
-7
-73
-61
-126
-127
-120
121
-120
59
-14
47
111
-107
92
19
43
61
-72
-56
105
-36
-120
-69
81
-3
-53
110
113
54
-8
-34
-9
-51
18
69
44
10
28
-97
81
85
38
113
-103
123
29
-83
-95
19
76
45
12
-110
44
57
-68
-40
69
90
105
44
-54
-62
-127
-111
45
23
-91
-122
-115
-119
-105
50
-17
95
65
113
22
96
13
74
-128
-121
22
-47
-44
-49
-70
125
0
23
-27
-70
1
104
56
-83
1
29
39
-112
114
-4
-121
71
-115
40
5
40
-8
-51
107
-6
-20
-124
-20
-74
84
29
16
-110
110
18
-64
46
-92
-37
61
7
-11
114
-85
-95
34
58
-98
-100
103
-100
112
77
-121
-89
80
29
17
-64
-74
-113
-59
-38
-93
-101
117
22
66
-23
-56
61
36
74
42
-55
53
12
14
-40
-83
-15
-30
15
4
-82
-76
-48
-77
-5
-77
-127
109
-89
-113
-23
99
-123
31
26
-124
-125
43
119
-12
11
-73
-68
-79
-34
-104
76
112
-3
23
-11
-120
-77
33
-77
-96
10
10
-105
-1
117
-11
-126
-11
55
-62
-76
99
-111
-21
-112
-26
43
29
54
55
-10
-2
28
-37
-40
-100
119
71
69
-44
-89
16
86
121
74
1
-19
-75
12
-96
-76
-12
-20
41
-120
20
17
95
-66
49
72
-90
34
-76
-96
95
63
-20
95
18
-95
120
-114
53
-85
-83
-49
39
125
-120
-70
-126
123
-80
-37
33
114
3
24
31
-113
-22
36
-44
-74
-17
-42
118
76
68
-102
15
50
-17
66
-41
58
7
87
-63
-73
102
-90
-94
-121
96
-33
95
-33
-111
-110
-59
24
59
-87
0
93
-65
88
62
-43
5
-120
87
-17
-36
53
119
-98
1
-78
7
-57
76
66
-81
-23
-21
6
-93
-33
105
33
1
-127
31
-128
-82
87
-73
91
10
99
-106
108
113
73
-49
-69
85
-93
-69
7
54
2
-87
34
40
-14
109
73
-11
-42
-101
-3
-67
5
45
116
103
10
-11
-29
20
3
-117
30
-104
34
63
-23
-56
33
-99
104
69
125
9
-88
108
-106
38
53
-35
-120
88
58
116
81
-12
69
-45
-36
122
-100
-55
-33
-47
-58
-31
-35
-38
9
121
-31
58
-45
108
-56
124
-85
44
79
123
77
113
13
-93
17
-99
59
6
-113
-87
-72
-48
-64
29
53
-70
-62
-22
-20
-101
-74
9
-5
-14
-105
54
-122
-72
-102
-30
59
70
101
-34
-9
-58
106
-18
-38
-71
97
99
-128
35
96
-28
-15
-112
56
63
-85
7
79
-43
-21
-83
-27
-69
-16
-75
55
-37
37
-36
-33
-89
32
-126
19
-10
74
70
94
-85
36
70
86
65
2
-21
-34
-61
-61
-73
-17
20
-110
3
-8
117
43
-40
-95
15
101
18
-90
75
-116
93
-118
39
108
-31
-16
84
-33
-55
54
64
-82
-71
-97
13
-20
-52
-119
-15
45
48
-46
40
81
-16
84
-7
-95
-45
-23
-19
-80
51
-94
117
39
-32
-84
16
-63
-89
-95
-88
-20
-13
-38
61
40
11
-99
-22
-77
60
-110
-25
118
-50
-110
-120
62
58
7
-110
-45
-90
-62
57
-45
-109
68
-64
-75
93
-71
99
42
91
49
82
-68
-62
-118
10
-34
-11
122
-87
-94
35
111
51
-74
63
66
104
-64
16
-128
21
31
-93
74
-63
59
-7
36
108
-67
107
-76
74
54
-14
-30
71
-24
-120
-121
-6
13
-111
-88
-3
104
-2
-118
92
55
-12
-52
2
-63
-60
91
85
-35
3
110
87
-119
4
-27
-56
92
77
-32
-110
30
116
118
107
-107
43
-91
-42
122
-77
-24
-102
20
92
67
108
25
-90
-119
14
61
82
-123
-42
72
-16
-37
104
17
-117
122
119
-1
-112
-92
-73
-84
-74
74
-79
94
-72
16
-74
-100
78
-67
-13
55
43
71
-64
-67
-21
-92
65
-117
-107
-8
-103
-94
-125
54
-110
-100
-27
-113
-5
-79
-84
-51
40
68
-81
-116
-89
88
-73
-95
-66
23
16
-14
13
68
-59
-28
-72
121
65
-10
53
91
-116
48
-91
24
36
107
20
-66
70
-90
90
98
64
86
-40
-89
106
-6
79
-101
85
53
-76
111
-103
103
54
-54
126
64
55
-72
25
56
-79
-99
120
-73
124
25
-22
123
2
-74
-124
71
75
-9
11
49
-83
6
-98
111
-97
-7
-114
-24
29
-10
30
47
-82
35
-102
66
35
-52
0
111
124
95
61
47
-22
-65
-66
1
4
52
45
29
-62
30
38
98
25
-123
-84
-12
-41
32
35
16
-96
-128
-52
-58
-88
15
73
121
59
38
126
105
67
-20
-20
-32
-68
18
-50
21
106
105
-58
-96
64
-82
-10
-1
111
-40
-49
-6
-33
112
-34
28
32
123
-114
28
-27
1
-101
-100
111
-25
33
47
-42
-9
-55
-27
5
5
-116
99
32
72
-19
2
75
-113
-82
-49
23
-126
-35
-116
121
-120
17
-102
79
-52
-25
114
96
-73
20
14
26
-114
37
-40
-1
72
42
23
124
-40
109
-7
15
44
-84
17
-68
68
92
53
85
-68
-84
20
-81
35
16
124
-8
-12
63
87
-34
-3
93
-4
-31
94
-100
24
21
-102
-6
115
-52
-77
-39
-94
25
-111
23
99
3
102
-57
53
43
104
-35
114
-93
48
-61
46
-59
-60
125
-15
-118
-101
44
119
-25
110
46
70
12
67
-30
-122
-126
98
-29
-5
97
-91
33
-107
7
-1
-99
-90
-38
-65
-58
-101
51
61
-124
-111
69
-8
-114
-80
-77
56
29
-94
-70
104
-66
21
99
-67
-98
-2
33
-118
37
12
-100
74
37
-125
-7
125
-100
-119
-86
-38
-52
-107
38
13
-107
18
88
-6
113
64
-45
15
64
125
-121
99
-55
-40
105
58
-68
-2
81
122
41
12
-37
-72
55
-47
83
-34
54
-103
-40
53
85
-51
-123
13
73
83
92
22
75
64
-75
-116
-83
98
100
101
-114
2
-83
-8
-123
101
-23
-48
-24
121
85
124
69
29
122
-13
23
41
48
-119
-94
124
123
-122
52
-17
111
-8
76
96
10
126
-94
-63
0
-3
-102
116
-33
94
34
-20
99
-118
-35
88
-118
-82
12
76
-71
-127
-76
-127
80
-116
116
80
113
-112
51
6
-2
-87
37
-60
-42
18
-61
-58
12
92
-8
-10
34
25
-31
-40
35
38
-43
-75
-24
-67
59
-31
20
50
47
71
-19
-95
-10
-16
-51
-73
0
49
71
-106
60
8
-108
-127
-3
-102
-75
60
87
-62
54
-43
77
32
4
35
37
-8
123
99
-71
-55
75
-102
43
64
-36
106
1
-97
-58
26
10
106
37
-85
-48
118
-35
-107
98
-72
125
59
-28
97
-42
83
-32
31
-97
-102
12
-15
126
-82
13
2
98
-24
29
32
124
75
-84
-31
29
118
-113
12
-29
63
-94
-61
-88
74
71
77
-71
32
32
82
-113
-42
-99
-24
-44
91
-78
77
-68
74
-20
30
-103
-88
60
-71
66
-120
-63
50
24
-37
99
116
56
-72
-113
20
-76
-38
-102
104
-79
-14
71
12
31
-63
-126
57
65
-60
-126
-15
-121
101
-85
56
26
-102
-119
52
50
-51
104
67
120
-54
-34
-34
-56
-103
76
-14
-65
-101
-78
-116
-97
81
80
29
-8
20
95
-47
-44
-125
10
-103
-45
31
106
20
67
-105
53
26
101
-31
23
89
17
19
95
95
-7
106
7
-91
-61
97
-114
96
-97
-78
-118
-120
110
27
81
-127
-49
-103
123
97
-16
-122
-68
-47
-30
108
-7
-43
-31
-18
76
-88
61
-26
-48
-106
25
-28
0
-22
21
95
81
-116
40
89
-3
-21
59
-13
53
-92
36
126
-116
-42
47
-122
-31
-125
-1
71
-34
9
-42
-105
-95
-94
26
-17
-89
38
-80
113
-15
-36
11
40
-40
80
63
82
-90
89
85
-80
-16
-70
-51
-44
53
4
11
-51
55
70
-123
33
111
103
72
108
-125
103
-1
-3
8
-12
-31
-4
49
126
-60
-48
44
-109
116
-24
34
58
13
-32
117
-2
-30
-89
74
-3
13
-106
30
0
-2
28
-37
-102
-128
64
108
114
2
-109
78
-6
18
-1
-98
76
-112
96
-42
82
92
76
-13
90
-73
70
-24
117
65
16
35
36
112
-94
107
-119
37
87
34
-122
-30
-102
-43
-58
-67
-29
74
-21
105
-2
-61
51
116
-28
-101
-96
-20
-62
50
-95
36
96
120
-79
18
-81
-90
57
-109
51
-46
-113
-44
94
-85
-40
117
67
-47
54
-93
-59
-94
40
-63
-27
121
-26
30
-46
-39
-12
-102
65
-128
-38
-22
62
-101
-89
21
-103
-17
-13
45
3
46
66
-77
35
-96
43
-103
-106
-5
106
99
73
20
77
97
30
60
41
51
54
86
43
-122
25
87
-103
-52
99
-98
-52
-10
-96
-39
-74
56
-90
-71
-35
98
4
69
-121
-5
-97
-98
-72
6
-125
6
-45
120
95
76
122
-112
89
11
65
-59
-94
88
53
-22
-120
-14
-32
-59
43
-128
36
118
75
114
-20
95
-77
34
-88
110
-79
75
-55
-57
-15
-63
-84
118
68
88
-4
-48
82
-61
-72
57
28
31
114
60
79
20
-93
-120
15
-40
113
-36
69
-125
-121
97
94
-84
41
12
10
-124
-85
79
6
-60
-61
120
28
14
27
-94
91
-71
-1
-100
-74
77
-75
-80
-121
105
-32
-38
11
-24
-78
-101
-33
-29
-41
47
20
-91
100
6
67
-124
8
25
53
-79
-106
59
106
13
-59
-29
-40
87
-43
26
-52
-37
-87
102
-72
90
-87
-9
-69
-5
88
-52
64
-51
-96
124
67
-13
89
27
110
14
-128
-120
-107
83
39
-15
-108
49
-73
-115
-13
-93
-36
-67
86
-21
56
108
-3
-21
-115
7
-110
31
7
-66
-35
-105
92
25
12
-86
76
-19
-128
107
-115
108
-72
97
0
-32
-36
79
45
33
-82
-102
1
-111
120
47
83
-107
111
-86
37
80
60
-107
74
-23
-18
64
-12
-58
45
54
-27
60
34
-64
41
27
25
22
1
14
-36
25
-121
2
28
116
-105
65
104
-94
-9
-123
104
-25
28
39
-85
-56
72
125
-17
-88
46
-69
72
-58
-18
-71
3
65
-53
-42
24
-95
-43
118
85
-75
-91
86
-18
35
-16
-107
72
-8
-43
46
-8
32
68
-114
17
20
79
-24
76
78
51
43
126
-53
-24
-110
43
-35
101
-15
-37
-51
13
41
104
-65
-21
45
-114
-114
88
-4
106
-60
53
59
105
115
-21
45
-86
61
17
-78
28
-94
100
-118
-95
-88
21
74
-82
-14
-128
66
-71
-56
112
-49
-125
-106
-67
32
41
-67
-113
53
105
-65
86
-40
-6
-126
-40
-4
117
126
105
120
67
-92
-42
101
-75
-1
119
124
123
-111
11
-128
-27
84
-101
63
-42
2
82
-24
36
120
-79
5
108
-68
123
115
-13
18
-90
-6
99
101
93
-90
120
-21
18
-1
107
-110
-14
-94
119
-28
-39
-20
82
25
83
-79
28
57
-97
-90
-33
-70
-91
-2
121
-56
41
64
-66
35
26
-9
-11
-29
-79
-74
89
77
42
113
-75
54
84
39
47
-66
119
91
-27
-6
-115
23
-76
51
-11
-88
65
77
100
-127
110
45
-51
-11
124
-97
103
-12
-36
49
-24
55
94
53
-113
-55
121
-27
-28
1
-126
-97
26
-56
31
1
-24
-39
-73
-121
68
56
76
-39
-13
9
-50
-59
125
-54
-73
53
41
-27
67
29
-21
80
-27
-127
5
118
-28
23
114
104
-120
-27
-13
-69
-25
84
-48
30
60
-11
101
-96
13
119
32
26
-71
-74
29
111
-63
99
-13
-2
57
48
-100
52
60
107
-42
-14
-29
14
12
97
-101
57
-19
89
-76
-116
67
26
21
-100
10
91
79
-1
71
-47
-111
65
-65
-37
67
-60
-19
84
48
-118
90
-117
10
97
-110
55
-88
-17
-33
67
-45
61
-42
107
-22
-29
103
-119
-27
-6
45
44
104
114
32
-10
-100
92
-116
-1
-113
87
44
4
-28
83
80
-17
-33
-124
-90
-113
-4
50
-109
41
16
14
16
120
-116
-26
84
-70
113
-23
80
2
-107
7
-64
2
-69
-77
-83
-65
58
19
48
55
-34
6
-53
103
-121
40
-110
73
-36
-59
41
24
-100
68
-3
90
13
-63
-34
-1
-70
-6
-49
50
49
114
-113
-79
-127
78
123
-100
-47
51
67
-71
-71
30
30
-21
-58
87
-26
-84
-113
27
-58
-123
35
-126
61
67
123
26
96
-85
17
82
119
-33
124
-16
-103
-103
90
123
126
-128
-10
89
17
-14
114
-48
98
34
-51
111
11
124
124
-128
-118
-107
22
44
-69
21
17
-40
118
28
6
106
69
72
-22
-50
70
-65
39
116
-12
-100
62
-64
98
75
-52
-106
22
-94
92
-85
54
-10
-46
-43
-88
51
21
61
4
-61
-45
-26
73
67
62
122
14
97
-83
-90
-27
101
106
72
-33
-90
-27
17
23
110
-85
58
-127
60
-97
-14
-87
-25
-12
14
92
-116
-85
122
118
-31
-109
56
-105
94
0
108
-41
96
-112
7
-16
-117
-115
-44
-90
32
-32
112
81
15
94
92
77
-123
67
-26
-120
-95
10
-122
-31
-7
-46
-60
34
36
76
4
57
-102
-33
-123
78
12
29
52
122
49
101
111
-76
-103
13
126
72
33
108
11
59
121
-101
-120
-70
99
-12
67
108
-121
55
119
50
115
105
-89
110
15
-18
-98
-77
118
8
-24
-65
54
11
93
-56
-117
95
54
67
-1
69
60
-26
105
-120
-81
95
98
93
-6
-28
81
77
-98
-85
77
-111
44
-84
61
-38
-13
110
-22
-112
-5
-15
-104
110
118
-40
75
-92
-114
-111
60
-27
-126
-63
47
43
-46
68
-37
40
118
-50
-20
-111
104
-115
-113
15
-120
96
-65
95
3
81
-55
-93
2
-54
76
-119
-23
-87
-34
-119
-123
-68
-97
104
-24
0
103
112
101
-63
-32
-109
-32
-44
103
102
3
54
50
-50
-119
-25
-57
110
-65
-37
12
93
57
-118
-97
-36
-10
33
-77
124
-100
87
123
-57
-90
-106
-92
-71
-89
-123
88
48
-46
-89
85
-123
104
85
-30
-55
72
-37
-78
27
100
-35
117
-120
-119
-40
54
35
-15
-111
110
95
55
92
-3
4
-47
-30
93
-27
69
-27
97
-120
82
-89
-52
-8
57
100
29
95
3
3
-122
-115
50
46
37
126
113
117
-60
-73
-128
-9
-11
-6
-10
-81
93
-92
85
-119
82
-128
110
125
-108
-77
-70
105
34
-29
114
119
-99
70
-68
-118
-101
-106
69
7
75
-54
-52
-92
-109
-79
125
62
-46
84
61
-66
-48
35
42
-49
94
-97
2
66
-45
104
-126
-50
23
20
30
122
-21
-66
56
83
123
-30
85
103
-72
-126
105
32
36
44
-113
-39
4
103
24
-42
-94
-123
-65
-128
-7
39
-10
-104
12
-38
-78
120
105
-103
54
46
-5
91
-14
-50
-12
-37
-30
41
44
64
9
51
75
-125
-31
-61
33
71
18
55
-91
43
112
-35
28
33
-21
-20
68
64
69
-11
50
-118
-76
-84
56
121
13
64
-47
6
-7
1
84
31
3
-20
-101
21
107
-96
-51
106
-29
21
-126
-10
-82
-20
-26
76
-96
98
-115
91
-56
47
-13
67
30
-101
-5
12
-6
-107
-47
-75
-22
126
5
-4
33
16
120
-6
70
-59
-57
-13
76
54
101
116
-87
34
119
-9
-80
119
105
-60
10
82
-8
29
78
-127
63
-64
-93
-54
-35
112
-68
-85
53
59
9
-48
48
27
-23
61
-11
113
107
-40
-127
65
52
-91
65
-122
-60
-7
-45
-42
-9
49
125
14
-50
-39
24
-80
60
22
124
-69
-58
-37
50
108
5
85
112
-78
33
-70
-48
-65
-104
-40
80
-51
-7
38
-55
109
-70
-126
52
-88
-64
12
42
115
-61
95
91
-92
-29
11
-109
-16
51
41
38
-92
11
-90
13
-30
-29
-3
-52
6
-100
-95
87
-33
-44
114
-1
-7
81
4
-38
-1
-57
107
123
-70
32
-5
4
-46
7
-60
39
-2
75
-100
-9
-4
52
-123
-127
-113
102
98
33
101
123
-117
-68
49
42
88
-29
121
79
44
-87
-55
-87
-6
38
-73
-2
-116
-106
120
-8
-22
-24
83
-6
69
-116
-104
-22
25
104
103
-55
-122
9
-64
-55
21
56
91
37
-57
-125
25
50
-73
-76
5
-89
-37
-51
-19
52
-33
-127
54
-105
91
-117
39
-78
43
104
-94
-100
100
-123
81
-50
0
-36
-83
-31
-90
40
103
6
114
-97
98
35
100
17
75
34
-40
-94
-26
-109
45
104
-125
-111
-124
-70
21
45
10
4
29
31
4
6
-117
-34
0
-90
72
102
-102
52
20
-20
24
-54
98
-64
-109
-19
-96
-8
112
87
-6
80
-35
-82
12
-76
39
46
29
-41
-6
23
-42
-113
-6
-47
-47
-128
-54
-103
101
-122
54
-121
-120
96
-73
85
71
-128
-125
-34
-25
71
59
-123
114
-71
15
94
-81
-41
-109
-58
54
-66
-22
-9
-121
93
125
-110
-86
44
-97
46
87
-88
-74
6
123
-75
28
51
106
-20
115
-49
-77
-118
101
65
-90
59
-43
50
100
43
52
-116
-63
126
60
-6
-87
49
-6
-25
-79
-74
-128
-80
-54
-122
125
-3
60
81
68
-124
116
-82
0
38
-3
-54
97
-125
-97
64
-41
-25
31
-119
-81
-78
-15
-77
-89
89
112
99
8
55
-15
-21
-73
123
81
73
31
116
-59
31
-66
64
54
-45
58
33
11
-77
111
-57
-14
-61
80
27
67
-11
23
-66
43
6
-63
-20
93
52
-120
-104
42
-87
120
101
107
-128
-117
25
-54
125
83
1
-15
-31
-1
122
86
62
-124
37
-115
-52
-5
-108
112
106
-23
8
65
27
-15
60
107
-114
-113
-32
-64
-41
61
23
6
-20
41
-35
-120
33
108
48
106
-6
-47
-37
-3
-100
92
-31
-40
-43
-66
78
-125
46
-82
88
-76
-113
-101
88
-48
90
32
58
101
-65
-54
124
13
-114
-121
-114
14
83
116
-64
-41
52
108
79
77
41
23
-95
23
21
-94
89
-87
-95
1
15
44
97
-92
-24
-6
-70
-61
-102
-78
-128
92
-12
115
-121
-102
-76
30
-109
-77
-35
-127
-101
80
-46
83
109
17
65
24
-91
-99
-26
-19
-116
-85
-63
-83
-5
-116
32
-91
57
-112
43
-31
-29
103
-66
-120
63
83
108
-117
-64
-71
-66
75
-74
-119
124
0
-23
35
-57
-119
35
64
63
92
-11
-83
71
1
122
-24
-69
28
46
-78
13
82
93
90
24
39
75
-73
125
39
-79
-27
-19
-34
-36
-112
5
-12
-67
49
-122
64
17
88
106
-53
0
33
-43
-114
-121
-21
-126
41
34
-100
-16
84
44
-65
53
-81
114
-38
-100
-61
-97
80
-79
6
10
-89
93
-41
-44
44
-27
-34
-5
-61
-128
34
67
-77
34
-113
14
-12
-73
12
-2
-114
109
-91
60
-99
87
-54
66
-10
-102
21
26
-16
-111
-65
76
50
97
40
-9
14
31
1
12
72
-16
-117
-24
9
-124
-47
-40
89
123
-49
50
-37
-44
126
-24
-106
-75
87
-96
-31
-123
-19
-28
-102
-127
-79
-43
22
95
-100
-93
-13
-25
107
-10
50
-33
-38
95
-44
-104
32
15
-14
-67
96
-28
-84
111
14
9
108
-44
-115
43
67
49
50
42
100
8
-36
-93
41
90
-51
19
80
-2
-115
1
-80
95
91
-108
-55
-65
67
65
89
19
-61
-109
99
102
28
4
-2
-58
-42
-113
2
69
22
18
6
-111
125
8
-55
50
41
62
-34
95
-43
84
63
-66
-110
-106
-24
-66
-99
-45
-90
119
95
-96
13
29
6
81
95
-115
41
-111
115
-52
-36
51
28
126
-74
99
12
106
67
-62
76
-93
-127
-51
56
47
25
-6
42
16
-32
-24
-35
3
-126
-68
-43
-120
-37
-85
-21
-65
-40
-70
108
-46
-39
-92
126
89
-88
58
-102
51
12
-49
69
-23
90
5
-7
-82
125
-48
55
58
26
-77
53
-83
92
95
-21
-74
28
5
-75
-26
-47
85
-55
100
-8
-107
12
39
28
-122
-33
115
-70
48
55
62
106
-49
119
-72
-61
48
-38
-39
-21
-25
-62
100
2
66
48
92
-11
72
125
99
-81
-109
84
103
41
-63
-13
71
-103
64
-30
-69
76
-119
14
28
-107
65
123
124
-7
-112
-125
-33
-47
17
66
2
-98
-105
-23
4
-50
-43
26
-97
119
121
14
92
36
-45
-93
99
-118
61
43
89
75
110
-117
2
57
86
51
-1
10
-78
-7
-60
102
-110
83
28
76
-14
95
58
105
19
82
121
-37
-115
122
-55
40
117
-28
57
126
-83
-92
115
-104
-75
-40
9
-40
119
-42
-56
98
97
92
29
-28
-7
-30
77
90
68
-38
-41
50
-19
50
49
12
-1
-94
54
-116
-71
-87
32
15
84
-56
47
93
-20
-68
63
-69
-91
115
84
63
-31
-61
-79
68
-42
-19
-83
66
26
-58
-52
116
-107
-47
-95
1
60
10
113
-20
-106
-17
-102
-101
75
102
48
-113
86
45
-99
-14
-1
69
89
-124
-54
-86
-111
-34
0
121
-116
-91
90
100
-104
65
86
-110
104
92
-121
-31
-53
-85
58
23
-16
101
34
-27
-57
69
75
-38
31
-109
64
-128
114
-98
46
84
117
22
-28
91
-51
18
-99
42
89
-28
25
-60
-55
105
19
-17
-106
-100
-93
-112
-22
-13
123
-91
-16
-116
-53
-79
77
-42
108
-7
-93
69
-52
111
-47
-118
120
3
106
-31
23
12
-118
-72
-73
11
77
-79
112
124
57
123
-72
8
-66
-66
118
56
94
-51
10
-121
-47
-107
67
73
-80
69
78
-116
-121
-120
96
-109
53
-19
-106
78
78
-122
121
45
62
-103
21
-89
47
-97
65
-74
-7
108
-73
-60
115
-67
24
-123
-91
-127
-52
94
43
-33
91
1
122
-23
44
-2
-47
-33
-9
26
52
-4
-15
75
-53
98
62
-20
-40
-15
-45
-124
-7
-116
-69
117
99
99
-76
-11
-112
-115
-97
4
86
8
-109
111
-35
37
67
-111
85
20
13
118
-39
126
-63
115
-15
26
-69
-65
-40
66
-48
-5
-45
-9
-4
26
75
-33
114
54
-48
114
-35
67
43
12
-61
-103
34
-18
30
-96
-125
-5
-16
-117
94
9
50
-22
22
-13
-4
-42
-73
107
9
-63
31
55
-122
63
43
78
98
73
38
-14
65
2
-71
54
-94
-28
-53
63
114
84
60
49
42
-103
-24
-74
-89
34
-49
-105
79
0
90
107
71
-90
-58
7
-126
22
12
-68
10
30
-61
5
-114
55
-59
102
-90
-64
-59
-38
-42
79
88
-91
8
59
60
-116
-41
59
-12
58
-49
12
14
76
121
-23
126
-44
-29
-20
18
-88
3
20
6
-44
53
-57
-63
-5
-87
-127
-18
-57
54
-108
41
-126
73
110
-120
-103
6
-14
-59
-48
16
-11
116
-81
36
-72
-58
-47
32
-119
-49
-100
-50
-40
7
84
-23
14
94
114
-15
-75
38
34
64
-122
96
103
33
4
47
-40
-96
-84
-36
26
-66
89
46
-123
-110
-77
-62
-99
-89
-127
28
40
109
4
111
48
40
-105
67
57
-90
-106
113
-124
106
-8
63
-120
-18
62
-13
-26
94
96
-17
123
85
10
-13
-24
-8
50
-89
2
-5
-41
105
28
33
63
29
-104
-43
-18
