93
-18
98
-36
86
55
116
-51
21
27
101
32
48
8
-126
-2
-69
-104
53
-91
113
-13
33
49
102
98
126
126
2
-38
62
-7
-4
40
-92
71
68
-107
113
-112
103
-84
114
-15
43
-111
-46
-87
-80
58
3
103
-34
-65
44
-123
97
-108
-10
-87
-11
114
101
46
-113
-61
105
20
105
-61
37
100
-111
22
-102
23
115
-60
-39
-101
43
25
-25
91
-65
-102
95
-34
-51
67
11
-29
-32
-92
29
-91
-69
86
-124
122
-22
-76
61
111
105
3
67
25
-62
-61
-21
123
-85
-40
-60
-68
7
4
-76
2
-99
26
103
53
-98
126
-53
113
-103
-4
-53
64
44
-102
-73
51
13
-93
-10
-73
-54
112
-86
-112
28
85
-57
44
-21
75
-95
71
10
15
-118
119
-122
85
84
6
78
118
-125
-37
-46
-90
17
-29
64
14
30
-128
-54
29
-108
13
84
7
60
40
4
-64
110
115
108
123
-21
-43
-21
4
-15
-126
-64
121
-56
107
-106
-52
-13
-33
-117
79
66
48
-76
-25
59
-93
-40
52
118
94
121
24
7
83
-114
-9
-21
-42
86
99
-47
71
15
45
81
-9
76
61
71
-68
-73
98
-4
1
-125
-96
-112
-56
-123
-45
-128
1
-27
-52
-44
-62
88
112
-51
53
120
-5
124
46
-81
-47
57
-41
-107
122
21
-61
21
-79
34
-114
75
81
87
61
52
-53
-12
116
-5
55
50
-99
-13
-69
47
23
-84
36
-99
68
115
-122
125
-43
45
97
-46
-5
-51
0
46
-91
94
1
-88
-97
-43
-75
-90
106
-62
110
44
33
7
86
19
97
28
-97
37
117
26
15
71
-7
93
113
64
35
-24
98
-35
61
-40
102
67
-17
-106
60
82
-99
-28
1
-7
117
-67
21
86
-6
-69
-51
120
-15
116
92
110
48
100
72
-9
-10
12
-65
-15
73
53
-51
97
-55
69
-105
-67
34
-6
-16
-74
-94
-126
58
-106
-63
54
-38
40
113
23
90
95
-54
50
-64
62
-105
-84
36
71
-77
-92
-86
-84
86
-41
118
69
124
-51
88
115
22
-46
-128
-54
50
28
-82
52
-1
-82
-37
-71
-88
-84
-28
80
-19
54
72
80
-117
50
100
-105
116
62
98
107
62
38
-125
62
28
27
-36
-3
-73
-7
55
-40
42
85
91
116
60
7
15
6
112
105
85
-94
51
-83
0
58
-103
70
-30
40
13
85
120
-9
14
-6
76
-4
-68
15
21
-70
96
18
-20
113
42
-101
-71
-89
-15
63
110
-31
-48
87
-83
112
26
-61
103
6
84
84
-97
-111
63
19
-9
105
7
77
-11
13
71
56
55
-36
20
70
-49
-48
66
87
8
111
36
-110
-119
-2
-63
-93
-61
34
-105
-108
-107
-15
-76
38
49
8
-28
-104
51
-90
101
-41
-118
93
72
-66
-95
108
-94
89
46
40
84
25
113
67
-74
-69
115
78
-126
116
80
-24
-107
50
-100
39
-73
6
-9
-104
113
39
116
125
28
52
-44
82
-69
22
-66
-47
-98
90
94
61
-33
-44
-75
77
41
107
-38
-36
-119
123
29
-106
70
0
-106
102
79
-1
-90
4
-90
62
-128
72
-66
80
-47
57
95
-89
-20
26
85
-76
-99
-52
-84
-53
120
106
23
81
-60
58
-29
94
-16
-29
98
23
50
3
106
-91
7
-69
-46
3
-103
-9
-31
58
-55
-16
-5
60
-48
-1
-85
-82
122
51
-47
18
-86
126
114
-111
10
-33
-1
-56
-119
30
9
-70
-26
124
79
-53
-94
4
-35
23
26
-84
81
25
99
93
23
-60
-11
-111
-63
-46
-11
-2
42
31
74
26
-81
-21
-80
11
-32
-55
-53
-52
43
-58
-33
85
-53
10
-117
-81
-112
-59
95
-45
-23
-9
-19
92
-7
26
77
-17
109
-41
-73
64
-64
123
72
-68
-35
-61
-38
-64
49
-95
-55
112
87
84
-29
-120
64
-13
67
-56
-50
-100
24
-83
-95
-84
-55
-111
77
-87
-10
121
79
78
-72
0
54
98
-94
-63
61
66
-82
-107
-126
-109
74
2
80
37
-29
-55
-65
10
-89
13
-37
-59
74
59
90
116
-73
-80
-63
83
-96
-101
38
109
106
-111
45
37
109
15
-91
-103
102
-55
-64
44
46
61
56
71
-93
-77
-68
-54
-47
88
-26
41
-120
71
-94
-44
-99
74
98
29
9
-15
-15
-49
46
-105
-81
80
67
-95
-34
-22
-16
-5
-15
47
-93
114
59
104
55
117
-98
89
-33
-75
-7
119
25
-128
-117
-49
37
-27
-76
-27
92
-12
-101
-40
15
28
0
11
48
110
75
44
64
-17
117
-1
-23
15
-28
97
91
-82
-60
48
-73
-118
124
67
-16
67
77
-110
-46
53
24
42
110
19
112
19
-120
21
52
124
36
-38
33
-32
123
-43
-128
-22
-121
-115
100
-72
7
-33
39
-20
32
-35
-45
28
-116
-14
-16
-106
-7
-79
-110
-61
-67
14
-27
125
80
23
28
-62
-14
35
-54
-112
22
-57
-24
-106
30
-90
-64
39
114
-95
-109
-72
67
50
-106
62
9
89
-102
62
64
44
-121
33
30
-128
69
-59
3
-102
-99
-49
95
10
50
-81
3
6
-55
-82
-13
126
-113
-73
-73
-10
119
62
-8
27
67
115
75
9
-68
22
3
24
74
-36
-57
-125
-73
-56
-78
125
-62
-27
-77
-73
21
2
-113
-44
57
-72
68
118
-22
12
122
-23
23
118
55
-75
-51
36
24
65
91
-23
91
-80
109
46
-124
-95
-31
61
91
14
-108
48
91
-54
109
-67
30
-95
-79
20
-126
122
80
10
-123
-15
95
113
-104
27
8
112
52
-110
74
103
-53
-65
13
-20
-99
70
86
-28
79
-83
-67
-65
83
33
-85
-62
-105
-112
-11
-97
-1
109
-94
-45
-31
76
-66
-55
113
56
-72
-23
49
-1
-20
-77
19
-48
67
48
96
-94
51
-101
119
43
76
-91
-120
117
115
-107
92
-68
43
96
125
113
61
-50
53
-37
61
-54
64
15
-87
-87
50
-21
28
22
55
-45
-115
66
96
35
-46
7
118
122
111
-124
73
-15
-65
93
-88
93
-51
42
-93
82
83
5
112
-32
-83
26
79
-60
121
56
-11
-124
-36
-113
-45
-46
-50
-53
120
87
86
51
94
10
-9
-36
78
49
88
-93
15
-120
-28
29
-29
-28
106
100
114
-68
-96
-52
84
80
126
-89
-105
-59
-105
44
-109
108
26
-97
9
117
-87
-78
18
40
-91
32
-44
40
115
-118
71
97
21
-107
-36
2
-53
115
-115
-32
-11
-106
30
-44
-25
34
41
95
55
33
-122
-72
-106
-101
-39
-100
16
-59
-61
-35
-76
-93
-116
-106
78
113
-112
-7
-90
2
54
109
-105
-19
-74
1
-25
-39
25
120
-33
-54
19
-117
-64
-37
-73
83
20
98
-123
63
-30
29
-65
-7
93
115
43
-83
16
34
-116
124
61
75
74
38
80
-117
29
-117
43
112
-118
-72
-43
-48
-4
25
15
-78
89
-29
41
58
122
-117
74
80
-50
81
-48
-25
-82
29
-66
29
14
-43
-108
121
65
-37
97
59
111
85
69
57
-69
-65
-53
76
-77
-44
-35
-100
108
-100
-102
-58
-70
-27
59
-73
124
-65
31
-117
-127
-21
106
13
109
62
23
26
-20
20
-58
92
-24
94
113
80
-87
-26
-35
-90
33
122
-120
-51
121
-59
-30
14
-82
19
-29
-127
0
-27
68
94
-114
-79
-64
105
111
24
-48
67
0
6
21
-4
4
-124
-46
57
103
56
120
77
1
63
60
5
12
-1
-15
-62
40
51
121
50
100
54
4
68
-7
40
61
-42
-3
45
-70
39
75
-56
-9
60
-69
-25
-128
-19
108
35
3
-38
-106
-89
-115
94
-33
-126
-111
108
-57
-15
-2
-34
56
37
89
-61
75
114
0
25
11
105
33
22
-30
-72
98
109
53
60
4
-49
-22
93
-60
-88
-10
20
-84
-123
21
-97
27
-71
115
105
-73
91
-57
-85
-124
-35
-34
26
-82
-99
-94
42
98
-98
50
112
107
-115
-74
-94
39
3
75
70
48
72
58
79
55
80
-86
123
-10
-61
9
-58
82
-63
84
118
-114
124
-5
-57
76
-105
48
0
96
0
12
98
13
-49
-96
56
-112
31
-71
8
102
125
70
90
77
-99
50
-128
19
-62
-65
98
46
-124
-105
-32
-22
2
125
78
-104
-118
67
29
125
64
78
108
-59
-69
-45
-69
29
106
25
67
89
-124
23
42
40
-50
-51
-40
21
46
92
11
64
-51
7
-57
64
103
-106
-62
67
-113
5
-63
-112
13
-51
-114
25
67
-38
42
90
-8
44
44
-93
-20
17
11
105
-37
123
97
75
-21
80
-44
8
113
124
-1
35
103
-40
101
-100
-97
-72
-23
-43
37
76
45
-109
-92
35
30
-29
-11
-18
108
-47
3
-13
-27
-114
63
76
32
-105
-17
108
62
-35
72
-93
102
70
96
-11
96
70
-89
-31
86
-121
102
72
-84
-77
19
-104
119
-29
-78
6
-7
-85
56
-84
-55
112
41
-41
-79
26
-113
125
-110
-114
71
123
-66
120
-42
-126
84
122
94
-93
65
29
-35
62
23
-81
41
100
69
111
122
89
-71
-121
7
95
81
69
24
-7
-100
-102
19
31
0
87
52
-64
-120
-77
29
-126
97
-1
12
12
-109
49
-14
-72
-9
62
-44
-4
63
-81
32
109
-122
-80
14
31
-105
49
-6
-71
-15
-81
25
103
123
62
-114
-23
44
-37
12
22
-68
102
-43
-43
15
-105
-39
67
125
39
63
-93
-74
57
-21
108
-7
91
-116
15
-78
-102
-97
55
8
-43
37
-114
-31
82
1
-39
-6
96
-95
3
118
-98
-39
-70
-18
-123
20
-24
-69
-126
-78
22
77
-103
-7
-2
36
-120
-85
29
37
18
113
-107
22
45
-77
-69
-98
11
92
-75
27
23
-107
-104
-122
-41
-76
125
-52
-83
-21
-86
73
71
-57
55
-77
38
0
47
65
-111
8
-98
-51
67
-102
65
72
-82
-116
31
-75
-81
-38
52
-125
44
25
16
-82
123
-12
122
107
-33
109
91
-13
-92
100
-68
-21
-100
-85
-101
-97
-81
-78
12
-79
-77
-50
-50
-61
-121
25
-112
-82
-93
-2
-29
38
-53
84
46
77
126
-125
38
89
95
77
31
112
46
-52
126
52
-107
-94
86
103
-3
32
119
-78
81
77
-19
-111
-125
-111
36
74
73
2
68
-3
-13
82
-61
-7
30
23
-75
-107
10
122
40
-17
-115
7
-70
-109
112
71
-8
90
-52
-84
75
-98
-72
-77
-125
67
23
-73
-74
-20
33
-54
32
2
94
19
-63
6
69
87
114
-45
69
22
14
94
-96
21
111
-8
-112
-35
-80
-82
-116
17
-43
-55
7
80
37
114
94
22
-55
103
0
124
104
65
-118
98
112
107
106
81
-24
91
-46
-61
-104
-96
78
-59
67
-16
101
57
61
14
-64
24
48
-88
107
-106
-77
-70
-54
26
-78
48
-121
70
27
-127
27
0
45
68
45
-112
113
-109
-77
70
-75
-27
24
-120
-79
24
17
33
36
-103
28
-116
-101
-104
-22
115
112
-82
-43
60
-95
-46
70
45
66
72
37
-109
-8
93
-71
16
-87
19
34
4
8
30
-118
58
-40
-12
-74
113
-4
8
-10
-15
103
-121
-93
118
118
-22
-37
94
22
32
-84
111
105
-33
-88
-78
120
116
66
31
51
-122
4
-41
21
120
2
-85
-15
-91
116
80
-110
-57
-49
41
-30
-81
115
82
81
-31
-121
-102
-85
-46
-84
-20
69
-19
-111
-70
-28
-101
40
-15
92
-121
-78
-93
-74
-94
66
-97
77
37
-124
-126
22
110
-87
-35
-108
51
-124
65
-87
-41
-127
34
-40
-127
51
-87
-66
84
-55
-73
-72
56
117
-43
-34
71
52
1
97
-27
-120
105
-92
30
-87
116
-20
-53
-117
-23
10
52
-53
-40
-85
-108
1
-21
54
-83
3
-106
104
-95
-45
34
47
-81
-60
-67
58
67
56
112
38
-121
109
-26
-126
-33
42
-58
97
82
-20
-15
-125
-108
-62
102
-69
-70
-31
5
115
-46
-12
96
87
102
6
6
-7
17
-57
-98
-16
16
57
50
78
-84
120
101
-77
-68
90
35
67
29
-119
-120
114
-120
54
-112
9
4
-115
-27
-108
-87
-122
-56
-46
-68
-10
106
-8
-111
118
20
-31
108
-67
-127
78
113
-52
-86
-40
76
-76
121
99
-76
-93
-126
55
-105
98
-94
-9
34
-10
-6
67
79
122
-57
83
99
-96
-110
100
82
61
-75
-21
-30
57
-80
19
-6
90
65
85
-62
29
-17
73
10
121
107
-26
-120
108
75
58
-96
-86
-46
44
100
67
-57
-48
-61
-40
-58
-3
48
-30
119
49
5
27
104
29
-62
-107
-47
73
121
91
91
-52
53
118
-45
-57
61
71
-39
-96
108
-32
-67
35
-105
117
118
19
27
-72
-17
-52
-52
125
22
-71
-68
-57
-18
-38
-24
22
-87
72
38
119
-102
11
80
6
79
-37
18
-120
-117
-4
-107
103
104
-38
-47
11
78
3
120
11
33
-127
-110
-92
112
88
-121
103
-14
-71
-27
-42
-101
74
-93
75
-84
-24
80
-24
-3
-118
100
23
-66
-72
65
1
17
68
-17
69
87
59
-105
-87
111
-92
32
-124
43
-5
77
108
-45
-106
31
8
-18
55
99
-86
86
-54
-120
-5
32
-115
-44
-107
-47
78
-58
74
-121
65
-27
121
-36
-8
87
-97
84
-106
101
90
-47
-83
103
64
-10
-92
72
52
118
-15
-16
-118
123
109
-114
-23
-20
126
-86
91
-49
-15
-98
-77
41
110
32
-66
-98
106
-16
78
-41
-94
-48
-35
-103
84
98
-36
-127
-95
57
92
-116
-7
-28
-84
96
19
-27
-75
88
98
-16
37
-27
-20
107
-44
60
39
-12
-109
98
125
-14
-64
0
6
11
46
-111
-11
74
31
-109
96
-4
57
50
17
19
-125
45
11
-51
5
-10
-83
28
-75
117
-111
-45
-83
76
-29
-97
104
-17
38
25
-80
27
123
-19
44
-95
40
-53
93
-45
-83
100
-26
73
-119
-60
6
73
-20
-51
77
55
7
78
78
107
28
-30
-42
12
29
64
-5
-122
-62
81
66
81
4
-27
-32
-13
-14
42
-11
-116
-105
102
-49
117
-98
19
-54
-119
-16
-80
-50
-30
-8
-12
-81
63
48
94
43
-65
79
-109
95
90
115
1
76
-15
-26
76
-102
-71
37
-57
18
106
-43
55
9
-69
42
41
65
45
-71
60
50
20
-50
-23
115
-43
-37
41
-80
80
118
5
-8
97
-38
71
122
74
-58
-16
-101
31
105
37
-75
-29
-78
53
88
95
33
88
-103
-56
-56
-1
31
-32
-12
75
-2
3
43
94
-33
92
-56
72
-124
117
-127
35
-125
51
117
23
107
-64
85
38
-126
70
26
-7
-71
-104
36
-110
107
-83
-72
51
80
0
13
-64
40
100
71
-116
-1
-33
116
9
-70
-104
-92
-119
29
-14
-97
-28
-126
46
-55
108
-92
123
-22
117
-63
57
-76
-89
118
-84
97
-12
3
-7
0
-33
93
62
92
31
-112
87
11
-65
2
39
68
4
13
-37
-35
88
-31
-78
36
47
46
93
92
-126
94
73
-80
100
-12
-112
101
-53
-106
56
-105
-58
-61
67
58
38
-74
-4
13
17
38
17
100
54
51
98
117
90
-17
-36
-45
123
45
-128
-50
44
120
-66
-102
-74
50
-47
-19
-123
124
-109
18
-116
-91
66
107
-57
53
-26
-4
-109
-61
-103
37
-18
-98
121
-73
-46
89
-24
-115
70
37
64
61
-120
-23
76
-98
20
-13
14
94
-54
3
-90
-66
-16
3
34
-102
74
42
61
-59
-13
-94
-43
-90
14
-41
-67
-104
-29
-112
-99
20
-48
19
-123
105
81
5
116
53
47
22
-111
33
-56
115
-69
14
-1
100
4
-33
-126
-53
126
-66
-36
-45
-21
-113
78
-89
-21
-50
28
48
121
-45
31
-127
-66
-21
-75
102
92
97
49
-110
48
16
5
83
-117
-64
78
12
91
36
79
-8
47
82
-70
17
16
-16
-110
42
30
-50
116
91
-5
-56
-91
71
-80
72
-26
74
106
-50
-109
106
92
110
66
-39
-81
90
125
12
-92
-23
-128
88
-97
73
-55
106
26
-87
41
38
-116
95
-113
24
8
-12
-5
15
4
48
-58
113
-123
87
-69
-127
-93
-116
61
-1
-108
28
-73
-71
94
19
-79
105
-79
-87
8
-75
85
-14
-70
-126
50
-120
16
-74
-127
-102
-44
-17
71
-77
91
74
-99
-2
42
5
69
-117
118
33
-4
35
117
-79
115
0
-75
30
-21
82
-104
-75
109
-105
0
-85
64
-114
-88
15
2
-35
-103
-107
16
-32
87
-53
66
-62
126
-77
-108
92
2
-14
-53
-113
51
118
-104
-33
91
-59
40
-121
-101
-97
66
-80
4
100
-124
36
75
62
-19
-41
22
-61
83
27
-87
-68
-66
-83
-51
31
102
95
-37
10
-26
90
-93
-24
-73
-39
93
126
-29
-74
72
35
111
92
-110
-70
-63
124
41
-60
-17
10
30
-38
-69
19
106
9
116
0
105
-85
-125
69
36
26
123
-71
-36
-87
-2
-113
-5
-99
50
97
-41
-119
-26
66
96
49
-53
-18
-69
-8
118
54
121
117
101
64
-89
-120
79
125
126
-116
-74
-41
-112
22
-105
56
-12
-105
-47
66
-114
125
65
101
13
104
25
-103
-30
-94
118
6
49
-99
-42
48
-85
107
41
109
-54
84
17
104
-1
-2
112
-92
23
-17
-102
-120
-10
92
72
114
46
94
-127
-58
34
3
-55
-114
-34
47
21
117
21
-124
47
-37
-83
-116
12
-29
49
17
-81
11
0
20
2
-109
-126
84
1
-128
-45
114
113
-48
-30
-60
101
-88
-68
5
-95
-25
56
3
-123
-76
66
113
-93
103
89
-26
-116
-92
-78
-51
-73
39
62
90
14
-25
-12
-104
30
84
93
-26
68
70
-40
-103
-22
14
122
-87
74
-3
-118
-41
71
87
81
-84
118
8
38
38
-28
90
102
-29
122
-15
-62
112
67
35
-101
-29
-10
-30
-86
120
113
124
-3
30
121
-28
61
98
5
-12
75
-37
-115
39
-91
103
-88
-58
-104
105
118
-95
-16
-124
106
-60
-20
105
-54
-54
-114
-57
-106
-8
69
74
35
67
108
-108
-109
-98
-4
-114
-118
-108
-107
-33
-51
-89
59
2
-32
31
99
121
120
79
22
-41
80
38
-115
93
-35
120
60
12
50
-124
40
111
-28
33
-36
68
76
-18
-39
27
55
-110
-105
96
-36
-100
119
43
63
-62
-120
9
-27
39
-48
-20
47
103
41
57
-125
29
-126
9
-33
97
-82
-39
43
0
-50
-31
-115
-14
-23
-120
-108
4
-12
18
113
114
27
-3
18
0
-90
78
-25
61
65
-31
-30
17
46
31
-120
-108
81
96
-35
-122
-53
-103
-128
12
82
-42
69
-58
126
-41
-53
120
68
-68
58
114
-91
-25
121
-38
111
-67
-49
-23
5
-44
-8
54
-110
46
-84
-119
-15
6
-52
-75
-80
18
76
-95
69
19
122
29
116
7
-107
-24
29
112
-49
-53
100
20
5
-80
-39
34
-29
-86
55
-59
95
-95
-102
-53
-4
87
20
-31
-118
20
4
-105
86
-2
-35
102
-76
39
40
-98
-125
-112
-113
-75
-102
37
-105
-24
52
-30
-123
-93
-92
-31
-60
-87
-15
11
48
-43
87
-61
18
-5
-117
51
-34
11
-24
115
105
-62
49
-7
-9
-37
109
126
-128
116
-73
37
57
-89
90
13
13
-28
13
53
123
-125
126
2
-81
27
64
-60
37
-125
-70
18
-96
-107
6
109
-89
-103
34
23
-43
-80
2
124
39
-23
125
-33
59
58
-62
-128
109
70
24
5
106
-23
50
-29
66
-57
46
-91
-25
99
63
50
-77
-38
-82
-1
23
-33
-105
-85
-37
-37
-36
-75
47
-30
107
-18
62
31
-70
-58
121
-94
-84
-40
1
-28
-9
18
-81
-6
7
-27
-68
53
30
-6
78
-95
27
122
91
70
68
36
122
16
65
-51
57
-27
-40
-69
-52
-115
87
33
121
116
81
66
115
116
-6
99
114
17
42
100
69
-125
104
80
1
124
111
98
-85
120
50
110
8
2
-111
30
2
51
-106
27
-43
-18
-71
-46
83
93
43
124
27
10
-63
-103
-33
-119
86
109
-19
66
46
119
-114
-65
-45
65
-19
-37
75
-74
121
-41
93
-121
-11
3
43
-16
-77
-57
-62
35
-53
-64
47
-42
-43
-68
-10
-48
96
7
-88
102
51
-57
52
-85
-25
-72
10
76
57
38
-32
-15
-101
14
-75
74
66
-89
78
44
-85
-40
68
66
-58
4
46
12
-37
-32
-96
-108
81
106
27
19
7
-43
-117
69
-100
-21
-109
9
29
-90
-39
-85
62
45
-97
113
-59
-72
-26
-49
107
109
48
-112
39
-31
-78
-88
-10
-117
121
3
3
-117
-85
0
7
-124
-17
-18
-93
5
74
-75
-39
97
5
-82
-119
97
23
-75
29
-68
-103
103
-126
-97
89
51
-113
-32
106
-10
-39
50
-49
-103
-82
68
7
-90
78
-61
97
28
74
-69
-101
115
-36
-55
-17
-55
70
-19
48
-19
-5
-102
-68
57
-51
-17
32
89
-116
44
-31
-35
94
17
-125
12
43
93
58
19
77
25
-84
98
45
-114
-76
-69
-106
48
20
1
63
-81
-38
-73
84
53
-79
86
23
-78
37
34
-100
72
43
-66
-33
120
17
-11
49
22
103
10
-86
-53
55
-28
-26
-54
-58
44
-114
69
69
-126
123
63
-53
-82
-49
18
-22
-107
-32
21
83
-119
-103
-103
1
-39
46
-104
-41
-76
58
117
-91
49
50
111
-4
-81
64
61
1
69
124
76
84
-26
15
47
-118
36
76
-37
35
-83
-83
-73
64
66
99
-6
7
-56
-1
1
-15
-64
-66
-33
-27
67
30
65
-23
0
15
-104
-16
50
2
15
-88
7
106
77
40
-5
-91
-65
14
-95
91
26
44
-73
-65
20
-105
-52
-6
-58
-49
112
40
-64
56
85
13
-73
95
-46
23
-102
64
123
-38
-30
71
-82
-61
-94
-26
24
-39
-69
-71
7
-110
44
39
-123
27
71
15
86
-56
113
-66
-47
-128
108
-76
-50
56
113
-68
-52
106
-92
-31
-93
-79
-127
63
-31
7
96
-38
-77
52
28
-109
-86
72
99
79
39
-105
93
57
-92
62
26
22
-37
-123
-87
126
29
39
-76
-34
-1
-128
-80
-3
-79
-112
109
90
-16
-75
-54
89
63
-20
102
26
126
-82
-93
-57
32
-124
15
113
40
-67
75
-114
41
-5
-41
86
-21
-87
42
62
-39
-35
108
75
-67
-31
100
-30
100
-74
-54
-80
107
71
-50
97
-98
126
69
73
126
-74
-42
-35
-5
-55
-86
55
18
-127
-74
-105
86
17
58
3
-96
-25
-27
60
65
29
86
116
60
-93
121
-29
-77
-46
35
30
101
-52
33
13
-103
-123
-27
117
-102
-2
63
-35
68
-45
74
-34
-15
23
32
-4
-123
-54
-119
-90
-2
-12
-97
57
18
90
-47
0
14
-113
99
-52
112
31
-102
32
71
112
-77
36
70
43
70
104
16
64
-31
44
8
-62
60
-102
90
89
70
-32
-107
108
116
7
-26
122
79
-79
-41
-55
-23
-5
-116
29
123
-37
4
55
87
109
-102
-28
-91
48
43
-70
56
-108
3
-92
71
-3
-35
-90
40
-114
2
78
1
33
63
0
-66
-78
-92
-13
20
45
95
-48
-61
50
96
94
122
-35
60
-5
24
48
-70
-2
-120
-66
67
-36
71
-3
-124
63
30
-126
-25
-50
-115
16
112
102
77
51
-73
101
-40
38
33
2
-100
44
-99
3
90
119
-12
-81
-34
-9
-117
26
-9
-2
-107
-14
-3
-28
-105
-112
-32
65
119
-92
109
57
-58
-4
-71
-52
-12
-103
-25
-25
-6
-80
-89
38
-54
-88
98
114
63
106
-57
-63
88
105
51
6
-76
34
-18
-114
-1
121
29
-80
20
-103
-91
122
-64
-40
-87
-49
-51
-1
-6
47
-49
74
-40
105
-90
-58
-86
20
59
-73
75
-16
-112
-23
-75
-102
63
18
-55
120
-30
-68
-37
15
106
77
-114
23
118
-14
-99
-64
-116
12
6
63
126
-60
33
95
57
53
48
21
-122
-119
-96
122
-112
48
84
-101
111
46
-95
-122
61
-24
-118
80
90
95
102
-63
-93
-22
59
41
107
-14
8
33
-43
-103
49
42
109
21
-75
18
52
-89
106
42
-76
42
-21
43
64
28
0
-117
37
-62
-100
17
70
-68
17
-57
-19
-64
52
-66
-118
-117
80
-21
-18
-57
-107
-70
-62
-82
-1
41
-8
41
47
60
-20
26
-85
-98
115
39
-101
74
-101
38
-89
108
-92
57
109
85
-56
90
-128
105
29
-5
13
61
13
-39
63
-85
-20
-10
-73
115
95
-120
-23
-25
94
-99
-1
-73
108
-68
-16
-50
-125
-14
122
-110
94
-32
101
126
-45
-116
-108
13
-105
-106
14
24
-86
-2
40
80
58
103
-36
54
76
-122
-64
-24
77
-86
33
113
99
69
-61
125
-14
-94
-62
122
66
92
-42
9
-101
-29
-102
-29
96
-7
115
-47
2
48
121
62
-41
-71
-108
-112
54
22
-47
27
121
-2
13
-69
-3
-7
-14
-57
-107
110
-68
-47
-66
45
-81
85
87
89
1
-108
-2
-18
70
-127
30
92
72
84
113
-94
-105
-36
40
-30
-59
-126
85
35
-122
-39
-81
-126
18
16
-115
104
-84
-84
-8
-59
64
-31
62
34
-114
-101
-59
-9
-113
78
-86
36
7
83
91
-55
-33
-12
-30
-49
11
-113
73
96
7
13
-96
126
-123
49
20
81
-26
-17
-72
114
14
52
-80
41
41
108
-126
-118
-102
5
-108
96
75
-2
48
-17
109
-19
83
-56
74
-49
-32
43
5
-82
-83
82
77
78
101
81
-49
86
-100
-42
-97
-111
-127
42
-61
-114
-11
3
106
-23
-93
43
-96
-116
66
-23
85
6
-8
-116
-58
-56
86
-58
-33
-31
109
70
38
-31
67
-5
119
-38
104
72
76
25
125
-123
-79
-35
-75
13
102
122
-96
72
95
86
-124
-79
-98
91
-91
66
59
109
53
-79
2
91
-13
114
9
-32
87
27
-21
-56
-64
-126
-73
-1
99
-113
-2
-62
-83
-26
-114
-28
114
110
81
-7
-22
-5
-16
66
11
115
119
31
-44
106
-100
-9
62
-127
39
-123
107
-60
-122
-8
35
-127
-17
75
-114
2
-89
125
-8
-92
77
-55
36
-3
115
5
-55
11
43
42
80
77
-11
-120
116
-118
112
54
31
-75
-85
107
125
-121
83
-20
-95
51
113
68
75
-104
-101
75
30
86
86
22
75
46
-75
69
49
15
-26
-11
86
-107
-60
-46
-117
77
70
59
78
1
3
-120
50
-69
-20
-111
12
39
-94
-120
108
-77
125
-100
-75
-68
79
49
-104
28
-48
-74
-118
53
74
-65
49
39
66
-57
126
-120
64
-115
31
15
103
-16
-30
65
5
-58
-60
23
-83
-123
-81
121
-58
75
118
80
-27
17
-74
125
80
-46
80
120
-46
91
15
67
59
22
110
56
-116
-67
91
-58
-52
-1
-64
-93
98
115
4
58
-102
-17
76
-15
-121
114
-10
61
-65
124
52
0
126
11
63
14
-105
-71
73
-118
102
-3
-5
-83
46
49
-75
-113
-23
53
-95
-113
-70
88
-46
11
-53
-98
-47
2
15
12
-116
38
36
-51
35
-80
24
-119
16
-3
-109
50
-27
46
16
-68
-19
-94
-50
-107
15
82
-42
-52
-26
-107
-62
-52
-52
-74
69
27
80
79
-27
118
-121
-12
73
-74
-11
96
2
-49
-100
-6
52
-106
66
-117
-114
-127
27
-30
-4
-53
111
94
58
-128
51
-52
-69
-23
22
18
41
-71
91
36
105
-19
-18
-82
-39
-110
-63
69
-98
50
24
-3
-48
113
38
26
4
71
-112
85
124
-127
-13
57
79
51
-36
23
3
123
-58
-24
-86
19
22
14
-94
-108
113
-79
-125
-73
-10
-26
-19
55
-127
-21
-22
-28
42
-26
-3
49
95
-50
104
-66
114
-2
122
-122
85
56
95
93
111
78
-54
-67
-24
-46
-103
111
-103
-79
-80
-34
38
82
-81
-111
110
-51
111
-84
37
-105
87
85
0
-61
-93
-27
93
-43
-42
76
-119
118
-15
33
36
-99
119
-97
74
-45
24
26
22
-5
39
-121
1
-110
-77
58
77
89
-102
1
27
37
-124
-79
-114
-81
65
40
64
18
37
113
-44
8
-10
-31
11
65
-97
113
-109
82
-79
-126
-44
19
55
-78
86
-56
-65
-120
103
-72
118
-86
35
19
64
122
87
-40
-29
4
7
29
-119
-1
34
-112
14
86
-48
-114
-25
-104
51
44
-73
111
110
-48
-8
-74
79
-26
58
88
15
61
78
-124
50
-62
62
61
-32
-26
96
94
42
-15
-65
2
-109
-44
81
10
122
-71
-90
-90
-110
-115
89
-40
107
-113
-39
-104
116
-19
45
-77
-83
-101
53
30
-60
-97
23
-125
66
6
112
-22
-115
-36
-108
-52
63
-58
110
-128
50
-94
-65
-125
3
-78
30
54
21
-120
-120
-61
-36
73
-57
-47
48
-103
34
51
-124
-28
-76
119
27
75
-68
-44
-127
21
11
2
-62
68
35
-18
39
33
-10
123
-7
86
32
-91
21
75
92
7
-80
106
-126
120
112
20
-56
-125
48
-38
-40
-122
6
80
102
-73
-47
24
33
-35
113
-61
108
73
1
-66
70
-17
87
-49
98
116
-67
96
-64
106
-38
-33
-18
-77
28
50
32
109
-13
19
41
-54
75
-87
-82
105
75
-47
11
2
-77
-57
-56
84
-34
-126
-115
75
58
-63
-64
-36
77
115
2
109
-91
73
-126
97
-98
53
105
-105
-39
123
-69
-117
-11
-95
21
-30
-83
13
-28
103
-10
-73
70
46
-70
76
-22
126
20
11
-20
-73
31
-85
72
51
-111
83
-120
-102
24
-97
38
-126
92
-8
113
3
99
28
121
-46
38
3
-87
-70
2
-119
123
117
60
-71
18
20
66
-8
-8
-45
33
-90
-104
-56
-110
36
47
101
22
112
-94
64
118
118
-4
52
8
33
-87
61
38
101
-107
86
9
-28
59
-39
60
-117
60
122
7
-92
-22
111
119
-99
111
-34
62
88
14
-74
116
-31
-55
38
-35
-85
-84
65
53
-82
3
-65
-117
70
55
-119
-5
-39
-75
-121
-81
-94
117
-108
62
23
-71
-51
57
-112
118
48
-56
-80
30
-6
-21
-5
-14
-28
-54
84
61
53
-122
-49
-99
85
25
-82
17
17
-10
102
89
18
122
11
-10
-2
-49
-73
21
-21
125
4
-40
40
84
51
-76
-55
104
-48
99
9
-20
-72
-55
12
66
-128
42
105
78
-68
-121
80
81
-113
61
55
-33
-60
-21
4
18
57
-117
107
-72
-108
-76
-37
-8
112
-89
-85
38
-96
8
120
-98
-22
117
78
123
-68
-24
0
87
105
81
-89
70
51
24
45
-32
-89
120
-97
-73
-65
125
38
-121
18
-78
64
28
62
-52
-83
-103
-103
51
14
60
39
25
2
-5
20
-39
112
-85
104
46
82
85
86
-18
114
19
-48
-62
69
80
-95
11
82
78
-24
104
30
-118
-100
100
84
-22
48
-61
-55
-117
111
-114
-47
-126
-82
-50
76
-65
35
102
6
-14
61
-7
95
-43
41
13
70
59
96
-109
56
118
11
-47
3
90
90
29
65
94
-31
67
-34
-44
-73
-128
-34
-70
45
15
-121
75
-93
53
-66
-104
52
-116
-105
-89
29
69
16
82
-50
31
24
-10
-38
-121
-59
-112
-84
-58
-32
115
-125
81
-6
11
46
-106
77
-61
-92
-74
21
-94
81
-34
56
43
41
108
108
-97
20
-109
-21
95
-30
49
25
48
-83
114
-17
-49
4
38
63
-119
-38
-2
-102
39
-7
62
99
14
88
33
-89
122
-1
1
120
-4
69
-69
80
-56
67
20
94
-114
29
-17
8
72
98
11
40
66
28
-103
-4
54
7
98
117
-101
86
1
90
2
105
97
-33
-68
-98
-73
-90
30
-91
40
89
-6
-50
-56
-117
51
-78
-95
83
-10
-13
48
-6
-89
93
-124
-50
68
117
102
-91
-86
-98
-17
1
-86
64
-95
53
30
12
72
-41
86
-127
89
-86
119
-108
115
74
56
-3
-27
13
-27
-69
53
78
93
-18
47
98
-38
-103
-94
77
125
93
71
-120
59
-102
119
-26
-4
-45
90
-15
39
43
85
7
-92
56
83
35
-123
-45
76
24
102
-81
-119
11
-84
52
-74
54
11
124
8
-74
-17
-66
-65
117
-30
63
-71
-24
-42
76
-70
13
94
-36
-7
67
-65
80
-31
20
-90
-96
72
-17
12
39
51
-9
-75
-102
119
36
7
80
0
27
100
-24
95
-33
113
3
-72
23
-122
-48
-39
67
-101
43
10
-121
-128
-17
-27
106
-104
-90
-67
-30
76
30
-1
121
-29
-81
12
14
-4
105
55
-92
90
-110
-94
32
-103
-35
-111
-123
16
65
-102
-13
-7
2
-40
53
43
61
100
-100
-66
-21
41
-5
-3
-15
-44
91
122
39
65
47
98
52
83
64
68
-58
78
-19
-23
-7
-50
125
54
32
14
117
20
-11
-52
43
-59
-111
31
86
-98
24
43
77
72
-94
100
-111
-37
-103
98
34
25
106
-85
53
-52
39
-63
104
80
-111
112
17
27
45
30
34
10
-17
-9
54
-32
-71
15
118
-30
102
83
-52
64
63
-106
60
77
-50
26
-43
108
-115
82
67
-58
6
106
87
-28
-36
-118
102
82
-50
-102
98
76
99
-26
122
-3
62
80
-123
58
102
35
-49
-113
70
-97
-1
-125
-99
-80
109
75
-55
-63
26
-56
-104
-39
77
58
62
121
31
78
-117
19
-114
-17
-123
-89
-33
70
21
11
109
-59
-13
-81
-38
90
110
-13
-79
-109
105
-20
-123
34
122
83
40
22
-110
-13
-21
42
28
79
-72
-27
15
60
-43
-120
-15
17
47
-120
-13
109
66
33
119
-118
74
-126
123
-66
-99
126
26
16
-122
-80
88
4
54
-3
-124
125
-112
-22
68
-72
-69
83
-12
75
99
-60
-121
109
123
-112
-75
-122
-97
41
16
20
16
7
-112
116
-24
-10
78
-17
-55
-9
43
58
39
6
80
-7
-127
-86
40
-62
96
15
-126
85
-21
-62
92
-126
7
31
-112
59
-8
-112
48
-63
-42
40
60
-16
-113
-99
-2
-25
54
-109
-43
93
-29
-66
-113
-18
-118
28
103
63
-75
63
126
11
67
-24
-85
53
-51
123
6
110
34
21
-74
18
-83
80
97
-60
82
-69
4
121
68
36
-128
-119
-25
-69
106
-92
-76
-56
-15
-8
-16
31
54
50
16
63
-126
45
108
115
91
112
28
83
8
-106
-66
103
-102
28
-75
-107
-10
-6
58
120
36
36
-111
88
58
32
58
-26
33
-72
-64
56
-14
53
55
105
55
103
15
13
-102
-25
81
60
-66
-57
27
63
-76
-55
-5
8
-23
37
-66
-1
58
-106
-102
84
-106
-25
115
37
54
-6
75
71
62
-43
41
26
87
70
-18
26
117
-83
36
28
-12
-39
1
-70
98
-101
77
-71
108
-17
123
5
91
124
89
-14
-89
95
117
-86
-55
-93
69
-123
-62
109
-114
121
-8
7
-87
-38
-43
-56
-113
-24
-42
-7
44
76
-125
-71
116
69
-27
-11
-57
-106
124
94
60
-50
28
76
107
122
108
3
-94
111
-49
57
-27
-17
66
109
58
-30
1
-118
117
-105
-127
-74
54
27
-49
83
5
15
-39
-70
116
-81
-22
-62
-45
18
-14
-126
75
-77
-34
-65
-112
-103
-15
58
33
-101
-66
-2
80
-53
-128
57
-50
-121
75
-105
-120
-44
80
111
-4
40
95
-68
-123
32
16
73
-21
-125
-106
2
119
-1
97
77
-81
112
-62
32
-120
-55
96
89
111
85
65
83
125
114
66
71
88
-25
-37
39
-108
15
86
104
-48
-60
-47
7
-17
72
-84
107
-93
42
-123
60
72
24
-45
-6
48
-86
-23
69
-96
85
39
-44
105
4
42
-100
11
19
85
63
-31
0
-87
-9
94
31
44
-52
-49
60
109
-126
-98
-105
-84
-95
-57
-53
-15
104
-83
90
71
88
46
-32
-36
-34
122
101
-94
99
37
-48
17
-89
-47
7
77
-37
99
50
110
32
-109
-61
6
-18
15
120
-88
-112
-5
40
90
2
107
-107
17
56
120
98
-79
61
34
-75
-66
-3
35
-106
-30
-95
120
105
-45
-94
-99
-13
-61
0
-27
-8
100
-91
-122
86
101
-48
115
31
25
84
-105
40
8
-46
56
-25
32
-22
-87
-61
-126
69
-39
116
-71
60
-89
101
60
28
-37
71
-100
-48
-113
-19
-18
35
-18
50
104
-62
45
-102
107
18
-11
-50
94
-79
94
34
81
19
-37
-111
-50
45
89
20
45
39
77
-25
-61
29
-78
22
-95
90
102
26
88
22
16
-5
117
-61
-22
-97
-108
48
-31
-45
61
-86
-13
-95
-14
-47
-64
-12
-41
-14
-11
-115
-112
-98
38
38
-53
-115
64
108
25
56
-48
-119
61
-15
-104
-9
12
-111
38
2
47
87
51
66
89
124
-16
-122
-112
39
66
62
48
3
104
-95
22
-107
116
-67
85
-66
-14
-26
-40
-92
87
26
96
14
117
37
-90
90
77
4
4
81
-36
76
8
-13
-72
-9
-71
75
-19
37
-96
-54
111
-126
-26
-115
-105
-14
-47
-69
87
-118
84
-122
67
-88
-42
88
56
-59
70
5
73
112
-47
-6
-122
-20
-98
107
-89
42
-18
53
92
-43
51
58
-98
1
126
-57
115
107
-66
104
73
-70
112
-122
-63
93
-58
-99
-23
46
92
-69
116
-94
86
65
96
-74
37
-42
-81
-23
31
-60
-121
39
86
0
120
-104
-106
125
-38
96
-17
81
-118
-2
-63
-108
50
64
52
-57
-7
-24
108
86
-99
-46
-96
92
69
-41
36
21
-54
99
-18
-101
-100
-30
-78
63
-14
78
25
-16
-84
35
109
111
50
-101
64
32
38
5
68
78
-45
4
95
100
-26
-65
5
21
69
-21
10
96
-95
66
2
-72
-51
-104
-17
-44
126
-65
114
-17
17
-27
112
-99
-46
43
-103
125
-100
-94
-128
-49
-13
81
-104
77
-100
25
11
73
-102
-102
47
-4
-128
-101
9
-55
-88
-74
-60
-78
97
40
84
-73
104
-112
-120
0
1
25
10
-64
-123
-110
-17
42
-55
-58
-49
118
-30
-38
-44
-5
-83
4
118
62
6
86
-12
-5
-53
-11
-31
-125
-65
-97
-49
-4
56
-123
-45
-24
-18
-122
-103
-120
-106
20
-2
97
-3
48
-23
-9
-34
47
-108
122
-104
32
35
43
101
13
-59
-1
-73
-68
76
9
-121
91
95
101
-105
75
66
79
-3
-55
-1
-45
84
115
-29
119
-86
-49
105
-81
75
58
-55
-127
-95
-49
-93
15
-33
126
71
-30
-6
27
123
-36
-18
69
-51
-123
-93
-33
-99
-7
112
-25
-95
-55
73
110
102
24
-103
-51
-118
-106
-82
-121
-48
-39
36
-78
-13
91
-68
-53
85
-122
76
-39
-45
-107
-70
64
-8
-87
-73
91
-75
28
57
-1
-43
109
17
-17
99
-119
65
76
104
-60
-85
-40
-12
-86
67
111
-17
39
77
-84
-111
124
109
-35
40
-32
62
-110
-77
27
-77
-86
103
67
-67
1
57
-117
8
-127
123
122
-60
-16
47
-1
90
-70
-6
-52
-4
108
93
32
76
-54
-60
-77
120
-96
-49
-84
-3
51
90
5
-37
-23
114
-112
-100
-91
-24
-77
-35
-42
-108
100
16
-72
111
33
-104
-3
20
55
29
9
101
-67
42
79
-23
6
-60
56
54
-36
-121
125
29
-14
41
32
65
-40
78
-117
51
37
-27
-40
-3
44
-89
-16
-11
-124
111
64
-36
95
32
57
-82
-28
109
-52
-82
-31
-69
-82
-59
70
101
-41
117
104
-84
7
-96
26
75
21
-2
-79
61
-64
26
-95
-57
-34
90
-52
5
103
-125
-47
59
-39
47
107
116
-14
43
-97
83
-75
56
118
-26
83
-75
-55
-111
118
46
62
-37
13
121
57
-66
-42
-110
-125
-48
40
26
45
-46
-41
31
38
122
57
-89
36
-79
-4
-26
-19
-9
-74
-1
55
-70
17
36
92
5
-22
86
-86
73
25
-107
77
-103
81
-78
26
54
92
73
97
-71
97
91
6
-57
-105
97
59
-24
44
-28
22
-39
-68
-17
97
-114
-75
117
101
77
71
-42
101
-55
-122
-6
-83
10
-70
48
89
-3
41
-99
-96
90
51
-66
-10
94
27
22
-64
-6
-100
-98
104
-105
-114
85
100
12
-84
-93
-35
58
-10
4
119
-40
31
-76
-46
-121
47
18
-87
-63
-1
-71
78
22
-28
98
91
34
33
109
1
-18
42
3
78
-77
-89
73
113
1
-79
-82
43
2
-25
-97
-27
-26
-95
-119
-116
74
-19
56
3
-32
54
93
85
11
79
-5
93
68
111
-37
-38
88
124
37
51
62
18
-108
109
125
-36
4
-92
-58
-9
-113
98
-25
-120
92
-95
-75
95
-53
-15
30
-100
114
-92
-128
115
119
39
-69
-31
-45
-86
0
-69
41
106
41
-85
103
57
-91
15
81
13
-95
33
-37
-73
107
-89
-42
-80
-63
115
56
14
-2
83
13
97
113
54
-124
5
-14
1
84
-48
-107
83
57
46
125
-62
93
74
45
-59
-4
-54
80
-100
83
-96
35
-97
68
-92
-39
71
118
100
109
-94
-109
48
-67
-12
-101
81
45
-73
43
-22
29
62
56
-3
13
-53
-7
114
-17
16
-79
-56
108
-96
109
72
43
18
57
115
-83
-70
-64
17
-82
-121
44
-59
66
5
-117
75
-31
-4
-39
77
-59
-24
-102
68
-80
125
13
101
18
46
79
-77
31
-49
95
-73
42
119
119
56
-23
19
48
42
-30
69
-112
-10
-14
60
-67
-107
11
4
46
30
-14
36
50
17
106
-91
-24
104
-12
99
-105
-117
-26
-121
-44
-51
95
-60
55
84
-85
-34
95
-6
-65
-7
48
-109
-40
94
-32
91
-106
-34
67
-29
-108
40
1
-104
68
-16
-6
-27
-48
-107
64
103
-26
-79
-1
125
-19
-12
92
22
-61
-80
-79
-119
10
-128
39
-107
119
-71
-39
-102
44
73
4
111
-72
-47
64
-21
-107
7
-40
-38
4
-14
-117
-109
-127
102
-29
7
46
9
-21
-46
-38
38
74
11
-110
44
-75
7
61
46
50
-39
-84
117
-50
-120
-16
62
-25
-116
-32
126
-59
-2
46
-75
-73
11
-36
103
81
59
107
55
117
-100
-91
38
-36
-28
-41
-122
91
10
-101
82
-4
38
-89
-123
-70
117
-128
103
67
121
119
-126
101
-1
-53
107
98
-34
2
33
28
71
81
-7
-100
-71
-99
96
-106
11
-107
80
47
-111
71
57
-94
-46
41
52
-84
-93
-123
77
-57
-102
34
-37
84
-85
93
-5
64
67
67
-63
-51
-11
-1
-24
-53
107
-1
29
-61
-3
82
-36
1
-114
83
-20
53
38
-25
68
113
-3
84
56
120
-49
6
-9
-28
36
-121
-89
66
1
-2
-78
123
-84
-20
125
-5
-78
-10
88
124
68
34
18
-38
14
26
-42
-93
57
63
-108
-110
38
-70
-120
23
-120
86
111
-11
50
-26
-111
-17
-55
-51
53
-96
-73
-33
9
-18
-102
-45
33
-16
19
89
109
15
48
104
-119
74
-54
27
-100
115
-127
69
-90
58
-21
15
48
-111
-90
-103
-111
93
62
-96
-116
77
93
83
-54
118
16
25
30
-56
94
-90
66
90
-4
-98
102
-28
88
5
37
43
5
-119
-48
18
76
-64
-52
40
108
-2
43
36
70
92
-10
6
-25
-79
-110
-33
30
59
-108
-30
-63
28
-11
71
123
-27
67
14
30
-103
-12
97
-17
109
0
-115
57
-37
-113
63
126
95
-73
-100
-57
-119
67
-57
-99
67
-82
55
-39
-39
0
114
-121
-80
-91
-62
-113
124
-31
-122
46
-51
108
-98
99
-100
42
-46
-62
-5
53
-99
75
33
-56
-1
6
-1
-40
-55
117
-3
-31
-5
-29
-1
112
85
-24
117
-15
36
65
-97
-120
32
-111
89
17
91
11
70
25
14
-48
115
29
104
-45
-102
-65
-109
35
85
-127
37
-73
-13
8
-19
99
9
16
-90
40
75
-109
0
112
-26
118
53
37
-108
80
-35
97
-119
-13
95
-52
86
-122
42
74
50
2
54
-116
122
-32
11
65
88
77
-76
125
35
19
-96
-30
-108
53
12
2
50
-53
-25
-45
-108
-64
-4
-75
59
118
67
76
-89
3
1
-12
112
-102
-71
-37
-128
100
41
36
98
-123
126
89
119
15
-121
9
-94
-70
-92
-99
113
109
-110
31
13
17
-127
-10
-79
87
-76
43
-121
-110
-103
119
101
-72
-122
-54
89
-7
39
-71
12
85
10
-90
54
-106
-113
-76
8
-63
104
-70
49
92
110
-13
-44
-105
-66
78
45
-50
21
29
63
78
63
-79
-78
-1
-75
-113
47
73
-123
-52
43
29
41
-52
-126
112
-49
119
-84
105
48
96
-20
64
15
-123
69
122
-60
-17
-48
120
52
75
77
-90
8
-84
35
-6
-123
8
-70
18
-56
-88
9
-86
27
79
-7
39
118
72
115
103
-13
-33
-82
-85
80
-16
-35
29
-108
35
-119
-16
-45
-104
-67
116
-112
97
72
-58
-49
29
-60
-100
-116
-16
-120
-6
93
20
-128
-11
112
24
-71
-85
-80
87
-69
117
-37
-31
77
4
-114
-19
-1
30
-23
77
64
-79
-13
42
-44
85
17
-97
62
-91
59
34
10
-5
-33
76
-78
-1
-48
79
-14
109
33
89
63
44
-105
71
116
99
95
83
15
-107
-103
114
-100
5
10
-110
61
27
-71
51
73
-72
17
-115
22
54
4
-11
89
56
-51
102
51
-58
-97
48
-56
-124
52
13
46
-60
12
-55
43
13
-105
-107
59
-3
18
38
88
0
-116
0
115
-115
-109
-113
-59
-16
-26
69
1
72
2
-49
52
-16
-74
-46
-110
-10
-82
-70
21
-66
123
46
-75
119
79
95
-111
121
-109
20
52
76
-3
123
86
-64
105
88
120
-3
42
117
-4
37
-110
-68
19
-113
126
36
-17
31
13
23
-113
4
31
95
-128
35
-9
-52
-35
76
-37
-125
-110
83
-34
-55
-95
-70
29
89
87
124
58
-11
49
-110
-65
122
7
67
116
44
-63
99
-27
84
23
41
56
-95
8
-20
57
-77
-89
104
14
-12
-124
120
95
40
-92
-82
-32
92
-18
85
11
-7
-96
30
98
-80
-68
5
0
124
-69
56
-19
117
72
-121
-45
5
-11
-33
37
-37
-4
-47
111
65
-14
-116
-2
110
-39
-71
-58
-65
17
-84
-70
-59
-60
27
-57
67
-74
4
-85
-91
-104
21
119
112
92
-91
44
84
124
-41
29
111
62
18
62
59
29
-16
-18
18
-102
94
32
23
-54
-73
37
123
13
-113
-68
-76
-77
-28
-71
47
65
41
93
76
23
94
24
-99
125
-63
46
-112
99
71
-76
2
33
-19
35
55
-123
110
15
-27
-97
-17
79
-88
5
47
45
-119
-91
1
-63
70
3
-61
-7
88
113
105
24
-66
91
46
25
121
-119
89
46
83
105
59
-44
79
39
-109
-123
-48
-90
-72
53
-113
-86
-38
-105
68
-31
-105
64
11
92
-59
-52
-61
-38
79
-90
-38
-85
-18
115
-43
47
79
-60
-104
-103
-92
-72
88
118
-69
18
-78
-28
-21
-26
-112
76
-97
-22
77
-71
-54
-105
-106
-20
-126
122
84
64
-12
77
-120
50
-121
0
-26
61
-6
113
-17
-112
-79
-107
-4
-11
55
-93
13
-57
-41
-6
123
-29
11
-80
-108
-111
75
-2
-93
-116
-53
0
10
11
112
18
98
-28
-80
-72
-88
-67
-10
-75
-34
-107
113
-6
109
-114
79
-34
-28
79
79
50
-58
55
-50
-86
43
31
-10
-94
-93
116
-73
-107
-75
1
73
-106
112
-2
39
-98
-127
-40
7
3
-88
84
79
47
70
-48
-38
56
121
-87
-116
77
99
57
-12
125
81
42
-95
-117
46
43
-62
75
27
98
83
-63
27
6
-64
-2
-83
-32
51
22
-100
6
100
-80
-46
-34
79
12
39
120
90
111
20
56
120
-90
-87
55
-100
6
-119
-118
-112
-59
-119
118
124
103
74
21
38
89
-64
53
61
-117
93
30
-88
-76
-122
-103
-16
-39
-56
-27
56
46
67
-13
52
-33
-84
-49
49
-77
63
109
75
-57
10
55
-49
-16
-43
-111
-31
9
-63
11
-16
9
109
125
29
23
87
-41
-123
40
-116
-117
-123
-63
116
-91
5
42
-69
-14
125
59
-122
-126
-71
-107
76
118
-88
68
-109
125
105
27
-18
-29
-41
-35
-20
101
35
52
34
-53
-26
52
-102
97
-127
123
-61
-20
33
-20
95
-59
122
-97
-71
8
-90
84
31
96
38
33
-36
74
-48
103
-71
-81
-128
-59
-3
-30
-75
46
124
15
-99
52
64
-87
-101
113
36
36
1
-10
-59
115
-12
-96
-31
-56
14
45
69
-89
86
-38
79
11
2
-1
97
-71
60
-79
-6
-4
-55
88
26
-13
-5
106
38
4
73
-113
109
0
90
33
-72
74
-88
25
111
-57
-64
-104
92
-70
-125
90
-91
-105
-112
115
-28
-41
81
48
-111
2
-37
1
-102
-15
-64
109
-111
-124
84
-36
-41
-66
123
99
-43
123
57
62
-32
-117
-96
-54
54
-50
106
-120
121
15
-126
-108
126
-71
35
-52
120
-31
117
-91
-33
-123
-88
107
-78
62
40
27
-26
-77
-94
-97
92
-22
-59
64
5
55
-94
-115
-27
-119
122
-66
-95
97
11
-51
68
-82
105
-22
-34
100
46
-45
64
-115
-122
16
76
-125
33
42
83
58
-52
17
53
125
40
84
-107
120
-91
49
40
-23
-86
-8
14
-1
10
-118
-10
4
-49
57
-24
104
-101
-103
38
-13
-49
33
-98
-127
67
-42
-44
81
-101
14
67
-81
110
66
56
35
-70
68
35
-7
91
86
2
-52
19
124
70
-120
-92
106
-117
42
-36
-94
-54
-22
-123
-70
73
-108
-106
38
115
92
96
-4
-27
-16
-26
54
-74
-97
101
-98
11
-86
-128
41
-21
-78
-14
-23
-113
-48
-127
47
-87
99
63
102
94
-22
-3
37
25
23
12
-109
-26
-84
81
-74
-43
57
72
-66
9
-107
27
109
21
-3
-1
-82
-128
-58
84
-2
63
-94
40
52
67
-33
-32
-6
-81
-79
2
48
62
-37
-2
-46
-45
42
121
29
34
-31
121
37
106
-23
-8
97
71
-43
-126
101
5
-87
48
-125
64
22
115
-48
-22
-45
-92
77
-67
-8
97
72
17
-25
-86
7
-10
-119
97
-86
113
-88
-45
-64
-34
107
-71
67
-57
-128
103
88
77
-16
-35
115
31
16
80
98
86
-72
114
-57
80
-3
-8
-22
-124
-85
118
-121
-59
-92
-117
78
-83
-7
-2
42
-83
-107
-116
-73
-24
91
-101
-20
46
-128
-36
81
-78
-128
-1
13
-51
19
38
-72
-40
92
19
10
-111
-23
-97
-59
99
-108
52
88
48
-94
-69
35
26
-127
-35
-52
122
111
120
28
16
118
-21
100
27
-1
-112
118
-45
55
118
-40
-19
-47
92
53
8
-42
61
64
-83
-47
58
-97
-67
-98
-105
4
79
96
-81
89
54
-5
-16
-70
-2
-63
105
79
15
-62
103
-70
112
-1
-77
-49
-82
-22
104
-49
25
-101
79
-57
-11
6
-113
-94
106
9
86
105
45
-106
86
-82
-87
8
-106
-23
13
84
-84
107
89
-65
-23
-4
-59
-29
-111
-119
119
-90
11
-85
-26
97
21
-119
-46
-96
6
125
-52
-7
-96
-109
10
-113
36
-77
-112
-63
107
14
62
89
6
123
89
-94
-78
-65
79
-11
85
63
108
-100
120
-108
62
-6
-34
66
28
-6
66
-57
66
22
-6
55
-76
-103
122
-76
113
-64
-53
-126
22
-4
96
-112
125
97
-101
-124
-6
77
-68
-49
-42
29
-9
30
119
-16
-8
-106
-11
-61
39
79
115
55
42
11
-29
-102
-97
-97
-22
-4
46
123
-98
88
70
-114
-26
21
-67
104
-50
-109
-66
87
45
60
-23
-127
-64
63
123
92
67
-36
-76
101
44
5
31
124
81
83
-122
-37
-55
56
92
117
-76
12
-55
74
115
71
-43
-91
126
103
-29
-11
41
-6
85
95
91
76
30
-70
-97
-90
-62
-120
-80
-32
18
111
62
-66
114
-121
-48
-32
-101
-108
-21
-59
45
-124
-100
-113
-27
-99
-95
-48
80
41
-62
-9
-46
104
1
20
-115
84
80
100
-11
-24
-111
-3
66
-18
6
53
61
-51
-5
-60
18
-71
3
-116
-88
1
13
-119
-93
31
-79
55
101
83
-83
112
-37
29
125
-102
100
-125
-51
33
-103
22
125
2
-69
-99
92
79
-37
39
57
12
-11
56
-124
120
-113
-120
19
-44
65
-88
-101
72
-98
-111
-110
-39
53
82
38
-82
117
-46
111
-78
-8
-120
-77
-10
114
-8
-127
-72
-123
-11
-64
-120
22
-119
-104
109
-90
78
-95
84
111
102
81
-24
-18
31
-10
85
-119
-44
78
-45
97
72
38
-31
110
-94
-103
84
86
106
-102
-80
-65
-120
95
-37
-9
-109
90
-1
31
111
-38
-45
52
-70
93
111
-11
-35
-9
-112
101
-111
99
121
10
-125
-78
115
-62
48
71
100
-7
-64
-49
-92
19
11
-13
70
116
46
-69
-72
90
48
26
123
-56
-97
53
89
10
-72
60
37
114
55
122
49
-49
-25
-100
-125
34
-22
105
-103
63
-5
-46
-115
19
81
-109
-124
37
-64
69
-112
-84
110
-66
-73
62
106
104
-39
111
47
125
-55
-97
17
55
64
-34
9
-3
-96
57
3
-122
-94
-87
-8
39
-51
-62
-118
-82
105
57
109
38
109
54
-50
111
-83
39
95
-82
0
108
2
30
-118
98
117
118
22
54
37
-57
102
-25
39
113
-22
41
-79
-107
94
27
-51
101
-115
2
-76
-23
-38
-120
-119
20
56
-88
18
-41
17
-29
-116
-76
-24
108
-107
33
-115
115
31
-88
-120
52
72
92
-103
-4
3
28
-13
-112
-98
-50
111
-22
-87
107
-54
18
-92
81
-113
-108
72
-61
98
-98
43
-49
81
-42
16
15
109
-45
-64
91
97
-59
17
-25
73
-11
-51
-123
41
-120
63
-107
104
-123
-63
-5
15
-119
-15
5
-28
-74
-79
-117
22
-28
101
90
-74
10
-14
-2
117
20
23
39
-84
-14
35
65
9
-54
86
77
120
41
-72
-10
-97
-117
-94
108
-125
-64
-19
-104
112
-36
-48
-60
124
86
-107
-104
-32
17
42
-16
28
101
0
57
13
117
99
-4
31
119
67
-28
3
24
-100
76
-23
-88
-6
-4
64
28
117
-33
-109
-32
-8
-95
86
12
-66
64
-94
84
74
108
-62
-86
120
12
71
-39
-25
65
-89
-126
-94
0
-90
34
52
82
-78
-18
103
-105
-82
-4
-128
125
47
-30
14
-32
-92
37
99
-47
-20
37
-66
-120
105
-94
46
95
40
117
-43
71
-11
-80
91
56
-106
105
-80
-51
93
75
-53
-9
-15
124
63
-9
-99
71
-121
122
53
49
2
-7
-48
-119
-105
-43
106
74
-17
-91
99
101
58
-77
68
-86
119
-56
61
-121
-71
-15
23
-122
-38
95
81
120
99
43
-17
-98
115
-27
58
59
-79
33
104
-50
32
91
25
83
33
-115
-72
-88
87
9
25
33
102
16
-66
-87
-118
121
112
-96
-85
122
-90
39
-44
-9
-81
47
-124
-71
-120
38
-81
-5
-109
-3
-16
-19
56
-102
-117
-59
39
87
2
-33
19
-78
102
-121
-36
-96
6
28
15
-96
-91
-111
-26
-126
97
-110
-102
113
23
6
27
33
79
0
72
74
1
-21
-61
64
60
115
26
-101
75
-55
-55
-58
44
21
-20
-26
-107
66
51
-85
18
35
70
48
75
-112
50
64
37
-100
-14
33
-91
-93
41
-63
-41
-95
-87
3
-121
-19
-31
33
94
-82
-121
69
-44
13
-31
-50
-117
42
-118
-81
23
28
-104
-44
115
-78
-43
117
105
-124
-22
24
-38
-88
85
-34
-66
-8
-6
-90
-40
6
-67
-57
55
-86
-18
-84
-124
-40
77
86
34
-85
-12
-77
-52
-74
-76
114
19
61
-91
89
-28
-21
-63
2
-20
118
100
71
-119
-63
54
-82
-64
52
38
-84
105
-7
35
3
13
51
83
-74
-26
-52
56
-115
87
-128
69
-101
-80
-95
37
-27
13
2
111
-97
81
-11
18
-67
62
66
76
-120
40
107
109
-105
20
-96
19
105
-109
-8
4
-96
82
4
101
77
75
-49
115
-14
-21
-68
56
112
-68
-55
42
-63
-81
19
-28
16
-29
86
-63
-48
-48
-63
110
-42
-22
99
58
-119
6
-125
-52
54
-7
33
93
99
22
62
-65
-28
24
37
70
-80
-89
-45
-7
-68
-78
50
-10
106
-2
-25
100
113
24
71
-75
-51
-75
40
53
-111
84
63
99
101
77
4
-99
-26
87
51
2
108
-33
-99
-72
79
-75
11
28
-80
-75
73
84
-21
55
64
-116
-55
45
-45
-89
76
4
-8
-79
-17
58
-78
92
-41
120
73
-4
82
-74
-124
-5
-71
-115
75
-34
48
-57
62
123
20
-67
79
-78
-81
8
-45
18
77
-64
-44
91
1
4
-102
27
76
-126
-79
8
-45
-112
77
-127
38
46
72
101
-78
-56
-80
52
-81
-40
108
63
24
-101
43
-15
110
-122
6
-55
43
56
-127
40
-63
-40
-57
83
-42
-32
49
22
33
-50
97
13
88
-89
65
-42
50
83
120
-37
96
99
-56
-119
23
-113
12
85
106
-72
86
-97
-66
-83
-106
-100
-24
-41
-59
13
115
-93
111
74
11
46
-87
-98
-45
123
115
-84
49
-54
107
39
-88
-64
93
-46
19
69
54
55
103
33
-45
62
-21
-7
-63
-51
-53
-56
6
77
-17
-60
86
-2
32
-6
110
44
20
-110
56
-9
-23
57
-122
87
-124
50
22
32
106
-14
56
45
78
51
99
-40
94
-64
6
25
-54
96
28
106
15
116
-91
-41
-46
7
5
2
118
-119
68
-14
-21
81
110
-32
-51
-9
44
108
9
3
-61
-70
119
-59
39
114
-121
115
48
-116
-7
8
-12
-71
28
39
-128
-56
-48
10
4
-73
-47
31
4
-75
-72
64
-6
-113
102
105
-36
23
9
-98
123
102
-111
-52
64
1
117
29
109
88
-97
-87
-27
19
53
26
-69
-97
5
-74
-53
-57
-106
77
-23
48
-63
-42
97
-61
87
119
81
90
109
-59
-58
-73
94
-53
18
43
59
90
-90
86
-53
-90
-124
105
-70
-96
-14
126
97
-78
94
-117
-28
-76
25
-66
85
8
-85
-71
107
-37
97
123
9
-61
22
111
74
125
-5
91
75
-76
75
-60
103
-29
-111
40
-19
-111
-113
99
-117
-90
-26
70
-116
-126
23
92
118
118
55
-28
126
106
-21
3
43
8
122
7
26
-113
39
40
56
34
-32
92
-67
109
105
-95
101
29
-28
90
82
93
-19
-9
16
-120
-39
18
112
-10
103
-34
116
70
41
-128
-126
14
-22
90
1
-44
-35
10
93
-61
47
-56
110
69
113
-124
18
114
-100
-64
22
-55
15
74
-20
72
95
-49
-37
36
-102
7
73
116
30
104
53
69
-58
-27
-33
94
-34
-8
-90
-16
-97
-11
28
41
9
-115
109
-121
-108
72
-14
-13
-59
-49
87
9
69
-72
11
53
-104
-125
-113
89
84
38
39
-73
-14
-72
-53
18
38
-20
110
-11
103
17
117
42
-30
121
-12
49
-20
-83
-80
-22
68
-69
109
45
-117
-99
38
-12
-47
-83
-36
70
-21
3
18
-31
-71
-82
-41
-63
-91
-100
101
-95
-88
-96
-80
49
-56
-73
-47
-110
47
3
125
5
5
-87
126
-57
-42
115
-96
-7
59
61
-3
-51
85
-6
-110
7
-100
29
-101
74
-15
86
-76
-66
63
-85
123
-113
76
-93
-14
5
3
33
-106
81
-33
-21
37
74
2
-110
101
108
-82
-90
92
51
5
-68
-116
-75
-80
-80
-13
77
119
22
89
26
-105
52
76
-119
-107
11
65
-49
-103
-100
30
-26
-120
43
81
-9
81
107
16
61
-98
80
-93
36
-83
16
-96
95
95
53
-126
31
118
85
40
-67
20
-56
108
116
-55
-43
-37
-10
65
20
15
39
64
-28
120
-122
73
-30
-4
-76
-107
-65
-95
101
79
-65
70
126
37
-72
88
101
82
-33
96
90
86
5
-111
-63
121
19
-69
-34
-97
-51
29
-37
58
-89
-38
61
-40
-89
12
17
-96
-114
-70
24
-42
-69
34
-3
-29
-23
-88
58
-100
79
55
19
86
-17
-95
-118
54
-35
-67
106
64
57
-115
27
34
3
-63
42
20
-71
-36
-80
-23
108
-67
-13
-104
-2
72
13
115
125
84
70
-120
92
-120
-8
28
-8
84
-92
34
-121
-59
-56
14
-44
-75
20
-76
120
-120
3
-17
-49
-87
-101
-11
63
9
88
122
7
-75
-126
70
-73
-40
93
-55
12
-84
-36
-28
-53
96
-101
-100
34
43
-23
71
-62
18
-86
121
-119
-120
98
83
-48
-12
33
27
-62
-11
46
-127
-107
-36
54
10
40
-74
46
-95
77
-113
-23
12
69
-19
-120
34
-95
125
114
-74
73
2
-42
10
34
125
-120
-36
-85
-16
32
36
-61
43
-116
-33
89
-42
16
102
82
20
-91
-94
-22
36
-22
-92
2
7
23
65
-115
-19
-98
2
-35
-75
-95
-66
-24
-41
-65
-126
111
105
113
44
5
-20
-64
-85
112
-74
66
53
71
1
41
-90
18
39
33
-44
113
54
-11
103
-104
69
-35
-45
63
-69
-89
-85
-61
117
75
84
122
66
74
-76
-121
-118
91
-27
-113
-116
-14
-10
107
86
53
64
121
-32
-96
-6
28
47
99
-49
53
46
119
-122
-107
-101
-80
21
2
121
41
-17
-63
-20
76
80
-97
118
97
-15
32
12
77
-24
-47
20
89
-91
-120
97
-43
-106
-12
-109
-2
0
114
76
90
36
-11
63
-93
107
-120
-2
-60
4
-27
-81
16
65
36
64
85
126
73
-20
-58
-49
-114
33
-116
-82
-57
-61
44
-30
33
-58
-114
-66
-114
-24
23
52
-94
34
12
116
1
-48
-28
12
29
-113
71
-99
95
106
23
7
-118
123
-7
-48
8
44
117
30
108
-98
-13
35
-34
-74
31
-67
-24
104
-63
-119
-100
68
23
121
24
98
-101
-54
15
-20
105
-40
123
-25
5
-113
102
48
-101
67
-91
-65
-8
104
101
-48
-13
-122
126
94
-82
-116
106
-85
59
-102
-24
118
74
-42
20
31
-31
106
-78
-103
108
-26
-3
-48
-32
-106
64
-1
76
16
10
51
21
108
71
-3
2
87
-110
40
-66
-72
-91
90
79
54
-88
67
106
111
32
111
5
75
3
-93
-118
12
97
-38
69
-70
100
-23
122
123
10
-33
-118
80
-36
37
125
-97
98
29
-88
-113
-8
-45
101
-7
-97
-49
-30
61
-1
-60
13
13
-128
18
92
65
-118
111
-128
36
-30
-88
-52
110
54
-51
-95
-28
48
-90
-6
103
-58
105
21
-1
28
-100
-27
2
99
114
-15
70
-5
-90
-111
-94
98
101
29
124
96
116
88
-127
64
106
-72
31
2
-31
-61
82
29
-103
26
95
96
-127
-47
-88
103
126
58
-3
-102
-6
82
117
-62
35
16
-7
-14
-111
-12
3
-125
-84
-73
-59
-116
70
106
-103
-52
126
-50
-10
-34
-101
-55
-19
23
-35
125
46
-29
-99
-124
29
-83
-123
69
-94
76
-102
-35
-76
43
10
98
-32
13
-84
-94
32
80
10
53
95
-114
81
-68
76
-125
49
34
74
-37
78
-42
-24
-68
-94
-64
59
54
13
55
-35
-94
-79
88
68
91
-66
-89
111
-128
38
18
-82
112
1
-9
72
-111
104
-60
110
98
-1
61
56
-116
-8
124
-119
-8
-3
-118
-127
-102
26
-107
83
-82
75
63
32
81
-125
-105
19
97
27
-122
-18
108
-4
-24
-89
28
-109
96
70
82
-87
104
-63
74
-6
92
85
-103
-5
-89
13
53
20
-40
-76
-96
59
-68
64
-33
-27
-42
32
25
43
-59
-25
-126
7
51
-77
-75
-83
85
48
111
0
99
-71
75
-58
-35
-42
126
124
-29
-71
-97
-44
67
17
-61
110
-16
-31
72
-31
116
-30
-2
2
-112
-73
-13
43
77
43
-52
-35
-72
122
27
-75
-78
100
-106
-43
-87
-96
-12
41
-121
-9
72
-18
-43
-16
-113
-40
-42
11
82
123
93
-14
-28
-24
-13
41
5
-13
101
29
-116
80
-109
84
-64
48
-110
-3
-69
69
-12
22
-88
73
-27
23
72
-70
50
-77
-56
-26
-28
-84
-17
-96
20
86
-98
-71
-98
76
14
77
-24
-91
-79
87
90
-51
64
-64
25
-94
-56
-58
-95
35
-67
-126
-92
-111
2
-68
101
-110
-27
1
-39
53
-127
-27
-11
-74
92
83
50
-26
7
19
40
68
44
106
116
-106
-43
-26
-90
17
126
-120
119
-98
93
60
-6
44
-103
35
73
54
99
-90
-97
95
28
-74
11
20
53
-40
-72
64
-18
34
-36
104
-85
72
24
-18
41
-6
67
123
-42
108
99
107
121
31
76
-73
-27
-120
60
-71
-100
-28
-4
-116
-107
58
-121
-100
22
6
39
-52
-46
-45
-83
-27
13
-101
55
-18
11
69
93
-111
21
-77
99
51
-52
56
-5
120
120
-100
-38
47
25
-29
102
-52
-23
60
14
65
39
-69
-42
86
32
-40
120
124
63
5
-6
-1
-55
-56
56
-54
80
104
30
26
-10
4
-113
120
2
-65
103
24
-107
28
-65
75
-10
-61
97
-90
-103
121
-121
15
54
-1
98
77
-89
66
106
41
-103
-74
-121
-45
-61
-1
-32
-41
8
-59
-87
88
74
-27
1
-105
28
46
-53
-91
-67
86
105
119
-101
-79
-90
18
-113
26
68
125
-21
114
-48
32
32
44
-90
16
80
-83
-53
41
-118
118
70
98
54
4
14
-33
-76
59
108
110
-65
67
95
-85
-101
46
-5
60
87
-39
69
6
-60
-71
105
-29
-124
13
-37
-5
-107
54
22
116
-25
-88
65
-75
-106
-65
126
-1
84
120
18
-21
53
-97
-121
-59
29
23
84
119
114
87
-124
14
-23
-77
6
-59
-128
-40
-50
-64
-85
61
122
72
111
11
67
-89
-24
54
-81
-98
62
3
-106
30
25
-96
4
-125
6
91
-121
-33
67
106
-52
-69
60
45
25
28
104
-17
3
85
-125
105
117
-75
-27
36
-13
120
94
-126
-73
-50
67
-28
-25
13
104
-113
-33
16
113
-69
-34
-36
124
17
-22
62
92
21
62
106
101
108
-12
105
8
95
-120
77
-22
45
-103
97
-122
-10
98
6
79
-94
-80
-101
6
59
26
-9
80
-58
27
2
-123
125
-71
118
-49
53
-4
101
-128
-24
115
-90
55
1
-39
9
-27
118
-69
-96
44
-1
-17
41
-70
2
55
73
124
21
72
-100
-94
51
67
101
49
33
99
115
118
-117
105
81
-25
-118
87
-123
85
-35
-111
-30
-49
-50
83
32
-42
-104
46
41
126
-59
34
82
-54
-48
-40
-7
4
-5
-100
98
88
-6
-22
25
4
-102
-109
-35
-6
-54
-73
59
97
-81
8
31
58
80
-63
120
-54
116
23
1
-61
-102
80
-99
88
-21
-65
80
44
-77
-114
-10
-119
57
-100
-89
104
100
-15
-47
42
-126
56
105
24
-10
54
-30
-22
70
-87
10
-93
9
107
-60
81
32
75
102
42
-87
-8
-22
31
102
-64
80
-41
-128
96
71
-54
-119
99
73
-45
-61
6
-87
-65
83
41
-95
-70
-121
-101
-91
17
-121
44
-97
-44
67
-2
66
-50
93
124
-71
-123
27
35
4
35
104
-66
-126
103
39
-103
-37
-75
-6
116
-60
-64
59
113
-122
-7
-70
-2
-113
49
-55
120
-104
29
72
98
-6
29
-47
-120
-25
-3
31
112
81
54
-14
43
42
101
14
77
-87
-6
115
-127
24
64
-114
84
-61
-41
34
12
-54
50
12
-77
-92
85
-78
54
-3
-48
-45
-21
-72
4
-7
105
-12
-47
120
101
105
63
53
-11
65
-1
123
39
-127
-68
-87
-106
-116
4
-90
-54
87
46
-47
-121
-34
38
-25
89
123
64
-57
-66
-104
58
-114
79
89
-24
-12
-35
65
-122
-43
-16
-100
93
-128
-73
87
54
-37
33
-106
-89
-37
-40
92
-66
66
122
103
-39
-128
120
-50
-107
16
54
119
-127
-85
61
-91
114
107
-60
-123
-117
44
-116
69
10
0
24
112
39
-6
54
-125
0
-41
-89
-73
-66
111
23
-120
32
-121
108
-94
-92
92
-77
17
49
33
-100
-38
-89
-61
-12
-99
3
-65
-10
-90
-46
72
-119
55
61
2
30
85
-113
-65
-78
-14
-6
33
76
-80
78
-68
-23
52
-44
-57
7
52
123
79
-2
-6
45
-34
-20
-8
-76
-113
-122
-128
-82
64
-77
-21
31
-77
-11
52
90
-114
52
21
97
-128
-109
109
-67
0
34
114
10
-5
14
60
102
110
-36
-57
48
-55
-120
95
84
-97
20
-30
44
-123
-38
91
12
-4
-13
-9
29
112
27
65
-33
-1
-46
-4
101
121
-73
83
21
-117
20
-96
12
-42
101
71
116
-97
-15
-15
-59
11
67
93
-48
13
-41
23
44
-78
30
83
-12
-53
41
-81
6
-34
-113
-91
103
-57
-97
123
88
-30
117
110
-46
94
23
123
36
-94
12
-5
-5
5
-57
119
-8
-35
48
-127
87
-38
4
-9
33
-29
38
-24
-70
6
52
-19
-82
23
-103
85
-124
-125
-78
55
116
33
27
-20
88
124
-64
-95
15
-102
-76
-46
5
106
-126
53
-79
-27
34
109
67
41
-80
89
-2
6
-34
-24
55
-21
-55
-33
119
-62
125
-13
-28
-40
92
-38
-94
-56
115
-19
91
-60
-112
-79
111
12
124
56
117
4
-111
115
-5
54
-103
-117
59
12
-20
-57
-108
-14
-72
-40
63
-25
124
39
-58
100
-74
73
5
81
4
37
4
74
-36
-116
43
-93
1
65
4
18
62
-106
-48
95
85
-122
-49
-25
72
-63
117
-75
97
68
-1
84
-91
-42
-28
25
-93
-53
-52
23
112
118
-69
-97
67
-63
-48
114
-61
-16
8
-49
-29
53
54
6
36
-50
33
18
-54
7
-81
-78
-9
-102
-18
70
61
-58
103
-85
-69
-26
-115
-36
-115
67
28
22
41
-110
125
92
-47
28
106
-21
-11
41
40
-104
98
90
12
15
-69
68
22
-28
-100
-116
69
-31
-79
-66
-116
-115
37
126
66
-33
12
-5
-91
58
-44
-44
-57
-103
-81
-100
28
-48
-64
-119
57
0
63
120
-81
-31
-97
-29
-50
54
-22
113
-44
8
-2
-65
102
69
50
-66
-82
-83
-26
39
62
-39
92
103
-55
115
-56
77
49
32
63
-79
117
89
-106
-16
-93
106
77
-66
-7
-112
-35
-39
-40
75
43
-125
88
-12
126
6
-18
-120
116
-49
105
-25
21
85
99
-80
-3
18
116
112
117
-46
37
-54
106
101
108
100
80
-55
99
2
-55
63
-7
53
-75
12
55
-38
48
84
122
-92
-42
-30
50
-87
-68
-61
84
42
-17
-91
-7
3
11
8
-124
-11
111
118
-65
26
67
-96
79
59
-23
20
-127
110
-11
-119
-41
-18
-112
15
19
-117
-57
47
-7
96
-81
-105
-17
-78
-103
19
9
42
19
-108
-109
-113
8
84
5
-77
5
-107
48
48
66
-109
-115
-83
119
-7
-19
-71
-20
-31
46
-99
19
123
108
120
-73
-72
-45
-76
-109
13
-69
-4
-35
30
-42
-41
121
3
-87
73
16
32
-5
-43
60
-5
87
-98
118
74
29
-107
98
27
-49
8
103
48
14
50
-51
91
-61
-42
125
-43
90
26
28
-8
-70
-61
2
-81
-37
126
-40
-28
50
-116
93
63
-98
18
105
-13
-42
-118
-72
123
-15
99
8
20
26
-9
114
-18
-38
-116
76
-88
-5
-126
-48
-47
2
-104
64
-31
123
-58
-61
-120
-124
-55
-36
-120
-77
-114
-92
-117
111
49
90
95
19
-58
-111
95
-23
58
-74
100
115
-72
100
99
121
57
9
29
-41
54
47
84
114
-51
-55
-22
77
-47
-118
57
-40
99
86
85
-15
-45
-48
34
-59
60
14
18
-63
41
-59
-58
-89
29
-107
-20
-111
-35
-59
-63
56
-33
118
14
-26
-57
-29
-97
55
-123
-51
-95
57
113
26
31
-40
-81
47
35
-43
-3
-108
-116
73
18
96
-78
10
22
91
78
84
0
16
-120
-49
-12
47
62
-117
-40
49
-119
-64
55
18
-79
-120
54
114
121
-86
56
-45
-73
-73
1
-22
49
-43
-103
-103
66
3
-68
78
-84
-19
39
30
17
-52
85
91
-64
59
-105
66
86
-96
-128
123
11
-44
96
81
-76
24
117
-74
-78
-88
-36
-124
-94
-50
35
4
32
0
27
117
-93
106
-88
40
-39
103
93
-6
-38
-83
-71
86
-47
-93
14
41
-118
-103
69
-98
-115
-16
-23
-61
-36
117
-113
-119
-78
85
-49
117
75
-54
36
-15
37
11
-66
85
-63
70
75
-64
57
113
121
1
-75
18
-108
116
-58
116
62
103
-81
-121
-34
-94
-49
113
-2
-76
46
-59
-119
92
62
17
73
-79
-39
115
-33
33
27
-103
-107
47
49
106
86
110
-16
-87
79
-81
21
2
-47
32
32
-92
-74
98
-125
86
42
-53
73
-123
114
-71
19
-50
103
-102
90
-92
100
-103
5
23
-118
-84
-100
5
23
-46
-85
-61
25
-45
32
-87
115
85
-52
-58
-45
117
48
59
16
-106
110
-53
-90
60
-90
-14
-81
-124
0
-91
-3
-47
-104
-28
60
-60
-109
4
84
-3
14
-115
-10
86
35
73
39
53
88
-114
29
-66
34
-10
17
-37
-13
-114
-62
-70
57
22
12
99
-107
81
-32
116
56
-22
17
-98
52
-37
117
-9
-11
75
13
46
44
10
91
-92
-119
-77
54
-75
101
74
-20
50
113
-33
7
82
79
74
-18
63
-49
86
6
46
-78
81
29
87
-82
59
99
48
18
-91
-86
-40
-41
-64
-6
-2
-56
-88
79
-84
95
-98
64
57
-44
10
-8
-80
-44
4
122
105
95
-25
-26
28
108
88
62
62
121
111
-16
-30
40
88
-57
-101
-46
-61
-11
50
84
76
-112
-32
92
59
88
-67
8
-126
104
6
60
-96
-88
6
20
62
-60
-35
55
100
-6
-48
40
120
23
-95
75
-58
28
-82
62
-35
-20
65
-108
-96
25
-45
16
-44
4
-12
82
5
16
32
-70
118
69
98
80
-92
65
12
-48
-100
91
1
38
-17
-108
38
-100
-127
111
25
53
-38
-118
6
-74
79
126
111
-27
-119
18
-22
-60
102
-20
-57
42
-118
-21
115
-119
-87
-69
-74
80
-65
103
0
22
7
39
-16
-22
23
-94
-81
104
62
97
-128
-78
-86
-111
72
-37
-87
-99
84
-69
112
-115
-55
55
-36
-34
22
94
77
-126
105
79
-31
121
-38
-101
-30
-123
-121
12
2
48
89
-101
58
40
30
106
55
-32
122
32
119
0
48
-128
78
-24
-99
23
56
-101
-44
-23
63
76
69
63
-103
52
-20
7
100
-3
-100
79
-64
-107
80
11
20
-92
12
124
81
53
36
-15
53
-82
125
-22
23
30
37
-51
-104
61
86
-3
124
94
27
6
-119
-61
17
47
126
-16
-26
-73
-128
52
76
-28
76
111
-15
93
102
-38
-26
-57
15
-32
117
-107
47
126
-25
-114
-25
-114
-81
-47
10
25
-4
0
89
4
-49
-42
8
-6
111
59
78
-114
-80
97
7
21
105
-60
-96
-85
95
86
23
7
-42
-117
-20
54
8
-87
23
-111
80
11
114
-12
-22
-26
-38
45
-68
-22
-92
-18
-119
-59
122
68
-17
-72
-124
-8
-76
89
86
12
77
-8
67
7
-74
-93
-69
-49
-127
-97
-79
89
104
-85
44
62
66
26
103
28
8
109
118
118
79
-107
13
41
-128
-24
-14
49
-11
49
76
-90
50
102
-22
-39
13
0
-108
74
-99
78
88
110
-58
-106
-73
-27
-93
7
-1
60
-92
90
-56
-62
46
-71
-89
61
-8
-2
-110
59
-101
58
-32
112
-9
-75
118
79
-30
9
-99
-46
-118
-112
11
-38
45
-125
-35
43
-31
-108
-79
67
69
-58
83
-77
36
-87
-31
121
117
-2
87
-103
-121
112
-38
42
82
100
-77
64
122
61
81
-26
-6
55
12
122
-33
19
44
49
-57
33
-51
-92
76
-17
122
-52
108
-94
-111
18
-26
-115
-80
17
58
108
53
-119
-128
8
-34
-125
6
-97
32
118
-73
80
82
105
-73
95
81
6
88
-99
72
32
-70
46
11
125
-28
87
66
30
-59
27
87
-107
-9
-88
11
29
61
66
94
82
-4
17
115
-93
-21
24
12
-120
16
111
-29
-28
75
-44
79
60
74
79
15
111
27
-19
52
-104
-39
-48
-78
-101
-98
126
-66
-85
-81
55
-120
67
2
17
68
29
121
-34
59
84
-110
-58
-41
14
-3
17
-8
22
-23
66
119
56
-54
-35
41
-20
107
8
-105
-62
115
-76
-23
48
42
-58
-120
67
-105
-103
105
-118
47
91
51
-76
-25
-2
29
-52
55
-46
-111
50
82
112
-99
-90
-9
-101
-1
20
-119
107
-48
-93
23
-82
47
24
12
68
-56
-35
76
-2
-43
-17
112
-103
-110
73
41
-81
96
-64
85
-92
72
-13
-87
100
-67
-117
-74
-120
5
75
-51
-22
101
-124
56
-2
47
41
-2
39
27
-101
-97
-39
94
-89
-126
40
58
-21
-27
-120
-66
-21
76
9
20
-6
-8
-1
39
-113
-96
-97
-14
28
69
15
76
-76
-90
-28
6
-72
48
-56
32
76
95
-19
15
30
-75
6
18
30
-15
0
46
57
75
126
15
-19
110
-58
21
13
27
-91
-125
-6
69
-11
31
99
81
-2
-59
40
-63
126
-38
-52
-35
-87
47
-21
-24
77
-57
2
-115
46
-87
-80
7
-94
-79
124
-15
-35
-55
-114
-80
-54
3
-16
13
-52
79
53
-38
77
80
73
27
118
22
6
-116
116
91
-65
-50
-120
68
-2
59
109
70
30
1
-5
68
78
95
-64
-95
-22
-126
111
29
-118
61
-45
37
89
-106
40
-121
-68
1
35
79
19
44
51
63
39
-71
-114
11
-90
-105
-75
50
110
-23
37
110
-104
84
91
22
-52
27
12
-95
-120
4
-61
103
-43
-51
90
-83
87
-105
-17
99
40
30
83
59
66
3
89
-3
-119
66
-69
115
87
-29
96
35
19
52
115
59
120
-64
-112
-125
80
87
-98
-125
-61
14
63
57
-64
90
-46
112
2
-73
-43
91
-117
-19
-85
93
-31
-124
-34
-71
36
40
-16
-104
87
50
109
108
-45
66
86
-69
-97
109
46
92
35
14
-17
119
107
-97
-71
-22
-2
101
118
110
30
-23
-107
79
-68
103
-82
-32
107
14
-29
-28
105
39
-7
99
71
-114
-103
49
-120
68
71
-43
-121
-39
-86
8
-83
97
26
45
93
-51
-120
24
82
51
54
-121
81
118
-46
47
-87
68
24
-84
-12
9
-24
39
57
-20
-55
108
-5
61
85
-42
32
12
39
-55
65
52
59
69
-97
-110
46
-22
-128
98
-50
50
-13
109
-99
-124
0
-26
85
50
84
-28
-42
69
-69
-61
55
35
22
81
50
104
-1
-33
59
-81
-30
-125
-41
-21
-57
-101
47
7
50
-93
31
51
-123
29
-78
-60
70
-91
124
-118
17
17
-18
-105
-16
-79
105
-99
-91
-67
40
-82
-19
-85
-46
-107
81
88
-78
-111
-111
-44
26
-61
-36
40
-8
58
-90
-84
72
-111
-44
12
-99
10
-113
-30
103
-55
-10
16
90
47
119
45
-3
74
-15
68
14
119
78
-80
27
-81
-80
73
43
-81
-83
119
-59
74
-22
88
70
108
92
22
58
-124
-73
74
36
90
7
-7
-63
-97
-115
117
-72
15
42
36
-114
18
77
-118
0
115
-90
71
-38
111
-38
-31
3
-68
-72
-113
-79
93
-39
-9
117
28
-93
-84
-107
-110
-29
66
57
94
-1
-102
63
-10
-24
26
-11
78
-96
35
52
-86
25
16
-39
-87
94
50
48
57
69
-4
-15
-109
-11
-63
50
-91
-64
72
-27
91
-16
112
69
-27
78
44
-11
104
-97
-58
-104
-34
-14
78
68
-99
-79
-10
110
-92
-116
-115
32
42
-125
120
49
-83
-63
109
96
-102
79
-47
-7
-78
10
-71
-123
-115
-58
68
-81
15
101
-66
-5
-84
-111
-41
60
56
-55
74
-57
57
21
71
79
-9
-30
119
85
13
9
53
-75
-123
93
65
-121
0
-76
-59
-27
-33
-3
-23
-106
27
59
49
-36
-103
-42
-48
75
52
-110
-26
-37
81
-10
77
6
-80
-44
87
41
-3
-125
71
-126
-46
-89
83
-82
-72
-47
125
-93
74
77
-77
84
14
10
61
-73
35
-77
33
96
66
-22
107
-126
-73
-70
88
16
14
24
30
-21
-36
84
-60
-96
126
-41
12
-91
118
62
10
1
43
-36
98
17
-10
101
35
-76
-116
59
79
5
-24
-56
60
113
51
-93
-55
-18
-2
-119
-103
-36
68
-19
-37
-11
-68
-23
-51
45
-110
113
-107
44
-35
-44
101
-79
113
87
-84
91
-68
-16
57
-11
5
26
-19
107
-64
-119
67
-37
-17
-86
-127
-65
-125
-112
-106
89
20
29
28
6
123
-20
-94
-35
-84
89
-19
100
-1
99
-111
-82
-55
-109
54
-48
-35
77
52
92
-43
-87
-91
81
73
-35
-57
82
-84
99
58
81
-88
9
-123
-37
-49
18
-104
58
70
-52
121
-96
-39
37
9
26
1
51
-7
-116
73
126
-95
49
-34
115
95
56
-110
-82
88
-32
13
-49
-33
28
119
36
-59
70
-44
-113
-17
-42
52
-74
116
-122
2
7
103
102
-90
20
-123
118
-114
34
24
-20
-83
-6
-83
55
-38
43
-30
79
117
-53
-5
45
100
22
-60
44
-72
-58
5
-101
96
-53
30
-3
-85
36
-31
-128
-13
14
-93
-42
121
-36
125
88
117
94
-116
77
98
-91
-30
-94
28
61
-15
-24
25
-21
-56
-105
-29
122
50
-59
-77
-118
-128
-75
-65
-47
72
-104
53
-18
113
85
-61
62
-105
-41
105
-113
-5
17
91
97
32
-9
-84
-107
-109
-54
-86
42
13
-112
-90
-126
26
119
-91
-21
-103
34
-40
102
-42
84
-29
110
-59
52
-84
78
-97
46
91
74
58
-118
4
52
-26
-43
-22
21
11
103
-83
83
17
65
-26
116
86
-17
-94
125
27
107
-120
-76
68
-109
-3
-94
15
86
-93
-35
-75
-118
3
-37
-22
87
-49
43
-10
-35
20
12
45
-33
-116
31
-14
-24
-22
27
126
-99
5
-32
-66
-16
109
-87
-50
-48
-127
61
22
78
104
9
-104
-128
78
88
-113
117
65
-57
5
46
-104
7
-22
116
105
117
30
82
96
73
20
-72
-56
-80
42
102
120
-23
-97
-69
-40
-25
73
29
-51
26
-19
87
-91
-107
-40
7
-110
17
75
44
70
120
-13
115
-51
13
-87
-125
-64
37
15
-105
0
104
-126
-91
105
96
8
63
-47
48
5
-60
64
72
7
-55
-121
-100
-29
-29
-7
96
-89
72
-30
-96
-23
49
-10
-71
9
8
-123
81
-81
-123
28
8
-64
-125
15
76
-95
14
9
-78
3
71
124
-124
53
114
116
-12
118
16
-45
-114
-17
105
94
-105
-41
-72
107
3
33
-48
107
-119
-31
80
-35
6
53
70
26
-68
88
85
-55
26
-124
83
3
-60
-94
-112
-48
52
-31
-102
-108
88
-68
41
-61
-121
74
3
52
10
-119
-99
-53
-2
73
54
120
-84
-60
-31
27
38
-1
-6
8
59
-39
-36
37
-9
-108
-27
-118
-128
8
-123
-123
17
-40
-80
18
-107
-51
13
79
18
-58
-108
29
48
-29
-97
54
-103
23
-104
-53
-81
-85
-4
-89
83
46
-119
-17
-32
4
-21
-63
49
18
13
82
-63
85
-25
-31
-85
-15
66
-58
98
41
116
-13
-74
103
-86
-72
98
-16
71
-62
-7
-60
-112
100
-52
50
-37
-40
-125
-93
82
-40
66
21
-7
-70
41
5
43
-105
-4
-80
-64
37
-126
-112
-28
102
56
98
-35
43
20
-86
37
85
8
66
86
-115
59
-114
17
34
-109
69
-124
-63
122
123
-29
14
-35
34
110
-16
66
119
89
-121
-113
103
45
-1
-74
-24
-57
54
-78
-123
115
75
65
-14
-78
-22
45
-125
57
-20
-113
34
-113
-91
-30
47
21
-40
-18
82
-55
-94
-112
47
-111
-125
85
120
50
35
30
97
12
-39
70
-1
-100
95
41
23
10
39
46
4
59
-9
53
-10
-53
-93
-21
-92
-54
-40
-123
117
-107
123
28
20
16
45
16
92
26
-1
-69
36
25
-90
101
121
84
124
-62
123
-42
78
75
-79
124
51
-30
-9
13
-124
19
57
-5
106
97
10
-66
52
-127
18
-47
11
-111
-55
-43
-119
62
58
22
54
78
47
116
86
83
27
-64
-83
-91
-103
-39
-68
-73
121
29
-67
-46
-20
66
38
-20
-55
110
24
-16
-49
-91
4
-48
-28
-60
-23
11
-68
72
63
102
-39
-48
-89
-83
9
93
55
84
-32
84
27
-86
46
-55
69
92
98
23
-67
-42
29
-108
-84
106
27
-76
-36
-76
20
124
48
-126
-74
-123
-125
-86
29
85
-108
-4
80
-3
6
53
86
28
99
-26
-63
82
-109
88
77
79
-69
-99
98
34
107
22
-102
54
121
-46
-44
-23
-116
-2
32
-1
106
20
-55
42
-35
-94
-82
42
111
-48
-30
101
-49
64
35
-99
-93
-15
64
-85
95
48
124
19
-95
-52
64
40
-33
36
-19
5
-94
80
-17
49
46
49
-60
-74
103
125
10
102
-52
-72
37
-82
-31
4
92
-110
-121
108
-39
59
24
-82
14
-5
124
-127
-41
28
85
88
30
118
3
-65
-56
125
-82
86
-50
0
11
106
36
61
-76
63
-89
103
82
56
53
7
100
21
119
103
-121
82
-29
-30
-11
65
17
26
41
54
0
-43
92
67
42
-17
-101
-78
89
-61
114
119
-14
32
-30
107
96
38
-12
-63
-66
63
6
93
-19
-61
-74
-84
79
75
-55
126
58
-107
-84
-48
-25
80
-33
36
2
-4
-62
58
96
6
-61
-63
-128
-31
74
89
-128
48
-17
99
-117
110
50
-114
-36
-59
52
58
18
85
12
46
39
83
-5
-97
78
-79
-97
-23
-60
-92
106
72
-112
93
-3
113
-14
-117
42
14
-41
-98
-53
-109
3
-13
-67
14
69
6
62
-40
31
62
105
-100
-78
-119
8
74
104
47
-47
-74
89
6
-68
82
-53
-89
79
-93
9
-85
63
-31
86
108
-44
-62
-22
-71
-73
-1
-86
-35
91
-36
-69
82
125
17
53
104
21
117
37
-101
-77
-20
-94
-49
-55
-114
-46
-83
-51
-93
-47
21
-2
-56
-18
-28
-57
25
-10
-87
-3
109
72
39
111
108
-31
75
39
-9
112
-49
15
63
67
-47
-68
47
-47
-60
69
-64
122
122
31
32
-86
3
121
-27
-76
62
-11
-31
109
39
-62
-113
-46
20
-6
63
83
108
-38
115
49
47
-28
-25
78
-9
19
95
57
68
11
-88
4
51
6
-77
104
76
-115
55
61
-115
76
75
-26
-84
-60
-79
-105
77
80
-39
95
0
120
-118
100
-14
-7
-18
-52
44
-39
-8
-96
-48
-113
79
105
125
66
-29
110
121
-65
90
-99
-93
118
-36
-9
-115
91
109
23
68
-20
-24
1
99
-13
-34
-10
90
-89
-47
-66
-85
71
-84
-13
-115
-113
32
38
7
-92
-64
56
-123
76
49
102
-14
-79
-1
-84
112
62
-55
-58
-24
-113
-16
96
-48
109
-43
-54
91
-13
-43
124
-109
-30
-104
23
-48
-37
-68
107
-108
80
-123
0
-48
-104
-35
96
-1
82
56
44
-69
-64
-125
101
-112
-71
-20
30
-86
107
59
-28
63
39
42
-19
-51
20
-54
77
-90
101
-112
33
2
-52
-28
-26
-2
11
-61
65
-50
95
103
-35
-17
-61
107
-51
-27
-85
-105
114
-30
-72
44
-14
-45
80
-41
-65
-90
72
-91
57
44
73
60
118
-28
-24
-112
23
-51
59
-49
29
31
74
25
81
70
72
-74
-109
28
-69
64
45
-114
33
32
62
-7
-8
-25
-70
-42
-24
-98
-60
91
37
108
49
-82
119
37
89
75
38
116
-67
48
21
-41
52
-55
-118
120
-14
66
124
-116
120
60
40
98
-123
10
46
-117
-41
-69
-38
30
-14
-44
-6
97
51
-86
58
-116
22
10
76
90
71
30
25
76
-80
116
86
27
112
98
-24
-123
54
1
-74
-74
-122
27
104
-14
-22
87
-59
-7
107
-78
-59
-111
58
-46
54
-41
119
123
-36
39
85
-14
90
-7
108
117
43
-94
104
-72
26
-35
-11
0
-66
-72
-79
-46
-39
-30
70
-61
28
66
-121
114
-102
-125
-48
-1
-26
88
-111
107
63
-59
14
-44
112
34
50
-68
-97
-124
-83
87
50
80
-59
103
80
-24
-117
13
54
-4
27
-40
-9
69
-107
-39
64
-3
-24
46
-108
90
7
-69
-57
-46
-97
115
61
-115
-96
83
-57
-37
93
69
-25
-49
57
-29
-39
48
75
125
-48
121
40
-118
-67
-75
122
60
-2
23
73
90
-13
52
-28
-63
-14
-17
-116
3
-68
-85
67
17
-83
-96
116
34
-95
110
-60
-86
45
64
-98
43
-107
-79
-55
-33
-73
-78
-68
118
-63
-4
-91
10
56
-105
-29
-115
120
-32
61
-8
124
26
43
-67
16
-86
-35
119
73
83
-35
-41
106
122
12
96
35
95
-78
-10
-41
-46
-91
44
115
38
-116
20
-92
-77
118
54
108
-21
-32
-123
-22
-80
-48
-110
-98
45
17
-121
-52
-6
2
43
97
21
15
-29
-57
-60
117
-28
70
-17
54
-85
13
24
73
19
-24
-79
117
114
-98
-88
-63
-51
-116
37
82
-76
-78
54
-29
58
-62
-65
121
-40
70
98
-3
14
-43
48
-90
-116
-44
101
27
-44
55
-55
-60
29
-5
15
47
82
36
65
-75
-104
117
-16
-123
-28
-52
46
-126
91
79
-125
-15
-21
-67
-1
-74
106
29
98
53
23
88
12
-43
23
-15
-74
-68
14
65
-47
100
-126
42
88
82
30
122
110
56
47
-86
-42
-51
85
-126
77
-27
22
-115
94
83
-119
75
-33
48
-110
-37
83
92
-13
-66
65
-87
-4
-104
92
24
66
-87
85
-119
-60
7
-80
-86
92
48
17
-25
88
-8
85
-80
-109
-101
68
-45
-39
-32
11
86
-104
60
123
-103
-37
-34
-123
-88
-92
82
-110
-7
37
98
-62
63
77
79
-7
-119
-5
-75
-23
85
-11
118
-95
-24
-68
-58
122
-11
-42
-17
-99
28
-34
-42
-35
-2
14
-105
-45
-117
77
77
-124
1
-63
-110
108
-75
65
81
44
125
116
-83
68
-100
-60
-127
-62
122
126
87
-123
-18
19
98
98
11
-102
-53
-73
80
123
2
-65
25
2
15
-34
6
-12
-73
-104
-124
-98
48
-119
-97
50
-31
-73
3
-117
-127
54
71
-23
68
71
92
39
80
48
-32
19
-17
-66
-57
-108
123
-82
36
-97
-51
-17
-85
-53
38
59
-92
-17
18
24
-64
-91
107
2
-57
37
-114
0
-128
-75
76
20
7
85
-74
-61
67
30
122
121
121
58
-96
107
-27
46
-82
80
30
-1
38
68
48
51
-63
-35
101
77
-19
109
-75
-74
84
64
30
-119
123
78
0
0
62
52
66
-112
-96
65
-45
-117
48
-29
-121
-12
46
-18
53
-76
-114
-120
-126
-29
63
0
111
68
-61
8
8
42
-115
17
-100
29
-39
-29
46
-3
-28
36
87
-26
83
-9
-14
80
46
92
-36
84
92
118
9
17
-106
-121
98
-115
-110
116
-120
120
67
-119
-74
-56
24
71
-14
-104
-70
1
20
118
-23
62
111
125
114
-54
-86
-66
112
-93
-59
-97
78
111
-36
-81
-36
-3
-23
-36
110
124
49
-61
93
-88
-21
94
46
61
120
-57
76
-124
-86
80
-107
17
-120
56
2
17
-22
-13
-58
-31
-98
-110
-94
-29
7
-118
-20
43
51
118
25
-74
101
124
-61
-118
-113
69
-44
-122
-69
-97
29
118
-11
-82
-81
-78
-113
77
-18
7
6
-41
21
122
105
123
-25
-20
-117
90
-69
43
-105
-78
48
-117
19
88
52
-64
-38
43
-100
57
39
-58
-61
68
-98
35
-57
101
46
121
-128
110
103
77
-58
3
40
111
105
-123
126
42
-29
-59
-92
-84
-72
-53
62
122
41
79
-79
96
83
0
-7
28
-20
-8
112
-81
106
58
83
9
98
-53
-121
126
51
-86
21
47
-28
-73
55
-76
100
-121
105
-87
-25
-63
0
-20
-52
-4
-24
-17
111
-103
1
-55
-118
-101
-98
126
7
108
-60
57
44
-126
108
63
-86
-25
11
8
52
-48
69
-47
-34
-34
5
-25
71
74
83
78
38
95
102
-89
-68
37
117
55
100
100
-4
28
-100
-25
-64
-22
65
106
101
116
31
-23
-2
-65
68
77
-14
-47
69
66
93
-46
-75
86
-4
113
59
-35
-57
60
-28
74
-72
13
45
-15
-43
122
-72
-65
102
-80
15
126
70
-17
64
113
121
-103
-12
-17
-67
30
-16
38
-127
-60
16
39
120
-99
53
-10
28
-37
50
27
120
-90
-115
68
-88
53
119
32
-112
-69
-41
-55
49
-93
-94
-70
106
29
48
40
-8
-50
36
126
-104
97
-19
-81
29
-8
57
5
-97
99
-72
117
118
-39
79
-128
103
-39
-82
-59
41
119
24
-48
-94
-3
-20
29
76
-54
35
-119
39
-22
-44
125
-76
35
24
-30
12
-7
-104
110
-28
90
-103
45
110
-7
125
89
120
-121
107
9
83
-63
23
-106
-23
-72
-22
0
-3
-105
44
-123
45
10
7
-18
-16
-99
119
65
90
-71
45
-64
12
-112
-23
20
-95
-32
-122
6
16
-96
-99
-56
-10
-50
42
-71
25
92
102
-46
-60
106
-30
96
-33
-59
112
-86
-127
-107
9
68
-99
40
5
94
-119
72
51
52
13
-102
-9
-95
-17
-93
-97
-115
-43
-37
60
-47
64
56
-52
20
-42
91
7
-15
120
-78
-84
-4
-45
-23
44
74
-33
-45
64
-75
-33
-84
28
-69
7
0
-2
122
-123
-37
-119
32
10
-86
-31
73
25
-31
-115
-9
125
12
-104
36
113
-62
-66
123
26
-59
-42
-73
-59
32
-100
-105
-125
64
25
-63
-65
-67
74
-90
-15
20
-9
13
-12
-9
126
50
4
7
65
75
7
-36
69
-46
68
82
-87
99
-35
109
33
-31
44
-41
57
40
-61
23
-19
-111
5
-52
56
19
99
101
38
-35
-84
-22
-29
-51
18
16
-10
-81
118
41
-34
84
-112
-66
-98
57
-49
69
89
89
67
-44
40
-108
-62
-7
-25
-56
-101
42
-17
125
77
-47
-105
-57
58
-38
-54
107
-68
-25
-36
7
-117
104
-33
30
-24
12
-91
-10
30
112
-21
-112
85
-54
-93
-89
-34
64
103
113
2
-62
-101
29
-53
77
-105
-98
-109
116
-35
-75
68
-117
37
62
-98
-62
64
69
-80
-47
-37
85
15
6
-117
-32
-70
-47
-69
10
-124
106
-103
-12
66
-105
124
-7
-21
73
4
5
121
-75
67
101
94
-16
70
-89
9
-16
-27
-42
92
-67
108
125
-1
-109
0
31
-2
113
-47
-36
116
-67
97
126
114
-51
-12
45
-22
-108
-97
-66
2
67
76
-34
19
-98
71
-93
119
93
89
-96
-14
60
-117
-60
15
40
55
-85
-49
76
-51
-100
-26
89
81
97
57
-104
58
95
76
-70
96
40
26
-112
-18
-108
78
115
94
94
-43
112
-37
-24
120
76
-9
-42
92
43
126
113
68
4
-95
-3
24
52
-97
13
74
-22
-85
-35
20
-113
96
61
117
-91
-68
-116
-83
69
23
112
-25
-101
48
89
-76
-102
75
-29
85
59
17
125
-112
-84
-94
-55
32
118
94
33
10
24
-25
91
69
120
-39
71
-112
112
103
49
82
-104
15
-52
2
-120
-42
31
-112
-58
-99
-16
-118
63
0
-85
72
-43
43
-107
18
71
41
70
68
62
-125
104
-68
25
21
-15
123
2
-20
-98
60
-45
60
-108
6
46
58
63
-52
98
-22
98
20
-12
-36
-128
-119
-40
-109
-123
-108
108
50
123
-50
58
69
88
50
0
41
-53
-106
-11
-115
60
5
113
-53
-13
-10
39
6
98
107
56
-35
-83
37
121
-93
-81
-38
-127
3
-13
103
54
-16
-1
-7
99
-35
-92
-25
-125
72
117
-53
93
-47
-3
-101
37
-6
72
-62
-37
-96
121
95
72
84
-98
92
106
-64
-126
-55
106
43
-47
-68
-40
106
11
-2
-67
15
-54
-60
79
-1
-122
123
-76
109
-107
3
29
-73
-17
111
-44
13
-115
23
-35
-123
-21
17
15
19
-36
68
63
-97
122
-76
-37
121
-109
-118
-61
75
-74
-53
13
50
-23
39
-74
-23
-118
-17
-26
-34
32
96
-68
-12
84
107
-34
59
-40
-112
-125
-63
-3
-38
-25
-121
-71
-1
10
73
-123
41
-115
41
-55
27
-78
-70
-93
-30
122
92
-67
-66
40
33
51
-84
-26
22
53
-71
-80
110
-80
-87
-61
70
-7
108
-22
63
44
19
-15
74
59
-105
-2
67
-3
97
34
14
85
-17
-35
50
10
31
-8
-82
123
126
106
9
56
19
-16
-122
-82
-76
15
-58
112
48
-65
62
-88
-41
-58
89
122
-95
90
-73
95
-78
112
32
-102
36
15
-22
-5
13
-48
56
9
41
-8
-33
-39
115
-35
12
124
105
-40
-99
-89
116
-113
-51
-82
72
67
-86
53
69
-51
-112
-116
117
85
14
2
-9
-63
-103
106
96
-62
14
108
-34
122
33
38
92
120
97
-30
-65
120
-4
51
-17
58
-74
120
-126
-33
-35
-118
-44
-90
75
-83
-15
107
42
-67
111
-68
29
-5
111
71
126
12
-117
-41
-110
101
72
41
13
12
27
104
-14
-94
110
84
32
60
13
34
52
101
-78
57
33
105
-58
-26
122
-48
46
104
80
109
71
1
-31
77
-74
14
108
38
-34
20
81
91
66
-95
-5
-102
-62
-30
-3
-63
-89
37
120
-28
14
4
108
-15
-118
56
89
-99
48
-61
-128
-63
-87
-64
34
-13
-53
-22
29
-57
31
110
73
-59
62
-101
113
83
-33
0
-67
55
-59
-90
-33
-74
31
-90
104
7
102
-86
-122
34
34
97
-29
25
-115
-87
3
93
-121
-92
88
-127
55
98
66
44
74
66
74
36
-93
-46
-80
5
-4
-77
-93
98
5
-97
20
95
36
-95
-70
-21
0
119
-34
-9
110
-69
39
-26
-67
-91
72
-43
82
79
106
63
-65
-31
-31
-46
55
36
99
-78
85
14
-49
18
48
125
123
-112
24
-111
96
-102
0
108
40
71
62
-31
-13
-107
66
39
-115
-41
-64
-88
108
52
47
60
64
109
-98
30
-89
-106
-90
57
-30
24
-73
36
-61
-46
-60
71
-49
-86
-19
41
-15
26
-124
-5
2
112
-19
-88
-36
79
95
-32
-80
-97
84
98
-56
-45
-61
63
20
7
50
69
90
-87
-55
-46
35
-77
17
-24
69
-85
64
23
35
-110
80
-46
-63
51
72
12
-50
99
125
73
-116
85
34
7
-62
67
2
-117
107
90
-91
105
42
-7
-93
-75
-111
24
-112
106
18
83
-83
95
-74
-29
-110
33
99
-55
-10
32
13
120
102
-47
53
23
46
61
-56
97
70
-67
-43
-15
120
-33
-104
0
40
93
74
-72
-84
123
-11
-64
-77
115
-28
20
22
40
1
-5
56
7
18
-38
40
21
14
-128
121
-44
30
-64
-55
-88
-128
-65
-86
-76
-1
82
109
-65
115
7
-118
-93
28
-69
95
77
91
121
-111
73
59
-65
-82
-13
71
-74
-65
55
-33
67
-82
15
-36
-8
0
-118
-114
-60
65
77
-2
-10
114
11
-54
122
-115
-5
-65
-9
-95
-113
-30
88
-42
-47
48
106
-104
42
-41
-72
37
110
53
43
56
31
-40
107
37
9
-52
90
91
-84
-83
69
-66
-105
91
-2
-40
-126
-79
-115
-7
-33
-52
-74
60
-22
39
54
56
41
99
4
-84
-35
10
-92
35
102
-119
-96
-88
-96
-31
-87
36
-92
126
-15
-90
-106
123
14
-57
-27
86
94
-48
124
-84
-29
32
71
98
-15
-113
8
54
49
27
89
-10
-88
67
9
3
-71
0
-59
-54
83
-48
55
101
-59
-1
-54
99
21
81
-59
10
-49
84
-93
-30
106
-31
26
95
71
-52
-32
-60
69
76
77
33
83
-102
89
38
-96
-53
57
58
4
-94
5
13
110
-116
-116
31
-11
-88
-115
42
-63
45
-100
-89
51
86
32
88
66
42
43
77
8
32
76
61
-72
-121
52
-42
42
0
-78
-22
-47
-85
-64
-33
28
-114
-56
-56
103
-92
-103
90
31
18
52
-32
-103
-89
65
-77
-97
-95
-47
48
-71
12
-106
-102
-63
1
13
-104
106
97
-112
-93
31
-91
50
-16
13
81
-18
-29
28
-11
124
121
-35
78
-92
86
-110
25
59
72
66
-56
-85
95
-96
-113
-60
-61
-62
-120
45
36
-64
-17
-28
-110
-101
-23
24
-99
-77
101
62
-54
-43
81
85
-92
71
-78
-128
-70
-105
121
52
93
86
-49
75
95
35
70
-62
42
-30
112
-58
40
-92
-25
45
19
-95
123
-17
125
105
16
71
-52
-106
-59
-88
38
-120
8
18
-118
79
48
4
67
-33
-91
-66
-70
-64
-108
-35
93
110
-10
-83
-54
-48
-49
41
-114
121
16
71
60
-11
110
-89
-107
-118
-101
-49
-46
18
-119
86
28
93
-68
92
-70
-26
32
40
-124
-91
-79
-114
43
-71
68
50
-82
-122
30
-28
115
-59
-5
-46
-23
-71
67
-45
-115
119
-87
-38
27
105
104
-98
-57
0
93
-107
-101
115
33
-71
8
-28
58
102
-88
-56
-35
73
-16
-77
123
114
7
-34
-25
6
-87
-39
-72
-26
37
79
70
115
86
-99
-10
-42
0
-63
-56
-96
86
49
82
57
125
-89
2
115
75
85
-66
-2
-111
107
54
-7
65
54
-112
40
15
58
-57
48
-31
-84
-126
-77
11
-55
-63
-48
62
-63
-37
-89
-44
-124
34
-4
-39
52
-22
-9
98
-84
-17
-47
-61
47
-72
118
-29
48
68
59
101
-43
-116
-67
-108
-88
-82
104
126
-2
-103
35
-117
52
-108
-120
-9
45
91
2
-6
-97
114
92
4
74
-127
69
-40
-99
-78
-104
64
-52
34
11
75
54
-6
60
-75
-118
-111
-111
2
68
-87
-64
-59
-86
-5
-76
6
113
-85
1
6
37
97
-103
6
34
115
-89
-14
-45
-60
51
93
100
87
29
-73
117
6
-33
85
124
40
-102
33
93
30
81
-7
82
42
79
59
32
-79
17
49
23
86
-94
-21
-29
31
-37
43
-127
-59
62
96
-29
68
-21
-84
-35
84
30
15
7
-86
-49
-125
-13
111
-16
81
33
-35
-125
115
-81
-104
85
74
-90
-64
125
88
-120
113
96
34
-13
95
-115
36
-95
-32
-54
-118
-4
-80
34
56
-121
100
67
113
123
-93
-85
102
-81
-87
-86
-52
-69
60
64
31
-55
-41
-33
55
54
-78
-80
102
86
-111
-125
-20
8
-125
-108
97
-98
-125
-95
14
-127
-116
-53
80
-100
-87
46
2
-89
-65
-24
-50
-6
-119
95
78
74
-32
43
-72
-34
-126
6
56
-83
6
-122
101
118
-111
-124
50
-51
-101
-39
-10
62
-71
111
113
-103
-55
124
-8
81
33
116
-7
-80
-88
77
25
-86
74
116
74
-104
-18
108
-124
121
-9
-41
86
-91
106
-35
-111
27
120
29
-3
-103
2
-105
-103
-106
25
57
-9
-48
-12
-47
54
74
44
-84
-113
-97
-47
-33
-23
-80
40
-128
-108
-104
57
108
-2
-90
-16
34
-109
63
62
-80
105
-28
108
47
25
-93
-65
80
85
-42
96
27
118
119
-17
-29
-39
-10
-105
-71
-37
80
87
99
-52
15
29
-106
103
2
-109
-33
-124
-21
63
45
-86
93
-15
30
-93
-11
-37
-24
-21
-50
108
-27
-75
124
84
35
-90
2
-56
12
-25
-92
-52
-128
98
9
85
75
-3
-98
76
30
101
124
-8
115
-36
-54
-84
-121
-45
-89
84
-89
35
-31
-2
-97
-115
-67
-76
87
-54
-69
32
85
-110
-77
-62
93
91
124
-77
63
114
-48
117
-31
-88
5
13
122
-3
83
-53
88
-76
-98
90
-12
-6
110
-45
77
43
-24
96
54
-19
-101
-10
-9
65
102
-15
-92
126
51
100
124
-49
-66
6
-110
-60
-87
-18
119
-125
-29
45
-84
81
-27
14
117
76
-61
16
-87
-63
12
59
-97
-88
8
-69
-97
-93
7
-2
-51
-48
-52
112
-95
-79
-13
72
-87
-20
-28
21
115
-116
-14
-96
-35
96
118
67
-42
-47
-116
34
38
9
85
107
-87
-19
-81
70
-96
-8
22
31
87
92
-100
-88
125
111
-89
-33
52
36
105
39
62
34
-53
-2
110
64
-57
1
-68
-42
51
-49
103
-20
48
24
102
109
83
15
-124
-56
111
38
12
53
12
71
-99
-3
88
-114
-60
104
43
-89
-121
12
5
53
-33
-22
21
6
69
6
-62
13
-58
93
113
-94
120
84
-55
-42
85
-9
-34
-65
56
66
61
104
-15
38
-17
84
37
-32
4
-37
-66
-33
-92
-18
75
-125
-106
30
-81
27
54
-50
-111
-84
112
15
78
79
104
63
96
-108
89
49
16
68
121
38
42
-37
124
26
44
58
-125
-68
-89
72
84
76
-106
78
-30
-57
-80
103
-74
-41
-81
1
121
81
49
-78
22
118
-46
-58
-117
33
-86
-119
-106
0
47
71
73
8
-33
52
-16
104
-10
-18
51
-127
-63
-59
-102
72
84
-47
-120
10
-128
-121
-82
-1
-92
113
-127
-78
119
-31
80
122
102
61
101
-102
-123
86
2
70
109
-95
-124
-117
20
-50
71
-56
5
78
45
58
-86
17
71
20
-48
-41
66
-72
8
43
-27
13
1
97
60
-19
-98
-45
-19
2
-39
112
-107
-90
-96
-112
102
-66
-76
86
121
-63
-66
37
-74
-1
31
30
-13
-82
-20
-126
15
-11
29
-37
97
-77
-69
112
-124
-90
40
-12
23
52
-79
-124
-97
64
88
-91
123
-123
-114
-60
85
-78
-25
-5
22
-79
-100
40
-67
-36
18
26
9
-41
-96
-33
54
95
-38
57
-69
33
102
-103
-48
-118
-54
123
-57
13
99
88
-33
100
60
-127
43
113
94
4
101
-54
103
-23
28
115
84
-42
65
63
89
-38
75
-45
126
-40
-90
-123
-47
67
-55
123
69
-92
-83
-74
31
100
16
-53
105
65
-45
-90
-60
-101
-126
-35
97
94
-57
-6
-12
-92
107
-26
-15
83
-53
-11
42
-69
83
-106
85
28
86
24
-116
103
66
52
70
125
63
-81
-79
-67
51
67
25
125
-128
-101
99
-110
-32
-34
41
-72
103
-18
-11
11
-80
4
-54
-112
111
47
-8
126
-79
22
-120
-98
-94
-116
-95
-33
-36
6
-90
38
19
49
82
114
23
0
96
51
89
73
121
-21
81
74
-104
-70
-110
12
76
120
-25
-124
73
104
21
125
74
48
-3
25
-124
-94
-10
114
7
110
-63
-68
-113
105
33
27
-82
90
-89
-33
118
-79
9
-12
-76
97
-4
-32
120
-86
120
126
59
-108
-28
-54
66
-23
-47
3
-51
-14
-11
-53
-104
109
38
124
5
-101
-115
91
-85
4
-101
46
-26
69
-114
12
26
-112
-117
-121
111
-80
32
72
-97
-25
74
28
44
-88
115
-8
21
121
-61
-29
38
9
77
108
65
3
109
16
122
104
-67
-9
6
91
73
-74
-51
71
-60
31
-97
-104
-21
48
72
-83
-88
25
-11
-112
89
-7
29
-15
17
-4
72
98
2
-51
40
-105
-33
-106
-115
19
-10
-83
-49
47
-111
96
-84
92
26
59
35
-39
124
40
102
-27
28
92
-37
-107
-7
103
59
-86
-114
35
-49
-33
-91
88
-31
-99
13
-8
-83
-8
54
-106
41
118
-109
-111
61
69
114
106
80
-118
43
116
-71
-36
-54
24
4
91
-60
-16
-13
-126
43
-52
104
-43
1
-109
-88
-74
-58
4
18
-35
62
97
84
-120
-116
-45
111
-91
-109
51
74
94
-19
-53
24
-83
-27
114
70
71
-69
95
30
109
-103
105
-63
-35
103
-125
-47
36
65
-76
-94
14
62
108
74
17
37
98
18
0
-110
24
67
44
102
-73
-66
-25
29
-66
50
-70
18
-101
-50
-79
112
5
-11
-109
63
-80
-37
-28
-8
-18
-101
-3
-9
103
79
-20
0
-17
-122
-11
-80
9
-81
5
39
90
41
61
41
-125
30
114
-71
-25
-74
-109
-15
-79
97
-28
-120
-93
-54
107
20
125
-57
125
23
-114
-32
-15
-7
-86
0
21
-85
-23
-14
-120
-61
67
-67
64
81
-91
-30
-84
30
97
74
-60
15
-29
-85
107
93
115
26
15
56
-7
33
69
111
111
111
118
-19
-59
38
42
-7
5
55
125
91
18
122
-104
-44
27
-22
-113
95
83
-83
-120
84
-41
-59
45
44
-22
-70
-35
2
-74
123
-70
-86
-102
-14
94
-111
-25
-109
111
-93
47
70
-53
63
91
82
122
-77
-67
38
-85
-81
-76
-127
83
64
-25
98
-92
-37
24
46
32
-95
77
-42
53
-12
8
-24
46
69
23
32
-39
57
-44
102
21
-119
-16
-10
74
-76
13
69
-62
-12
-11
-7
93
67
-61
-94
4
33
25
-103
106
41
124
67
71
-103
-94
109
-25
-123
-77
-57
-22
-119
93
-30
-50
11
68
-65
-110
-45
-112
-35
-86
-59
-33
-85
33
75
26
-40
-62
9
6
14
20
-86
77
-111
-54
-42
-117
-87
-126
23
8
-39
-51
-108
53
-93
-47
-25
107
85
-119
89
-46
-65
-6
-120
-61
4
42
2
46
110
32
124
-13
33
59
-13
122
-5
-69
88
20
91
-63
-59
-2
20
118
-80
-126
-11
-29
109
94
64
-65
72
17
-96
-61
34
-107
97
126
-127
71
-124
1
97
-110
126
-42
13
-111
24
-128
97
37
-47
-17
114
-72
-86
-80
-103
-81
57
-91
22
55
6
-70
-26
-118
103
-71
0
-65
0
52
-128
41
-96
61
-36
-64
-125
94
81
-28
85
-90
-12
-16
20
32
-67
64
-91
-10
-81
-23
-73
-30
-106
108
123
-86
26
-96
-22
61
103
-17
102
-96
-1
-11
93
-56
-69
-20
-68
-39
21
-77
-128
-89
-61
32
117
102
3
70
-82
90
36
3
-117
3
-117
104
-42
96
-111
-124
-4
-63
-49
-112
-40
-46
22
-31
118
38
40
-103
88
-79
-38
-102
-101
9
-109
17
31
-46
27
18
86
48
59
-52
-25
-93
83
63
49
120
58
-118
-57
42
111
-44
32
-39
27
91
-20
31
48
-117
44
-41
100
81
78
-24
46
75
62
77
54
55
-122
-34
-84
60
28
82
88
-9
63
118
96
-98
57
-104
-58
27
30
-60
-65
-8
-39
46
100
-52
97
87
47
-98
-43
89
-80
-48
80
16
113
-90
86
71
-91
39
99
17
33
-75
-114
103
-121
-61
114
101
6
113
-103
-15
-78
-90
-90
-86
-48
74
-112
-61
13
30
-121
-54
6
92
-69
73
-71
-79
34
71
-9
55
107
85
-27
-45
-67
-52
-92
17
58
118
44
-68
-68
-114
-96
55
-69
114
39
-10
-65
24
64
-81
93
-32
-125
-22
-10
61
-82
31
-95
-30
-128
-108
8
106
115
-49
-19
98
110
-90
-42
88
-99
32
39
-4
-65
-114
-97
-128
-53
-64
-5
117
113
-117
24
85
15
46
63
27
33
107
-116
-108
47
21
-63
108
122
32
41
69
25
58
-51
-26
-116
110
-68
39
20
69
-71
25
3
-100
77
6
-60
114
-6
110
-65
-99
120
-126
45
-94
76
3
51
-103
-18
51
-72
-45
-20
36
60
-75
-87
18
46
-9
-112
105
82
-69
-69
-105
81
109
-113
-49
-37
-38
-10
114
72
102
-62
44
13
74
11
18
26
126
-76
-10
-91
94
52
-62
-86
124
-7
19
23
104
-2
-56
5
76
30
-40
-21
-73
26
11
27
-47
46
-94
93
104
1
-32
57
-1
22
-68
79
111
58
-42
109
91
114
46
-5
64
102
-19
-39
54
57
123
119
114
-62
-8
-67
32
56
-43
-83
109
-12
-120
-55
76
52
106
82
40
63
73
114
-125
69
-54
-83
-106
-62
-8
-18
91
-2
-91
110
65
0
96
121
96
-25
-39
87
-121
-111
22
-52
-45
12
-105
-100
-76
-44
-103
-18
97
-29
122
-118
-7
-83
-115
-1
67
-111
79
14
-84
-107
-71
101
-123
73
-1
-41
90
-76
118
14
-117
-72
-45
34
-67
-109
-24
87
-31
124
72
75
-21
-88
92
-109
-108
3
82
99
64
-103
-51
99
13
121
22
-70
101
-98
0
-43
46
101
-116
121
21
49
-89
116
-44
57
-74
-122
24
118
-26
-45
58
-108
113
-49
41
-93
-87
71
83
-66
120
93
90
-58
-43
-100
-42
-48
50
46
-103
-87
101
104
-76
30
118
59
-38
-8
34
37
74
28
-30
100
80
21
-58
-108
-5
16
27
-108
46
-42
55
25
121
100
-78
-42
-39
55
-5
70
-50
-44
64
-40
69
106
-13
3
-41
113
26
56
119
-67
-4
-94
25
-67
118
30
-107
-77
-45
68
-120
-85
56
-2
30
-24
39
-46
-60
-120
35
-25
-43
-6
12
120
-92
-31
25
79
-70
-3
-90
41
98
-41
-34
-14
-42
-98
-126
52
14
7
10
-17
111
29
-59
44
-95
-27
63
35
31
78
-84
-79
38
113
70
99
-17
87
-93
-110
-12
62
-1
-44
120
125
98
-122
16
45
-78
99
108
-109
-110
126
54
-7
-1
-40
-1
85
68
45
-126
94
16
-114
0
-69
-28
-68
-7
-88
-55
43
-119
-51
-83
-54
-118
23
-107
-12
13
73
79
74
-56
-86
19
18
118
-46
58
-8
110
38
81
68
-115
-47
-80
89
-51
-14
74
9
55
-93
-97
122
-51
-40
68
-61
-54
-65
35
-64
-3
-119
-74
59
-23
106
39
89
-80
44
-126
101
-87
-68
-119
-83
-50
101
-22
-88
-11
-67
100
-21
29
-79
95
15
-38
-19
95
-85
119
12
7
23
7
70
101
-32
54
-87
-60
54
8
-2
53
35
-28
11
116
-113
92
-92
96
-44
-101
-81
-105
92
-18
-38
-115
62
63
45
13
-15
-59
21
-26
-63
-53
-29
25
-114
-16
-28
-47
-99
72
-49
-118
-123
74
-86
-86
-30
10
95
89
-57
-71
-98
21
104
-42
7
-94
105
82
-2
-78
56
17
-2
25
-36
-46
-75
71
-100
110
-12
-25
-15
-123
-125
-122
-5
105
20
-76
90
-72
86
-2
-2
65
-31
-48
78
-27
-90
-50
-125
-80
66
101
19
-66
53
-115
1
61
25
-45
50
72
-15
16
-14
-95
110
87
30
59
-14
38
-18
-87
-68
-73
-124
82
95
5
76
-36
-74
88
-59
-8
-90
98
-68
-12
85
101
61
-33
28
95
-59
124
38
-75
122
102
119
-80
62
48
-7
-45
98
98
-37
60
14
-92
78
-61
-50
-31
-50
-80
-22
73
-120
118
9
-75
19
-126
-76
-104
46
-16
-24
83
-103
-82
-106
91
15
22
73
-20
-127
-127
75
25
-65
-55
116
35
23
103
70
122
-30
19
78
-120
-108
1
2
-113
88
-41
97
-54
-110
-122
-29
-70
-8
-90
-67
48
-104
83
107
114
33
-82
-26
118
97
-49
120
64
7
122
32
-33
-13
-66
-95
75
-90
-63
-52
-100
31
-116
30
93
6
15
-121
-84
103
-113
-96
-42
-58
5
-49
-102
13
30
50
-77
107
98
28
83
43
-76
-38
-61
103
103
-112
-95
103
121
66
120
-92
-17
49
-66
-36
-30
26
-79
58
-58
-94
-116
-115
11
-33
-117
116
107
-60
-98
-27
-98
4
121
-47
123
-116
-87
-120
-37
-1
-28
-91
-102
100
102
6
38
-31
114
79
56
14
-97
88
-75
30
-30
99
77
-38
85
-88
61
16
57
126
-94
40
31
52
-93
-10
53
36
-26
10
86
-128
93
-6
10
-15
-78
-17
76
10
-89
29
36
-53
36
103
-44
-116
-39
-60
-118
-26
56
106
99
55
-4
-34
60
-23
76
119
51
-20
14
52
88
90
121
59
14
59
123
17
31
-58
84
-50
-3
-25
-127
-100
-51
84
-59
59
117
23
-5
-31
-120
117
47
21
-5
-71
-13
-20
-115
-77
-65
17
108
121
50
92
75
90
-125
9
6
62
77
45
-38
-64
-74
109
-17
-27
-97
-90
46
-36
33
15
77
82
24
53
-30
-21
37
89
-69
-75
-96
-94
-64
-53
-59
2
-1
76
-30
-96
-87
12
-8
70
-120
-34
-104
-19
-36
-106
47
35
83
-37
29
-6
-31
-52
14
125
45
108
84
-127
-119
-72
83
99
-93
119
81
107
115
88
-23
-76
-113
-62
108
-69
3
92
98
96
70
-10
-6
-126
67
-48
-15
86
34
87
-27
92
-59
-59
-121
126
-36
95
41
-122
103
-110
-31
14
110
70
12
44
26
-45
-41
-113
-19
-108
-41
-32
114
-122
74
4
-49
118
39
-95
-66
-77
-68
125
-33
10
-79
-25
68
-44
8
-99
80
15
39
52
-9
-4
75
-8
94
-95
-81
-126
-63
-107
96
-75
42
-31
-26
-6
69
40
54
57
-20
81
-98
-87
69
-128
-114
-1
-115
-68
124
80
-5
-107
51
69
-19
-84
14
-59
100
51
-104
-26
72
112
81
-32
-56
108
-55
-34
-99
58
-103
-14
-120
51
82
6
-128
-25
1
117
-114
121
63
7
116
115
70
3
60
-3
17
-55
-25
7
118
78
-61
-82
-37
-26
98
-124
7
-68
-128
124
-7
-35
111
126
20
-33
3
-61
-60
-40
84
88
-128
52
-127
35
49
-125
-123
-115
122
92
53
-100
-68
-99
-99
-62
-87
111
15
-78
64
114
-99
101
19
-44
-65
20
-4
64
-3
56
91
78
124
-24
15
-57
-7
108
-51
45
-39
-124
57
69
55
34
-70
12
-47
104
-81
58
-9
109
-126
-82
-32
113
-12
53
12
2
62
109
-42
-76
-105
-56
-69
-30
-127
114
86
-79
-71
29
-111
91
22
-112
18
5
71
26
38
92
-50
56
49
68
-87
-17
100
100
-42
-7
99
-109
113
32
-22
-31
-39
-98
-27
76
-10
107
-127
55
-117
-30
-41
-43
7
40
55
-27
86
-123
-33
-126
-60
0
-64
49
-52
-73
-123
18
-61
113
125
-128
6
66
126
87
-108
-80
-37
-45
-4
93
-88
-18
-50
7
61
-18
70
14
49
42
116
8
32
84
-84
-41
-40
64
114
8
93
63
19
86
-91
120
-34
118
73
-9
-78
-29
-113
20
-100
13
87
42
-67
10
-69
-56
-108
-102
-77
28
-98
20
93
10
21
84
-22
55
-49
12
-26
-117
-97
-66
-102
-108
-62
-5
56
123
-69
76
-70
75
-6
11
-35
-93
-90
50
80
119
35
-111
-16
-63
28
-61
-113
-12
100
101
26
89
20
-75
18
100
-128
12
-4
54
-120
-119
42
102
-7
-21
20
13
-114
-123
-23
-62
-35
77
-62
-65
105
25
-32
-9
-106
-30
-84
-52
-1
-65
-9
-31
-62
-127
-95
-84
-88
-98
110
80
83
88
-56
-12
-62
55
101
25
-10
-104
104
-11
102
5
-29
-70
51
-112
-16
-90
-121
-36
-31
-111
-48
-77
-84
99
-106
-109
26
13
50
46
119
-114
89
-92
55
54
124
75
55
-87
-117
-56
-100
109
-99
-92
52
17
-7
49
-66
101
-52
-65
32
99
25
-53
67
-33
54
72
-46
122
18
80
32
18
-87
-92
-71
78
70
10
0
84
-71
-125
-99
17
-27
-27
62
82
-87
73
-47
16
-123
68
98
-94
22
15
49
-98
-13
-36
-81
69
-41
-119
-45
-81
-68
-20
-74
-51
38
82
-77
-84
60
-23
-33
-122
-10
121
40
56
-14
-38
113
-102
7
23
79
94
-47
91
92
-66
-123
-110
9
84
118
-56
64
75
0
26
124
-110
-34
-53
2
96
-19
-99
-51
36
94
-1
-62
-11
32
-125
113
-124
82
-123
89
91
123
-113
-47
111
-94
99
-110
-114
-98
-92
79
-115
72
81
-54
-121
-23
119
-101
66
-33
82
0
-99
29
-71
-10
100
45
-21
122
-28
43
78
-65
110
-55
102
109
118
91
79
73
-87
109
-28
-127
-15
25
-102
106
62
-52
-3
-18
-63
-100
-18
126
51
-83
49
-95
81
-38
63
-50
-93
51
64
-64
86
-87
94
123
-74
69
-124
-9
-81
119
-117
-123
97
-45
3
117
-43
-24
-37
31
102
-54
-72
-27
41
44
99
39
-54
-61
115
31
-98
-79
-122
113
-107
-19
97
-112
-97
-74
121
-30
-105
-52
-128
-100
-16
65
-36
62
-115
-125
-13
-57
114
2
61
70
-97
5
-70
27
125
12
116
15
-37
58
-29
6
86
108
-58
118
-30
28
-83
-105
-42
-74
35
48
93
25
-11
71
90
-60
-18
-80
120
64
118
-21
90
94
6
45
91
-123
-112
-89
123
51
115
-127
12
69
92
24
-63
-108
111
-55
65
75
-46
-1
-57
80
83
109
-100
114
-128
74
19
1
38
114
-16
101
-14
93
-105
-10
83
-81
47
114
-123
-114
-51
80
73
-114
-61
12
-7
-40
-67
93
17
-62
111
72
24
70
-38
39
90
44
123
-21
100
-42
-41
36
7
-36
-65
-80
-76
96
109
40
-66
75
124
2
-105
-119
86
-33
-126
-99
1
-16
-68
-18
105
63
-87
100
-80
-99
-88
-47
-51
-113
-95
52
-8
-26
21
-32
-79
92
33
122
121
45
71
-30
36
-120
92
-23
-88
-49
-98
-13
-14
-29
1
-118
-82
-83
96
67
71
81
-5
-112
60
119
27
117
44
123
-27
14
15
87
39
-40
72
-63
-58
-8
47
-25
98
-101
82
-93
117
-102
-10
58
-41
76
-128
-31
-40
43
24
-78
-77
8
102
117
-70
99
-89
-20
-85
-50
-128
-25
-47
9
10
-60
-44
103
-87
58
-87
-105
-7
-63
77
-72
82
-101
-86
-100
21
-101
33
-81
-43
-125
13
-80
74
4
33
113
-80
-92
57
-83
-58
-40
-90
9
63
104
78
110
50
-72
45
-11
-18
12
-106
97
25
91
28
-102
-74
105
110
111
-38
-85
105
74
89
-1
-19
-85
109
31
40
-74
90
-105
118
-30
126
-103
89
-71
-113
3
25
-28
76
24
-47
-109
8
-101
59
-1
-4
-93
-122
55
116
66
-77
65
-64
-58
-23
69
-44
-6
-102
-85
-56
25
0
-47
56
43
-106
-112
16
-64
118
-66
48
-123
-65
-77
79
117
-63
20
-68
73
84
40
116
-70
-45
-75
49
-1
103
14
-29
54
46
27
10
11
28
109
37
-103
-106
11
20
-25
112
58
-45
26
44
100
89
-44
28
-7
62
51
68
-100
-38
111
123
-28
-46
84
-99
-105
-71
0
37
49
-119
-123
-49
20
-22
-30
-64
-14
-71
46
-53
-48
100
-40
-78
85
16
-88
-91
67
3
68
-27
93
-89
-40
54
126
-25
29
45
7
-12
-100
-56
99
15
-16
-22
100
14
-7
122
-43
110
-121
40
-79
70
-63
-27
102
-93
111
48
-43
-103
-100
27
-97
-11
-39
17
-90
3
-128
-122
-44
-100
62
76
-72
-82
-89
-70
-22
-3
-73
-73
-1
114
112
59
-23
107
7
-120
43
-79
25
-54
-88
-37
-80
84
-98
-53
-64
-56
-60
46
51
-111
72
-36
-100
86
-44
-75
34
24
3
-9
60
42
-97
-77
-15
-51
105
-66
14
-72
-110
5
-114
-67
67
4
-40
-45
32
-74
77
37
-37
-110
-107
-55
-71
54
-37
-123
-68
91
-52
84
81
-118
-74
2
-57
-19
21
62
-17
73
79
31
88
123
-22
120
28
86
29
37
-104
-51
16
-40
2
119
-29
28
3
-101
-14
28
101
29
40
6
-95
29
9
6
-21
125
119
-10
18
48
-52
-123
91
81
121
-83
-96
61
-28
49
87
6
89
88
-96
75
-102
-107
88
-11
-82
44
94
-21
102
119
-39
-28
-98
-113
-27
40
121
-69
108
-77
-107
-124
119
84
-4
-119
6
93
8
81
-7
-93
-50
121
-47
109
99
-82
90
-90
56
81
12
-63
-36
-69
-21
-48
20
11
-1
27
-35
98
112
43
-89
-65
112
8
72
62
-82
-26
-30
-22
-89
-77
63
35
87
-89
-43
62
-53
-100
43
-120
10
-18
-59
121
82
73
-71
-58
32
71
63
80
60
124
63
99
92
26
-76
-85
-17
-14
118
-89
-52
-115
-54
104
-69
21
-61
93
6
112
-37
-89
102
30
29
-71
-65
-25
46
34
92
118
-40
94
77
-62
-41
-36
30
104
102
-81
73
-106
-77
-56
-126
-100
7
-35
-13
116
-115
-62
93
-113
-102
-26
-55
84
-51
76
125
2
-1
81
-21
28
-58
-113
48
92
-127
82
-78
-55
70
-47
96
0
-42
14
22
-90
-35
-117
74
-92
47
-81
-73
119
101
-127
36
-31
126
46
118
-13
-123
-69
13
54
-25
108
109
-70
-57
65
-80
11
81
-71
16
-80
66
24
-54
64
50
-52
-71
-12
61
119
-5
-16
-23
15
-92
78
63
-77
17
-42
-55
-76
-116
-57
-109
23
81
-127
-18
31
-71
-18
-126
-94
27
-103
31
-2
79
87
55
28
-100
29
86
-104
-4
53
-86
-115
-112
-124
-68
-33
17
97
125
-8
92
-33
110
45
104
119
14
-96
-39
14
12
-39
-85
17
121
-105
67
-91
90
42
110
-61
-120
79
-29
-120
75
-26
-92
-62
-102
60
8
78
-88
-89
31
29
-117
-2
-75
76
54
-73
38
-109
21
-12
71
33
50
113
91
29
-124
-123
51
-91
-65
-47
-74
25
34
-50
-86
14
-43
-31
-36
102
21
87
119
90
0
48
-24
90
24
-108
124
-99
2
-94
52
-91
-33
121
70
1
-53
52
57
-17
2
75
77
87
45
54
69
69
-75
-38
24
-68
-92
64
22
41
72
24
-121
-33
19
11
-79
7
-76
-65
46
-94
124
-9
22
-2
1
-102
1
-68
46
-35
-103
93
100
86
81
-126
116
-59
42
-123
-72
106
-78
21
53
55
-26
-111
56
76
22
-87
-58
99
-41
7
-48
-51
-97
-26
-104
-58
-21
44
-122
55
55
-37
34
-30
69
0
7
-25
126
107
21
-76
46
87
44
-8
88
-33
-92
1
-68
-99
77
-23
-6
42
-9
-79
-49
-16
-36
-70
74
-31
-3
-40
48
89
120
94
61
20
-114
7
76
96
-119
-3
-96
43
-127
-91
45
56
87
-75
-58
92
64
-18
-125
105
61
-88
-34
23
-47
-60
-27
76
-112
61
5
-34
6
-98
-27
-108
-22
29
-49
15
-118
-68
-67
104
-6
-7
99
-25
-9
88
2
103
105
-97
-20
50
9
-20
25
-17
97
-25
121
-53
-37
-114
47
107
-103
-54
-80
-67
-116
119
70
-121
-119
51
13
1
6
-37
-83
1
82
-27
3
18
102
114
-85
-127
-36
-88
-56
-6
6
122
82
28
1
55
87
13
48
35
-48
-95
84
0
122
10
-82
-85
117
35
-89
-83
-4
66
56
-76
34
22
-60
103
78
-13
-123
-23
69
-104
24
-23
-104
-61
106
-53
-35
29
77
-2
109
-48
112
-83
-10
12
-111
48
-31
-17
-79
26
-107
111
-61
-93
47
-21
108
26
72
-108
75
116
70
-7
68
-112
-41
69
-104
-70
102
-72
15
82
-16
-26
79
126
77
-78
28
-70
-88
81
37
19
-10
118
-109
65
77
100
94
-27
6
-95
-32
-60
25
-100
101
80
10
-109
18
86
-95
-118
26
-13
33
-66
-23
-57
31
-18
116
-127
10
123
-100
21
70
28
46
30
107
-39
-75
82
-15
0
-9
-8
-38
-66
-36
-54
16
-48
-49
-120
-100
-28
-3
55
16
-3
100
-53
-112
72
121
2
-23
0
-128
43
-32
95
121
-69
-127
-2
96
24
36
-83
-81
-15
-90
15
-43
-102
-10
-50
-4
31
-79
-112
-25
-65
47
120
-81
-109
-81
-92
-73
6
-39
-10
12
-12
32
9
-108
-67
123
-33
5
-2
22
-49
9
72
121
-29
27
-94
62
-57
-27
47
69
-101
-119
108
86
-16
65
-69
-44
-103
34
-101
-79
-81
30
10
21
-69
91
58
36
85
33
-44
17
44
-56
32
-20
87
89
-46
34
105
-7
-1
-33
-10
-1
-115
69
-81
53
-84
50
-101
-24
105
-82
77
-79
-101
21
-54
-74
-11
-23
52
55
72
54
116
-2
-121
-19
104
56
-110
89
-14
83
69
-5
-86
-88
-115
6
-96
9
124
-90
-56
-37
-42
-119
-97
-11
-10
-44
-72
28
-28
-67
123
-58
114
-41
84
-85
-4
-27
-115
21
61
66
96
-120
120
-32
-52
-115
-47
4
64
68
62
-47
-106
3
-61
-48
42
-34
-74
74
-128
-95
107
-6
98
-49
-36
11
75
50
-39
-63
73
14
-112
33
-83
-48
78
14
-74
71
-128
122
102
97
-98
1
-59
-81
-101
-94
92
91
-119
53
123
81
-34
72
-74
-75
-100
89
-43
2
24
28
-108
-86
-114
126
93
59
22
66
34
83
5
-97
-85
57
17
-105
32
122
-33
-22
22
-118
6
-115
25
125
89
-86
-89
121
32
50
-36
61
-27
47
-18
52
104
-9
35
106
-29
45
-82
-69
-112
70
-30
103
93
-101
-125
-123
-32
-61
-119
119
35
33
105
-126
58
-106
44
-124
-72
43
67
59
-96
-93
-62
-76
38
-10
92
-86
-76
-1
19
78
114
-128
-46
30
74
-113
7
-124
79
64
6
7
-124
-42
9
43
-53
-90
-26
39
121
47
-43
-41
-42
70
-23
1
65
-4
23
53
66
121
-48
62
33
-111
-127
104
-26
94
48
27
47
85
33
-26
93
79
-45
-7
-18
73
3
54
43
44
49
46
81
37
95
109
-75
-79
2
45
94
48
-29
54
-81
-11
-88
70
-112
-68
-57
-66
124
-117
47
-28
63
58
9
-18
22
-68
-62
-10
-4
-38
-125
-91
114
69
21
-111
123
110
-116
47
37
-85
25
85
-72
-57
42
62
-3
-105
37
-25
-14
-94
80
-115
48
100
38
-87
15
-119
106
-84
-74
105
-83
120
-44
96
-43
52
-74
68
-73
39
107
15
-91
-98
97
-93
-60
17
-49
110
-63
77
117
-106
-42
69
-72
41
-26
110
18
67
72
57
126
15
-38
-103
-29
-79
58
-105
-124
77
-79
50
-105
-90
24
68
24
96
-32
85
54
-39
-104
-11
-29
-27
51
45
-77
-29
81
-111
-92
8
-68
8
-28
-39
-53
-69
125
111
49
87
-26
94
-103
107
-105
-57
-36
26
61
-108
8
-68
0
-68
-3
-89
76
-79
-96
-50
68
89
-97
-98
90
86
-1
-64
-5
-2
112
81
35
15
-46
-73
102
102
-58
112
-97
-116
-44
71
105
99
44
91
-8
19
-30
-102
40
-97
-108
-6
-3
24
-104
15
80
69
66
19
25
24
-25
110
-64
19
-123
122
88
-126
13
-14
63
-18
-53
-108
-109
84
73
76
-17
-21
-109
35
50
-24
-28
-109
50
80
-90
39
103
-95
65
7
14
98
26
90
51
-7
-14
55
29
75
-27
122
-66
-81
-47
-98
39
-28
10
-106
-75
37
-23
-21
73
24
-59
25
-72
-38
-106
57
-22
-20
-41
54
-82
-122
18
-8
-94
-22
-78
0
87
39
24
115
61
-127
-12
-120
126
10
-10
-123
95
123
-2
4
-127
123
-92
55
-109
78
17
115
-125
118
77
-69
-47
2
70
-105
78
95
-17
-32
31
47
-18
-13
-18
-15
-99
-94
-13
122
-100
97
4
54
-127
105
-89
115
-126
-63
-121
84
-38
-42
-64
-49
-42
-12
27
-117
77
-73
-106
30
30
-19
49
-52
-16
47
37
-8
108
-52
-16
-26
-118
85
12
-97
-87
-50
89
104
-34
-26
38
-90
-106
-126
34
24
13
87
-71
-10
-111
58
47
76
-41
98
-59
23
68
-90
0
-41
-115
90
-89
-121
-121
11
59
2
-97
33
-63
59
109
-95
61
90
105
22
-92
56
-65
71
-58
-33
10
24
47
-9
34
-55
-21
-5
-65
22
-37
-78
110
-102
22
77
-28
88
-84
-97
71
-128
70
57
112
74
-97
-11
118
-104
-88
-41
-74
-82
-11
1
-12
-32
50
-112
-45
-54
-24
58
38
-44
-115
109
24
-54
2
120
74
46
100
35
-3
-125
-99
-68
95
111
95
12
-21
50
96
-80
-24
8
71
-54
-68
104
85
-20
30
-83
113
-34
121
-77
-125
126
-61
-38
121
44
25
10
-101
77
0
63
-19
41
99
124
-118
116
-102
-112
-100
27
49
6
32
110
44
-126
-80
-63
-16
113
20
-75
63
-95
-85
-40
17
0
70
-69
50
4
-53
2
86
-9
21
-77
65
39
82
-97
12
-108
88
-127
-115
40
55
-65
-56
-63
-82
-62
81
-32
107
113
-58
31
-109
-102
49
-88
-73
95
-4
36
64
115
85
51
67
11
-25
-32
115
24
122
79
-2
111
49
126
2
-98
95
-95
63
-86
-42
-123
102
-88
-50
17
55
-16
-55
-26
-113
-83
-74
96
114
-128
31
57
120
-80
-13
-36
-86
49
70
-14
-36
22
84
56
22
61
120
-19
99
54
4
-22
30
71
-120
-70
125
-4
19
62
-51
6
-107
-111
-45
97
-13
-112
79
-14
126
94
9
-11
-13
41
125
75
60
109
-110
120
28
-110
38
106
98
73
-88
12
85
-27
18
-62
-98
-35
31
-117
-31
53
32
-57
-117
66
-115
113
103
8
-6
-80
109
13
-20
-72
-4
-93
-66
120
10
-23
-8
1
-19
-112
-103
-81
104
-107
-7
-68
-9
-50
-3
-54
87
30
73
-108
13
75
-37
98
-29
-117
98
45
40
-101
-90
89
-5
-51
10
-67
-13
7
100
-16
-3
-93
-118
-58
90
23
-58
39
-95
88
70
13
45
-108
-62
-6
61
-2
-40
20
-96
5
115
14
-71
86
3
36
16
46
-71
108
-53
97
-85
12
44
4
-27
12
-46
-81
-37
16
7
115
73
-43
51
-89
-41
11
-80
54
-32
100
16
12
-8
-96
-117
30
89
-53
-88
-108
-3
41
81
-72
47
-17
-60
107
61
23
-110
-96
85
-80
70
58
118
3
122
68
-51
50
94
-60
79
-95
-80
-67
86
-84
-113
107
74
-59
71
-51
121
-26
-121
65
67
4
124
1
-23
-97
115
-42
45
77
-123
-117
66
-111
86
16
-40
113
86
-94
76
49
-16
-92
-48
67
-23
-89
83
53
-35
11
116
4
21
-109
-101
117
91
-12
-98
-111
120
-77
0
-62
106
-56
74
89
-60
-7
103
38
-79
49
60
-13
-76
-43
8
-57
78
-32
-33
24
-117
2
93
38
-57
-62
76
-84
-17
110
63
81
121
48
69
8
98
-65
-47
109
71
-2
-91
-1
-119
86
95
125
-88
102
80
60
-56
-40
-15
-112
51
106
-110
-56
-102
3
53
-48
-97
20
-110
96
97
-22
-17
82
-32
57
114
-76
-60
16
87
-18
106
-90
-29
-121
-82
25
29
36
90
96
-90
121
-25
-19
-20
-53
92
112
-9
12
72
106
1
-115
35
-85
116
26
-59
-61
114
-15
-66
123
-39
119
117
-98
121
-126
-65
-59
5
93
25
97
58
90
-92
84
3
2
-63
38
-26
-7
-118
83
68
84
50
75
-107
-108
-71
121
49
50
-115
-58
28
-18
19
39
126
-16
62
-122
104
-17
111
81
78
-12
-114
37
12
-36
-39
-114
87
-60
7
-6
89
91
119
-18
-44
-58
-23
-103
-128
23
48
37
-79
79
-38
-56
-124
56
117
-74
-13
-111
84
-81
40
110
-99
101
13
126
57
-33
-97
-99
45
36
52
70
-86
50
108
-33
18
-2
100
35
-29
72
-90
-17
-67
-65
-42
-56
-16
107
20
-36
62
8
24
126
-123
76
-79
123
-27
-23
42
-23
67
98
45
-27
-67
-121
-37
-58
-10
116
-37
-23
-13
6
125
-101
-120
-24
61
84
105
-73
-114
-98
-56
46
-71
83
-38
-93
-47
-86
58
67
-73
62
-96
-88
63
90
-110
54
39
-1
108
78
59
90
49
47
-95
-39
121
105
60
4
-71
-75
0
-26
-60
0
-42
124
96
123
-99
31
85
-119
115
29
-91
84
-55
-82
-57
-48
-81
7
84
-32
116
32
76
93
-82
-115
101
-85
-94
57
-41
-81
98
86
-96
-126
-56
51
97
64
110
-37
113
-104
97
-49
-18
-100
-119
-67
102
53
68
-41
-84
-86
60
50
125
17
-81
-70
-8
-121
-32
-77
98
80
88
-58
92
112
-81
34
10
47
-33
-74
-23
-63
45
30
23
-78
-109
-127
-120
27
102
-119
57
100
47
-8
-10
99
92
71
41
-83
125
-77
-87
22
43
-115
30
82
-27
-87
-70
-126
6
65
50
85
22
-52
-91
79
67
-17
74
-55
-91
31
44
75
-64
64
28
-53
-7
91
-73
95
-47
77
62
108
-79
70
31
-112
-52
-42
78
-119
98
-36
-10
58
109
60
-46
-116
-37
-61
-124
-116
91
103
-94
55
-116
-38
14
-117
1
105
-42
-90
103
84
43
89
33
-16
-72
-53
-41
43
49
-97
49
-95
59
-36
-86
15
94
-92
64
108
-55
118
120
18
-25
-38
118
7
119
14
113
-74
-13
104
91
-52
-33
-58
-37
-16
-20
-35
22
42
-80
88
-48
-124
-3
24
-93
21
-67
-64
17
-4
35
-112
118
98
74
-27
9
-39
97
45
-93
-71
-3
113
99
-4
-3
58
-93
119
-40
16
-65
-66
69
-67
-79
27
93
-114
45
-103
64
-43
-84
-82
97
91
8
-94
79
-109
7
-81
-76
-56
31
32
12
-110
18
50
-109
-70
-88
121
-122
45
118
-91
-20
55
-49
-41
-15
-45
42
-7
68
24
-90
-46
5
29
85
-47
120
-39
-11
119
-13
-96
17
111
75
-38
71
-76
-89
-18
-73
123
126
73
72
64
-128
31
116
-101
78
30
25
78
31
-127
-78
-81
105
-23
5
121
99
86
9
-41
56
-20
-28
-100
-111
-59
-5
52
-54
-90
77
-40
-88
64
84
-43
7
19
-75
-30
-62
66
-76
98
-4
62
44
-128
-90
3
73
-11
-127
29
14
59
-70
67
120
103
-32
-60
14
-17
-90
-102
103
-53
-102
76
1
60
113
-118
-53
72
-30
89
-1
87
-81
-79
-126
119
-119
56
-113
-85
36
-54
-40
-11
-38
-52
-96
-96
102
105
74
121
-62
-68
-26
29
-60
39
42
-128
72
-80
-16
37
56
-99
-27
109
-115
88
44
118
-29
-63
118
47
111
92
44
-83
55
55
41
-31
-23
45
98
-115
52
-53
55
-92
-60
114
104
-74
-5
98
77
97
11
-23
108
-108
-55
-16
53
-120
-76
-121
124
-102
35
-23
-18
15
8
65
2
-50
33
-38
-10
40
43
121
-61
0
95
-66
51
29
75
115
14
99
78
-70
97
28
27
43
-19
42
43
28
-81
-26
-100
36
-95
-110
1
-120
-10
-97
63
39
103
-11
34
93
38
109
-4
-41
-83
-39
82
-115
108
-66
-20
71
26
39
98
-108
83
-4
73
28
84
-40
109
109
13
-41
120
-126
-103
90
117
-30
76
12
-122
35
97
-14
-61
-43
-54
-26
-32
-7
-40
-50
-69
37
-50
-108
61
-69
-126
78
-102
-26
46
56
34
-96
-110
44
-122
-101
-95
33
-40
104
80
-51
21
77
-114
59
113
-69
-91
12
-24
122
-51
-43
9
120
-115
14
-117
93
49
-26
29
125
113
78
-27
-118
91
-104
-32
-40
-105
102
54
43
-46
9
-89
-87
-23
22
98
97
-113
11
-65
-27
-43
-110
88
81
-18
-87
12
0
85
24
35
20
121
-53
96
95
-125
-25
64
111
40
114
-67
14
58
14
-121
66
54
-96
15
-65
-26
-15
121
-38
64
-117
-37
86
83
-103
46
-15
61
82
78
82
-19
-17
-124
-64
-3
-125
108
119
-25
-68
44
-113
20
66
5
13
-105
5
19
-42
83
58
123
92
-100
53
-22
72
11
-74
-48
28
-15
-21
-48
61
-127
97
-114
34
57
-96
-85
-22
62
-12
-79
-125
-56
-17
103
-117
38
7
-43
6
-128
-95
-50
33
-43
-109
94
-53
45
60
67
78
-81
74
-66
-15
-89
-90
-121
-93
-94
-89
108
113
95
-14
-112
3
25
-65
72
-104
121
-46
-72
-24
73
-24
54
64
-128
-24
-14
-95
126
-74
-83
-88
72
-113
-84
123
82
42
116
48
68
-74
-97
51
-99
42
-3
31
-114
106
-1
-33
60
-109
58
-111
78
-81
-19
30
-65
50
126
26
-13
-12
49
-76
120
9
-32
107
-60
-125
101
-36
120
-22
6
97
-73
-105
-40
-81
13
-48
56
-33
-79
81
-15
107
7
-61
-32
-80
-33
74
-13
-74
-26
38
34
-94
-14
-36
-47
-80
32
32
7
-105
80
-67
103
-71
104
43
-86
-68
-11
-47
-83
71
-90
94
-58
84
-28
-100
-25
-51
-111
48
2
-5
-42
81
108
-35
-123
-1
-102
32
28
-120
78
-76
-70
-124
119
-74
111
-114
44
103
20
57
-111
56
-35
46
77
90
-37
111
123
-113
-89
29
118
-4
98
122
41
-4
-66
-50
-4
-25
-16
-113
-95
-87
-26
26
69
106
51
50
22
68
-47
63
-14
-38
-17
101
-116
78
-25
-8
125
-86
100
-84
1
-48
-99
-41
-4
-29
56
-51
-87
-4
107
78
67
54
-46
-43
58
-107
100
-38
105
76
-94
-90
63
-27
30
-55
59
-48
123
44
-65
-24
97
-26
82
4
43
107
-43
-69
69
-111
-42
115
49
12
62
-64
-49
0
-49
-90
-126
7
-31
-38
-93
-84
-24
-74
72
56
-20
-108
-67
36
49
15
-50
-18
-59
126
-86
108
-47
5
-90
-35
-101
-15
118
37
-25
101
-5
102
93
-25
10
88
11
-1
-113
-105
-127
42
112
79
-118
-43
89
74
83
-65
66
27
72
85
1
30
-107
22
-98
-113
69
57
-47
71
-124
-17
-80
25
89
-115
17
-14
60
-25
86
-103
3
30
99
95
-72
86
97
-59
-96
121
-53
-106
-34
67
-14
-69
40
-28
7
-64
123
-71
115
-121
26
-97
-90
125
-12
-58
42
-26
79
3
25
112
-128
-95
-33
-57
42
-107
95
20
9
46
90
62
-90
110
69
31
15
74
49
-105
-15
-5
64
7
-5
-54
-9
20
99
-1
90
95
-40
80
-20
-90
-45
-50
9
-118
-26
70
-40
96
39
51
-47
96
-56
118
-114
48
-83
-98
39
25
-101
-33
-104
65
58
-80
29
122
20
84
-13
112
120
122
-112
-52
79
-77
82
-50
-89
60
49
4
-126
-6
-33
101
23
-86
3
71
40
96
-43
9
-104
-52
-64
-7
88
-94
-101
33
-67
21
92
39
-59
-55
103
126
-97
49
6
93
123
-98
-74
120
29
94
-2
-24
-32
99
115
31
-64
-100
112
67
32
37
-42
85
-126
43
107
-12
-20
115
-11
-121
-10
36
93
106
125
-5
117
-127
-64
-39
60
-88
99
22
-42
58
-96
-42
-62
92
-33
-45
-48
-60
-70
34
-8
65
-2
45
-4
-101
-106
-66
67
-113
-73
-14
76
-105
-86
116
60
-96
-65
-111
44
-11
-63
-32
-53
14
-59
-70
74
-114
53
-2
-10
-54
27
-3
-31
-96
93
-120
-30
116
-54
21
-113
105
-123
26
-91
109
116
108
48
1
119
-125
-8
68
18
-22
24
-60
-41
-120
31
69
-12
59
-73
-124
-58
-72
-114
15
-100
123
30
-118
-114
-34
-30
-121
80
31
65
-18
103
53
1
90
-56
-89
-53
-105
-76
19
