-105
-42
-36
108
-22
-49
-86
-124
-74
-56
-42
123
-93
-50
-67
-123
-113
122
-5
52
-75
93
7
102
60
13
-110
-107
66
-14
-16
-77
-85
-90
-43
90
-127
98
-76
-39
-79
-93
22
46
-27
28
79
-79
-52
55
-42
83
-127
40
-75
103
-68
-66
91
-80
-126
-19
-122
-100
-55
-109
61
67
-5
-4
34
42
113
3
7
-46
7
-31
49
105
-88
-74
37
54
51
42
-49
-44
95
-99
28
-47
32
-33
-15
26
77
-36
10
68
-7
-70
-88
-10
-122
21
-128
118
-125
-66
115
30
82
-61
-89
75
94
-123
-51
21
-83
-99
107
-112
-67
-16
96
-82
92
42
-93
33
6
-72
121
-71
-51
29
51
-126
126
-124
-35
-75
87
122
-36
66
-113
95
79
-115
-49
-98
-10
-94
-80
0
86
54
85
-97
79
101
-13
77
28
35
-31
86
56
-38
16
57
-127
96
-86
-52
-76
-87
58
102
-86
-106
-84
-88
-110
-101
87
44
-53
70
-33
-5
-19
-32
-125
57
123
99
-2
-9
1
-99
-54
-18
-56
-23
61
-111
78
95
-62
72
-109
73
71
99
-15
-108
-106
-114
-64
19
-93
-82
-123
-102
-60
108
-80
68
35
85
75
-58
109
-100
-121
-121
88
12
-91
71
78
122
87
-99
-53
-55
20
8
67
84
123
81
-43
-81
-121
-86
-29
112
-115
114
69
-77
63
125
-26
18
-105
47
-55
-66
-124
-65
-64
82
19
-27
-53
-53
-128
-77
57
-127
-75
26
-69
75
56
-34
-99
-68
-56
79
-64
116
97
77
104
105
30
104
-112
-33
103
111
103
-25
47
67
-84
-39
-117
-115
14
-105
-24
95
-24
-74
-112
92
-48
-42
-59
-100
-79
103
93
-6
-117
-81
-93
-43
42
-97
-100
-109
-69
-73
-124
-122
74
24
68
-126
15
-4
126
-5
-50
-68
73
32
-112
-78
79
-18
42
-66
-122
-29
-104
-120
-127
38
-32
-126
-109
-111
-16
-25
109
-33
-80
-84
28
58
-8
30
-94
37
1
-124
-21
114
53
37
0
92
-48
-84
116
126
37
-119
107
63
-66
9
-121
112
89
-75
-59
-1
12
27
24
-77
120
-34
-125
66
11
-119
39
-96
15
-87
7
20
-8
19
-54
82
-46
20
80
122
123
28
2
103
-34
43
-3
48
-86
89
15
-48
71
36
-97
89
-25
6
-87
38
-81
57
33
6
76
115
53
16
87
114
-60
-28
42
-50
-8
-32
102
84
-41
42
23
-30
-62
21
-29
65
125
-45
36
-45
-94
-96
111
87
-89
103
-102
-65
93
-7
-46
35
-106
72
8
69
95
-69
95
-16
102
66
105
-126
105
-22
123
113
-82
-106
15
87
-65
-12
60
-73
-45
-96
-49
21
121
53
-55
-77
-128
75
66
88
56
-11
-69
-83
-108
62
-128
93
-100
-14
-51
116
59
80
-21
-65
-50
22
-36
-46
-18
-119
97
-100
-46
68
-38
43
-37
37
89
-19
-26
94
91
63
-18
-64
16
62
19
37
121
-60
-66
82
102
113
2
-119
-92
-111
21
-98
-21
53
-46
6
-25
-45
-90
-29
79
94
-8
77
109
2
66
-15
14
120
-3
3
85
-15
86
-21
-66
-56
120
-49
-55
-27
-95
-10
55
-90
106
-52
-80
51
-45
72
45
85
75
92
-41
-5
-47
4
-100
-29
106
62
90
53
-118
38
76
41
35
-64
78
35
-70
-75
-95
62
-6
55
97
-113
70
-15
-115
-104
111
105
-124
-45
-87
-50
-8
-35
68
58
-18
94
-82
-37
-34
42
59
20
76
87
86
61
-44
49
-34
29
101
-39
22
-92
120
-106
-82
0
-31
-23
-107
96
29
17
-82
95
103
56
16
27
-24
30
20
-61
7
53
-88
109
51
28
88
95
-62
-36
-99
108
-116
-24
-29
17
104
-30
-27
-21
-45
21
3
36
48
104
76
-85
-20
27
52
32
24
-63
-106
-40
-108
-98
72
-123
14
43
-52
85
80
-45
-120
91
11
-104
3
42
60
-80
115
-94
-64
122
-73
115
-55
64
-34
-120
126
-123
20
15
69
-108
78
18
-27
60
73
-59
-49
72
45
-33
-123
108
-120
-104
45
41
-14
-38
-110
86
76
100
123
49
-49
40
44
-18
-67
-9
68
45
-29
-112
47
9
8
91
69
1
-124
124
87
-103
-92
68
-1
-58
27
-71
-58
112
-74
-98
98
-44
-109
37
112
-85
-52
21
105
-69
-49
85
114
-10
-22
-96
-39
-23
124
-40
-62
106
-110
2
-67
-63
-106
-74
-66
62
-84
87
88
-10
-40
27
58
92
38
2
-38
101
-92
-84
-66
-107
-123
-59
-3
46
-70
-28
102
50
118
-33
-70
10
4
-88
116
2
-76
-36
27
-49
-112
67
-78
43
4
65
-126
103
-22
-105
47
-24
-48
34
-13
-53
97
-38
114
-77
86
-58
-100
-96
-53
-48
-45
85
68
4
-22
-112
-49
-77
88
-15
-45
120
120
29
-71
-117
61
-83
101
60
53
-114
-86
22
3
79
107
-99
100
-2
14
-92
-125
81
71
110
44
-80
90
-67
38
42
18
-125
-65
68
-73
-81
-110
-113
55
20
8
-74
-46
3
65
-28
-4
96
118
25
-84
63
7
83
19
-126
19
-84
-81
81
-96
113
-49
-53
-110
-37
50
4
39
-14
103
-17
52
-13
-119
-29
53
-67
-82
45
63
37
76
-81
80
91
-30
29
22
29
34
117
-18
117
-88
86
-72
74
11
-122
-36
-118
87
-9
41
-43
-19
-7
-45
91
-111
-62
-18
92
-98
-64
-125
-11
-36
-109
-123
-8
-79
-7
84
108
-49
-4
-35
-101
-45
75
38
107
-101
-99
109
-84
-118
101
-93
-113
112
64
-45
-93
-79
-98
-64
49
-83
-84
-57
112
48
56
-20
-1
-52
23
-41
-90
82
77
29
85
-26
-49
67
-58
35
69
-49
-119
36
-80
-85
-101
-19
-122
56
-27
32
-94
-26
103
-97
-51
30
27
-11
-112
6
64
66
-48
18
0
1
-93
-108
-67
-27
-98
15
-6
4
112
57
105
-6
-26
-41
-4
47
51
79
-77
126
30
-69
68
-116
21
76
113
-84
-24
-14
116
15
-12
-61
30
124
99
28
123
-55
-111
-12
26
92
2
109
78
-54
-87
64
-109
-57
104
84
117
38
75
-126
86
86
-99
87
-68
109
114
99
-106
64
57
102
77
-68
-104
21
-2
27
-54
-111
12
-35
24
92
-79
35
64
91
-50
-124
75
-121
34
-43
-98
-62
-4
115
-36
-52
52
-54
19
15
-64
-57
-117
-91
-107
-120
46
33
-88
26
115
-59
-126
-60
16
36
0
-86
28
41
-35
-101
8
24
98
60
47
-120
28
-15
-72
-70
64
-36
-79
-62
33
28
104
-44
105
43
-15
52
-41
-15
123
104
33
-78
-30
118
77
47
23
-55
-127
122
97
-2
-13
124
-85
114
-72
-92
-87
107
-57
-39
-124
-7
110
107
23
4
-103
81
116
-19
-16
21
-16
-124
-44
90
4
87
-1
21
101
-52
-125
-91
-11
-73
73
-88
25
80
-84
-104
-85
73
-100
11
30
-23
-115
87
-64
-91
-97
31
0
35
34
-75
-9
-113
107
121
72
-76
59
32
114
47
118
-53
5
-7
104
-20
-4
-109
97
-72
-91
-122
111
-126
122
25
-54
-3
42
33
104
-35
92
56
-42
121
59
5
-127
47
-106
-43
14
75
-103
-8
-36
-72
-86
-55
-112
-84
-98
56
-11
-66
-3
123
33
-21
-118
36
27
91
-65
47
20
44
13
-50
-94
53
71
8
-117
74
83
95
-28
-104
-82
113
80
95
-70
23
-24
88
27
-15
-64
-28
-93
65
-68
18
29
-67
117
126
112
-88
53
101
-113
35
-117
57
-95
-94
-5
36
-2
32
86
-108
40
-25
22
125
-87
100
57
-25
-56
-88
84
100
74
25
-84
125
-106
-26
-119
57
59
51
-57
119
-23
3
-68
9
76
-75
-52
95
28
-104
-64
-13
108
-88
-6
36
-44
-105
22
94
120
72
-36
-96
126
-40
12
-94
47
29
-69
47
-24
-9
-9
-112
-4
-66
93
79
77
2
-108
-54
-75
115
-90
-8
-18
-110
106
42
-27
-71
121
-63
68
61
53
-18
-61
-97
-15
-29
34
126
-25
-61
-121
52
-3
82
85
75
10
-89
121
82
-10
-33
-98
32
-42
-18
122
-115
7
-114
123
61
35
66
108
-84
-67
120
-93
-57
-31
-61
-57
-12
-96
59
-42
59
-39
-101
52
111
7
-50
-54
29
114
-89
49
65
121
114
-40
115
107
-47
-86
-90
-51
109
43
99
96
-55
71
-29
-67
42
-50
-8
-39
-83
39
-120
-84
67
27
-60
-36
35
-82
57
46
-76
38
30
-118
-57
36
-80
50
65
-19
65
5
35
-58
84
61
36
47
64
119
-10
23
-14
38
67
94
20
-5
121
125
-83
-99
-124
-98
-53
-15
-75
125
-83
100
57
-58
-60
-100
113
-72
-5
105
29
-48
-117
-32
50
124
-126
-26
-25
81
87
-67
68
1
72
-76
-85
85
73
-53
38
19
-127
0
-107
123
49
-124
-109
-19
-3
-74
-3
26
-85
-62
112
10
-41
-16
21
73
31
-126
101
94
-114
34
19
52
30
-69
-90
119
-2
81
-84
87
-74
-3
34
88
-1
74
34
70
-8
109
91
-7
-123
9
4
71
-7
-21
53
-40
-39
68
-90
32
-17
-29
90
-11
-54
-72
31
-43
-24
-123
29
-100
111
-126
84
33
-116
1
52
-70
41
-95
-1
-61
-79
-102
74
-88
22
-116
-92
71
-127
3
-12
41
98
-38
20
-95
-77
33
122
54
20
80
-52
3
4
46
-91
-85
-110
-99
58
-108
-3
0
-60
46
-2
-75
65
-58
-67
-37
-72
49
42
-120
7
-80
-89
20
-55
96
-17
28
0
-126
12
-48
-52
-43
-103
61
105
-17
55
-22
22
60
0
103
-28
97
-42
25
-88
53
-128
32
83
-95
114
116
82
-86
38
-84
-40
-107
56
-101
31
-68
30
-118
115
-2
-45
82
-90
-90
-13
-37
59
14
-2
-39
-63
-62
56
2
88
114
-102
-53
38
4
10
126
-25
-5
41
19
-27
-54
-4
48
113
-115
52
68
-102
-80
-49
98
-91
88
111
-21
21
115
32
-87
4
-27
83
46
38
-59
-60
-64
125
-70
-84
80
125
-58
51
-43
-58
72
-55
5
39
55
-91
-70
-89
118
36
94
73
-105
9
69
-105
15
-114
-20
72
13
-112
-47
80
-30
-123
101
-19
-85
-89
42
3
26
14
20
-88
40
-101
-102
26
29
100
-58
39
-91
43
39
97
57
92
40
-12
-87
-70
79
-7
29
73
58
107
-22
95
-78
-21
43
-75
24
107
114
-89
-122
-124
-69
-123
70
111
-62
-87
3
-113
-63
-46
-29
-119
59
-16
10
124
-44
9
90
16
-40
-101
-59
41
119
-44
-41
-58
-53
-72
-111
-64
117
58
-42
111
71
125
46
72
-23
2
-1
37
124
34
17
60
-70
-122
-82
-81
117
24
74
109
-57
-81
-40
-4
-29
-61
-9
-121
57
-55
44
88
-98
-85
23
21
-73
-7
-105
-22
-107
-48
-36
21
-35
29
-70
121
-103
-66
84
-103
72
-47
108
36
-116
53
-103
47
-43
54
86
-4
-9
-21
-59
-70
37
-69
-58
-86
-22
-49
-109
-93
-17
-75
-11
-27
-98
69
122
117
12
-85
-65
-62
-11
116
49
57
26
-124
-51
-122
-23
-53
-117
-4
89
-45
-106
-99
-101
84
-82
-13
50
3
126
19
8
-61
-95
41
13
69
-32
26
55
50
126
60
-66
93
-80
-10
-57
-113
-82
114
-77
-40
-25
-56
-18
-17
22
-98
-112
-37
-12
-67
65
-85
-37
19
-72
-91
53
82
-117
13
88
-1
100
14
-96
-36
-91
-110
93
-37
65
-11
-65
-82
-122
-45
-61
-42
88
48
47
-128
-75
-57
27
-79
2
123
-8
75
-38
-91
-14
47
-49
-80
-36
-10
100
61
11
-71
-3
92
-74
101
51
18
-75
19
29
-95
4
-37
-52
-85
-104
118
-11
-23
-33
-90
118
36
4
-1
-34
-93
-54
35
76
-4
-53
64
-120
22
58
113
36
-50
-97
36
-53
31
-112
65
1
26
-61
-105
67
123
125
67
-5
105
-27
-2
67
72
-3
-75
40
109
-19
68
97
-57
-71
-60
-7
7
-38
-29
24
44
12
-104
-63
-30
-43
-32
122
27
-26
-49
100
-25
27
-68
47
47
66
-101
67
30
-120
3
4
111
-78
67
60
-29
3
66
15
-74
49
-62
9
13
-3
117
84
-24
-12
-88
70
-101
-111
-62
-117
-74
-23
-43
111
81
-37
-55
22
-27
-51
72
43
21
-53
68
123
-77
-37
-69
8
30
-110
-72
26
88
-7
-63
-38
-4
61
30
39
5
-110
0
-60
-42
48
86
39
-94
51
47
105
-89
-44
50
60
-23
-119
-30
20
78
-87
-80
14
-77
40
-9
-7
71
-43
36
-123
-103
74
25
66
81
58
-73
46
-25
-105
78
69
112
13
3
56
93
23
-11
-14
-70
-20
64
-121
-123
-17
-18
109
60
14
-13
-59
-68
65
-97
30
-80
-43
86
-74
82
92
44
94
20
-60
28
-109
-30
120
-64
72
-57
28
80
9
58
-17
-36
-43
-110
24
-32
-8
23
-43
-76
47
49
110
93
-18
-118
-16
-94
-99
-62
67
-1
22
49
67
-37
31
-28
68
101
-119
74
-54
-116
-37
21
94
45
-51
126
-12
87
6
-82
123
103
6
-2
98
122
-110
-5
-12
-35
31
-99
-114
92
116
31
72
-95
-96
-26
-89
14
96
79
-32
27
29
-85
-96
-66
-40
81
31
-34
-41
-3
98
74
-17
-116
120
51
-121
109
28
77
51
49
87
-41
-125
9
-1
-39
5
91
70
92
-109
-11
-106
120
124
-109
0
85
-40
-70
86
-46
-83
48
4
116
-90
110
37
105
94
-98
-7
58
-6
-35
-87
37
-104
107
45
-92
-73
-60
23
73
-108
3
0
117
-73
-13
-29
-4
-17
-20
-91
-117
110
40
32
-42
102
-33
81
-119
-97
-4
109
96
82
92
-61
-127
35
-11
60
-127
-23
39
-81
-26
86
103
12
-48
-23
29
125
-127
45
50
81
5
95
101
-43
-68
29
-98
-15
-81
-67
99
5
63
-68
-63
111
-72
27
83
35
92
-62
61
-95
117
-71
52
39
68
65
-127
-2
-106
70
-86
-53
114
-4
112
111
113
108
16
-115
-1
-14
-45
-50
54
-1
-10
69
-27
-43
16
-47
-49
29
-36
86
99
-28
-9
90
59
25
-68
-16
-106
41
-25
-128
-120
123
-58
9
-96
-53
42
-102
-16
-46
-91
-37
-55
41
-88
-32
-111
105
-72
-11
103
-43
71
43
-6
-126
-124
-21
57
-64
6
82
-74
16
-86
-40
-23
-34
3
-105
56
-106
-65
122
-71
-92
40
31
10
-123
-46
-65
-90
66
55
81
54
-52
71
-53
74
43
108
-58
-22
-99
-119
117
-25
97
24
-19
-13
30
-82
84
-60
24
113
-118
9
-104
-118
73
-77
1
25
90
-92
-53
6
-122
93
81
-74
82
38
-6
94
-21
-107
-85
115
-109
-41
55
-23
70
10
119
110
31
-26
-93
94
-10
-125
-84
26
-8
18
37
-122
-126
-81
-81
69
-102
-98
-75
55
-65
-5
-86
126
105
-84
71
-91
106
-15
-34
-40
78
42
-39
119
-6
-23
-90
-21
-102
-95
88
-26
6
8
-75
-67
30
96
69
75
-23
-46
-110
-66
-79
-69
103
13
112
115
-128
38
8
-55
-46
-54
-28
-95
14
71
80
-14
107
83
28
91
44
-108
-72
124
90
-8
-65
-126
-53
-47
-27
-121
-47
109
-123
73
-70
100
13
-30
-62
-64
76
9
-21
-17
107
13
-54
-97
73
-35
61
-5
121
125
90
-77
-70
104
77
42
96
-25
70
-52
97
4
-2
-81
-115
45
73
-92
-86
-127
38
122
33
54
-2
-19
-34
-90
-128
-120
-59
-43
-128
112
-35
83
71
114
84
109
-48
62
-54
46
-36
26
107
-93
-122
53
-5
-121
86
-44
106
85
28
-55
-26
68
94
9
-100
94
-11
109
-112
1
89
-127
126
35
5
-12
48
-57
-88
-73
-80
32
19
-75
-81
-3
-25
-91
125
-123
101
-3
114
-26
-1
69
-128
-92
-52
-125
-124
-85
102
69
-49
74
-80
-4
87
47
-34
117
-73
52
99
-108
63
50
-96
8
-106
-102
73
-67
-1
30
-17
-59
43
4
111
-103
64
66
-52
110
42
96
103
105
-44
-31
60
-72
-67
105
-28
121
60
-82
46
-75
4
28
41
-121
113
-6
-21
-125
-21
0
113
74
122
63
75
46
38
-28
82
-16
-116
-56
47
36
-9
53
-42
-55
126
63
85
61
96
38
13
-114
-99
-112
62
41
106
6
-92
82
-108
80
107
83
-47
59
118
50
-3
38
81
21
-65
-92
25
-92
-66
-36
-6
-121
-3
-83
49
39
111
-25
-118
-13
-86
92
-118
-116
-112
92
85
-65
-33
-26
62
28
-102
-5
-115
77
66
-111
30
-53
-84
-92
117
-60
-64
-102
-105
-86
80
-104
-100
-36
-61
74
21
-102
118
22
-111
116
123
-13
-75
120
-123
21
52
-16
117
-20
95
52
41
-113
-1
24
-37
67
9
101
-49
-115
59
34
95
44
114
14
-17
-57
-96
20
-45
-17
-9
109
-32
-40
46
-116
38
33
-15
-14
-56
-123
-96
68
5
-8
39
-81
-10
6
65
-8
-106
-56
101
-18
-57
42
68
17
101
10
-36
100
38
-42
26
-84
8
106
65
-122
-98
-19
70
-82
-95
-36
-104
-51
14
-119
71
-78
-115
-32
-1
112
-82
118
44
43
-14
-79
-13
42
-80
-5
-122
-115
-100
104
-48
-103
27
75
95
-23
-15
124
100
-72
-95
-32
-88
-86
82
-59
125
23
2
92
-35
86
106
-36
115
10
79
34
-109
-78
65
-57
-5
82
-10
118
66
48
40
-30
50
109
3
35
111
-103
-60
-31
110
-58
92
123
-15
-39
-101
-98
-58
93
3
-113
50
110
124
-86
76
-116
118
80
-66
-70
15
118
-41
114
7
-115
29
-108
114
-126
-42
112
45
-101
-45
-101
125
-127
-11
122
68
-88
32
-41
52
73
-27
15
-95
87
115
-124
110
-20
-76
71
98
-59
92
77
97
-116
-41
5
39
46
39
-26
-28
1
106
-65
115
101
-7
-79
-95
-5
109
-110
95
76
-48
-86
26
-124
-69
76
-26
-8
12
42
-86
-74
84
-54
-35
-26
-94
114
119
-28
72
-88
-70
117
-10
-11
119
-84
-18
33
115
-123
-46
71
97
-26
112
94
65
-3
-127
-111
-62
-34
-11
22
-100
121
61
-39
31
-2
51
-91
16
112
-53
79
-67
84
-125
59
-42
93
43
47
125
-93
24
-64
-46
-13
106
114
-23
54
14
59
25
-114
90
-119
-22
55
24
64
81
-33
-1
10
-114
17
-121
-77
-34
-113
-45
-75
22
116
-97
125
98
2
-91
48
-55
-5
-119
27
-105
101
-94
-80
105
85
84
-53
-83
81
-30
80
44
-24
69
-122
80
97
111
-80
-91
91
-20
123
-40
-19
-107
-52
-100
81
-33
79
125
-65
-57
1
44
40
-29
-31
112
8
41
-2
-48
24
-63
78
17
-74
-20
24
-105
-39
-113
67
-100
17
90
-9
-23
-10
-94
-43
-46
-17
-2
-72
96
-33
-28
94
80
75
-86
-56
79
-29
-108
-31
51
108
-39
115
-14
72
-94
74
-63
-13
116
29
86
26
89
96
-17
43
-75
80
-23
18
13
56
-88
122
-80
-58
-95
39
-53
-12
86
71
103
-56
36
-13
-6
91
74
-119
53
124
6
-124
-75
-70
-14
-68
71
3
-66
-109
-46
-91
-28
23
125
38
53
-59
-31
-58
-109
30
-60
126
49
-118
-110
-122
-65
15
75
-103
-116
68
-33
112
-96
-31
-64
-106
-94
87
86
-66
42
-124
-74
-75
-125
-67
94
20
31
-6
-36
33
100
-35
-56
47
72
109
-42
-44
41
117
126
12
-102
85
73
125
76
-78
-87
-78
-127
-49
46
1
101
-127
55
76
58
-122
11
-12
-106
50
-44
62
-42
-50
-85
16
27
-19
61
-9
47
-6
-78
73
-8
-2
4
-12
-36
-70
34
28
97
-40
78
-108
-128
89
118
103
92
-76
92
4
-121
104
76
-95
45
87
96
-35
30
87
-5
-100
-73
-117
-103
25
-93
120
-117
75
-47
-99
-71
66
-48
-28
7
15
48
117
41
76
-96
13
-52
-98
-52
92
28
79
-68
62
108
-28
-29
-9
93
-28
37
31
100
104
-117
11
-90
-2
-19
-53
-17
41
-68
83
20
14
55
117
29
-128
96
-21
-42
58
-63
76
5
102
104
-104
-54
13
0
120
60
-15
-92
-125
53
-51
44
19
0
15
27
46
-21
-65
95
-4
46
-86
57
-107
28
-42
76
-95
96
-5
-4
-36
113
-11
122
69
-71
-114
48
83
40
-60
-106
26
-90
-95
-15
-93
6
70
-124
118
89
65
-77
-44
-96
7
-14
-44
-39
93
-91
-88
78
79
-44
47
-33
57
-106
44
-93
-55
119
72
3
15
89
103
-86
2
-26
74
115
-91
-44
-35
-8
-120
-6
-82
-44
-69
-100
-126
-95
14
-52
90
-86
-128
91
-6
113
-62
114
109
-68
-71
84
-28
-19
121
-124
-73
-113
50
-25
-65
82
23
-93
28
-100
-51
-124
74
-124
32
125
-98
-46
-26
42
24
19
76
-42
85
-20
-112
18
-52
111
-126
-21
-29
38
-118
-125
41
-126
-91
-25
-57
-14
60
-80
-69
89
0
-87
-25
23
-120
-78
41
6
-123
24
16
-14
45
-112
-31
-82
-82
-69
84
120
-69
-9
102
-95
-64
-108
-120
-128
118
69
113
-1
38
-10
82
-34
107
-33
122
32
-56
95
92
-36
64
14
-23
-111
-93
28
-115
-57
65
31
-30
5
114
77
-69
-4
-79
58
125
7
-49
-32
-69
-28
-59
62
-107
111
-100
-121
27
93
-98
-70
-118
122
-70
-1
-19
-120
41
70
77
-41
48
-68
117
-27
63
-47
51
124
35
112
-10
-96
27
19
67
-23
-94
68
91
-121
-117
56
-101
33
15
13
-81
87
-102
36
-24
107
105
56
83
25
-83
-32
60
7
-127
-128
-59
42
106
-72
99
102
-50
-71
-52
123
-71
-93
-37
41
-32
64
-108
58
58
63
-34
102
-57
-90
23
3
-94
-62
-50
-50
-94
92
-30
-85
79
-106
110
-98
-43
64
5
94
21
92
-57
-64
6
44
-124
-101
52
8
-49
43
79
7
125
-29
-58
9
96
-88
-42
22
94
-14
47
73
40
126
-56
69
53
-30
61
-35
-121
-105
-7
-13
-25
67
-51
67
-12
-100
60
58
-121
-92
71
-125
-112
87
91
-9
-82
66
19
49
108
82
59
-123
-83
112
-17
-117
106
50
-60
-56
37
119
100
-99
-49
-84
-71
101
3
32
32
-26
-54
105
-98
-93
-76
45
-32
-70
3
39
-67
-66
108
97
41
-112
-1
-88
1
112
109
-114
-64
-110
-46
105
70
-118
-106
41
100
-32
-120
-13
113
66
-77
-40
-82
-117
-30
-115
-12
-108
74
17
11
46
-33
36
-127
-25
43
31
95
-93
-64
-66
-61
40
13
25
18
-74
-86
42
-65
111
33
19
100
-115
55
-16
33
-70
43
28
-123
-78
5
114
-15
-82
-79
13
-39
75
-113
69
-121
85
73
-105
116
-42
13
-103
95
-13
-16
-64
114
61
2
-59
-4
20
52
-80
51
-9
36
29
115
64
87
-56
21
-78
-79
43
107
39
15
77
33
-88
68
7
-97
-51
-74
68
36
-124
-13
-5
-69
-87
-36
-13
4
-4
44
-128
18
103
20
-119
-33
34
73
-54
82
-93
-123
-106
36
-41
-105
-88
-89
120
68
20
-76
-24
-90
-73
67
-93
-59
94
-75
-99
25
-42
106
-69
-21
84
112
58
87
53
123
56
74
47
11
45
-109
9
-68
-71
-23
18
90
-96
117
18
-126
18
43
94
93
102
-81
33
-5
18
-49
-18
25
-3
-14
83
94
69
98
125
21
38
60
-26
-4
-25
21
3
-67
-62
-87
83
8
-116
-127
75
-29
-26
118
98
-49
-68
-115
-65
122
-25
28
39
116
93
-119
36
-109
-43
103
-65
-78
19
74
17
-76
-71
1
110
-64
4
125
102
-9
42
-49
-124
-97
70
75
-26
50
123
-48
-93
94
72
-29
-88
-7
106
110
87
-65
-82
-55
-125
-103
78
-81
120
-115
-90
94
29
-42
-18
-3
-37
-9
-67
-22
-15
98
-1
-125
43
30
-97
100
-100
-15
-106
-104
-58
39
67
-60
86
84
-124
-13
103
114
64
-69
-48
18
-46
38
121
-11
108
-63
37
-9
0
109
-112
37
-109
115
-29
-104
120
47
61
-93
-61
19
48
-4
-51
-13
2
39
75
-81
120
-113
68
108
-99
39
43
-82
53
71
125
-64
-61
116
-51
-25
-85
-80
33
117
70
43
-18
-106
73
-66
-32
28
-37
-56
-12
-125
-17
38
64
-104
-11
54
5
73
-84
-8
-125
57
86
35
45
-116
124
-50
-31
78
111
6
121
-123
-36
68
-124
-19
116
79
60
99
97
-61
-87
-21
49
-70
-5
-85
-29
17
-92
109
-118
-60
-17
49
18
-94
-14
-53
105
-28
65
86
-124
29
8
-114
-49
83
67
-23
60
-28
-74
91
-23
93
111
74
0
-91
-86
6
6
-112
-104
-52
-50
-97
-29
42
-24
-58
25
-28
-110
123
63
41
-54
-103
117
-59
106
-123
24
18
-96
-117
10
34
121
83
-92
55
14
2
59
-8
-30
93
58
111
21
56
30
-41
16
-73
49
0
-76
78
46
-90
-43
-119
-26
38
11
-51
9
113
-27
-93
65
21
5
57
-6
21
-90
47
-39
-78
108
123
-92
112
69
-68
28
89
-90
-82
-88
-117
102
-124
-44
113
-125
51
60
30
105
56
-1
38
89
115
60
-112
-43
-49
-11
-7
-122
-41
93
-60
-9
-116
47
126
-122
38
94
71
80
-99
87
-43
-122
-121
-6
105
77
48
-7
110
-118
-98
101
-96
107
-114
54
60
40
-114
-84
79
-6
-114
-74
20
82
-96
-108
-13
-107
-108
9
-63
34
-54
79
88
-64
-32
-42
-128
-68
120
-29
122
106
-3
28
76
103
79
-114
-1
-18
-109
-36
-111
37
61
11
6
-125
98
-49
-119
72
13
-74
81
-114
44
5
86
-103
-54
125
20
-19
-41
56
69
93
-83
-5
113
-101
78
-41
109
-82
24
82
-57
-104
-121
18
95
-97
-20
102
99
120
-97
8
44
6
-98
-14
-118
-12
-23
77
64
17
32
-96
-63
-12
26
24
13
50
43
94
-71
21
-91
-71
106
-66
-65
-55
24
-85
-22
118
-90
-48
117
88
3
54
62
75
55
-46
46
57
112
-37
-83
27
35
-72
-21
-94
65
77
-59
-128
9
122
25
-122
-51
-29
-70
25
65
-83
24
-72
80
8
-53
107
-110
-79
-25
-83
-102
6
-51
70
27
6
72
-42
-40
108
-109
-23
-47
109
126
-87
106
-18
102
29
58
113
-94
-75
-84
-21
-119
32
78
118
61
122
54
30
22
-65
-109
-126
58
55
50
-9
-90
-71
-4
-58
49
113
57
17
-74
-121
71
123
105
95
51
60
-49
-110
-35
-53
-126
19
-19
20
22
39
85
-102
38
-34
-100
24
102
34
52
-59
27
57
9
-68
-79
-72
-98
24
-46
67
98
-84
81
43
-81
-12
-79
66
43
-75
2
125
-97
-8
-54
78
-32
-38
-2
-44
60
92
59
-38
101
-70
125
2
62
64
95
115
-78
15
-61
-103
28
22
73
3
-79
-25
-30
-86
-67
37
-25
-28
49
-113
-12
38
-6
42
34
17
-52
41
-106
35
-58
-95
-73
40
-5
-16
-118
120
86
-46
-45
-39
-40
-37
-122
-92
-112
-87
27
116
85
-29
-71
76
-89
-93
60
2
-26
41
-3
27
-29
105
-46
103
56
-108
-22
-42
49
96
-95
-110
-87
121
-99
-100
45
-91
-69
-73
-69
-77
60
-30
8
-96
90
53
14
9
-23
-113
124
89
-71
89
-108
94
-64
-121
112
16
24
67
67
113
-26
-14
24
87
-13
29
-45
-64
-18
-41
104
121
-111
-35
-45
-92
-49
-94
-28
109
-85
-117
-86
31
-65
33
44
73
-87
67
-124
-122
5
115
-41
-41
-68
125
107
91
72
-14
-30
99
-51
114
110
-16
49
-63
-9
6
36
-39
116
-24
108
-20
-79
31
-56
-71
73
89
-98
85
52
108
-35
16
-95
72
-51
25
64
-55
11
0
-103
112
18
-100
54
-80
-15
-60
-27
66
-20
-111
-38
121
-11
-87
-114
-40
78
79
-14
77
-87
-99
35
-72
98
15
106
83
19
96
-89
-128
112
109
-53
-87
-23
-41
91
-34
31
106
-86
-25
-116
14
-38
102
-99
84
76
-106
62
-77
-48
20
30
49
-32
-52
-17
-122
115
117
-87
-28
76
9
-84
62
-113
-108
-47
44
-8
20
74
27
-31
-128
-48
-1
-92
48
112
-27
2
50
-76
58
-65
-84
-84
61
43
-28
25
67
-121
-70
-105
-127
-1
49
-42
28
-16
43
120
-32
-12
81
61
117
-4
60
-93
-116
73
-53
-11
-36
-54
23
-111
50
86
-122
-125
92
72
29
7
-71
39
-29
-124
-5
-94
93
-46
14
-110
34
82
44
36
11
-95
116
-52
-7
-15
-38
-23
101
88
-119
112
-16
42
-86
57
13
-91
104
44
-6
106
14
92
-16
-38
-70
-74
-18
31
0
-15
7
-61
-8
110
109
120
-25
-45
70
-48
115
45
-65
-80
-10
78
-54
-70
-44
-15
118
64
-107
-54
-66
-33
98
11
18
11
-66
14
62
76
-87
60
-4
-70
-66
48
51
93
-5
92
-6
36
101
-74
81
-79
125
-70
111
52
-28
-17
9
-79
0
49
-102
-111
-77
40
2
26
101
-79
73
-21
9
-119
99
123
-112
-33
98
-65
-99
-17
-30
7
-119
80
31
35
-22
-4
57
35
-88
-62
80
-26
72
46
-121
90
43
-124
-12
47
21
-71
-24
-53
-52
-109
15
-58
96
22
24
-75
98
-64
-58
42
87
98
15
24
110
-55
-85
-73
-110
72
-118
-22
0
2
-124
-23
-12
-45
-105
21
-31
-94
-52
24
-46
-126
122
9
14
-95
-72
118
105
111
9
67
-7
0
112
76
60
16
-63
-26
22
121
-19
72
-120
63
-90
61
65
-14
85
2
72
100
123
-1
-66
-42
-56
-11
125
-93
-15
76
41
-117
-115
-91
49
19
32
92
98
-103
54
-66
-22
-22
-57
43
-115
25
24
32
50
49
-31
-2
-18
24
9
13
50
23
36
-28
-40
-108
-76
-117
83
17
-117
109
-112
-123
-83
52
114
-9
47
-6
53
-47
32
-73
125
33
-107
-121
12
60
-17
-26
66
25
75
87
-46
76
-33
20
-5
-89
-25
-62
-89
94
89
-110
35
94
-23
89
79
-89
-122
-111
-82
-112
3
8
-79
116
76
-39
54
-104
92
60
37
51
48
106
-34
-100
-70
82
45
-70
-68
-43
115
-39
83
6
14
106
-75
-30
16
86
-108
22
-76
72
-37
34
-93
-61
-124
2
105
57
-108
0
45
-111
-48
-31
-60
88
89
-59
-33
-119
-23
126
47
-4
105
89
-83
-121
-112
3
100
-103
-123
74
91
121
20
108
-76
-24
42
43
-99
50
-29
-43
-56
3
-113
-62
26
-27
113
-91
-103
-29
-9
25
-26
90
86
-119
-113
-101
-1
-111
-84
-92
124
98
-48
117
79
76
-67
69
-19
-106
118
-15
16
-29
-13
97
95
-64
-83
5
-94
-26
22
-96
25
-40
28
-25
-42
-76
80
-109
12
0
88
90
86
-16
-97
-127
16
-33
-69
-116
13
31
-50
-46
117
-95
85
0
52
121
-124
95
2
117
-111
-48
38
22
-25
-105
-34
9
-57
125
26
-49
23
-72
108
115
27
94
102
-73
-4
48
38
-69
33
-68
123
120
75
48
27
30
-7
104
84
23
-19
-1
-77
-123
26
48
90
61
104
3
95
10
-8
-2
48
-4
-89
61
6
11
31
85
-17
86
-113
79
13
-115
60
32
-95
-117
47
34
78
-3
6
-57
-28
69
-19
61
-13
-127
-111
99
23
-59
-104
-81
89
-102
28
40
122
-108
96
-94
65
-14
-87
-124
-27
-112
15
-26
-87
4
-96
81
11
-69
-72
88
-71
27
91
4
75
74
21
115
-21
-101
-28
84
96
91
88
9
43
-118
118
-75
-125
104
80
-32
-63
-33
-81
-99
-90
-112
-67
-82
-18
26
16
86
115
-84
59
109
-100
-125
-6
-55
-102
-39
-118
47
-21
107
-113
-125
103
0
-90
37
82
59
-13
-27
68
-90
-102
-123
-101
-91
52
91
-126
124
-53
-62
-6
104
-50
-18
-6
117
10
-97
108
71
-100
-82
47
23
-128
-93
-123
1
-52
16
-13
-93
-106
-55
56
-18
85
107
99
-98
37
34
-24
101
34
114
4
78
81
44
-6
0
-108
115
-5
-121
120
71
103
-22
-4
-69
-65
31
-55
-3
-27
41
110
-70
-57
51
-43
-33
-93
-91
-91
-109
-2
82
14
-9
-88
-83
-94
56
-120
-95
79
-35
122
69
-120
-34
-50
-61
53
76
56
52
110
-104
-85
-33
-90
75
54
-127
33
-113
31
-43
-111
83
-49
112
-40
-33
-18
-42
117
82
-55
46
-10
-90
88
70
121
45
96
49
-127
-51
-54
-100
-119
-49
52
109
32
-15
38
53
83
-98
-48
114
-84
60
-26
88
18
-128
-25
112
-78
110
-54
73
88
-41
-51
98
-55
51
-81
101
-20
-18
115
-39
-49
59
-79
102
44
-66
33
37
-9
-119
-17
91
80
124
-119
3
109
52
-90
-123
111
-93
-116
65
-116
-85
68
92
117
51
-74
66
104
21
49
22
-11
27
122
-3
32
44
45
-119
42
81
-61
20
75
-46
114
-108
80
-106
19
-68
-30
73
-121
-12
-123
-72
-90
-126
-72
-58
93
-29
-44
103
-102
49
118
123
32
34
109
31
-55
2
52
-109
28
53
-88
-97
49
74
18
-122
31
40
-128
72
8
52
-127
101
-60
122
84
25
38
-28
37
-8
41
-126
46
-33
-32
124
82
63
-124
126
23
101
-112
13
-8
94
-82
-7
97
-95
-65
-112
22
73
7
63
5
99
-118
107
-23
24
47
-58
-77
71
-61
109
-33
-61
-66
-29
-112
-118
-114
105
-122
-90
-90
-82
-80
-120
-19
116
118
-16
-32
-49
107
74
25
98
69
-78
76
114
-121
101
-67
40
124
-9
112
-54
96
-108
-126
77
-97
43
45
38
28
-80
101
-64
-27
-30
-112
-93
122
-114
64
-102
-7
38
-50
11
-46
-47
64
107
83
5
61
97
47
-91
-128
31
118
-54
124
82
-21
115
-6
-53
-21
76
66
-99
-21
105
74
-50
17
30
-54
0
-57
-58
115
-11
23
-69
39
100
1
63
-67
-114
2
54
-85
-75
-64
58
-66
-89
-40
73
-49
-65
-90
86
-84
-7
-85
-39
8
-21
-128
11
76
65
-127
-103
72
103
-109
57
68
71
-112
-78
10
-4
17
-81
78
-20
91
38
-90
-41
102
-53
98
-78
42
-117
47
-103
-87
-50
52
56
51
63
61
116
8
-46
8
-50
3
-100
-60
-89
56
-63
-87
-9
-108
-104
38
-6
-94
-34
-33
-19
-5
48
-105
-52
-88
92
37
-61
-71
-48
-106
66
-43
-87
93
-74
76
52
-59
75
-33
79
-82
20
40
-18
48
-54
39
-14
-1
-108
14
45
-49
20
-18
-66
-69
49
87
-88
-109
-125
68
-2
-84
73
-13
-101
-58
-25
32
-96
-118
70
-27
92
62
69
4
119
119
-52
-120
-21
87
-8
-89
65
-98
123
59
86
-126
-118
48
-42
82
-20
-17
-5
-21
37
-42
37
94
-6
-112
101
8
123
2
-123
-22
3
39
12
-114
70
-71
-84
-94
4
-116
62
-104
111
26
68
12
51
118
53
-99
103
-9
-120
41
-39
82
-75
85
-26
74
-34
-110
-78
-78
-58
-121
79
-11
20
10
80
-108
41
114
-10
8
-26
106
-17
7
32
25
29
-125
-106
101
-83
7
77
-2
5
6
9
-60
69
-83
5
-110
-30
-10
-7
-57
-77
-93
115
-72
3
6
87
-127
-90
-61
31
42
92
-81
-15
-106
-69
-114
36
-45
-109
32
62
-68
55
68
-121
-31
38
124
-100
100
-11
10
68
-1
13
-79
-121
25
104
0
2
-127
-128
101
-32
-95
-85
-92
-62
39
-122
-17
-60
-91
59
5
-13
-7
45
-108
-32
-8
117
54
-68
9
-110
23
-45
-27
-108
58
-50
-113
-100
73
-48
108
105
-93
-103
50
90
-82
62
-121
-68
116
59
-3
25
58
95
-113
61
71
-68
-120
-94
-113
76
-13
107
0
26
-84
-99
-100
-13
113
36
27
-26
119
48
-126
-110
-27
124
23
-57
30
-48
83
-6
50
-26
12
-5
52
-51
4
49
-97
113
-22
-37
-100
107
19
51
-122
-11
-65
3
8
7
-103
-11
-94
-114
-20
-67
92
-79
46
-7
2
81
-118
-7
-100
97
-37
33
65
-54
23
-73
-34
-46
-98
-97
5
26
-5
-8
-67
31
-94
-36
-125
111
15
88
-102
6
20
96
-24
29
38
-21
89
57
-33
-5
-113
-83
7
-109
-31
120
-94
-62
-57
116
109
-10
-19
-29
123
34
-1
24
59
-25
66
64
-76
101
114
-40
-79
-24
-106
60
105
-94
26
47
-116
-43
105
-121
-19
30
117
-87
88
-38
35
97
-27
80
54
63
7
8
102
-71
124
85
79
-60
79
-93
-14
-5
-14
-4
15
64
-12
19
-53
-58
103
31
-88
-90
-22
-33
31
-41
2
104
95
-95
30
-67
-124
-102
88
-55
87
-16
88
-27
-96
-4
108
-91
48
68
-22
4
24
89
28
-121
-40
-1
-72
-105
82
-67
-97
53
-92
-37
86
25
-59
38
97
35
-5
109
-14
-2
66
-22
-124
-28
-3
63
44
103
22
0
-125
-46
-21
1
9
124
14
34
-16
11
66
74
-97
-14
6
-24
-70
33
-76
-30
-58
-105
-80
-22
14
-87
6
8
-78
56
-31
-88
-14
-99
-4
-91
-117
67
-84
-105
64
25
8
93
86
80
-38
75
-57
84
66
58
45
-126
-123
-31
63
-27
18
102
72
77
43
-87
65
2
-106
-90
-54
6
36
108
-47
33
-6
-33
-14
-127
0
60
61
67
102
112
45
-25
8
-55
37
-111
-13
71
-18
-100
-87
31
101
8
-36
72
-98
80
-81
-86
-45
51
92
-57
-30
-121
-60
-99
-22
102
116
-57
88
-21
3
-38
27
-102
-106
76
58
-78
69
28
71
-27
112
-28
99
117
-82
47
-45
-47
-28
-63
-13
104
72
4
-77
-23
-50
-127
8
109
37
-68
75
47
-80
107
18
-86
-53
-106
3
-5
-1
67
12
61
90
-50
52
-57
4
-76
119
71
126
-119
-48
98
115
-5
-52
13
-48
-25
105
-49
-12
84
-102
-85
-29
10
126
17
-118
124
9
-20
-113
97
-74
-3
-92
-34
-46
47
-76
-123
-82
-35
-34
-63
103
-14
-120
75
92
73
116
99
-77
-43
95
39
110
-83
-3
-4
111
-63
93
-106
-120
37
72
13
45
100
-93
-71
50
-119
-66
-76
5
-123
99
-6
83
-104
-10
-84
124
31
52
-67
79
119
-127
28
109
-106
-78
28
-19
-86
114
-21
-27
59
-75
-98
80
-12
-60
124
106
49
-121
-14
-87
39
54
96
-63
38
10
58
24
13
-65
108
19
88
66
25
-84
-18
32
84
-11
-21
-46
45
-109
107
92
-67
-78
-83
-80
-53
10
9
96
10
38
123
-115
5
-69
-35
-102
-10
8
-78
26
42
-33
-114
33
1
81
-128
63
-40
47
62
-108
-99
116
70
-38
112
79
42
47
-57
-24
-20
-50
19
91
-32
-44
-105
-12
63
-38
-6
120
-101
108
55
75
31
38
105
34
56
95
-58
-118
-86
73
27
-83
-94
-113
-74
11
-96
46
-60
118
103
-34
-82
-80
-40
-113
-2
81
14
71
-28
-92
-74
-46
-116
45
-60
50
-9
-100
94
-55
-36
69
98
5
-70
73
125
-65
-67
-81
-13
94
-70
18
-26
-36
28
-94
-15
20
-3
-92
79
0
-106
119
-94
-16
56
-85
-98
-101
47
101
24
-96
27
-116
-70
-32
-24
40
-53
124
80
-3
-95
96
79
-19
6
62
-38
-116
63
-41
14
-29
-17
81
11
-124
63
-85
-68
-128
36
120
-91
49
-25
-28
38
53
49
-91
60
-89
41
-37
-125
-87
39
-33
-102
-60
-123
-29
51
-15
-66
-105
-79
-23
-68
-5
15
-53
-77
46
-119
-57
48
45
35
-104
62
36
104
-111
31
18
-112
-124
-68
106
94
0
-69
67
-24
104
11
15
114
124
-114
11
-5
28
-71
3
-89
-90
-34
-2
-21
46
23
-23
-91
72
-16
105
76
67
-21
-15
-59
-59
29
-87
-74
107
-101
-52
-93
-61
68
-28
119
-122
-53
-122
-77
43
12
-59
-76
76
-91
-6
60
92
1
14
24
89
-94
67
-72
-96
59
-122
90
31
24
-46
52
32
-119
-79
-120
-66
23
55
-52
-62
39
18
-114
-84
-125
6
-9
-46
-64
-2
-23
-87
120
55
62
41
-70
-2
107
3
11
28
-6
80
97
-56
-42
-90
4
91
-116
69
-71
83
-71
21
68
35
-36
-112
51
7
28
-1
51
119
113
-114
-95
5
13
17
70
-33
12
-106
110
34
-90
85
-114
-111
28
27
87
65
-109
124
-101
40
-106
73
52
-68
-68
98
-58
-20
-52
-75
-37
33
91
-62
126
-24
-35
-84
101
-119
110
-122
-103
-111
24
62
-103
-53
-110
-3
-93
-78
-86
73
-20
25
87
-63
69
106
114
-71
2
-126
-68
-123
-11
-76
0
34
-28
75
4
7
-85
111
89
83
62
-84
115
-83
-117
67
-128
-2
-121
-46
-110
-91
-83
93
42
-104
-60
63
35
49
26
-97
-81
-23
-3
-50
-98
103
-22
-86
71
99
68
111
-118
85
100
110
-77
63
16
6
19
121
62
86
59
84
76
-53
38
-92
90
-11
112
-66
-42
-103
-72
-74
-13
20
93
17
24
-37
80
57
68
-5
-23
-68
-1
-29
-64
-50
-93
-54
-121
60
50
123
114
-68
-115
115
-88
75
6
-43
6
10
80
21
24
115
117
23
96
-7
116
112
-66
54
-69
112
-34
-6
-39
-51
76
113
107
-72
96
-49
112
121
-121
-40
-24
40
-44
-87
96
113
91
33
-80
14
122
-128
-39
-68
-96
47
-107
7
81
27
9
-66
22
-103
-117
-117
-47
111
61
-26
-50
-62
65
-35
29
-97
63
102
-10
81
72
34
62
-66
-26
92
93
-52
-40
96
68
-100
-30
42
39
-46
27
-23
-12
75
109
20
55
-5
-66
-67
11
-97
114
107
15
122
51
-102
-93
-53
94
38
-29
-50
102
102
-19
38
98
-22
-81
-4
-122
3
65
117
84
-36
-50
32
55
99
-114
64
25
-15
-12
-126
-48
98
104
-123
-56
-3
49
22
91
-116
28
-7
-23
-65
-111
103
-93
48
-80
-20
10
12
17
-16
-70
-120
-94
-78
-122
-6
-31
34
48
-112
112
-68
22
6
-12
124
-88
81
-115
51
1
104
-122
34
-110
-80
-72
-48
35
-103
-65
85
46
-41
-65
106
-35
-35
-69
113
-91
13
-5
-101
65
123
69
-104
-71
-83
58
-8
108
-115
56
21
60
16
29
-68
-10
117
125
-117
-80
-36
-57
0
-115
118
48
63
55
57
72
88
108
-4
3
-54
-81
69
5
4
-13
-55
62
24
75
122
82
100
-121
58
-40
91
16
63
126
120
60
100
5
-32
-29
44
-91
41
-120
92
48
27
-41
-59
-14
104
42
24
71
108
65
-76
44
-55
-25
-31
93
77
-3
126
14
-9
119
-87
90
40
-90
55
-21
-27
-51
39
67
-41
111
109
29
-35
1
-128
-19
81
-88
97
67
116
-93
85
-22
106
47
21
-79
64
7
64
-89
-89
-40
47
126
-99
-35
-49
91
95
-63
-118
-57
118
92
-109
45
5
14
4
63
103
53
17
11
113
80
123
116
-25
-91
-62
-42
54
32
-49
-62
45
-9
112
-33
-65
120
49
-43
65
116
72
16
-123
-7
-24
-116
-115
-85
-73
99
45
-128
-116
-71
-15
56
-94
-116
116
-25
-35
49
-55
-32
-89
32
-14
-111
103
-113
53
81
-67
2
-5
74
12
29
64
-93
119
29
126
118
89
125
114
-116
37
0
53
44
82
-37
80
-57
40
82
-52
-107
6
-114
-100
114
31
-7
-18
-42
73
25
-104
34
110
75
-59
105
-53
39
30
-45
-76
-128
52
84
59
-39
35
-121
116
107
55
87
-61
73
61
-5
-76
-92
-8
-14
45
43
33
22
6
-76
0
-110
61
68
-117
29
-11
-98
126
3
-100
-89
-69
65
-124
104
-33
-110
16
-99
-14
116
108
48
49
-20
-18
-58
-24
-43
124
-106
4
62
78
66
-55
113
104
-116
115
-63
-68
79
110
26
13
-123
-121
43
104
13
50
43
-98
60
15
-72
106
3
-86
19
-27
56
-22
110
62
-60
20
-113
86
-22
-114
-80
88
56
-95
-115
17
42
121
-69
-59
-42
50
31
-15
40
-125
15
71
-88
-14
71
-115
6
31
5
11
-3
-27
-57
-39
-101
-30
93
-77
-11
3
-70
-108
-86
-88
-47
-103
-14
-32
50
56
-12
-107
67
89
83
6
-52
26
-23
29
122
28
-83
22
39
-126
11
97
14
24
-41
6
108
60
-92
-76
-125
-84
68
24
80
34
65
55
-126
4
110
81
2
87
-54
-109
-58
-44
80
2
-15
-110
12
-48
86
-51
-125
-15
-36
110
-106
44
49
65
-93
41
-105
18
-124
-23
33
-113
75
-28
14
-67
-102
-45
-7
22
-36
-63
-124
-33
-33
112
-3
-64
-65
9
-9
11
-89
83
-121
-120
5
12
-22
-19
1
-102
-21
-63
19
9
-77
52
-25
78
48
-39
18
-16
-98
-58
99
-2
-119
126
69
-91
-18
-47
-107
-53
32
110
-111
57
-55
-15
-127
-31
-111
-60
33
77
-98
40
35
-63
-69
-60
13
-21
-18
12
117
81
-119
107
76
109
-69
-75
-37
29
82
-90
-79
38
93
-63
96
-87
-42
-112
108
-39
90
-115
-71
-28
-12
-61
-17
-118
-106
-126
113
-121
22
102
-85
-118
-96
-125
26
-125
-121
41
-22
-98
-91
-51
-92
59
47
-9
6
70
60
-3
112
-50
124
26
49
-76
29
118
-120
111
22
98
0
32
-74
89
118
-22
3
116
-29
-48
-71
-65
105
-91
-7
90
-22
79
-49
84
-90
38
-126
-80
-70
-123
-53
-15
-27
7
-46
40
115
-33
34
79
108
-120
85
3
-62
-51
-74
61
85
-43
60
-60
-106
32
-91
84
3
79
40
-54
-86
-126
104
-123
10
-1
99
89
41
123
123
108
-18
-47
77
-122
22
93
104
115
61
-105
81
30
-40
85
-37
11
10
-4
22
3
-34
-28
41
-77
-120
126
-18
16
-124
-87
-115
-28
-36
-103
-79
59
3
-124
-114
-82
-63
86
-43
13
70
-6
113
-13
111
-81
62
-61
11
26
-85
-48
-8
-17
115
-94
126
-71
13
97
79
110
120
67
62
-27
3
-85
33
-88
-103
6
93
-73
69
-2
-119
-76
71
123
-113
-117
50
28
47
4
53
-107
-30
-56
-59
-44
-40
108
36
15
108
51
-32
102
18
-96
42
-47
-70
-89
-78
-56
-29
-57
49
-63
-111
-96
-80
79
-56
-48
109
51
-126
110
20
3
34
-98
-124
119
46
92
5
43
89
-60
72
-6
-97
-27
-65
36
99
-18
117
-34
86
74
73
-86
60
-53
-58
80
12
-108
84
111
-96
73
32
-31
33
118
-5
-114
113
-25
58
62
-108
-126
97
122
-34
72
88
112
-79
-102
-48
77
8
-45
-123
-52
-53
-25
29
-108
-51
102
-71
50
85
36
-36
-68
86
83
-75
81
-73
24
109
100
105
-103
-13
89
-44
27
-66
-71
106
-56
-13
-112
-86
-81
83
-37
-6
-98
108
-81
97
47
-23
51
-103
34
4
-30
-25
76
50
108
110
4
79
-42
-9
-96
22
76
-85
-18
73
61
24
93
-110
27
-10
-70
-110
26
-17
119
32
-127
-35
33
1
54
-12
15
68
34
-62
5
43
34
21
-86
16
-36
68
90
-13
34
103
-38
37
-76
54
-45
72
75
-78
-2
-77
30
64
-89
66
85
90
-121
-43
117
-15
-15
-58
71
-96
-38
107
115
-81
-103
-68
-93
-87
-29
-18
101
-96
-53
-1
-77
-111
-62
-41
-86
-93
72
-57
-119
33
109
-46
-18
111
-30
-48
-51
82
66
-46
-108
-36
-79
-24
-96
62
-58
-115
-59
-16
95
-71
67
-101
-123
-100
-25
10
-1
80
99
-29
16
-127
-47
94
52
20
-47
-30
-88
-44
71
-41
16
-101
90
-86
49
-83
-11
6
92
-3
-9
106
-113
69
-96
34
72
-101
63
-116
21
78
-91
-108
59
15
-8
87
-125
26
49
48
36
-32
-73
-102
-96
-80
-70
-10
-47
77
-105
4
-59
64
114
-74
-117
7
-72
-21
-115
75
-2
-36
22
-75
-100
92
-4
-120
111
-65
-105
27
-115
25
99
84
48
117
-113
51
22
-5
-122
-26
37
-81
-37
88
80
-115
75
-3
-33
-106
91
43
33
122
69
44
-62
-86
89
86
26
76
-15
-74
35
50
114
80
116
-124
-29
51
67
46
-69
79
-24
-102
112
-54
76
99
-27
106
31
-9
13
73
124
-67
3
98
-29
70
-21
74
65
-43
86
-64
-101
-91
-28
2
106
126
-15
113
-9
12
104
-55
19
-109
87
-120
91
124
35
-23
-31
-73
-117
-67
-34
37
-127
-70
14
22
105
106
-95
83
-30
-119
121
-38
-49
124
86
46
-73
-38
-38
-83
-120
-104
76
68
-31
-29
-109
21
-52
-33
4
-81
33
-62
31
38
-83
-106
-94
-9
-83
-89
-38
-56
-59
-93
4
54
-41
-13
-15
10
-63
-103
115
-53
-11
-15
-40
-81
47
80
-22
114
125
108
-124
45
103
121
24
-113
123
-20
82
28
-117
-120
-34
116
-109
48
35
69
25
20
-64
114
-104
52
-25
-21
111
72
-51
-60
-125
12
-58
-50
36
-50
19
-59
38
-1
74
-60
86
-127
49
3
47
7
120
102
-51
-64
-117
-37
80
-41
-29
-94
-30
-6
21
84
52
51
36
-80
-99
122
-19
82
124
109
-10
0
-97
-77
-62
-24
-81
74
-116
-8
-52
8
-105
-125
-52
77
-52
-74
-122
73
-98
60
101
121
84
69
-49
-2
-94
41
51
100
93
-19
21
-85
42
87
70
60
-70
-91
90
57
65
-58
24
104
-15
67
111
114
-95
83
-42
60
26
23
78
38
116
104
5
-69
114
49
84
-16
85
70
-114
81
12
-4
76
-56
71
61
-65
61
42
-23
4
72
-19
-94
49
-11
-44
113
87
-98
64
-102
-16
-35
-1
102
-49
-109
110
-48
-28
18
-26
34
76
-63
23
9
-59
-23
77
-57
108
115
-71
35
85
-91
27
-89
-40
108
6
-94
104
-114
14
-38
94
-83
-120
51
-63
117
9
-69
55
-50
-85
-24
-1
-44
-75
111
-59
91
123
95
-125
-37
-122
-58
100
-107
20
60
11
112
8
-84
-105
-94
-98
92
-78
92
0
30
84
65
36
-124
-117
48
35
-71
-52
-13
74
37
-118
-73
94
-54
8
72
-87
60
-9
51
-50
-71
-20
-87
24
70
51
63
-70
-47
-13
70
-113
29
-69
122
106
-80
-71
-19
45
37
2
9
89
-115
49
-9
-42
-72
-27
40
-21
122
118
-49
-91
84
94
38
-51
-55
-50
51
-30
72
-115
-78
99
-85
2
39
-56
-104
58
5
-117
-37
-70
-47
126
-125
116
3
48
-103
-69
-98
52
118
-87
-116
82
-111
15
-126
66
-60
93
-86
-69
-118
90
107
-73
19
23
-67
-123
14
-23
19
-3
-65
-89
94
-112
-18
7
-48
-79
68
-74
-85
75
-84
91
37
-53
26
-9
-66
117
-12
-73
-7
-33
-18
-109
-74
82
18
-14
-89
37
-57
40
-126
100
-64
110
19
-94
49
116
12
80
1
115
-30
-56
63
108
-79
64
-56
-5
-35
56
-46
121
121
4
15
-5
95
-1
-87
92
-73
121
-42
48
-13
110
-36
72
-86
26
-45
33
91
50
105
-10
-72
11
-30
-112
72
-46
2
-94
102
42
96
-72
20
-6
112
-107
-26
85
74
26
-123
-61
66
-119
-84
43
114
-68
77
-73
96
0
57
-120
84
-94
68
-15
-96
120
56
-45
109
-102
-65
124
-29
-1
-64
-125
26
-119
-56
47
-105
-7
41
67
120
16
2
-5
-65
63
-5
-63
-70
-86
-87
52
-128
35
-94
38
112
-97
-97
64
-109
31
49
31
-124
72
74
-118
-12
12
-43
4
115
102
-78
-17
-79
-116
100
31
-87
113
-121
-67
91
-8
-101
-73
31
113
119
-80
42
-90
90
-22
-74
-95
71
-4
-15
72
53
-36
35
-21
62
43
-38
62
-69
38
93
116
63
18
-125
89
110
-83
-75
-18
-90
88
122
-30
69
-99
65
29
-60
-39
-57
-69
-121
-50
-61
43
-56
-109
-35
74
60
96
85
26
-124
-9
-103
-16
-118
8
65
43
-41
106
-33
108
-16
-31
-6
-128
-128
-125
-111
-12
-124
47
62
79
-24
-123
19
-76
-121
-50
120
-91
-99
-64
74
-29
52
-53
96
5
-47
-44
-4
-65
91
8
76
-22
96
-46
68
107
11
65
-91
110
-67
-21
74
-28
-122
57
45
35
40
-52
-13
110
58
110
23
-110
17
-47
-102
25
-23
-20
123
47
78
76
13
2
81
-46
56
-108
-124
116
77
97
-75
-31
-61
12
-126
-74
-39
-46
-105
102
-100
-50
56
78
32
-33
-104
6
-63
-106
-17
-52
-101
-21
36
-117
-29
-46
20
-45
5
-19
-127
-25
-3
102
119
-22
17
85
-92
-66
-61
117
-11
-62
14
-66
-25
-45
97
68
-125
-70
22
-58
112
-81
104
-71
113
-113
32
-89
-127
18
53
-49
44
62
1
113
-9
-28
5
36
93
87
89
49
-28
-45
75
22
-98
-75
77
-14
-78
46
69
-55
22
99
60
-111
46
-50
93
-40
-71
-23
113
-72
-6
-119
46
-106
-54
-95
117
-67
5
91
-113
51
-63
28
107
-106
82
-34
115
-5
11
67
63
-62
-13
49
48
-27
-45
33
28
-47
-71
-15
-14
-110
34
12
99
62
36
-118
109
113
118
32
-29
81
-74
-36
10
-3
12
-89
7
-58
-91
-86
7
-55
81
50
77
-8
-37
108
52
13
-9
57
110
72
-94
100
-22
-41
-22
72
11
40
10
-75
-50
97
-62
86
-54
-42
-81
68
-127
-114
72
6
-30
82
100
72
12
82
81
-101
-128
-104
-34
-118
15
-117
-40
37
4
-97
66
-101
-7
-21
96
-100
-74
-97
-18
-16
-6
-79
87
65
93
74
-87
-126
-14
-82
-100
-73
79
106
-95
90
-29
8
-83
26
48
17
17
72
-52
61
-7
57
-58
-24
-96
-77
-35
-98
125
83
-101
70
115
88
-29
-34
57
10
-13
31
-9
-54
24
-106
34
9
-33
-101
35
81
77
27
-112
77
3
-76
-110
-102
51
52
50
86
96
-109
98
-4
-9
12
-55
-30
96
-21
-115
-111
-11
-24
-23
-96
58
-25
-104
37
-27
67
107
12
85
-67
-31
-18
27
-17
36
-22
-76
-104
86
54
70
-27
64
95
-50
92
69
-78
124
86
-118
-85
-54
115
93
-79
62
123
-46
-6
-37
66
-58
126
-74
19
-21
-42
-46
-71
43
110
-88
-45
7
12
13
-114
122
86
16
-19
-42
67
4
9
-68
82
-85
126
-10
82
-26
105
-26
9
58
-80
-127
-112
-7
27
-125
83
92
-61
-14
94
125
-50
41
51
53
-87
-1
42
-35
-19
84
-119
-28
-64
-16
41
59
-59
19
4
36
7
21
-106
110
117
-66
76
-84
19
10
34
29
-73
-88
66
-118
-14
-48
44
-85
45
-15
43
99
-34
-102
77
26
66
19
-44
-119
8
-93
28
122
98
39
113
26
2
58
-123
115
-35
45
-108
21
55
-87
42
29
5
-76
-89
42
-117
111
99
-28
1
-122
-127
41
-3
-111
27
120
47
20
80
-35
91
83
43
-107
59
-19
-99
125
86
14
108
60
14
19
22
-72
100
15
-3
-21
59
29
-112
-27
-89
74
61
124
-51
-12
-128
-126
-50
16
-82
-71
-122
-126
41
-107
-82
39
-118
-29
125
86
64
-55
117
59
36
46
-110
73
-121
26
42
13
57
-122
42
44
7
104
-46
-11
64
-60
43
-51
-30
-9
-122
80
68
69
64
56
-56
14
77
-19
-66
56
-122
-78
76
-66
4
-49
-126
-104
-9
-106
-39
-103
48
1
-16
104
102
-87
124
84
105
-73
-106
-112
58
-68
-75
26
21
60
118
-27
-32
46
44
19
-44
36
-125
92
-105
-20
73
14
14
-88
17
-4
49
-125
83
-70
66
-34
-106
-66
-120
18
110
103
94
104
-4
-15
126
-20
-107
-88
-86
-6
-4
-19
64
18
-11
-125
58
-107
75
4
-76
-56
116
-6
-109
-116
-31
-76
28
104
-106
-64
26
35
3
53
126
38
-44
67
-49
-91
96
-115
-69
36
27
89
75
-8
-110
-35
-46
0
-27
55
-53
103
90
22
19
-36
-1
-86
105
46
105
-30
-3
79
25
57
46
17
81
-91
-40
-67
76
-36
-101
48
-123
-12
94
-127
96
-14
2
72
-94
14
27
-106
-43
-1
78
-49
26
91
36
101
-33
3
118
27
92
92
-16
-123
-78
-34
-40
78
101
125
-54
78
2
-19
25
-116
-41
105
-84
-118
-17
119
112
11
121
-42
13
50
-74
3
-101
-69
-95
102
62
103
-29
-20
-112
126
59
59
75
24
97
-44
-60
-97
76
7
104
-76
-88
-114
85
59
-79
-106
-112
75
-45
-47
-54
12
98
-118
-90
8
55
53
0
8
35
-89
-76
12
122
-120
119
119
-6
18
112
-29
56
75
-76
-5
-79
70
87
-47
23
-73
-31
-40
50
-18
-84
49
-25
-71
-86
-37
-62
69
59
39
64
111
-82
121
-98
-62
-126
-34
91
56
-6
-121
58
108
67
-107
66
125
-62
74
-83
19
-44
75
-96
-35
111
-80
84
122
4
-15
-7
-119
126
54
-60
-74
48
-67
-45
-71
99
-37
1
20
46
37
-61
101
-38
116
-37
92
38
-3
-76
-59
-11
-58
-112
78
-75
67
-82
-37
-106
-90
79
-38
-18
-19
-125
68
-121
53
68
-105
25
-65
93
105
-2
122
123
121
121
-111
102
103
-88
5
-72
87
-6
51
53
-121
-113
101
36
-67
-10
68
-7
-110
-119
73
-44
106
-34
-56
116
-113
-54
-26
-22
-4
-107
-96
-4
-56
-14
97
-1
86
-74
-37
78
59
-100
53
-36
-10
-5
95
-48
-2
10
24
31
-4
-31
52
-120
47
-43
-61
115
115
-88
91
-42
-54
-77
-99
4
-76
-109
-24
-2
-50
118
11
69
-116
126
-104
-27
60
58
86
97
-72
-7
-56
-6
4
-54
-104
-36
56
89
59
-95
53
-84
-66
-111
27
-94
123
71
-68
-119
65
65
-53
59
31
-105
-76
-71
-38
-89
-65
-91
119
-12
-80
-59
-85
125
-79
-63
67
-69
-39
-5
27
101
13
100
-10
98
108
-108
-17
-10
-128
62
-46
-75
73
30
57
78
-84
31
11
8
43
-5
87
-39
-43
-59
42
-96
75
-16
18
-93
-89
27
-109
125
124
54
-22
-110
-57
39
87
66
-102
-79
-82
24
-82
113
112
109
-84
-67
-69
-1
-82
-71
42
-53
-110
103
-77
46
-112
0
71
55
-97
-48
-88
-79
-60
99
-96
89
74
-9
-11
91
-88
12
-97
33
52
99
84
-95
-20
43
4
96
-29
15
-39
-87
-7
125
-34
105
-37
59
106
35
-29
17
-127
28
77
115
-30
117
52
21
-46
-33
-25
-54
39
-73
-72
18
-122
82
116
20
-43
-58
-89
29
5
4
-114
117
-43
56
-75
34
86
-28
-113
-77
-71
-71
-26
71
-107
4
49
46
-82
37
7
71
107
83
-48
38
47
-32
-88
24
-75
-35
-112
40
22
124
-54
6
5
38
64
53
-35
-3
-23
-22
-114
121
-127
-41
-44
69
43
-73
-122
13
-96
-98
-101
126
68
43
54
68
-76
123
-71
-94
2
-78
122
3
-16
-76
23
-70
-116
58
120
-90
57
-72
117
9
-37
1
36
-11
-69
-124
-82
-94
-126
9
-22
-46
-27
38
-83
-97
41
-115
-9
27
47
-115
119
76
111
-42
55
18
75
114
53
-102
-33
-29
72
58
-107
48
-70
64
6
63
-97
18
-66
34
-11
38
-13
15
50
-119
20
110
26
-81
4
48
28
99
96
98
-88
86
-94
30
-59
-11
-111
-71
12
-39
50
17
-74
87
96
68
116
14
3
5
-35
46
1
29
-38
-111
44
-74
113
15
-116
-66
99
-12
-68
28
-115
-49
2
-85
-128
44
-45
-69
-19
-120
-126
-10
-102
-77
-13
-48
-44
14
88
-23
-115
-106
48
31
106
-117
-49
-21
-124
-40
92
-63
59
-84
110
-70
13
-47
114
-105
49
57
-71
-86
122
71
0
101
-1
-73
-126
27
-116
11
115
5
-82
51
-38
-56
73
94
-121
-9
-128
23
-47
-93
-7
8
13
-102
124
4
-109
81
-6
-112
111
54
19
-98
18
89
-104
-25
29
53
54
-110
-87
29
-80
-77
-38
109
69
16
114
-52
-93
38
-77
89
14
-68
26
67
93
113
-69
24
117
-92
-14
114
90
-106
-34
71
105
-115
-99
-81
2
-38
-45
-1
12
86
-32
-37
77
61
-25
39
41
-36
-64
-83
-5
-39
-8
65
-37
-81
43
-76
68
-95
67
-23
124
2
-39
-4
-43
-102
51
89
36
-26
-124
2
-65
-88
35
91
98
110
-102
80
-66
-75
-73
-101
-100
-121
-65
-95
-74
113
54
70
-104
-96
-106
-59
93
12
-93
-36
-42
-125
101
-126
33
-33
23
57
104
99
-5
121
-22
-109
55
121
-12
40
86
11
63
-59
-107
-9
-55
101
106
-102
-57
-21
-19
45
44
15
-61
-19
124
-59
-122
-41
-32
67
-27
-7
-60
14
124
22
-111
98
-31
70
33
11
-98
-35
112
125
116
42
96
34
109
-26
-80
-8
40
24
-41
54
-15
60
41
-122
101
79
117
63
41
43
-45
-9
126
-57
-55
49
28
88
32
-44
-96
45
31
5
85
-39
-126
-10
-63
13
53
63
-57
85
84
-128
45
59
32
6
18
-119
-81
29
9
-46
-2
28
59
-58
17
-123
25
-94
23
58
-49
-5
-127
-85
56
-24
29
-62
23
-117
8
2
97
113
74
65
-13
94
29
-90
98
-31
-32
-113
-23
-3
-65
-93
81
26
-31
29
76
-104
-63
13
117
37
-83
-20
-44
79
70
117
31
56
-101
-108
41
-64
124
73
53
78
-81
15
49
86
25
10
-53
45
36
-77
-77
-83
-83
16
-117
-41
-82
-9
-78
-96
23
-40
-57
70
106
7
-14
-5
35
-109
92
-58
13
-20
47
97
67
9
-9
-80
68
-108
-61
-59
-65
-58
57
-10
97
85
93
-49
-40
79
-19
-93
59
-75
120
98
-6
-123
42
83
77
87
53
93
8
-43
-71
105
107
107
68
-22
-121
15
-55
43
-103
118
-25
16
95
40
23
-80
11
12
83
16
-119
-114
72
46
47
15
-22
-89
53
10
-79
10
-47
27
-91
-76
-22
83
-35
97
109
95
-44
-124
74
-50
-91
-22
-124
-85
-106
44
-6
-77
2
-70
98
27
-67
123
35
-26
-23
-55
16
106
-88
69
30
-108
-125
30
41
116
72
-29
-71
44
-118
-110
-74
-102
-105
-122
94
59
-42
-23
-105
15
102
-106
-31
106
-71
75
87
67
10
66
126
83
-91
33
73
-11
-5
-109
31
-37
-105
12
-37
9
98
-32
33
-107
13
97
14
54
5
-60
-27
58
89
-25
125
-56
6
-70
-45
12
82
80
-63
-110
35
57
-55
-117
-49
-30
-104
21
35
-71
28
82
-118
31
32
6
-64
111
-123
-5
36
-43
-117
41
21
-101
-82
83
6
-9
104
62
-25
77
43
19
5
-124
-101
-109
93
120
122
-88
66
28
33
-53
70
-74
-82
13
-24
-119
-66
97
-45
122
-31
-17
45
-58
45
-35
-47
-107
101
-84
-124
-23
-95
77
9
-70
101
70
-62
-40
63
-45
116
-44
116
-74
-115
25
-18
-57
-41
-41
-120
124
-79
-96
-7
-8
-56
74
-117
9
-34
-88
-42
100
-55
-50
44
-50
-46
107
-22
43
-109
-40
99
87
-78
36
-68
-68
93
45
-108
73
24
-65
-53
75
37
-13
-78
-124
47
101
-9
20
90
45
-9
-47
-4
44
-90
-51
126
98
3
126
-67
-64
89
24
60
92
91
-19
-21
-30
-97
103
-116
97
57
-122
-46
-64
-121
-106
-81
1
9
-27
60
54
-108
-86
-2
-5
124
-54
-114
-105
61
12
-87
34
9
88
-10
-59
-103
7
85
43
110
110
5
94
-40
-26
-70
0
-58
-82
-58
106
-79
-7
121
54
47
-91
25
83
55
0
115
71
-39
124
-27
-127
49
-59
-128
69
70
117
-7
-126
-63
92
-65
64
108
-76
28
-1
-61
-67
-79
-14
-85
-116
-13
96
-128
-36
-118
104
-9
-121
-59
-22
0
94
15
117
-13
41
-6
25
11
0
112
-26
-76
63
30
22
-88
-23
6
-4
-25
-60
48
-127
-12
-99
-10
33
-17
38
115
-115
82
81
-128
8
-61
-77
-54
96
-54
-70
51
-110
115
91
101
99
-38
9
-122
56
-84
-64
-1
68
-33
42
91
88
-61
67
-43
-62
-45
-56
-1
-123
49
70
5
-36
38
-87
45
86
-78
103
-23
100
85
68
-81
94
-16
-38
-16
-97
65
-71
19
-123
-85
-17
-102
1
-101
50
-108
-84
89
-55
76
-43
85
1
-49
-48
-121
13
95
7
-114
73
-98
111
11
-22
59
93
45
-2
21
-119
99
71
98
-19
-3
-71
35
-65
112
-104
109
79
80
11
-61
81
70
-78
-29
-77
10
-21
61
-16
72
-95
18
-86
-100
24
93
-49
37
-121
40
-32
-43
111
41
-50
-35
-100
-112
84
17
18
81
-6
69
54
59
-7
94
-119
-123
20
113
43
-58
-52
61
-51
95
-20
-56
-59
60
-40
-4
-94
-48
39
36
-119
15
61
-68
4
51
16
73
22
-47
-77
-60
48
-70
-57
1
54
44
86
25
6
-125
-59
82
-56
116
-82
-102
58
-127
-15
-92
35
41
103
32
-13
-98
-123
103
-21
-16
-82
-10
49
34
80
-11
-49
-89
-123
-50
-103
-23
-93
-68
84
5
-102
11
74
-37
-112
-26
62
10
123
-84
109
12
37
-72
101
-58
7
-101
109
-68
-117
-10
-25
-61
-73
100
-57
-54
-116
-121
-93
-31
101
-3
64
122
62
-90
-79
66
46
109
117
82
-124
-11
-120
8
69
-10
75
-17
101
-41
-27
114
-102
-85
42
-82
-39
-61
-21
-77
-102
107
-19
-44
-87
74
-21
1
-67
-106
-73
15
-67
-127
-42
-22
-109
-59
-25
79
90
41
-77
111
18
3
-67
-77
89
51
92
84
-64
80
75
33
-12
123
-62
-120
-127
19
-65
70
-95
-88
-32
-40
23
-64
103
-47
-80
-82
-30
-37
69
73
-1
-80
-78
-44
-112
-98
-98
1
-91
101
101
97
57
-120
-112
56
-18
-128
60
57
1
-64
-23
73
22
119
70
-52
8
-80
-118
-25
-110
34
22
-65
8
-49
119
14
28
57
-111
-67
86
14
120
-19
-68
113
-58
-24
-93
17
9
9
17
78
-40
18
-17
-59
-24
110
2
-25
66
18
-114
107
-106
71
-119
-11
124
-23
-126
-62
-128
-64
-112
-12
59
13
6
114
83
53
-25
69
-102
9
29
62
-11
25
31
-57
112
-21
107
-18
117
-10
97
70
56
-121
56
-28
106
-67
-28
2
3
-20
56
41
-125
-92
-70
122
30
80
-51
116
-28
84
-102
-22
19
-110
77
47
24
-68
98
-99
-86
39
43
114
-11
-75
-82
-37
124
12
-42
-32
-126
-78
101
-96
-71
-16
-120
59
-31
10
-93
-127
-100
111
106
93
104
51
-21
-76
107
-17
4
30
-2
99
57
-74
-114
78
-45
88
-40
-13
-127
-54
-36
18
-19
-14
83
70
65
73
-61
-102
-6
-111
33
80
51
75
67
-91
51
100
-64
101
-56
126
126
-100
110
-44
43
-44
124
-124
110
53
25
8
-114
-77
-104
-99
-19
48
102
125
-79
95
-82
113
65
-61
-49
117
31
39
104
55
-85
89
-102
116
-78
27
52
118
21
-89
-51
-29
48
-101
-17
47
89
55
-48
14
26
62
-78
-109
44
35
90
22
-58
-82
86
-90
17
6
85
-45
-4
-123
-73
60
-46
26
-106
-28
124
121
-127
-38
-92
-3
-57
14
72
34
16
-19
-78
-122
-35
-93
108
45
42
0
75
-128
89
-49
-76
-125
103
-86
124
-84
-100
4
-27
-95
58
-8
-28
-41
-16
-121
-115
80
16
-92
60
109
101
84
117
-56
-94
15
98
22
-123
-59
74
60
37
-51
76
21
102
-72
-36
-113
-113
-1
-74
-63
105
66
-20
6
107
-101
-76
74
11
-69
122
35
-100
16
18
30
-109
35
55
-18
-95
99
103
90
96
-98
23
21
74
-64
7
-87
-80
29
-126
53
42
-87
-63
-1
105
55
-42
18
-123
14
38
0
51
122
-117
-87
-6
-109
120
-87
-27
50
58
35
20
-67
122
-101
-118
-110
40
-51
88
76
-84
44
-25
79
52
42
16
93
-122
-13
118
43
-92
97
-104
-58
38
-54
87
95
-61
91
55
0
-28
-12
56
-35
49
86
-123
125
112
-107
-79
86
-100
81
4
81
110
90
37
-73
-113
81
-33
-123
-37
-118
104
-50
-20
-96
-63
-112
36
-56
83
24
-62
90
8
115
45
103
96
107
44
73
-123
-39
15
-24
56
71
-9
-81
-26
64
-126
26
12
57
-96
39
7
65
-6
-70
53
-8
73
18
-60
-114
-77
-63
69
-83
-71
-93
27
75
89
91
94
47
13
23
-97
75
59
-89
-127
-42
41
34
-100
78
118
-121
-115
26
-42
113
-109
114
21
16
79
-48
84
26
-117
89
101
-49
-21
-64
-81
20
121
78
117
-71
-121
120
-121
16
32
-18
-23
-5
-100
25
121
57
54
-93
-112
93
108
-123
105
103
-16
104
-13
12
-66
-93
46
-18
-107
48
48
-57
115
73
-56
-80
-54
21
-82
21
-111
-68
84
125
76
4
52
-19
1
68
69
-87
55
126
51
75
118
-60
-116
38
-39
125
108
33
-66
98
60
-65
-2
89
103
11
19
1
89
60
94
37
-41
95
62
126
-110
65
-43
-60
25
65
-3
-5
84
126
-16
-20
28
85
100
103
78
52
-34
9
3
-102
1
-19
-28
42
25
80
1
78
3
-32
23
-116
4
54
-56
-115
-62
0
56
55
92
-85
67
78
-43
38
9
-82
14
-80
-15
-18
-103
25
85
14
48
-108
-20
0
-68
74
-64
23
47
-2
81
-20
53
-113
95
-108
-75
36
-115
-66
86
81
-26
-73
99
111
-48
-20
98
7
101
-33
109
-1
99
111
58
95
-27
-128
-84
-28
-28
-56
-12
38
-95
-104
107
119
-115
77
-108
7
-44
-91
100
-52
-92
-13
105
-117
100
7
-111
98
-116
96
102
8
26
69
20
47
45
-35
26
-83
-84
-64
-108
-28
28
-73
18
-66
71
110
-12
-29
-32
-88
97
115
-88
104
-100
125
-96
-67
31
114
115
-113
5
-61
-126
-108
54
13
119
-8
38
112
-102
-94
-47
58
7
2
27
-122
-38
-102
-10
65
-18
-105
-39
-28
68
-39
43
17
-85
-102
-55
-22
-52
-33
45
-120
-53
-3
57
100
-1
-16
42
31
61
-53
56
1
19
-73
93
-59
60
14
-15
51
-118
-43
-73
70
-40
9
-45
-49
-55
-86
24
-87
-92
-119
-115
-44
-50
-45
-30
102
74
-74
-58
42
83
-47
-90
-12
-12
12
-111
-15
106
-113
75
-121
15
101
-115
-71
75
-48
-58
89
-76
68
63
89
-55
41
11
50
105
-10
-21
89
-121
-11
43
-47
-17
-26
87
61
10
-112
-96
-38
70
-81
-79
67
-69
-12
-91
75
-10
-113
-127
-63
104
29
-97
-98
47
24
121
72
-44
82
-3
-41
-71
-97
104
-64
-43
-49
100
-54
13
-59
6
68
84
-11
-78
-43
-44
-94
-56
65
20
-90
68
41
59
96
-53
50
-86
-110
-70
125
58
-99
77
-53
-113
-73
-43
0
12
-41
-20
-122
-108
-93
85
125
98
28
31
28
59
-17
5
54
-4
-60
66
70
17
-45
-14
62
119
-90
44
124
46
-95
121
-102
36
57
-39
72
-80
76
58
-95
-23
61
5
-36
1
32
59
-97
-48
27
90
-86
-126
69
33
-118
41
-91
126
-35
-22
-84
-80
115
99
-106
81
-14
82
56
-77
-16
-26
54
63
81
101
-96
-73
114
-46
54
-84
81
42
-102
13
-5
55
-118
72
-92
82
102
-28
-24
-43
96
40
-25
88
-23
23
116
47
-87
73
36
10
-83
-74
-41
45
110
76
-106
42
-40
8
-115
115
66
76
-96
37
-121
-82
-73
28
84
-8
56
-110
-16
-105
-65
126
4
-84
-56
95
-94
105
-47
86
79
-119
87
92
122
-25
17
38
72
-97
106
123
-103
79
-83
87
-92
-33
94
-24
115
-78
-82
60
-55
-92
-4
-39
-13
-47
-12
-102
-25
-118
-27
-55
87
-67
81
61
-25
108
55
22
-37
-2
121
-51
0
30
90
21
75
78
-104
120
55
-54
20
58
-86
79
-72
89
-41
-10
1
58
113
45
-48
-122
94
29
-62
16
-38
70
-81
95
122
28
-77
17
-61
-32
104
-53
-40
-102
-119
9
74
112
-10
-2
10
30
-119
-39
113
-111
94
112
-80
-38
-36
29
46
55
123
90
31
96
-47
54
-63
76
-49
-83
-41
36
2
-79
103
-29
52
-63
108
-77
17
-51
39
63
-50
-121
-126
92
-123
116
5
-28
26
121
36
15
-121
-35
9
-24
-111
117
1
47
-58
-113
-68
-112
78
95
51
36
-103
-50
-106
-3
37
-65
-75
-17
-22
-63
55
38
-71
-101
37
54
-69
17
83
-27
-77
41
-6
2
24
-67
-67
-1
-64
-107
-86
-126
-104
-36
-100
71
105
-115
24
92
99
53
-45
-54
55
-119
12
-87
-52
-44
-49
58
13
51
-41
46
-65
46
-58
60
-14
-99
76
-10
51
52
-100
0
-36
-84
-13
75
-5
48
-43
-112
67
21
-36
-118
-121
26
101
2
28
26
-89
83
107
-11
56
65
-73
38
75
-4
-57
31
-119
-46
-65
120
-112
-113
74
36
77
-114
-95
-87
76
78
58
15
-113
-45
-77
91
-18
-38
-61
-120
-86
60
-22
-45
-99
43
-17
-43
-17
1
61
53
13
58
-44
125
2
7
-22
-67
-43
9
-71
120
-52
-90
-84
119
-46
65
1
-37
-114
-7
-33
84
86
-30
113
-68
31
23
100
-122
-78
125
29
93
8
102
-65
-3
-51
96
83
93
-81
124
-77
43
45
-2
86
87
-57
99
12
113
64
88
-72
-128
-110
-110
-121
31
-11
-115
51
118
-65
-61
73
-90
-7
74
-6
0
53
-16
124
-98
-83
-113
93
-43
58
-15
-112
-22
74
-44
-67
15
-38
23
-99
15
93
99
-119
-96
73
25
-109
65
-64
37
7
7
-44
122
-95
116
-103
-78
-65
18
-3
-51
-49
125
-43
96
87
85
99
-11
59
86
-109
-36
18
85
113
-108
75
82
-119
9
-8
60
-81
-117
13
-81
69
-82
-17
-67
91
108
-1
-10
-122
-7
-19
101
-6
-77
41
50
94
-126
-127
46
41
-32
-33
-84
-58
20
89
113
-50
-101
-39
-120
-31
110
60
98
27
-102
83
28
101
73
96
-47
-58
-70
79
-118
-34
-36
19
1
-39
41
84
52
-128
-91
-60
22
12
-48
-37
-38
88
10
-108
20
121
91
-42
5
32
-95
-1
-40
77
-57
-6
66
-13
90
68
114
-37
7
-2
-118
-76
74
101
54
104
-53
19
-72
-9
-72
-6
62
58
85
-105
71
110
-54
111
24
-45
-128
-101
-10
27
102
-34
-45
17
86
122
119
-57
-104
-121
112
-59
89
45
-96
-27
-18
-108
83
-50
0
123
-53
123
-41
-61
29
60
-74
-24
2
-78
1
-59
-43
-127
104
76
-8
16
-126
-99
60
-70
-36
-32
-32
73
114
-82
52
-106
38
58
18
-126
-61
-86
-93
-64
-97
84
61
-33
-17
-28
69
-77
3
24
-74
85
-54
47
48
-69
-1
-100
-115
-55
-29
-9
55
-54
-32
67
57
-42
81
28
90
91
-82
47
-49
17
42
1
-74
-41
20
40
16
-85
-119
-24
-103
-50
-79
-20
-60
41
98
91
21
98
26
40
-78
-83
24
114
-70
-109
52
-3
-46
36
34
-91
29
-46
117
-48
0
19
15
74
26
-48
-73
-21
77
-7
29
-21
-107
-14
-64
-27
50
72
91
-74
71
77
78
-88
119
-63
103
-39
112
-30
-87
-41
28
59
39
17
-120
87
-96
-66
-66
-126
-26
-40
-112
25
-7
-126
114
19
-119
-34
70
-110
-66
42
-121
-16
-85
67
61
-42
121
9
70
36
86
-15
-128
-26
50
62
29
-86
28
99
51
121
97
45
60
101
-25
99
-22
65
116
78
-113
-76
-25
8
69
-107
80
21
38
-94
-39
59
82
57
92
-127
-49
31
-38
50
-114
-103
-69
-18
79
115
-20
-90
10
-89
-26
9
-97
9
115
89
51
-67
74
42
63
103
-86
-71
60
124
-57
40
19
-6
66
-62
-13
-38
-118
-88
-64
-71
38
113
88
-82
115
43
10
73
7
11
110
76
32
70
-77
-24
89
-110
15
5
88
-63
117
-1
-96
28
112
91
35
-45
33
20
19
-11
52
30
72
-111
61
-111
104
60
-57
-8
111
-49
12
-102
-46
-123
7
41
-48
107
-26
-75
-127
-52
46
20
-55
35
15
-38
65
-24
-31
-75
-26
-98
-57
-26
-101
-69
-108
-35
45
-77
-90
-97
33
78
60
-69
-35
-31
-2
0
48
62
-100
-55
-38
36
-66
-55
119
-107
-6
8
-69
-105
126
-80
20
87
12
-128
4
70
-60
-81
102
-110
116
-15
123
-19
101
71
45
-17
12
36
55
-115
-113
-56
-128
69
93
-89
-7
100
30
75
51
-66
48
-9
17
81
101
-33
39
-82
94
9
-114
-4
-79
-85
-56
88
105
-94
-76
120
-117
95
70
-47
-6
70
-55
-114
-30
-63
-4
63
-95
3
74
3
53
99
4
48
-92
-14
77
50
53
-112
100
121
-70
11
24
-81
-106
-37
-27
-18
-2
57
-71
-122
-78
112
-69
-100
37
37
-80
-31
111
-24
73
-77
-55
17
28
79
-97
101
-107
54
89
-35
22
-122
-119
-113
109
-30
-78
32
-47
20
22
-55
-58
56
-57
-37
-8
-22
29
-118
-100
1
-51
-111
121
103
-34
-105
41
61
7
-100
-47
-49
-65
-67
-107
82
-4
-103
94
-71
76
-93
114
25
124
34
42
67
-2
-36
-117
-37
-21
11
126
-73
-118
-18
-91
81
6
99
16
114
-37
84
68
76
-26
-4
-38
-19
-22
-16
102
122
15
-53
-126
-119
-128
-41
-3
-30
-29
88
13
-83
-37
90
-118
30
-85
35
85
-126
-124
48
-84
-84
-101
62
-124
-49
-47
-46
35
66
-109
126
-120
-127
15
65
125
29
-108
38
24
-95
85
83
67
13
-47
96
-80
-125
-50
-3
79
12
103
37
-118
108
48
-98
49
96
-81
110
2
57
-72
38
51
-27
3
-5
-16
54
21
6
-118
53
89
102
-29
-75
63
14
-128
-2
-83
-101
62
-72
-80
39
-28
-81
-45
-124
-35
42
-95
28
126
50
105
126
40
85
-29
-50
-118
55
62
97
89
53
91
34
105
-111
79
-67
64
-22
-25
-100
104
13
26
-30
59
124
17
48
-60
85
-108
-72
-19
-18
-13
72
122
73
-31
42
123
-29
-115
-58
-82
-35
-52
56
-118
-49
-32
43
-106
-90
113
-82
68
-87
42
-118
7
-89
11
43
-119
-57
37
82
102
17
81
11
108
24
-103
108
-18
65
97
-72
47
75
-80
80
0
121
-12
80
-6
-88
-74
-60
-61
-118
83
85
-78
111
-78
-42
-39
-87
74
-22
-110
95
88
97
105
-75
-31
101
-43
84
-76
-47
18
95
78
32
-64
64
-31
-45
-120
18
-70
111
38
52
-121
-43
85
-106
-29
43
-61
-39
-15
-26
-31
118
21
51
16
-122
-111
12
-82
-98
-59
25
-100
-67
86
84
0
73
-53
-101
-87
41
99
-68
18
-69
-68
54
93
94
-39
61
-127
-90
51
14
82
25
101
14
13
-39
-14
-108
-16
28
16
8
31
-3
52
-124
-53
-118
-70
34
87
-56
-10
70
-17
61
25
66
-111
-6
-104
-128
-46
-47
-30
14
113
-77
96
112
-88
-17
63
38
-41
78
-78
53
-112
112
11
-104
14
-115
-100
-9
-115
-104
-42
3
110
106
-115
45
61
-33
25
50
28
-104
50
56
-24
-75
61
-82
-21
-58
-10
-43
93
57
-43
6
-85
94
-11
-58
32
2
117
-31
83
36
83
120
-43
-127
-20
55
-97
-43
-61
48
-38
101
-77
12
118
-123
81
40
-65
-65
-45
76
-3
-41
-31
-112
-5
106
119
-53
122
-26
94
-77
68
-123
-92
-26
32
2
-64
-39
-34
91
-3
-60
-1
24
22
85
-47
20
13
55
87
-124
109
26
-42
123
100
-36
95
117
-125
-95
-43
108
-6
28
107
59
45
-124
-14
49
34
41
-29
111
-65
-14
13
103
-45
79
111
-88
88
22
-104
-42
109
15
117
-12
2
-76
111
-42
73
-115
-11
46
37
-48
10
93
114
-13
83
-23
116
-54
-105
-6
90
75
28
-27
45
44
-10
87
-77
-49
40
-53
22
-56
119
5
-90
-51
-47
-16
62
-41
-90
-128
6
-100
-68
101
-8
-108
-21
-37
95
-57
51
-13
-11
101
-39
-23
-88
-28
-88
-58
-109
-101
-110
-66
-9
-88
-40
-47
-50
23
-106
-113
66
106
67
-44
57
43
76
68
-1
60
74
9
12
-43
-14
-30
-54
-95
14
-105
-127
-47
-68
-17
31
-112
-118
-96
115
32
42
40
-25
-80
-67
-68
-92
-109
106
-55
50
75
73
82
65
-72
-13
-101
-18
124
80
-55
-46
-100
-40
-31
-47
-86
-33
77
80
35
69
-82
0
-27
-105
70
-81
81
-67
39
54
31
81
48
-108
4
38
-33
-56
30
94
-94
55
-6
5
-116
46
71
-54
-118
40
11
7
-31
125
-65
-87
-21
35
-9
26
54
79
-59
-44
-100
101
-100
71
-22
-34
-13
-64
65
55
87
-40
43
-86
-5
52
-64
61
101
-46
-4
-12
-14
-6
99
-59
-81
-52
26
-47
-34
109
-79
-20
-67
75
60
44
103
12
-100
59
-35
88
94
45
2
45
89
20
79
-65
114
85
-45
-75
-44
64
-125
44
-19
96
6
-128
75
-113
116
-90
104
61
-54
-85
-23
-90
-51
-99
103
3
-66
88
-67
57
-73
-33
90
-18
-13
67
-99
75
-84
-30
11
59
-2
-46
119
99
6
11
-96
-93
-83
-104
-96
-34
-107
70
-49
64
-52
64
-115
-9
-66
-103
-45
-117
-69
-85
82
45
65
-9
-89
41
-17
85
-117
17
-37
122
-121
82
-100
-55
119
-108
-117
-70
33
111
13
52
-24
-64
-25
-53
5
-116
-108
-27
122
-101
-31
-71
-100
-111
-120
-97
68
-96
-11
-62
-57
31
83
1
72
-52
17
-16
14
92
6
-42
46
5
121
37
119
35
-23
11
73
-88
61
-77
89
-19
43
-125
57
33
-112
59
-105
-91
108
-63
99
-60
124
51
-121
57
104
34
-30
-18
-19
-84
-95
-72
-48
111
80
88
1
-31
-100
99
-47
10
-98
29
-27
-26
65
-7
-61
-4
26
28
2
-16
119
-112
-13
33
-72
-51
-43
91
62
6
-12
-72
-48
-51
-2
26
3
-24
-43
11
68
-109
104
92
-83
28
29
-90
-44
25
19
50
90
-106
-101
85
13
74
-30
-49
-37
81
52
-42
107
38
119
92
-117
-12
-58
-49
-127
53
-41
73
76
-48
14
74
-63
37
-91
73
69
-37
23
46
108
-43
-87
75
-128
20
12
-68
-78
-48
78
43
71
-83
99
-107
71
13
69
99
-72
-79
16
20
111
-106
-9
30
-94
-4
-29
-74
13
12
75
33
-35
43
112
17
39
-84
20
78
-101
53
-120
88
120
-34
66
-101
79
-47
-103
21
-61
54
-93
76
41
93
-29
2
46
79
-74
-42
-27
79
121
10
-61
125
112
36
-117
31
92
-62
-82
-100
-75
38
-94
-76
-126
-59
-31
113
-64
-50
37
49
-18
-50
3
101
96
-120
19
-10
-19
-89
64
26
-59
-119
53
-66
110
120
126
-104
54
-46
63
-107
2
93
43
-92
-3
-75
-76
-94
-42
-35
-7
32
126
-65
-62
-109
18
-120
-60
-86
31
93
-117
-82
29
82
-95
90
-45
20
-2
-5
81
64
69
-101
68
50
92
32
-113
-45
-91
-53
106
79
35
-83
-71
-37
13
82
-30
-6
-94
7
-121
81
112
-124
-17
-28
-69
93
-2
117
93
-102
21
12
-62
34
10
75
-17
126
126
-108
-1
42
-72
-65
-16
75
42
56
98
67
-86
-94
-49
-81
88
102
105
22
121
88
-18
109
-81
94
-25
99
100
-59
8
-36
109
122
-46
1
-28
-126
122
-17
-117
-103
45
88
3
40
-75
25
-39
-84
96
81
66
93
89
104
-81
-115
103
35
-113
-63
14
-80
95
-120
9
107
25
-85
-120
-78
26
32
-78
97
57
-109
-107
-93
86
-97
57
60
-65
91
99
-83
-56
-47
36
86
94
34
6
24
-67
-41
-43
80
108
-125
115
60
108
96
18
-11
71
80
105
-8
-116
-47
63
68
-125
40
-56
25
-85
-31
-95
-117
121
-20
-62
-45
-58
98
88
-31
-69
-57
19
26
116
60
18
-61
-101
59
-86
-82
29
4
24
87
39
-73