-25
1
-24
-43
-33
92
-55
-105
6
-124
-74
-81
-5
42
-109
-42
-87
-21
-112
-121
-19
-93
61
-36
38
114
92
-86
-32
33
67
108
-81
53
-48
-29
-125
6
-5
-22
57
37
-42
112
57
-72
-4
-49
33
0
-59
-115
123
121
34
-86
6
92
-100
114
99
-71
42
-124
-41
56
-89
-37
-62
-21
72
112
6
-95
-69
80
45
-27
88
-68
108
-115
65
-57
-9
-51
108
22
60
17
-124
40
112
39
-4
6
-92
42
104
82
-33
67
3
-12
-76
121
-33
-52
-65
-41
-54
124
-125
-69
-110
-107
120
111
-81
-88
-84
-59
16
6
49
109
69
81
76
-48
-79
69
-2
-51
113
-74
115
-84
103
-77
-9
29
3
-56
53
116
93
63
1
51
7
-42
16
126
-6
125
-99
-126
-46
123
87
37
-117
-26
-54
126
7
-93
114
-119
-81
18
-18
-124
-31
-50
-60
107
-93
-105
-56
-35
49
-67
-28
63
-43
47
-23
-75
105
-123
68
-42
-99
-114
-43
29
5
-115
24
50
-14
-100
65
-35
4
51
80
31
116
114
116
1
-13
1
34
-15
108
31
72
-128
-55
104
65
40
48
-7
16
-19
62
-122
55
-125
49
-18
-123
81
24
34
-126
15
-20
-42
-7
-88
75
-110
4
71
-18
73
-24
97
122
-80
42
-66
42
-55
61
87
-88
-113
-50
9
-97
-66
-111
122
-74
122
-8
-121
-100
-124
78
-36
37
-5
-32
112
-109
-65
95
66
54
52
102
89
-69
-64
-62
-113
51
-75
84
-75
-73
82
72
95
42
93
-41
-59
-124
19
-109
79
-49
7
42
-1
-122
-27
73
-115
-44
102
110
-88
-58
25
-116
67
82
-72
81
-14
-24
-104
-115
116
100
-48
2
71
-43
34
-85
-93
-121
35
87
-115
124
110
-73
85
58
-103
-54
6
-106
75
99
-22
-40
-65
-109
31
4
-59
45
106
91
85
-58
5
62
105
-128
47
16
46
-44
11
78
-53
-116
21
63
-41
23
12
74
-53
71
-49
95
60
-30
27
24
-53
99
-98
-99
13
-62
24
68
-128
-15
-10
28
-110
21
-77
-126
-77
-108
-94
-47
-107
-29
120
15
57
-106
-80
32
66
65
-34
-4
-127
-114
0
-33
-14
125
-125
126
-75
-64
86
-15
-16
-45
66
-5
26
19
54
26
-77
80
-3
66
39
-71
-79
126
-65
2
-27
-55
30
-15
64
120
106
-15
-57
113
-45
56
7
60
-35
-110
-39
104
-76
-94
64
100
-35
12
-101
-116
-128
-116
-89
5
-69
-48
-30
115
52
116
-89
-32
113
86
93
-63
84
-25
-40
-29
-91
-51
-77
-68
59
-35
47
44
13
36
11
-50
-69
-93
85
77
-85
-45
-119
-68
75
-82
-97
-36
-90
-94
39
73
56
-123
79
10
-43
-96
-96
32
-34
-102
101
68
90
111
15
-112
-99
-60
-13
-7
-127
87
-87
-78
-68
108
77
-70
98
-89
7
79
-56
-80
28
-88
-76
103
20
-18
79
68
35
-10
-39
-125
-11
79
-39
49
126
-91
-5
-15
3
110
35
-55
-99
41
-101
-36
-70
26
-121
-32
-35
-120
65
110
-108
13
116
-89
-49
92
123
-106
-86
-123
107
32
91
48
69
44
-88
-121
55
-14
95
27
-104
49
-47
43
87
-111
-63
-41
-71
65
-103
104
-61
103
-118
-59
-83
-102
-8
42
-64
35
-31
-122
-79
-65
19
-66
116
85
86
21
-93
93
-54
-122
97
75
56
-128
22
-7
82
-29
77
-58
-38
118
46
-46
-46
-104
104
109
16
-125
-27
35
20
-120
105
-100
57
-66
28
-106
80
-127
30
-121
-127
115
79
72
122
38
104
-121
96
30
-79
-93
-14
13
73
-113
-57
-14
58
41
-32
50
61
53
118
104
-8
-105
50
43
-5
81
92
42
108
18
56
-98
-76
-67
-109
24
-115
-124
-12
60
-92
2
45
71
56
-23
-107
15
-8
-5
5
108
21
33
67
-72
-14
74
14
65
60
-113
89
106
45
12
4
-76
16
8
123
-32
-112
88
-86
82
-52
69
28
-126
-33
12
-52
-61
55
95
2
-109
103
-91
-76
-89
-42
-69
103
-111
111
71
-87
75
83
95
-34
-16
103
78
58
94
-127
-16
43
-25
-25
122
102
-123
40
102
-3
109
47
87
-86
-51
-75
66
48
-33
67
-99
-106
21
103
75
83
3
43
29
63
44
29
-28
6
-86
33
64
103
-55
-68
14
-52
19
22
-93
53
-25
-10
-67
26
-27
6
119
17
-31
117
-102
-23
56
-76
29
11
93
125
-45
29
-22
0
126
113
77
-117
-7
122
110
-110
118
80
-3
-80
22
28
62
61
89
123
126
-36
105
-86
-80
-84
-53
-84
-83
-68
-126
89
-84
-39
-55
-88
-99
-66
105
15
28
-117
20
-110
107
91
-22
-48
58
-115
8
-101
-112
-80
123
71
-8
14
67
87
-67
-126
113
36
30
-105
84
44
-16
-19
-82
-97
-94
-24
123
-53
96
-122
-106
89
37
95
81
70
-82
-100
-36
-83
-60
68
125
116
14
-57
-63
22
20
-117
114
-25
-9
0
-124
39
-113
29
-116
-91
119
-115
-33
-126
86
-11
37
-62
-87
118
-33
11
-22
-98
0
-42
90
48
112
97
-114
126
53
54
40
63
-3
14
-80
3
44
32
-90
55
-64
24
88
-100
82
-49
55
57
44
27
98
-55
-24
76
102
15
-80
-49
-44
64
30
41
113
87
90
-112
-109
-34
20
35
2
-65
-67
67
37
-120
-61
-64
-119
-12
38
-78
112
126
7
78
-92
60
42
43
-85
-123
53
35
-111
-73
18
4
-52
20
-88
-70
21
-45
-125
65
21
15
109
-75
-98
-96
24
-53
-126
126
41
0
76
-65
93
-25
110
-71
123
32
109
9
-110
29
20
13
123
-74
-69
-9
27
-108
3
97
108
89
-75
11
-10
-51
34
79
-18
118
-37
-89
-70
102
-98
110
-47
-22
29
83
-110
-71
-124
120
77
3
82
-121
26
50
119
67
-122
116
-90
-120
-65
-126
105
69
51
-95
-21
-49
68
103
-69
-108
28
62
53
21
-73
-22
-49
78
88
-6
-46
121
-81
-105
85
18
95
55
6
53
-110
47
114
-27
-62
97
-25
-55
-113
-24
-10
60
-36
-113
-45
-77
55
-48
-22
73
-99
70
-90
-128
20
34
-96
-59
108
-15
-29
75
-17
85
46
62
22
-29
-79
5
119
36
92
-27
93
-48
38
12
32
-36
5
3
104
-71
93
-22
-127
-68
43
-85
115
-65
-63
-19
-35
86
89
33
61
105
96
1
33
83
-60
-88
-105
-91
-87
-102
1
-75
72
-103
81
-7
-42
-21
54
81
-6
6
30
90
-112
-63
8
-13
-39
-49
-116
-115
79
66
-74
-53
-23
72
-24
-104
94
88
-46
97
124
45
-29
111
-8
56
3
-38
-40
-33
17
105
77
-11
65
114
-62
-123
104
-124
109
-69
-28
-77
106
108
-30
-45
2
-83
-4
86
-110
-120
-27
-87
66
-108
96
-58
2
-104
-21
-50
-15
62
-12
-73
-97
93
-40
-22
108
19
15
24
-27
-73
85
79
-39
9
68
109
-65
69
-37
-49
90
-77
34
100
36
-2
11
84
-115
52
-62
105
99
-119
10
-90
-71
-25
5
-103
-18
-76
-4
38
-28
78
43
-13
117
71
22
-126
-12
48
34
89
-34
123
3
-80
-61
-39
118
-100
-67
45
-45
-8
14
-128
25
-96
-63
41
21
-35
120
93
-84
-53
-106
-14
3
68
-3
-100
63
-48
-74
-38
36
58
3
-14
7
-45
-66
-110
48
-18
85
-51
83
85
62
86
104
94
-15
116
19
68
-84
76
76
-82
86
59
-126
4
87
100
-85
-37
-21
80
21
-44
86
-113
-34
-70
-17
18
-86
27
74
-117
-28
-123
-118
-16
16
-66
73
50
41
-53
-106
-98
-36
-71
-86
28
-77
-15
-126
-58
68
106
60
47
-120
-27
113
99
90
-56
-53
4
126
7
-121
-2
-13
-13
-58
53
-18
-46
22
-119
34
-112
80
-107
16
40
102
126
19
-22
88
123
-20
-34
-66
-21
-84
-112
-10
49
27
42
-56
-65
-81
-49
-40
-49
52
59
120
-50
81
-77
27
40
32
20
-49
22
-96
88
58
44
24
76
-55
-36
113
-15
92
-18
-63
87
-27
-46
-49
-45
38
-67
-106
86
-95
-18
-53
120
2
-9
-40
61
-10
-119
103
-86
12
-30
-124
115
-85
69
-38
-81
-108
-56
-87
-33
-118
-91
37
83
84
-59
-115
34
-96
-18
-76
-37
111
-44
-28
79
-125
-47
54
-6
-96
-40
-36
108
26
-107
-45
-98
73
108
-103
-120
-125
-53
72
108
32
36
-79
85
-121
32
75
-81
-31
15
59
3
41
110
-110
120
-38
68
-108
-44
55
97
-37
29
101
45
-98
49
-90
-100
50
-71
-92
-29
72
-34
106
-46
4
-117
-84
-112
-123
29
-52
68
39
61
-66
47
14
101
-80
-38
-14
-83
-107
9
43
-39
51
43
103
101
-123
8
-52
22
-45
-37
-17
60
-59
91
85
-92
72
37
-78
97
33
108
3
-62
-22
-111
-2
47
118
51
-124
-51
-98
57
-77
-23
-5
-32
-114
-74
-91
-55
30
51
-114
102
-82
61
-51
-15
64
-103
113
18
-63
85
-92
-127
-89
34
-25
-96
86
-43
59
-31
66
4
58
42
-43
60
47
-111
85
-30
62
-47
13
-60
-9
-60
52
53
-3
69
80
120
45
89
-13
-114
46
1
-45
-106
85
-19
-119
-86
-70
-124
-120
-82
75
-26
-29
22
-28
124
91
0
92
94
53
3
102
87
11
-31
-41
91
-67
79
50
-103
-104
-23
-5
63
-82
107
118
-92
3
-107
-47
-18
45
-99
-33
68
42
96
4
-64
90
-25
-108
-70
70
-106
6
33
-121
76
-126
-89
-6
32
70
77
-43
50
97
-78
113
-91
60
-98
117
108
122
-56
-13
84
-3
40
-15
110
-34
-29
111
3
112
35
-15
4
72
-57
-81
79
-50
-63
-58
79
88
49
62
40
124
-69
71
-42
112
-63
-61
-54
26
-60
63
100
-70
-1
60
29
-100
16
37
-2
10
-58
-80
17
-29
62
76
14
4
27
115
-82
106
19
-81
-92
-88
-71
-94
95
62
37
80
-125
116
-58
-64
103
90
121
91
81
2
112
122
56
53
-60
-30
71
-76
-74
-73
16
-118
-66
29
110
-36
-98
115
27
38
82
-96
-9
-79
-111
11
-86
49
13
-38
-96
-102
-96
26
-126
-76
-21
107
22
-48
-80
-85
104
29
-18
115
76
77
79
-48
-123
118
12
-81
-85
8
-56
-8
10
-120
117
-103
-18
-45
-48
-17
-1
111
81
-68
73
-123
109
115
99
22
-119
-93
61
-52
51
-94
89
98
107
-25
56
-23
52
92
79
-57
22
22
-11
-115
-41
-79
-77
112
29
125
-66
87
-15
35
126
48
34
-87
-3
-64
123
64
30
56
117
100
123
-91
104
91
-69
-20
-18
57
33
-97
33
-50
68
-1
117
-25
-21
31
-78
-124
-116
-52
-88
-56
-118
0
-30
75
21
23
86
-94
60
-60
-81
70
25
-86
-87
49
101
-125
33
-21
99
49
-29
-11
121
12
-62
74
84
-83
-18
-44
84
-58
31
65
48
-11
101
113
69
-50
38
-43
117
6
-96
87
-49
36
-83
86
-113
92
-53
-98
-2
-50
-106
-64
51
-3
-1
64
-94
19
-94
-101
22
-9
-77
-88
36
35
118
-121
76
-41
-72
84
27
34
77
34
113
-90
74
100
91
-75
47
-43
-84
82
11
74
-65
-9
23
-98
-24
77
-122
25
47
-113
-55
-62
-14
29
-36
-84
20
107
-127
-4
116
85
-118
125
44
121
122
115
15
-26
87
-106
13
72
97
-36
-12
-49
-9
-102
41
-59
-9
-91
-5
106
-111
-16
51
38
-83
-28
-122
-113
-62
-35
100
-1
-89
2
-26
69
-41
-1
93
74
-38
106
37
-96
-86
102
-19
-60
-56
126
-81
34
-93
-49
21
86
-59
-15
-37
72
72
-109
-85
-127
-93
113
88
-101
-57
110
42
49
4
-9
80
63
-119
-26
-50
-76
-2
-52
-61
67
41
-119
-94
59
-13
52
30
-58
-43
57
53
32
124
-54
124
35
-19
59
71
114
-85
19
99
69
-7
51
8
47
114
15
28
-49
-45
-57
-117
118
-72
-64
123
-119
91
119
74
-53
-92
-57
-55
36
-111
-23
83
5
-87
-117
-111
-80
-62
-48
87
3
54
12
-115
-116
33
-28
70
47
-41
104
75
21
109
18
60
7
-13
-55
-3
78
-46
-26
-70
120
-15
19
-33
-91
-18
34
-91
102
10
-109
-106
-108
111
76
90
-51
-63
87
91
59
-30
-63
57
-64
-103
-120
43
15
-48
23
65
-117
115
91
33
-8
-51
3
95
-7
107
-91
-12
-85
-18
-68
-28
104
-57
-107
26
-101
92
9
-104
-20
-39
-120
92
-19
-98
76
-82
-4
-124
46
2
-122
-64
-75
113
-109
-7
33
109
56
-125
-52
80
97
110
-88
78
-27
-11
95
95
-72
107
26
-54
32
-36
28
-70
-91
23
115
-87
-94
-109
9
-58
-37
-53
124
122
87
82
-59
24
80
-11
35
69
-125
66
-23
104
-41
-15
-23
44
26
-46
77
-15
-29
-40
-31
-62
49
-108
-57
67
-94
-81
-73
-86
48
-36
108
111
-30
47
-117
89
36
-79
115
114
-6
80
-67
86
-32
-24
-71
-95
21
-22
-34
26
-73
-96
-104
23
-122
4
-59
64
-26
-123
-64
-24
111
-103
-126
-109
103
-8
-13
88
-126
81
-60
-57
-97
-79
108
27
122
116
16
104
-51
-7
-88
-15
25
-19
36
84
30
84
-6
-64
-54
-16
0
117
27
108
36
-28
-3
21
-86
38
-11
-49
-44
-93
42
-16
28
75
-112
-4
35
83
84
114
37
76
-102
62
85
-42
52
125
-127
-15
-96
-58
-91
60
51
108
-70
-74
-80
-115
27
26
36
-124
14
35
-70
-59
-89
23
-80
45
22
50
-10
-16
-40
78
-99
103
105
114
-47
95
108
38
122
121
106
80
77
-71
6
116
-19
24
-95
116
-105
67
-105
65
33
-124
41
-126
6
-35
22
-68
104
-44
-35
86
64
-101
94
18
-35
90
-101
86
66
-45
120
29
92
4
8
-99
-48
75
72
-67
56
87
24
87
18
38
-36
117
-42
-1
98
-68
0
107
-96
126
121
21
60
109
1
-101
126
112
59
101
47
114
-93
-99
-94
104
82
-113
83
-124
4
-101
104
5
124
123
-30
-29
-59
-123
-114
-69
109
-20
-119
51
64
-100
14
114
-10
82
121
67
114
-25
-38
49
0
28
-38
46
-74
10
94
84
-97
-117
-49
-69
-117
-1
-83
-16
-77
-120
124
79
7
80
-120
85
-62
-34
86
-24
-72
99
-40
-88
5
-52
-120
99
-108
109
12
53
-127
-125
28
-106
-67
-84
-94
101
47
-91
-15
64
-27
-118
47
-113
-106
-11
-72
57
-98
101
29
35
-43
-73
-70
102
15
-93
-69
-117
14
73
64
77
-6
-113
47
57
75
-88
-36
-68
4
112
-24
-95
-103
25
-79
-104
112
64
51
70
-24
116
46
-102
-21
-29
-63
-114
-81
-109
-73
112
-115
16
117
81
74
48
-38
-54
75
-127
9
12
-116
35
-38
76
-2
-47
-69
-4
-8
69
-83
99
-36
94
55
76
-52
25
-120
-27
22
52
-50
-56
8
20
-104
106
-75
20
-85
71
-105
-64
76
31
-100
-47
-9
-94
-8
80
-62
21
57
-45
-9
-5
-36
-84
33
-2
105
-93
-112
36
-72
-104
28
27
-6
-79
-4
-2
-86
-85
104
-54
-26
-98
-66
32
-55
73
-44
-111
-41
-64
93
86
-112
-100
105
12
-4
49
79
-108
-84
11
43
-35
47
-83
77
40
-98
30
-15
24
51
-84
-24
61
-125
114
68
-9
92
-30
-1
-65
-52
-104
-31
13
-4
-88
-44
61
77
52
-29
73
-120
-44
-75
42
-52
-25
-109
124
111
71
111
-23
-74
-21
21
-67
-65
-41
-59
4
-122
111
-52
3
-105
16
91
72
73
72
-33
98
27
-101
123
-19
-98
-51
4
-29
-115
90
-123
41
12
-116
-85
64
59
2
101
19
-48
1
-62
119
-39
-108
-19
-27
-52
52
112
-10
-101
-54
-85
-54
-43
-70
10
23
52
-75
-89
-4
-103
41
-41
-14
111
115
42
48
61
-95
-16
38
7
-90
3
113
105
-1
21
67
-50
-8
26
-115
-17
-61
73
94
-54
-18
-13
-103
91
-96
-46
19
37
95
110
-16
-8
120
121
23
2
-125
58
-118
-101
56
121
-67
9
-37
110
8
-73
-45
4
-123
89
-122
23
65
31
109
15
14
-115
-58
-110
43
113
-102
-5
-23
49
100
17
-41
119
-65
95
19
-9
-107
-47
106
-80
124
-1
-3
-42
20
14
52
55
-79
31
20
29
-110
20
68
-22
-102
-126
-5
114
106
-88
-102
22
74
101
121
-89
42
40
-80
60
-88
94
125
49
-27
-101
-49
0
22
-114
-83
65
-71
-102
98
103
-116
34
-99
121
121
26
-91
-28
-92
19
-124
114
-63
29
88
97
71
52
-98
-40
68
-102
-33
42
-29
-87
-65
-72
60
25
108
-90
-1
92
-89
-27
11
-23
-16
90
-64
-73
94
40
112
-20
-31
-22
-125
121
-112
-21
8
123
-6
-74
26
-42
-18
122
-84
47
-128
-95
-119
48
7
118
-105
78
-128
71
-56
-13
-48
-49
-94
76
-125
-4
47
110
-79
-91
-98
100
111
-42
-127
30
-53
115
61
-58
-21
25
3
-69
-15
107
53
39
21
-88
-12
-90
-75
-47
-18
-91
115
53
41
119
125
-86
-61
43
32
-128
98
-2
-83
-90
-97
39
-87
32
-38
81
100
-51
-15
97
4
83
20
-84
57
109
-29
57
-27
-95
-95
87
-58
43
34
13
-111
-15
-105
-36
68
84
92
2
-12
72
-7
72
-74
94
-78
81
-124
53
41
-86
-85
38
92
-46
47
-36
67
26
75
-51
0
56
62
35
120
-45
-84
-55
30
-108
79
-21
16
33
91
-50
84
-124
-24
62
2
91
37
51
65
116
-123
43
-5
50
-53
-30
36
92
83
114
-77
-74
-60
99
126
40
46
116
33
-3
-100
96
-25
-12
38
82
122
34
113
-55
-61
-87
-59
-86
54
88
-72
71
-121
-70
-60
38
20
-1
-5
-29
52
79
-64
-84
80
74
105
-67
-3
-7
125
-40
-52
34
29
42
82
29
-70
-107
3
70
-48
-50
85
77
19
-38
-65
105
26
72
-124
97
-76
62
63
-10
-9
-115
-117
-75
-121
-69
-5
-72
-66
-78
48
-31
-50
38
-63
11
117
99
35
-61
120
93
-70
-30
-12
-85
-71
12
-91
116
-86
-112
-73
2
-52
-126
-99
63
-87
72
-7
39
-13
-74
-64
18
52
-46
-33
-56
74
73
-84
56
4
-8
-117
-8
75
58
80
-101
46
109
-32
-39
10
107
125
31
-91
91
50
-83
-89
-22
-58
-68
-85
-7
124
39
121
95
51
30
-110
-123
-126
-120
82
-78
-43
-118
-99
9
-26
-84
-10
-21
-58
115
58
4
-25
67
-33
43
72
-2
-108
71
81
27
-98
-39
74
-125
-128
2
-18
-104
37
-46
-29
89
35
-94
-109
58
-118
-105
52
110
-94
102
-74
5
-73
102
-53
-83
38
42
82
-117
94
-100
96
-75
112
96
18
-37
-54
-50
5
-18
-97
-72
-14
-70
8
56
-47
-90
-97
20
-89
-47
72
78
-44
88
64
-6
37
126
-87
-75
-55
-45
-3
-7
87
-60
32
24
5
82
0
-21
-67
-36
-42
107
39
-90
-60
53
68
35
-18
114
55
-90
46
-40
1
-82
122
-89
-91
-13
-2
-39
72
57
-115
-122
-70
-37
-75
68
-76
46
7
-124
-89
59
65
-90
-85
-76
-114
-69
118
14
-58
32
85
38
123
32
-4
122
-109
112
-57
-125
60
-33
-65
-30
31
-107
40
116
-9
-104
91
69
49
-26
-126
3
51
6
8
-99
31
85
100
48
-50
-63
76
65
-124
74
-64
-103
-71
-106
-22
29
72
26
110
-69
-20
-17
96
-60
74
-123
19
-98
-87
-52
-46
-39
-118
-61
-94
52
24
-123
36
-2
-67
-17
73
30
61
70
94
-39
-37
-29
-53
-118
35
111
73
-63
-72
90
38
-57
66
-62
-105
-62
49
-11
19
36
108
-87
9
56
42
-54
-127
-80
-84
3
69
2
-120
-72
0
50
-67
-113
-105
88
7
31
-107
65
120
-63
15
114
-80
-43
123
-19
-93
-101
68
-57
-12
66
49
118
70
-21
107
-69
12
-119
116
-87
51
36
11
-121
-43
-84
12
-116
63
-117
65
-50
4
43
80
82
-70
-29
-91
-61
115
114
1
-111
-47
-46
110
43
102
-68
115
15
-13
20
-67
-56
-78
77
-30
-126
70
-45
-21
-109
-17
-73
-56
66
-113
-46
-114
-102
-89
-24
49
65
-57
-29
-20
-53
20
-123
-124
5
-31
-119
72
38
-55
29
-109
35
-61
59
13
4
96
-100
-19
-58
-57
-16
-112
10
-17
111
-3
84
-12
10
-47
126
28
-126
-74
61
-96
124
80
-25
0
84
-3
36
59
-44
-30
-5
-126
33
26
47
-42
5
74
-35
-79
96
63
-60
29
-19
-28
74
-116
0
108
93
-69
-127
-122
60
100
57
-79
-86
122
-25
57
96
31
-120
64
-69
106
-3
45
85
-87
84
-56
-118
-80
102
35
26
113
-94
-5
90
-71
119
40
-124
-121
68
-35
107
-19
-22
-52
-9
-67
-15
56
-73
45
-30
-23
-74
31
48
3
29
9
120
-119
49
-112
47
126
-70
90
-64
-30
-62
65
-128
19
121
16
72
20
9
1
-75
8
-103
-40
-57
78
13
26
-57
-61
-66
-101
28
-87
-3
-61
27
-95
84
-59
80
-80
117
-105
-79
41
-103
41
9
14
84
67
2
13
72
119
120
110
-46
96
93
77
113
17
47
117
-71
-109
74
-8
-72
85
20
-66
43
98
-87
-37
-6
-92
80
76
110
-4
-126
108
-119
-66
-35
-84
-88
-9
-14
52
46
-61
91
19
-45
12
-82
13
-106
117
83
10
7
-55
-100
-9
-54
-11
43
34
12
-30
-73
57
-95
-62
58
-77
-24
123
123
69
-47
-44
-17
40
-12
125
-8
-32
108
-41
-36
-9
-88
67
75
26
36
-58
-43
-7
70
-5
-38
55
-116
-53
-110
71
-101
105
-91
50
53
-72
24
-43
-111
-27
-14
126
-103
-111
-32
36
-62
-2
47
60
47
-64
-8
-123
-117
67
-49
-66
-43
117
-107
29
13
96
79
110
117
14
59
-73
-114
-21
106
72
-67
-66
-19
-88
122
-115
-95
-94
5
-25
-99
66
86
-111
90
100
91
-45
125
-118
16
-11
-29
-22
-113
97
86
-14
-19
-24
8
-41
51
68
14
-48
-42
-23
-83
-22
-63
-125
108
44
67
-96
26
72
28
-70
23
-103
-74
72
-80
93
54
58
-43
74
-23
-3
-36
-80
86
-42
-76
25
-43
-75
-10
-10
-4
111
47
66
111
40
100
-57
-9
71
49
81
81
109
61
-113
-21
125
110
58
-37
-19
11
-82
-59
46
93
-73
-55
68
-71
114
-70
72
-18
46
22
97
-3
-77
37
-23
60
-85
4
58
48
11
107
22
14
45
9
-25
17
40
-106
-58
19
-15
-68
-104
17
10
82
112
22
43
82
37
72
-75
-34
-81
-72
99
-85
-27
-52
-50
115
104
100
-34
126
67
61
97
-5
-71
15
-102
-10
107
-7
-62
11
113
-3
77
82
12
57
86
67
-113
-118
-25
-27
-57
92
-40
-69
2
-16
-105
-51
-71
-74
-25
-58
-1
-94
78
72
-60
101
-56
-86
37
-99
69
43
-7
51
-18
-22
124
-62
112
21
7
18
-17
-49
34
67
13
-53
-38
-75
22
-109
17
-1
3
68
-29
19
-98
-93
60
22
56
123
24
29
-112
-17
-70
-21
26
-26
85
-58
-54
63
32
59
66
105
-67
-24
-42
-62
-89
29
19
-26
-31
-96
-81
-13
-127
-112
-44
9
-18
-77
68
49
18
-27
-119
58
27
-35
-127
48
53
-89
8
-80
-17
-98
-114
-27
-49
74
-93
-127
36
125
72
-45
44
61
28
-112
-22
83
6
33
62
49
93
-77
44
-95
-37
-75
-122
67
23
-37
12
4
-12
-11
-82
-37
-11
-69
-104
-37
-67
-27
-81
31
-14
8
-63
-52
65
-98
117
-28
-70
30
-30
-85
-85
69
24
68
-20
-110
-43
-104
-37
122
74
101
64
-72
-32
118
19
117
109
-119
-121
26
122
-11
-72
12
-57
124
122
-7
-76
-101
-30
28
1
-51
98
27
-104
70
82
-47
113
-12
39
-125
86
115
100
-71
-9
-128
113
83
54
88
72
-15
-28
-126
26
92
70
-29
12
-14
5
-50
2
-61
-27
-34
82
-110
36
16
58
-14
64
57
81
34
93
-82
-123
94
95
10
-101
12
87
74
-123
88
27
-23
-91
-85
-81
-54
-17
-7
-26
-33
53
-65
-40
-116
-18
-63
-49
-90
82
-62
-4
-37
109
-38
100
118
-117
-11
-29
21
60
-4
-25
36
13
116
-61
94
14
61
27
4
88
49
-9
45
-13
30
-68
-1
-1
57
-121
-51
-59
39
47
-34
100
26
57
-71
115
125
-50
-13
-128
99
89
-122
-35
-50
92
31
-104
62
49
-126
45
41
69
-9
-34
36
-28
41
-108
51
-78
-54
-118
-118
-45
-107
21
53
124
24
15
109
75
-82
55
-87
86
-106
-117
113
22
39
-87
-1
-118
34
-40
118
-98
-118
42
42
-85
9
37
32
-75
126
-68
5
47
-93
14
-124
-55
-12
65
-110
66
-54
-96
-51
44
87
-97
0
-101
35
-36
-122
88
6
30
-60
67
76
-91
-23
-98
-82
-80
-42
30
-4
-110
-53
-85
123
-43
48
-120
-53
93
-117
23
103
86
86
3
64
-37
-4
21
6
-74
39
4
-120
65
89
-73
-29
29
-35
-54
-33
4
-29
77
125
5
-19
115
-101
-97
81
-14
86
-76
84
93
35
66
-74
-78
64
-89
-119
-79
81
-101
-36
46
-55
42
-28
62
77
-7
10
69
117
-117
-64
123
27
-21
-3
-55
59
111
-16
-46
-112
96
12
22
36
99
41
-6
77
-100
-89
99
-2
82
-94
111
22
-11
-45
-7
98
92
51
-78
58
-65
-106
-105
122
44
47
67
113
-82
-99
-22
-110
94
105
60
36
-122
-101
-107
-5
20
-89
-29
-50
-45
84
-48
-12
-60
-44
3
-97
-61
-82
-36
-35
28
50
66
36
-42
-13
21
31
-109
60
15
-53
88
50
-35
46
-28
59
-37
3
-74
7
60
-110
1
-59
66
-76
-97
-58
-111
73
-122
19
-58
-110
-18
-91
46
-121
-127
4
126
-102
-16
-86
-50
26
41
36
-74
51
-6
7
93
42
-3
7
19
52
-79
-55
-40
13
-111
21
-21
50
87
81
-71
57
27
-106
-42
86
65
50
-23
122
71
26
55
-9
50
110
-99
33
80
-8
81
90
81
37
-114
54
-14
18
54
59
5
105
92
-2
107
37
-52
25
95
94
116
-19
83
-122
71
-68
101
-98
31
-34
28
-126
-53
-16
-43
-7
72
-90
91
-81
74
-106
-68
58
-95
-128
44
-81
43
41
29
-6
-96
115
121
19
-118
92
-115
92
-122
-88
121
-44
-90
-16
-69
-105
42
91
-111
75
8
-123
36
-20
44
-42
102
-96
55
-78
27
73
7
-54
103
-35
53
-34
89
14
104
-77
-88
111
0
-40
75
14
-46
-99
5
-80
8
78
-8
-88
-11
4
-72
84
35
101
-110
17
64
-120
-108
69
108
-25
-98
-35
-26
-59
-72
-102
-58
-128
-15
-87
-89
-43
124
-98
-22
-120
-81
37
14
-128
90
-75
-99
123
-67
-104
96
112
-8
55
-119
-58
99
107
79
-35
-65
-65
117
9
5
45
-32
83
-126
-5
-25
-96
63
-92
27
71
-53
-86
97
-53
-68
-73
29
-76
87
122
-89
125
-35
-4
-60
-109
-6
4
-76
-54
-46
49
43
-24
51
-15
12
78
0
-125
-51
-2
53
-7
122
2
-27
83
-30
-50
-121
-119
-120
-19
55
-70
-9
118
-113
126
119
25
-53
66
-122
11
101
54
119
-116
103
-34
80
69
36
-60
-6
-41
90
-106
68
114
-47
126
24
42
-63
-60
-85
84
-27
105
-19
-102
111
23
-96
109
-121
-84
-13
-16
-72
73
-66
-48
-47
71
30
-46
27
-108
-40
62
109
-91
-82
-91
83
3
81
-54
-123
106
84
-37
35
0
31
46
73
-15
-60
-55
92
117
-34
-36
-70
-34
24
41
-62
-73
-41
-116
-67
-74
18
105
22
-66
69
126
-10
48
112
-84
19
-120
64
-104
68
-67
-29
-118
-36
18
56
-27
-7
-45
56
-17
-1
110
-56
60
-110
-71
75
119
-86
103
14
58
-119
99
-76
112
105
94
77
86
73
-37
-5
11
46
104
-19
97
-44
1
-79
121
105
-4
-66
26
100
-40
113
-88
61
-13
-3
107
13
78
-118
-32
-95
-29
98
-93
-30
42
9
-111
117
-4
74
-122
-62
-39
-104
105
-71
-17
-17
53
-64
119
-118
-72
52
-20
-116
-5
76
-6
73
-11
39
-91
120
-121
9
-23
-77
103
68
-117
51
86
-21
-90
1
-43
65
110
-121
-72
106
20
70
-42
-30
-15
56
-7
-34
46
87
13
-3
126
-122
-56
-56
37
-47
50
79
-20
-78
-6
116
-61
23
-74
25
-107
76
4
-113
101
-73
3
57
-88
-66
-54
-54
-38
-31
-101
46
-86
4
-104
-26
116
-40
-69
17
-6
-49
-36
-22
-37
50
-95
81
-4
-126
-44
-17
-21
25
71
-127
40
109
106
107
-102
90
43
-2
32
28
85
13
-95
-92
-6
-106
-42
77
28
-54
88
-53
-126
70
102
51
-55
-97
-26
6
-124
-86
-33
49
-26
73
6
-122
-21
-53
81
87
68
-35
8
93
57
114
-119
-41
94
61
-75
81
-64
-4
-97
-125
56
-4
92
-18
102
-91
-19
-104
89
-107
38
-84
62
-40
64
-9
59
-96
-3
49
103
-67
18
-106
-95
-4
-76
-25
-29
76
-11
-39
53
-56
-59
-71
-20
-36
-125
-103
-84
-14
-11
-86
-112
-101
58
48
-66
97
-58
-37
126
48
-107
1
-111
-1
-112
-62
59
-123
75
-16
9
-5
-67
-74
6
112
-4
9
-100
121
30
82
82
111
109
-1
94
125
96
38
-74
113
96
-39
-11
90
69
-6
16
108
82
5
109
-77
75
94
-86
16
92
91
-112
-70
-23
-21
-40
-115
-61
70
1
104
-46
-107
-23
-1
-127
92
89
77
-110
-85
-34
-14
35
-109
27
86
78
69
59
-12
4
104
-94
-74
-75
59
75
94
-76
102
123
-37
67
39
24
-127
-56
-87
71
78
-82
64
97
96
116
124
-68
59
-37
111
-44
-14
-6
84
-119
-100
-106
-82
-60
2
-109
105
65
53
-90
121
-97
72
-116
-73
65
-36
79
-98
76
-94
-31
-106
-127
42
-66
115
3
-45
-11
-11
126
96
-79
-109
-105
-50
60
-106
35
-25
-69
-41
56
54
-127
120
5
70
103
55
-106
-1
-23
124
-12
-52
13
-23
-65
-10
39
-109
48
97
112
70
122
69
-81
0
-57
4
115
10
-71
-27
-26
85
-88
-2
-128
119
-92
-43
86
-40
-53
-10
-38
-62
7
14
-76
-112
59
-5
-18
-126
104
27
28
58
31
95
-19
-34
-76
-106
104
-68
-105
-48
-125
91
-88
-43
-106
-75
-76
-2
68
56
-114
-1
-64
26
-71
10
-121
-6
85
78
26
21
-38
24
53
-121
59
-49
35
60
-89
31
68
58
-79
26
3
118
-73
-81
38
110
40
16
103
-70
-80
-115
8
31
31
-47
12
86
32
45
-55
-26
10
-49
-48
-46
19
73
-46
-93
-123
29
-23
-83
-75
-92
-54
94
-46
-36
29
48
-81
-86
-28
-10
-65
86
125
4
-3
-127
-95
-125
-90
99
-127
116
-25
38
14
-84
66
-28
45
-90
-65
-4
-105
108
-106
91
53
-27
-91
-31
25
67
-112
36
126
-32
119
52
-65
-107
75
101
38
46
-12
-120
93
66
-45
-33
-44
44
-80
47
105
125
-47
3
67
19
-59
-43
-2
-62
-54
118
-49
-44
-85
-61
122
74
12
27
-91
36
125
115
123
-83
98
92
96
-125
71
-124
48
-82
24
-121
-75
-91
97
110
40
-95
-37
-3
4
125
-26
-20
-30
-36
67
-83
28
-123
112
-76
50
-104
9
49
41
101
94
71
109
-51
101
39
-121
-3
65
98
3
14
-49
111
113
114
-3
-59
35
-119
-115
-25
-6
-26
-127
92
111
71
59
-118
-21
-1
-45
-121
-68
-33
43
-72
-82
-79
-1
-9
28
-29
-73
18
-71
-63
12
-128
-115
72
-122
-122
42
67
86
23
-49
58
13
82
-53
-69
-32
-47
2
-107
-96
116
-110
-39
-37
-93
-85
48
-98
20
103
-5
77
-7
-128
-70
-101
-43
-77
27
61
8
44
64
126
-58
46
101
-111
77
-103
-78
34
-13
-125
69
-62
97
-60
-115
95
-86
-21
-128
-34
-116
-31
-32
44
92
0
-92
-11
-41
110
-1
114
-118
113
-52
22
5
-58
112
14
-116
74
-125
-100
39
92
-82
-17
-112
122
-124
121
46
123
118
-57
92
63
-85
61
39
-15
44
-96
85
75
102
-25
13
-45
6
68
-89
-112
13
39
-102
-69
63
43
29
0
100
41
124
-19
-97
54
5
71
-10
-36
4
-120
18
68
4
55
98
-64
-109
-126
-66
-76
-114
-97
108
-83
81
-10
34
123
117
-48
-108
-5
-6
-102
-11
-71
-43
-88
-17
-39
-112
-77
38
-94
56
-79
-10
-39
-26
-39
43
20
-65
46
69
31
-28
-101
-14
-45
-33
38
-49
-2
1
-98
-79
-17
-26
-28
74
51
106
-58
-13
-9
62
82
-80
-91
-65
93
42
109
28
-16
-4
16
115
3
-80
-32
-102
-116
87
112
101
-113
-5
-40
-5
-56
47
-53
-7
50
-122
46
-115
47
-34
-8
111
-13
-13
2
-75
-60
-128
65
54
-48
15
-78
34
99
62
-37
19
-44
50
122
86
-96
-46
-81
-98
14
-119
3
-28
89
-75
43
18
88
20
-16
-113
74
73
-76
89
-23
110
-76
-77
-9
30
68
-104
-115
26
23
-71
-11
57
-95
-25
-106
-81
-70
-71
91
78
79
-79
110
-115
-116
77
36
117
-67
-95
124
-100
38
66
-9
-73
84
-5
-86
104
33
-111
53
52
-125
109
76
-48
-15
30
-42
99
59
-110
-116
-103
-14
-53
-55
-108
-42
95
118
27
-56
-84
126
63
93
76
80
75
-123
-92
63
50
43
-48
-66
95
-96
117
85
-96
67
29
48
4
-116
-26
-88
-84
-23
53
31
48
58
71
12
31
124
54
106
28
120
-107
-97
11
2
-110
-117
99
-90
4
33
8
-39
-87
-49
96
57
49
52
43
-4
29
-21
98
-72
46
99
-5
-43
-80
-124
-88
117
-82
84
87
-102
-77
-40
86
9
37
-95
-39
47
-86
-70
-23
68
-60
61
8
125
26
15
-15
5
-64
96
-106
-93
-124
118
124
-8
-102
38
-102
24
-69
-41
100
39
-105
13
73
-64
76
114
-72
-81
-86
-114
-67
-46
-26
7
-95
-10
80
-99
-1
-13
-8
-115
-32
6
-104
-112
30
106
12
29
-88
65
-100
62
-17
51
-38
92
-94
-37
7
-20
-43
89
109
-63
30
1
71
43
-59
36
69
59
-59
36
107
4
42
-26
16
-84
-11
-11
83
96
-96
-124
114
110
-111
-69
-48
-29
75
2
-52
-70
-71
-124
38
15
-16
-65
-93
13
12
-82
47
-39
18
-88
38
-47
-39
-94
-32
-87
-93
114
42
-108
-86
-8
-36
41
-59
-23
-86
114
82
-106
-61
106
43
54
-74
-126
-59
-56
74
6
4
14
84
-42
125
101
21
-92
111
59
-54
112
23
-18
-102
82
-103
25
-35
45
2
-57
118
-108
64
-114
-26
-101
92
42
22
80
66
90
-94
-45
-35
68
-111
107
-52
35
-77
114
50
-126
-88
-7
-89
91
89
-105
17
9
24
125
27
98
14
49
-74
-22
-75
-34
-109
110
-68
57
87
-46
-35
105
125
-102
26
-71
96
-27
-112
-37
124
80
67
-86
68
38
40
59
54
-66
93
122
116
-83
22
106
-22
-75
113
71
14
-97
124
35
-110
-119
114
-101
86
17
116
83
110
-22
119
125
106
101
123
-47
42
55
-28
-127
-36
10
-13
59
96
24
72
-11
115
-36
-75
118
103
64
-88
122
10
100
120
50
105
81
-70
68
79
38
-123
-3
-44
-33
117
-88
34
-42
21
38
-31
-1
-10
32
-109
26
52
81
60
-73
-69
0
3
41
-54
-29
-57
-101
24
101
5
-115
6
17
39
-100
117
-1
-35
-9
5
-127
87
-121
-92
-73
46
27
38
28
66
-65
-14
-126
1
47
64
77
-102
-95
114
27
29
-115
53
115
-79
-74
90
-116
-38
119
-35
-30
-82
113
-106
11
-111
76
-3
117
24
10
-11
-41
-78
-84
-16
21
-72
-114
119
52
65
8
117
-65
-67
17
-84
73
-57
106
-20
-92
105
-121
-18
-27
-5
65
95
25
-28
-77
33
15
82
-122
52
-92
121
-34
115
-95
-10
-98
41
-66
60
-113
-123
87
118
-19
-113
-36
-82
-45
-46
115
66
70
-1
-6
46
54
-34
115
44
111
-23
52
-82
70
71
5
-74
-42
-22
21
113
-104
105
-82
113
55
-114
-46
112
-96
-115
51
15
18
121
-33
109
-106
-99
-38
-116
75
-127
-25
-84
-59
-81
-56
-66
114
-41
-54
-67
93
2
73
99
53
-44
39
-69
12
-38
94
-12
-102
69
-73
-1
-71
-95
41
103
33
-56
24
-75
84
-15
-68
92
100
36
-105
22
-28
-93
83
-76
-35
-13
-39
116
-19
6
20
92
-56
-6
-113
-97
121
70
14
4
47
91
67
125
-124
-124
55
-121
72
74
-100
98
-73
118
117
104
109
-119
17
2
-113
89
29
76
-42
53
90
-91
-45
6
-88
68
-77
-49
109
-93
122
-70
69
-22
-83
-5
-26
-36
-31
-45
30
-121
-83
-127
-80
-42
-17
12
-108
15
16
-85
-8
-125
45
82
-125
-55
-117
56
40
101
-58
80
30
43
-41
-24
24
-126
45
-63
41
-103
-82
29
-41
33
-35
-110
116
118
-9
-62
54
-33
50
65
-128
-95
-44
124
-9
48
-25
-77
96
45
41
6
-23
-55
-65
-44
-21
87
117
-124
-10
-5
82
-96
-42
96
126
-75
-94
-119
23
7
58
-35
12
-70
-43
27
-93
-14
-63
30
-102
-14
-46
-105
28
-44
76
87
85
-68
-17
101
-100
-39
5
-5
73
71
-2
-94
-47
35
72
-25
-78
23
-15
23
-107
57
-29
16
-96
-117
60
57
101
-55
-71
95
23
8
41
104
-84
-117
44
40
-40
2
-122
99
-124
-49
-118
23
-57
97
101
-5
-23
-30
-110
-80
70
113
79
121
-95
-104
-74
11
106
74
117
-22
77
21
-102
12
7
65
63
-109
-51
93
102
-100
125
3
-72
-80
-124
-91
104
-73
76
-66
96
105
74
-88
-104
-117
-78
-109
-33
85
-124
78
-54
-103
-87
-46
-28
84
32
79
13
25
-78
-91
94
-53
125
-44
0
-93
-127
-28
80
-83
-98
47
120
120
-49
23
75
81
-46
-33
60
-117
46
125
-86
-30
9
35
-105
83
-14
-13
41
55
-70
-71
-122
16
-5
94
43
121
101
28
94
-119
35
29
-45
-12
70
82
59
-114
-109
-90
-9
40
-62
-118
-42
72
92
98
126
86
-40
31
-23
46
-58
-31
-57
11
63
32
-105
47
13
-32
-55
63
-45
6
15
15
-20
-113
49
-59
-26
57
-15
75
1
38
-56
80
42
-106
-92
-47
101
53
79
44
24
44
-125
-99
-127
-59
-29
-24
19
-93
53
-71
55
-31
-108
69
76
-55
-51
66
76
-58
-31
-122
-42
119
44
-48
58
-109
51
80
85
72
19
-28
-122
30
108
97
-20
3
0
7
11
-60
-39
111
116
-64
102
-22
47
-23
28
-107
-44
111
-106
-89
97
-3
88
-9
116
-123
-31
53
67
-65
32
-55
-74
-5
106
10
9
-93
-44
101
-115
36
-71
-79
-9
81
-96
106
25
-43
75
10
-80
26
45
-102
-18
-117
87
-47
68
-31
31
-57
-57
41
67
27
-108
29
5
-21
-112
15
15
15
-12
126
115
-80
18
89
27
48
-106
49
-14
-91
-52
103
46
117
50
-118
72
91
111
-86
-21
41
-44
-110
-94
-20
-126
2
-65
76
62
-122
74
123
-21
-26
95
-96
-42
-65
-63
-40
-29
74
-4
13
-50
15
-13
-19
38
115
46
-52
-85
75
116
-107
-41
21
10
-91
-61
76
85
-19
-41
-101
66
-76
-59
-104
-39
45
-120
-82
126
-22
-65
-63
-126
44
124
83
83
83
-58
13
-10
15
-79
6
-91
-35
57
117
-63
-61
-96
-9
33
97
-10
37
13
-19
-7
104
73
109
97
-83
53
124
-8
62
-11
95
85
-20
63
-59
-118
-91
-86
-98
16
-103
29
-52
-125
-44
57
-52
27
-116
86
-100
41
-35
-107
92
-19
68
26
81
-126
-8
28
28
61
-33
89
-33
-91
-120
-42
79
-9
112
96
79
-25
-6
76
-68
47
-96
-17
125
-57
-82
-95
62
-6
-31
43
-65
-14
-44
96
108
-78
-64
-75
-57
-56
-25
-5
-44
93
-44
-57
-122
74
77
-109
-124
-49
79
85
-41
-117
43
31
74
-40
70
84
-32
9
19
-37
-50
79
117
-128
67
-34
5
-105
-91
-19
31
45
-27
-88
-124
12
-22
-93
56
59
-7
-42
-101
-37
-124
59
-101
32
-60
100
-109
9
-85
-75
-108
6
14
60
-69
-5
-28
73
-106
80
1
-80
-100
-4
-29
-8
-94
-23
44
-69
-126
-36
-9
-2
87
18
40
89
-95
113
93
4
86
13
-29
0
14
-11
-28
-12
-66
56
-31
-87
-52
122
37
-36
42
-88
112
-25
90
69
31
-70
-124
122
8
23
-86
-71
100
34
-74
-80
41
-55
93
98
-106
120
41
18
124
-50
120
-32
44
98
-64
-119
22
44
122
33
-6
-6
124
-81
-111
-50
-88
-107
-77
-123
73
29
98
-46
66
13
2
42
53
9
-31
107
28
97
-70
83
78
-46
70
-22
33
14
98
77
-81
-2
33
43
-53
54
27
87
15
28
11
-120
-128
-114
104
28
-75
-58
-2
-78
91
48
-117
97
-125
-95
-48
41
-6
83
11
-40
-67
39
24
6
113
40
-90
78
94
-53
-63
-123
-62
-60
-2
-108
20
-12
78
24
114
-106
-19
-128
31
86
17
16
109
26
-53
89
-6
71
-74
-14
-68
-90
-17
118
-36
103
-20
-109
70
5
-67
53
49
59
-98
-40
-74
-60
123
93
86
-58
-35
99
-82
-27
35
8
25
17
112
87
13
58
-26
-43
10
-123
125
-78
-24
89
-23
-71
-53
25
116
36
-119
-25
-55
105
45
-94
42
-68
-66
125
16
107
36
23
96
-68
97
-56
106
107
-77
58
34
93
4
-123
41
61
-71
-98
45
102
-4
-78
-112
-35
-93
-70
-112
-81
44
5
-1
-121
-37
-118
-31
33
-128
114
-88
-105
41
122
-82
-5
18
-15
1
-7
-32
-70
-82
18
103
-82
112
-13
64
-1
-69
-49
20
-79
109
-25
-108
-19
84
-18
-119
13
-114
67
58
-120
120
-82
-23
95
21
91
-118
-87
93
-39
-93
-20
-119
88
104
34
45
-61
-68
-56
99
-61
-9
9
-108
-21
84
-59
71
67
-121
88
73
-77
5
60
98
-43
-59
-10
24
-102
-102
-40
-19
-62
-22
-59
-65
107
11
-4
-3
-45
0
-103
-53
-19
74
-94
-71
-56
94
7
75
25
-33
-39
-64
-51
58
41
-69
-3
34
75
-110
67
63
70
-9
-14
73
-113
-46
-12
-34
77
102
83
-54
69
105
-100
102
-41
-95
94
82
-121
70
60
-57
48
-64
69
-93
85
-118
58
-90
-68
-108
98
-123
73
-106
-121
23
117
-120
125
-106
-105
41
-92
3
-27
-128
-44
-37
-48
35
-1
15
85
37
-87
-112
39
-65
-123
117
43
-13
74
-26
36
112
49
-13
110
-78
-21
62
-119
-104
70
41
110
-124
1
10
15
109
5
-6
5
47
-67
123
61
79
-36
25
94
101
-106
-84
-68
80
38
11
-40
-9
-73
109
4
11
-87
0
-26
20
21
36
116
100
71
-94
63
118
38
-41
-42
-32
-125
-62
-47
69
60
-105
13
-120
-112
-50
51
113
-26
-88
-103
-13
87
-50
124
-1
-4
-89
95
113
91
-94
35
38
-25
120
-13
66
-9
92
112
-10
21
68
-16
-77
-82
-30
-10
82
3
20
-64
-40
66
-85
-96
-34
15
12
51
-61
45
112
-70
90
-67
37
16
81
86
-26
0
45
-127
-72
73
70
-78
-76
-58
-9
-42
101
22
-78
103
63
-82
-47
-22
-58
-47
-29
-23
30
-58
-4
-109
7
-77
-77
100
22
106
44
-59
-101
-60
10
85
-88
-79
-90
-25
109
48
-21
68
-23
-7
-51
-67
-76
114
-82
19
79
27
107
-62
-24
61
-117
49
-106
19
-33
-87
-90
2
-30
108
110
67
122
83
-73
-59
-115
82
-98
-23
32
8
67
-4
-12
59
-43
-94
-56
-116
-93
20
-108
-123
64
68
95
-127
-59
52
74
-83
5
91
92
75
94
-80
17
112
94
-121
-36
79
-68
-70
61
-81
6
121
126
90
-117
-57
-16
94
-4
54
98
41
-10
1
72
-16
-25
47
3
-77
-25
54
-95
-38
-60
-91
126
111
-61
44
18
-16
48
25
-67
18
-73
86
-86
-97
-127
83
-64
3
100
25
-100
65
-12
55
89
-67
-57
6
24
-71
-99
0
24
-29
-75
51
11
-17
21
-117
64
-26
-99
-9
46
-117
92
56
14
118
25
36
-33
106
-57
-101
-23
98
-42
29
36
50
-64
33
-111
-49
106
115
-127
-60
6
15
-93
-68
-69
64
-25
-56
44
13
28
-115
-21
87
43
37
-124
-81
-115
-65
84
-56
31
119
-101
87
-57
-77
-54
-125
93
19
-10
115
60
89
-116
-59
-49
-123
33
71
92
51
-121
82
37
-85
-17
-39
91
92
-93
-56
-121
-17
38
124
-19
84
-31
116
40
-102
115
-27
-21
-64
101
-82
-32
1
-115
-127
-30
80
-3
-102
-43
-101
82
49
-97
75
64
58
111
50
81
-59
103
122
112
21
95
100
52
-102
65
-25
58
-78
-93
-99
8
36
31
28
87
-79
-64
-49
-49
-24
-30
39
53
43
-66
-84
43
107
5
116
123
107
-61
-71
79
105
114
93
56
39
40
101
7
56
77
-119
74
15
13
3
125
83
-69
36
47
77
25
32
-29
25
-4
33
122
-127
41
-108
-128
-128
-116
-12
62
-15
-50
-84
8
69
97
123
-90
-92
-35
89
-61
70
57
-62
-79
35
-100
-55
-77
117
-122
-120
66
41
-112
76
-54
-7
-46
-127
46
103
84
-43
96
-126
-64
19
109
32
17
85
-54
-63
-121
-65
117
-13
18
1
-70
92
-106
-109
11
33
18
32
-58
-83
-79
-43
45
-88
-74
-26
9
-32
58
103
-109
68
-86
-54
96
60
125
-65
9
7
42
105
-88
7
7
-78
-68
-97
-65
-98
-42
-127
-49
19
-71
-51
111
-93
22
-128
-32
74
-23
-74
33
-76
94
-59
-69
17
18
68
19
45
-14
42
-28
70
82
-98
81
-49
51
-65
-81
-95
-124
-123
-6
-48
-110
64
1
-88
-11
103
69
-121
115
108
9
-32
-120
-21
54
13
91
-76
-27
-40
8
-16
59
95
101
28
60
23
69
-82
-7
7
99
-1
54
-64
-10
-10
94
-114
-38
-61
-108
103
75
49
-119
73
9
-67
-86
-76
90
36
100
-32
47
106
-59
-71
-96
-124
-115
-70
73
-72
62
1
117
-13
55
3
40
99
-107
110
18
-5
-16
39
126
102
111
-64
-126
-69
33
-67
-56
-50
-100
4
18
-87
-70
-66
69
-71
-121
125
43
-36
43
108
53
-52
27
102
94
-13
28
97
-30
123
93
-47
-17
34
-123
-98
-122
-79
-2
-80
101
80
20
111
56
-14
-5
-82
-41
-11
113
11
-84
-85
124
-30
-27
-49
43
-22
-64
-116
-54
-37
114
-89
-58
59
-1
-13
-114
69
-102
-123
-52
93
68
96
-105
73
-85
-50
61
45
-33
-128
61
-1
42
-103
-51
-2
42
-36
12
-91
98
-99
-119
-28
38
18
-9
-71
-49
87
-26
-74
64
-46
42
106
-119
-43
38
91
-104
38
-49
-66
72
-122
11
-23
-11
121
-124
-65
13
-121
-51
93
54
-11
-97
-55
-74
-6
9
111
5
108
70
24
81
105
113
74
73
-63
75
-85
-114
77
-27
0
-84
37
-26
0
-64
-8
47
73
-22
-25
-80
-28
7
-28
89
-61
19
66
-78
-12
-87
-41
55
-102
-110
18
-44
56
-80
-16
-48
-6
77
-114
-112
-35
29
-121
14
-111
47
107
-98
49
-126
-115
26
33
24
-106
-98
86
53
80
62
80
-68
71
1
-123
42
16
-78
51
98
-119
-91
-22
44
48
-93
-91
-8
-9
50
118
5
-7
65
-86
-125
0
123
-90
86
110
21
6
57
109
-48
-48
-103
-118
5
6
86
-112
-93
117
-54
-98
57
-112
35
37
94
88
125
101
-6
-104
45
-109
72
3
20
-96
21
-52
-116
115
-29
54
-19
107
-90
-50
124
-29
-88
125
-87
-92
-109
75
-99
-11
101
112
-63
60
44
67
-86
124
101
-107
-1
109
35
-91
39
-23
97
-79
105
101
90
51
43
-126
57
86
55
84
22
100
114
-62
-120
-100
-42
117
-58
-64
-11
-128
-112
81
18
-56
-82
101
-75
-64
56
4
-123
-94
86
-56
-82
-112
-18
62
-41
-114
47
-97
-50
-104
-7
75
56
54
-39
-29
-31
120
106
55
69
60
-78
42
78
47
110
-46
93
40
108
-24
111
61
87
46
-83
-114
123
-58
6
-93
-65
57
-5
-84
-92
25
121
-61
-82
112
113
79
112
-28
-123
19
-55
-37
-101
-6
69
-110
-36
48
-125
81
14
15
-90
126
-37
-12
-128
110
38
98
17
126
124
59
60
90
0
22
6
-100
12
13
57
37
51
-123
85
110
-42
6
1
-73
122
-59
-45
-44
-32
114
-64
-113
-117
74
-4
43
-126
83
-23
81
-87
60
-123
-44
-78
53
73
-33
-6
37
-73
124
101
-25
22
-83
78
-114
-68
123
68
-4
-103
27
-41
-74
28
63
-124
-51
78
35
109
20
89
41
-19
-13
-81
-72
-82
82
-90
-54
116
2
120
-21
24
-96
-82
-103
79
39
-115
-94
82
-108
-88
117
60
75
-90
65
-57
-13
-117
-59
99
-81
94
77
-104
-107
102
106
97
120
29
-123
-109
-51
60
-124
-96
69
119
-37
120
76
-46
110
-71
-102
70
-118
-87
21
26
53
-16
9
-52
104
-27
102
-106
25
-120
29
8
-50
50
-72
-28
8
59
62
-80
-20
58
-36
124
-114
-31
-11
-118
-96
35
-113
121
-77
10
25
-25
-63
20
-113
-127
-104
-93
31
-110
-59
-121
-108
-124
-123
-61
-113
-42
-128
18
9
-44
24
-87
68
-18
9
95
-63
113
18
-21
108
-3
122
-97
34
-125
-96
49
-99
-37
25
-20
-54
51
-117
-70
39
-9
-122
102
79
60
10
-5
43
-67
-51
99
88
30
34
-85
-82
-22
-29
120
-64
105
121
-29
53
-15
-112
-67
-1
-38
-99
-127
-57
34
36
122
-74
-92
-19
-100
112
22
-56
-101
-63
-3
48
111
-21
-65
83
-118
105
-57
102
106
107
8
24
-110
66
14
125
93
-18
-49
-62
40
-20
72
-79
104
117
119
90
-51
6
34
95
51
-10
14
8
88
107
16
-82
-21
97
28
-70
-97
-32
56
83
17
71
98
25
8
-42
-1
-92
-92
125
-1
65
44
-128
38
55
109
-64
-125
-83
6
-68
89
14
-118
-61
43
24
-98
120
115
2
-60
116
30
-72
-14
-29
60
59
-17
-51
-97
80
-118
122
-112
-8
49
-25
100
8
-12
106
-43
-30
18
-85
-100
115
76
-101
-19
113
-76
70
57
45
-84
-76
-78
65
107
56
-111
103
44
74
-122
-61
-17
-121
-67
96
-25
11
-35
-49
4
56
86
107
79
-69
-93
117
30
-28
14
44
52
122
108
31
-2
106
120
73
42
35
45
39
99
-67
-19
-123
16
-100
42
104
57
-28
-68
-53
-23
-3
-49
93
-94
-80
-15
107
77
28
-11
58
-14
33
-106
-110
64
76
-7
111
-53
117
-104
-79
17
103
-122
21
105
70
-58
-25
32
79
-41
56
-28
43
39
-83
-96
-114
93
30
65
-18
67
-102
-63
-1
-60
-41
86
-106
-60
6
-12
-18
-9
16
-124
73
86
-39
93
16
0
55
-74
2
113
15
-122
18
75
-85
-114
3
-58
-24
-13
30
-128
89
78
-20
-24
56
118
-109
89
-102
-45
56
-93
71
43
35
-49
116
88
41
17
-9
-92
55
-76
-78
-40
-125
9
-81
97
-18
-125
27
-13
-92
9
-26
-104
-95
103
52
-127
-70
17
-51
26
-109
-116
-73
29
-66
84
70
24
-36
47
49
8
-32
-124
27
13
-111
126
0
-114
28
-13
6
50
37
-122
-76
-49
-37
103
72
43
61
38
78
83
-56
114
-42
94
11
94
46
67
-12
64
-40
-71
6
71
-90
-23
-125
-69
108
21
-125
80
-43
60
-17
-48
64
-58
99
-86
118
-54
122
78
-126
38
103
124
21
-36
30
-40
26
-54
90
-84
-89
18
80
18
12
87
96
-100
-51
-19
-51
-17
57
95
-98
4
-29
-14
116
-59
-96
-61
23
-27
48
83
-28
-24
39
91
21
-95
-101
70
84
110
7
55
74
58
-17
65
-102
2
-15
-76
98
72
60
-12
102
-109
-38
58
15
-14
-30
38
34
-23
-23
-65
106
-30
8
-6
52
-47
101
-84
83
99
-96
42
-59
109
88
-84
19
-51
90
34
27
126
-119
61
96
114
53
17
57
-87
112
43
-89
110
14
-52
9
106
-16
-28
-128
-16
9
41
-68
-18
72
42
-122
-52
-80
89
-18
65
-44
83
-38
-92
-15
103
-23
-6
82
-47
-102
-13
-18
11
-5
-70
-3
-90
-10
105
-103
19
-100
53
-41
-12
65
-117
25
1
25
-8
-71
-12
-18
100
85
89
121
73
-97
12
-105
7
14
60
57
18
104
-111
-39
-111
48
94
54
-60
42
25
112
49
-23
-106
-79
102
-86
67
109
-63
-113
35
-72
29
57
-121
-53
-9
124
-58
-98
58
13
-70
-87
6
89
-95
24
113
-91
-105
-23
36
-71
-73
-46
-94
104
-127
-41
-39
89
40
67
-75
44
-1
91
116
-108
-5
98
-84
-6
49
-34
-24
94
-16
-84
-21
-64
-15
-28
98
-108
37
-93
-114
-43
106
68
-116
-20
-41
-112
-77
-49
-113
-39
96
0
95
93
-63
100
75
43
102
-68
62
108
69
-54
-121
17
8
74
126
-123
-83
13
15
-85
26
-64
-110
105
-71
-59
101
-102
69
23
65
103
-93
6
-115
-55
20
47
-43
-16
27
106
-42
31
108
-64
-118
81
-119
14
28
106
-20
-121
120
43
32
92
-16
-86
-79
112
86
-81
78
-16
43
-25
31
16
-46
-12
118
-38
120
-116
-56
24
-45
-79
61
-70
-32
14
-71
67
-39
66
122
-74
-12
-38
73
67
-40
43
54
-18
81
102
89
113
-37
-75
30
68
-71
-22
47
-2
-60
104
75
84
75
-52
45
81
25
-13
89
-11
-48
-33
-35
-20
65
12
91
-78
-58
45
26
53
-3
-66
94
-43
89
-120
-83
-113
-5
-93
47
-44
-76
-53
-84
95
84
46
13
-94
68
-3
-64
-108
126
-18
23
-56
63
57
-108
-75
-16
-107
-97
31
61
-99
-98
-26
-122
2
22
0
117
84
85
-14
-92
125
-65
-15
-4
76
52
24
-112
-97
-109
7
60
-106
108
87
-87
-8
-126
-61
-93
62
-35
-13
27
-54
58
-8
-116
-77
16
29
116
78
55
110
73
-48
-95
-45
85
-32
50
109
-53
20
72
-64
-29
-38
-9
65
89
100
-28
36
-20
48
75
20
-55
-1
28
-115
28
48
59
-90
41
-16
-73
-66
85
-57
-89
68
11
42
18
86
100
115
-127
41
50
31
-66
81
103
73
-42
59
105
61
71
-26
78
-56
41
96
-10
-53
110
-73
52
-80
34
-53
-21
56
-12
99
-34
-54
-100
120
-11
30
-51
-18
-71
-2
-90
-25
-36
49
25
-41
76
-44
-71
-45
-54
-32
64
104
-89
60
-4
70
23
-52
-55
121
-93
92
-58
-48
-111
-17
11
-111
60
59
49
115
50
-122
0
-35
2
-38
113
45
86
115
-103
-45
-26
101
57
-65
-122
117
112
-92
41
-70
17
50
89
1
-29
111
9
21
78
-86
-121
19
-32
-48
3
-82
118
-110
-11
-73
-88
-20
-102
21
-121
-70
43
93
97
98
1
-111
-115
125
-47
-59
115
7
-19
-68
26
58
-17
60
-88
101
-28
84
-42
-99
-26
14
104
-33
42
125
113
77
87
-15
-100
109
25
76
-109
-80
-125
-87
18
-49
-3
125
-74
-10
92
-28
-100
-94
27
2
-121
78
72
76
54
-28
-29
62
71
-54
29
9
-80
109
105
64
123
-70
7
-84
-15
-85
-46
95
105
-44
-71
62
-60
-117
103
115
95
-15
39
-113
-27
-86
56
-78
51
118
-29
-108
66
31
-108
15
60
-53
61
51
125
-1
80
4
114
-113
10
-118
-96
99
1
52
21
-73
-112
-43
-67
111
78
-19
16
-43
-96
-73
31
58
3
1
79
0
-38
70
114
95
-32
68
-48
12
70
-40
115
-27
23
69
84
-41
-81
9
-113
-128
-116
-87
26
-20
-79
-45
5
-84
4
55
-117
64
-124
-47
-20
-65
-22
-61
-49
-107
-5
44
-111
33
-42
-103
-110
-54
-94
-8
-38
44
49
28
-35
-66
93
20
121
73
96
22
-53
-33
-46
74
-11
-87
-95
73
-126
98
14
27
-87
67
-110
3
19
11
-110
-31
-114
-124
-87
-79
-19
18
34
-128
-40
-122
121
-25
20
-122
67
-49
-61
-28
54
126
89
-108
-69
-55
-126
-28
-56
51
101
-93
-12
-86
-108
-56
-115
75
-49
85
-91
24
54
-12
-62
118
-21
125
75
-87
13
38
0
-60
-64
98
-10
-92
119
-95
56
-116
-81
28
-113
-119
-8
-104
55
38
20
31
-127
-115
38
107
92
-39
121
11
82
-48
78
5
-99
-30
22
-66
44
-1
79
115
-100
-86
39
14
36
-92
-14
-41
45
-67
85
62
11
48
77
-41
-91
37
-102
76
-95
112
-87
-68
-69
-25
38
-87
116
-27
-99
125
-73
-28
-34
60
-52
2
35
107
-69
49
-100
-4
-7
50
-72
91
-77
-113
24
28
-63
-44
112
119
-85
125
78
59
104
-50
-102
-115
67
108
117
-17
29
-45
-94
77
78
33
-71
5
-97
-30
-47
-108
-43
-66
-121
54
-98
102
58
7
38
98
120
-4
47
74
7
-44
9
60
-121
-60
24
-74
2
-91
-82
-65
16
66
121
-58
27
100
14
-2
32
-4
31
-62
-43
52
72
47
-70
-89
-50
26
115
114
-120
21
-66
61
-46
-27
-39
-9
63
-71
48
6
117
113
83
47
-90
-24
51
11
-95
-91
6
-6
61
-53
93
31
85
-103
14
53
65
-52
-5
85
0
-29
106
-47
-14
-109
92
-17
52
-9
-75
32
85
15
-6
113
-57
-104
17
1
87
81
70
-68
31
-36
-51
58
92
42
17
31
-119
-100
39
113
122
-102
-45
23
-46
71
63
45
-25
13
-14
100
-65
105
-50
-48
17
-5
62
-122
120
-115
-121
-122
38
55
119
-78
-112
24
-126
94
72
-118
-90
125
-113
92
92
29
-97
72
44
86
121
25
-30
-73
2
-58
36
-113
-124
-26
16
125
72
96
101
79
95
90
86
33
100
22
-74
13
2
86
-108
-107
123
24
81
-115
117
-119
22
-121
-1
-75
-79
60
-111
-113
-76
12
-66
98
125
32
-48
-101
72
60
-42
-64
-70
-95
38
-1
-37
-17
-56
-58
111
29
74
99
-123
-62
106
-92
124
93
36
53
116
16
123
82
46
8
77
-45
5
-38
-103
102
-95
102
-114
-54
-28
70
79
-28
121
-65
-95
55
26
-81
-83
-24
-102
-3
-87
-119
121
95
87
-43
36
-51
76
12
36
122
-92
96
57
96
78
-87
15
28
-33
40
-39
-117
22
-111
34
-26
-11
42
52
47
-25
-84
-93
66
125
87
-28
34
-105
-92
-61
25
-93
98
-17
78
-34
124
-124
75
-15
15
9
-3
9
98
2
87
76
24
-79
6
-57
-48
105
-46
41
110
0
-57
125
117
57
76
-117
-55
49
-28
26
79
-108
-33
-115
-85
-102
83
58
-52
-121
-77
94
-25
72
93
15
-44
-35
17
-24
88
-80
-81
-113
-49
9
-61
115
-23
76
124
-45
58
-24
-32
-78
23
58
-77
-77
13
-111
104
-82
116
-95
43
91
51
117
-53
60
47
-23
45
-18
-41
1
-40
-55
-87
61
-2
-38
46
47
-102
-92
73
5
69
-49
76
0
20
-91
-73
-111
-19
23
-67
45
-5
49
-110
-77
61
-72
69
-111
-89
19
72
40
-13
108
-19
-48
-25
32
-118
2
-127
115
-106
-31
-62
92
-22
26
-111
27
118
-60
-89
98
0
101
99
94
-15
88
94
-103
2
-79
23
102
16
89
89
54
-124
73
86
-61
-65
-58
-119
-4
36
-36
87
-120
46
-113
9
-39
10
1
-57
-86
-58
-68
74
-13
-83
32
99
60
60
-112
112
-47
-74
59
12
-22
-14
78
-10
-12
-41
-97
113
-45
-99
95
-2
-102
45
-48
64
-99
76
51
10
-25
110
27
88
43
-10
36
30
-118
76
90
-59
-73
-29
-59
-110
-66
-23
-21
-104
-4
-13
-33
35
-22
-12
9
-81
48
97
-119
94
-22
-45
-119
89
38
95
-23
-23
-57
-105
99
-102
-69
-64
126
89
43
21
123
28
33
-83
47
79
-115
-31
-112
40
-68
5
-4
-89
25
-94
-33
122
123
-94
105
-122
24
-52
98
-72
-17
51
-103
-119
-27
-106
-86
-128
-43
52
-50
-39
-55
42
-126
-110
-17
-100
-106
113
87
-40
69
-110
1
0
-3
-111
-67
8
33
-121
61
-36
37
94
81
-115
-118
31
53
-84
-65
112
61
115
41
-11
13
-13
-75
-80
-25
66
-91
-115
58
75
-17
-38
108
76
126
-108
120
-26
89
-111
32
24
-65
96
75
22
-83
-82
50
-46
-99
-94
48
-96
-121
-112
49
-126
-17
65
27
25
-112
3
-31
122
-30
-14
30
-40
3
8
-2
9
7
-87
-7
28
100
-79
-18
14
-119
-124
104
-25
-103
116
24
-95
80
-27
84
-42
-123
76
9
-72
31
51
-44
-5
-22
-36
55
-96
-35
118
125
48
-63
29
22
37
-22
-65
2
-43
55
46
-37
-121
-84
-61
7
-112
38
55
-2
-82
-80
73
-22
67
-71
123
121
-73
115
-90
-67
21
-101
90
-51
28
99
-7
-43
-36
37
31
0
84
-106
74
9
-118
54
96
30
-8
81
-112
23
-76
74
-39
13
118
35
15
-19
80
91
54
50
105
-22
-26
-1
-109
121
-104
23
111
-4
-87
-77
12
20
92
36
9
57
4
-123
0
108
60
-28
67
35
-96
26
88
-76
37
-40
-7
-88
81
48
90
-24
51
-108
0
-62
11
90
86
42
48
-76
112
80
-6
-71
-121
-69
-47
90
56
-14
0
120
26
17
54
21
-110
82
53
-52
101
83
-63
75
-16
56
-16
-90
2
-27
76
78
-105
-77
124
-84
28
-77
-49
-104
-65
-16
-98
119
26
41
-83
120
126
-26
-83
-46
-89
-6
-41
55
4
54
-113
65
83
2
36
-54
-84
63
-69
61
-16
43
106
-117
76
-26
-72
104
-97
-99
-34
83
60
72
88
3
-127
50
-100
17
16
46
-71
95
16
-29
-70
-117
-63
-121
27
10
-33
-43
82
109
-26
90
91
-8
-69
-56
45
-112
22
43
4
-2
-116
3
-70
-123
121
-124
75
48
13
-113
-68
-83
-19
-12
93
1
107
24
2
20
-56
81
-43
-37
-11
-67
-79
58
95
101
58
-114
56
-67
103
-86
-94
-96
-15
-7
65
-1
-29
79
105
-73
-112
-33
-73
-64
52
-72
-47
114
-22
84
38
-107
-63
89
86
-46
74
86
75
-86
108
-41
79
54
-44
-30
-4
-126
-77
-10
-119
-84
82
-82
40
92
-100
51
124
74
-21
-80
-128
117
-119
-43
-53
21
115
-120
72
51
-49
-33
-62
115
-6
-19
8
-74
52
-93
-6
-21
-53
116
52
66
109
-91
104
-101
-21
118
-127
104
32
-91
-50
-28
76
-16
101
21
-15
-109
-18
84
66
-32
-60
49
38
-2
-6
96
113
99
-74
28
-61
-1
-19
-67
88
-22
71
90
29
-40
101
15
-82
65
77
91
60
77
-6
-38
115
116
78
-82
-74
-57
-77
23
43
78
-88
47
-24
-6
41
-99
10
-113
119
-49
2
66
50
15
73
-76
-63
17
-78
-13
94
93
7
-25
103
42
1
90
-126
99
-99
-49
122
22
53
82
117
91
-21
107
84
-11
83
14
10
88
105
74
25
27
-98
-9
-97
9
74
25
38
122
-48
-88
108
43
-50
98
-28
-3
114
-83
71
-118
17
69
37
32
-84
-94
-100
118
30
-78
-8
44
60
56
-82
-75
-54
76
41
45
-26
-120
47
-125
11
8
-39
1
-59
68
-127
-119
110
69
112
-74
-43
114
46
-96
76
-107
-30
-41
-127
-37
41
73
32
80
-87
20
104
7
-32
25
70
21
-41
40
76
-2
-33
-109
-77
38
28
16
-8
-118
-84
65
-24
-94
59
-85
16
-76
-58
-64
89
-39
39
-119
-126
74
20
37
0
114
-126
-119
88
-95
23
104
-57
-121
46
42
18
79
-128
80
-58
101
-33
81
-128
-35
-93
-32
115
-67
-32
-61
-25
122
-123
-63
-11
40
124
20
112
69
1
-33
23
124
82
75
-78
-120
-52
-81
-69
-9
63
-46
110
-34
16
-99
39
112
-124
114
-54
-50
-13
-90
-110
59
17
-24
-99
101
89
7
15
82
-120
-103
60
54
113
7
5
57
87
-50
-70
104
-50
-44
88
92
-96
-79
-36
-53
-101
122
-63
-127
-66
-20
-32
19
-39
-95
117
-49
-66
-60
-32
-72
-120
116
-1
31
-126
41
73
-9
-31
-103
-96
-38
-26
98
114
-72
110
-78
100
-54
126
-108
73
-61
-93
-112
1
96
23
80
88
53
-106
-67
63
-108
101
-106
-41
76
-55
-82
-67
-126
-112
19
-51
56
56
-18
-114
77
13
-68
98
52
-18
26
2
-97
-8
-30
-55
110
85
16
54
43
94
73
51
-104
107
86
-85
45
-82
-121
-81
-85
99
115
28
50
-40
91
-82
-6
60
-65
112
-114
-112
21
52
62
98
18
91
-103
25
98
-106
58
27
-3
35
-69
-7
26
38
85
-102
-51
-45
-18
-126
40
58
-105
83
-49
33
79
114
-78
18
71
28
125
20
115
19
-83
-126
110
101
-43
19
-20
-119
24
-61
-54
73
96
-75
38
-7
-12
101
-33
-98
-84
-64
28
97
-123
-20
-90
37
59
58
-80
-95
-72
-18
75
34
109
-66
101
-65
-90
115
54
-24
-100
-89
-64
-112
-126
-39
-127
101
-125
-40
-27
22
-72
-49
33
34
-6
73
-30
73
-58
59
-113
114
-55
-49
-112
7
93
-79
31
4
-102
-11
-90
-34
114
-86
111
96
87
52
10
70
-70
-93
24
-47
85
30
-89
-110
-109
-64
-45
-58
99
72
-26
-66
52
-97
-128
-70
-11
-111
9
42
-3
84
-101
79
59
61
-97
-121
-46
61
-10
-118
86
-111
9
-16
36
-33
27
-34
-109
104
115
-85
34
-17
102
-36
-36
-65
-93
63
-29
102
-43
78
-39
-90
122
5
-44
44
-111
81
-118
86
-114
99
103
-66
83
44
47
-84
64
-118
-102
33
-49
-6
-21
-7
-102
107
49
37
112
0
107
-85
-7
-23
118
-9
-40
-108
-113
-39
38
24
123
-119
-33
115
-125
8
-50
47
32
-17
-18
-5
103
60
89
67
-91
-28
-34
19
18
-57
51
61
29
69
-45
1
85
-8
-67
-42
-46
-77
17
-39
113
111
74
121
117
3
86
41
-108
-49
42
9
-48
24
122
84
75
12
63
70
0
-74
119
52
82
-102
103
36
19
85
-57
-128
-119
-46
-86
86
15
-54
-104
-91
9
-21
11
-58
34
91
-42
-121
0
-128
-46
-77
109
80
117
120
-90
11
-47
71
31
124
82
71
37
76
64
-61
-55
-119
-55
103
82
65
107
109
2
3
46
-22
59
-127
83
-33
52
109
-10
-4
-13
-103
5
-61
-109
52
-90
-69
-27
72
61
-66
28
-90
88
-65
68
-123
-71
-15
74
47
-121
-60
-8
7
60
-128
26
48
112
22
60
41
124
-26
-48
-69
-59
12
-81
-48
-57
50
-73
-1
89
-48
-117
107
40
62
-21
-100
45
-37
13
-26
19
29
77
-115
-96
-38
-81
-75
-6
-86
-7
-55
-27
88
69
-127
66
28
29
-29
-18
10
-82
103
97
-29
53
-123
70
31
-90
-109
47
-112
-88
111
121
-55
-102
57
-91
-118
-97
-93
45
-3
-123
68
-128
-114
49
-116
96
-27
-101
71
31
105
74
65
49
41
-91
-112
118
-122
18
-116
-127
110
52
-78
-54
-90
-122
-85
-51
-70
91
10
124
-90
31
68
-54
-57
-126
-52
-62
99
-21
-9
-108
-108
-17
46
-13
51
-107
55
83
20
-67
20
-38
121
-14
-54
-50
121
91
-55
-118
97
-64
-32
0
91
108
35
-88
45
-27
67
123
-42
-1
15
-64
60
50
57
-53
5
-10
-38
-71
101
72
-42
123
32
-122
65
38
-25
91
81
-41
-95
-7
-121
-46
-99
-128
29
37
75
-4
-19
-98
-100
101
-125
-42
-33
17
30
-97
-13
-32
-106
37
79
-81
117
5
113
-95
101
94
-82
78
-87
26
36
-85
-83
-6
20
-20
88
-5
27
-92
7
-112
40
91
-38
-8
-26
-62
77
101
-18
38
35
-67
119
39
-2
8
48
-90
-75
-35
-2
-84
82
-18
69
-24
-31
-52
-83
-101
-4
-2
93
-31
101
56
-101
62
-103
57
-89
-75
-43
-118
62
-124
94
-71
-7
-26
84
-49
-72
-49
-71
-122
100
-98
-76
-32
-80
-47
76
-78
30
-57
-47
43
39
-46
-93
112
75
-26
18
-106
-28
35
114
-69
51
-101
97
31
48
-122
5
123
-54
-41
-27
-94
-126
-17
6
2
39
102
80
-36
-110
-60
9
-123
-14
-53
54
-125
-27
-91
-60
-22
-1
98
63
111
124
59
69
3
-108
-78
7
15
23
5
-83
39
14
42
8
88
-57
-13
5
12
45
-117
102
-102
30
-7
-110
-114
-49
47
95
-90
-81
66
25
-100
-66
-69
78
113
-45
-109
124
37
48
-108
32
-82
-124
126
34
37
-9
-35
-64
68
-35
-120
42
-80
17
45
64
-87
42
-127
67
-31
81
-77
-31
42
-95
15
-2
111
101
-90
-45
-118
28
65
-36
-24
-33
-97
-120
7
126
125
-117
73
39
33
-71
6
-48
45
-30
70
20
-103
124
20
83
-108
-10
-71
-18
-87
85
96
-6
-32
-7
-84
-66
-50
79
-24
50
-8
-57
-94
-69
52
-60
29
-26
117
-77
4
49
56
79
38
12
54
-93
-116
87
51
-93
-21
-5
-68
115
62
-88
63
-14
89
52
9
-72
-104
-109
61
18
-89
50
29
-37
-77
-82
78
-70
11
105
-108
-21
-55
94
60
111
43
126
38
11
17
9
-69
38
-119
40
24
126
28
-114
-35
52
-57
85
-95
-73
79
-4
-31
-121
37
-29
85
-118
-97
-79
-2
-43
82
-50
83
-18
101
-85
0
85
102
-118
67
-91
-107
-56
48
-5
57
-51
-110
3
111
-125
116
-14
-33
4
23
6
26
68
8
-4
-5
49
-45
87
68
-2
-46
15
-113
-97
-27
-127
12
-84
8
64
-83
113
-108
-90
51
73
-50
-12
7
-22
58
-61
118
-13
3
19
-109
-37
-50
31
53
-101
-100
-53
-31
-100
-113
42
-99
-58
-60
-106
17
55
13
81
54
88
62
-29
81
62
-47
6
89
105
-100
43
11
97
96
99
-35
-94
-55
-61
108
89
-80
16
22
-76
-38
-39
24
53
-125
114
-122
120
36
-15
-103
91
-50
-37
-119
-117
-66
-26
108
34
-3
84
-113
95
-55
-31
-18
105
79
68
109
70
119
-58
120
107
-100
92
103
-25
-89
103
-94
19
73
-81
-9
32
56
31
-62
51
-48
-15
-120
-96
-63
-88
-57
-122
108
-106
41
-118
-87
-90
116
-11
105
-69
-39
70
-9
-22
109
-65
-93
-114
82
-27
-108
-33
-10
3
-103
36
-75
92
-104
31
-19
8
50
-45
85
62
38
118
65
-111
12
76
-30
-47
-107
21
97
79
103
-26
-78
-6
-6
51
-72
-67
37
-4
32
70
8
16
47
64
-118
-38
-47
-55
-69
-122
75
-22
108
-19
20
-114
-105
-111
-80
-25
48
-22
22
-30
126
12
80
-100
-98
-16
-55
-63
-80
-82
0
104
49
102
-58
-4
20
-41
-29
7
90
-109
-26
69
-6
2
123
-103
-82
32
74
4
-94
104
34
-11
62
62
-34
119
-34
95
-1
-94
-121
-68
-110
119
-33
-95
24
-114
-68
55
-78
-52
-19
30
59
-20
116
68
-78
-120
-5
-67
-25
-67
59
-121
-58
-21
48
-124
66
92
-3
-31
-121
87
-105
-98
121
13
96
122
56
63
87
-59
-12
26
-81
15
-57
-95
12
25
80
-30
110
-53
-37
3
-128
-100
-6
59
2
-126
-8
74
4
-67
-88
124
57
-119
-22
3
70
86
-74
17
-72
-128
29
53
-60
84
-60
48
38
-41
-118
99
-81
0
-61
-60
51
-3
-100
4
102
-102
64
-79
25
38
79
-8
-52
88
-76
46
58
124
-11
-89
-88
-55
101
-7
95
-100
20
65
92
87
114
2
-113
100
10
-98
37
-16
-40
81
61
-11
80
123
-61
88
-79
-118
71
10
-108
59
-71
-27
-24
-7
-68
68
41
86
-48
-96
-106
-100
-120
-1
114
-126
-106
73
-118
85
-27
-30
1
48
-110
-53
83
-108
3
-29
-51
-92
116
-101
85
-72
-5
88
-111
-14
-15
-87
-78
-19
-16
13
121
77
123
41
111
-18
54
-83
103
50
-19
99
-78
-13
21
-37
-34
53
101
-68
-42
72
6
90
-105
-112
71
18
-39
122
-118
-118
41
100
45
-4
60
97
-94
13
-10
-118
66
108
105
-37
-113
-79
8
48
-43
-91
-94
33
76
-121
-26
-42
-87
48
26
65
-13
25
106
82
93
68
47
-54
107
104
-17
-20
-74
-22
-116
23
0
0
7
-17
76
4
-43
-73
26
2
32
-5
52
24
105
-34
-84
-127
25
-21
-59
-69
-87
73
53
30
61
121
-17
-68
74
-31
89
-85
7
-70
12
54
-22
42
102
35
-100
11
36
93
-110
123
-29
85
-47
24
55
94
95
-29
-75
-126
-49
-81
-115
-39
88
-115
63
-124
-65
-106
-113
61
97
-58
14
48
-67
-37
-56
-127
105
-82
-128
-84
-107
-27
-128
-67
19
58
39
-106
31
-88
89
-81
91
24
110
3
101
-14
28
-13
-32
13
-83
-5
8
-99
-121
94
-44
-65
-3
-1
-36
-4
-40
-70
-105
108
-4
67
72
-91
-1
18
-12
19
111
12
-98
-117
-72
-26
63
88
-63
61
80
67
-105
-36
-38
66
93
90
-81
-84
82
-23
65
-55
-58
-12
-26
106
-90
-90
55
-46
-109
2
94
-115
51
-51
87
-100
-101
-76
-77
45
14
-99
-40
-40
-110
111
68
61
82
103
43
-31
-66
-42
-123
-33
25
3
-86
-47
-9
73
-92
25
101
-66
-5
-86
-88
-115
-26
50
14
88
52
-33
-40
-11
32
28
13
28
-6
25
-106
-50
-86
-105
-67
-94
120
-84
-120
52
-45
64
-97
-15
-101
-18
37
-57
51
25
53
20
108
32
72
4
92
8
-92
-3
55
84
13
-76
-57
93
-37
-92
75
-11
45
119
-30
86
86
79
31
-21
100
71
-121
80
25
0
38
-46
-93
126
-60
-38
-59
-67
-64
77
-47
46
2
-104
-39
57
61
80
-50
37
-64
50
-14
-73
101
35
23
-48
-39
56
-108
-33
-46
69
-106
10
-34
-24
-16
90
-4
-82
-113
93
91
-75
28
-18
-12
0
66
114
-3
61
16
-13
-14
-27
106
-13
-60
-82
8
67
-6
-105
67
83
-1
-21
31
-106
105
45
-71
-119
-99
75
38
119
34
-109
50
-48
-22
-57
97
-94
56
107
-119
98
102
84
35
-16
95
92
-66
115
116
66
-5
56
-58
-67
-76
-5
-57
58
109
-85
-118
-78
5
-52
88
45
-14
-98
-86
-83
-123
13
-21
-126
-2
-101
73
-80
99
-48
3
-123
66
-99
99
70
-44
-23
24
-58
-3
75
-59
-81
57
116
22
-10
52
-84
-81
81
43
-54
85
-43
-124
-30
-52
-67
76
-105
-47
93
-53
11
26
39
68
-6
20
57
-118
59
-47
54
-1
90
13
-43
-70
-2
-34
31
60
75
55
6
34
-46
109
81
74
28
87
-85
87
47
27
-53
-6
-25
-38
-31
-22
101
-83
10
83
105
27
63
-124
24
-94
9
-104
-49
-102
-27
-28
-96
-113
96
-10
-12
-106
18
-3
27
-74
10
-84
84
76
102
63
-116
11
38
124
-102
58
72
44
-70
-96
123
31
-85
-78
77
103
-32
46
-115
52
-29
69
43
22
119
-79
48
9
-27
-124
94
-56
99
-20
-108
12
45
109
-11
-10
6
-67
4
-43
44
26
-58
70
11
75
38
-14
-10
-42
32
-17
-96
60
-33
-30
87
123
2
61
-93
44
-56
-54
-77
100
117
25
-83
103
30
-95
-49
-36
-31
66
-104
12
94
14
40
95
83
-111
-24
-60
5
-67
10
28
-87
0
40
118
-69
79
126
71
65
-125
-53
103
-35
119
17
-27
2
-46
124
-34
-102
-127
-118
112
-106
-21
80
-82
-10
28
124
-28
-90
1
-3
-80
8
109
9
99
-54
9
-95
-40
-78
-106
-20
117
6
124
96
-113
26
-78
-113
-82
36
14
-96
-100
-94
-105
-53
117
36
-6
-34
59
55
-127
22
-125
83
-104
-107
-35
-6
-47
-56
-95
120
-128
70
88
5
-68
119
-43
-43
-46
-49
94
-116
-17
5
108
-127
-47
64
45
46
31
-90
-6
-20
-30
-52
2
71
-112
-51
28
55
14
64
45
-54
-118
-47
107
-97
113
79
-2
42
28
97
47
108
34
-19
81
-33
-19
-74
-45
-47
-16
6
14
-114
-86
-3
-47
33
11
62
71
33
114
-92
-28
-6
66
-38
-28
1
-21
-34
-63
-33
74
-116
-92
81
-27
-46
-13
-14
-97
63
-74
-128
59
47
104
-127
-14
-41
-46
63
-75
-76
72
0
6
-115
89
-118
-96
-16
59
-43
-77
-9
20
40
115
62
45
-61
96
-66
79
11
32
-41
-124
48
112
-103
-65
7
42
-90
-14
-38
-88
-45
114
-31
40
-128
49
101
-17
-117
85
125
-25
6
34
-77
63
-69
-45
-65
-80
-100
41
12
38
-85
-75
-87
-67
-68
-29
118
-41
14
-116
-40
-98
-123
4
60
-24
-29
45
47
80
-82
-77
61
-70
-17
-60
62
-12
-35
-23
67
33
81
50
-108
-60
-34
-50
102
-76
11
-9
-99
124
-63
-127
112
-30
-124
-100
116
106
103
8
45
-58
63
94
70
49
-14
109
-25
-105
-85
-55
-38
-121
-120
37
8
-80
82
-44
-21
-68
101
111
-123
78
45
64
35
-92
-8
-65
81
-78
65
-125
-9
-109
-108
-14
40
53
-9
44
26
106
-21
13
-65
-112
-89
-19
54
-55
-37
103
-65
112
41
96
79
50
95
-45
-45
11
-17
6
-59
75
-57
79
76
-104
85
-128
-44
73
51
111
-3
14
-68
-36
112
-14
75
-68
-55
-22
-128
69
79
-87
92
75
37
14
36
98
42
39
73
47
-111
-87
120
5
47
54
116
-80
-13
6
-91
-70
-57
96
99
107
71
8
49
73
-24
-63
-77
18
-18
-78
-25
125
-20
38
-43
-86
-100
56
-28
-65
-50
10
95
-53
-87
-31
-117
75
-100
82
-13
-88
-41
-115
17
-113
101
65
-11
88
-31
-100
-37
116
-100
-72
101
22
-112
-9
122
-90
71
-13
-39
-104
-5
-115
-121
104
-22
-101
-23
-42
106
-104
82
61
-34
-18
-88
109
119
-42
-100
-54
-13
124
-28
15
-53
3
-55
-85
-64
80
-88
117
122
110
-93
122
80
115
-109
-114
-21
38
-53
-128
57
-83
124
-84
46
53
94
-39
68
-117
-101
-125
23
49
38
-68
-5
67
40
6
-23
-91
-29
-96
-23
-128
-106
-9
-91
60
-50
47
-68
-2
73
-46
72
-89
102
-107
-1
-121
52
-64
-16
41
102
7
-29
-46
-68
-2
105
-37
99
-18
69
-31
111
-44
99
119
-83
109
-101
113
-106
25
-60
-108
-56
-81
68
-64
-9
19
124
-117
-47
94
50
-50
30
50
51
-70
36
-25
92
37
-94
90
-121
33
86
99
32
49
-4
-106
57
111
94
100
-113
-18
-29
-101
104
13
34
-59
-45
-50
-74
85
34
52
-19
81
-64
-110
-68
-23
76
-125
38
27
-50
-91
98
-87
67
-87
98
9
-93
-83
-58
120
-21
39
-22
-66
-54
93
-20
55
-15
-33
-81
22
-121
42
-52
62
-59
-102
-4
-103
60
-104
-75
41
-59
-60
-122
-117
50
-60
-37
-70
29
-123
3
-117
123
63
33
-2
-87
-29
6
8
-91
3
13
13
-30
-24
24
-36
-53
101
12
74
-18
-64
-67
109
106
96
75
-30
-19
-25
-41
122
79
-120
33
-49
-84
-53
-43
-46
35
19
-35
-37
-95
5
80
1
-83
-10
43
81
-72
-116
108
-28
-71
-19
112
52
-48
-108
-125
-126
-37
-89
17
-42
111
-27
65
-47
114
35
91
107
-74
51
117
111
-68
49
-62
3
107
-15
84
61
-115
26
126
11
-101
-66
-36
-26
115
-97
-24
28
-52
-105
-50
-50
-88
-81
-35
-6
-93
-79
32
-62
75
-23
-84
80
-61
-23
55
65
6
-3
101
97
68
-68
99
-35
-43
-50
-119
-56
-28
-5
115
122
13
64
39
107
80
122
60
-17
82
26
-84
38
88
-101
108
-117
-30
-59
20
119
1
-31
96
-103
-6
-119
78
92
-31
-71
18
45
-94
53
-101
-117
-100
-100
-11
88
7
-66
53
-12
99
-111
71
3
-121
110
-120
-58
-47
-120
80
40
81
120
88
-49
10
-97
-114
29
6
-98
110
-42
119
15
64
-97
10
103
-122
-90
-122
-53
25
63
80
-22
-103
4
-53
-77
-15
102
21
-86
-111
91
-122
46
-12
-10
24
71
24
-116
-77
-119
-126
81
115
99
62
69
43
-57
-48
72
117
68
-103
-71
12
48
98
34
23
111
-53
83
-59
45
105
-75
112
126
120
-127
-98
68
-8
25
-124
-104
-34
53
29
-96
-116
-39
-17
54
66
-41
-27
-11
-47
-84
-28
-46
-101
73
-26
-62
63
96
-69
63
79
76
65
-57
68
81
93
-107
-47
-48
-7
31
-125
66
-2
2
-103
14
-61
83
40
93
117
93
21
74
-4
1
104
62
96
-118
-110
-71
-76
35
-123
-66
-7
85
-3
21
76
-104
-56
-26
116
100
-93
68
-91
62
-3
92
112
110
-78
35
-6
36
49
93
-66
-77
-86
-36
60
104
22
-52
54
63
73
-112
92
-111
91
-40
-69
16
-20
51
1
31
-116
96
112
6
25
7
14
18
-56
89
93
43
-61
-63
26
72
25
104
-102
-92
54
37
28
-52
-85
-81
21
-3
-93
-91
2
17
-31
-115
12
-75
76
73
-16
-16
-95
103
-62
-76
41
69
119
14
-117
35
34
-94
93
-37
-112
92
121
-113
10
-42
-29
23
-13
6
-20
-63
75
-35
2
46
33
-42
28
68
-34
19
87
28
24
-112
-7
-100
-6
121
-63
-1
89
-124
-23
-30
-39
62
69
51
-94
-68
-65
42
-51
86
106
119
67
106
-111
39
76
59
114
113
-72
94
103
-46
113
84
-71
-114
-96
0
-93
27
107
76
2
-95
59
-69
48
-23
-72
-53
-126
5
-122
67
-62
14
-17
-7
46
108
-72
46
-45
-80
126
32
79
-43
-51
5
-58
95
126
126
-74
-87
-43
121
98
-120
-108
-65
-42
75
91
37
88
9
-1
-62
-27
-128
62
119
-31
107
42
-109
79
20
6
35
-69
25
-72
18
121
12
-12
-23
-57
-85
-65
-120
10
-68
-72
11
-80
-12
96
38
-68
13
90
-24
-20
75
-49
-92
-123
17
31
104
10
109
112
90
-11
70
24
11
12
20
121
-11
-76
-33
-46
15
17
55
-121
112
0
12
52
114
-16
-5
-40
-66
34
-106
32
124
-70
-66
-24
-42
-28
110
-119
-114
-120
-67
40
-103
75
34
-79
11
19
-120
-16
-60
-61
-78
-48
73
26
-78
75
-86
125
-48
-51
-88
116
26
42
31
112
78
-2
61
60
32
56
93
36
43
26
-77
18
-78
98
-117
-117
71
3
89
-61
97
67
-82
31
-83
-24
-19
-101
57
-86
29
92
99
-43
43
59
-109
-94
82
-62
-107
11
-125
-94
11
-44
-72
4
-90
-120
-5
-78
-97
-87
-74
7
85
-66
28
-122
114
96
-13
-85
-114
23
-71
-6
107
113
20
111
-111
55
3
-31
15
91
93
89
28
-52
-89
34
122
33
17
83
27
-62
-90
48
51
-80
24
62
87
39
-34
-112
-102
14
-37
-84
65
18
-2
-86
-107
-49
-95
-82
71
68
57
-82
-93
-81
90
-100
13
-109
33
29
86
88
-45
-75
69
104
-112
4
-97
102
20
38
99
92
59
24
57
105
-2
-94
-72
-83
-105
87
60
22
-5
-76
-79
28
-91
39
-65
121
81
-126
16
29
108
-73
91
88
64
-59
20
-90
-63